[[[0.07393006151757454, -0.042883031351393625], [0.8240115071181578, -0.0051627006701813185], [0.3653821334978278, -0.002063233708675309], [0.22554931214590437, 0.0591648107918352], [0.5464074694616152, 0.012730112914612367], [-0.1918042202709432, -0.04357114578673396], [0.5322760296407536, 0.011226806940664536], [0.3090209961754736, 0.02065420798173244], [0.7309139802762041, -0.04211617811011007], [-0.11508958950816175, 0.13380296581790146], [0.3401286025445216, -0.029521323856975847], [1.0819715084069352, -0.0015011688856119], [0.8583832148127155, -0.023959998455692688], [-0.05954697362302601, 0.0066108639470113095], [0.5928175073346281, -0.06840477762009708], [0.9147625925500101, 0.024785035586880007], [0.45100351442599085, 0.026665425415815968], [1.8557383047251523, 0.028230951335366482]], [[0.8848836543696607, 0.04977695097864454], [0.13982292918360048, 0.0033451142253015246], [0.07831339624512383, 0.0027140815238829853], [0.20932262198245957, -0.05575216614275604], [0.4834358243823462, -0.012701131574684606], [0.9969593718707185, 0.025944873346162748], [0.7551563527696137, -0.011454046594692464], [0.47655185867905936, -0.03296079146042375], [1.060122330718779, 0.051429810568380724], [0.7897064222769656, -0.1332732333271986], [0.800315992947885, 0.038109150102419956], [0.6526307943609863, -0.005560272371214186], [0.227159507912996, 0.028722700186826433], [0.9744132082146717, -0.01282832647774919], [0.6851158217507345, 0.07061501881714659], [0.7685294348329728, -0.02934541797084098], [0.6358260095468149, -0.025391441428269386], [0.7951880619164277, -0.016428633202211624]], [[1.0833778294649354, -0.03899903956878268], [0.7906219045683538, -0.00451352744142063], [0.10763754815149555, -0.004563682635881137], [0.6323931585208576, 0.06420262146254521], [0.530433892964654, 0.01256385432372755], [0.36654918389022706, -0.0398473956864849], [-0.33092761119702246, 0.00960050804924895], [0.9863157479478204, 0.02461018694356536], [1.0265101455125156, -0.04345437598779165], [0.6536221822109496, 0.1474501609916783], [1.3046723494585795, -0.02634477516770557], [0.2775976924919752, 0.0003181049637553912], [1.0515746811000628, -0.024103180080388142], [0.955666884163644, 0.008532685182635205], [0.2483302426468883, -0.0714328273002034], [0.9596286659664339, 0.027225986024109007], [0.4961227537604448, 0.027381257236420226], [0.9504503608312453, 0.02373110615861295]], [[1.2833046586104948, 0.04434355096881996], [1.0864864088416797, 0.0023925950252894866], [1.2208631668897847, 0.00041638337411487925], [0.6499384261138026, -0.04271709116269868], [0.8699393782884906, -0.011531043227065328], [-0.05005698957059621, 0.01353239556866994], [0.30494169627678724, -0.010644140344023917], [0.5388924947620151, -0.028487274978761502], [0.37775190521578145, 0.040708961900758865], [-0.11395979018664373, -0.10040659052198089], [1.2020019033305176, 0.0506200774874694], [0.6791416724863889, -0.0023052219345911645], [1.3675531611727112, 0.02143823762066672], [0.15049176246660573, -0.010734609312492588], [0.753005054049146, 0.06596627242899888], [0.40410460513723434, -0.023502566082182087], [-0.16437393916562495, -0.02059374696116008], [1.1614010040723826, -0.008214249738471922]], [[0.8758949354285539, 0.049664673753767735], [0.30132707347092397, 0.003513903513508665], [0.6928402372821314, 0.004133314870318813], [0.5482599681410567, -0.05667443252700764], [0.06868197138398059, -0.012132431536689707], [1.1623204593263994, 0.028399178622646647], [1.0014170042873092, -0.010471654592162946], [0.1920659129499805, -0.03362244152304349], [0.43587940866102715, 0.05156520811477004], [0.39280158780269553, -0.1371795577814205], [0.8104136941146212, 0.037859540538839845], [0.5563331743689749, -0.005479928011740675], [0.5241075000074789, 0.03064015343360077], [0.7525645593887829, -0.012973040875800156], [0.39748550253207066, 0.06978427638684359], [0.5618390091769838, -0.029486073171603552], [1.037596118005987, -0.025024557667696706], [0.4979381268308787, -0.01447207840540534]], [[1.0261084390068744, 0.05371837942201895], [0.7685626516872135, 0.004562890239281414], [1.203144846234637, 0.0036923878262451948], [0.6090043144200491, -0.0513278861094372], [0.13056182844370745, -0.011615466796433662], [0.9159876992973685, 0.03434459125459488], [0.7967157724259741, -0.010332476180042125], [1.0121331256161263, -0.029093638209872378], [0.6335749669937464, 0.04921442490247825], [0.47745475853714925, -0.12340780355534764], [0.6302167801354844, 0.04039578664619215], [-0.05366995860094855, -0.0027917177468204015], [1.097515419494019, 0.03294763975873202], [0.3559966989587169, -0.010622394283599991], [0.7068436356432112, 0.06374326803900311], [0.6338036278376417, -0.02626634804741675], [1.0884513973166705, -0.023400488701232444], [-0.12744596640442843, -0.017909019758103894]], [[1.2059240147829287, 0.040084268099571774], [0.46923370939002923, 0.004210985823335582], [0.0003507820207550188, 0.002185549450269196], [0.5652792078440376, -0.06343282330319919], [0.6435112836663025, -0.013428983568704363], [0.14837266366247337, 0.038968265943747554], [-0.1660903113114523, -0.011350651709968062], [1.1627709170898226, -0.024417721398562086], [1.2139623011065797, 0.04365666318964335], [1.4150166570168246, -0.1448419460569315], [0.9460308585579946, 0.027197075388829803], [-0.18934555946213624, -0.001085599176017331], [0.6490091643567629, 0.022181327891334757], [0.9925359159224176, -0.008585570050772623], [0.37883948886830976, 0.0731095705007927], [0.6532460215593654, -0.02758736553982569], [0.06281172248066266, -0.02797973057203998], [-0.29424544852368323, -0.026040373651254608]], [[1.0133287150352568, 0.040058037617235816], [0.20328942403198821, 0.004344516956931684], [0.8653029142233621, 0.0025848157870105824], [1.0390171167000837, -0.0633557138536141], [0.2543559986683768, -0.013159228751450473], [0.7104506645582785, 0.03844439246523474], [0.40573361543534203, -0.011140185277898885], [-0.131355645435379, -0.024275399340471633], [0.5502015105835334, 0.04355951250065401], [0.4456172390655041, -0.14516095774892257], [-0.11665171123820832, 0.027117941344050225], [0.7565076147633722, -0.0007674834315192056], [0.896894186637697, 0.022647077092190836], [0.5211233145855745, -0.008684323166394536], [0.8068762274190457, 0.07304530338304512], [0.4642751927529428, -0.02739561826444303], [0.8987406784468956, -0.027874735418816826], [0.8359665973056903, -0.02556233443326849]], [[0.5086928367035344, -0.0491272024105288], [1.5461147425632447, -0.0037320646164796466], [0.7951899885281511, -0.004434280836862144], [0.6383474997554205, 0.05618744616118934], [0.7025186685002286, 0.011872141133767595], [-0.5642296604552711, -0.028121064099332422], [0.17425092441091783, 0.01018219127436567], [1.371648657010791, 0.03313362630936132], [0.0338668017050632, -0.05144133423659584], [1.988052566806195, 0.13642544918727967], [-0.2836738653349774, -0.03777669154062546], [-0.15766063177499723, 0.005074564408859349], [0.46100601901227684, -0.03068538622198596], [0.6605904087030227, 0.012808923549353883], [-0.014001384840345368, -0.06965621799673966], [0.9168159159323424, 0.029093190852074978], [0.6449820083799512, 0.024965385311378346], [0.2953520049483679, 0.014405193660876659]], [[0.9722057021323767, -0.03958069120903129], [0.705903102832786, -0.004506048747168618], [0.12366340588313608, -0.0045335296944764205], [0.6107057974018407, 0.06370454867837469], [1.0609817842388367, 0.012540172917202726], [0.7393726042471385, -0.03954852314993575], [-0.17275114579754963, 0.009620862108622764], [0.759408409927301, 0.024806170816274346], [1.1697246080522326, -0.043674448724443204], [0.4250750180948601, 0.14648724015270242], [1.227220335823988, -0.026874306311246203], [0.10899549426838469, 0.0004380782507869071], [0.7971467518683886, -0.024441105967354614], [0.7982792731887998, 0.008628349117888763], [0.05200014478478811, -0.07112810224481593], [0.31804576639926874, 0.027201316288463742], [0.218544931453248, 0.02722507591615074], [0.7131504824317204, 0.023513997906623924]], [[0.36188243297282624, 0.04459258852362037], [0.19776657793676966, 0.005446571094627081], [0.6136594196698049, 0.003492057483628884], [0.6072391260291676, -0.059680050789282124], [0.6241831044233925, -0.012093134227814844], [-0.690667043263186, 0.048750899765600764], [0.2186083422530508, -0.010186950676684023], [0.0839023643686245, -0.020888245982707006], [1.1204194408731514, 0.04127489389955133], [0.8024665963247162, -0.13757365737436517], [0.40956336174950686, 0.029504935534077202], [0.8472409473827281, 0.0017339763872363649], [0.8250699315997752, 0.027504639565504675], [0.6581136566231258, -0.006594673581663198], [0.9558474239993023, 0.06603840525324264], [0.5213283176349613, -0.02467753582176799], [0.3797225039636694, -0.02584644496564397], [0.8400209894528615, -0.026479941553546667]], [[1.1014450915235765, 0.04945709133090212], [1.1143143565489109, 0.003346428209557035], [0.739827350307459, 0.004314974663722542], [0.13972970213921218, -0.05623081526294398], [1.25241319374347, -0.012255727470270619], [-0.9482311786005272, 0.026501257750910463], [0.3628884745061057, -0.01011472537091129], [0.5073179033081343, -0.033540938828766964], [-0.187058355762911, 0.05067965652616833], [-0.11466361088033528, -0.13531291736574852], [0.04825128846640382, 0.037828482226472594], [0.4835239084098615, -0.005495665703273485], [0.655789121016795, 0.030338970635331676], [0.7020139639041783, -0.013032149036641322], [-0.3313085787255418, 0.0691981293764017], [0.4912570630092508, -0.02931876541562235], [-0.03719458528222568, -0.02472678283399382], [0.9528870798754173, -0.01433153123630991]], [[1.0427341441508153, -0.0440934861925136], [1.1651693059833383, -0.00533959138101083], [0.9959831393358631, -0.002355145105477396], [0.06470528547846129, 0.0583685577225596], [1.0938863653061652, 0.012542424277665092], [-0.5413305725398727, -0.04528267434801934], [0.12841064606894304, 0.011003158545064576], [0.8278692333509889, 0.019898213662191418], [0.21379452322362474, -0.04169933493995205], [-0.07364026249200742, 0.1314846019562727], [-0.043935187748478044, -0.030404655281502904], [-0.2658846481455424, -0.002146004391707399], [0.9944452232914659, -0.024909424009556043], [1.2487517882846704, 0.006180570760902067], [-0.006869802495483281, -0.06692825331087086], [0.3584117434823726, 0.024117729957777344], [0.1565513796285688, 0.02608460327628237], [0.5643497659235882, 0.028504233376510972]], [[0.5019422930870776, -0.04427382923943276], [0.4287322459346257, -0.0052892176150170014], [0.5911064899876737, -0.0019396747773600118], [0.08033820274669085, 0.05808156247455839], [0.6178432007813438, 0.012813877462185107], [0.6666838052602965, -0.04457884351621513], [0.17862012777709013, 0.011101894024386364], [1.3047833528756707, 0.019857806615710308], [0.7547115562684409, -0.041095674946443166], [-0.01141942334351731, 0.13116171047651198], [1.3016546589856433, -0.029446089550311482], [-0.1547055634924625, -0.0017137949216729461], [0.7770699216766325, -0.024844673512554764], [0.6056485035425553, 0.006301088368084435], [0.755890425925355, -0.06669233565670506], [-0.16493533058531143, 0.024311258579301862], [0.004993670528496065, 0.02628649647363998], [0.33074837428905113, 0.029253152512723167]], [[0.8897395365694376, 0.02614977486983873], [0.7902559392673724, 0.0033336566428173358], [0.7344322013582096, 0.004094977102052344], [0.23552944709244922, -0.0490802723512654], [0.4646169830007536, -0.008647434494588907], [0.9969675095204162, 0.031960554986795245], [0.805627419210663, -0.006600480252505202], [0.8215408415444336, -0.017653285047726727], [0.4656931019947705, 0.03135949514981063], [-0.8185682997662482, -0.11390120770256268], [0.24843443477041724, 0.014418781487592881], [-0.1448710390489725, -0.0004265563912988616], [0.8880300189665865, 0.017728991521512288], [0.4999605400964017, -0.006224925245023043], [0.5753059563871716, 0.05145006217596797], [0.1724708169416076, -0.02014444872045506], [0.26047438894605895, -0.020158688106324263], [1.009958134993369, -0.017249398902465185]], [[0.8594620437358408, -0.05443225803553062], [0.7053596329551273, -0.004114347036181506], [0.9994690381137271, -0.0015388693006902249], [0.520592691405889, 0.049437714912708396], [0.8527000353546094, 0.012465456637819254], [0.4817491696278861, -0.03103550846906061], [0.98450769850564, 0.011607465132547177], [0.9036814410265626, 0.028541818226177122], [0.7930154054171197, -0.048130097206474355], [0.6770704375269684, 0.11750610985671783], [-0.10597142980863578, -0.04212378620932292], [0.7012099428357776, 0.0032971370573518276], [0.9408066387975365, -0.03053113936980376], [0.9449482569519142, 0.010662548800419348], [-0.1664046276198617, -0.06487513539169476], [0.782936083204665, 0.026090231431157802], [0.5752775553319422, 0.023401685118912274], [0.328789148546815, 0.019611408735873515]], [[0.284597023961631, 0.03899602893181087], [0.4301086237488936, 0.004594003618908559], [0.9479435012490883, 0.004807398188705951], [-0.6907091428855336, -0.06428363815364649], [0.4985166113638564, -0.012407928658580841], [0.8976753394441311, 0.04001874982942442], [-0.18591048264421264, -0.009476518980560993], [0.8673413494066394, -0.02459339413155887], [0.44348430578824294, 0.04352455219259717], [0.3262875834054647, -0.14806345471091786], [0.6069185154928045, 0.026553074069914064], [-0.4475959878107825, -0.00018151392539163247], [1.3434093340497992, 0.024392540217936572], [0.7119895275901323, -0.00859278694161623], [0.8271884805377965, 0.07164983374481804], [0.8971188050944481, -0.02715769252727751], [-0.36674997919885033, -0.027313507105858885], [0.3039855333457032, -0.023407175311491835]], [[0.5148422582270817, 0.0440459730156155], [0.7609172869968144, 0.005245667268184874], [0.17130240161689547, 0.002049082177048845], [0.5717153402912489, -0.05673824084340568], [0.8821536500938891, -0.012486000107591244], [0.41788860782866916, 0.04395941907143845], [1.4073630482599315, -0.010842297534064651], [0.9656143787610842, -0.019905052564582325], [0.409362599023566, 0.04104329914527892], [0.4266183805447226, -0.1289699658383618], [0.047780208870082636, 0.029827414839381058], [0.1109577187375343, 0.0015095969087208167], [-0.2648790048814628, 0.02489529910405334], [-0.09005633504913466, -0.006377742262635371], [0.19191686224756455, 0.06587138826987257], [0.19598403457096586, -0.023954382247164806], [0.8921450111697945, -0.02567355979844623], [-0.2958992857158768, -0.028296453759711435]], [[1.129006959234471, 0.039124811436788], [0.8271803475395227, 0.004391206640293417], [1.1290374481627963, 0.003580031754209733], [0.7356465567033841, -0.06364805304429853], [0.8013950047691744, -0.012990792788196311], [-0.8651115604315073, 0.038981326301062186], [0.6743868308857852, -0.010234526262556193], [0.6128056232620386, -0.02435533233098644], [0.4373024731719659, 0.043579524384941594], [0.5026924111623639, -0.14532363074145607], [-0.19427783855506398, 0.02672588814194176], [0.4518283986719354, -0.0005731743407174601], [0.46516682158172906, 0.02288666099296364], [1.13869180477528, -0.008429723372601635], [0.003384635625193755, 0.07215293688691585], [0.87280539732621, -0.027258578971068644], [0.19576008845569157, -0.027635968142294243], [0.3979228586737997, -0.025037667167873756]], [[0.3904910323608966, 0.05363298507342212], [0.9007430219780843, 0.004386570419080851], [1.0873710537304886, 0.003697682072509343], [0.4418960936055186, -0.05243734277510061], [0.6642991948514699, -0.011721272445417498], [1.2845639768004753, 0.03455077444278645], [0.9183110604400041, -0.010496193159606964], [0.8646732053144981, -0.02972383015325988], [0.49273720804991594, 0.04950452117711586], [0.4943660729658956, -0.12613574216351137], [0.27079382339610625, 0.04033930204925165], [0.12149860629895957, -0.003107749389707905], [0.9992043251356871, 0.03285232370307496], [1.1137762268109177, -0.010941298667982517], [0.058217628957103223, 0.06469829770960522], [0.9897250941112842, -0.0267632743652594], [0.41027850125638077, -0.02357011610969018], [0.37589216614527027, -0.017472375466237148]], [[0.12681047248293192, -0.040141185999955135], [0.3702249159014249, -0.004384081036752287], [0.6850953622753506, -0.0021983226353028593], [1.0790769012176469, 0.06329615773273875], [0.357454941271055, 0.013092051037863423], [1.1890359251835914, -0.039965475715883304], [0.5315700559381636, 0.011503039632853365], [0.2932384515279335, 0.02422256804937539], [0.12412155846547156, -0.04382010100552784], [1.1083153870060405, 0.1452856006090553], [0.3681554917529736, -0.02756230114277647], [1.2847170018567509, 0.0007147186040799551], [0.503554045029769, -0.022585814039478333], [0.015134675394600536, 0.008480960309077515], [0.026153246334287394, -0.07302199496243542], [0.9981226767507889, 0.027376813019396297], [1.0346460935261348, 0.027948772120194337], [1.114155509498386, 0.02544422586344244]], [[0.12321064196250486, 0.04229811204922428], [1.4351544660857607, 0.005121160192014529], [0.5402381917360067, 0.0015859070656734644], [0.840561774432223, -0.05377186067138662], [1.1452531407855486, -0.011657760959355695], [0.306825822860873, 0.042374846577621354], [0.4570609042941908, -0.010839675748063647], [0.8925470811417527, -0.01833002542568817], [0.3096602773886318, 0.037946651036400346], [-0.26851163419373864, -0.12190104406324388], [0.6463197757757139, 0.03322115475137587], [0.25790799338820297, 0.003065160386343115], [0.5226586074633361, 0.02333162467410742], [0.3595852733954886, -0.0056502801823129795], [0.7038775198128817, 0.06443703402139371], [0.4006219483055434, -0.022092780302510797], [0.38385383803120315, -0.024267076371950153], [1.178546560831494, -0.025007738108547235]], [[0.5969979194036699, 0.04304915036806116], [-0.16022825762733603, 0.0050825199457145325], [0.5268268348216062, 0.004358841347847262], [0.8790342376825361, -0.061178767487668186], [0.6831159002371906, -0.012204114689682685], [-0.7693131888839806, 0.04493345652067266], [0.4088717672455034, -0.009681968963301039], [0.5912037192405297, -0.022318970497142245], [0.7513650168825026, 0.04227673658469679], [0.6378002755446935, -0.14006465140786495], [0.19489867529805724, 0.02899453469853899], [0.8191309679408623, 0.0012157902294374625], [0.7634582986864306, 0.026615019202946094], [-0.17509591051188156, -0.0073101886823555085], [0.7972850830660004, 0.06757763737388363], [0.9167509306278975, -0.025432677477213353], [0.31212455163928515, -0.026067528507055737], [0.8874902284151532, -0.02521915889463629]], [[0.3918540493243079, -0.04024885559038467], [0.6631702648189693, -0.004480874785836744], [0.0782937391024131, -0.002614023672127933], [0.1712901045355102, 0.06337924538235125], [0.6444738158613643, 0.01277262519462733], [1.211241947341361, -0.03943850520367396], [0.7507896393674651, 0.011363101718283112], [1.143544198291729, 0.0244182932880349], [0.39092742868073366, -0.043994155115529225], [0.7641915817850214, 0.1462266661975045], [-0.39447226277129904, -0.027738082739588363], [0.06736345176105446, 0.0005455237882098554], [0.13738383709885504, -0.02323525167793299], [1.0848308277427632, 0.008734396399805616], [-0.7185651266697645, -0.07314529972831484], [0.8664533183248144, 0.027337802270257047], [0.7181090992178805, 0.027846920657251216], [0.3621952230678255, 0.02451226925107078]], [[0.6418853542636654, -0.04979532635377035], [0.3143978313656951, -0.0034817511458573366], [0.7155071615747653, -0.00450810388031562], [0.3274533741592301, 0.05665836311189986], [0.09363444399821721, 0.012213140488365581], [1.9675398758408258, -0.027916633436894506], [0.15046595803711202, 0.01006684603830529], [0.6287928564939503, 0.033656138285475284], [0.4710575711022137, -0.05131574217817084], [0.5067490084520405, 0.13701101875096006], [-0.20743244591793503, -0.037891620091389654], [0.6153214598697615, 0.005556417430962567], [0.2976059529286355, -0.030831109612947095], [0.7794928125868291, 0.013068629994671978], [0.18202866042562557, -0.06975202549755441], [0.4708213715449415, 0.02946751614009014], [1.1185816200210257, 0.024829012035367755], [0.9988721681495417, 0.014602199573223998]], [[0.7507725723829229, -0.05188452835056768], [0.8070738283905327, -0.004374961146525445], [1.3607298142294724, -0.002298168169801445], [-0.14372528324905015, 0.05085420513261285], [0.9987292830830611, 0.011977799802351563], [-0.26163059012454226, -0.03311502168515156], [0.04457275566557847, 0.011086636463466717], [0.9123856650408588, 0.02782492071160686], [-0.10251828236150584, -0.04781981062230563], [0.15145225670692652, 0.12105133185772696], [1.1872720739898788, -0.03893407806031073], [0.1946694247622408, 0.0027645080968842816], [0.7506144430103772, -0.030296723095934733], [0.20966596406911614, 0.010190843830507924], [0.42520281166870066, -0.06423134885463297], [-0.12220862608793635, 0.025937059075701558], [0.438858793545175, 0.023765648350667763], [0.6854367959390284, 0.01959489289833023]], [[0.652443996155623, 0.050161048361807764], [0.40153638263603075, 0.003465183798677309], [0.08253026163341437, 0.0022042201251933824], [0.8361136379885946, -0.05553504256828421], [0.01445143943805162, -0.0126426750526621], [0.48797200743479757, 0.02686483974650733], [0.11065132059672554, -0.011880360515963516], [0.5401082803024357, -0.03280035932451868], [0.6297853099171901, 0.051394570673937365], [0.3698128267133334, -0.1340273275125147], [0.9902860014448864, 0.03822741668750971], [1.0254352653508818, -0.005654478043418853], [1.077580049431373, 0.02893882535133907], [-0.025569138777365517, -0.012891222158326996], [1.4182429562454588, 0.07110491174648961], [1.170168393989379, -0.029380277294654998], [0.8001769476623412, -0.025565275737316012], [0.6155561550403084, -0.016599097517323504]], [[0.8256031416175144, 0.043344811868703856], [0.6873804460906056, 0.003054517919732499], [0.528311483061499, -0.0006367158549003154], [0.040268749257306065, -0.03062264436993397], [1.120849623958404, -0.009484257600080577], [0.9240137530018653, 0.015907932075751613], [0.1661991205937735, -0.009611340379305802], [1.1535531519880642, -0.020769134414721425], [0.5652086684247045, 0.03315846746922111], [0.7607563579012105, -0.07106450701024378], [0.9560859562452119, 0.051040306178972296], [-0.3226131161228899, 0.0010790280147172206], [0.9782361121234552, 0.020572908786035255], [0.830490591588394, -0.0071276291862523], [1.1158302439292505, 0.05280990311346548], [0.33283242361576876, -0.0170194919266093], [0.4530931815003708, -0.016099848618278047], [0.4609220967969872, -0.00862716299220961]], [[0.268070730468149, 0.04360073920647805], [0.26528234574015586, 0.0056344803895145585], [1.4228286571519038, 0.004102267496410844], [0.4971820563800495, -0.05928993988220705], [0.6433204217212734, -0.011739232523161593], [0.8400297061895202, 0.047485404976586466], [0.7309946784991157, -0.009796459234061323], [0.9492498479303226, -0.020337809596074702], [0.12953372875826366, 0.041529783600898214], [-0.36261030425226065, -0.1357040958223794], [0.1704971973691793, 0.029658086051984257], [0.7018704925723418, 0.0025486947598586883], [0.9292264795513541, 0.027120426320892253], [0.8157304298469017, -0.0062833663575888755], [0.5707976822094993, 0.06571932436580401], [1.1629744600411833, -0.02408131049653176], [0.38496257510630305, -0.025711823100497605], [0.3600316949596063, -0.026156982664576573]], [[0.04590563360419996, -0.048595063307143326], [0.6701677779152695, -0.0030009459756406734], [0.2996185496266816, -0.0016958172244432885], [0.7538037330710394, 0.051639459082376], [0.12579685029910984, 0.012552646254287184], [0.5289707410311737, -0.021634395100384018], [0.8315539755314961, 0.011374723722192445], [0.012515036233671437, 0.03168460939065981], [0.2125723479648281, -0.04796910152441929], [0.8936975871066607, 0.12318193493176458], [0.8295253965710632, -0.0416276474102088], [1.1601506981469143, 0.004917756490382896], [0.40391575867294993, -0.026556365983448238], [0.790188057703917, 0.012383928543528995], [1.3179138447311878, -0.06932980969815701], [0.43501554279581767, 0.02774689922256328], [0.2529683528737686, 0.024039275591340472], [1.0212079134034202, 0.014442712598761573]], [[0.7810448510154651, -0.04377321724823258], [0.6161163278290918, -0.005292898804238367], [0.8134556778600092, -0.00412193173688577], [0.234341916815544, 0.060217141571673446], [0.8563396776729159, 0.012211479823363647], [0.6838828377856543, -0.04721164333183539], [-0.4088404635994918, 0.009700091452326125], [0.5797211667975437, 0.021238404583905423], [0.8304981847230616, -0.04178391845280701], [0.45264179716364594, 0.13742522474249771], [1.2806120741270388, -0.02967309323552751], [0.08581902584231597, -0.0017529332902654722], [0.7140683887732243, -0.026810488581812546], [0.5065607883268379, 0.006649630578774225], [0.9543560816834029, -0.06657395021146195], [0.28141330907347223, 0.024767117820426503], [-0.2107920221623586, 0.025769136241792417], [0.9024416992510943, 0.02635262930328523]], [[-0.0295507102405519, -0.04299151868903754], [0.7864193756335937, -0.002384403664673919], [-0.024331718352199348, -0.00037854451263651893], [0.7840788152967301, 0.04049936706907267], [0.953668301441497, 0.010962163823405433], [-0.6034087354547624, -0.012626782818179045], [0.45474649885871465, 0.010393917574130343], [0.9192801271776407, 0.027455034667991294], [0.3850451129548779, -0.03937082454319511], [0.8219708945503892, 0.0947568337517696], [0.3102591715783925, -0.05304205126441612], [0.8499949684406986, 0.0012601227160641431], [1.0623889816579954, -0.0203032176647903], [0.5601451653427652, 0.010089443657688603], [0.3777105458360223, -0.06488117825908017], [0.9930705917353179, 0.022161006322881382], [0.6069256546483022, 0.01960973270776673], [0.6630606555524291, 0.0063330002256152575]], [[0.4760034264809925, 0.04750175438212548], [1.0447393477764564, 0.0031766079458154235], [1.0898795420758938, 0.0013764610289014718], [-0.14121020429499673, -0.05011739311375931], [0.9919785144086672, -0.012134106878395355], [0.25997609280726186, 0.02154329201022794], [-0.0720320077742559, -0.011449391720650012], [0.1995889657646266, -0.03081729654047587], [1.1945916042343474, 0.04738216886269584], [-0.221053651639089, -0.12003998879887083], [1.0214877429513665, 0.04294077786297584], [-0.320319381026884, -0.004203514694904305], [1.4048257526512504, 0.025747484631268577], [0.23110816749997026, -0.011877731197533388], [1.0611289178341607, 0.06908170798823401], [0.34355957352204264, -0.026907683729963182], [-0.2079917481538896, -0.023758135892994282], [-0.12656706817286928, -0.013600423538724635]], [[0.4769617280645796, 0.04966906774778852], [1.1434616845268415, 0.003519569850324359], [0.7943008938911739, 0.004311650247213165], [0.6362351584399859, -0.05675935619926052], [0.33277082208777237, -0.012046939516824683], [0.7536064511843569, 0.027833219589124224], [1.1666288571830963, -0.010389794255761062], [0.3077666733281447, -0.03364876302018434], [0.24870887377205037, 0.05142000667019006], [0.15727919146750435, -0.13737963024603217], [-0.013853487690124858, 0.03757979102304751], [0.8213605500568398, -0.005400730281385089], [0.926947447623645, 0.03086738956331721], [0.8180583666456854, -0.013079255546724452], [-0.6166048508469405, 0.0695604590186362], [1.1182341421328763, -0.029467390325494384], [0.34764400017665276, -0.024997036708114564], [0.9614163237439144, -0.01420498178012174]], [[0.590593495560709, -0.032317288322525936], [-0.12604088306255984, -0.003906213538833562], [0.5424244273333231, -0.004020365837884526], [0.8436590772615156, 0.056227982215896484], [-0.12733773542013807, 0.010396881732179696], [0.9378289279524151, -0.03628572362903382], [0.3809482498947301, 0.008347370803075103], [0.805358243615597, 0.02101218320466159], [0.43894361965059414, -0.03723075399430405], [0.7203505197392919, 0.1302916238291747], [0.93380646213238, -0.020200249362097283], [0.7803090756055788, 0.0004069028466588643], [0.7952531875782742, -0.020799485383072677], [0.7211048713913669, 0.007344889041516055], [0.6477222894464427, -0.061012463853700634], [0.31502888911345683, 0.02354218995057067], [0.42738439822430113, 0.0236485284547358], [1.2309752375821363, 0.019997901246942142]], [[0.05808202766116811, 0.006178049279366139], [1.2043256988963948, 0.0021616533221837085], [0.9879346132261537, 0.0023637542442897595], [0.6069087665264552, -0.016174603155085773], [1.261011035374966, -0.0019330100109412527], [0.06829725308461895, 0.021099769730275976], [0.7973721477228575, -0.0009245050858183297], [0.6956405303015094, 0.00035824360970154127], [0.2895694892820806, 0.00655978600497031], [-0.11242988551651142, -0.0357286219451688], [-0.028407762080577072, -0.006069305248021642], [1.0016162218943054, 0.0021049019019877156], [1.1463263009679177, 0.0066237697081769275], [0.7690808007521838, 0.0008090342736116899], [0.45089675605229346, 0.009156435698867553], [0.7370292628681009, -0.004027413022042922], [0.7094607359947349, -0.0060493010421494645], [0.6108197400114487, -0.012153920748797276]], [[1.1568722133308451, -0.020025644876756368], [0.8608968694933515, -0.0027750407222075155], [0.587586248889408, -0.0035692517165051463], [0.5222458469676814, 0.04208975041655908], [0.8009171811805215, 0.007507596516751728], [0.7612421898952757, -0.02622384097193145], [-0.023526694074672838, 0.005228796818444036], [0.29322810854093956, 0.014129157485386247], [1.113140161264047, -0.025606270735592553], [0.8809440493673676, 0.09622985452418911], [1.1455570605416934, -0.009783281998478877], [0.7124820688317351, 0.00021600566648303656], [0.5205030107915252, -0.013557839680246203], [1.0009892108434812, 0.004886421926853142], [0.23327389924298425, -0.043301666786435974], [0.3451373119586133, 0.016900736635716965], [0.0721864654880994, 0.017363720278450366], [0.7128025754282016, 0.015853421107067]], [[0.6389084647252112, -0.04015783151396204], [0.4447239105331646, -0.004327879505951671], [0.2985468796488934, -0.002604045015162057], [0.8427120477305894, 0.06349622779684286], [0.3520814012223173, 0.013158172703084068], [-0.01977238052755646, -0.03864769681181651], [0.587622464094495, 0.0111576426789847], [0.6679330646778214, 0.024351558196982353], [1.0109968637402773, -0.04358326599805821], [1.4153860761005135, 0.1455575551670027], [0.20402062559176298, -0.02716387749887054], [1.001354432992396, 0.0007846527033831227], [0.40582067787072335, -0.022739939390723045], [1.19699515616807, 0.008717460718713987], [1.0708180690722726, -0.0730951820506843], [0.17252562768894383, 0.02744846293789158], [0.5925593356426724, 0.02786424413255352], [1.2028054168858067, 0.025472316370282886]], [[0.9662029858241195, 0.053424341416270865], [1.2109447971537586, 0.004384728810810009], [0.9924492744348157, 0.0038611859549190965], [0.5061460858402265, -0.051762144123090034], [0.8450478694471011, -0.011923004671452877], [-0.08970580321543603, 0.032681637035852786], [0.22830782980150705, -0.010076999703395406], [1.0403759469762799, -0.029198097410964588], [0.8981636714000735, 0.04874235315216351], [0.46669158161733854, -0.12348773502692671], [0.3032458745854939, 0.0393938380280208], [0.6019625237845004, -0.0030379215515637797], [1.2681817099278538, 0.03255719663545785], [1.183125735656708, -0.010801287314723795], [-0.4231500633174652, 0.06375262125987605], [1.1723843701646308, -0.02648061195176234], [0.98903162888064, -0.023483073177706284], [0.7665008197701477, -0.018478741342299727]], [[0.17047348049847133, -0.04986633518823207], [0.8153272077054043, -0.0033550422907532343], [0.8855782351210407, -0.0020997881570957617], [0.18372892322227655, 0.05485853232301787], [1.339031384180259, 0.013029355044792315], [1.863265154577105, -0.024707949698631923], [0.6155315832826304, 0.011615764180073434], [0.9420600133595621, 0.03259953143963883], [0.0694065825392727, -0.05102871769711546], [0.1543248307962205, 0.1313051209853], [0.10518986427807048, -0.03761740303454905], [0.39031454352246203, 0.005933124140753289], [0.6911108803529954, -0.02817348216368973], [0.3731228499843512, 0.012838539714207236], [0.1752998409766193, -0.07074717779133213], [0.4952594163448088, 0.029319537702061135], [0.31746641547741317, 0.02558480273942804], [0.6660424121742166, 0.017756898789128783]], [[0.42220574372614733, 0.05340903817153882], [0.5369385371933867, 0.004677185484925321], [0.8948181724664421, 0.0033915154950254055], [0.9979568516466795, -0.05183632999634154], [0.016533589379190534, -0.011742688445755359], [0.37334154451072216, 0.03582488581637122], [1.160580995477149, -0.010422912644316211], [0.6834254851220736, -0.0282778050010781], [0.991805015110882, 0.04797249533967074], [0.44376886308772456, -0.125097370781052], [0.5626873900484034, 0.03897761231046515], [1.101075008797751, -0.00267255701411008], [0.21425144975649169, 0.032868942805706194], [0.5967627376481731, -0.010422745591900174], [0.3609753754905833, 0.06390116289361514], [0.5594248349346426, -0.026222920259582817], [1.0910295202077915, -0.02367940701803005], [0.7289531991900774, -0.01903848580159585]], [[0.4125663294744266, 0.039504779873598926], [0.6761919420528064, 0.004605501461361605], [0.7911484574045822, 0.004678394697298912], [0.6714454648740688, -0.06473512528826722], [0.7114811496975266, -0.012162599105433011], [0.18808455747313152, 0.04166824864973002], [0.7967191559226109, -0.009872532487208584], [0.345645036436795, -0.024990502419111632], [0.43759290610153945, 0.043971660107642536], [-0.25955793971568036, -0.15000753228994598], [-0.07535765390404225, 0.02713861002679483], [0.17770523379523806, -0.0001295108207217495], [0.8273232383533209, 0.02500689510575407], [1.1771837404579524, -0.008687915409772769], [0.05495843190160665, 0.07176665130756375], [0.957981047034131, -0.027334306390891145], [0.8377333740185186, -0.027315337419534354], [1.1223874199080803, -0.02237524334184836]], [[0.30070891043409975, 0.0430018174501014], [1.0566998122444928, 0.003912211239909565], [0.33273947955810984, 0.002111195116924925], [0.44758188466788584, -0.061156481880465303], [0.2201118881022783, -0.013363982818251968], [-0.4005255559014357, 0.03505575859724268], [0.4828576002165106, -0.011489268256054584], [0.4092658884622722, -0.02690899136657994], [0.7427083352660904, 0.045807016871097096], [1.2293409442518772, -0.14134082665671083], [1.1179658127886074, 0.030192205661302665], [0.14669029897805794, -0.0025744650430571357], [0.4634067042637449, 0.023922367362213127], [1.1032006742291922, -0.009851468105860158], [0.8493174734181254, 0.07246732841984961], [0.06099858530212099, -0.02819483308512237], [0.7321079267981127, -0.02730844896203218], [-0.10363440020734968, -0.02361655801840529]], [[0.4818882476331687, -0.04923408747483056], [1.34902381416739, -0.003591712341311467], [0.7105968453582826, -0.004170462391723002], [0.27404261649663475, 0.05639202416079067], [1.3230014807191823, 0.012067370217950188], [0.39962428486920504, -0.028106730957927976], [0.735414052841692, 0.010366383350937305], [1.0352806289571672, 0.0333685220065895], [0.13914127857299513, -0.05146664266688773], [-0.06736523104445671, 0.13644675670195358], [0.584641858078586, -0.03762736011851972], [0.8244620935240079, 0.005355774352616664], [0.8512679760233955, -0.030463581603533588], [0.5983367783754483, 0.012849818332030862], [0.47417512923398053, -0.0695737169189501], [0.7165337769638254, 0.029312504846804963], [0.6620728155029474, 0.025061054338603058], [0.511699988958747, 0.0145938693810939]], [[-0.5676181157831415, -0.043639262839598125], [-0.3380980087860264, -0.0057399322868905926], [-0.28715079320755205, -0.0042588014584443844], [0.11075795470818403, 0.05923215005679151], [-0.9251733575386204, 0.01162914063119935], [-0.7833784696765935, -0.048400696833758305], [-0.3076408639918284, 0.009680503029014267], [-0.218067332988252, 0.02022442089890805], [-0.41866380804662, -0.04170074308882675], [0.6435252147920076, 0.13607575380245135], [-0.48067382285335014, -0.030205030739114687], [0.01792922097336458, -0.0026912176187613643], [0.09890286154387593, -0.02729233059121767], [-0.672502053041204, 0.006199846974895565], [-0.34067011797098035, -0.06607375275120572], [-0.8202669863982512, 0.023962794225854907], [-0.7021203893114897, 0.02561003744650047], [-0.3345167031798676, 0.02607158670828392]]][[[-0.2819321157484903, 0.10911611254649439]], [[0.07324204350901475, 0.10887924513132022]], [[0.11414440729107872, 0.13246316151333215]], [[0.5874378386689647, 0.13774486997501417]], [[0.24173966871203018, 0.1370123708360771]], [[0.12253958631320155, -0.15144391562406373]], [[0.23318012362257268, 0.14176296562542415]], [[0.32966081360082555, 0.09821635239805351]], [[-0.26051890710146663, 0.10350103806034813]], [[1.1899591014436304, 0.12984047115595201]], [[-0.4380655477830168, 0.04997192358273027]], [[0.1187307236407868, -0.001188441377114369]], [[-0.09012436739535755, 0.12207898648099293]], [[0.185684348435943, 0.11125251793369173]], [[-0.4892474920272641, 0.10583134671592424]], [[0.3323319272048853, 0.12242852249619689]], [[0.34272943377323817, 0.1377808515438258]], [[-0.49245491827403237, -0.07234647932532345]], [[-0.9638570000620674, -0.14255163105252913]]][]