[[[0.633316071402185, -1.9791149240209446e-09]], [[0.495132353778588, 7.429414182459732e-09]], [[0.8399445539383223, -7.4293590489147285e-09]], [[0.08356345681886308, -3.9988139226262565e-10]], [[0.7898680485773771, 2.8673796483692113e-09]], [[0.8963513744344479, -7.4294086207153226e-09]], [[0.921611014788356, -7.429410095474338e-09]], [[0.18835097384416963, -7.423605206529198e-09]], [[0.852216319574131, 7.422397496194919e-09]], [[0.7790305837844521, 7.4191517531502765e-09]], [[0.027410023778306862, -3.7146225595821257e-09]], [[0.2430618214962028, 2.411271177427141e-09]], [[0.9483381134324791, -7.422016447845396e-09]], [[0.9950835946477153, -7.429358753943761e-09]], [[0.1780647940899412, 5.3255400530783475e-09]], [[0.23120698019446542, -7.203412959352961e-09]], [[0.22679567397902717, 3.8278110043197255e-09]], [[0.9185162405492634, -6.050653188281548e-09]], [[0.3557591077666184, -7.26795260922658e-09]], [[0.2651916886052958, -7.419146596745653e-09]], [[0.8299975998291034, 7.364581300304263e-09]], [[0.528887864424888, -7.138848183460926e-09]], [[0.4804159852074863, -5.205324148277155e-09]], [[0.2721061424663315, -4.471464716623612e-09]], [[0.6788639565725585, -5.93618979429992e-10]], [[0.8581882732966696, -7.429407862803926e-09]], [[0.6940909213999342, 6.570755316014429e-09]], [[0.611388638289724, 7.4206215815151694e-09]], [[0.9003151857390762, 7.4137135108481535e-09]], [[0.7375754923058824, -7.4294083731699305e-09]], [[0.050519270948641705, -7.429414329438663e-09]], [[0.5169039709064827, -7.42940745259088e-09]], [[0.8341522935331641, -7.212000126816217e-09]], [[0.7771434161008411, 7.322413211343287e-09]], [[0.5072720607201654, 7.420185314152933e-09]], [[0.6017678521968476, -6.193541858008215e-09]], [[0.39708017571164467, -7.046023443774029e-09]], [[0.5081562945669157, -9.075997739381277e-10]], [[0.9655037631635963, -7.429411795870338e-09]], [[0.4946597420887847, -7.353939877228476e-09]], [[0.04166483782095149, -5.2252789261382126e-09]], [[0.12368080961455993, 7.428709502857366e-09]], [[0.9855382746105226, -7.427903948213604e-09]], [[0.5713702830155372, -9.828904422312936e-10]], [[0.6000170241389206, -7.400952344509376e-09]], [[0.1263935628879381, -7.28061103391014e-09]], [[0.4114865442764683, -6.1681541512642775e-09]], [[0.15958415101757162, 7.427278800237358e-09]], [[0.5176216227496654, 3.854478947731624e-09]], [[0.7136488318708666, -4.997426589133988e-09]], [[0.010959042507555087, 7.161921504558585e-09]], [[0.22848948969032457, -7.332842435035964e-09]], [[0.9573381895872284, 1.8256026202362073e-09]], [[0.9255458260854137, -7.092552581088515e-09]], [[0.02381724075081439, 7.429328945445659e-09]], [[0.6191014338682842, 7.429273326069523e-09]], [[0.6759045080654543, -7.429404621324495e-09]], [[0.42380119275033223, 7.354466174059102e-09]], [[0.5200693842139115, -7.429414334549921e-09]]][]