[[[1.1161944536412243, -0.03332555274514899], [0.6983065595034261, 0.02283670961609831], [-0.09588554680933228, 0.029877118449204234], [3.0782298253233598, 0.06784220474166627], [0.7429340213158173, 0.02516964588097287], [0.819570070326598, 0.05687054715808859], [2.4979302122391074, -0.024012839236397406], [-0.45406043800514434, 0.049182068045897157], [1.8440613733406963, -0.040696853794967895], [0.45794644190182443, 0.012901590338895104], [1.3353794236998708, 0.01494531587510832], [0.5625627072168718, 0.0030954459886974144], [1.6993133718657534, 0.06710445904203624], [1.0464300789377592, 0.01792366406481884], [5.6756050307555075, -0.023840188124073517], [4.038820579404523, -0.08053844847375467], [2.6437645433573578, -0.039023284494989666], [2.3648225851976936, 0.02981931358351516]], [[1.977949154688344, -0.03452874166194188], [1.3510752916153026, 0.022936055212806415], [4.675038903174014, 0.029233368521427605], [-1.7852040772837983, 0.06884982085650594], [1.5450126840617813, 0.02597002496108832], [-0.7718852927591585, 0.05763846209129235], [-0.7388258440163276, -0.02501251241921002], [-1.2985175283835575, 0.04978196251521286], [2.555665958489406, -0.04141611357379182], [2.1648906419481544, 0.013024453947352802], [0.8011884697666408, 0.015472331781181556], [2.470320978820798, 0.002688360441551854], [4.061653035544357, 0.0679214754881676], [-1.256253537926189, 0.017840451872802972], [1.573910308754684, -0.02483608804833464], [-1.2221232678890361, -0.08277340618037199], [-0.6757524130048211, -0.03987365170129126], [2.3387422680291925, 0.029996063325777613]], [[0.0033133815995933305, -0.015084830614761381], [1.6969237008833078, 0.01043739259908591], [1.8263555044893263, 0.012645275322792592], [3.8623166638447888, 0.03222237862937544], [1.4251164658231363, 0.003604382125969398], [3.016740968665646, 0.027091861718252702], [0.31141623899737453, -0.010730102939523319], [0.6946213210233362, 0.023496643982725003], [2.6040214896193152, -0.06164600550817217], [0.5376782168348319, -0.0009988718443309456], [2.6044172998228174, 0.000525067798667192], [1.4312669805332565, 0.0019446581325430897], [3.0104264050483835, 0.09181803721728826], [1.6569330187431186, 0.008879868708707514], [0.9927843764000319, -0.010649370400228834], [1.9805939945559141, -0.03716210202106722], [-0.09038436735794028, -0.0203772201118012], [3.1801103927455596, 0.014442405996030784]], [[3.7493892131288074, -0.03332817126466053], [0.34895506620430633, 0.02283673342839502], [1.5649333596936454, 0.029876653463022217], [2.2370274044110054, 0.06784406561196071], [1.360227662308282, 0.02517109169605686], [3.359605443934523, 0.05687192724067048], [0.502999696164653, -0.024015044901775192], [0.11155919419502458, 0.049183107280516065], [-1.4503861974052639, -0.04069671232578581], [-0.4021358829874201, 0.012903051700076284], [-1.7084043955519101, 0.014946207267497527], [1.911895741239098, 0.0030944424529195085], [-2.154361966893591, 0.06710593879201739], [1.9438213475943749, 0.017923317542027525], [2.661237412012346, -0.023842386135639916], [4.145074935386202, -0.08054316005180376], [1.3432229120254522, -0.03902520112276332], [1.1993701959548198, 0.029819494422871122]], [[2.2242145198152135, 0.03453284214302396], [-1.855839656345078, -0.022938046268590202], [-1.6272306286495035, -0.029234232631820123], [2.489854867690076, -0.06885610278288284], [-0.35208137559586694, -0.025975294251510735], [0.67038481146497, -0.05764357984508285], [0.48945709445325275, 0.02501566112096363], [2.647780043481802, -0.0497862944895805], [2.4690912470055784, 0.04142062940873151], [1.2369013303321723, -0.013029759029599438], [4.005595060648611, -0.015476322925384622], [2.8088747084464196, -0.002687983086284252], [4.0488597486155165, -0.0679268208989013], [0.9387647001486068, -0.01784158917165865], [3.659253355952438, 0.024839219094425748], [-0.9061910306748794, 0.08278233191948148], [0.15628435151316172, 0.03987584164489182], [0.547687670852184, -0.029998416386237414]], [[2.9104201218989636, -0.00660553795631056], [0.46897293763662184, 0.008194522338105914], [3.6634387579155585, 0.010285726863141987], [0.6072330514114238, 0.021548558730644637], [1.6028904967640394, 0.008988431131888137], [2.46656476782544, 0.018495218801627314], [1.435020780614637, -0.004013894228498571], [4.022059441408245, 0.016355584780930736], [-1.5669817637065617, -0.06475203668919549], [2.09237218286094, 0.002781617262664321], [3.537192668140061, 0.004522668041571951], [1.8625643994713335, 0.0035264506494647506], [-1.4429720506353336, 0.09728672122053547], [1.0548013694628477, 0.007656653776382782], [2.028363808722567, -0.003965855076089646], [1.2942370920997108, -0.019744458738229068], [1.5458627633266995, -0.023365518160569573], [0.7439472607901421, 0.010967105478759911]], [[2.4093795356487604, -0.06688484298349942], [0.995593812090496, 0.024391804366449266], [0.9442203222675096, 0.0362332689309853], [-1.6990683953444035, 0.09850099400269102], [2.2888385591436418, 0.027380521211969006], [1.0497595517605365, 0.08056490372719814], [-1.0302897780264717, -0.05166071190023762], [1.820849902907672, 0.06799601994601222], [3.057894457627829, -0.03053877386227555], [3.370835483013628, 0.005264865498765526], [2.01440241066085, 0.010400669344729312], [2.043269857142123, -0.007347079791618377], [5.064504758878078, 0.05064424589952195], [1.7729876653434333, 0.016895764074245995], [0.12987001126111125, -0.05137847180467402], [0.6393813696691252, -0.144066999690773], [1.4294520957454875, -0.08475502503519318], [-0.570647268667291, 0.03634239771850868]], [[2.7221145882559346, -0.06089185515692525], [-0.1610641596353764, 0.023022570055466547], [3.565209251939532, 0.032845424444226695], [1.961549479461545, 0.0910439987642658], [2.4696397195936055, 0.03544636942960091], [2.4895098209502797, 0.07456650805101012], [1.3484985798038387, -0.04690582992586852], [-0.18069516060660645, 0.0630197915416605], [2.2189123414255234, -0.03506634522118371], [2.081833737199658, 0.011486337539015018], [-1.0166601460482334, 0.016375106813271288], [0.22615326309458783, -0.006198007244207449], [3.6682311784610753, 0.05883783425162596], [1.5205216057500295, 0.016075275227342912], [2.258986997788663, -0.04664654991800231], [4.811101796273386, -0.13179715577198875], [0.47352459221727095, -0.08931935321685538], [2.8049443363057187, 0.03394040727319961]], [[-0.9186827609782532, 0.006599899002438438], [-1.437181006544998, -0.008191901482317162], [1.8248774168465478, -0.010284633968993259], [1.5491462139592906, -0.02154020273000154], [2.9373711761349472, -0.008981365159467646], [3.539270362264109, -0.018488358305819283], [0.9611369999797806, 0.004009545838112416], [2.0159336298126416, -0.016349789760704718], [5.853311915103887, 0.06475011487612262], [2.6503986916150675, -0.0027745026938714775], [0.4459645545788339, -0.004517335169471556], [0.5621804329175769, -0.0035270412371085124], [-3.08623371890464, -0.09727954810438105], [0.5874481699565018, -0.007655190571246523], [-0.7875356006098788, 0.003961530615240648], [-0.219488641784147, 0.01973227698370414], [1.916756281791271, 0.02336215843305698], [1.59543122077982, -0.010963993763665709]], [[3.0308307851391665, -0.027462981142947058], [1.6715848777325646, 0.021298233599950974], [2.172469322300516, 0.02632456885759442], [-1.3697296116080953, 0.060188804542843276], [-1.0887430924216703, 0.03304540917278309], [0.7819361657919683, 0.050682977830961345], [1.394930192710714, -0.01939444016827939], [1.9594919315874941, 0.044021674582906165], [1.8630053255414756, -0.04526390025975014], [1.263911468351047, 0.018506986123151895], [0.14713048196083067, 0.020737760753474915], [3.660874343888872, 0.004090370947835277], [1.8973266857265363, 0.07510740840001184], [1.8705316506219969, 0.01693937315908075], [4.5127831838709795, -0.019244861617363634], [0.08525588355963731, -0.06836826437168927], [1.5820063157282525, -0.043728380575774856], [-0.3940871618766706, 0.02724577166178041]], [[2.241236856356924, -0.06790107691216565], [1.4421715145718397, 0.02487762120662021], [1.4957162384822933, 0.03605210234041295], [1.9874488170361428, 0.10003429702542671], [0.9691342732420275, 0.028674637358478416], [1.3511851522117138, 0.08182170400054828], [3.4184023861522093, -0.05244225589957727], [-2.0602863242882226, 0.0690590626609009], [3.3484891734478803, -0.0311313020332745], [1.3444630778389228, 0.006377378644696717], [2.0964531033276703, 0.011379670079385295], [1.8449882098561607, -0.007445264585530823], [-0.7128688709880555, 0.05195766931003867], [1.8766226850481509, 0.01717106300719223], [0.507146675158563, -0.052155664559793945], [4.02678312881633, -0.14627304700164362], [1.0743942375818356, -0.08536429864491213], [1.200598503602691, 0.03691747929553589]], [[2.7369944338550507, -0.013690577790772873], [1.9564775874249987, 0.009837111372808837], [-0.4118661739353079, 0.013194845516056791], [0.12858192979009767, 0.030231094548250126], [2.4908580648974934, 0.0019307553841547767], [2.6822574133258423, 0.025467813325351994], [0.15163452669873717, -0.009647488584528865], [3.623793074260854, 0.022129881062109287], [0.4724115271842075, -0.06091662774424537], [2.860263436907918, -0.0026830650187123235], [3.237040789280591, -0.0007300980317025245], [1.0892641746613783, 0.002119858107980048], [4.076485694055868, 0.09011880252543689], [1.1435561398679561, 0.008559129650068803], [2.2387563037039993, -0.009572533945624104], [-0.15826163839084323, -0.034187927884759856], [2.2559943704076364, -0.019523288777658278], [0.22710444822413103, 0.01372359360048886]], [[-2.183384268406212, 0.026695981742530836], [0.620910875047119, -0.0210821267906384], [0.009008731787202871, -0.0266820909972904], [-1.1193543195691895, -0.05928712493041279], [-1.00021931443486, -0.03230022482987574], [-0.051048076165372984, -0.04996225767390923], [-0.975796523832488, 0.01878104725457396], [-4.114869204533177, -0.04342777033898486], [1.2406600595144253, 0.04487724168105232], [-1.3133824375898877, -0.017969483330232176], [-2.8273015192912596, -0.0201988626745695], [-4.18669261084107, -0.0042564996478350325], [-7.230869651237817, -0.07434962999520751], [-2.1548235183320776, -0.016861053691742584], [-2.525627674299267, 0.018634316627094215], [-0.6441566461515105, 0.06682252233826423], [0.3198879570937372, 0.043227704770525704], [0.31981145975049585, -0.02697124204462055]], [[1.90339195854593, 0.027059182594698892], [1.295240108053274, -0.021178000434711988], [1.3649284576905107, -0.026693039745053895], [-3.095582283087186, -0.05970314733440038], [-0.5744268329004208, -0.032643151629859236], [-4.493882828291453, -0.05029376757979817], [1.3268089520044977, 0.019072519481098102], [2.124590801214817, -0.04370006184217379], [2.459791566274753, 0.04511092381939775], [0.1725542004275913, -0.01791237353418055], [4.349970015752997, -0.02044546830533628], [1.0691247711272618, -0.004173883492643344], [1.6690394028583972, -0.07469844465597099], [0.8385140357479565, -0.016892585912998033], [0.5711992914545687, 0.018924458980363414], [2.482198314703081, 0.06754936759210808], [2.646254973928846, 0.0434666073475092], [-4.0335850075280195, -0.027094397221159937]], [[1.1935445925281938, -0.06873648298226456], [2.029946334268266, 0.02487991294104568], [0.9027005324600185, 0.035397289296851354], [1.1764863244179824, 0.10062074696123419], [-0.6756638476190013, 0.02912780841606257], [0.9238819616351558, 0.08225397115026652], [0.8464016902817485, -0.053146775184944484], [3.5427821126588253, 0.06938327104680189], [0.950365296391136, -0.03161424201906845], [2.5835468748684054, 0.00655303687727864], [3.7147153491900107, 0.01165700817847079], [4.098346619932612, -0.007768673826775011], [1.4769811526795715, 0.0524215145671196], [0.10249781350606008, 0.017055945976715236], [-0.26136969285917605, -0.05285775715531439], [-3.030940188844444, -0.14777201306572918], [2.4514365126856856, -0.08597280726045049], [-2.4753046670514705, 0.03696955120961444]], [[1.2349875779519255, -0.03453306560063334], [2.744423869726435, 0.022937512258797893], [2.9423638958881435, 0.029233756070333308], [1.78125089936353, 0.06885535616731238], [2.098214049626213, 0.025974593114334373], [0.24222849879168906, 0.05764288643302261], [1.9385133458532773, -0.025015933101179978], [1.5620563490764638, 0.04978564113763391], [-1.7043695421711385, -0.04142112661143743], [2.245064977774906, 0.013029056065298313], [0.5522124141767302, 0.015475686949268007], [1.985079807568573, 0.0026875698202756407], [3.6957528784555556, 0.06792611598449272], [2.713924473252281, 0.017841098687174147], [2.687916776914716, -0.024839491973792968], [2.1651373810845245, -0.08278230938158575], [1.5908376467785554, -0.03987613911392143], [3.219137869151249, 0.0299978639211531]], [[1.1170942796457293, 0.02707641477085304], [1.6056706381610915, -0.021183147509252934], [0.12474892114058195, -0.026694046937708216], [1.6678104193443162, -0.05972384839050484], [1.5280033751980793, -0.03266034236917831], [1.577791771259137, -0.05031040159879698], [2.265057491925606, 0.01908625498537564], [-2.385873648627834, -0.04371380904487003], [5.478583458118383, 0.0451214818618475], [-1.4563542406625656, -0.017929697487214763], [-0.6271515880531263, -0.020457963357053393], [-0.8305369735411866, -0.004170329434792492], [-0.2443885701014089, -0.0747159222660704], [2.523553748128128, -0.016894596431641304], [2.0914748360625004, 0.01893812965648361], [5.039671936112301, 0.06758432693219121], [2.7178474875777208, 0.043477808263198296], [1.3213325049205202, -0.027100874237191503]], [[3.099708089636318, 0.033706788746750545], [-0.8103176240641229, -0.02293746521027762], [0.2753571822891062, -0.02988870976971717], [-2.2806085420919184, -0.06827903752198333], [0.18312094961369216, -0.02552978774541117], [-3.2029471800333282, -0.057218702028326185], [0.313834921124461, 0.024318765903678125], [-3.2074932766662334, -0.04946804831718345], [6.51405411533591, 0.04094170540271527], [-1.5394736384518335, -0.012861830439550685], [0.4504534683124248, -0.015204328029590793], [-0.6332466431753558, -0.003008801533578533], [0.3293596759761155, -0.0674707826285619], [0.23709548446350898, -0.017956866298172277], [3.596836210472517, 0.024144718523063678], [1.6966556214809416, 0.08130148208513854], [0.8499599353316849, 0.039273795370322606], [-2.022781110694627, -0.02994871261453644]], [[3.359617938115712, 0.06752666850276497], [2.6068117195308753, -0.02477914723865225], [1.4742247165259448, -0.036041107554169366], [-0.7416502099290748, -0.09960609979807529], [0.05267190039139871, -0.0283216793557252], [2.9198728700632883, -0.08148050638567778], [1.8943113087031491, 0.052141733544253416], [0.3731520249194733, -0.06877886459912991], [4.106908180989555, 0.03088912143261504], [-1.752230382428106, -0.006424375999629374], [-1.939479480015867, -0.011125930460667937], [2.738880208011301, 0.007359880201086175], [0.7872025859071269, -0.051598644476438096], [1.6980011445622034, -0.01713886570029918], [1.9574462667396368, 0.05185651208466084], [3.1564782942173886, 0.14552405662325524], [2.0330048216489724, 0.0851181490836799], [3.2562460596654113, -0.036790903227619215]], [[3.0487558772557817, -0.05434391579552921], [0.746664151657429, 0.029427260969618965], [4.505895132537284, 0.03908980092392686], [3.454695357186819, 0.09636218094787571], [1.4597006881592833, 0.04567250178467215], [3.8373944754446074, 0.08001811207717087], [1.24203475242802, -0.0404710867771408], [2.114814003778807, 0.06856484917830397], [-0.7879258234771681, -0.028779848396289453], [-0.5036485025346021, 0.022024681112264237], [2.2758298274469766, 0.026003063113868533], [1.719723994110774, -9.131551945116743e-05], [0.2254922505276071, 0.05990213730705877], [2.5493489513954852, 0.022000279690227893], [1.4588207626880356, -0.0402139031207251], [-0.6906725873111663, -0.12467534275054312], [1.347270491682576, -0.07817580269720764], [2.9435673949380172, 0.03972081975823991]], [[2.115597628278797, -0.03332555273157056], [-0.5132406676483436, 0.022836709615975236], [-1.0248830596091243, 0.029877118451466324], [0.7197511020516414, 0.06784220475394549], [1.42775844328244, 0.02516964587332239], [-0.23583115543501362, 0.05687054715105148], [1.1139680042949835, -0.024012839225064947], [-0.0123492396412965, 0.049182068040366296], [-4.066900457798003, -0.04069685378182035], [-1.09650012936697, 0.012901590331174263], [0.2151050607262725, 0.014945315870341263], [0.5427564833782946, 0.003095445993786164], [0.08449372457756703, 0.06710445902247382], [2.201181619567807, 0.01792366406654572], [2.035056620527717, -0.02384018811277238], [4.182391991657347, -0.0805384484501636], [2.5734397192243854, -0.039023284477471054], [3.8763274882050474, 0.029819313582553308]], [[3.6430898274850314, 0.03453595865648138], [-1.2682741533353312, -0.022938345358291284], [-0.9360899465600133, -0.029233899877499137], [-1.7073594924063373, -0.06885876533761799], [0.26755073794523504, -0.025977431489179147], [-0.14598808284067183, -0.05764563211400771], [2.7130851241518736, 0.025018243959615053], [-0.8555708074357825, -0.04978790616213526], [2.1822558297239176, 0.04142229113848036], [1.1040380173036313, -0.013031916362929528], [-2.25825766769957, -0.015477743490066864], [0.6822196793994393, -0.0026869541772011913], [0.5441378936133274, -0.06792900241557674], [2.252018025569909, -0.017841409548561785], [0.59385667370984, 0.02484179204016728], [4.754396291169582, 0.08278815401772374], [0.7601912054231456, 0.039878066877253704], [2.5120238449432417, -0.02999891845629724]], [[-4.795516649083699, 0.026695981742530836], [-6.1835200559712815, -0.0210821267906384], [-5.876913174650842, -0.0266820909972904], [-5.30266491028977, -0.05928712493041279], [-5.52904164725403, -0.03230022482987574], [-5.185386772324158, -0.04996225767390923], [-5.807432873174743, 0.01878104725457396], [-3.941281705013101, -0.04342777033898486], [-4.415483547723588, 0.04487724168105232], [-5.573893994799301, -0.017969483330232176], [-5.167922474949231, -0.0201988626745695], [-6.242993965324273, -0.0042564996478350325], [-5.571217788120072, -0.07434962999520751], [-5.154646154768139, -0.016861053691742584], [-5.289094373598107, 0.018634316627094215], [-9.829593424780967, 0.06682252233826423], [-4.63670869557931, 0.043227704770525704], [-4.898442220667733, -0.02697124204462055]], [[0.12454334840869308, 0.006598362934720166], [-0.34326884000630276, -0.008191711231872262], [3.189151699773298, -0.010284763065849384], [0.5863510543389601, -0.021538824790307845], [0.08453198596157416, -0.008980245869699359], [1.9621644861626812, -0.018487281961586333], [0.8144847247425955, 0.004008279500999232], [2.7818116569552296, -0.016348936103018033], [3.1637263487692966, 0.06474735610520588], [1.7478864342729767, -0.002773373247364326], [1.092612220198919, -0.004516578101490285], [1.4679784781798, -0.003527522185313144], [5.301274740783854, -0.09727840782944883], [1.5090381847619552, -0.0076552422723969015], [-0.3487629379562056, 0.00396026927710328], [-3.7593586103559673, 0.019729373455435337], [-1.5875282942635234, 0.02336104982171138], [2.422615119832463, -0.010963700922668237]], [[0.0758986422582065, -0.03453330289641394], [0.36494841726238153, 0.022938196728714017], [2.6183619716894495, 0.029234270025194915], [1.22614329033842, 0.06885671044228231], [3.9168728429427486, 0.025975773643892426], [2.5221016676412176, 0.057644044032051964], [1.8112803679638638, -0.02501602637459653], [0.6733217507449193, 0.04978667983332176], [2.4624511848289465, -0.04142064868528644], [3.9288425520076937, 0.013030242017982856], [0.6451393025221851, 0.01547667407085322], [0.7502962167708925, 0.0026878959044889187], [-2.223432372857556, 0.06792730951513468], [2.919288518205414, 0.017841653967471963], [-0.785646177116293, -0.024839582583250693], [3.0970392580386696, -0.08278327682968267], [2.1163202589043513, -0.03987632375601729], [0.0003592140791337309, 0.029998603169334323]], [[1.6695576515469632, -0.06872871024477954], [3.6527120247115015, 0.024878103568285077], [4.514753552472812, 0.03539725249502717], [-1.806830089364449, 0.1006123010750335], [2.2872440718687463, 0.02912084231509779], [-1.8677803372215773, 0.08224724341952114], [0.8412502937147396, -0.05314049961527956], [0.9441748111220767, 0.06937777936264411], [3.8487755032712876, -0.031610980367801134], [3.0223114941444638, 0.006546014400040684], [1.9282800989094815, 0.011652052627043313], [2.7581805729990534, -0.007766757640801164], [3.268239965665219, 0.05241442387050099], [0.4592861132358215, 0.017055479581360496], [1.0144756362674254, -0.05285150934228419], [1.4226956358158673, -0.1477566500997181], [0.21026112434447358, -0.0859676660769022], [1.9364515877715343, 0.036967172396835564]], [[0.07827786874933769, 0.027902943059207413], [-0.9708423599935112, -0.021183192355455776], [2.320181256215224, -0.026039044931320126], [-0.08518058148459545, -0.0603003523296484], [1.446183409429766, -0.03310527966342705], [1.2928446111578193, -0.050734711728729356], [0.4373793457944209, 0.01978363467571487], [2.621161933432814, -0.04403149544079439], [3.805844108887386, 0.0456013243182552], [0.006441360013376158, -0.018097054958707684], [3.163682404232502, -0.02072940190730826], [-0.8701126924571907, -0.003848998616981696], [6.087787913976821, -0.07517139027543333], [-0.2282113444450755, -0.01677879168751271], [2.3056335139744752, 0.019633114876997416], [-1.4300259594804925, 0.06906560308615968], [1.735751754935048, 0.04408031380420871], [-1.405323426059032, -0.02715003815299081]], [[3.1380323781492385, -0.027898249863613007], [0.4700511638774824, 0.021181079436833693], [1.7698076466807284, 0.026038191058788837], [-4.2546765834307365, 0.06029350240665536], [1.91570884263906, 0.033099503952174585], [1.6819458424618547, 0.05072910533088124], [1.9956550149869998, -0.019780004909336853], [1.6182268866693328, 0.04402676699886349], [-2.54522496743074, -0.04559919371279646], [1.755956281869933, 0.018091239203819144], [1.196172722429788, 0.02072505427717146], [0.8194376200549147, 0.0038495319398441684], [2.962785245657041, 0.07516552826868804], [1.8615592552196536, 0.016777632677571132], [1.3046999061236597, -0.019629504825898487], [2.710710385876121, -0.06905551859640688], [3.7618249529718604, -0.04407744147182553], [-0.32048628622387904, 0.027147520764678756]], [[4.14934343506018, -0.03415324321266455], [1.356249892369034, 0.022837210656190897], [2.392541872510422, 0.029222273257503012], [-0.4227488591988954, 0.06842026548923799], [-1.677746338390853, 0.025615910315403903], [-1.4124376233749412, 0.05729614416912475], [1.9931351260821024, -0.024711128241485112], [1.4612912172462356, 0.0495008325600616], [5.278867176087756, -0.04117649246246905], [0.6626470196504834, 0.013070286018195895], [0.12347102569001064, 0.015217741993333546], [3.876377703260943, 0.0027739421352323615], [0.22379114020399943, 0.06756127587515558], [2.9665040091981107, 0.01780808869165826], [3.3937393468679207, -0.024536077974168922], [-1.0772502129003163, -0.08202216876229695], [0.6143314029922707, -0.039626577509843774], [1.1325772369934484, 0.029869029868485476]], [[1.5026415502332287, -0.0345258312690034], [0.9537993767618599, 0.022935263763448017], [3.38370313352665, 0.029233261779632036], [-0.9435430000718473, 0.0688465512162676], [3.3523421306726617, 0.02596724132115409], [0.9190685175788299, 0.05763577054061855], [1.9253464047342712, -0.02501018042480476], [1.327014910634248, 0.049779748484412537], [1.8078597224668052, -0.04141652459414238], [3.6050155188226753, 0.01302164848002192], [2.9916695380073017, 0.015470324873736188], [2.548432687549214, 0.002689008281917528], [0.764326622401004, 0.06791864367046327], [0.9916709840348517, 0.017840179254216975], [1.43843455301773, -0.024833766770088896], [0.7176650301965933, -0.08276756346408573], [4.413379838509722, -0.039871585896507356], [0.6543142287660463, 0.029995051885865823]], [[-0.5872300988167085, 0.006601849537242022], [0.19887049833210854, -0.00819169754203671], [3.1388759374242716, -0.010284106930274324], [4.557349257327312, -0.021541153019148593], [1.8382237046945888, -0.00898210116955473], [3.270436483515053, -0.01848905086685644], [0.24215343192650002, 0.004011223474303875], [2.648102312144682, -0.01635025701924344], [4.498059855024304, 0.06475001394425124], [0.6392150699239152, -0.0027752489801314353], [2.555949155507483, -0.004517704703558927], [0.1608026806132437, -0.0035261582144491188], [2.937693353755849, -0.09728030693347278], [0.8900004529202193, -0.00765474183734686], [0.8372137576751896, 0.003963203190194185], [-0.3424789588837906, 0.01973561103901139], [0.5829495449598208, 0.0233635367019875], [2.278619078743178, -0.010963893618625167]], [[0.7519174429706905, -0.06787652660101101], [-0.8081302657746546, 0.024870855236354742], [-1.9494720333913635, 0.036051129599573545], [-4.456076300439796, 0.10000569608458108], [0.029524423785318898, 0.02865101826402183], [-4.171137980227626, 0.08179886384160423], [-1.0477166294823679, -0.052422598637134984], [0.5184008798271399, 0.0690402621485886], [3.990798493994451, -0.03111419966763382], [1.6583684754421029, 0.006353613666542626], [3.4028290250292907, 0.011362621757648558], [2.0681407881317813, -0.007439854674101509], [2.465612292778649, 0.05193364858073582], [0.06820020922856676, 0.01716868615923141], [2.009944852423436, -0.052136098015923935], [1.4548991427986604, -0.14622369027945922], [0.6200650756931448, -0.0853482230075189], [2.895401427330381, 0.036908852279072396]], [[2.3293037913689867, -0.027922311192003155], [1.5367779310500507, 0.021188549502401722], [2.7904886929896797, 0.026049658884798318], [0.17959543837416772, 0.06032627674461738], [1.971546866553795, 0.03311079097593635], [2.0998983144131076, 0.05075572731356216], [0.8014421653407802, -0.019798833204826928], [1.9508195186078232, 0.044049068644010786], [2.5207786962039203, -0.04558174639968348], [2.027054273577052, 0.018093974093814934], [1.2846408521199029, 0.020729710707212922], [3.1192971367541453, 0.0038459357231068704], [2.248386395416267, 0.0751512856633758], [1.555058148268882, 0.01678236948986843], [2.5468564038657635, -0.019648236108380807], [-1.5446067217929023, -0.0691061099618519], [2.596279769849329, -0.044108627549118824], [3.313183480339604, 0.027158942022105892]], [[-5.3983980861153915, 0.026695981742530836], [-5.619333511373008, -0.0210821267906384], [-7.306720282783801, -0.0266820909972904], [-5.083106945891541, -0.05928712493041279], [-5.842486492515824, -0.03230022482987574], [-6.397606297214695, -0.04996225767390923], [-5.942040167075377, 0.01878104725457396], [-6.608478433637724, -0.04342777033898486], [-4.957627909205679, 0.04487724168105232], [-6.15805978265994, -0.017969483330232176], [-6.719085137233838, -0.0201988626745695], [-5.5137829121534425, -0.0042564996478350325], [-5.141426098849473, -0.07434962999520751], [-5.79118558861171, -0.016861053691742584], [-5.532576483670659, 0.018634316627094215], [-9.021192158921515, 0.06682252233826423], [-5.853063488754691, 0.043227704770525704], [-5.45930673697368, -0.02697124204462055]], [[1.247553987661514, 0.02789733547300803], [2.4826462056939134, -0.02118063268745022], [-2.536773745724209, -0.02603799610351686], [2.978234522727996, -0.060292100123280554], [0.765545535009972, -0.03309832468854802], [2.8224051217243273, -0.050727959927614225], [0.05651030127383143, 0.019779303191634692], [1.7325707614261545, -0.044025797176409885], [-0.18582610981740771, 0.045599470687986074], [1.1778160784502478, -0.018090051932113965], [2.236919199213583, -0.02072416061243374], [2.6345121170021093, -0.0038496144064307514], [2.9911467661315596, -0.07516433080965362], [1.2887097489008295, -0.016777376698017512], [2.775815322165843, 0.019628807051746536], [-0.14529530968077978, 0.06905352601348838], [2.919320115680391, 0.04407690621557672], [1.7221773560187599, -0.027146993125916747]], [[1.419379023716735, 0.06873180500712742], [0.24778415080516572, -0.0248783443315169], [0.2652933223406295, -0.03539687622749483], [5.557465966499289, -0.10061482710270683], [-0.8476266224587076, -0.029122878131270756], [0.2670871628242909, -0.08224919625954255], [2.068524467029367, 0.05314307321462723], [1.632856209872479, -0.0693793019355374], [5.10732081823088, 0.03161069896082994], [-1.6221694931778874, -0.006548069840867003], [1.539540518414938, -0.011653388572517683], [-0.8209062103003781, 0.0077678137419523565], [-3.4307067611681274, -0.05241650438698413], [1.6199083282519828, -0.017055252854953264], [-1.905450186147419, 0.05285407327968362], [2.648333486088041, 0.14776238701457084], [-0.8212067142636178, 0.08596980426280523], [0.9088247905189104, -0.036967611381466654]], [[2.71091469850718, -0.03453307499610493], [-1.0132964076061224, 0.02293819901768814], [2.18103495607411, 0.0292343140494693], [2.833140683549098, 0.06885653564344482], [1.3639139713879196, 0.025975654517666567], [1.7369589735432938, 0.057643930518574846], [1.0804278648171328, -0.025015833725244928], [0.08909836697306589, 0.04978659542225881], [-3.414376340208372, -0.04142055409919402], [-1.2495278098743399, 0.013030121564343472], [2.3149489211707395, 0.015476602283058886], [1.5242685188096072, 0.0026879859120018694], [-2.3260391897534456, 0.06792718564946826], [1.4588831494461878, 0.017841687877120257], [2.662837429556877, -0.024839390584805998], [-2.20914979199132, -0.082782870219306], [2.2559569870956064, -0.039876101672295695], [0.7852135032944509, 0.029998592051177875]], [[1.6538058465779453, -0.06753128039375571], [1.8708337550098522, 0.024779030168993615], [2.2312424264195045, 0.03604015899866271], [-4.030725555091368, 0.0996090925964774], [1.5423409948052673, 0.028323981228665005], [-1.725425825556505, 0.08148269644266132], [1.662320922301189, -0.052145643136658655], [2.630341879208911, 0.06878047484556465], [5.235879869048703, -0.030892017170660275], [3.0160446575022144, 0.006426704317685982], [3.273630810585584, 0.011127289215459687], [1.610411557187541, -0.00736174487325219], [3.3466251339292743, 0.05160100381429822], [2.9181670387140053, 0.017138118660653293], [2.2017299408637556, -0.051860408653855466], [0.46616979628320243, -0.14553222897392978], [1.8068516526009821, -0.08512149494399587], [1.977139840739228, 0.036791053273772675]], [[1.6999636060824737, -0.026694621231055635], [0.21944116526101637, 0.021081834899158006], [0.1715864170543922, 0.02668210477984527], [2.7979120135660986, 0.05928568876625304], [0.8654856740564055, 0.032299043677861246], [1.805854580472181, 0.04996111762848744], [3.0724482247343734, -0.018779944924657004], [1.6088133732461185, 0.04342684344524844], [0.4797941322142707, -0.04487782617361678], [1.7630217991939745, 0.017968292456337853], [3.296696915323029, 0.02019802823512971], [4.003221934392317, 0.004256850216580288], [5.948847283187236, 0.07434842621592104], [2.0957537141393408, 0.016860993392244672], [2.063038970232776, -0.0186332190832484], [-0.3301885995947339, -0.06681985291719951], [1.6546623205729931, -0.04322677686895601], [-4.204927413590607, 0.026970851955081844]], [[1.5119189915306492, -0.034525198627010985], [2.5796818460276527, 0.022935540009028907], [-0.2749320782187462, 0.029233603953961768], [2.422445447050085, 0.06884652946496962], [1.560585943917888, 0.02596732576738655], [2.392495555740916, 0.057635863853233715], [1.8483982850498148, -0.02500960346842285], [-0.35105348606344067, 0.04977988777014053], [-0.8651380007247643, -0.041416399500768676], [-0.31130640915436, 0.013021730829506384], [2.6991966273595542, 0.015470484100347216], [2.0653270254913125, 0.002689423095604074], [0.426138356293305, 0.0679187223961542], [2.7715041706363697, 0.01784050545031437], [3.7193510313719704, -0.024833190843092233], [3.195742080965326, -0.08276664851219331], [2.239723050946085, -0.03987092030064636], [2.297836814502987, 0.029995306951636783]], [[1.5975716974496057, -0.006607460772523416], [-0.621137391100665, 0.008194258401184942], [1.0572300670070984, 0.010285156054073166], [2.529275563445077, 0.02154940197867458], [1.2562325179100797, 0.008989059940339699], [1.1229890526290116, 0.018495806343165402], [2.678451994351232, -0.004015557851267608], [5.041525691860259, 0.01635595833477267], [-1.9900010040021126, -0.06475187117015453], [2.9112424506114634, 0.002782255831257135], [3.661599916907411, 0.004522948778746198], [2.2293222281729945, 0.003525541734173317], [3.7612300285018354, 0.09728737194690265], [0.6034486630902084, 0.007656157339509785], [2.23156822128656, -0.003967513894448348], [1.416375425124323, -0.019747695595578554], [-0.7192362460174919, -0.02336694935977235], [1.1941183802543445, 0.010966940124409592]], [[0.33270536192039285, -0.026696150380160495], [3.1826597896901867, 0.02108210518781815], [0.1401005133529017, 0.026682042176113457], [0.6703119460573335, 0.05928724579363413], [1.4607314653745123, 0.03230028235588973], [0.7197903702057962, 0.04996231154181491], [2.0261727678155106, -0.018781192918524283], [0.6524669659183292, 0.043427805240381465], [2.83398193500954, -0.04487737381872002], [1.3075126499891798, 0.017969541710944368], [0.8971557862230016, 0.020198889349166978], [0.8316262475729003, 0.0042564208774534575], [0.140943101275379, 0.07434968792590937], [2.1723981860130914, 0.016861011481390988], [4.626838017430811, -0.018634461869835285], [3.2389896650701773, -0.06682280744506755], [2.2474112525556094, -0.04322799830751632], [1.4605501692883938, 0.026971229179760355]], [[0.37330267994666877, -0.027142599042086324], [0.4629506678586872, 0.02096747725901851], [2.97807836389338, 0.026395655159085145], [-0.48572603453072477, 0.0594039791911523], [3.058426975538113, 0.032364279513326634], [3.6399978187595066, 0.05001800045633203], [3.0184709559848923, -0.019175796063529562], [-0.6231726487186742, 0.04344069104000288], [0.34040069142457474, -0.045218479160431216], [1.0541854016871905, 0.017563777819993957], [1.198488991653931, 0.020193209376475025], [0.19792804167050054, 0.00401277909374802], [-3.68797050181973, 0.07441788665508857], [1.895653162986121, 0.016699876249675442], [2.196355595304139, -0.019028103773468932], [3.178800191623878, -0.06753209861717517], [1.3735581134500463, -0.043584378015604386], [2.745138983657424, 0.02687631903934643]], [[1.7260618918601365, -0.06753080672003478], [1.5786067344127401, 0.024779111019825523], [1.7787859048778527, 0.036040312516747], [-0.8002158924120437, 0.09960891802894688], [2.728535085332474, 0.02832385067689554], [2.7586155756572164, 0.08148257566312687], [0.25354721505179817, -0.052145230840025245], [1.1371974363038129, 0.06878040473823013], [2.395441276575726, -0.03088963786652813], [2.6722069090720746, 0.006426571454786768], [0.5218951610058077, 0.011127241087126618], [2.9425744548006265, -0.007361511291553196], [4.604049904480082, 0.05160086845517225], [1.7950839656380655, 0.0171382545673272], [2.0976801348912564, -0.05185999749739348], [0.6232438788654715, -0.14553144413536995], [2.276054769486025, -0.08512117400441278], [-2.804724790618205, 0.036791110779979534]], [[-8.08107028276325, 0.026695981742530836], [-7.962433433763086, -0.0210821267906384], [-8.757077930949354, -0.0266820909972904], [-7.68573476880828, -0.05928712493041279], [-8.087551861460621, -0.03230022482987574], [-8.125361536387844, -0.04996225767390923], [-7.678520842404599, 0.01878104725457396], [-8.377774503365517, -0.04342777033898486], [-8.988963214985239, 0.04487724168105232], [-8.017456537069185, -0.017969483330232176], [-8.581544326457824, -0.0201988626745695], [-8.206642033117227, -0.0042564996478350325], [-8.169433103060966, -0.07434962999520751], [-7.634738867338645, -0.016861053691742584], [-8.722089227278564, 0.018634316627094215], [-8.478821565794476, 0.06682252233826423], [-6.866061241934991, 0.043227704770525704], [-8.60761654436416, -0.02697124204462055]]][[[0.535710556570786, 0.06883050798911182]], [[-0.15455678743979678, 0.07030462968074933]], [[-0.23363778725858247, 0.07008545452443432]], [[-0.713490256699254, 0.06883046802864268]], [[-0.21952365896156995, 0.08098553794039624]], [[-0.5780141805364619, 0.06883050799196623]], [[0.4207188948921199, 0.06883050798885759]], [[-0.48307826440877816, 0.06883050798884156]], [[0.5081963466685319, 0.13395683673011294]], [[-0.03859908801193218, 0.08134794083451227]], [[-0.07554517994624321, 0.08028875235559135]], [[0.08601324153870078, 0.0688344341641013]], [[-0.5055242754492763, 0.11467865309797587]], [[-0.09710527813131503, 0.06883050886571279]], [[0.41858708957313734, 0.06883051396148503]], [[1.1186866491299803, 0.06883050798864941]], [[0.7130866730097639, 0.08098422899462276]], [[-0.24399055639221806, 0.06883050851283673]], [[-0.3504332186230015, -0.06883050798885199]]][]