[[[[-3.9731526044715033, -3.404214827974092], [15.485839043963455, 1.1248733064660579], [-2.8672187806698126, -2.8498331194509365], [-19.751249506943665, -2.996595298369893], [22.57220515092376, -1.6832267731367765], [4.783656534554337, 1.6441490728968051], [-5.249972014156611, 1.51814041367522], [9.181768121939799, 3.699718209228965], [10.022949211244192, 0.4719344984554648], [20.393294977788468, 2.5748226289529], [37.63884774059232, 1.5274290877490249], [16.92935562078035, -1.1246355121861265], [17.3683793338784, -3.0013605501270266], [7.913179722323565, 1.608918404591222], [-0.42610516893433514, -2.7208305624367584], [14.383981679819604, 0.24561186448016098], [2.5147716922099224, -1.9852394866103595], [10.833677730462252, 2.131283524847622], [31.124996224591428, 0.17902111940072452], [55.793099376832856, 2.5388321719915194], [13.634653845477974, -0.6416538030176733], [-10.494738666204034, -2.469120570947105], [11585.453065002223, 14.646199776880874], [-40.15421238102541, -1.9071017966474222], [-0.7167706104877175, 0.813103616786302], [-12.559918072857894, -0.6116685825368029], [3245.873869186275, 7.380771783599054], [19.56448814204451, -0.8233266215704893], [34.48870435226812, 1.758486114629049], [-24.556036056451706, -0.15391776776006028], [18.915515573151115, 1.275862618064789], [-0.2303456321259385, -3.0674871171103217], [0.4135488405296439, 0.9560232125118844], [-14.944149730992603, -2.0764408398692007], [-29.985440708682948, -2.3752177020115512], [-19.35128235074577, -2.1015969544352924], [0.4480286265144273, 1.297436971290228], [3768.5392844033313, 7.803709502071917], [-5.816783756154099, 1.5019615979183853], [-23.470833612767507, 1.6496212703013702], [37.0756698302246, 2.1563322868573884], [20.713434009400736, 2.068677398449197], [-18.891390025316916, -0.5065222541056972], [6.665317357676517, 3.385901121576567]], [[6.616557762360158, 6.653011823201322e-06], [-27.106379500940744, 8.476235457147178e-08], [-11.898824356713279, 5.292934190197643e-06], [-16.509970575775633, -2.5641412410973784e-06], [-1.7888325192882761, -2.9379457740491824e-07], [-10.705832540351755, 4.0436096807888775e-06], [5.581974456180409, -1.7705883813330827e-06], [-7.696717737326851, 6.539132883424812e-06], [3.4453215051516866, 1.7327809966402187e-06], [7.696505726092607, -5.802319496863576e-07], [-11.58643557211392, 2.076598154805498e-06], [-15.169965466084944, 1.3202041774663635e-06], [-3.1882957032006822, 5.5842507950810665e-06], [15.155510738399043, 3.445358073216964e-06], [12.355006347138875, 6.125813401469914e-06], [-4.601609752106394, -1.1836121102843406e-07], [46.60515332031034, 3.4117516902790973e-06], [15.13284652426553, -2.656001423796288e-06], [9.244601035102491, -4.181473162191977e-07], [17.029633562252428, 3.679840775263921e-06], [-6.3843881056126, -2.1212677844608973e-06], [-3.192836992573493, 2.8351704638746874e-06], [4715.840099370312, 3.634275949389387e-06], [22.888851487032372, 1.5856221390972428e-07], [-2.639592000123599, -5.452338069327437e-06], [-19.69272092599036, -2.8648819491500086e-07], [1262.7437668452371, 2.3296120341101464e-06], [30.901048786444257, -2.7342637356417288e-06], [36.792414762705484, 7.12006736822044e-07], [-29.37620872496577, -8.553065901868293e-07], [32.65116588607473, -1.1919902027357388e-06], [-7.094172023011224, 4.379724273033665e-06], [18.66331467481858, 1.8301576092430814e-06], [-28.09314595569356, -2.6562221617786735e-06], [24.998282841447836, 2.0149225830978393e-06], [-18.008452925578, -1.6850701541396242e-06], [-22.737014656775465, -1.4684953659552978e-06], [1543.6469265855167, 2.8844823580381116e-06], [39.4640247689001, -1.7168713205070085e-06], [2.2781926324753137, 2.8021352688029236e-08], [17.668096315417003, 1.4152256471943735e-06], [-19.949829862010397, -3.2639565469080186e-06], [-9.147009041226692, 1.8996815102286568e-06], [-3.277006570939696, 3.68285761975991e-07]], [[9.251973097782466, -7.682646843581808e-11], [9.70379368592828, -3.4673867716224173e-11], [14.440750731278722, 6.646834310734036e-11], [-17.658872956566125, -6.546489627148481e-11], [7.1004166718323125, -5.117177594880389e-11], [29.422123816856615, 5.363181725198195e-11], [-16.88893059534413, 2.928505346227425e-11], [19.755873113951907, -7.554860384667703e-11], [14.78926678299242, 7.90493215713173e-12], [5.4631069418473395, 5.5011672991448363e-11], [-21.231755120214284, 4.255735728207016e-11], [-4.2602127943646195, -2.273776839234672e-11], [-18.407833235631426, 4.8502114437859294e-11], [9.302755307412637, -4.320543973160912e-11], [23.5135688021904, 7.134911716598332e-11], [-15.490103902645455, 1.06432715214792e-12], [-13.37721469466249, -4.8687299753476106e-11], [2.2640947757491587, 3.202261820892514e-11], [15.561222599520255, -2.1692467716989383e-11], [21.12260115108239, -6.005262215942224e-11], [-5.544718977061863, -1.848366705597571e-11], [-15.574753157662773, -5.165688592975175e-11], [8013.801484901167, 3.6654836277693923e-10], [-27.31424240190518, -4.690765584829093e-11], [-34.89837578628685, 4.11119410516287e-11], [-2.2067476532611665, 4.765506555568264e-12], [2192.9951003613255, 1.8146138313639246e-10], [-38.60722348353268, 6.060223942188513e-13], [8.431162856452907, 3.543846911562691e-11], [27.50033905324426, 1.3741680151458944e-11], [19.459256669332472, 3.952288230063126e-11], [25.559418793058462, -5.804755395443467e-11], [13.344154011447968, 2.990868351488929e-11], [-31.830570801281063, -5.827350652966595e-11], [-31.81822388371587, 2.653078595190258e-11], [-5.21072495281116, 6.714172599965332e-11], [4.026025766807585, -4.454274928376464e-11], [2502.3837232174274, 1.8000709073754455e-10], [15.268081940279963, -3.063455147122543e-11], [-23.786584079827584, 3.903156166567266e-11], [-6.382505460211529, -5.4647370748268216e-11], [2.2232794251777825, 5.507497349534799e-11], [-21.265541336274385, -1.9601811876160352e-12], [-19.452584431850973, 6.820909490034657e-11]], [[4.727929728512039, 5.672173526963543e-06], [-12.421092755736666, -2.2309206323493685e-06], [-27.9567542241592, 4.842440036773067e-06], [13.250411184463532, -4.367573324739956e-06], [26.096949157977694, -3.896530869885021e-06], [-17.980714057401237, 4.056697880833145e-06], [-15.853978466866486, -2.0408754072712946e-06], [14.424331526248604, 5.93212695984019e-06], [-21.027933007857392, 6.160365941341384e-07], [13.255223200976678, 3.3899359896955686e-06], [11.698970193739402, 3.2723457668059482e-06], [21.288795466550148, -1.686438295152598e-06], [-2.3443245679741826, 5.0493085739037695e-06], [10.434945261858077, 4.727565583501218e-06], [18.261745176860956, 5.751151541354188e-06], [-4.3524636995234465, 1.213418868206815e-07], [10.142090371622027, 3.4573967640373887e-06], [-3.0088822098950425, -2.6847470443038865e-06], [-29.977910496686174, -1.5962402575855963e-06], [7.814660914541401, 4.708306136946661e-06], [-12.470292666528437, -1.3178982243054975e-06], [-10.106555737917532, 4.049051644418555e-06], [12772.436577881288, 2.7233717520235947e-05], [-8.233745604729641, -2.9826677837602302e-06], [32.03253024228389, 3.1439590364454715e-06], [1.469810067372878, 4.929429202869389e-07], [3611.925456348191, 1.3487151980595877e-05], [-10.938342020113284, -2.2056221588011308e-08], [2.6245871695859044, 2.3100303412115517e-06], [9.196374282618253, 1.0883039962436727e-06], [1.294872062190963, -2.240334430415881e-06], [35.10202432741299, 4.589906820264943e-06], [8.907117107144446, 3.4930211974820515e-06], [17.652059048878346, -4.4423865295091004e-06], [10.314490673719678, 2.976864650492709e-06], [2.4766247347480466, -3.589058792269861e-06], [22.804581751338514, -3.3803856223206956e-06], [4288.076374556531, 1.3355816474070533e-05], [6.209730036147361, -2.074492755282548e-06], [8.087769494934241, -3.259159394284642e-06], [5.994732250484991, 2.8282366672909753e-06], [-0.5346166628491927, -4.2141358646753585e-06], [11.705146977490433, 1.5140280208266522e-07], [0.20479406296789787, -5.387051255471062e-06]], [[7.214943966181417, -6.37802498385281e-09], [1.314237938326384, 2.3670958683347128e-09], [-2.696515006247738, -8.520401488149136e-11], [-15.80465614832305, 5.627355467882446e-09], [-19.868102232951003, -4.555157397100524e-09], [-3.198992278186543, 4.436179798426419e-09], [10.181295443241535, 2.8842564706759033e-09], [31.173282668622615, 6.317174409113163e-09], [22.10818849153545, 1.0539464192697135e-09], [7.707580946380692, -4.7530287545211216e-09], [-13.07536308468163, 3.947289343376291e-09], [8.113198545374104, 4.162806591830029e-09], [-24.99414095633915, 4.5249865068574876e-09], [33.83116840211512, 3.093618927548713e-09], [-11.1534166391819, 6.356181616702468e-09], [4.782504689081143, 1.3550181067826043e-09], [-7.452294239693385, -6.036060437410823e-09], [-15.157840456814606, -3.171540734772172e-09], [24.24516896806101, 6.179158508045235e-10], [-2.8225458498434555, 5.105376591785581e-09], [20.582433836847503, -2.035765292313693e-09], [35.436811292543666, -4.869537662259303e-09], [12762.844984132049, 3.26121303744411e-08], [2.2709532512050563, 9.731045141782935e-10], [24.180901805138745, 2.633276004527386e-09], [3.0646093523281652, 1.4066114536510914e-10], [3516.5669877586197, 1.6191356916350643e-08], [17.217825947382238, 2.860855967712546e-10], [-5.523233513473591, 2.646713661544295e-09], [-15.948033838768932, 1.6225864547575245e-09], [10.078060397068572, 2.0541775750060331e-10], [-3.905992004198969, 1.3111982089214072e-09], [10.921867504620517, 3.5241835741300095e-09], [39.577290459653234, -5.080984052447399e-09], [1.07516796787474, -1.4068686335971318e-09], [3.6591975770206866, -3.996422941484452e-09], [12.983654641961653, -4.090192670131922e-09], [4223.118908819266, 1.626961231256365e-08], [22.210797580819865, -3.0984211931521622e-09], [-5.905648179762384, -4.36359930371725e-09], [-6.2364136772300975, -3.833784648056128e-09], [-6.982412295112249, -4.694932255829514e-09], [9.682056766214407, 2.830672070071163e-10], [-19.82792173647878, -5.970140938863687e-09]], [[-21.48246333477036, -3.4042148239985224], [53.68320998148494, 1.124873304759635], [20.03684268949822, -2.8498331191553774], [-4.035439351706433, -2.9965953020032994], [-14.139526588905735, -1.6832267702926398], [25.193556335702898, 1.6441490701315569], [21.463654568789618, 1.518140411871479], [26.519065022256633, 3.699718205148494], [7.9677788502727696, 0.4719344977932696], [9.132322951841129, 2.574822632021132], [-19.672790894501567, 1.5274290852821952], [-11.133415230715315, -1.1246355150635081], [6.804003137998831, -3.0013605529549947], [50.86801856962792, 1.6089184023649368], [-65.0698083136237, -2.7208305664058896], [-21.743037756466325, 0.2456118635976997], [7.542486538751309, -1.9852394827655553], [35.07197295289305, 2.1312835268907215], [47.86713392909387, 0.17902111889203765], [17.255437001497008, 2.5388321686945168], [17.802755349118108, -0.6416538017423097], [-2.879363555947347, -2.469120567903674], [8160.507399797906, 14.64619975652165], [11.074770971508592, -1.9071017974711055], [22.772785253778608, 0.8131036151532302], [-5.246362873164001, -0.6116685825949573], [2345.1300332312003, 7.380771773490389], [-15.28591650344292, -0.8233266217754937], [7.029254259153284, 1.758486112981556], [-1.4580242138421164, -0.1539177687779062], [-23.7037865522154, 1.2758626180398762], [-15.157028427711433, -3.067487118209169], [56.618645139083114, 0.9560232103023907], [30.008778614234103, -2.076440836697813], [-5.943448685827196, -2.3752177011491944], [25.241610335375277, -2.101596951835946], [49.12787005091685, 1.2974369738455045], [2687.9730465095054, 7.803709491911856], [43.94523185369916, 1.5019615998571039], [-29.426959971216863, 1.64962127310843], [-20.458767597391248, 2.1563322892402175], [-26.618174678561875, 2.0686774014806004], [5.600093350008878, -0.5065222543192882], [34.08789185874484, 3.3859011254309515]], [[23.15375516896395, -1.0503796454386548e-08], [-16.621766511102855, -4.849882709846334e-09], [0.683685147560255, 8.824883901098449e-09], [11.048497902216422, 9.505378790379689e-09], [1.6740031376647306, -7.230559703502983e-09], [9.05063466441141, 7.361096913149081e-09], [-27.057944979948427, 4.328594887520092e-09], [18.635147808231086, 1.0844340795197858e-08], [1.6556136855423216, 1.3073858467742869e-09], [23.434374346924425, -7.904320202380922e-09], [17.2820531386566, 6.1258187364261356e-09], [-3.7161373919124143, -9.147807258039217e-09], [6.860151648404875, 7.234359723592977e-09], [27.51515446423854, -6.102365713661029e-09], [-16.795220080877108, 1.0481864322980734e-08], [21.712060156276642, -9.955727820813788e-11], [-14.271129727902656, 6.352010212251595e-09], [14.951194309309388, -5.071756010315021e-09], [20.24283602110547, -3.355092732458816e-09], [15.784462033356562, 8.663064422953505e-09], [-2.506763158702436, -2.769882592155956e-09], [-33.53743423777839, 7.510122334895612e-09], [8549.592690849928, 5.0885894431578833e-08], [-9.35761933582618, 6.390428755601075e-09], [-5.69687360166306, 5.296023690295677e-09], [15.283774696841538, -1.376189761240283e-09], [2311.021830171293, 2.5218937978326385e-08], [14.948158961414654, -8.356193891173247e-11], [24.710149564338998, -4.034663344828891e-09], [-8.768777177293089, 2.191840530512596e-09], [4.160726590044617, 3.3250807039572086e-09], [-31.79308918458255, 8.37311405584444e-09], [8.618556438757848, -5.621964969098873e-09], [4.36143500708403, -8.185863415658783e-09], [-7.135917348725091, -4.966095779116207e-09], [-10.273394933317723, -6.675875387817654e-09], [4.766289883210739, -6.343779910149921e-09], [2697.4550151550793, 2.5093311904720492e-08], [-5.147691086603206, -4.483209495722673e-09], [-43.84190015711822, 6.94324771298453e-09], [-21.16230350544723, 5.419228343762731e-09], [7.032513356747276, -7.81670438150658e-09], [6.108841175205213, 5.650777412635488e-10], [16.044973337291847, -9.974878037834891e-09]], [[-44.44516776371001, -5.106322229330053], [-11.76040697766242, 1.6873099637607665], [-13.927241421245597, -4.274749687973987], [-10.563342594982018, -4.494892958936988], [12.811076624867198, -2.524840150954504], [3.0456662285924714, 2.466223600504452], [3.9785458822397235, 2.277210615221885], [44.627395433231285, 5.549577300898411], [9.44946149718923, 0.707901746024385], [8.745549169813685, 3.862233952916654], [22.592684739286838, 2.291143624180542], [-8.540444911828482, -1.6869532605186532], [8.684677234873826, -4.502040833936672], [-3.794650831245362, 2.4133776119594], [11.484180415499019, -4.081245856260873], [4.1373835156342995, 0.368417796368456], [-22.30184362595711, -2.9778592342548698], [9.713131964478814, 3.1969252933981216], [-2.405775739567345, 0.26853168225147556], [25.4543479149403, 3.808248247626521], [-14.119426228500048, -0.9624807010777501], [-34.607810016624505, -3.7036808623041386], [10417.695092019145, 21.969299603561073], [-17.164910814654437, -2.860652701684326], [-14.777111723300544, 1.2196554190041613], [-8.398891865319142, -0.9175028724756956], [3131.2070898381967, 11.071157644780767], [-7.3095648064853025, -1.2349899323681246], [11.990661449296706, 2.6377291750964367], [2.5887953828194727, -0.23087665437340674], [39.96885478341914, 1.9137939237034438], [-25.287693724742, -4.601230684471724], [17.344989694043473, 1.4340348232147488], [2.2370379330926893, -3.1146612499222366], [-21.66187439534695, -3.562826547582505], [-31.715618893375257, -3.1523954236444087], [1.1952297547579107, 1.9461554646439096], [3655.7962429235854, 11.70556422258984], [-1.8594051267583906, 2.2529424023943183], [39.90954731307213, 2.474431899962755], [21.767706245881634, 3.2344984261440053], [32.24904246281763, 3.1030161070541302], [17.877281521695835, -0.7597833818182272], [60.502301585241916, 5.078851694327118]], [[2.0772104457942064, -0.851053706993523], [-8.322090199331274, 0.28121832661651447], [-7.945018029256472, -0.7124582798627341], [2.71823967918954, -0.7491488245924732], [0.377577336280482, -0.4208066932841941], [-23.510554014971163, 0.4110372682242013], [-6.2319587134379315, 0.379535103418805], [-3.263416140136129, 0.9249295523072413], [5.797258776480523, 0.1179836246138662], [1.1492142768038875, 0.643705657238225], [-19.954036783235342, 0.3818572719372562], [5.094590540059096, -0.2811588780465316], [-15.877867627339066, -0.7503401375317567], [-22.999744072086376, 0.4022296011478055], [1.020746860142502, -0.6802076406091896], [-7.563955693072184, 0.061402966120040245], [-17.286350079971644, -0.4963098716525899], [-15.708797100076405, 0.5328208812119055], [-23.112059380379744, 0.04475527985018113], [12.247915346816825, 0.6347080429978799], [13.111201845905287, -0.16041345075441832], [1.8578626054299279, -0.6172801427367762], [3830.1730649792216, 3.6615499442202184], [14.694490522322997, -0.47677544916185555], [-13.44836353248831, 0.2032759041965755], [12.674047880359723, -0.15291714563420072], [1031.742985613014, 1.8451929458997636], [25.368376370176712, -0.20583165539262233], [7.0425903770300735, 0.43962152865726223], [-2.2790174823579563, -0.03847944194001507], [-12.24903898726716, 0.31896565451619724], [-23.99266768100817, -0.7668717792775804], [-2.8904812977169034, 0.2390058031279711], [0.1365831781708995, -0.5191102099673002], [15.410844194019397, -0.5938044255028878], [-16.39070195874928, -0.5253992386088231], [2.26550266865648, 0.324359242822557], [1144.8607334544618, 1.9509273755179792], [1.7254884814494986, 0.37549039947959634], [21.250317976961938, 0.41240531757534254], [4.727879122656774, 0.5390830717143471], [4.959984055184197, 0.5171693496122992], [-12.371158840140271, -0.1266305635264243], [6.660178091979964, 0.8464752803941418]], [[18.784088009687203, -0.001894030173266933], [-11.586950378298267, 0.0008689024489982226], [-8.376429394437304, -0.0016022769862956577], [20.849332672268048, -0.0017872641823945886], [10.267512614943557, 0.0011962799258204795], [-9.931039248453398, 0.0008966275980622855], [-0.08604703925917437, -0.0010622693892683272], [4.5843303398332305, 0.0007324165270315873], [21.021672587935257, -6.84610935967771e-05], [-8.695641383018097, -0.001553179456914645], [65.63040804681893, 0.0005965743714296476], [-11.641880840683806, -0.0007956727396560255], [25.62690622076817, -0.0017261431568282022], [-11.253260650132006, -0.0011795715804981343], [-19.55092173559239, -0.0016368169723931748], [-5.8326574310982355, -0.00036211640681552175], [-9.034380461085377, -0.0011540559719438218], [9.390431363935214, -0.0013063466870712431], [18.28609724235867, 0.000502958318884793], [-5.802704310065273, 0.0015042582340247526], [-4.574764561211797, 0.0004824937669193302], [-13.324888583541886, 0.0014328768249723101], [3595.014179403566, 0.010418071613645503], [23.033478350428915, 0.00044373606343114415], [33.00339149318378, 0.0008341225785972654], [12.68330606693956, -0.00012908914811809617], [1025.1197861191858, 0.005251701044976536], [25.35379039288117, 6.671239894785145e-05], [16.387934127900234, 0.0011233728030223462], [-9.143304532272388, 0.0002610605432015198], [-3.075260203164071, -0.00129941155773468], [24.77624769553965, -0.0017872367270447638], [6.9922716789736805, -0.0008801940322779337], [-25.682116325356755, -0.0017104860678814659], [10.361547961645426, -0.0015077951234989718], [-3.445934219106188, -0.0012844149263580074], [5.955584929525259, 0.0009496498738035659], [1151.6510086481587, 0.005492840438117213], [1.0896759085195449, -0.0012574816159597773], [4.91103085495396, -0.0011960103843168357], [16.481880796741788, -0.001574612585700238], [-47.915243777429566, 0.0013063158513865174], [0.5112071955205584, 0.00019477045980486864], [-2.3144526627558317, 0.001956982116573796]], [[-18.381784779425153, -0.851053706993523], [-5.296814376376357, 0.28121832661651447], [8.08774201600477, -0.7124582798627341], [-6.9340066703393894, -0.7491488245924732], [-7.73256860084001, -0.4208066932841941], [23.996785268936225, 0.4110372682242013], [19.258674317453274, 0.379535103418805], [14.555883310923674, 0.9249295523072413], [2.970077519781001, 0.1179836246138662], [1.3896994595996452, 0.643705657238225], [-14.366907721825523, 0.3818572719372562], [-35.97438948117148, -0.2811588780465316], [6.812485068639289, -0.7503401375317567], [6.5447815385529875, 0.4022296011478055], [0.3267392184996537, -0.6802076406091896], [15.8400482467127, 0.061402966120040245], [5.2897387199693275, -0.4963098716525899], [26.00294956043071, 0.5328208812119055], [-27.562681020589284, 0.04475527985018113], [25.352551050727055, 0.6347080429978799], [-27.4677850458674, -0.16041345075441832], [37.61243598533091, -0.6172801427367762], [2868.56968322976, 3.6615499442202184], [39.26838092498712, -0.47677544916185555], [36.47034475949979, 0.2032759041965755], [3.5986441415550203, -0.15291714563420072], [758.4640937643289, 1.8451929458997636], [1.4597630266270762, -0.20583165539262233], [4.281792934672133, 0.43962152865726223], [11.07029518201743, -0.03847944194001507], [-40.828623632325176, 0.31896565451619724], [-9.358799393706958, -0.7668717792775804], [-64.41579134603556, 0.2390058031279711], [33.30533093770684, -0.5191102099673002], [-25.292057499592516, -0.5938044255028878], [-11.53432413178872, -0.5253992386088231], [-42.32608464488002, 0.324359242822557], [969.9504358346475, 1.9509273755179792], [-12.01135773986293, 0.37549039947959634], [1.8895849700759262, 0.41240531757534254], [20.468708591711337, 0.5390830717143471], [30.182858361424188, 0.5171693496122992], [10.440745436360189, -0.1266305635264243], [27.549101831705773, 0.8464752803941418]], [[10.182667899018478, -7.30654347372089e-13], [4.951153190179491, -3.349677203078766e-13], [-11.22310379099051, 7.145244561595586e-13], [23.494025096960797, 8.588911282361263e-13], [15.530064368214488, -2.462139295695959e-13], [-13.797330149815217, 4.835467972972299e-13], [-29.31905390646077, 1.012104342741881e-13], [37.14477554545794, 7.996266350478802e-13], [12.895494020431377, 1.1930653393282525e-13], [19.53282013444254, 5.035019681908293e-13], [31.25511541850088, 2.2926235110447577e-13], [12.467342089283976, -3.30854826682382e-13], [-8.270767500900527, -5.986771079334892e-13], [-11.964117691920443, -2.3778752080514035e-13], [1.2221414855599364, -9.285045734143719e-13], [-13.006887898462004, 1.9879105185442156e-13], [-21.06804453161058, -5.595190922848006e-13], [5.749794651735036, -3.762184750374904e-13], [-12.560178954703943, 1.397136384398654e-13], [-9.187316348303279, 6.821169845692565e-13], [4.492579994375356, -2.5794699453394135e-13], [2.3737396262788506, 5.542573845787496e-13], [2696.0011260222077, 5.427691754749494e-12], [-19.848655865563664, -2.1991109080133482e-13], [25.832637625982994, 1.1071417024617103e-13], [1.684164000177531, 2.6859483391354806e-13], [597.5168698686189, 2.7128361441556796e-12], [-69.78840736921845, -2.897939028229513e-13], [44.178499466017556, -3.5229442204201534e-13], [32.307196806886466, 3.266144120130965e-14], [-25.7190451868334, 1.0888405117539585e-12], [-6.697031462478965, 6.481162445864855e-13], [-29.311681519831954, 6.23137579654144e-13], [14.22883425359545, -2.504594744248522e-13], [23.916375688472762, -1.8227317103785374e-12], [-26.50309038206009, -6.578845643655862e-13], [3.65652757340589, -2.759317205145999e-13], [792.5812237208, 2.830431763785212e-12], [3.7835128218402447, -3.0614236242627965e-13], [17.494155962399333, -2.921314619741534e-12], [10.78899220368726, 4.557339998015097e-13], [-13.406618624353044, 4.965430088780494e-13], [26.682397849000367, -2.2800899494237816e-13], [20.77056259397364, 4.902248148415224e-14]], [[-26.18310894299011, -4.255274207141534], [22.993220976474888, 1.4060938640033838], [-15.483920936737753, -3.562296241753372], [-1.1080825900473048, -3.7457397553886773], [-21.99959732693599, -2.104029569889836], [29.191169379883764, 2.055182284423398], [-8.260960920372348, 1.8976775579692269], [20.755254037088925, 4.624641829409653], [6.880601966019122, 0.5899175070326439], [12.105710999382659, 3.2185248962548325], [2.5074019463385224, 1.9092830873402558], [-3.1208879508663045, -1.4057927037942182], [-25.84124002664934, -3.751705736967647], [20.378686344520432, 2.011143278173669], [-18.11949975418646, -3.4010439541978905], [-15.402232245763537, 0.3070147092582614], [-28.389652598359067, -2.4815528156599704], [-21.076321583074836, 2.6641070908063664], [4.188496765040264, 0.2237779954913026], [15.440062142420429, 3.1735355066835904], [20.856258416372132, -0.8020659358737553], [-19.910602936186805, -3.0864047627352367], [2774.995004226105, 18.307722487385586], [4.474677993440991, -2.383874263141255], [13.764640797975652, 1.0163763770239818], [-11.696480968606215, -0.7645862211140118], [879.4865588786606, 9.225951242347834], [-11.966349151920522, -1.029158254906933], [9.765016156011397, 2.1981053332561262], [38.54154698287661, -0.19239829800396596], [25.222215992203907, 1.5948305129155516], [21.344467839128217, -3.834363486294403], [4.555576317622733, 1.1950255226188744], [-36.012739530966655, -2.595546607449674], [-22.76723653824604, -2.969025104378893], [0.0011899476690109267, -2.6269926039855775], [17.60781156158349, 1.6217995944986447], [935.2448210134845, 9.754623521774421], [-1.9070943016464041, 1.8774540718909143], [23.25454344652759, 2.062029847036381], [5.8482466509808795, 2.6954125303348264], [-6.992531788133745, 2.5858509621970613], [-8.525994790693273, -0.6331529690348958], [2.771149511080961, 4.232381789022338]], [[4.139520415733511, 8.070889255136767e-14], [-3.2935600726967764, 2.059207506140224e-13], [26.57730093826772, -6.980395268568046e-14], [-7.874131203452439, -4.3955395148253696e-14], [-4.058255809066525, 5.526670150136615e-13], [-12.485267993981632, -6.27355141601085e-14], [13.414426377694564, -3.6622147908542866e-13], [-28.708656685019914, -7.194061633295694e-14], [-22.20879418957625, -1.1786319486959955e-13], [-16.28065089694467, -3.464768663842419e-13], [-17.495738903678497, -4.987261800050047e-13], [21.142140674557556, 2.094878925645156e-13], [-41.043440546312326, 1.3248012851899397e-14], [18.37066416012036, 4.617509726085247e-13], [-10.881626246858922, 6.647662473371434e-14], [-32.851803646038775, -7.327106375386447e-15], [-34.89639105497155, 2.547910512375015e-14], [-20.875877667536493, -1.8702219511911478e-14], [25.35857288927997, 5.3053657443158375e-14], [21.468492583507093, -4.19840998826635e-14], [-22.54199989742475, 1.6744869535095826e-13], [9.405543224051112, -1.3492700566172408e-14], [3289.564978868972, 3.2243809735339696e-14], [25.656684109983402, 5.074964552053143e-13], [-7.015793819475723, -1.9232958927231157e-13], [9.170219614479374, -6.393003037250661e-14], [836.2141206590517, 2.2758047379231287e-14], [-3.938180574434594, -1.0303129917763185e-13], [-12.27635034008358, 1.7554033079804608e-13], [-3.9430352995253637, 7.491951836912955e-14], [115.91157508077816, 1.0861106257391146e-14], [7.711912621616006, -3.2265818694317636e-14], [33.458484311582396, 1.5105279784285054e-14], [50.20451674470563, 6.383861279668369e-13], [-2.8330721640221714, 2.2319743893434114e-14], [30.281156300727094, 3.709185904674199e-15], [15.389664941638477, 4.73249932183027e-13], [931.9360127173335, 6.129882364318093e-14], [4.4833950327471275, 3.055535299280278e-13], [-12.17885824975205, -9.48433627562245e-15], [-1.4924937762087063, -2.7098710752622304e-13], [22.590152869874657, -3.4196183583953285e-13], [12.136270675446308, 9.344618797584725e-14], [-10.116605680938, 4.295504402786675e-13]], [[-2.4131234311747107, -0.851053706993916], [-5.58434306163198, 0.28121832661657364], [-33.21008212720069, -0.7124582798625987], [-20.645862400935762, -0.7491488245923513], [29.206747858446732, -0.42080669328414033], [29.01387785213407, 0.411037268224494], [19.328339807462967, 0.3795351034189635], [25.247653891251854, 0.9249295523073955], [-4.995299805375137, 0.11798362461390911], [29.104165447485137, 0.6437056572381397], [41.547644511494354, 0.38185727193720437], [19.361836448694604, -0.28115887804656303], [-5.703768900494331, -0.7503401375318386], [16.119198881846025, 0.4022296011478661], [0.6036461466081787, -0.6802076406093446], [30.420296004902035, 0.06140296612009545], [-8.648684339687051, -0.49630987165281953], [-4.009176933388444, 0.5328208812118693], [20.324043235875305, 0.04475527985017194], [19.26412804303909, 0.6347080429979914], [-3.8741538009134544, -0.16041345075443947], [-13.159122747526686, -0.6172801427366964], [5021.2881785484, 3.66154994422068], [-51.19869304876499, -0.47677544916177794], [8.778782600784849, 0.20327590419640787], [1.9627321688472572, -0.15291714563424974], [1376.535340238119, 1.8451929458999863], [6.2281972713622356, -0.20583165539267828], [-0.029033929630700894, 0.4396215286572663], [-20.194531914709444, -0.038479441940030834], [-23.044526786183955, 0.3189656545162203], [-15.460034760850968, -0.7668717792774784], [-27.136116379547175, 0.23900580312801062], [25.586197654638077, -0.5191102099671978], [23.901170277314108, -0.5938044255028588], [14.336264137116112, -0.5253992386088889], [21.1229177273578, 0.32435924282260953], [1600.804681143491, 1.9509273755181729], [11.413473591001823, 0.37549039947959684], [5.571937258400582, 0.4124053175754153], [-19.669349907591794, 0.5390830717143309], [37.75864913851609, 0.5171693496122142], [-9.190096859999322, -0.12663056352634236], [-24.84888149319602, 0.8464752803942592]], [[11.425691192013012, -0.851053706993523], [-4.209987252479814, 0.28121832661651447], [9.755465065089743, -0.7124582798627341], [12.284022909657468, -0.7491488245924732], [-12.911995818416614, -0.4208066932841941], [-7.976302184339356, 0.4110372682242013], [-14.792302898985255, 0.379535103418805], [-2.2608283181357245, 0.9249295523072413], [-28.029787399853724, 0.1179836246138662], [-6.874182326432075, 0.643705657238225], [-1.4302478085315238, 0.3818572719372562], [13.104166224222164, -0.2811588780465316], [20.585056784753863, -0.7503401375317567], [-5.611516671318378, 0.4022296011478055], [8.42454693017838, -0.6802076406091896], [22.827191398275335, 0.061402966120040245], [11.763569984705324, -0.4963098716525899], [0.1641679841958783, 0.5328208812119055], [5.2149683427274205, 0.04475527985018113], [-6.512450925963301, 0.6347080429978799], [-11.629430492243996, -0.16041345075441832], [27.543741430273847, -0.6172801427367762], [3430.689952183647, 3.6615499442202184], [22.07288843074788, -0.47677544916185555], [6.529442899638467, 0.2032759041965755], [19.779560690635307, -0.15291714563420072], [1004.4310693854383, 1.8451929458997636], [9.994108289789176, -0.20583165539262233], [50.24472265487923, 0.43962152865726223], [13.267382406729647, -0.03847944194001507], [16.113264491130444, 0.31896565451619724], [-3.6399349775147236, -0.7668717792775804], [-3.140115088103198, 0.2390058031279711], [2.240824233057709, -0.5191102099673002], [14.066507236802709, -0.5938044255028878], [28.020820973874404, -0.5253992386088231], [2.153172321022172, 0.324359242822557], [1149.6123382995743, 1.9509273755179792], [-2.4802405233896985, 0.37549039947959634], [17.596330082819694, 0.41240531757534254], [8.292427362394026, 0.5390830717143471], [4.371436172988092, 0.5171693496122992], [3.972905361621624, -0.1266305635264243], [16.726166095645834, 0.8464752803941418]], [[7.662646823052646, 1.2411782120146811e-40], [-2.774561354047873, 4.069203761011286e-41], [-10.759709800955228, -3.044793649024011e-40], [13.588813020536602, 1.1544236813849887e-40], [-20.24900750094216, -4.198395820500814e-41], [-9.195636962945846, 2.5089104278398095e-41], [-4.34638353008307, 1.5388167133254542e-41], [13.748852983729057, -6.240821464505686e-41], [30.349499413188852, -7.020579602337449e-41], [-18.12966422150715, -5.030740978304216e-41], [-34.69118759171608, 3.893161257750495e-41], [-6.737678743199777, -2.1248311141563254e-41], [2.285556460558793, -1.2458352567899466e-41], [-15.049058482191224, 1.9923197495167547e-40], [23.703367659330606, -1.1417571725843507e-40], [-12.102144978696682, 2.36143201383839e-41], [-0.4545659795596958, -1.7325695352147423e-40], [29.136645865758737, 8.125823057006541e-42], [3.672864066233529, -7.099905081459888e-41], [-17.083591125846134, 1.4442736474202285e-40], [-13.259080188762445, 1.6553801757078134e-41], [20.408952111741378, -8.033769414385345e-41], [384.6673309619037, -3.4280265638002256e-40], [24.769285422620445, -7.139680197943092e-41], [-19.42134582341746, 1.219753697787153e-40], [3.8615723689230523, 5.50237154772115e-42], [125.65334961363338, -2.602180003341653e-40], [1.4342679524180377, -7.55094622789221e-41], [9.493121658756063, 1.0735601221051567e-41], [13.011235403491499, 6.712884517865987e-41], [-18.136194025716403, -1.3115361174505416e-41], [29.849222885159197, 2.8386201314258232e-40], [-15.126893950564023, 2.5384567444981166e-42], [-7.287869409367309, -1.5372505451358962e-40], [30.50316812420797, -5.948448342621363e-41], [-0.8657510871564604, -1.1959014234572046e-41], [16.127615426903674, -8.830818474257399e-41], [126.14535371289182, -1.5622583339747161e-40], [-27.7938274414388, -1.2435816527104746e-40], [-14.036264627388965, -5.63124558396448e-41], [-1.4126160614225838, 5.991061565433051e-41], [12.658339749755095, 6.52743518976076e-41], [43.455411712826084, -4.2777842966666754e-42], [10.565848890464247, -2.4027874035602145e-40]], [[-6.702152084752294, -0.008746148145421226], [25.752056498766606, 0.003980358677466652], [4.073551658332924, -0.007358639922885597], [-2.9443851843525457, -0.008032032643575578], [-33.686160844004384, -0.004918669267624038], [0.09506229542745741, 0.004380863256862946], [2.7728273150757636, -0.0046581528752467245], [-26.802287537742266, 0.00945524560472662], [33.41332239431336, 0.0018057430895872392], [-54.47499400881511, 0.00689646175780111], [4.908623968816329, 0.004595079852137276], [-27.99033936099887, 0.004126230195010114], [-9.282505965496949, -0.0078100261519951945], [-4.187590494465449, -0.004970690559619368], [-13.766611889019929, -0.007264200970743095], [20.511684449492435, -0.0008783627504472698], [8.24463942713847, -0.00535642314841603], [-12.843687560513356, 0.005693544983472942], [-8.555550931309211, 0.0015516669331015398], [27.01396816578046, 0.006791343053167729], [-8.161157335953163, 0.002463018766485898], [-2.423278338474156, 0.0065946262320851785], [1474.7364615772312, 0.044681903385939505], [16.532084500211905, 0.00507396983500725], [-20.356105028929527, 0.005091612514244865], [-27.794593765766145, 0.002499402161915511], [249.8390677458895, 0.022509364791753333], [28.9458980845819, -0.006622270682821712], [4.896640445995347, 0.004967445843371707], [4.449427964929522, -0.001611016734317557], [-31.28878902313732, 0.0035485792090896506], [16.126679761106157, -0.008065223171653486], [22.797550156594323, -0.003437106843121867], [4.440068047956263, -0.007964935031736616], [-6.977102269491848, -0.006465522762466626], [-36.110363541520975, -0.005749996619656864], [23.88637828032091, 0.004008156645996478], [254.6332668511865, 0.023424468086304287], [-2.5204426429488374, 0.004723195084024565], [-30.46971966782669, -0.005102310709656416], [-4.988911585335949, -0.006682011385277744], [29.780736167649383, 0.005724550550491571], [-12.836482681320042, 0.0012796210384199114], [-9.892514582027593, 0.00888382978946566]], [[-1.3201990468557983, -1.3877273859566068], [-10.190641799143405, 0.6601144350985613], [-16.746648237107095, -1.2038323939910018], [1.8946370809801376, -1.3409623419856551], [2.9202674175344967, -0.8476755865181662], [-30.66050298894131, 0.7304531591551389], [-17.91678103512951, 0.7631970995387696], [-16.232696463427285, 1.53802389108392], [-4.262342299152516, 0.3506460961367951], [-9.345642185560084, 1.1426456689852307], [-18.4713437573411, 0.8112557930414301], [2.815363076476617, -0.7397146960669744], [-16.721578873229095, -1.2830056201120656], [20.72292754615449, 0.7696078151285071], [-13.40195199270141, -1.2099292877304781], [-8.46902788802462, -0.16371503607427], [12.571493693949945, -0.8968593322719531], [-5.726296117531276, 0.9400348659280331], [-40.40515722674682, 0.3445947854429813], [5.953654369892116, 1.134785192075725], [-17.071865140294264, -0.49148378665302705], [-33.47121325783258, -1.1376601000615796], [1372.1531483244062, 7.640865577134978], [-22.927124649529514, -0.8681371030089106], [-24.11791133051155, 1.0801571389024287], [-15.747773413631096, -0.5092536516466791], [242.63843311921843, 3.8499200601454597], [12.791453136736289, 0.0333605032334092], [-26.845200411300237, 0.8536952503996291], [-17.133606167335103, -0.3131486239072529], [-22.250152140882314, 0.5946219534118526], [-12.881735099253294, -1.3328801272854314], [19.47566348629268, 0.607116008492259], [-25.238044961308688, -1.2991653008307622], [31.490758098567518, -1.0663445744735192], [-34.48918055811413, -0.9699371780624357], [-31.47612797997574, 0.7173786921340075], [276.0343190709333, 4.02136386978823], [-26.874363503124815, 0.805730368067502], [10.953833721432988, 0.8423893417752495], [11.984804592564513, 1.0651937937585487], [13.99531083189355, 0.9734905009123566], [13.136284911599502, -0.4458334820282236], [19.233885784643604, 1.4687256782463363]], [[29.368071994158946, 1.052725855308364e-18], [9.832787776927741, -3.4529019714044348e-18], [11.695435718902091, 3.948755484996342e-18], [-0.614250264630107, -1.4955379955688129e-18], [8.081626266760981, -1.2461870839637008e-18], [7.715389635543424, -8.420216479519366e-19], [-6.165895527422785, 1.1095750720322776e-18], [-17.09246367616381, -1.4365086814091787e-18], [-8.12664931106428, 2.0658725540025033e-19], [3.4104297414466442, -1.702383134215815e-20], [-28.496508117104227, -1.4048438308126701e-18], [-5.136666147894428, 1.5283260126455222e-18], [21.63754031714947, -1.6236797818060312e-19], [-1.2615500233916148, -2.366653227302193e-18], [-0.28144539995925993, 1.1852091339692095e-18], [6.549615421455708, 1.2800755234665684e-18], [-4.94715258524039, 9.279013487876574e-19], [-22.750817026588514, 2.3832826989330094e-19], [-4.6930116487869356, -1.9012173018789325e-19], [-3.031005233808613, -1.3368713466489e-18], [-11.435446610213647, 1.1469035434374053e-18], [21.140875693904164, 1.3218770008348054e-18], [1233.5191676624852, 1.0213239378035912e-17], [-14.345804459714726, -8.78547672342026e-19], [-27.924008723083006, -7.628131856843557e-19], [0.42621155673349675, -1.0761619234535838e-18], [341.10514831862207, 5.11994636140106e-18], [-38.713599047012735, 8.863613340994219e-19], [17.5351964490401, 9.45234878058048e-19], [-25.02687690314159, 1.0337518755527123e-18], [-33.79218840271125, 7.903808834311919e-19], [23.56657189022826, 1.2915724427649282e-18], [6.8619839713934425, 7.520985681357841e-19], [14.604363908108555, -5.212163864685343e-18], [9.88192624163116, -1.5638820443687844e-18], [-10.421590558346944, 1.1031630966767819e-18], [4.017548821557801, -2.2769429997601435e-18], [427.4259185878602, 5.516898890324456e-18], [-14.02854890653876, -1.0101653381038006e-18], [6.107256084216238, -3.1277946938990423e-18], [25.585966384877313, 1.594894758956073e-18], [-20.728793297126675, 1.2137316751878168e-18], [0.37413082132662506, -2.9632189833228184e-18], [-4.819060236608329, -1.6319795437274487e-18]], [[4.7085798869289075, 6.659446689564304e-66], [0.9397338260146383, -5.656795213848187e-66], [18.944123043780642, 8.042121451251382e-66], [-5.833715286434915, -6.518113554975598e-66], [-13.422510479559586, 6.858174960229521e-66], [-14.213915176394769, 3.746186170497996e-66], [-9.706215387779833, -2.5875888125334923e-66], [-2.7636170827357462, -9.198394769550547e-66], [-15.14931684030314, -1.286574736794043e-66], [7.157826046606897, 6.689918875978309e-66], [-22.484244201446778, -5.823980616573154e-66], [-11.681871279221731, -6.340150185061932e-66], [29.812360825007506, 4.756418185131343e-66], [-0.9431181108857115, 8.58482016146189e-66], [9.144881538977474, 9.051088614697484e-66], [-19.897869020809452, -3.8536094581741904e-66], [-2.3987927025706277, 7.339240022958829e-66], [9.002747866315097, 4.04895960889091e-66], [9.549541683360907, 1.3095770037284758e-66], [-13.949231735725396, 6.771343429890533e-66], [15.854245050941373, -2.9402773299378417e-66], [-18.335949998461682, -6.762004029664048e-66], [1081.6701278140697, 4.701814740129129e-65], [-3.0470679218662964, -7.96772624723062e-66], [-0.7111312743136547, 3.3778516019328727e-67], [15.477093441811359, 4.0510241892379976e-66], [109.99767340282376, 2.5243865793939515e-65], [-20.97414833508599, -4.618409570821984e-66], [-8.392935826872733, 4.413384540889892e-66], [0.2822054499885804, 1.513879902313045e-66], [-59.90352738371869, -5.386583376754425e-66], [23.995615428648716, 8.269505947095213e-66], [4.593027223510663, -5.263440626912259e-66], [8.848602298276417, 9.097895410031243e-66], [3.2299191886380596, 6.442439915905473e-66], [23.905755373254458, -5.622420578298049e-66], [-3.676840442701927, 6.096292590927781e-66], [225.8373977279995, 2.2486922243089494e-65], [6.457489240627231, 6.636102997184125e-66], [-2.797423615583201, 7.670585839480111e-66], [11.559615380656666, 5.827318048546321e-66], [-3.1247080690640883, 5.210141266742209e-66], [14.560863951738401, 2.395631083077366e-66], [-5.186615040701149, 9.780136493710228e-66]], [[1.3109139338161975, -1.7021074139886925], [10.00519787352649, 0.5624366532322705], [-20.52499926786493, -1.4249165597242104], [8.614123304902249, -1.4982976491838167], [-21.9669541238921, -0.8416133865700333], [31.11425750395339, 0.822074536449589], [3.4246299959990516, 0.7590702068386878], [15.057859812389385, 1.8498591046096349], [-0.2050000501232914, 0.23596724922788245], [53.573018791104694, 1.2874113144777064], [51.98083613736085, 0.7637145438758601], [3.7884346050161435, -0.5623177560934216], [-36.16803713347894, -1.5006802750601684], [-2.5379839453671384, 0.8044592022942775], [-1.2386884951158086, -1.3604152812134171], [23.324192135903125, 0.12280593223980324], [10.370497801031206, -0.9926197433060376], [15.858679743108514, 1.0656417624260117], [32.883841241348925, 0.08951055969909028], [-2.416355157535532, 1.2694160859917942], [16.832550932203365, -0.3208269015091436], [22.599795244321726, -1.2345602854769173], [3012.4740565021716, 7.323099888444652], [-7.26112125229115, -0.9535508983252227], [-4.707194768515118, 0.4065518083944751], [-1.4957667162408885, -0.3058342912686559], [736.3519759574814, 3.6903858918015655], [7.521625069866551, -0.4116633107847119], [-13.864376416152425, 0.8792430573140966], [-3.791508726223318, -0.07695888387942906], [15.99663165399146, 0.6379313090326109], [-19.655338071983184, -1.5337435585589787], [-24.519804225075063, 0.4780116062563081], [0.58907892285105, -1.0382204199365188], [8.009326897621355, -1.1876088510055067], [23.59227948018253, -1.0507984772182402], [-8.39181897708174, 0.6487184856437892], [896.6452606268524, 3.901854751037724], [18.836421445210764, 0.7509807989584764], [14.456105132055066, 0.8248106351513594], [34.36196050012101, 1.0781661434294445], [13.8083343179561, 1.0343386992258419], [9.004249582716756, -0.2532611270525144], [3.3812017853238414, 1.6929505607910802]], [[9.907629481336055, -2.0115074238286147e-18], [-0.16292857503236446, -1.5472210993649395e-18], [11.50659537228378, 2.667473927479372e-18], [-39.81884996317364, -1.9437977198065426e-18], [-63.743944268864915, 6.630228142648798e-19], [46.35336328594326, 1.53291070839606e-18], [19.043562954069742, 1.1987921179353177e-20], [-24.76282646257309, 1.788438906258186e-18], [4.606159007745501, -4.503244830818103e-19], [12.247846901568213, -9.929791626922696e-19], [-42.93219615752266, 8.41225709741311e-20], [-13.710088778889673, 1.1589346554199601e-18], [-14.866619934040662, 8.572395991792358e-19], [-23.622047731293677, -1.2494128484665975e-18], [20.061067143042827, -1.8827976435945096e-18], [-19.22834844720778, 1.4855363832857116e-18], [-47.079356786662295, -7.776882764235837e-19], [-3.269985564366343, 2.311693395324345e-19], [-70.64346376911149, -5.411341785907106e-19], [-6.905274427661663, 1.1569825711243569e-18], [-9.700913559661036, 8.128403109130386e-19], [-25.134834794694644, -7.133488876094791e-19], [1398.180444434855, -2.41150833697879e-18], [6.257616144937787, 8.095470349540806e-19], [-5.583155107817685, -3.1698955692803322e-18], [-2.5979567339070773, 7.881402608270005e-19], [340.51362178388405, -1.06253756624739e-18], [46.06379933157217, 1.4117418905539134e-18], [0.3819442587883125, 3.1390653958375305e-19], [8.736232787679793, -3.4155636022546074e-19], [9.61288697676129, -6.234944491098113e-20], [10.766948282023618, -1.1025168619754945e-18], [-31.009008464776354, -2.1383151707916066e-19], [-16.557957492068404, -2.397325347278923e-18], [-12.559632845613164, -5.377229276815809e-19], [-15.125757767004929, -5.045083940019569e-19], [-33.659276308317686, -1.0522294411598802e-18], [348.8404237929257, -4.0982017952028983e-19], [-19.705250143909044, 7.757366160209894e-20], [5.887465776418583, -1.5194164117179754e-18], [-9.668347968483284, 5.096612198950956e-19], [-6.757355553995411, -7.707067962842204e-19], [-16.542198986837693, -2.319280223987573e-18], [0.5665837926132153, 1.1110176483208754e-18]], [[11.43535209923749, 4.13944595615177e-41], [0.5506097422472135, 1.3548498340071644e-41], [20.822158939918967, -1.0151546957131439e-40], [-22.202447087903614, 3.850110985465097e-41], [-26.81794276304418, -1.3979982505143568e-41], [-5.544133872572061, 8.378149064019932e-42], [0.780791477818337, 5.1431336036905894e-42], [-25.03399189265417, -2.0828671368839676e-41], [-24.385171134230518, -2.3398048130231345e-41], [-12.833185125103238, -1.678915583002255e-41], [-27.86284705099929, 1.296311003580864e-41], [0.8639801659296674, -7.065274063242818e-42], [-10.76013497342153, -4.166795328878101e-42], [-1.797240066293762, 6.638827798981056e-41], [29.13512665966895, -3.808166843858013e-41], [24.829465113155244, 7.884897205931993e-42], [-28.631684689363567, -5.773365320334981e-41], [18.046971624318168, 2.718962015509682e-42], [-30.799974861789956, -2.36622676987046e-41], [-15.804354640625482, 4.812069847100308e-41], [-0.41723738984751096, 5.50694997931192e-42], [34.38055613550302, -2.679630282598201e-41], [286.74412453242417, -1.1413123878096048e-40], [-11.253491524788034, -2.378270679378254e-41], [26.867822864901417, 4.066063056031824e-41], [0.5230913012513946, 1.846885821089493e-42], [41.742840708562895, -8.66657826267268e-41], [-9.999350426559355, -2.5176109124344625e-41], [19.151075372033446, 3.5917532759270466e-42], [-5.541334719893836, 2.238206157779132e-41], [-6.397823779355544, -4.355120524246589e-42], [0.34657336095972324, 9.459444053258267e-41], [6.381822866400405, 8.301519884137249e-43], [8.049130602855463, -5.126494369559577e-41], [-14.756216634183522, -1.9809245516917915e-41], [31.829887590471625, -3.973428085208505e-42], [-9.633026153890963, -2.945456621927913e-41], [71.21217597820808, -5.200507986544271e-41], [-2.196276516623523, -4.1432357397535556e-41], [-7.408107593925375, -1.8790005253420432e-41], [16.29602879663453, 1.9987783438794637e-41], [16.20550692271024, 2.177222790981669e-41], [4.509142139116756, -1.4164205956558474e-42], [10.703462989079178, -8.006304447409233e-41]], [[-34.89609219807313, 1.5538337225614358e-152], [24.264082069810506, 6.41737026772642e-153], [33.01350260265883, -4.438803853536838e-153], [3.7836748048309476, -1.2348629585292755e-152], [-16.06810574040667, 1.8469630690081932e-152], [23.857619623132887, -4.029576741897139e-153], [-36.48026682691999, -1.3426712370326606e-152], [21.5881577334429, -1.355030491149051e-152], [13.498348158254274, -2.873477412594782e-153], [10.296172015608162, -1.0401005349885858e-152], [-9.293817708789435, 5.471434712465759e-153], [-6.573596120380577, -6.940560854606433e-153], [-22.662425071784725, -1.9017980693416983e-152], [16.422814061298975, -1.1654314167769432e-152], [-11.662592484499964, -3.2811973479577773e-153], [-5.43307770323004, 5.395813930475491e-153], [29.195830537985767, -2.98538303408628e-153], [3.1113186669850474, -5.742092725096709e-153], [-15.293867682353081, -8.789865200678061e-154], [-11.824934179610633, -1.4431580609660555e-152], [-1.6486381503812333, -5.441858089541699e-153], [-0.5950844310919777, -1.3938419045655101e-152], [50.01358409746231, -1.1250083104126075e-151], [-13.700871630083162, 1.0961112719239335e-152], [5.187492315984683, 1.0194944363029916e-152], [-0.12829773273503686, 1.4605884592663946e-152], [7.492003729208307, -5.868844812832628e-152], [-6.937906910279469, 3.572133106919669e-153], [6.8168574319975725, -6.864769217522383e-153], [7.478896030318421, -2.485007824404324e-153], [34.27193453188834, -1.483707993969728e-152], [-29.536204570623212, -1.7683646873885074e-152], [19.398204776723464, -7.954568915567611e-153], [-15.532603106236744, -5.087545867687115e-153], [26.211528265454554, 8.612635451638098e-153], [20.76850763043994, -7.726062941844934e-153], [20.023601440550976, -1.0704615563099719e-152], [-27.112618547919826, -5.588625333148594e-152], [16.826759787967525, -1.5689113210344403e-152], [-0.5838901465670535, 9.532924985335746e-153], [2.398823194859192, -9.831764735201037e-153], [38.021392769489026, 3.8066388857217935e-153], [25.092377421421286, -6.383582425074741e-153], [4.3543585507264, 1.268099339968698e-152]], [[23.98558351552939, 2.5927694862350723], [-18.14026856182386, -0.8558486818761069], [24.839045727439682, 2.1652125202129335], [26.824140063371967, 2.2669091287796763], [10.890195490978723, 1.2629043569555032], [-19.980939946273303, -1.2455066103295527], [-13.714999458222799, -1.1305083446011226], [-2.043538382011991, -2.8196875789637295], [1.4453544049516227, -0.3408470549214025], [-12.07313332500341, -1.9596394918777844], [-0.5420584406747968, -1.1412095495731551], [-23.661935019987148, 0.8434909045994059], [1.7428663459906746, 2.2783509702522613], [1.5349791216979911, -1.2481316882970326], [6.852802560146515, 2.0591993439636918], [-9.25434303569563, -0.2210229600116999], [33.12426251444343, 1.5006719183796344], [-19.34445387213701, -1.6228180034195372], [-10.737870140426054, -0.10149239055055709], [-22.04563275201282, -1.9217346666813233], [-10.502244091590825, 0.47234376315268833], [30.28257652826711, 1.9122226657492858], [397.9593153811697, -11.075711015501744], [11.702645403606077, 1.4163598980738752], [-0.716357615391642, -0.6149975643997374], [-1.323550681447061, 0.447823610616163], [47.31190640311252, -5.581531312356908], [-17.419707334526056, 0.6015876195723728], [-10.696956862448058, -1.3223718432997376], [7.906039458464374, 0.08764666540092175], [5.285833408149814, -0.9693525128776193], [1.6837716290889855, 2.325714127251066], [19.18305448131891, -0.7109147256648459], [-6.242446680688749, 1.5896790577672948], [22.086988771355855, 1.795799549338154], [0.899859945736194, 1.5858623599379027], [-4.2572210075100925, -0.9643642360429819], [63.00076135247997, -5.900902549152292], [-22.103927743002902, -1.1271291100104608], [-26.770384039254978, -1.228165373172146], [-15.892481991970536, -1.6683968982262827], [-29.58518374319172, -1.559523074083534], [-5.510680774558212, 0.36582665154147503], [6.1221834170831855, -2.568566925364643]], [[-11.142853403587594, -9.146447506578759e-10], [13.560463305224697, 4.070339084919883e-10], [6.163600139406175, -1.958232102817033e-09], [-5.543031758021121, 8.365043655367007e-10], [7.582244183529636, -6.432608036210199e-10], [-10.720246945696227, 6.372507279847041e-10], [-14.23749075808666, 3.9592304692910795e-10], [-18.92285740563831, 9.463796372505884e-10], [5.410438330812948, 1.3324128246310585e-10], [-22.734900139365294, -7.021615813655025e-10], [-12.42106384404654, 5.505713013469016e-10], [24.049959659751732, 5.177950553284858e-10], [24.91637041630251, 6.402497914641142e-10], [-21.984349289364076, 5.268236384938116e-10], [-9.86550436038159, 9.125493252716822e-10], [-29.90359067958331, 1.0335102526367293e-10], [0.9744494669904693, -5.917355373055566e-10], [9.14835407302928, -4.5951708123448853e-10], [11.378063280063225, -3.2354341355558374e-10], [-0.43096263525128303, 7.599710836969622e-10], [14.391743940157891, -2.692018250526294e-10], [-26.444783255854126, -6.860351172241062e-10], [2093.4911257226213, 4.560943057511919e-09], [23.286635534465855, -5.847296112834454e-10], [26.08300632909168, 4.1576984724661607e-10], [-5.580241554041048, 1.1558375627725614e-10], [436.9526441593721, 2.2622895478463918e-09], [-35.403613205498665, 2.1837563582152067e-11], [-12.201524244131994, 3.5740493665440035e-10], [4.7800422242903275, 2.128709761317647e-10], [-34.559883640001395, -6.989641511522807e-10], [9.730260381840818, -7.606628235235704e-10], [-3.7459200864668745, 4.915923831230962e-10], [-41.690383554449035, -7.223565292220101e-10], [-25.903005884340708, 4.3292035093624355e-10], [-9.811517921475428, -5.94928565718721e-10], [-34.9144748756209, -5.716864148089709e-10], [516.8134494395092, 2.2633066019883357e-09], [4.473719233668972, -4.201935870019143e-10], [2.4376834066290445, -6.375263445672946e-10], [7.5068075784831, -5.191255774502705e-10], [-1.4885679240854983, -6.940700420525342e-10], [5.5541004952557795, -1.027993745074427e-10], [-9.24319452677345, -8.840218791374863e-10]], [[-7.99245389260411, -0.8510537069927923], [17.182247520455352, 0.2812183266168494], [5.032330193189473, -0.7124582798634487], [13.818630418840604, -0.7491488245933321], [-28.721398084000572, -0.42080669328394793], [-11.928758688145933, 0.4110372682237178], [13.92784258539345, 0.3795351034187037], [2.763880036761105, 0.9249295523064417], [-0.24707817060496667, 0.11798362461374688], [-17.584132521474874, 0.6437056572377216], [28.394542154409734, 0.38185727193702695], [1.5530756364906058, -0.28115887804620077], [-5.677460099267277, -0.750340137531158], [5.6540691842661595, 0.4022296011480433], [-28.02789247493407, -0.6802076406082611], [-36.71383890590845, 0.06140296611984146], [-10.411708224782082, -0.4963098716520304], [-14.514329197506619, 0.5328208812122817], [-22.835622868673887, 0.04475527985004141], [10.824146951474626, 0.6347080429971977], [-2.885643208170192, -0.16041345075416036], [-14.300138853001272, -0.6172801427373306], [438.1275887770174, 3.6615499442147907], [1.022834320713305, -0.4767754491616356], [18.375293852385933, 0.20327590419646482], [9.330526405582415, -0.15291714563446934], [133.1533819307676, 1.8451929458970509], [1.1263653721159077, -0.20583165539233253], [5.883115149251035, 0.4396215286576145], [34.584376885983964, -0.03847944194004774], [-30.200988664938052, 0.3189656545151084], [30.826302414714405, -0.7668717792782285], [-8.486401896630719, 0.23900580312734798], [6.295034419776503, -0.5191102099670497], [-18.175102928764545, -0.5938044255010652], [-34.658475503779435, -0.5253992386081653], [14.302065621174167, 0.3243592428228329], [193.70014034299317, 1.9509273755151486], [18.618598580614467, 0.3754903994799025], [-20.327952287368014, 0.4124053175782638], [23.63333938378248, 0.5390830717138914], [-0.220654868447842, 0.5171693496118026], [-20.849022250078555, -0.12663056352619628], [-1.5428390425361687, 0.8464752803940927]], [[-21.889401334912886, -4.50259873576597e-09], [27.99259659857871, -1.2028557774714664e-09], [-2.2214341164296867, 2.8780000541713186e-09], [0.12580761463334034, 4.0736705596556105e-09], [-17.24499962920081, -3.1554474307013534e-09], [10.057536537905614, 3.1462289669111897e-09], [-14.457679477446984, 1.9436823079365895e-09], [-13.333605184068716, 4.611917747922774e-09], [1.3170932133275048, 6.49110111724614e-10], [3.202655033254498, -3.0615082972438656e-09], [-15.327290425479895, 2.705079739007267e-09], [3.3576227563480807, -1.5109058192586722e-09], [-5.53392403915943, 7.351285109048875e-10], [-37.0558545621595, 4.737637090485285e-10], [19.223463872350646, 1.0823873690566023e-09], [-13.89147309383611, 1.2157267387533861e-10], [13.813041736847985, 1.0783660331139816e-09], [15.920347896732311, -2.2265467427356653e-09], [-7.1449881450682025, 1.0685686527333023e-10], [-3.8002855686858688, 3.703380179035417e-09], [2.336036824849788, -1.3053500460444379e-09], [2.906310188230413, 1.676409777266637e-09], [1776.3682361391293, 2.2392538589228195e-08], [21.073153684922666, 2.2695580321163597e-09], [-15.426606673563041, 2.0772191469149097e-09], [-14.371707170659189, 5.918617549458737e-11], [317.03317995545893, 1.1107939909169113e-08], [-20.314632395190777, 1.4149086932820607e-09], [8.176948606016985, 3.6956185829884083e-09], [-0.4533659181556783, 1.0390352873402552e-09], [-24.142129215099025, -9.840307480770547e-12], [13.276795600083354, 7.310762624384975e-09], [4.596624567066506, -1.3005237870439527e-09], [-33.155287523888624, -3.5470692501651235e-09], [-6.69847120239046, -1.908769342958894e-09], [-22.595396516427343, -2.8808235435236724e-09], [-17.52857869507786, -2.799659015694432e-09], [525.400767916124, 1.1105734549900178e-08], [7.731847415843861, -2.0477478281875304e-09], [7.300009674044991, -7.548648524113977e-10], [-4.772313287254545, 1.1984255794812425e-09], [-24.808265303139336, -3.3702274951597546e-09], [7.715880304846301, 3.0106621586279934e-10], [-20.525784992755625, -4.293976047280664e-09]], [[33.58720950586384, 2.901979674382117e-07], [13.201700617908429, 1.2732942495615823e-07], [16.120153800581715, 2.6608895102571775e-07], [-46.200825853093086, 2.7870149449066135e-07], [-4.505755956129906, -2.059901247606129e-07], [-43.085249487055414, 2.2756664044134568e-07], [-5.315309738225766, 1.085402200397265e-07], [-31.455362985560395, 3.265866558696395e-07], [0.22471335281792346, 1.5955118764293413e-08], [15.30162582776912, -2.2156980746214436e-07], [-15.178498403101079, 1.6588733195238684e-07], [3.174255288596695, 6.260687326102148e-08], [-10.93058524311711, -1.9506786867390908e-07], [-37.75826826488725, 1.625455550253232e-07], [35.94113317541456, 3.065610362545525e-07], [-7.858488082785428, 3.727033321641149e-08], [26.926818440558446, 1.8227664054363139e-07], [44.11688116718835, -1.3430253264649123e-07], [0.43890749723807554, 6.471076338765526e-08], [-7.025558003957081, 2.5472708777063346e-07], [-19.648640163770022, -5.2755449188034186e-08], [38.32492270949166, 2.0856180489042633e-07], [168.59221899789367, 1.3983837085749827e-06], [-75.60022275702077, 1.8584541332945105e-07], [-10.966838991760552, 2.1415231139833205e-07], [-4.74347805909986, -3.7933930575294976e-09], [83.58559637955004, 6.902463998338592e-07], [-21.21446578020325, -3.390447984654721e-08], [-17.598502290168646, 1.0095668102597989e-07], [-18.441571412454856, 4.001172237979237e-08], [-2.1737527348436534, -8.417666715554779e-08], [-21.08326857178065, 2.561451054616552e-07], [-18.028501147069814, -1.4341654860084027e-07], [-35.70109634190264, -2.400437008057475e-07], [-8.84641393533549, -1.2504157415074262e-07], [39.220858912091124, -1.8852674605737262e-07], [-25.919986594991197, -1.722676986360422e-07], [159.3854353545814, 6.723907531589309e-07], [-2.2190028828252397, 8.94288522872077e-08], [3.3150284030768207, 1.8252005155377325e-07], [15.772040834353312, 1.2839806724458975e-07], [-2.0433823994099702, -2.2333160380591238e-07], [8.342513432623607, -1.9595135915807918e-08], [-27.967512324267144, -2.8694573529416893e-07]], [[12.02319432646277, 1.04250329643249e-15], [7.130320262547593, 4.589624093579199e-16], [4.106813437515858, 9.09886263150377e-16], [-8.519104478303944, 9.373288327081078e-16], [14.651163162007652, 6.533943300144136e-16], [-4.679854548233601, 7.708311946721915e-16], [-5.017141898736307, -4.767050695505444e-16], [-21.587951166808317, 1.080646015591903e-15], [9.971686412358897, -1.691868101458723e-16], [-1.470473595808677, -7.452906868691199e-16], [-10.06473641090773, -5.909649965734203e-16], [-28.945919779630803, 1.95777807886569e-16], [0.48109118502881043, -7.148838572212238e-16], [2.9242513645155315, 5.461260338171956e-16], [14.067453666245898, -1.077232653483741e-15], [5.311313340228512, 7.062649166258179e-17], [14.782295778320574, -6.322507599938464e-16], [18.4942184046477, -4.590545597589983e-16], [33.03510702528372, 2.359835736092012e-16], [-0.5167681837212769, 8.445021232844021e-16], [-18.3141476822082, 1.5848454841146481e-16], [26.598189038069517, 7.068179507619849e-16], [307.1960618292285, 4.7051384514190385e-15], [27.58237646555521, 6.073826219538561e-16], [-14.109550276176316, -6.35187441252867e-16], [-34.839611039921515, 5.397878943535449e-17], [36.29395796264808, 2.318972895144985e-15], [-24.16149545667997, -4.625529530254866e-17], [6.526729636864427, 2.9710193443468155e-16], [14.567683780150535, 1.5955807959726664e-16], [-43.16174381798519, 2.9760672852101396e-16], [-33.309936221880925, 8.11166139360819e-16], [-26.383148188583764, 4.838744129759432e-16], [-18.713838396449272, 7.727067729001736e-16], [12.030123269922166, 4.252577705091909e-16], [18.774292340278393, -6.124084226362526e-16], [-27.21922470115491, 5.520449912759454e-16], [-6.187126673816985, 2.2656186196213107e-15], [-17.940310364559842, 3.2690150873828667e-16], [6.365776020272092, 6.630867451539352e-16], [-8.177555681551405, -4.823738241262169e-16], [24.837618992529535, -7.372874751849817e-16], [-8.372544419135595, 1.27832491358472e-16], [22.60172126815309, 9.433453781806395e-16]], [[-41.17845878242859, 0.039796556327258564], [-8.907189002191174, 0.007596233496730748], [-38.7443534099688, -0.012748408730891735], [5.189678979125391, -0.01646341227276681], [6.920916223582537, -0.00964531262024821], [-6.237389617789472, 0.008544777536698427], [9.148064947130583, -0.012778248048778387], [-19.50562905701419, 0.011551495331788272], [-3.2477459700700027, 0.006546594025128024], [-8.133113190410084, 0.004359552239772638], [58.362410961304604, 0.011897592003327172], [-4.214630691093627, 0.008629344361623808], [34.06348381097655, -0.014065524172868403], [-31.076045485755287, -0.025034604590599828], [-52.70744544959505, -0.01463555856833353], [6.488780154399754, -0.01032399374340825], [8.828009188325106, -0.011076958540454505], [16.62527955384748, 0.0033682050104262944], [13.597225187745634, 0.01232648007924347], [-53.70123773734808, 0.013824334898522094], [-4.772021564041698, 0.0032343864233687594], [-1.6307391985786142, 0.03372820884959264], [-61.79679156320854, 0.10782914865724023], [1.9247224636486067, 0.00817023140131978], [33.92276469656347, -0.006184428602022594], [-22.71940888418128, 0.0035094592381959846], [-84.70719222887648, 0.054348203290690525], [-16.053485776690046, -0.006937375421897608], [-19.05707227254377, 0.012233216608516813], [-11.827320394054073, -0.008318798980917828], [-39.761506820280836, 0.0015212114427632355], [-15.218176276439122, -0.015235233924033448], [-0.9447949783896257, -0.0018511590667494209], [-33.00941621660174, -0.01346029183871135], [-5.897231035768901, 0.022055516629445004], [-4.51093416636574, -0.012699365179311748], [-28.05772845798335, 0.012496602780351411], [-58.13830026724959, 0.057952805358758824], [-13.984547417054525, -0.015023371228972309], [8.251639148102347, -0.014417617586306213], [-21.42612279245987, -0.03263181381557691], [0.13199001038078254, 0.013184724059732564], [-5.671276556255375, 0.0006734311333924155], [-14.975271072369603, 0.01670686863733841]], [[-12.104652372850984, -0.015628125676745958], [-7.768489159586093, 0.002673408073753142], [-4.409529441930871, -0.008918325967899168], [-3.572553676907018, -0.0014721246157119725], [6.741282598838509, 0.012699467872483872], [-12.606451510392134, 0.0021182400264559043], [-31.903900831689498, -0.0011438945121107456], [12.569732749664432, 0.015529380332002006], [-9.452580449085312, -0.013839240364013067], [15.122786467503456, 0.0032214668932095433], [-9.938362148842982, -0.011943147327938244], [-2.5358280365797894, -0.0007520344430118481], [-5.214754026572181, -0.007804502924393869], [23.601445151903636, 0.03775649414870216], [8.122079703986136, -0.002083763079130702], [-4.129997502949542, 0.029578870512758034], [36.704799088905915, 8.601572470501659e-05], [-5.3254040318843705, 0.003182580054593184], [31.9830789277633, -0.027238691917965727], [-22.805427394724287, 0.0022995833686966045], [1.2512814397850929, 0.009053490718424997], [-10.491673593708132, -0.05582527533991884], [-451.35981166404076, 0.008910459248089458], [7.246801228702167, 0.00029574074375223055], [-6.168761245393972, -0.02407271258771663], [-6.324467297543351, 0.010444517429723264], [-112.92404119968097, 0.004600322564083617], [60.854803967222544, 0.015724443932042767], [16.31363684111244, -0.005392266107410291], [25.276514547768294, 0.025920909089304365], [18.56024617910961, -0.0013702394518084265], [9.547477392435201, -0.005726850403365311], [-9.01195585053082, -0.0053511596695258465], [-7.831711618717237, -0.011438217797043779], [-11.679118512844802, -0.00039516399740397996], [12.77918033979231, 0.0022241763335006607], [3.5044859951929217, -0.013099444094555466], [-104.71128738471556, 0.0065896493776039546], [4.828998229295773, -0.01288988688300093], [-4.754841044918429, -0.0018754908399950792], [18.609260823394816, 0.046181762869279885], [-16.1401051707125, -0.0031943727216372595], [7.0465301161153375, 0.013097691850020205], [-7.704612190111072, 0.007612909479043136]], [[20.993872795088215, -0.0011951112519966362], [-24.899084857541126, 0.0004949655186531919], [-19.495783451780976, -0.000971436740890845], [-7.494762144206826, -0.0009934336783938805], [-7.794048709085523, -0.00048006354493788505], [1.6336929769509936, 0.0005468389534328211], [12.827680657391666, -0.0004932407311801313], [3.9698297481679865, -0.0013163049270945534], [11.093554388016736, -7.126056183059856e-05], [-0.9040270680118763, -0.0008822117038624205], [-6.11152769419346, -0.0005125337210545434], [-34.74577185403197, 0.00021277775963127416], [16.677889941963567, -0.0010307968902188102], [-17.05114868174741, -0.0005736554190172239], [1.2774703870802175, -0.000919423073436949], [-20.945754460305917, 0.00013396293787456255], [33.67127412926081, -0.0006580657865947506], [-14.90282813323632, 0.0007195918063483256], [8.729603966667886, -3.69225723973952e-05], [20.90378841119315, 0.000827688810446791], [6.282355742875372, -0.0001892778026487541], [-1.058444870469548, 0.0007884355168894187], [415.7831429409721, 0.005047281792276606], [19.141457727333872, -0.0006739264084701278], [-1.3305236614555336, 0.0010725919541559855], [11.234346571772603, -9.183370603223395e-05], [117.3403231891497, 0.0025350071313852206], [7.407908062442017, 0.0004643039414283992], [7.257884534513888, 0.0005378109628709512], [7.386922677379439, 3.818017680520727e-05], [-8.9466096938677, 0.00045766879222131676], [-2.9704321936313374, -0.0010254521227515074], [16.457311140098565, -0.00026220671620812397], [-10.1010323025218, -0.0010538883755687328], [12.067510071694029, -0.0007933604026104713], [11.239899819560204, -0.000685886536891777], [1.9201363558090652, 0.00037737266875374976], [105.25000776944438, 0.00259927899080551], [-13.594036941761365, 0.0005037842595503263], [-1.867148550678455, -0.0005313446626643771], [-9.38358597292565, -0.0007261597759338332], [2.5125088210970814, 0.0006598940852547209], [5.5317633251921645, 6.315380343229747e-05], [-0.18464244578191213, 0.001127382807399077]], [[-29.641508206004307, -2.2428522760661462e-11], [-17.40803633899701, -9.382767303339902e-12], [17.92325918291594, 1.9298204602487796e-11], [-6.33219488477654, -1.9549970452883022e-11], [10.670585592636172, -1.3896178845203249e-11], [10.923698436285354, 1.589241596028784e-11], [36.80998768339164, 6.7634335488855e-12], [22.21322255437174, -2.252840121205515e-11], [-15.451206312954687, 3.0550112575503824e-13], [10.399302174459644, 1.4939804424000483e-11], [17.17223934101732, 1.0827568761146028e-11], [-2.0157847594001614, -3.017224926988786e-12], [17.72516154554671, 1.4066074050651634e-11], [2.9885622517210293, -1.1455314499252456e-11], [15.608907636241229, 2.2253413290580746e-11], [-12.414839268594482, -2.804890370991876e-12], [-30.377045683209555, -1.3324941191306614e-11], [-4.216311286635807, 8.486980443000507e-12], [-12.228893530736723, -3.966752031589516e-12], [-36.87948233889784, -1.7626850761281333e-11], [16.5412886926003, -2.6707340221825002e-12], [-33.70029403487898, -1.4386522774648052e-11], [-1310.4858784380986, 9.227035360753015e-11], [-19.35107175635076, -1.2997531329476462e-11], [5.31918797674769, 1.656780305661598e-11], [31.727683516040052, -2.0857835548897595e-12], [-263.9866988667959, 4.5419123097404964e-11], [-24.845931637541003, 3.481026970762892e-12], [-45.12727368770117, -5.128585167493525e-12], [22.7161625774131, 1.9171398258130127e-12], [-57.44916831541647, -8.405056306247618e-12], [-1.4215488060768546, -1.6758047867732673e-11], [20.306716882915165, 9.385860850129843e-12], [-34.067683106672064, -1.64277224802349e-11], [24.920349015824755, 1.5011048173371456e-11], [-6.915323531733636, -1.2033774769955584e-11], [0.9740714623392555, -1.1331994298023347e-11], [-448.3542824715381, 4.371873657289891e-11], [-16.092428794053166, -6.102023895974417e-12], [27.362561917651178, 2.3880323991060206e-11], [12.439526575745493, 8.557074880986498e-12], [5.675502911136029, 1.4125694198060463e-11], [-19.993199154369368, 3.1201554459094963e-12], [7.247749915514906, 1.7456396530840545e-11]], [[31.270966561837007, -0.31319156979026563], [-30.107856355207307, -0.09817283214654002], [-28.11234869117547, -0.2201180219277659], [-26.138603501036375, -0.15633930937965634], [0.9136077363176205, 0.006542557289293178], [43.075740595927684, 0.09107049473015019], [-5.718982490762609, -0.0036318813815981984], [-7.240529227380383, 0.3131449793247738], [21.114503368009625, -0.1146093191282288], [5.345401693049821, 0.14564843742703162], [-11.576019387040068, -0.047030792044017965], [27.234091399561528, 0.1771828420101024], [-18.914695084243704, -0.216649442312024], [6.638053784593264, 0.035421597228047975], [-2.4509644866156166, -0.14957269622786556], [-7.282072654944706, 0.286387123737687], [19.975397962528884, -0.09510575699832219], [-7.33531293734579, 0.12488996069085341], [-12.498381806241118, -0.2550468850229054], [36.489516394595924, 0.13379952526881275], [-18.83861679876442, 0.17084828421462359], [5.607378577688099, -0.09769145609932621], [-414.6758958951224, -0.32281660476276713], [-31.89714309978815, -0.08474002746854443], [-39.81976039620043, -0.6746724701253642], [8.585076880414768, 0.2035114805725048], [-159.3323879107129, -0.1620715050893518], [32.35587279605877, -0.4454853836963466], [-15.079626725125852, 0.025009283945287532], [-53.837382726921554, 0.23615241515700774], [-3.026631344104675, 0.04285287881852337], [16.459035551177376, -0.19984235887125104], [-15.349496219325113, -0.12884402567771794], [7.583004784547904, 0.2620014254938924], [40.66280685582438, -0.12047293105222916], [8.14399042502303, -0.08017372754816468], [-0.36716611328251253, -0.06903611066228137], [-242.6043163977524, -0.12211128222543478], [13.8063380922653, -0.05525163649653921], [19.205243463085583, -0.017047389983252684], [-13.25709500723942, 0.01369709422043213], [25.12738334500139, 0.06019156818353409], [-8.982876400328811, 0.1925073014904325], [8.295003128025172, 0.2230971314487861]], [[9.618547083946504, -6.395811195190244e-06], [-41.17600502194301, -9.123929054587863e-06], [-9.589934555663515, -6.348416547697811e-06], [33.38954987988006, 1.558619762624108e-05], [19.194987989372013, -9.425296376442423e-06], [41.93385325819373, -4.635476180639387e-06], [-3.8975110397306687, 7.454830140310291e-06], [-24.621588128057635, -8.58483203830982e-06], [21.060495871672824, 5.997292329124071e-06], [2.5695673824035694, 9.874112219110946e-06], [-16.62025244495613, -9.448979474637551e-06], [-13.975741120752916, -3.235503839003393e-06], [-19.67670143678738, -6.7686854245470695e-06], [12.333562048729219, -7.060240540171454e-06], [-10.762367946454008, -7.098043662423165e-06], [15.428737490734006, -8.603551512450264e-06], [-27.803698357696945, -6.076860746759545e-06], [25.33879723948355, 6.570926256621828e-06], [4.656044471122914, 8.445966169442923e-06], [28.077248860222326, -1.303506114000302e-05], [-15.724105381785646, 7.385741502429565e-06], [-23.06257665429631, -1.010844343617393e-05], [-891.3219459585711, 8.156919683092597e-05], [12.102244846761847, -8.521800251261721e-06], [33.037369692116094, -5.558804817237804e-06], [-13.46543317343577, -9.744692877674035e-06], [-198.5570517639761, 4.160279891410291e-05], [-26.331870001022516, -8.08659018040692e-06], [11.423981704607664, -6.359072290463588e-06], [-7.186151233048106, -2.243980166292185e-06], [71.55977134145995, 5.5613697626924825e-06], [-52.44748141739354, -8.914205404175461e-06], [-1.197950370036891, -8.56902160469691e-06], [-5.5859706317355, 1.689789470252286e-05], [-13.487366736605765, -9.348325413604997e-06], [-21.94310467415228, 9.85468139013843e-06], [-3.9131587298875825, -8.018670304343647e-06], [-202.24073948380078, 4.463341375205485e-05], [-12.591081105294723, 9.830307292160758e-06], [35.40981621443831, 8.360785545493204e-06], [14.464839160818201, 9.61272661100233e-06], [23.721063060305838, 7.917410893058153e-06], [31.712792053316875, 8.677178756493101e-06], [-18.15751954871996, -2.0661950757172e-05]], [[8.698265785200256, 1.979437289218008e-18], [20.638286434603376, 1.5478757975442442e-18], [-1.5160739393012177, -2.6673272321859683e-18], [8.42057431685742, 1.9447084382128762e-18], [-8.765285379700858, -6.63694199517223e-19], [-21.3251938961692, -1.5301502837913892e-18], [-31.44139189320233, -1.000979145556692e-20], [-11.413052637540726, -1.7862399638149105e-18], [-11.003160236632105, 4.533020985864267e-19], [-16.59013964403457, 9.949297418191079e-19], [-0.949746285075927, -8.687294170499177e-20], [17.304839948911905, -1.1527522072069696e-18], [-3.6926615637674844, -8.4114024892026425e-19], [-19.694295010269936, 1.2485811836801295e-18], [3.3207656308315237, 1.8788779158683716e-18], [36.86722909179028, -1.4802017907587344e-18], [-13.164855423376213, 7.766306791320836e-19], [25.770497278648804, -2.337884578586885e-19], [-20.790353437416396, 5.359849303405407e-19], [-2.3166362855115885, -1.1563020826269313e-18], [-23.434027562515578, -8.085574797486744e-19], [3.2861835055184665, 7.132236018953567e-19], [-474.41129824703887, 2.4629457604746386e-18], [16.93461314510335, -7.905843877501487e-19], [-1.1532867951022152, 3.186118762712949e-18], [35.90093781443883, -7.923895025958149e-19], [-107.0143181660901, 1.0884757212492297e-18], [-15.024536385826249, -1.4185493948981554e-18], [-23.12478693440237, -3.1095793579057737e-19], [16.60208394389836, 3.372775134947236e-19], [27.262082723997693, 6.323870038053477e-20], [-22.21933884784634, 1.079569064409432e-18], [12.743436395966297, 2.1117472736908898e-19], [-8.34413735246179, 2.392698380812177e-18], [17.520267535456, 5.347094626075303e-19], [-27.250571526965945, 5.047622456396673e-19], [-35.94397769505711, 1.0502831238127e-18], [-144.1625941815573, 4.388821810855279e-19], [-22.414225009357338, -8.254582879566602e-20], [5.985063195974745, 1.5191085550497642e-18], [22.388583608538724, -5.055237214715415e-19], [-13.10753523706817, 7.703778293227654e-19], [10.030693192437793, 2.31632372170087e-18], [-3.5443820445151597, -1.1110286170579335e-18]], [[-11.37516045072857, -4.2386284431849036e-05], [57.6531138251465, -2.2776081825695566e-05], [-8.170584256496097, -3.5126349413584846e-05], [10.998320296312867, 3.860209218057179e-05], [-3.632335165476704, -2.5654270740387705e-05], [-3.2625121815721845, -2.1581163607741794e-05], [21.845653397735262, 2.109630027475568e-05], [-31.122219575921083, -4.7625590144018836e-05], [-11.721012184647886, 7.71693729321507e-06], [4.948061868474502, 3.745719660288104e-05], [2.7343133938438733, -2.4908848644456987e-05], [-1.611704075786966, 1.3704972680712074e-05], [13.47872827289962, -3.8207983126155736e-05], [2.645619852516707, -2.4653283781346156e-05], [-13.285415104668699, -3.625400749091771e-05], [-21.312507543403367, 3.6993134278579876e-06], [5.779410745761584, -2.5341766091502844e-05], [-2.2886498742867745, 2.645015710765507e-05], [17.12477688656135, 3.204699070198499e-06], [-5.529026746436474, -3.2961351164910544e-05], [-20.575974684194954, 7.785215889737027e-06], [2.395442539533175, -3.20973811803182e-05], [-873.8541706768414, 0.00023586039207301656], [-17.971327804732212, -3.0533542413540204e-05], [-22.473799012517855, 3.658958319755828e-05], [0.22038203246227922, -7.257631967716425e-06], [-106.53615479403479, 0.00011790300224973508], [13.884752143231117, 5.6472567278336045e-06], [14.91771624345995, -2.3328399583573045e-05], [-26.415433916875067, -1.0898868596791548e-05], [-7.921678219267494, 1.687356735280223e-05], [-25.829892270444933, -3.784718884663414e-05], [2.4739668129594836, -1.5974039986286194e-05], [-10.643572563568846, 3.7782393154328915e-05], [-10.198886903721588, -3.166141781165917e-05], [-1.3651658642179025, 2.6841175725232403e-05], [6.7233771237818045, -2.8103134033097347e-05], [-79.64349126581345, 0.000121642879494403], [2.489093623392092, 1.9227259807539947e-05], [15.595431336464657, 2.864458157952874e-05], [3.377829629177466, 3.592749162791387e-05], [-5.569511452219791, 2.5652790246924757e-05], [11.568929447110271, 8.799003581193015e-06], [-15.537722054256495, -4.950227417434106e-05]], [[4.754084011955208, 2.0115027467858292e-18], [-22.39786150753829, 1.547218836139107e-18], [18.060034917937724, -2.667477866626752e-18], [24.34040699480682, 1.943801921570488e-18], [5.371122918701966, -6.630202355678219e-19], [-7.316542493817943, -1.5329137252362275e-18], [13.939901675241195, -1.1989562628167922e-20], [-45.02680581407122, -1.7884343916390144e-18], [1.9275532102363109, 4.503237237355678e-19], [-24.56360290102982, 9.9298211712219e-19], [0.15017831708793522, -8.412480591327859e-20], [2.8776099648786575, -1.1589334719277057e-18], [-6.8432579788523995, -8.572370376469735e-19], [6.9451924435361025, 1.249410660418587e-18], [-9.407367196659688, 1.8827929008711482e-18], [2.531860000722412, -1.4855359037061113e-18], [-15.205569238651172, 7.776912543242182e-19], [-6.464577666736802, -2.3116798459226255e-19], [-6.581135532492589, 5.41133293985146e-19], [27.017381861453114, -1.1569862159775212e-18], [19.84878119640632, -8.128410434100191e-19], [10.682313305816045, 7.13352433839781e-19], [-120.58903518395975, 2.4114874447732064e-18], [18.974159724917634, -8.095444417903387e-19], [5.934386938943481, 3.169892836142558e-18], [-23.40383990041827, -7.881400333850959e-19], [41.97046367522386, 1.0625273398213593e-18], [-13.361129292062918, -1.4117418405574893e-18], [-2.9721158019213134, -3.139080971962701e-19], [9.5933726868748, 3.415560256157378e-19], [78.8182798799566, 6.235099210961372e-20], [38.54739482842405, 1.102513058072218e-18], [28.777665071490052, 2.1383340651761082e-19], [40.668797078201564, 2.3973291912631514e-18], [1.6462119928541126, 5.377246633851293e-19], [-8.397091213580675, 5.045057373183396e-19], [23.346923917383435, 1.0522275246663406e-18], [40.16027648623962, 4.09810204665524e-19], [15.379456820834099, -7.75748413458333e-20], [7.818341692562023, 1.5194194800119569e-18], [0.41600571953505605, -5.096590035217184e-19], [28.48485398289068, 7.707038223237545e-19], [-26.58768003558424, 2.319280731098132e-18], [-5.728039179472135, -1.1110209684283314e-18]], [[-14.33910716085906, 0.8511611068472741], [-25.436087838198482, -0.2812732403955972], [4.5903367286236625, 0.712557185396325], [2.172630116491785, 0.7492553668094147], [-19.353947233616125, 0.42085341961687517], [1.9626033143814028, -0.4111689521079804], [7.031767632641306, -0.3794462415838344], [16.775789109208073, -0.9248230671750949], [17.84893720549811, -0.1179837513516694], [-0.08528113522547076, -0.6435694895711384], [2.945181068904644, -0.38183303765481874], [0.23664842414886816, 0.2811510735364265], [14.760198450996839, 0.7504322319928292], [4.557644819891143, -0.4022016337386122], [-0.4599258727691221, 0.6802859680800707], [-13.942538697815667, -0.06143704489827945], [-13.096191204249223, 0.4964244622303499], [-23.61971967567491, -0.5328923136356949], [3.0500635366261495, -0.04473971001704391], [3.419300193472998, -0.634795932199696], [12.506723538334503, 0.16041303646434568], [13.95880819467594, 0.6171530705405209], [-268.5377306984308, -3.661881803880621], [-1.5567227188956079, 0.47680204286489297], [15.204837058141349, -0.20339303875067452], [-22.81444375905943, 0.1529219719967801], [-60.58588738906401, -1.8453533595682536], [16.197879065235178, 0.20577539652416035], [-29.28903245484228, -0.4396908409873229], [-0.5001753510267034, 0.03849512652204165], [28.621986122586442, -0.318991529910936], [-28.12787104549339, 0.7669647418960776], [-6.827605159006655, -0.23897388688028953], [3.6245963065606253, 0.5192323420493341], [10.197229788905403, 0.5938258384438994], [18.686141159295033, 0.525485163174065], [13.919362618630679, -0.3244170751139089], [-64.66007710401072, -1.9510866989493227], [24.27941365772572, -0.3755164659788237], [-4.241249735386295, -0.4123352387290062], [-11.919395592018587, -0.539028790466778], [-12.018964488173307, -0.5172297938203979], [-1.1425438796210896, 0.12665466764353328], [-2.7478837412201536, -0.846582663513675]], [[-26.071785409825768, -0.00901688923079088], [-4.272400007340866, 0.00337285389990888], [-15.80109731090699, -0.006940641338414674], [-4.267779801292903, -0.006181420404063717], [-18.41331265462556, -0.00873253763463095], [-11.474223656807577, 0.0037109149179596836], [-23.383853999211244, -0.0018058190661926327], [-0.7934096829497871, 0.013452090688376123], [-11.05714548160992, 0.0003502178991805169], [17.21665479697517, 0.014918110052926663], [-9.269595419535289, 0.0028330486339805993], [0.11878812785114526, 0.0024864018777920128], [4.978213558371643, -0.007061291376768813], [7.640020972405047, -0.0026000775165833543], [11.707222001168995, -0.0056846467329278215], [10.487702351033654, 0.004205896043216533], [50.86750080707325, -0.004098150054523324], [-4.33580972523014, 0.012515774689738628], [-8.259391344422175, -0.003580642475541412], [1.9154881454797714, 0.005263158133937543], [-18.749922470221236, -0.0008425218291794041], [8.527821254916017, 0.004807380060859758], [-863.057230949027, 0.024587304444340805], [37.77943749444714, 0.006101757616756717], [14.114108417342877, 0.01331869092082237], [-6.8696402309787485, 0.00029586387887432374], [-230.79328012046113, 0.012355530708044783], [-7.807185666952624, 0.00776746042358791], [10.393311952800776, 0.0026492405587466078], [30.45672079400532, 0.0005100268180484163], [-11.409568323815902, 0.008913979509564452], [-2.4042577269877357, -0.006869276653815147], [-8.140890758404183, 0.0010061215539865353], [22.409189361860616, -0.007758400991658001], [-1.1942193095753297, -0.004629116102822443], [15.074540698463819, -0.0039216744369970115], [-6.667836471206418, 0.0006796971258141555], [-262.59965643394264, 0.012060310613348911], [20.52719027529252, 0.00867740736566935], [-15.841558333724521, -0.0017069247537678175], [-8.02789729784624, -0.003003206495764999], [13.210187902277703, 0.003529012807420482], [-19.414794880312414, 0.00037469482926050853], [-22.32467345193479, 0.0076624263921911805]], [[15.350033342081689, 1.8743951878546045e-23], [1.5588072153064463, -6.888246868363226e-24], [7.483257792744448, -1.4073564358134545e-23], [-17.25847136656026, -6.2574197861235996e-24], [36.91957133582752, -4.095456988024349e-24], [-22.480653353668686, -1.1963099826514993e-23], [12.627420170722711, 7.289189479232203e-24], [-4.066600345554669, 1.7566239661298606e-23], [14.485407392555409, 8.52682579789121e-26], [16.159625609286376, 1.1480899979736666e-23], [19.65292688735686, -7.781975681387859e-24], [-4.233584426195629, -2.8894319899076902e-24], [3.048290335733743, 9.581510552568073e-24], [-5.311945515077225, -8.608548893464786e-24], [-8.787323351624345, -1.662474732172509e-23], [9.61736994769008, 1.351833816588232e-24], [13.643180899380678, 1.0517203126426506e-23], [37.48730606382574, 4.9468244978749194e-24], [50.16808059148893, -2.877738419342308e-24], [-5.908293412334393, -1.2941647965304378e-23], [30.223536577173743, -2.6758065482368915e-24], [-5.925671199951035, 1.2519174995707995e-23], [-1622.1962250259492, -7.300885216270369e-23], [-0.29518872403851076, 9.105482236474657e-24], [-4.027078753714316, -9.796914567346368e-24], [11.50894888567509, 1.4434300260811157e-24], [-440.60713792705866, -3.5712028157489576e-23], [13.392275580673514, -1.532856356624453e-25], [11.062775062334483, 2.808512850141984e-24], [53.55445036166828, -9.75289279437724e-25], [19.145584941113555, 5.9873008788658294e-24], [-34.574329088594304, -1.3511865171067042e-23], [-20.953920811437225, 7.127041206983191e-24], [6.768424769455415, 1.3607923193139762e-23], [-12.976153976168556, 6.849900731895162e-24], [-28.775200185802618, -9.376354553822495e-24], [4.499093650177048, 8.849454936707914e-24], [-485.8156465341889, -3.4683226782267966e-23], [-37.80754518901804, -4.518476920253165e-24], [3.2791461409464344, 1.2513148978029904e-23], [-5.422493013106056, 8.59688085501739e-24], [12.997706159327354, -1.115226049946604e-23], [24.607530246886302, 1.9759775279413217e-24], [-16.07010313792799, -1.3602870902849103e-23]], [[-8.474526353597113, 0.8509588249626572], [22.080051685527188, -0.28118216492558185], [-16.65536316368776, 0.7123819404494923], [0.3482295238007088, 0.7490707165552112], [19.811024420173883, 0.420767735880638], [2.8990129424306166, -0.41108244456332466], [-27.518166848536307, -0.37949494583031823], [21.138646609089673, -0.9250335293377986], [15.359969976772856, -0.11798755961479372], [-6.747081975686144, -0.6436378273209848], [2.4607787188501637, -0.38190147938319885], [20.85766045645165, 0.281142642131054], [1.2590343376200002, 0.7502544358828697], [-1.822263258908699, -0.4022794135910121], [-13.856321832980466, 0.6801298999578742], [15.751764439739315, -0.06138685180093874], [-33.3870157784366, 0.49635145793971985], [4.436644827153496, -0.5327656683610783], [-1.3132937909170177, -0.044758106065401454], [-12.366888986380294, -0.6346461327137253], [11.620995840537285, 0.16039876554323323], [-0.8012316853126055, 0.6172183899591653], [-1121.596274362367, -3.6611616144795267], [-4.821634728447999, 0.47672219035017044], [-9.044591315349399, -0.20319193015716122], [-11.681786234046239, 0.15292110444359142], [-262.6077396969691, -1.8450001337384143], [-5.650411918754031, 0.2058619153043735], [-3.9706221951377163, -0.43958478196207285], [26.340578100225606, 0.03847053310606394], [7.406068437680009, -0.31893209760967794], [1.4117231296094128, 0.766793303098572], [5.369294128578699, -0.23903044174341948], [-6.41814709259178, 0.5190303930468925], [-32.270429338458925, 0.5937414830378586], [-11.704005561559956, 0.5253455904347097], [11.387928392136583, -0.32432830277318997], [-331.4367753563144, -1.9507303663237539], [29.597853334357417, -0.3754549109141319], [-9.346858338816583, -0.41244960502073796], [5.30785472191542, -0.539139241685926], [-17.575909561648217, -0.5171187397524198], [30.750459464465326, 0.1266372864248244], [-16.892710436926972, -0.8463889573905965]], [[-37.80443344231524, 0.8510537116851543], [-41.22407186355571, -0.2812183286521365], [-12.402363769767229, 0.7124582776992923], [15.449186536045623, 0.7491488205306928], [36.013621470085035, 0.4208066962336733], [-26.963119298653158, -0.4110372715502497], [-2.225096765660118, -0.37953510490149467], [7.525869651303005, -0.9249295571034072], [-22.596548691846106, -0.11798362474454623], [-8.837753953022863, -0.6437056539767566], [28.241353012756324, -0.38185727426649235], [12.924753375552815, 0.2811588782700986], [33.61574942280536, 0.7503401345527536], [-12.527043315222807, -0.4022296036632432], [-19.51044025102325, 0.6802076359494179], [-21.66502284584992, -0.061402965608271604], [-40.42695358006128, 0.4963098703147017], [-22.739465845967832, -0.5328208793133447], [-19.613978889799697, -0.04475528016568581], [2.6521263557761348, -0.6347080467150648], [2.8224877849229153, 0.1604134513992762], [-5.0152910848088235, 0.6172801458079454], [-958.7824093091928, -3.661549963980295], [-15.12511888995854, 0.4767754478598999], [-13.52414133807422, -0.20327590752889127], [14.849068388354674, 0.15291714530481043], [-279.0485339193463, -1.8451929556383977], [-5.612064022745502, 0.20583165605184092], [-3.2300355407338697, -0.43962152987850145], [11.200061337720706, 0.03847944147020246], [-24.564301733301647, -0.3189656551211957], [-28.932402310505115, 0.7668717775992112], [-19.925434117653797, -0.23900580514941316], [-7.84284600363311, 0.5191102134334071], [12.93977748101582, 0.593804426161743], [-14.384851998008076, 0.5253992413332628], [14.935824928206609, -0.3243592403920388], [-333.1186254591088, -1.9509273849391107], [5.708014577518787, -0.37549039811022095], [9.969879996551166, -0.4124053147441507], [15.677155911246075, -0.5390830699037613], [-18.078829637036932, -0.5171693463798857], [10.333828065035444, 0.12663056391497057], [5.049071193643304, -0.8464752762333331]], [[-8.109125109143887, 1.2589327104731252], [3.758065576403318, -0.4631991890725591], [9.452216907345205, 1.058320811980796], [26.048414064409346, 1.1044462713842444], [10.115857581027658, 0.6086031935814983], [-17.361355677338686, -0.6077430880355315], [-29.723963852140347, -0.5465503671220016], [18.418476948001988, -1.3806047427820964], [-13.847534600146474, -0.1596151956266515], [-6.586308697213993, -0.9480118264168125], [-11.528444745244624, -0.5506621157999099], [-19.89799223805495, 0.3820125415975087], [29.844245232631614, 1.1129548837157], [-20.353393087191165, -0.5825101126665694], [-24.57650781988286, 1.0036178517729817], [-9.378500467765083, -0.019486750742020484], [18.835977111987322, 0.7305844182192831], [-8.130710190704574, -0.7853405800258335], [-24.502378646788674, -0.03819074999913333], [-23.27713614908599, -0.9371067280148817], [-9.126912945517772, 0.21216938930804619], [7.645590377237741, 0.8946570819632472], [-2032.3181827929945, -5.4979704772341975], [43.35887835754248, 0.6946222998222192], [-12.206699847221932, 0.16887051775289844], [13.5252001234715, 0.19627533463576669], [-508.5927928256131, -2.770544553919528], [-5.999665482944743, 0.362506676861137], [-12.319653828299701, -0.6416817596898823], [-47.50071090063789, 0.04008764807206644], [-64.30007252649625, -0.4677959412700989], [-16.66482476147409, 1.1350073245982353], [1.2579741068883332, -0.33045337354737253], [23.925368318355588, 0.8968467588265148], [19.356771081012454, 0.867052857234769], [-1.1947340906690953, 0.7710859813489881], [20.759000578980913, -0.4638698256661068], [-526.3251335479595, -2.9014939683018017], [-18.899297964863454, -0.5359657389229388], [-27.17347161556126, -0.5923032511761888], [8.856834786570314, -0.77641792942271], [-32.37606327736057, -0.7582189310056962], [-10.364710260986335, 0.15928770683746715], [17.30604542869291, -1.254550704495747]], [[20.93053945617677, -2.169952250082399e-33], [7.479148094885404, 3.564344017083744e-36], [-7.78033533047704, -9.704080772685897e-34], [-4.548311096114404, 6.370552260598307e-33], [-1.7282419016159796, -7.474036269576308e-33], [8.533412620420076, 2.1792068838504268e-33], [10.941181650709654, 1.1927490040818596e-32], [-28.118678594777265, -5.107985030208307e-34], [-4.373684995182055, -1.3112232180743404e-32], [-17.853269269519036, -5.1794662461794605e-33], [-10.3989154373728, 7.371950368660923e-33], [-13.575767399460803, -1.3302422006440198e-32], [27.709757629938945, 7.82234973723443e-33], [-8.0610066264514, -2.543847468782753e-34], [-24.344120222643948, -3.183213015342712e-33], [-5.412651883816872, 1.170993919720594e-33], [-4.128437474354211, -7.15747697710127e-34], [-28.266342882935916, -1.0512740246247551e-32], [-2.9304449005010413, 2.0316479106661594e-34], [1.684944617724857, -4.2235797550311346e-33], [-26.171180169351533, 8.237190875944591e-33], [-11.612393653295483, 8.011103980409638e-35], [-897.2432705346788, 5.60017081919972e-32], [-8.812860555925102, 1.91945440753247e-33], [-6.45087341576406, 1.2894967426625412e-32], [39.0080651643499, -1.1171524440926103e-34], [-178.1480631583756, 2.377281590553751e-32], [12.440645460666971, -2.0452951472491754e-34], [-1.5893993436490015, -7.345082977597649e-33], [-5.971058766785775, -1.0928919368109413e-32], [-36.73948182631901, -3.229216576891881e-33], [30.13509483546797, 5.015316739890971e-33], [-4.676455632039433, 5.08654785070491e-33], [5.120617713416356, 1.4236094682257694e-33], [18.056046305599725, 5.1344899013102394e-33], [-2.696328442035451, 8.04438161701771e-35], [-3.2290034333890967, 1.1037312025920311e-34], [-188.46886045825366, 3.36153588442845e-32], [-20.49273509368793, 6.381055570836752e-33], [18.43611905367948, -8.420931088032231e-33], [-12.13882473610371, -1.1303699442587137e-32], [11.97224488189383, 4.569054822629382e-34], [-6.786756979472817, 8.96534188708027e-33], [16.809115342403185, 3.344326141015574e-33]], [[19.904047717853235, 0.8510639372051453], [35.17631399340445, -0.2812338171611784], [5.827027887542499, 0.7124652914071236], [-17.200649359422222, 0.7491779012940439], [-10.53512586992908, 0.42080402329448663], [47.48723500380174, -0.4110339628911619], [3.936353471437227, -0.3795345498517057], [6.271744011099376, -0.9249199667011108], [4.635877105565525, -0.11797698512356748], [37.2579829965644, -0.6437075556153256], [-11.89172402450614, -0.3818590831304303], [11.716288495012908, 0.2811581011465007], [-10.655588895355026, 0.7503483320713197], [41.76303024017311, -0.40222798441718716], [75.96397048805396, 0.6802141954448485], [28.08845324514352, -0.06141467669167244], [20.71459232926874, 0.4963128335986173], [-14.813892436206505, -0.5328238465348253], [16.031028974428033, -0.04474614729415283], [-3.7138978436026573, -0.6347319196798742], [39.48252348760618, 0.16041847657831965], [30.201868780338383, 0.6172807111421009], [-693.1164588869661, -3.6615352562428445], [-2.958090283766285, 0.47677618887157636], [-22.110095533592567, -0.20329645341911587], [-22.30976096619478, 0.15290784357407106], [-346.44548938575565, -1.845184504463545], [-0.6920279330251028, 0.20581812202955338], [-4.939791479685191, -0.43963421478299614], [29.377761791834672, 0.0384757992946376], [16.351138327918694, -0.3189658311688143], [-17.45092437852278, 0.7668765119502546], [-26.704583578923188, -0.2390101456356764], [10.143981667530284, 0.519140888290226], [8.922894674981727, 0.5938059342885694], [53.833759047452354, 0.5254182915739163], [42.90907092213672, -0.3243727002137517], [-265.0323941362567, -1.9509165425993313], [-6.8343336262395455, -0.3754865313749917], [7.609036474650462, -0.41238940821697706], [-43.28948678252131, -0.5390639834300189], [19.84995691685463, -0.5171701966317007], [11.522476390882094, 0.1266383001223839], [-59.60798680906731, -0.8465110300430893]], [[32.98285669793248, -0.00010739985375108512], [-1.254813302435487, 5.491377908273327e-05], [6.491863454607477, -9.89055335908195e-05], [13.163132157944801, -0.00010654221694149668], [9.419429880619433, -4.6726332681051564e-05], [-7.286885399674509, 0.00013168388377906418], [5.73474194152801, -8.886183497059431e-05], [-5.597129656992403, -0.00010648513214644179], [1.1046324534488998, 1.2673780320524795e-07], [1.649362121751841, -0.00013616766708670052], [-30.238010094634223, -2.4234282437504996e-05], [-14.186231823760487, 7.804510105134599e-06], [-5.3206924798829105, -9.209446107245404e-05], [2.4017067820892843, -2.7967409193300824e-05], [6.700899817257825, -7.832747088106881e-05], [8.243613363439813, 3.407877823920123e-05], [7.944117031274022, -0.00011459057776005577], [6.655353166421848, 7.143242378937203e-05], [-12.947137231553686, -1.5569833137210215e-05], [-11.919797689464724, 8.788920181608255e-05], [-21.64766957998847, 4.142900726633115e-07], [12.618299870563897, 0.0001270721962553601], [-3440.5873539300383, 0.0003318596604025456], [-4.784982883795957, -2.659370303739926e-05], [-23.502945809833104, 0.00011713455409909576], [0.8372378396786365, -4.82636257936535e-06], [-932.1995290951606, 0.00016041366848999243], [25.80370559164515, 5.625886846197902e-05], [3.941514114134424, 6.931233006068095e-05], [-20.03948567969256, -1.568458202657881e-05], [-11.176622224217553, 2.5875394738733083e-05], [22.35159725669293, -9.296261849721306e-05], [16.201197447906544, -3.191624768154216e-05], [26.38087968113902, -0.00012213208203384524], [14.84342025896358, -2.141294101144178e-05], [4.639896992494442, -8.592456524184775e-05], [12.594649970983733, 5.783229135189485e-05], [-1069.8859528790647, 0.00015932343134366088], [9.091924875966027, 2.6066499227388935e-05], [5.289376897300183, -7.007884633637246e-05], [-27.380690110391956, -5.428124756907474e-05], [4.277922594598739, 6.0444208098782976e-05], [-12.332137794704368, -2.4104117108990296e-05], [15.569151259146542, 0.00010738311953320523]], [[38.27696472081798, 0.851053706993523], [0.9515217731156687, -0.28121832661651447], [6.49211368556254, 0.7124582798627341], [7.882152098975796, 0.7491488245924732], [-7.516289723906471, 0.4208066932841941], [4.719013460130652, -0.4110372682242013], [0.3041497075059654, -0.379535103418805], [-30.20569780688437, -0.9249295523072413], [-6.5258727399688015, -0.1179836246138662], [-33.41456245532929, -0.643705657238225], [-6.203652444669437, -0.3818572719372562], [3.376552349334362, 0.2811588780465316], [24.646179570192462, 0.7503401375317567], [11.715997415860151, -0.4022296011478055], [12.953230927967521, 0.6802076406091896], [10.57885874121323, -0.061402966120040245], [-13.951277653515843, 0.4963098716525899], [7.216071886040794, -0.5328208812119055], [-15.733110129361602, -0.04475527985018113], [-16.808969007619982, -0.6347080429978799], [16.812103292552408, 0.16041345075441832], [4.239108346288398, 0.6172801427367762], [-3369.319914612447, -3.6615499442202184], [10.322311006680021, 0.47677544916185555], [28.858071192685763, -0.2032759041965755], [4.02399566843297, 0.15291714563420072], [-850.811112020382, -1.8451929458997636], [9.17779459982386, 0.20583165539262233], [-33.71268859910535, -0.43962152865726223], [-9.806516453052678, 0.03847944194001507], [4.949384216460278, -0.31896565451619724], [11.202691661681493, 0.7668717792775804], [-4.58938888581603, -0.2390058031279711], [-13.236830726738507, 0.5191102099673002], [-21.415854695491184, 0.5938044255028878], [22.066882086438465, 0.5253992386088231], [-4.8953802340493, -0.324359242822557], [-994.543252267438, -1.9509273755179792], [0.2402565464267728, -0.37549039947959634], [-27.34279801902088, -0.41240531757534254], [9.845114302642923, -0.5390830717143471], [12.359830159307391, -0.5171693496122992], [29.379323155983318, 0.1266305635264243], [0.7188127760824716, -0.8464752803941418]], [[-14.481418315471785, 5.384134978453387e-05], [-2.88479053300961, -8.955705791887433e-06], [-30.643191594495978, 4.451522753856285e-05], [6.1649045872829, 2.346370787889473e-05], [18.548759079698332, 2.8907165136468478e-05], [12.075194283647177, 2.7220484795737802e-05], [26.46503579510436, -2.7535572721958396e-05], [10.06842278958521, 6.056869162295824e-05], [0.08212835456933452, -4.030439811805304e-06], [-2.9257977370005173, -4.378598096301585e-05], [29.5128944067265, 3.154998897102937e-05], [12.664532455974175, 1.135497267877305e-05], [17.507524305048026, 4.961876365386528e-05], [3.384588080123421, 3.1965997687898086e-05], [-9.48824735719664, 4.596726811167033e-05], [34.52602016701606, 5.462750181571966e-07], [15.844559498335146, -1.4717349527265163e-05], [16.66090945128445, -3.4175108481598925e-05], [13.282659432348803, -7.032964006128193e-06], [-15.67082590198673, -1.7923818382460125e-05], [19.206721820862782, -4.1830054106977014e-08], [-2.2396634198800323, 4.0983166885028634e-05], [-2878.206408703468, -0.00027575653510725136], [14.41640437948648, 3.514894751721652e-05], [36.26887166460501, -3.643031015780999e-05], [0.3620816341417234, 7.765233262182967e-06], [-785.743155436375, -0.00013802002445239615], [-3.5877593983651717, -7.044785866566702e-06], [-8.95948341432903, -1.2017971364081713e-05], [-17.81055056409491, 6.6973581187768355e-06], [24.53600950728726, -2.233981560432082e-05], [-17.205255125672448, 4.8144997491853255e-05], [39.712989036131376, 2.088962102432386e-05], [6.058169595380515, 2.3014126645638916e-05], [5.020016270899844, 4.0821482548789265e-05], [19.395503385077294, 1.697231594839089e-05], [6.954169750478612, -7.4485458734977206e-06], [-928.7893034406667, -0.0001431491511665311], [-5.257453314093031, -2.757253883294458e-05], [30.254556735353432, 1.3783717997366396e-05], [-3.140487770843639, 1.8471061498140646e-05], [-25.14508417392726, -3.321894238492152e-05], [-1.681789252466272, -1.203893417921971e-05], [39.34085693117565, -2.2495220882702825e-05]], [[60.35079074562668, 4.255287673769992], [17.540269329227375, -1.4060881297163936], [45.05043822630869, 3.5623065540816694], 