[[[[13.768863648125265, 1.3648554441958296e-14], [-15.111576114732008, -1.46919728072265e-15], [9.585782383636031, 1.4395132110710755e-14], [-27.737219841839842, 1.564337517421515e-15], [21.77558127932484, 3.884481352682926e-15], [-19.536195818968167, -5.938220122824284e-15], [-28.694550880966148, 1.2491437988013635e-14], [-1.7693781780975082, 9.395887437776933e-15], [-18.93595480372255, 1.0565101304267885e-14], [8.88531445200969, -1.1288301309658202e-14], [-32.892156903416115, -4.836934165547331e-15], [9.752388788139546, 1.3271115535199662e-14], [2.847782470164263, 3.814432462281531e-15], [-19.196415935854816, -1.2590520793079857e-14], [12.295430485736993, 2.3579176130682075e-14], [43.22402452392046, 5.369290761269618e-16], [26.000683992632386, 7.778999239151119e-15], [0.8932248148414291, 6.439864337249796e-15], [-13.572742731921242, 6.612627262154447e-16], [29.47924105782047, 1.4348421700603274e-14], [-25.775557005718817, -4.8104474186195285e-15], [5.78167404038128, 1.8364735082264728e-14], [3926.299240070269, -2.1831235137069238e-14], [20.634910519745844, -3.152527741697764e-15], [-8.518317490960625, -7.15198848952243e-15], [8.07621581601313, 1.0205424180310453e-14], [248.35949313103103, 1.690394899903449e-14], [24.079024440589805, 1.6652481735806947e-14], [33.72059445009499, 1.2222080003155185e-14], [-68.04448626155902, -1.7612874127812885e-14], [31.650669098623734, 1.9691828948679958e-14], [-76.74806017296838, -9.779742615567245e-15], [-36.26529122974993, 2.248778249242086e-16], [34.019056340418125, 2.019323529176757e-14], [32.898231877107484, -1.5739331301265946e-14], [-19.653749697837018, 8.551629749366605e-15], [-33.81868034357756, -1.1779188386482148e-14], [364.2192852336593, -1.355299423760126e-14], [-6.955763321885445, -2.8086877630570797e-15], [11.273421715820453, -1.504396587760494e-14], [4.455738066332255, 8.51796567744737e-15], [31.314486704407642, -2.649286691626187e-15], [-32.988242172348556, -1.320001277048362e-14], [14.727458144097712, -1.2749405022294524e-16]], [[-11.734126674657526, -3.2955297926447755e-25], [-16.35256364338272, -9.69681051604495e-26], [2.8406790905596218, -3.1858676682868575e-25], [-2.156937332358471, -8.289079352120206e-26], [15.29568029031108, 9.084917975042083e-26], [-21.203090741453163, -2.4522685078045404e-25], [29.905678475103212, -9.403322664624953e-26], [-29.870537983559668, 2.2248971679003794e-25], [6.938366058823771, -2.178437064284134e-25], [-12.441412361655047, 3.0292580753979234e-25], [-25.863560610285944, -7.218105764802014e-28], [3.2369340467026646, 2.3101653909406386e-25], [-12.533468184632683, 6.553086642723141e-26], [10.978868054819669, 2.017718175095233e-25], [-2.6295679848208082, 2.543724009524107e-25], [-24.42357906087229, -5.058631463526164e-28], [39.24626102611351, 2.6434938891472935e-25], [30.942607861138473, 6.651312838036411e-26], [3.5161224901601447, -6.380338296413639e-26], [-11.349802200676214, -3.4481081256893556e-25], [8.860933341026708, -2.5513453887927104e-26], [7.603892661701528, -3.3625007614798595e-25], [1648.767807530023, 1.1849281675424304e-24], [37.410816661808965, -1.2659964306838949e-25], [-6.327447965167414, 1.0827749189907724e-25], [-29.123031138032612, -4.632241302747228e-25], [92.8670120513545, -2.244462344149424e-25], [51.93532796781728, 1.9679715629920259e-25], [31.952205976345155, -1.178213801753976e-25], [-26.327411265420565, 2.4504272657246e-25], [33.436502147025294, 3.7466319734603916e-25], [0.885924709019199, 1.578227109593248e-25], [18.97815856209738, -8.432662220236725e-26], [-40.58944149873298, -3.067510521470979e-25], [12.428547970622475, -2.7332019721463775e-25], [4.760941928957051, 1.9541199730742337e-25], [-24.905295786489976, -1.447316432810953e-25], [206.1447876276779, 4.94277681051981e-25], [36.45752274728003, 9.39484413910367e-26], [-10.360063077551528, -2.8312951120231895e-25], [-8.735224912501774, -2.0932125236612046e-25], [-17.300578075271616, 6.148374491006521e-26], [-11.197621708709837, -1.427066082249763e-25], [5.437785181658296, 1.326600105878221e-25]], [[30.564609650325995, 5.223687065497359e-06], [29.08474880151323, 1.7726265338068128e-06], [22.043825535697092, 1.5370999518446388e-06], [-11.64576010366916, -2.820627280773815e-06], [-29.056329874728075, 2.1947009270494744e-06], [49.37351012216779, 3.6291843679207397e-06], [-43.658135999371, 1.794495818829669e-06], [-1.6468472733614197, -2.1027254157863835e-06], [9.761585630825696, 3.4208764453799838e-06], [-6.774172946673918, 5.873242740321819e-07], [-14.905137803466854, -4.841325481707631e-06], [-34.52456556245047, -3.764769466811138e-06], [-40.06538717898794, 5.001253028698876e-07], [15.362879878881232, 1.9889805431330796e-06], [36.618962445881714, 6.41491183040025e-06], [29.102611277145407, -1.290122439938997e-07], [-22.992051912831105, -5.2910704398165026e-06], [50.68594431446487, -5.034410330379471e-06], [-20.47003873864267, 1.9569956925277595e-07], [4.975470068945429, -3.51905130225629e-07], [-31.18882701987715, 2.242960225763937e-07], [-5.738163257414474, -1.3586601406012969e-06], [2918.4389538418036, 1.7198988539748154e-05], [-20.367837604845448, -1.7146686872423684e-06], [-37.33646059477578, -4.071336960878768e-06], [-4.778200786929469, -2.55386389272799e-06], [229.41062097535024, 3.915209298337152e-06], [-16.85985264467205, -6.426190858050325e-06], [15.150525825929849, 1.6831682510927803e-06], [22.54084343444032, 5.101588347201409e-07], [23.060506217353662, 1.6281393939836246e-07], [-3.8093641700531236, 4.080082568429316e-06], [-4.820876030524082, 1.2633091861157434e-06], [-34.465533127250296, -8.148272182907484e-06], [-1.4178920688746426, -2.5507359709265183e-06], [-31.05573303896771, 5.02155719145304e-06], [3.9448034569719264, -2.059983190095436e-06], [257.0703150488836, 4.787989646933543e-06], [12.312519535219797, -1.7929831013542068e-06], [-43.82484974085728, -1.0995622041038472e-06], [-11.481371904684268, -2.0415658233163184e-06], [25.70509334201058, 2.094849679843654e-06], [-18.768811011483972, -2.074952714525893e-06], [-35.08699989230138, 1.405606138856244e-06]], [[-43.91020146234438, -0.018504991880292494], [-12.562027268820488, 0.016452202153400868], [-9.71028083844534, 0.020574945256330076], [4.660566914237647, 0.0021939133811581814], [32.98044394180728, 0.0006861008419665058], [-13.831161642036426, -0.01696452735075379], [-37.32116693759528, -0.010850935302866111], [24.492812433258997, 0.010476321877331052], [-35.524829875252856, -0.006870412327896463], [9.033779648738204, 0.016349208097601646], [28.354798099010033, 0.014232486405155158], [25.025023602162364, 0.03582620552356351], [-3.0912951735073175, -0.019124783012260935], [-27.522586236377492, 0.0323264023493926], [-15.666123848950344, -0.02955609543239516], [-18.985659417618596, -0.004889960859709795], [-1.0402874060529093, 0.010200913501746421], [23.286423351774754, -0.006472726515065171], [-23.184909011219197, 0.005631087701855516], [6.350214122654384, 0.017043580925537413], [1.3076720221859224, 0.017641940555035367], [4.064867246148923, -0.005644866949051381], [4178.295116853514, 0.06432547899657877], [-20.39888879275164, 0.01220481334258611], [28.795914514675008, 0.03185851847444903], [-2.1523099553136174, 0.01149222535054243], [281.0998775838502, -0.012696660285601253], [-51.79581525386092, -0.0034630975988603056], [-31.264725643611214, 0.006746818694010455], [29.61712046172184, 0.04562132333614288], [2.8438118511571204, 0.028535918037771252], [47.37328289541679, 0.02605248130170853], [-24.45727141808769, 0.016332358277643146], [27.487274366977523, 0.027779324089785562], [26.330807775413536, -0.004143077793455839], [30.772008421744015, 0.023617173849122264], [39.93592372880178, 0.01050529188682609], [492.7583920233346, 0.034596456956671365], [14.567274449305675, 0.0065776864029819335], [23.894876093957134, -0.03140957792760114], [2.779361894487021, 0.0051402625874752686], [-22.289425648944786, 0.022122151635994167], [-1.3099827652499836, 0.000618292716363811], [-14.988539247102542, -0.002875196667468617]], [[13.105166234684551, 2.936576904006401e-24], [38.50016255679078, -5.726427037858481e-25], [-13.915969303233865, -3.918710170045757e-24], [44.79986373492346, -7.064948188379426e-25], [0.24649920705549985, -1.350540686214323e-24], [34.65772327540284, 7.92295215282024e-25], [13.967320579084609, 3.415386436204716e-24], [31.8728986366869, -9.448160178259194e-25], [32.197190641156254, -2.780119328664381e-24], [-23.540889213765535, -2.3462806942004555e-24], [4.588910637449609, -5.11446529202752e-25], [32.08817836686898, -1.7193808318458903e-24], [11.201870219209681, 2.729463570144743e-26], [-7.12054313927544, -2.960740155770475e-24], [-84.08007181544973, -4.319906782997927e-24], [7.5682037661523385, -1.1606654961492296e-24], [-4.169167653514996, -2.7115876953588563e-24], [-16.86583101806105, -1.3235213698276963e-25], [28.90775931715677, 3.714560450726465e-25], [-6.82752324192229, -4.006374160759974e-24], [26.040529282798456, 5.033075775039506e-25], [41.864842848529825, 4.4558719833868466e-24], [4178.14472304392, 4.1589089254045e-25], [-36.2572538384078, 8.120679500006351e-25], [14.591564684180675, -1.5870570770443352e-24], [-26.949533590471244, 2.6785746847962327e-24], [317.4554885079732, 5.853404903158227e-24], [49.398432436156575, -3.9711759486166125e-24], [-10.913597653310994, -5.417540159547928e-25], [-16.043062503206304, -4.5934507790518816e-24], [27.680593381044112, -6.228868244691525e-24], [-13.776540048881532, -2.049064250236805e-24], [15.773935897234406, 1.7519611762132788e-25], [72.43822070853446, 5.204404766670646e-24], [4.357082172716293, 1.9327993620729085e-24], [15.183286696381078, -1.4730580680480706e-24], [35.423642971506666, -5.872791739691729e-25], [455.1180468021829, -1.8773784184460355e-24], [-22.94925875146595, 8.730344595602426e-25], [4.272397838133552, 3.5541794348858485e-24], [11.171922501259443, -3.807996194151265e-24], [-53.23007819244238, -4.7352648110539405e-25], [-0.6471685519819924, 3.26224325435091e-24], [-22.73226921915742, 3.419121775292405e-25]], [[11.110958550431949, 1.8310546361830731e-13], [-38.34770938634361, -2.212627287047879e-15], [6.246796469158743, -1.726288210354584e-13], [-27.5043812650328, 6.985992299131579e-15], [-28.056405857878318, -2.193656293210944e-14], [-47.74438785649159, 9.730375764800965e-14], [27.89348737213377, -1.9794348845649363e-13], [-0.8382693903568076, -1.1873855031359932e-13], [21.19567388764082, -1.359700303281856e-13], [19.29242711035784, 1.754002565799123e-13], [0.5779600241114615, 3.1613360550776845e-14], [-11.299928047826569, 8.550793775642863e-14], [-13.516712978877429, -8.089755527270177e-14], [26.697635302781862, -1.3806034385932008e-13], [-17.327974130582202, 1.4667451827207677e-13], [-34.48526090767796, 1.6418333057681637e-14], [21.880526167506645, -8.8759562205718e-14], [-21.515282446891565, -6.834229261830737e-14], [56.06958357623395, 3.2468034026571966e-14], [7.341173888954793, -2.5397886920841684e-13], [-6.959276256720892, -1.1335244251705861e-14], [26.97719395772034, 4.4505715329821295e-13], [2856.685442145218, 4.470305167376712e-13], [-3.5108687693432072, -9.367193060925224e-15], [40.89047619035659, -6.568614297840317e-14], [22.730877326617474, -1.1380905712493778e-13], [236.3071768715671, -1.9313224059450707e-13], [-59.74143932692572, 3.0536880759868806e-13], [-35.743382668978974, -2.391136338417335e-13], [-44.061281944380774, -4.4097097356399047e-13], [-13.122880846238697, -2.4957224983712166e-13], [-44.12884782975605, 1.594267992367349e-13], [32.12712718588799, -1.7247190476415706e-14], [-11.372421907674326, 1.5892525542261204e-13], [1.478464015005338, 1.5333415591044e-13], [60.69364299432065, -7.916126834840715e-14], [18.099674896649315, 1.31975726385657e-13], [319.70620654903604, 2.2483622167279846e-13], [56.69043399686521, 7.537605443748439e-15], [-4.999718479506292, 2.238598982251653e-13], [5.674286108201042, -1.4568377510664786e-13], [3.3378488450353623, 5.771417668739463e-14], [15.588482878507788, -7.711091872243072e-14], [1.3300288894382961, 2.304536683824078e-14]], [[-17.838337566989203, -1.988360691951426e-09], [1.7459104880809246, 1.1308888031279679e-10], [24.33401377734873, -1.539074496442879e-09], [36.83615327224791, 2.7520234281220953e-11], [47.39200207752016, -6.214809225501798e-10], [4.1064570647403835, -8.104710604151206e-10], [-7.304060561900748, -1.6627298053345674e-09], [9.919462827487298, 7.925926798079186e-10], [23.6388370160264, -1.537514782505189e-09], [2.0373770858670355, -1.6173554017420027e-09], [24.146140697516984, 1.084440335831649e-09], [17.855599918703046, 1.3265782278574268e-09], [24.16531914838165, 3.508781998809936e-10], [26.203522288060626, 2.0028459093714984e-09], [36.595291911796046, -2.5659513078430997e-09], [13.47157729123345, 3.1257772372401375e-11], [-24.5843681488065, 1.4348421848184565e-09], [-1.6424657279619972, 1.1861195836020866e-09], [-2.2407648613788744, -2.681923261271164e-11], [2.659206559872647, -1.6243546426993599e-09], [4.364482818374072, -3.802321015700168e-10], [-3.225058955707017, 3.5279687020198714e-09], [3177.0021408674534, -2.192833901396309e-09], [-0.09056951459066326, 6.894886615618014e-11], [-39.12770230558785, -8.133423875629742e-10], [9.598864293420656, 1.8359520943773119e-09], [105.87148535104267, 3.0053573358341226e-09], [-34.2080394856662, 1.9154669790555157e-09], [-4.3943416376424755, 1.4226382607304361e-09], [17.93172913239069, 7.869125372988569e-09], [53.100748135492275, -3.1171026033268227e-09], [26.996115857618612, 1.4458800551862553e-09], [-15.053451548447251, 2.6342038326487453e-10], [-44.92668758644939, -3.0316534063024618e-09], [-33.397302994354746, -1.4966828101072603e-09], [-0.9341310917510531, 1.671381214717573e-09], [-41.9576349562158, 2.262168694546926e-09], [294.8925596909774, -1.8178289100778768e-09], [-56.231179951712974, 7.169674129680612e-10], [9.195214936142433, -2.23866730497951e-09], [19.84341501995305, 1.0548400529418232e-10], [-1.0924043433360207, -2.418362322447762e-10], [30.07601136941281, -1.8252617155047132e-09], [22.56097512913033, 2.2325037905255213e-10]], [[42.09828938165563, -0.0016148658083702044], [-54.37221420481077, -0.0009697905134964933], [3.512000136295936, 0.00012791175833992154], [7.329976935969278, -7.055349227456257e-05], [13.181482122514657, -2.987026405061894e-05], [-11.709160433651881, 2.46736991758257e-05], [41.24397401153968, 0.0004881890142678796], [25.995529108570164, 3.096828068833909e-05], [16.688783082633677, 9.483788963439656e-05], [-14.757973675334123, -0.00022844593990131224], [-20.15395857386969, 0.000619234983127902], [-22.276995730660982, 0.0013170808755224822], [9.262236708569942, -0.0008303876167915177], [18.82665870805657, 0.0017963873983415477], [44.044938053242085, 0.0006274496115631802], [4.157414624726567, 0.0002771758844008123], [6.204369732189795, 0.0006646244416229825], [1.0060868141606683, 0.0004451332059636746], [28.395204773423252, 6.354619316659698e-05], [3.0782876233982637, 0.000629596397370697], [12.52359653271879, -0.0002546531077405948], [-33.66446580308768, -0.0005083442020194803], [3367.725287407616, -0.0010371251707598553], [13.838858006435906, -0.00046336669379249887], [-21.909506321183006, -0.000277335781953068], [-10.936462562491732, 0.0008705196673963441], [355.4454064970297, -0.0011451978859082033], [-1.9073261899748166, -6.582640551896929e-05], [6.9718763962860075, 0.0001461918627790447], [-38.74304779935402, -0.0010095285949384839], [-18.541013283474207, 0.0008922542999400395], [-7.909959428961561, 0.0007295079738426319], [13.988761093992013, 0.00038224331805489876], [-28.411085948432568, 0.0006667679381845309], [-2.4383242820981605, 0.0008021668750294487], [40.34661769979984, 0.0010786201920786173], [31.894508990902576, 0.0002012907760122308], [531.7338595734947, 0.0002610021683608222], [-24.938883663672303, -2.6426654876078015e-05], [-22.348990047710153, -0.0016052646726524], [-6.9451716084662305, -0.0003513027570887086], [-14.939724053173343, 0.00020199632747828887], [22.69099898000222, -5.005590191326158e-05], [18.99137615314927, 0.0001309457288503282]], [[32.48785483636085, -4.873936266733836e-17], [-6.169719668323346, 1.6367481487075424e-17], [-0.19124398374128465, 4.404741266988702e-17], [14.550027625886157, 1.1918491325195286e-17], [-23.327602556669277, 1.6524575611160782e-18], [-23.382799210071763, 3.2206874862974453e-17], [-2.8206671592907946, 7.970482529541759e-17], [-2.9259402410214688, 3.76224871761507e-17], [1.4581230663013753, 3.854126346217793e-17], [3.776541117020833, 5.702934385001179e-17], [-33.592814193295446, 6.633957422734506e-18], [4.329073390453571, 5.073067965047264e-17], [-32.943158657686354, -2.834321376071248e-17], [-10.138047693043482, 6.22794882958248e-17], [0.7558741066447986, -8.375714832105124e-17], [-0.6157432728635794, 2.4453627338637972e-18], [-6.9624824660187725, -7.3627460998848e-17], [-13.69713398448784, -1.8665124077661842e-17], [-18.698937592090534, -1.4781300710834846e-17], [11.319794625803674, 5.363233530240307e-17], [32.065271524801084, -3.0493018859214245e-17], [13.662647902461135, -8.644517494084609e-17], [1666.7349331057874, 1.5828759784297956e-16], [24.000829850037757, -2.1715921415954264e-17], [-24.945927274160393, -2.0503389475686817e-17], [7.474113547195009, -3.195704538050042e-17], [183.57948875651323, -5.4912007104440796e-17], [21.018726339731895, 4.3192762340364666e-17], [4.051153757778115, 2.819972291449645e-17], [-7.975866701474504, 8.140526211922152e-17], [-4.591842499706798, -9.34280352959359e-17], [-31.194043715834095, 5.2745062178795125e-17], [6.3514399357170666, -1.2242486722724055e-17], [3.86161963243075, -9.35554722205466e-17], [18.652326039427763, -1.1286012714844266e-16], [-4.6533383195594284, -4.699200115786961e-17], [-3.5468984786425115, 9.234435799872385e-17], [195.19883717527998, 7.486564749088039e-17], [2.1115370028400635, -1.5192024511171046e-18], [-8.664066202752403, 7.167672630774856e-17], [3.157573460330833, -3.138680549446774e-17], [-6.840689023237698, 2.065069960359649e-17], [4.222016542366162, -3.309616133043635e-17], [7.445033017561254, -4.437741008933364e-18]], [[1.3178869682315466, 0.008649617732302868], [-13.069660541719239, -0.006947049284731848], [5.512381853788554, -0.008821538464079364], [11.28989691776838, -0.0012201524393578992], [10.753356072428835, -0.000528829974374233], [12.364969580533716, 0.007497992117193115], [-18.892087264606083, 0.004892232500265395], [-14.301452187197015, -0.004778920096006691], [25.81239732971738, 0.0031907009461219255], [-17.729872436151535, -0.007060261531290724], [-3.0337714855486393, -0.006529812292244351], [-1.9118373566383908, -0.01586230145359205], [0.470234544485447, 0.008774855261647386], [-5.48770307447954, -0.014451972539083861], [-3.7560873860814517, 0.012472070913844262], [15.959191701373634, 0.0024025583160844676], [10.85624608263297, -0.0006937051651945262], [-9.063101556823504, 0.0024055768111340236], [-23.46266472746288, -0.0026763690109953982], [2.0941599250082357, -0.007570048924530026], [-4.899836083079421, -0.0075863452118135714], [17.358545778738755, 0.005139592957211161], [1292.0855428261445, -0.028997205916826387], [29.540002224424995, -0.004771008124483983], [-2.127508437027764, -0.01353602441233658], [-14.44686356820527, -0.005346962401435527], [117.71456118632909, 0.00523487873094634], [-17.025016172389225, 0.0017108967635549193], [-13.018312172232568, -0.0031032842110301764], [-39.75201291624004, -0.01935175455452129], [-17.05953125175365, -0.012054341165759794], [-26.106740338215104, -0.0018026507717811297], [-4.4735008180690246, -0.007264703377099287], [-2.1957330479441626, -0.012176661304946544], [2.2810420045779845, 0.0034901376512708106], [-2.6895594449318634, -0.0017876096623731528], [-17.289750058686003, -0.004787041571533558], [156.9743302263413, -0.015315526862967704], [33.971511280904934, -0.0030400220877016106], [26.21225836326818, 0.014212668132944532], [-9.851121327397502, -0.0044008359108538425], [-6.351314450893856, -0.009718149156433294], [0.1340497444748625, -0.0004525418586561866], [-0.20523624945568114, -0.00021222633121214217]], [[-6.74471784079414, -3.765049496778657e-10], [-14.012559423663845, 5.761260096824879e-11], [3.8809400123689994, -3.071676903018952e-10], [-5.995469994577931, 1.5907076841768095e-10], [-10.20159733434756, -1.7579065835874236e-10], [9.641720861629066, -1.3819284839353087e-10], [20.941253286988193, -4.602005784442005e-10], [6.577927204359599, 1.0220777325886232e-10], [5.905030554736717, -4.5363406870846526e-10], [-14.300047575420594, -3.007721146320245e-10], [-1.5524357560260382, 2.982823844024254e-10], [-33.2249746191675, 1.9692804053354128e-10], [17.948936217205762, 1.041468297641906e-11], [-4.241546762821604, 3.732513496900105e-10], [-6.968158169680462, -5.144120902385539e-10], [12.587844540517525, 1.489050031700509e-11], [30.242286363890127, 3.550282601961864e-10], [16.153349017292026, 2.9991912446171177e-10], [-36.62220144640557, 4.2494927086249936e-11], [22.193157727647275, -2.699249748465386e-10], [-39.39814340371235, -5.862617403340746e-11], [51.33507395129453, 1.0340440634153625e-09], [1092.7337562071145, -1.364950559384849e-10], [50.4058282376568, -5.2373750478092896e-11], [25.11756543334815, -1.9779622464217016e-10], [-2.186355391062416, 4.534732449286527e-10], [64.60074232213383, 7.330412349264606e-10], [1.6191748316756434, 4.827511684302654e-10], [16.981246146947324, 3.4595828976986884e-10], [16.531809415133505, 5.271530158653477e-10], [-52.9791204298297, -8.472337065246273e-10], [6.011975257132955, 2.1871679190895348e-10], [-87.76600157957277, 1.0733706034512252e-10], [46.36648442800073, -6.248070424057569e-10], [-17.796333355224622, -2.82981394650952e-10], [-13.876422794065737, 4.965469359069723e-10], [-58.291706222147155, 5.343269331398805e-10], [173.1702494264757, -3.021902002766108e-10], [-16.134905663422526, 2.1339915547443608e-10], [-3.436332748239871, -4.411131194570982e-10], [20.0805817129112, 1.6296570117807692e-10], [37.28021752746178, -3.571162898528875e-12], [21.28878453064817, -4.3461822942367516e-10], [19.648975498891687, 9.591260571892159e-11]], [[-2.101285371443943, -0.09433221179501768], [9.301795596348132, 0.07724031582091495], [-11.453032180597676, -0.04378867149040723], [18.397969740793553, 0.023266912538465023], [12.680264376184411, 0.014315600865516826], [-12.085499394190492, -0.08396460834304881], [-32.3684658136751, -0.06300513927488235], [25.848377682784836, 0.05819061069913967], [20.3048691153128, -0.04221592820523818], [20.161151435269897, 0.03292003365399929], [13.439186048921913, 0.07402422041309412], [3.5989327919457477, 0.16245044425705496], [4.0511415444814025, -0.04122271118142938], [10.608400568919693, 0.1461197178745368], [1.0119749059539846, -0.13187578534059113], [-38.28494095185767, -0.038769442355293525], [-34.224183254887095, -0.05359409508111039], [-6.633017753269026, -0.006972047382665616], [1.9133861867184734, 0.03578281382337317], [-14.581768866278267, 0.08211600012803036], [-11.509348985630123, 0.08262977311475098], [-24.740104725964933, -0.09202413959467215], [1157.9583351547606, 0.356461807771706], [-37.138125842679706, 0.036324968051857615], [16.136523405792587, 0.13945841429917835], [-21.689059605202576, 0.0589697420151676], [35.739964049711425, -0.03156646739732728], [-92.86375420628436, -0.024929048635526377], [54.00725141062807, 0.03724931027776371], [21.16206992997362, -0.09462093003206601], [-29.956233631871847, 0.10411871730553279], [17.121577436812263, 0.061294700354940515], [-13.728600054749602, 0.07823188885139629], [24.94233588450846, 0.12431974464146246], [19.097625004331547, 0.03527884503651921], [-4.25781053700056, -0.11045680761196922], [-15.358580309642628, 0.0561251557046962], [140.9588617330699, 0.16888638972035808], [-11.57941821659177, 0.04020278970773135], [33.315254420183074, -0.06286631764294986], [6.050325826181438, 0.08376294439384803], [9.451638674477913, 0.044004843405414475], [2.376901874430106, 0.0119526365909556], [46.81117277859786, 0.029845313248497596]], [[41.75151731012619, -5.099765543414229e-05], [-12.446016438811895, -0.00011511839120700783], [-17.671346447266107, 3.113678201292392e-05], [-10.808477688768578, -0.00024137658575945628], [-47.6519895002676, -0.00028527641304072125], [-13.080535873606165, -0.0001382713791457991], [26.033940320699102, 0.00010693058608362668], [-11.298748135839736, -0.0001760679599982866], [17.676294009113406, -2.3059004706323307e-05], [20.38864898253733, -4.636103390519528e-07], [3.0894059996307535, -0.0001727760679988664], [20.22272108800274, 8.319467531673323e-05], [-1.5739038095155515, -3.9823563170139346e-06], [28.292321755888697, -1.7919288582092795e-05], [24.947579574838873, -2.0937447701023037e-05], [6.985299991277717, 0.00015491039826179314], [-9.0250373763756, 4.7346461622195964e-05], [-9.479942074595575, 0.00013202141499650302], [-15.333715555166222, -0.00027219827097919934], [45.48136672548969, -0.00013091374960006363], [47.36995914931168, -8.093675407836901e-05], [-46.32649832108424, 1.0295082887167684e-05], [1047.4057156730873, 0.0007041996389493643], [25.277668877765155, 0.00011515751526101945], [2.8430159640530293, -1.1295779329116778e-06], [-11.306875350369118, -6.521793289102617e-05], [191.81714045943266, 0.0004412594845461718], [5.889235433506578, 0.00015434303561682664], [-10.718212827511161, -0.0002090968934246314], [95.48772113943753, 0.0001787538556884979], [16.711321179245, 0.00034111755755687566], [70.01818310222748, 6.88043627071236e-05], [13.866615735037081, -0.00021174450631241133], [-94.42624315654508, -0.00026222728880536945], [7.236815765048385, -1.76158678414664e-05], [47.101967996879836, -3.451612874390547e-05], [48.75045936108786, -0.0001801873159845011], [147.84672079944957, 2.887422827711649e-05], [-5.926748849331416, -0.0002286700808207892], [-32.08444873777984, -7.933746831663913e-05], [9.0624208337623, 3.413629952159666e-05], [5.799024631900912, 2.4231158972293722e-05], [-25.268730194057607, -0.00015814608721443016], [-39.88847431745647, -0.00016569380396888074]], [[13.989224256421462, -4.516707093861449e-09], [20.863091696291328, 2.3240271414747136e-10], [18.31922294291277, -3.5350306930546973e-09], [-22.335431481512778, 8.779017078361787e-10], [28.729346313453703, 1.0657062080933598e-09], [-11.958452607169336, -1.885426403723163e-09], [-30.330351821059846, -4.0394625670165445e-09], [-39.11322141168858, -1.8179570808867352e-09], [-28.28450905551643, -2.709419323930624e-09], [-0.07950231353000409, 2.9943701836442842e-09], [-32.78282624286483, 2.3981388238046572e-09], [25.46076091490932, 2.8909935262597837e-09], [-15.241291481782728, 8.654417019802535e-10], [-7.476031939362897, 4.628217833196769e-09], [-8.790339653715941, -5.894588306839616e-09], [-0.9139875071692469, -6.130475018884385e-10], [-1.9942517650122296, 3.2311511116209515e-09], [3.3966251536031016, 2.6648306626058136e-09], [5.4477304462865686, -1.0800775084147887e-10], [-40.97550498076698, -3.517858356490781e-09], [-9.722755680074856, 1.8977674583281414e-09], [25.495648489657913, 6.525769034489342e-09], [1442.2401152882867, -5.3349035250519285e-09], [-1.0788353746194417, 1.106182427788434e-09], [-42.65723845093752, 2.6938913681653785e-09], [10.170039849933248, 4.13504540872179e-09], [140.76266803846264, 6.777623461095026e-09], [-18.05912027449588, -4.289555469322258e-09], [-24.50090257154717, 3.210078715751654e-09], [-24.62105582839576, -4.7028189794238485e-09], [-3.242901437801193, -8.190964773798845e-09], [16.84857116073969, 3.1505728080666023e-09], [21.180418541009928, 6.171846509625062e-10], [4.02868050127332, 5.732284876096865e-09], [-12.039349112193536, 7.210476433573187e-09], [22.89623422417919, -2.820836654466582e-09], [13.44152582589967, -4.418254323965322e-09], [125.67298726700156, -4.237132883000081e-09], [43.18864850806732, 1.5938361109423055e-09], [-13.68509560607353, 4.199313972869319e-09], [-36.732883851606346, 6.253390791269921e-09], [46.215605484609775, -5.99143554916786e-10], [6.551202801088209, 3.1722004910157966e-09], [63.55013564715042, 3.252987577874845e-10]], [[22.917883516024073, 2.2885412122165425e-06], [8.499523222224541, 7.742515549729499e-07], [-26.65150178115948, 1.6641072770857463e-06], [-7.225813792819089, -1.661966026483638e-07], [16.120554074801102, 9.682850984416418e-07], [16.099089159952516, 1.6533206855884728e-06], [20.767931133789794, -6.603206750817795e-07], [-23.45196112166275, 9.63739245259833e-07], [-10.22300089624781, 1.588826122430257e-06], [2.5526826360431896, -2.3185112417625883e-06], [27.087120660174932, -3.10014851707505e-08], [34.530568573292484, 1.1216825608961274e-06], [0.7966402554956012, -1.7618597690038738e-06], [-24.80382608916734, -1.317993679467866e-06], [-4.112147432021835, 2.476332607044691e-06], [39.909479181105034, 3.632683317224488e-07], [34.58203933986218, 5.524243404688832e-07], [-1.7203178619741057, 3.151775547320578e-07], [-13.238833817931972, 1.4055365974449445e-06], [-12.073069485096157, 2.3273119637883103e-06], [2.952745439215456, 7.217266096304463e-07], [2.946708495211798, -2.6460488946946744e-06], [2098.61196478198, 9.927030879072301e-06], [-5.060849891433032, 2.2524427632221183e-07], [-36.200902436117815, -2.1036124622414e-06], [2.8321716095605516, 2.6046851703351706e-07], [199.5429906948758, 3.862613367309817e-07], [24.035330922469974, -9.193496980812212e-07], [-26.71091012158064, 4.883654499992264e-07], [-30.048677858595, 1.921400144197066e-06], [-17.09761308523597, -3.2739329906589846e-06], [7.8242758707684725, 1.2256186293639335e-06], [-20.60229143205209, -5.059076848653203e-07], [-2.712399614859295, -2.7082441162336914e-06], [31.72640042202573, 9.028778519514604e-07], [-6.603742939856712, 2.1040447507950154e-06], [35.88520936430003, 1.5034035817759254e-06], [279.55639077579417, 3.4286975551065343e-06], [14.820454983075477, 1.07342209468973e-06], [20.897536161568787, -2.7322858367329642e-06], [11.288396484927974, 9.915931380924687e-07], [17.475131930703697, 1.4701503869556032e-06], [-10.478541122279097, 1.7287368630897294e-07], [-14.821662922666015, -9.756652110256201e-07]], [[23.1085903988651, 3.483508840955132e-14], [6.200830720588175, -1.8053803966373588e-14], [10.30804262902247, 6.005016743902096e-14], [7.2429976921721755, 2.592881541736375e-14], [-9.982963989047269, 3.5058043180171694e-14], [7.725903546223707, -3.5409611658858614e-14], [-12.610521799529975, 3.4819607435859734e-14], [-17.498890604655966, 3.381712213596834e-14], [-27.991627876539194, 1.7881631810454718e-13], [-24.77281533528326, -7.267790760283173e-14], [-1.295764603480336, -5.643500030822185e-14], [3.0738651653330105, -8.492690209819876e-14], [-14.698814312516758, 1.1836825557113912e-14], [-14.392824853568632, 3.365934336379025e-13], [13.813936888186172, -1.6989292782748576e-13], [35.966574555911436, 2.0019526953892742e-14], [10.797386487293288, 7.125739437027502e-14], [0.28106584746737134, 5.949089400756977e-14], [7.608587281490015, -4.846175494206322e-16], [-11.173978806155194, 2.0576346161381918e-13], [-9.420659504089501, -4.404146678845141e-14], [40.355255818363176, -3.1881026022869404e-13], [1233.1435504503263, -7.827172976713887e-14], [35.32394620580677, 2.2019431658127397e-14], [7.903354294771129, 4.183826243616847e-14], [23.494546838271997, 9.119914837366017e-14], [129.1826470325364, 1.485023254106601e-13], [-3.0616750138278617, -3.44531247174579e-14], [41.32638200245753, -2.5506830734070627e-15], [14.950225464632101, 3.0441963017693497e-13], [0.8323258962757208, 1.5999462681698953e-13], [-7.7063692247257105, -5.868604645834195e-14], [-17.03862156247329, -1.5501368576675923e-14], [-29.077203369340996, -2.0267887589852813e-13], [-1.8208145585531634, -7.028435543422424e-14], [32.460319662456016, 9.561773254857323e-14], [9.90330942171359, -1.0879905922841744e-13], [184.52637736133155, -7.901841381851635e-14], [24.956233496035544, -3.9040572120093465e-14], [0.2066176146449227, -1.0250967838806777e-13], [-1.071089884914173, 4.580034828019907e-14], [-1.8547638560448916, -7.644307564018066e-15], [15.999120421864468, 1.0792077754660683e-13], [-5.6895887376285135, 1.691458268754185e-14]], [[-17.44599200480897, -6.696118219986234e-30], [-15.5390291833805, -2.403241911331498e-30], [-8.008586188516947, 1.422790456842858e-29], [8.272977684730638, 9.072910322139657e-30], [-11.668519039263984, 2.0804713900697407e-29], [-12.219912144098354, -3.256552017257131e-30], [12.914224593056785, 1.4073137376269162e-29], [17.021960255655717, 1.8832247682757426e-29], [9.77791055040711, -8.370980749234074e-30], [-12.45412195118061, 4.5748043454063345e-30], [-11.821402523297158, -2.50962441144407e-30], [-0.34662794698681015, 6.816211275862511e-30], [6.404945152435176, 1.7813428213306136e-29], [-13.722588300532227, -1.6309880873925364e-30], [17.215668246542133, 1.4912066177875527e-30], [-23.374195545661422, 1.3173333395930597e-29], [-34.36871963338405, -3.8127396932185256e-30], [6.924821215794528, -6.784786613346587e-30], [12.352060651769913, 4.152788917674538e-30], [3.2935733519756147, 1.3809416212445408e-29], [-3.898709714874517, 1.4038857355080252e-29], [22.651021097135978, 1.683255024401843e-29], [17.633359268688917, -4.094463935672804e-30], [2.734331361572884, -7.230607782107353e-30], [-23.651339740655743, 5.6283863816978525e-30], [19.988554049754182, 2.132219360621828e-31], [-6.554639075526268, 1.9254601961277464e-30], [2.476900398298196, -6.566271510279019e-30], [1.686295050595203, 1.7392651974582627e-29], [-1.606376395008528, -1.1766152142107204e-29], [9.373630756888513, -1.9497102173731816e-30], [15.108681371524836, -3.286706391799509e-30], [-1.390346072238988, -4.748756010266386e-30], [-13.074431025734807, 1.5402723933573434e-30], [22.993330948380393, 2.299560557194619e-30], [24.741219314317267, 8.781009481260185e-30], [10.975923771864496, 9.675399655417971e-30], [-31.42848417138042, -1.3023675098953652e-29], [-3.8229635068305416, 7.950616801424004e-30], [-6.565964506761502, 1.2029043396439734e-29], [-11.184354966383676, 8.298146488715433e-31], [-14.111959948558487, 4.415744768588381e-30], [18.695660074075754, 1.5786150363369488e-29], [26.19482810753614, -7.169123668009851e-30]], [[16.155010925974786, -5.285160697529935e-11], [23.65449366592686, 2.239866378766296e-12], [17.78726575832361, -3.0033445928314335e-11], [-11.587913264137228, -4.299278042055288e-12], [-24.58925382968458, -1.7366309569452313e-11], [7.505220196824914, -1.460796236027711e-11], [-2.0636784239805097, 3.5616881130153895e-11], [-5.436285260723296, 1.299787878404729e-11], [-6.332444015538019, 2.1844135769590697e-11], [-70.34361696569866, -3.0216871609106984e-11], [14.262206020578082, 2.696536382738166e-11], [-44.29874065881951, 6.966734692208799e-11], [6.149389454153891, 4.335884644236691e-12], [-7.220640181598085, 3.7890083392372775e-11], [3.580588112865521, -4.957142460319261e-11], [5.032388546185741, 8.780262459253034e-13], [15.417871989970877, 3.05100868532391e-11], [-1.5299337142711191, 2.549277222907104e-11], [3.0790998830991936, 1.4872995150689613e-12], [9.214800190059062, -8.582292938912515e-11], [-18.92355163172836, -1.5315449192944978e-11], [-3.835606926736093, -5.369747282331152e-11], [813.0329937411177, -2.9791091710742945e-11], [32.6604224838824, -8.074036287665869e-12], [-34.877807037093966, -4.420550766465784e-11], [-19.368147413409314, 3.899650693290371e-11], [26.423727530320573, 6.343076496789087e-11], [2.646992412341739, -4.61882323436081e-11], [4.8211837646097555, 2.989484045873317e-11], [-36.80022723098453, 5.147448033264284e-11], [-33.247642799474086, 1.9411384837561598e-10], [-26.339492787661328, 7.537316625904935e-11], [37.545002137755255, -5.89202271388513e-12], [17.198607529335312, -5.927805934505243e-11], [-17.16204637455647, -2.8155545102290366e-11], [-25.361207904352245, -7.33238552366695e-11], [14.879747324899087, 7.844090003899208e-11], [-14.649344223430177, -3.24874096185968e-11], [-7.160037162971151, 1.3313060288387848e-11], [-22.785500897322585, -4.2860925905334704e-11], [-6.9082987972783965, 1.8613200009216537e-11], [22.167003939789403, -2.7810489535798506e-12], [-21.28531173338442, -6.790692177731462e-11], [22.908690885532547, 7.76484195978512e-12]], [[4.41510365276228, 1.4472289911606615e-16], [6.279441163816576, -6.826216809581591e-18], [-10.541386162115982, -1.0186196721565672e-16], [-0.39937626805333226, 1.71634048879298e-19], [0.42555416174437893, -3.470790393480991e-17], [-10.373512004787742, -5.31654132811251e-17], [-44.13199041644952, -3.9725112014831813e-17], [7.5698571609262535, -5.913024902387817e-17], [-10.468131800552884, -6.861499589791985e-17], [-18.128712574460945, -1.0313823965772268e-16], [3.3818334034736366, -5.247029319978907e-17], [-9.10990437993705, -8.443358966851093e-17], [-22.4919197428246, 3.065760765399132e-17], [-14.324012587768342, -1.157333002805395e-16], [-2.240763960118476, -3.2950236133478006e-16], [42.67338108552483, 1.7733453040748187e-19], [-7.625906331677962, 3.214126272740196e-17], [2.407584659447728, 6.580769254368526e-17], [-33.92258465426349, 2.9487754685389973e-19], [-9.404358410135586, -9.196635357798736e-17], [-17.40626009767142, 1.5327052845839852e-17], [-11.535564420981487, 1.7100344440148555e-16], [818.6226459514326, -1.7542431192223044e-16], [-9.826598285226607, 7.326932735751309e-18], [-1.7756444359839025, 5.437795059650741e-17], [-35.41582720022372, 1.0309720902737853e-16], [49.01576149487353, 1.697770770358608e-16], [25.73010932496958, -1.2144644154477171e-16], [-6.981823300539626, -9.178363159565964e-17], [-1.3973983962243233, -1.6476687679940643e-16], [-22.861382754737097, 1.7627723463425779e-16], [-5.010475245986719, -8.770478616799493e-17], [-12.930936156840625, -3.525880203185395e-18], [10.457179713462823, 1.887814054520966e-16], [-10.744788181285433, -1.7529953613070815e-16], [-31.838040836447938, 7.624350244100376e-17], [-17.150258867607818, -6.562429638804462e-17], [52.95756128829837, -1.2065247143439599e-16], [-15.754840115298977, -3.380327046060977e-17], [3.69083648729841, -1.3962126762868896e-16], [7.75806246083556, 9.148057016353339e-17], [3.4334814468055885, -2.0569636758355278e-17], [22.553732274548484, 9.712382739378648e-17], [-12.201169107451673, 7.305050707707675e-19]], [[0.04491178272943531, -9.528880039055635e-19], [33.46430952899571, 1.1744063054171835e-19], [17.113818958320486, 7.417118997432937e-19], [-9.264415823331897, 5.092993536605053e-19], [-3.8471501147947595, -6.682692692680632e-19], [-6.8847232253887665, -2.89977236567121e-19], [-3.239493827623166, -1.33650540292107e-18], [6.861391381253614, -1.5790917552642529e-18], [-25.941203062085492, -4.49402247391037e-19], [-19.30507743418645, -7.462056230020386e-19], [-1.6540174514596162, 6.687379174275402e-19], [-40.00731957347117, -4.715234597492789e-19], [-25.842569391127547, 5.211016751557508e-19], [-6.00285929169745, -8.264234829016253e-19], [-5.109409740360977, 1.2291032173809535e-18], [-14.630963504558064, 4.780251810877018e-19], [-18.11067355656259, 1.0045976604949825e-18], [-1.4423325946428136, 8.863566591688649e-19], [1.352463642332763, -3.5846129639892043e-19], [16.852815745386124, -8.75144748883313e-19], [-7.641614265681311, -8.363719917848225e-19], [1.417618900985811, 1.3623221549604923e-18], [248.1065395864403, 3.2774852862026577e-19], [-1.3872817765316583, 4.835149331808376e-19], [-24.146097392456763, 9.289993921879968e-22], [-8.30038319737253, 1.3207758759537297e-18], [-50.32563526864893, 2.1176034713371643e-18], [-33.50612715945053, -1.3950642760094806e-18], [63.3592046339753, -1.1795901731109401e-18], [-33.00686361539985, -1.3567918304120793e-18], [-9.846233672793778, -2.2596064862095364e-18], [-21.88375916054928, -4.886318906551266e-19], [11.072633411132536, -3.714322945168334e-19], [-14.329462556942797, 1.5502595180471916e-18], [-34.17899801257088, 6.546680663799357e-19], [-5.542356356214377, 3.9905240952283814e-19], [-23.050855928552178, -1.5626431484126565e-18], [37.604375568931054, -6.156182610464354e-19], [-43.95574403505621, -3.3448448175542166e-19], [-0.9862724070341554, -1.120418350934026e-18], [13.491143448730515, 3.9829455745523825e-19], [-24.418584803214358, 9.129259830276377e-20], [-7.735942420974312, 1.1703193063282444e-18], [-55.78085460591369, -4.543357517743857e-19]], [[25.873173217961227, 0.04687600889476993], [-6.508069018667986, -0.037805103609691186], [-6.107816065392592, 0.022841508886582065], [34.341799169478996, -0.011423237151802278], [5.217716924520825, -0.007023871592294446], [13.965008590510486, 0.04136646276717016], [-8.132736502629552, 0.03086630319516806], [1.8940990446838535, -0.02866437041747069], [4.8741909829474155, 0.02076885685669868], [-15.431718870509991, -0.02728279195522011], [-1.2739741535131106, -0.03661768141659472], [14.575867569572821, -0.0803833576809927], [18.98326144470603, -0.0035941930064064508], [-7.994018154767525, -0.07245488831099732], [14.589809155351702, 0.06522951603063047], [10.273174758954983, 0.01902047407009398], [6.499757623201157, 0.000179984547710621], [12.298442862496719, 0.00549847268100001], [17.101609857731777, -0.017628775257314766], [-17.405544804437742, -0.04083960472980075], [22.100011144595914, -0.04080024656180334], [8.97447114065309, 0.042174710868451315], [903.3404294329133, -0.17528731724864954], [-26.745508605656592, -0.006226355064448482], [-29.58450447145927, -0.06894100732762869], [4.604305478707174, -0.02926464134815977], [63.17283445819789, 0.015890659260586103], [-23.34094865833898, 0.012285629505443874], [-35.18487966674143, -0.018376364813349012], [16.11877869482441, -0.024445325226769184], [-34.164785071193336, -0.01520454593183088], [-9.988900380390382, -0.045678041444231515], [-8.010595755761202, -0.03863554392737347], [-35.856780126105626, -0.061434274357081015], [-14.057926129533612, 0.005520963598911858], [26.826380920191024, 0.04245011236548235], [-4.611962428998906, -0.02768872470306257], [152.00104190916312, -0.08326614801965457], [32.65832492847578, -0.019862966217716195], [-20.62406911232412, 0.05208683308325033], [-5.006017730962138, -0.03836224010315195], [-22.323813798775397, -0.036348470424012666], [4.45562759428061, -0.005858352093310517], [-22.953663880439787, -0.013198809296926257]], [[27.916286479540734, 2.7501297470662493e-22], [23.457497510909448, -8.844061696430345e-24], [14.477171775816549, 6.780309256878648e-22], [-16.218180309568012, 8.602182140380122e-23], [13.707821239132041, -1.2519189571520504e-22], [10.099060462597041, -1.742952081504591e-22], [-11.106247890555188, 2.608458841662473e-22], [-18.927451380137597, 3.564078993543841e-22], [24.064650370381365, -1.2907465853087305e-22], [42.131831768162385, -1.4689178388766937e-22], [-21.03366683200829, -1.955097132140215e-22], [2.996785265005411, -1.473315484300373e-22], [-35.327731952932865, -1.3224953183656011e-23], [16.652937344295978, -2.2684363342289255e-22], [3.6300606294131246, 3.374292984672404e-22], [18.86651767417976, 4.981006187783023e-23], [26.707911411310263, -2.4971447614838084e-22], [32.89610099826746, 2.6232127661265975e-23], [37.80638343390763, -4.4126095664993335e-23], [2.215959900393005, -1.796764464851e-22], [15.554617880447548, -2.1194217337386746e-22], [17.305777041709252, 3.558380995611325e-22], [1399.3689148686499, -1.2697690523850655e-22], [-7.5499838711267975, 8.926352360076371e-23], [-13.251451010649468, -3.073479376806271e-23], [-43.42167644854996, 2.828894594599459e-22], [54.69999102265002, 4.581719528704104e-22], [3.029411482573933, 2.9224224720650513e-22], [19.881427745506166, -2.5072928208315566e-22], [-4.803173228847362, -3.4791114874333853e-22], [26.291112443302712, -5.07590253386318e-22], [-19.089399808795623, -1.52917709531497e-22], [-22.36027134851992, 3.5588502809857814e-23], [31.705168631860662, 3.991736905932162e-22], [3.37644567707506, 3.159327447849033e-22], [50.78545309354519, 2.293770088703159e-22], [27.5433409115431, -4.3664507629914e-22], [176.1774880088248, -2.0260718566800153e-22], [21.51039123009453, 1.9912893302826878e-23], [-12.573033985439912, -4.621789792516878e-22], [-30.018472315631108, -9.511665056926088e-23], [24.62277461016897, -7.047164350557958e-23], [37.515577615546526, 2.56713616116341e-22], [-30.07599446271272, -3.264924988040315e-23]], [[26.132661302755736, 0.281253572138794], [-13.749783550926685, -0.22683139586090015], [-24.587745348159554, 0.13704724131593918], [-24.474164236520977, -0.06853923385366525], [-72.10288364705974, -0.04214415565806988], [21.542953220906277, 0.24819703773496998], [2.043414353374376, 0.18519833672867886], [-7.054774236580541, -0.17198729024354578], [-1.1873549335575, 0.12461143841872313], [20.373192766099134, -0.1636942657825276], [-14.598161437490974, -0.2197059805474193], [-36.71473660677821, -0.4823011340163191], [-14.538337542157755, -0.021563343165109022], [-42.07936523471764, -0.43472781075644085], [41.48499061608771, 0.39137437380062534], [3.394762579122856, 0.11412247253461925], [-30.901356398291348, 0.001079470756516529], [-1.3730633350796344, 0.032990614641099224], [-63.107268163632256, -0.10577407507727338], [-11.069955740849775, -0.24504011049716024], [1.0957406651359163, -0.24480216345124314], [-24.15247267159978, 0.25305117682141215], [1041.8559973485976, -1.0517341386310934], [8.396162960640071, -0.0373583196102988], [-5.311346505009186, -0.41364390367738124], [-10.43808058710185, -0.1755879600120087], [153.45655132394867, 0.09534381544120639], [72.86677794506582, 0.07371449877706548], [-10.548849882358303, -0.11025856034909881], [15.951416014598896, -0.1466741722258172], [68.36440437339064, -0.0912243166947878], [-18.545647544476086, -0.27406932957194974], [-56.37861555825593, -0.2318127454549529], [-41.66131367424553, -0.36860263944560934], [-31.3640835701045, 0.033124985655685876], [-12.903773780984679, 0.254698416426404], [-71.28477629738086, -0.1661340504343194], [183.22213724440584, -0.4996005112258566], [-21.177001681619736, -0.11917882335990149], [11.213188338515325, 0.3125239564407394], [2.577740322591524, -0.23017434964974454], [-13.900337478455073, -0.21809233035950953], [-9.299302244219252, -0.03515013645165878], [-20.33779292046477, -0.07919188399620147]], [[-6.900062641161449, 1.7819293394789172e-13], [3.1936034322303826, 3.031645854106194e-14], [18.87510270831501, -1.5560647218692882e-13], [-27.861251801800307, 3.536095944759261e-14], [-12.485263705727757, 3.219993817883912e-14], [0.20650828409600283, 2.9348472145913563e-15], [38.092497700015414, 3.04959973849227e-14], [-14.831467063418316, -1.7568294855569317e-14], [8.08385089011391, 6.279550125377258e-14], [14.634270412072842, -5.668526947809426e-15], [3.1878265205502685, -5.473541516899314e-14], [-2.043450533089162, -1.0715977503911765e-14], [5.681652492046784, -2.4268716154472784e-14], [22.23199503743399, 1.3147162751436665e-13], [10.431338276021545, -5.1928509458015087e-14], [1.7008460875426539, 3.282345896216075e-14], [-14.019577130165509, 4.574712691974629e-14], [0.2762118261748896, 4.0828303011450686e-14], [-1.0560632025977201, 2.0048990853133142e-14], [3.531732129554966, 6.482538744019793e-14], [9.689831546352822, -4.4268878244087736e-14], [-6.281693501810876, -1.2778068855144625e-13], [257.84188569383656, 1.1810649436120068e-13], [-16.844882479568174, 2.7046532946472454e-14], [23.684729207816613, -9.618249212037198e-15], [21.311091462331902, 5.824305706243064e-14], [19.724576451277443, 9.108371560075198e-14], [-7.859251274291485, -2.213575509943571e-14], [16.4826071529399, 5.678959443492324e-15], [18.55679252528999, 1.1515557783020332e-13], [17.018475577571625, 8.092590871747175e-13], [9.971802582414805, 3.9837922717312274e-15], [19.47114342688919, 3.655333719502271e-16], [-1.932922947297107, -6.958193094455977e-14], [-22.67204239724454, -8.738317994652895e-15], [10.539735534300261, 1.6258188670118378e-14], [-1.4794460933594398, -7.152013478522073e-14], [45.098389382436565, 1.0262435603808547e-14], [-26.28601201201423, -4.476103037816151e-14], [5.833078704019435, -1.9317807469274884e-14], [-24.71180114526789, -1.3412925333744393e-14], [-7.211437063119504, 1.8291540030030386e-14], [-20.233235610954278, 1.2006294084863927e-13], [1.5763127698189672, 3.2344405557600865e-14]], [[-11.792883266030435, 0.04687597645209365], [9.36191603561807, -0.037805103582641816], [20.182339385668506, 0.02284148398204649], [6.424799706933074, -0.0114232333375158], [-19.216879110251348, -0.007023864664914837], [18.232525705980855, 0.04136644837491285], [-12.329756075603452, 0.030866279122744367], [14.03647662632581, -0.028664387619327568], [1.9242191312804484, 0.020768837616840598], [-15.575020498708177, -0.027282764317093467], [4.941552845307563, -0.036617668409811344], [-0.7541831982203459, -0.08038333516677973], [-20.89392971829285, -0.0035941841126534563], [-2.0058027065926445, -0.07245485445965123], [-4.446976629083955, 0.06522947459680847], [11.854218780441624, 0.019020472638749772], [3.0773305149603254, 0.0001800041013561779], [2.2154757136852457, 0.005498488499754016], [-12.847017811676356, -0.017628778261222607], [10.54304474297145, -0.040839630802935276], [-1.761400898609183, -0.040800240350257005], [5.1444017281535235, 0.04217475571916925], [123.25308570648824, -0.17528736896353714], [-10.64930973979792, -0.0062263490499015], [13.285238136960363, -0.0689410013510788], [-0.2810830339687817, -0.029264616286201955], [53.49503187707869, 0.015890700782011914], [-3.9628276945267773, 0.01228559689243056], [13.878157552126153, -0.018376345094753027], [-0.7271554004594406, -0.02444537382844783], [17.54192473565724, -0.015204598960655406], [-0.4218923964907385, -0.045678017083390914], [2.630832498552448, -0.038635541850090244], [5.183534012613527, -0.06143422511755942], [10.89987033013819, 0.005520981174129393], [14.71958430113488, 0.04245008702259373], [0.2136809880083899, -0.02768875745950964], [21.6672566826642, -0.08326618072274589], [0.7151213603036174, -0.01986295820285206], [1.6655893841679217, 0.05208687032134613], [22.65536735025639, -0.03836222632614489], [26.976315112156488, -0.03634847674161018], [16.637171507497758, -0.0058583275687801445], [0.34031922878809057, -0.013198809906587148]], [[8.5614546679276, 0.03822635863095911], [-6.3783704291690295, -0.03085805429063946], [8.495931862990503, 0.03166302237946027], [14.220206511002543, -0.01020308087985693], [15.207259883620665, -0.006495034655742488], [-14.731390124854917, 0.03386845622456092], [-27.13216725700037, 0.02597404656155373], [9.481840941251285, -0.023885467493335075], [11.520560995579132, 0.017578136555412675], [13.677027712750052, -0.02022250285400801], [13.879052007283835, -0.03008785606356226], [-30.122767132916902, -0.06452103364787937], [-21.759446712549153, -0.012369039363720673], [10.232408500317145, -0.05800288183577959], [14.076178742334053, 0.052757403571768696], [0.1305771601386405, 0.01661791433191829], [19.82955405224453, 0.0008737093341192881], [2.4254242755947524, 0.0030929117449934756], [-4.446670543421872, -0.01495240924756051], [-7.90800010191994, -0.03326958196072376], [-10.178557664157498, -0.03321389512099078], [10.895787642951667, 0.037035163004923294], [338.25158511557095, -0.1462901631179132], [4.629590311951605, -0.001455340904193152], [-6.615051514040719, -0.05540497702003848], [-9.530838789031366, -0.023917653798392297], [25.593289020471744, 0.010655822191681659], [-23.778905135256178, 0.010574700195241916], [-16.882070139688906, -0.015273060817232604], [21.984715428310736, -0.005093619158735067], [14.351673630118524, -0.0031502578718763906], [-17.602325037241012, -0.043875366240303734], [20.64760990173805, -0.031370838460799244], [-23.103462616791777, -0.04925756394534102], [8.563022983602544, 0.002030843459381289], [-5.551169000419839, 0.04423769679422168], [4.391532066110852, -0.02290171577474156], [27.78585173614779, -0.06795065393363128], [-6.008050642098664, -0.016822936079691465], [-21.296477591395085, 0.03787420209202058], [0.7288010148645844, -0.033961390372749346], [-15.79907003078662, -0.026630327592063716], [2.45977424074199, -0.0054057858032626055], [28.69980652324608, -0.012986583558848925]], [[-46.73972004631957, 3.4769938829261164e-05], [-3.8800319662295846, 0.00014762927031303848], [-12.343197523555501, 0.0002342861445144361], [2.309202055892234, 6.294456364650336e-05], [-45.52836640682323, 6.7304541467002e-05], [5.622404636639969, -0.00022874200978681997], [11.455229839624266, 0.00012206705971630344], [12.01410982844185, 0.000179416744407361], [-27.200872935382368, -1.998132730694134e-05], [0.8820785089297503, 3.85022286816861e-05], [20.768102162282297, 0.0001385690478898529], [-18.43508368152875, -0.00036308204383109026], [-5.424102843036176, -5.662839698015952e-05], [-22.73188226096281, -0.0003381413362128886], [11.864872478555638, 5.5549045237192227e-05], [-27.377670928685674, -0.000147549058192925], [-0.197628576681176, -0.00010211360026399178], [-17.35807252152811, -2.0127435738085552e-05], [13.346540874920812, 0.00010867515237123954], [-41.26173450423651, 0.0002342352819504668], [28.617765014749722, -0.00019377659539117272], [-12.786828194297398, 0.00024935214802259797], [1143.8164967094751, 0.001000053658629231], [29.47508886057873, 1.770299634196608e-05], [39.92025936364859, 7.141770392510124e-05], [-20.033505586036622, -0.00011481317861860328], [30.935767780673384, -3.233963117584771e-05], [-9.587968270839133, -4.9819431106103864e-05], [-13.904537801146923, 7.667342525411505e-05], [-3.803597994022227, -0.00043640878285234095], [12.863929690379374, 3.3424540113072455e-05], [-27.115669478099825, -0.00031900586022322227], [-30.05843859192155, 0.00014266344584298011], [-7.265068129052776, 0.0002959527635841629], [-8.512184896284037, 0.00019021840649664448], [-43.1605869065943, 5.263387093361473e-05], [6.308382798413141, 5.8610450317078585e-05], [109.77165261767463, 0.0004195076144386087], [32.14520792688836, 9.808077052596379e-05], [14.381571088987656, 0.00033240135381763986], [-6.434373107234144, 0.00022376649848119003], [-26.36623533592587, -5.950072154855785e-05], [-16.097054805128444, 1.5817991330875496e-05], [-28.684674440126894, 0.00011411010453980391]], [[-24.587310783369396, 3.651846460297078e-17], [10.49410307776585, -9.548419669719776e-19], [-9.156050644818318, -1.8611106772776587e-17], [-9.923507550800158, 4.253424192284041e-18], [-48.84555539143225, -6.660905513981061e-18], [-7.583132517433505, -6.073627288724455e-18], [3.8754573435310338, 1.4357973956072383e-17], [-39.051844620440626, -5.9912465450882854e-18], [14.8346241636291, -8.263414030503385e-18], [-15.012341166241937, -1.2547263757077205e-17], [12.190969981286608, -1.0005923422332549e-17], [4.95184352686836, -9.710599812115993e-18], [3.557305228412031, 1.908808043823918e-18], [-12.587629136681697, -1.4326281014138356e-17], [-12.382767818312885, 2.0408217875413714e-17], [4.01884140940377, 3.862292926266139e-18], [32.184056361507885, -1.3460052151254782e-17], [16.661463824421105, 1.0498742252510045e-17], [-14.184201630804155, -1.9895474661004317e-18], [-11.243808624774948, -1.0763583655207854e-17], [5.09601941759156, 3.2507631809900778e-18], [15.987584285402491, 2.1974353549932673e-17], [94.51445441688594, -1.2817507932954327e-17], [-13.917387162391538, -3.295951653140062e-18], [11.033099469891964, -5.305124973698234e-19], [9.122960700295595, 1.606256247436727e-17], [-50.5477675935759, 2.6125152408347992e-17], [21.389722289684705, -1.810773410263826e-17], [-15.01273517695885, -1.431263192525638e-17], [14.405915568318026, -2.141284697048707e-17], [-1.8649689696208496, 1.3909366480351983e-17], [-0.7087170095573471, -1.0080458929635172e-17], [19.478759188057047, -2.39830608087259e-18], [39.145106340937765, 2.4519169866397005e-17], [-18.91893706941864, -3.1133267442717165e-17], [-12.060418120516806, 8.626325442805314e-18], [12.93217777776844, -1.8721384342321717e-17], [13.48442729811282, -1.355042035808233e-17], [-14.867924230446771, -6.96009271497209e-18], [-15.21904261270603, -1.7743082095356198e-17], [3.4574065392829096, 2.4947474664516783e-17], [-14.298476087222895, -1.2011104934628664e-18], [4.18908268484186, 1.471583282333054e-17], [-12.422179187511762, -2.3158547313215116e-18]], [[-49.43171416437758, 6.57225731800692e-06], [54.54042329111426, 5.853236510265193e-07], [-5.757812008299098, -1.040283475874685e-06], [7.014237870091043, -2.6009082502870565e-06], [12.808303484456864, 1.3019831466010449e-06], [58.11196139370889, 4.797065858628833e-06], [-26.008497085945386, 2.209394980100107e-06], [-24.4834161139119, 6.132932438997816e-07], [20.37350535845681, 4.4504997624736555e-06], [-19.550820184063674, -2.1743528291847173e-06], [-3.7514340563406785, -2.810244224737992e-06], [-2.960789454722832, -5.862897150870791e-07], [-40.36023370863419, -4.41028471979618e-07], [0.9600372939496619, 3.6885571058013765e-06], [35.67433172470827, 7.991439142560364e-06], [-34.91425992709265, 8.726576989857107e-07], [-12.739151122294748, -2.7291568983512025e-06], [2.690188655789813, -2.6504290836354727e-06], [-3.3838716842574694, -5.519839839983242e-07], [20.39842291417716, 1.9576846121971003e-06], [-33.55644810933348, 9.91857497892315e-07], [-18.472456413693138, -4.075020528225864e-06], [894.1843714406398, 6.719736186490328e-06], [5.5184100796528535, -2.389808580267735e-06], [-28.083912612016785, -4.60190769618788e-06], [-7.725688895450295, -3.0994622225465142e-06], [47.02721318749229, 5.0280248011874455e-06], [-84.60658848434208, -3.933957064344549e-06], [-10.346263156635265, 1.4751076752972642e-06], [-53.74747199140559, 3.8850154948289934e-06], [-57.658236439755164, 2.893363458402211e-06], [54.10839841025132, 5.623437648369961e-06], [11.538814279597187, 9.279611287869578e-07], [-60.63890284257151, -9.125209070813235e-06], [-10.957425479207396, -3.077557067831013e-07], [-34.40864236475925, 6.399156775840515e-06], [-16.00110772602406, -3.4921211363294873e-06], [119.92976511521478, 5.649487693390775e-07], [-57.42921676950815, -1.346742179560102e-06], [14.28026327428912, -3.827813342785673e-06], [-20.317493811852582, -3.195206297531419e-06], [0.11041295095801455, 2.459892885716676e-07], [-10.969322941973502, -2.5732139108918097e-06], [16.397917460843704, 4.857105919407362e-07]], [[32.67289592433616, 3.2024834759694423e-27], [48.93580766028076, 5.6127820221988376e-27], [43.6892980734403, 3.66726891790571e-27], [-17.993304881608154, -5.0353407054622765e-27], [-13.373390033201003, -5.472736178246294e-27], [-24.883819483665754, 7.940315091113242e-27], [-22.763167995452925, -1.0608881835370514e-26], [-37.91039048542985, -4.6330207236311184e-27], [27.73965370467127, -1.060891262554226e-27], [25.91454503165242, 5.109641684900287e-30], [-17.420807557725347, -1.1265079504568868e-26], [-11.457438115729069, -9.199930016735337e-28], [-46.004189232274726, -1.1166873965817885e-26], [7.590498446908809, 2.0762858099893314e-27], [11.232752102061712, 4.841711972051184e-27], [13.806587963288687, 3.45014108329238e-27], [46.211740891599604, 1.327191969872595e-26], [34.27885472819775, 6.81189326716821e-27], [13.015076270876293, 8.302580818398214e-27], [-26.556171856452785, -6.479244419778185e-27], [12.500782815902316, 5.048794090618489e-27], [33.72129546409254, 3.82887571298909e-27], [-0.9337698922192459, 4.246933914940175e-26], [-51.92820871206783, 2.854243822128161e-27], [-22.460505525565907, -3.2458830658786216e-27], [-3.0134007944403156, -4.954396287052984e-27], [12.078198824040648, -6.887470588587232e-28], [3.3546355305186326, 7.371660874235264e-27], [-13.59553487507076, 8.713944864384817e-28], [6.268840514216007, -3.803879708127447e-27], [5.3349888872521465, 9.931988996265832e-27], [-24.575594829642743, -8.911361925334416e-28], [-21.985060587212647, -5.24441834992141e-27], [40.19414599808122, -4.5659210353259335e-27], [9.142280757107075, 2.6482820651691347e-27], [22.162424095215133, 5.245488714772886e-27], [-20.339828549605535, 2.1065285894786765e-27], [87.22971790557794, 2.3406737181168968e-26], [-3.399020110263656, 2.4033668390127682e-27], [5.661905718687388, -3.3982892061292126e-28], [-11.033387218133916, -5.091221922639777e-27], [35.213913828869586, 7.81493122775502e-27], [10.804441641862432, 2.2204776968688884e-27], [-9.560264084377035, -6.88055402665127e-27]], [[-6.227543819952689, 0.04687597645266673], [8.652070323314486, -0.03780510358268445], [10.576131412197505, 0.022841483981633087], [-41.24866602036567, -0.011423233337501271], [4.880345371093849, -0.007023864664825314], [1.0480028945149944, 0.04136644837465859], [-9.262441422581514, 0.030866279123060537], [-5.220563481803335, -0.028664387619023582], [11.845964094740712, 0.02076883761720197], [-6.187601765017391, -0.02728276431756187], [-5.075661677023561, -0.036617668409945354], [-13.71405284627845, -0.0803833351671662], [8.915030196555533, -0.0035941841124622897], [12.958935923499732, -0.0724548544590715], [13.410742525761334, 0.06522947459612416], [4.594566406369881, 0.019020472638736338], [43.47439438686672, 0.00018000410163221403], [-1.3184630970965627, 0.0054984884999720925], [27.97804242273641, -0.0176287782613051], [-0.11689937115501906, -0.04083963080245874], [-4.475103387919228, -0.04080024035031197], [10.088310762620939, 0.04217475571845135], [440.37192496795547, -0.17528736896460856], [55.525969752834236, -0.006226349049864195], [-30.3393971197642, -0.06894100135082928], [-30.514388076424726, -0.02926461628584776], [82.00320695562071, 0.015890700782605856], [-8.332383253886377, 0.012285596891960755], [16.583402988872702, -0.018376345094468727], [48.36548388264111, -0.024445373827723146], [-40.60719072366623, -0.015204598961386501], [-6.949778080182518, -0.04567801708380824], [-26.130390197068373, -0.03863554185010178], [-7.17945803774667, -0.061434225118340756], [11.481135640634538, 0.005520981173703294], [12.216180110675301, 0.04245008702300001], [-2.548435938542555, -0.027688757459923545], [43.84183755703194, -0.08326618072333011], [-12.340385018472787, -0.019862958202913304], [14.065272982537442, 0.05208687032073718], [-14.260562791424402, -0.03836222632577246], [23.58021000281608, -0.03634847674174574], [-23.376436742797452, -0.005858327568537124], [-14.435945829701003, -0.013198809906619032]], [[-9.917116517393696, -1.8922951661871607e-06], [14.679018150161811, -4.3406343329042946e-07], [-9.030760370243108, -1.5465529295106308e-06], [-23.134997864609268, 2.738219170752662e-07], [-3.0777469854718946, -4.6917675916162936e-07], [-8.402114637439006, -1.368769026635038e-06], [15.498577881898834, 2.0858111902946755e-07], [-10.881602282226774, 4.669891882883371e-07], [-1.616052821644257, -1.3053947784035582e-06], [23.003531733030016, -5.374550088022085e-07], [-9.904673726215087, 1.6353230949986656e-07], [-28.36287092453451, -1.80134739433018e-06], [-18.416453725340254, -2.3568363700603184e-07], [1.8976752561641483, -5.396287420885783e-07], [-24.13604533449196, -2.136131994502488e-06], [-9.096187970189927, -8.737401269194876e-07], [18.895787967993332, -3.529856054215064e-07], [10.29679067966339, -2.521436340441851e-07], [-11.130042770218115, 2.726618897727736e-07], [-15.973381637326913, 6.22635106229001e-07], [29.96611802138401, -6.596918897498632e-07], [3.388101190470334, -8.242152159846203e-07], [99.63299976900758, -6.340169815525706e-06], [2.2586727247343954, -2.3028509103292035e-08], [5.49906684272055, 1.514981159115575e-06], [-32.30183078755549, -2.6925990718588244e-07], [18.786915115520898, 7.387338380130735e-07], [34.79679773674689, 6.059450700060351e-07], [-13.65511919851174, -1.1972995822450583e-07], [-4.975363451245181, 9.568432640349144e-07], [-49.39385118549087, 1.4981448752785842e-06], [-8.844854160773288, -1.8994960148875964e-06], [-16.381855343208024, -1.967492562648406e-08], [14.802894147900014, 2.43285955417244e-06], [-14.428535447338433, -1.368404777492292e-06], [26.04416289863982, -1.7858444866793659e-06], [-2.2559401977063254, -7.231375887739227e-07], [68.42057155151782, -2.602657835941387e-06], [3.7156858614106487, 3.106711107227044e-08], [-30.6625465830997, -8.090130248421205e-07], [7.24301439965663, 5.359841961387725e-07], [15.337224259155441, 2.8653261575359084e-07], [33.65360842133412, -2.492359550422004e-07], [-12.834497660018332, -1.7512626636025493e-07]], [[21.467662184417833, -4.279592707909988e-40], [10.0194050099163, -6.633665869506005e-39], [-7.9662676778019526, 1.6026171892158972e-39], [-23.08909596882629, -4.290290860465787e-39], [5.8600718114746115, -3.609111090581808e-39], [-9.303956752216692, 2.914123164560009e-39], [-28.993279059079708, -3.8437059955810885e-39], [-1.3932687960870496, -1.1990100131159643e-39], [3.9506730758991635, -1.8551868786088306e-39], [10.97205321694746, 4.759133407934329e-39], [9.000451749793225, -1.9737139612997572e-39], [6.501101233560615, 2.967837459350376e-39], [4.951734525296946, -3.394062047240405e-39], [3.836622277298544, 4.063890461076977e-40], [11.42291082431679, -2.374036828377081e-39], [-14.724473745520598, 2.7664533560222207e-39], [39.73335298858818, 1.5994035856958125e-40], [2.100130656942764, 5.928326001470214e-39], [11.299391928123828, 1.626803322949887e-41], [-23.15605425304025, -2.8074768991647137e-39], [-11.853026194886477, 7.917535753607214e-40], [-1.0746654350407814, 4.8296587300931625e-39], [-104.01616990001483, -7.449668588315849e-39], [3.6123323834961836, 5.508660346408733e-39], [-6.045607854290941, 2.0882215350174058e-39], [10.602381281878618, 2.830409732835401e-39], [5.051920812835673, -5.82192925601965e-41], [41.583009553033364, -1.562878038655725e-39], [28.339156878654574, 5.988163314016696e-39], [47.980889958075814, -4.937194374138778e-39], [34.32179769819079, 3.467809838658553e-39], [12.607982344434866, 2.7506127956703505e-39], [12.154413095476187, 4.27553590725068e-39], [-11.27517648744791, -5.1917479869871355e-39], [3.387033715992287, 3.771175272452801e-39], [-8.543448298626018, -7.601733499500404e-40], [-10.329299331786315, -1.8289638292980667e-39], [25.675760111883914, -3.4288829658369965e-39], [27.324835015781687, 2.1593767948896675e-39], [-2.455691187936511, -3.4713860239941707e-39], [16.601106335451394, -1.3011690612925772e-39], [-14.46834486321957, 2.2542964547710754e-39], [26.870656607501083, 5.3797078864579905e-39], [-7.613698944092282, -4.9684966032199116e-39]], [[6.697933406557019, 0.04687597654092496], [-11.508506482528766, -0.03780510358991228], [10.884002620838213, 0.022841484048712408], [-4.507430839536703, -0.01142323335581676], [16.23163553084836, -0.007023864699712865], [4.387814285708475, 0.04136644840807184], [7.797206514631911, 0.030866279183669833], [12.718529682243892, -0.028664387649313165], [3.7575556894026327, 0.02076883773214682], [15.070621706180031, -0.027282764248887852], [-10.481927195144872, -0.036617668463815936], [-11.950424074771192, -0.08038333523208777], [-14.581230745920248, -0.00359418412323375], [-14.597859349288306, -0.07245485454443865], [2.7350773983069536, 0.06522947470800444], [0.9997379290276648, 0.019020472629496785], [-9.67781808225402, 0.0001800040337873992], [-12.14361384526676, 0.005498488443380342], [-3.7159540497470256, -0.01762877826388933], [-4.4405289223703805, -0.04083963072061644], [9.938444204039017, -0.04080024036770974], [-4.5487878263277075, 0.0421747554762035], [311.99034885488146, -0.17528736889233393], [26.275782417253534, -0.006226349071125934], [-3.680578251897932, -0.06894100126978271], [-0.16973376720175945, -0.029264616372576383], [107.56843556560273, 0.015890700641395326], [6.585157092746558, 0.012285596826064647], [6.211817111057017, -0.018376345161243007], [26.02317212369909, -0.02444537394363877], [0.20202000558157687, -0.015204598883675109], [-13.561471624676257, -0.045678017154696667], [12.428125021986471, -0.03863554186228197], [-1.900357443830624, -0.06143422498483189], [5.576801452161413, 0.005520981237606784], [-6.293838448756203, 0.04245008691333867], [-13.375278255291159, -0.027688757572743812], [87.93091935499643, -0.08326618064889235], [-15.485465597563378, -0.019862958238310965], [-3.567520724070931, 0.0520868704177276], [-7.296083431182318, -0.038362226368686844], [-6.280961680093307, -0.03634847673472327], [0.5747193396515384, -0.00585832747564179], [-1.973910208043998, -0.013198809923113237]], [[-45.75663457008387, 3.1360731898934747e-22], [-17.541326291042243, -1.6433869772018563e-23], [-8.509376051022107, -4.690166477162649e-22], [-3.291675210004792, -2.413442741037085e-23], [10.36129842472314, -1.4667734267093474e-23], [-26.80360470918171, -3.778774617418327e-23], [24.244608828475258, 1.497078343203613e-22], [32.65908140365187, -1.9732952311910493e-22], [-23.571888421443735, -1.8852722210536617e-22], [-17.667180352281765, -3.8371950622073494e-22], [43.418901795539, 3.5657242099988885e-23], [28.040385331618207, -2.480933911188663e-22], [33.857588754193365, 1.0032182104315493e-22], [-27.17189538508642, -3.0802071139296994e-22], [-50.45307111290979, 4.045229830490328e-22], [-33.81369161052857, 3.639084486586345e-23], [-44.33748545051395, -9.518842501329447e-23], [-24.65783093662939, 3.5324589711663625e-22], [-33.220605352103014, 6.068574325814088e-23], [-1.0693394438399302, -2.772271969974531e-22], [-20.32935355690488, 4.972499971402444e-23], [-6.78427851866397, 4.33993828046559e-22], [-425.8685255958464, -7.550567318495243e-22], [12.969383477882653, 4.927288816927029e-24], [19.910994598322862, -1.2255115128959733e-22], [38.004557682378156, 1.71651258880586e-22], [-11.045649231336572, 2.918794688639925e-22], [21.649646449003146, 2.335189397929915e-22], [5.838985841523001, -1.497282240736318e-22], [16.774374911276137, -4.0653932983934526e-22], [-26.425766660022408, -3.877420552792481e-22], [34.82722207026397, -2.5799367906719657e-22], [35.35413496726773, -4.9432609324997784e-23], [-30.574524960188235, 4.70524046785381e-22], [32.63346346510362, 9.114309581556691e-23], [-24.10408344257306, 7.879896432147787e-23], [16.32447144048885, -3.1869332869922556e-23], [-87.09502986844628, -3.658977375544122e-22], [8.675991841062345, 1.0604467298120703e-23], [20.46109294487983, -9.293331400796711e-23], [21.49857542207548, -1.9767934793980377e-22], [-22.621369567527843, -8.960888693547537e-24], [-53.13260358695454, 1.7522966927655636e-22], [2.2154374229298557, 1.0375111296805447e-22]], [[42.33737185338434, 0.017719812805327494], [-19.655643685168027, -0.014381044611324088], [-20.147981585741988, -0.004484137213228556], [-2.704337046088604, -0.0034465893166574094], [18.718818705697792, -0.0018956884479169607], [-13.041747440417357, 0.015573337686673464], [-8.199371373556353, 0.010943366342576945], [11.272789219709669, -0.010370090461649217], [29.44815392214197, 0.007242713370892884], [16.576892062786378, -0.0032814269276711825], [-7.619947730571883, -0.013646514843682987], [10.818441237389905, -0.03150169354121017], [0.7300971307701155, 0.00400146957272562], [18.51982561737375, -0.02851959673024601], [-7.005807616162004, 0.025161809859982724], [-3.463463803920584, 0.006116627160002275], [-26.71449375915759, 0.00445054693346581], [3.9532958540082603, 0.0017174201306223134], [10.321728909362013, -0.006110860443160118], [-3.7344040488630976, -0.015465913152285769], [-20.4057346991428, -0.015535800422237206], [-10.04955592591027, 0.013988976363066265], [75.94565853521016, -0.06324601390826869], [-14.690855677500764, -0.008288574678425526], [8.953445336129837, -0.026961773217874893], [43.643236444771304, -0.011017109941790528], [43.644635702744004, 0.008300459712037711], [77.09349311235935, 0.004100834134068513], [17.72263528609044, -0.006682760392888565], [-8.800493212975526, -0.009866953673821403], [-23.141700259319506, -0.022104582740678853], [64.75176992464412, -0.007810825635120357], [5.645830496438913, -0.014792158525202846], [-14.474479933288984, -0.02414688945097662], [29.93622912842553, 8.315510953953859e-05], [2.0749325293954417, 0.008833831879497461], [36.7662333603844, -0.01018187875425439], [-57.039062679804914, -0.03156188452323064], [-8.049621019909209, -0.0068984006990130044], [4.362158831300113, 0.007035658461598244], [-17.994817416899213, -0.012457461997705673], [4.637012728434985, -0.004705589591487551], [10.100500614008805, -0.0015941468057420788], [15.88807393900074, -0.003075846907730939]], [[3.625466350497089, -0.04687597645209361], [-11.97579130966715, 0.0378051035826418], [-13.098276204971622, -0.022841483982046558], [0.22677578731846418, 0.011423233337515793], [-23.75826987783908, 0.0070238646649148275], [2.8962352056742193, -0.041366448374912886], [5.0129672361053, -0.030866279122744443], [-5.650000753864582, 0.028664387619327526], [2.8784496604789633, -0.020768837616840646], [15.077179036959368, 0.027282764317093398], [22.254089072881822, 0.03661766840981133], [14.900019188333971, 0.08038333516677967], [4.665171992363909, 0.0035941841126534875], [-12.326428386882618, 0.07245485445965116], [-34.28761588549038, -0.06522947459680836], [-17.5064010105755, -0.019020472638749772], [-14.620355604757766, -0.00018000410135611197], [2.1344117165200043, -0.0054984884997539875], [-18.291575199017096, 0.017628778261222618], [18.42704713917356, 0.040839630802935206], [8.563849143878311, 0.04080024035025703], [-39.29348323396427, -0.04217475571916915], [-616.6522653579492, 0.17528736896353697], [-6.866804115515285, 0.006226349049901528], [24.078392394685405, 0.06894100135107883], [5.947398786303755, 0.029264616286202003], [-62.23319840324889, -0.015890700782011834], [-10.346462698136422, -0.012285596892430618], [12.545007685971955, 0.018376345094752985], [-21.298402713584416, 0.024445373828447733], [19.858954980201847, 0.015204598960655475], [0.3418341393680374, 0.04567801708339085], [0.8476555703924632, 0.03863554185009025], [-6.402108486073762, 0.061434225117559534], [5.720663803146446, -0.0055209811741292695], [10.020184264956466, -0.042450087022593674], [6.2162479685153125, 0.02768875745950953], [-85.5928180332127, 0.0832661807227458], [-9.685630553263012, 0.019862958202852055], [33.229616911741914, -0.05208687032134622], [8.500877479013509, 0.03836222632614492], [-10.21901528022766, 0.03634847674161017], [27.52115143948708, 0.005858327568780193], [16.31374397488972, 0.013198809906587151]], [[-6.351014200652146, 0.0013403738004833339], [-15.987994714228998, 0.0006109125385372491], [17.99350357329629, 6.155313413088584e-05], [4.172211572969535, 4.432979557393605e-05], [3.919657695118697, 2.636857482775555e-05], [-60.175832952192145, 0.00010262288881870236], [-16.328819821711605, -0.0004448805547233644], [6.341418801148227, -0.00010101551168996336], [13.260269730156557, -2.7551409917089294e-05], [-9.291103026941073, 0.0002898383358013032], [-28.83891116762068, -0.0005681262807512706], [55.792034282804785, -0.0012591043170897018], [16.077267870323094, 0.00048602625921208455], [-25.95329403247509, -0.0015934923047054403], [-5.04474739146925, -0.0002661877142292657], [13.876253273950443, -0.00017924032205883], [-1.3744165903827843, -0.00042805998953802075], [-4.546063488418349, -0.00027931547794954174], [-12.372657671134263, -8.259463858374224e-05], [-0.3869336105995773, -0.0005951790488880656], [-27.69149516064503, 0.00031287472944347577], [8.351159665781456, 0.00025028547028027733], [-307.68580341386127, 0.0003717731228972975], [26.4827573340944, 0.00024772349860364095], [-3.6749886152837075, 0.000435892317951684], [38.979186305696366, -0.0007316501521008086], [-16.580377011464194, 0.0009636071453254433], [-28.701912529929974, 6.423824498523963e-05], [-34.4792419698032, -0.0001549819914054784], [11.23453451538979, 0.00040051791229961387], [-11.480637704860671, -0.0009090676069288363], [-12.466438693114885, -0.000741516968151639], [-3.292417944968673, -0.0004054638536578706], [-2.2360144368194805, -0.0007082755648662072], [9.432335671236968, -0.0007009598751867126], [-47.64504339924917, -0.000986253937686456], [-4.835853302874239, -0.00021693768878954664], [-80.2452497394397, -0.0004316757011459343], [-40.198453950728144, -1.906105476333647e-05], [-13.312508477833935, 0.0009755207598199289], [61.43017913803181, 0.00037887883826317694], [-8.801771942381151, -0.0003112802847395548], [-3.10863368554709, 4.156752450095822e-05], [-4.114527465640912, -0.00010735010732598911]], [[12.77615854328704, -0.04687597645209361], [32.161891177394104, 0.0378051035826418], [-30.162898893113468, -0.022841483982046558], [-0.5044935831208055, 0.011423233337515793], [20.469085389503245, 0.0070238646649148275], [2.911435409305684, -0.041366448374912886], [-6.437596670378781, -0.030866279122744443], [15.430154162494189, 0.028664387619327526], [6.999425377496456, -0.020768837616840646], [-15.883316085589655, 0.027282764317093398], [27.349743558249177, 0.03661766840981133], [26.96151707850674, 0.08038333516677967], [14.112478339465744, 0.0035941841126534875], [13.152690006160274, 0.07245485445965116], [-16.493908226225614, -0.06522947459680836], [-13.937373880932345, -0.019020472638749772], [-48.357061003198616, -0.00018000410135611197], [-1.8402903713015093, -0.0054984884997539875], [14.636107533428627, 0.017628778261222618], [-17.250902375916777, 0.040839630802935206], [-24.493954523926778, 0.04080024035025703], [26.44128241009236, -0.04217475571916915], [-692.5333563501405, 0.17528736896353697], [-6.474450533459327, 0.006226349049901528], [-2.7832890223371365, 0.06894100135107883], [-9.236669003486027, 0.029264616286202003], [-52.47651299946368, -0.015890700782011834], [20.079396995103075, -0.012285596892430618], [13.039784745504571, 0.018376345094752985], [-25.6774412131545, 0.024445373828447733], [-4.136758272618222, 0.015204598960655475], [5.544081942673971, 0.04567801708339085], [-18.640670648991705, 0.03863554185009025], [39.64818998475184, 0.061434225117559534], [-37.463692650498, -0.0055209811741292695], [-9.398827360079979, -0.042450087022593674], [-1.2631393689701127, 0.02768875745950953], [-17.576600091873342, 0.0832661807227458], [-24.457147711044122, 0.019862958202852055], [31.096305116507857, -0.05208687032134622], [-2.0973545074191495, 0.03836222632614492], [3.949833284452265, 0.03634847674161017], [-6.393776519353327, 0.005858327568780193], [-24.187172030401435, 0.013198809906587151]], [[26.906324957089986, -3.4891889591512345e-13], [-22.985118757210167, -1.2627132559034304e-14], [18.550644036465457, 3.1807239955382956e-13], [-11.600765768485642, -3.206680891729838e-14], [14.870276277810545, -7.502948269317371e-14], [-34.441790540179504, 1.5118500214952147e-13], [35.063341271623685, -2.2688547731417266e-13], [3.3554588015653843, -1.709839505488862e-13], [5.284605470790094, -2.1610682492077177e-13], [-26.631138018575488, 2.858431188450587e-13], [-22.54820180986109, 1.1683223338626075e-13], [2.078826156631118, 2.296980182225347e-13], [-10.327847192146164, -9.913401684162501e-14], [17.641024831958998, -3.5313222513659174e-13], [-2.613588244055559, 4.294619674596418e-13], [-9.684021120644328, -1.3608087432279054e-14], [-5.309042304269569, -1.9652229574322514e-13], [-5.678816922246274, -1.5831747160578326e-13], [34.900682584637, 3.498379383277658e-14], [-6.403939337393568, -2.8291121592252395e-13], [33.2136022500075, 5.958708800658633e-14], [30.560896275089235, 4.5417727346844433e-13], [-229.7260433131771, 5.673144751655296e-13], [-2.3746672565537104, -4.128736016149135e-14], [12.28909460060689, -1.3792569074172565e-13], [-11.429533813753281, -2.517983232678151e-13], [-11.15064407746605, -4.1787780348642686e-13], [-21.931606630461644, 3.215979934538704e-13], [19.3089623786796, -1.996719387968866e-13], [-3.3465415788658657, -4.5157281638477794e-13], [39.004293161594596, -4.919090470039124e-13], [44.327298811801555, 2.487037633406489e-13], [36.122912470924824, -8.048293579802211e-15], [-9.71950629136013, 4.96230046055354e-13], [-38.12538880017413, 2.6140768141060463e-13], [12.614348975949513, -2.426732931328307e-13], [22.821586655899115, 2.9656242893359686e-13], [-17.373017338900265, 3.450899029223685e-13], [2.3102241356586917, 6.642277967245994e-14], [-10.177121772472782, 3.7950493332806437e-13], [9.07246308632905, -2.1545001419850933e-13], [4.870754943906349, 6.95530922534746e-14], [-4.280189661283059, -2.5084494985138805e-13], [15.151373739497416, -2.2152886269872897e-15]], [[-8.2477671364381, -2.3264442578676254e-43], [-13.124490749056386, -6.546520835937143e-42], [-2.9136322355892554, -1.4325334591831341e-42], [-2.674370510883042, -2.856035117358443e-42], [-12.363363810020386, 2.0019420786273644e-42], [3.8335792381630918, 2.0254323833337645e-42], [25.534267252017823, -2.6630890642479113e-42], [8.920554594507626, -7.58659720753826e-43], [7.704591422396777, -1.2152487424851936e-42], [0.16402598017903286, -6.718526250398324e-42], [6.842046081158387, -1.0055015502562032e-42], [-2.207014416608234, 7.722198964568608e-43], [21.814916552674816, 9.224003147958266e-43], [5.270996031542326, -5.038097617964231e-44], [-2.5484789699535417, -1.2152888994382808e-42], [-20.052064800799585, 1.9413141572928818e-42], [-21.744822191429964, 1.5483596481320864e-43], [-19.257225838846914, 4.0749835648346895e-42], [3.8601319673264327, 4.864822022286192e-44], [-9.099849216764984, 2.4066304919164657e-42], [-1.7855546561314957, 8.890744716987615e-44], [19.57159063238773, 5.5913806291145524e-42], [-109.75889752963633, -4.726492881189517e-42], [-0.7529536296875715, 3.4658273999640784e-42], [9.3676019767512, -5.77303204068542e-43], [-15.240938885242349, 1.9702605672462338e-42], [1.7329122968818456, 3.689543682420869e-44], [25.95019872080035, 8.92509566554818e-43], [-33.699919040269144, -9.453261155941453e-42], [8.612833037626666, -3.652081951863797e-42], [17.472283985854876, 2.398627254086079e-42], [-1.6251430846624821, 9.579384703091373e-43], [9.944207666785653, 2.9480212320582465e-42], [5.046667162149303, 2.2410585882683247e-42], [18.09483491472702, 1.6625594649178246e-42], [8.214503200757754, -2.6414318936690786e-43], [11.275246911964285, -1.4134139544528947e-42], [-2.1765672975415127, -2.2321534811453562e-42], [17.789447802562627, 1.4094478950874486e-42], [3.670268873872493, -4.058300925708978e-43], [-15.631400959749323, -3.5705521718140802e-43], [-2.322519301038568, -1.571438146117553e-43], [-2.8721488569913567, 3.693309751800653e-42], [13.625268624201412, -3.318779015012722e-42]], [[-22.660095617345213, -6.719761533315474e-09], [7.928814160947781, -3.85926952997117e-10], [-20.38970597813415, -5.032960479139177e-09], [28.54398855640424, 2.073668046473188e-10], [-19.797824484530025, 1.3416424055308822e-09], [2.7578030012331043, -3.1772391556556984e-09], [-17.36635644006107, -3.739735857287683e-09], [-11.188406331436642, -5.297498554423337e-09], [-32.727943358357, -4.089785837276636e-09], [19.830644109498113, 8.258055448656342e-09], [-20.67759411381737, 1.6896351707881257e-09], [-3.522897583952874, 5.112069236871134e-09], [7.114834361349757, 2.4743196520272783e-09], [8.528059822220959, 7.141741890794597e-09], [23.805442804754787, -8.349846421063844e-09], [10.84552567703329, 5.756350579404415e-10], [29.24995449764958, 3.1729572391151255e-09], [15.49953078352603, 2.4800303563903423e-09], [-2.12928181017971, -1.1507689284731385e-09], [-1.5536396160237245, -5.629918789372073e-09], [-49.33028374996316, -5.956477704408729e-10], [-19.181816733629727, 9.116607848581921e-09], [-362.48162164874293, -1.3873438219709205e-08], [16.048643260819794, 8.925972161531262e-10], [37.52813362384676, -2.36755078271268e-09], [6.611766684940576, 4.077690776801515e-09], [-3.021813902563739, 6.880751897392481e-09], [-15.360546513910464, -8.121402432330205e-09], [28.21642531216966, 3.2821245405862326e-09], [28.180267418795175, -1.5516688194814364e-08], [0.883398283017106, -9.354118105167517e-09], [10.882199588829291, 5.492622242925451e-09], [4.845156834279913, -1.4395838233606427e-10], [21.19878361169372, 1.3791941336336554e-08], [45.992092176912315, -5.250148943663004e-09], [10.039155645872857, -7.256352270031739e-09], [-15.960581536090144, -7.750339440469147e-09], [-20.884329737040787, -7.299433711702833e-09], [29.947376663365006, 8.389735832842593e-10], [-22.73087219615954, 1.0745517188399034e-08], [9.915600706547615, -6.002892149959856e-09], [5.317473223416757, -1.7848635321981299e-09], [-16.445701816813234, 6.067236866041013e-09], [-27.091867881218263, -8.411892009705697e-10]], [[15.648552097509155, 1.4263563074359643e-17], [8.089751572922424, -4.659399990822548e-18], [10.03393540571822, -1.9137379017940204e-17], [-19.636370472582076, -5.608259842362295e-18], [45.54445629454237, 1.5773671394105904e-18], [-19.75305079094653, -1.6488195924212093e-17], [1.6810024080200294, 1.2795480192906107e-17], [8.0663870331162, -1.9139721190253317e-17], [-3.512873942034513, -1.9356957149965044e-17], [19.71666338711706, -2.850942496989576e-17], [3.9469681319259107, -6.699130577211154e-19], [4.056495541731929, -2.592650209602648e-17], [16.45758582844023, 1.5532660087095832e-17], [5.605527749195095, -3.0919473850196146e-17], [-18.21613386740638, 4.11856387709584e-17], [6.257855736046189, -6.043674907590921e-18], [3.916438905995166, -1.0565617225451727e-17], [45.31250673417257, 6.932777120301528e-18], [31.824034433558733, 9.401921277504184e-18], [-4.679397172704524, -2.7091868960881162e-17], [15.308983981337665, 7.371424241840303e-18], [11.041194989689727, 4.2161195662721613e-17], [-598.8519436033341, -8.755836643950694e-17], [-5.451362998426199, -1.1928433064142617e-18], [-2.3659705257937325, -2.0025824259728898e-17], [20.748387357095044, 1.2584244582881516e-17], [-68.12621229518264, 2.2171968071865616e-17], [20.93249813017149, -1.8340967424914664e-17], [-4.839144967840188, -1.1022916808735968e-17], [33.06990830106699, -3.94001895453272e-17], [-2.141926862915405, 5.183546864640927e-17], [-6.653207502844314, -2.6962538557676762e-17], [-14.089414285769726, 8.073454658873674e-18], [-22.569859724862997, 4.534811202051892e-17], [-8.831253938522536, -9.334976989763416e-18], [-14.743853809491187, 2.4185163670818284e-17], [-24.051088099458173, -1.3321731352184733e-17], [-65.11866748118985, -3.856404543883625e-17], [-20.075909928847036, 3.4033839437942414e-18], [-0.2055683213714945, -3.508705195644095e-17], [6.08610195431788, 7.663959847313777e-18], [21.955604414216577, -1.1588575347983134e-17], [23.10094408209569, 1.3760243248277771e-17], [2.9812705086172926, -3.1333274611901833e-18]], [[9.420933460521734, -0.07196788265049707], [13.656507391008612, 0.0595123671924316], [-22.510783285149564, -0.0676267039878335], [12.808326900174128, 0.020451710104541942], [25.79225054768054, 0.01335190140641848], [10.219589691391036, -0.06318931996990478], [-26.5131990498918, -0.050742050199908795], [3.780404799483528, 0.04528982953888651], [17.50498832369593, -0.03370047911521274], [19.915902306700314, 0.061206781138215004], [-6.724063212065701, 0.05662330645265508], [-16.916757972596567, 0.12108112049878303], [33.97795261282055, 0.07697719306962397], [1.1011439161445673, 0.10707724088853424], [-27.610031116839444, -0.10243739543098078], [2.8704059099302763, -0.032678730672096645], [13.351029964316693, 0.04180044421707368], [-0.9311984211351326, -0.009361935679436897], [-11.3015282093696, 0.028817841559895106], [-11.130611256110802, 0.0623475225734944], [-5.777844021766401, 0.06358553860379101], [-2.231047642499672, -0.07123858393932266], [-617.7313354466143, 0.27704195854580776], [6.895760034303065, -0.022704492846004436], [0.7812591784394787, 0.10562637461535308], [-21.263825612150654, 0.04506725692872226], [-45.22867477596678, -0.01659161227127511], [3.3145732527279965, -0.02067923738990473], [-6.368727689663058, 0.02898855146903877], [41.410807447561396, 0.1517759000596802], [-0.012803657253979722, -0.07574590570211537], [-2.7505390799264835, 0.09259182078156447], [20.24098225155641, 0.05836250636338889], [-14.396195073898056, 0.09056782171613662], [-7.412411969663929, -0.05495823587815484], [17.95415008757391, -0.0858683456594164], [-1.2133446018647291, 0.043310025421468834], [-92.765310274332, 0.1265844775813771], [41.42660143988063, 0.03273162169030744], [17.092174415428776, -0.11009121863831133], [9.111983806042893, 0.06592775955155425], [9.128735013883933, 0.07843202458723386], [3.1804878641174623, 0.01110920211394822], [23.82407285387597, 0.025799188545451192]], [[-51.592372819642165, 0.03998097526100382], [-27.88400698981995, -0.03370809788761925], [-22.10015143281448, -0.025283190530180768], [54.28211859415571, -0.008077226449081515], [37.575846965588234, -0.004470218229831323], [-39.62437449057096, 0.03595808599921758], [30.68810573242512, 0.02572493490163654], [30.505493392499776, -0.023953743206363398], [-31.190030240009204, 0.016834358885255515], [-36.204635141041784, -0.06794914351482224], [34.22116435828076, -0.031152243291929213], [11.384808335318771, -0.07181835710336804], [79.83609700974196, 0.04656896702967152], [-49.41432336631065, -0.06467500184178036], [-42.83282462609048, 0.058659165630320004], [-33.98904747428555, 0.014394623645306963], [-69.58505368028418, -0.013767104388636237], [-59.84949910572657, 0.015961752311017888], [-43.355392526352226, -0.014119471527099232], [15.033582991296402, -0.03550153772203268], [-10.190592719042568, -0.03633775489186228], [-1.623635420413812, 0.02999610080762919], [-517.0060798232109, -0.14686171749273252], [-14.222243056754449, -0.0076242394652298925], [5.961353732406986, -0.06293774213818798], [8.278821211470598, -0.024932090042431167], [-54.33884664442277, 0.018267007166017736], [-31.952657164496465, 0.009495335881892802], [-22.54903554755293, -0.015362954517386517], [-28.42340129480266, -0.1304621492048117], [-40.721145097785225, -0.013850374043399196], [30.4006319485336, -0.006684013172600617], [11.472611629141598, -0.03389268940442801], [-31.372223063774566, -0.0552322524982651], [17.19129722575502, 0.036748043711221895], [-25.868246966357738, 0.013255020031665088], [3.082144747761267, -0.02340373928171917], [-133.25301883683753, -0.07267435228658287], [17.12587739630109, -0.016052539270050334], [21.038532423182275, 0.12975752815769925], [33.65010935748897, -0.02723665489489107], [-53.41507576631064, -0.09050639701283553], [-1.1512383411151748, -0.003765716831109171], [-1.2807086561880905, -0.006043990366400548]], [[26.85568612910771, -0.046875976452093605], [-14.020864492632791, 0.0378051035826418], [-4.1960643617668145, -0.022841483982046554], [9.503853797134598, 0.011423233337515794], [-2.4280656615569405, 0.0070238646649148275], [-10.680630284153978, -0.04136644837491288], [5.6725208659819915, -0.030866279122744443], [-15.371005958268944, 0.028664387619327526], [-16.541592219312317, -0.02076883761684064], [-15.909651603789055, 0.027282764317093408], [6.463656167496608, 0.03661766840981133], [17.490657208054284, 0.0803833351667797], [-27.63817110842065, 0.003594184112653484], [-23.391961487715268, 0.07245485445965118], [-25.55888358460966, -0.06522947459680839], [-35.07020964072514, -0.019020472638749772], [-23.12665488922342, -0.00018000410135610677], [2.650037562119463, -0.005498488499753989], [-23.37063659652879, 0.017628778261222618], [-16.924023425754363, 0.04083963080293522], [-34.82391228909668, 0.04080024035025702], [-7.483424707649567, -0.04217475571916916], [-954.6562708422942, 0.17528736896353697], [23.431085789088304, 0.00622634904990153], [1.994481055881332, 0.06894100135107883], [30.21116482034838, 0.029264616286201996], [-54.890284604968635, -0.01589070078201184], [2.6439916175680964, -0.012285596892430615], [-16.257446882430877, 0.01837634509475299], [-44.16613772768754, 0.024445373828447744], [-36.99821483734901, 0.015204598960655447], [-4.607628346848796, 0.045678017083390865], [29.264121103820873, 0.03863554185009025], [17.27813176215229, 0.06143422511755952], [-6.900903691629348, -0.005520981174129276], [-1.1330825430911708, -0.04245008702259368], [-35.538029028485035, 0.027688757459509536], [-64.37563671401115, 0.0832661807227458], [-46.587855003139886, 0.019862958202852055], [0.7392696840475426, -0.05208687032134621], [13.393295096642097, 0.03836222632614493], [-39.24377972023094, 0.03634847674161017], [35.64329275732373, 0.005858327568780189], [3.965823529567295, 0.01319880990658715]], [[46.78305608836567, -1.497722097472031e-07], [31.344374952810597, -8.701097719345544e-08], [-11.077937967435462, -7.467536807311544e-08], [-1.1763151372537974, -1.3104224062921423e-07], [-31.634950093397016, -1.4045343968990452e-07], [52.45228255091211, -1.1611157591233087e-07], [15.801162975037455, 2.2235755847490826e-07], [-28.343842120059243, 1.862151111767813e-07], [0.28640973701904293, -1.0558391881236367e-07], [-9.415154358665955, 1.8957497732931503e-07], [6.960333225054835, -1.3923740238800604e-07], [-16.002128228210942, 2.1930114472496976e-07], [35.04396213589582, 2.257099164103224e-07], [-26.53238220824108, -1.3301994290065327e-07], [-29.571143491634437, -1.5517151689823876e-07], [12.710464351311678, 2.0700417397284168e-07], [25.42020001536413, -1.6231713183404784e-07], [-36.97292471671773, -1.146810741323224e-07], [-9.132823631655533, -1.4832834266298918e-07], [12.248408174455497, -1.5860300652363386e-07], [-35.20415675372983, 9.967201436836636e-10], [-6.591038341364806, 1.4194323728579215e-07], [-802.7588811839785, -1.026878275438742e-06], [-47.03727504459649, -1.5828210763718139e-07], [-3.363552137429888, 1.9101122948750396e-07], [2.12621825694966, -9.80210995797015e-08], [-106.8583672232845, -2.3577903052536428e-07], [0.7879851290818219, 1.4870634192267693e-07], [-3.8796601553576804, -8.860370374821416e-08], [-55.95417659229587, 1.2551387544978709e-07], [16.67355557291452, 7.03280871558598e-07], [-24.83022625209315, 2.1959816558474742e-07], [-36.000338902714375, -2.152663997686676e-08], [-20.331353944341316, 1.3077415853448975e-07], [16.86057620550392, 1.6221599225733613e-07], [10.256696215941473, -1.355397961419719e-07], [-0.3634175170958508, -3.8746021487291053e-07], [-122.3517540146966, -2.650004568714805e-07], [24.1098223400398, -1.574323820265123e-07], [65.86370243431001, 1.9574806269662684e-07], [-8.293552331119988, 2.1721173937123562e-07], [19.719466052080715, -1.508508417170623e-07], [-27.28552732160608, -1.2202008330430563e-07], [43.703871050382176, -2.767186006109415e-08]], [[27.734170962435243, -1.1583148558342297e-13], [42.06603921764385, 3.632687415310761e-15], [31.234387131918044, 4.426851312735846e-14], [-22.68915635995115, -1.0554541743795869e-14], [-9.973094263573884, -1.927191565813528e-15], [51.385427706850756, -2.6970913046707877e-14], [-20.7388681080447, 3.834067243908208e-14], [-26.97470092423282, 3.6581373833390784e-14], [16.80624998561074, -2.7351119303859677e-14], [26.91569784278485, -4.5937624650247767e-14], [-46.87300909441748, 4.914518936466716e-15], [-13.751455565283772, -2.5719903781878415e-14], [-36.606145489429885, 2.780306266191873e-14], [54.30753556341833, -6.817147643497823e-14], [39.44183183434159, -3.542364126324369e-14], [50.92298488414473, -1.2499883320901951e-14], [20.504547235060766, 1.2724859355742313e-14], [20.941878304915956, 8.436401454935426e-15], [40.7743495188308, -1.3792793011156051e-14], [-8.489574280226366, -2.0147481325896767e-14], [43.477536595524874, 1.2151881289499581e-14], [40.96587800181736, 3.250475668696483e-14], [22.604497559539094, -1.4963107812625496e-13], [13.214848937865959, -4.425043319703624e-15], [-16.488192980341136, 2.2768385723880117e-14], [-44.51382139996762, 1.643356705408537e-14], [-11.523309984230616, 2.9782403806574395e-14], [18.270603567438226, -6.453074896422661e-14], [10.048253797795661, 5.1864473652020027e-14], [43.98735849984239, -2.587637394783054e-14], [19.99140530090962, 4.816472065122644e-14], [-38.13957195243581, -4.3995471425732696e-14], [-43.826460471317496, 1.3447927527060605e-14], [32.60403249771156, -3.604031810529031e-14], [-9.427991731422736, -3.9682544458325034e-14], [45.523299069540556, 2.3247548473657232e-14], [32.731294978190164, -1.80350466009062e-14], [72.13228453432063, -6.319063609933974e-14], [8.038238803525932, 8.964000899381583e-15], [-17.710256818423694, -5.566678823322021e-14], [-56.56434769388553, 4.262966312616197e-14], [58.567406158987794, -2.0054865770264167e-14], [10.679737547011309, 9.247559589237093e-15], [-20.660833796361704, -1.4189598460432763e-14]], [[8.480632401612691, 0.22237234326270336], [3.552239392615118, -0.1818124557436881], [-0.9199033834099255, 0.12604518418341867], [11.047988117218583, -0.056386659872958336], [9.241863535125598, -0.035091549151782614], [-9.524629471810178, 0.19801527132250768], [17.16030245411983, 0.14980304041524856], [-4.515709158169144, -0.1379681306328236], [12.289977515832842, 0.10060356810131402], [17.376936466075495, -0.12766296146497055], [-23.866883272576903, -0.17481581421786146], [-11.59524583045188, -0.3808713909219512], [-4.118945985320605, -0.02878423744619138], [-13.921900408090176, -0.3423749882140076], [13.858152195490366, 0.3099377624629074], [-17.44147289818563, 0.09332765676622255], [15.60830135148886, 0.007008692362580157], [-1.0055652206994568, 0.02438813229225368], [-18.2022573269435, -0.08531549793657836], [-8.3765662496301, -0.1935262907493822], [-12.784954236525808, -0.19452895150326346], [18.510933328725113, 0.2201493344501728], [-1339.3602144715487, -0.8454858282686999], [-23.228923051328294, -0.024854324216190632], [-19.033968622925183, -0.3270571036594724], [0.4892098567220048, -0.1390737406886143], [-88.86366547709329, 0.07031300591953607], [2.4770879471566687, 0.05974239413483721], [21.359145702564668, -0.08825084429124869], [-2.753743018752682, -0.09926847591870938], [-14.00789471298372, -0.058861457382126836], [35.83769924651288, -0.21357799068944572], [13.401773722353344, -0.18402998545293392], [39.49565266771658, -0.2913352598313034], [36.49097583592778, 0.03590914305555533], [9.147868283510372, 0.22636018108148512], [23.838116568255693, -0.1327719302305923], [-121.24865690711171, -0.39786426922618034], [23.662666839507075, -0.09584041604827137], [-1.5578762734735114, 0.24202311544417135], [-19.947728588361265, -0.20060757304184024], [3.3539766606510955, -0.16977636796921938], [-8.912479232210087, -0.029268662255840655], [27.162844630374078, -0.06695201940251536]], [[12.237505125411314, -2.762188563688803e-18], [10.771113305905953, -5.349572488051859e-19], [1.1930955070263418, 2.353339779972823e-18], [7.742161590462888, -3.9685933470075223e-19], [-13.570766192741434, 4.1567672079324025e-20], [2.781887181457422, -1.4328920860453778e-18], [-11.071786347805643, 3.685091690159008e-18], [-14.664319618879412, -4.597946530036082e-19], [-4.750136211592215, -1.698717059691065e-18], [-29.72075733307342, -2.4666604263785235e-18], [-3.8137440421591364, -1.5341067912358892e-18], [2.799887700050754, -2.2579378015498143e-18], [25.886669767727728, 6.246041239610469e-19], [23.387618863684864, -2.7316911840128125e-18], [15.017517936657105, 3.667428613131694e-18], [12.353750653611701, -4.366645163322227e-19], [-10.463990935680274, -2.9201857111704198e-18], [17.30492464720377, 7.190216168191575e-19], [-15.694413853997471, 7.484774584535399e-19], [-12.613621916109125, -2.081406696042261e-18], [24.225175394792647, -2.057825459009076e-19], [3.133336890049641, 3.769205878815524e-18], [-1365.856864645858, -7.359106528003627e-18], [6.44957504507887, -1.0126874151263954e-19], [28.00370626608413, -1.1938908469592353e-18], [8.7630964076347, 1.2598893381111505e-18], [-70.84563990228558, 2.186236775045102e-18], [9.676847414208593, -1.7707152065379388e-18], [-33.73444464383958, -1.098600463723106e-18], [-10.115815511373683, -3.525933553233983e-18], [7.630012360485172, -3.0855671767762997e-18], [0.6868054102811871, -2.348091800264756e-18], [-8.304899096584212, 6.324016844678215e-19], [-8.145069463650156, 4.0660308603568194e-18], [-24.398684233714516, 2.5428566293202556e-18], [23.480795904847845, 2.1088472897682443e-18], [-9.394475936644284, -1.3483346862068658e-18], [-110.94115518104077, -3.3483230730638422e-18], [1.3405717716347616, -1.2334754057029896e-19], [-11.363908390026232, -3.087648242244114e-18], [6.226320001234661, 1.8103283730666376e-18], [-10.317536453332911, -9.632487641592762e-19], [34.72579361660496, 1.3377345977355819e-18], [-2.5750234311709015, -1.282374766079904e-19]], [[-22.922719156846266, 0.008844527934940491], [-1.51162882688931, -0.00714163927054381], [-15.889677588152859, -0.010711690950574889], [19.03726489466161, -0.0005705605088743204], [9.60075924392808, -1.450947274265872e-06], [11.10486208465417, 0.006523802925566669], [24.13055048128575, 0.004218687218769449], [-3.531123575073096, -0.0038719499122439344], [9.883135230931774, 