[[[[-1.9380965497168445, -1.6163863867530914e-14], [-7.568947954741321, 1.1776504139660048e-14], [-8.760969831287584, 2.6461885437950678e-15], [-18.87930174472985, 8.642220153373252e-15], [31.48125428918311, 7.185970603099763e-15], [-27.255328805873397, -1.6793871403520946e-14], [-17.347745262735682, -1.7668973492141655e-14], [25.496019855797954, -1.2155640136615864e-14], [-20.41451882836685, 1.0618095664216653e-15], [18.286656263738877, 6.3001231069486266e-15], [-9.840352949558001, -9.115706295271405e-14], [5.821894603163367, 1.7634353940774794e-15], [-5.1830361325007885, -1.4041722793770695e-14], [2.6581948769786092, 6.7652308471207235e-15], [13.46195815541424, 8.696495429356402e-15], [19.82427239639298, -2.0805579291415356e-14], [34.53028757007191, 4.7659392835901695e-15], [8.209862316181157, -3.6705014060038954e-15], [30.538621122893957, 1.0771431090912672e-14], [23.69173321613204, 1.940419863993835e-14], [-22.99033373196061, 2.3225452661311315e-14], [1.1405700051743817, -7.196070228178277e-15], [5653.60384243158, 4.823916684116699e-14], [-12.595301935089688, -1.4743695652183847e-15], [9.437177788155322, -2.3468890838373575e-14], [4.0081203383157815, 6.3395517946567105e-15], [690.8030770205987, 2.938292236095023e-14], [34.097630216169236, 3.825275517324379e-16], [42.59250964030434, 6.426239676176168e-15], [-77.62685232216567, 9.676214810747889e-14], [70.27756320260625, 1.9806776174996378e-14], [-50.910376454326645, 1.6886371326208892e-14], [-21.02908437867767, 1.0043708519030045e-14], [27.686479873123986, 5.915291381683289e-15], [18.118481484823104, -4.477337074347475e-15], [-1.3302585787481243, 4.552005314494671e-15], [-30.619842898924865, 6.5943813457816896e-15], [950.0216819351608, 1.5359393245138437e-14], [-16.800420262013194, -1.181565524345149e-14], [-0.23623932755631646, 1.217459833442201e-16], [-0.16107647210926165, -1.6179604303230703e-14], [14.317154955431603, -2.292124675155586e-14], [-31.392940936980818, 6.313425894690436e-14], [-1.2218638812315243, 7.19956497572588e-15]], [[-9.47472765984578, 2.4100998860925207e-24], [-17.837462171801086, -4.196122713180611e-24], [-22.15294131647176, -2.720104967508229e-25], [-5.496606461651233, -9.08834916618498e-25], [6.562614758224527, 1.7322667032238242e-25], [-23.169921332536425, 2.9617895419956917e-25], [16.81382762571298, -4.303536304209079e-24], [-21.315607996000708, -3.2917080817553867e-25], [-6.926984851634898, -1.7050953809878884e-24], [-8.025438711721028, -1.3841199127836211e-24], [-17.994453147383464, -4.175475793578175e-24], [-9.462459239032345, -2.7825289270049843e-24], [-10.451671763708639, 2.9289511581292115e-24], [-0.6828015122270285, -2.723874663178916e-25], [0.9868133118195951, 5.927195032189316e-25], [-25.61204806809332, 5.992260691231576e-24], [63.48078162666342, 3.9317942162638226e-24], [30.07613437862239, 9.383292927525488e-27], [33.62512197165964, 2.7361537699745885e-24], [-10.803812510020016, -5.077436954064007e-24], [14.737637997270646, -2.348472676907736e-24], [11.836993611804703, 3.167956664039585e-24], [2343.8966794811167, 4.019650557303637e-24], [35.220060802400674, -1.80186857008485e-25], [-11.218953716641048, 2.6053573249579225e-24], [-36.381951261698866, -5.967304913075863e-24], [279.64801725260793, 6.949223777721954e-24], [46.89364712418269, 1.1138532457642804e-24], [34.36444336829199, -1.579297184881339e-24], [-28.978165526176085, -5.903522295415604e-24], [51.86065806881142, -7.359792075250874e-24], [0.8148040171595388, 1.0551872695600013e-23], [21.91699018427683, -3.934398271277133e-24], [-41.27888405618517, -1.716838098301353e-24], [13.071716275264034, -3.9481280549192564e-24], [-3.1973885624454796, 3.2359158838861623e-24], [-30.18224403375621, 2.7121879566623584e-24], [442.2835659082223, 3.7044722172345585e-25], [38.814844908877944, -1.292580513445701e-24], [-2.560992905132306, 1.3230190804126722e-26], [3.047198930017742, 1.2255097201573243e-24], [-28.505734443463858, -1.4897354010182873e-24], [-12.221866261513531, -5.45245961782967e-24], [-0.9925273829776071, 3.3188935008862304e-25]], [[18.674964676015673, 1.5416171158300876e-24], [31.44374157914925, -3.981079005307314e-24], [17.398973979260667, -5.96842742572555e-25], [-11.22932914088335, -2.0812627547168295e-25], [-24.55223509101367, -4.286945185413727e-25], [41.76196849973659, 7.833310052303569e-25], [-27.392399446390368, -3.9183462930790225e-24], [14.407469409932105, -1.1173885876306444e-24], [8.111855288265446, -2.3048681555342274e-24], [-1.2009437224194546, -1.987309078647566e-24], [-1.0538442440038809, -5.248785668054037e-24], [-39.824186432147656, -2.153595601468169e-24], [-46.34584112775087, 2.525537825654941e-24], [19.980360914197107, -1.3044846945232786e-24], [32.14613493713716, -7.830107307135122e-28], [12.696492866318568, 5.848391842686867e-24], [-25.31740818570116, 4.6811501052449514e-24], [41.06967370038666, -4.57136055156241e-25], [6.1607924473024465, 3.51322299635789e-24], [6.76113757946186, -4.429638731815206e-24], [-21.513857012649158, -3.182110692111936e-24], [-30.332694977010732, -4.721764901047788e-25], [4088.20395166474, 5.772776746282109e-25], [-27.330114428430576, 7.703605202896168e-25], [-15.241266076494986, 3.462311413380463e-24], [-7.261460516305667, -7.134542704284578e-24], [519.3962454196857, 6.183552769306663e-24], [-10.41578722905627, 1.7939549719454192e-24], [15.615179226446427, -3.3823562834249887e-25], [21.212949454011078, -7.012347064794468e-24], [48.23981906797148, -7.476012282456788e-24], [-3.6667267520237066, 3.325015079283318e-24], [4.025059067317005, -1.842967338062375e-24], [-45.67645463852077, -1.8199465279355234e-26], [-11.664012619217454, -2.09985249386875e-25], [-22.22242497469904, -2.1917497628503084e-24], [-5.753063412951524, -3.6419643113813226e-25], [653.1240685915257, -9.88242675427127e-25], [4.857914704969707, -5.862684913217124e-25], [-42.71572693425977, 1.0007192339694361e-24], [-9.308496155660043, 2.1985978612313833e-24], [1.6697735927520354, -2.318359663765302e-24], [-22.122608328852067, -7.478311596414754e-24], [-39.71690392478721, -4.169488893989675e-25]], [[-28.752778023572823, -9.808732749843749e-11], [-14.976509671177663, 1.3915978740441444e-10], [-19.423464215588947, 1.844557646985049e-11], [3.5089081739863546, -3.873490562211757e-11], [20.307662136820188, -2.1561996571884942e-11], [-19.48403180713741, -7.9684267734516e-11], [-12.496587764084774, -1.2835729483903472e-10], [-12.831756781220289, -8.821783903968893e-11], [-35.354858612364254, -1.177096418926152e-10], [12.258653593253664, -1.1362501262922736e-10], [-4.817903985680776, -2.1807751795611601e-10], [20.822602854713992, 3.081182456808174e-11], [9.09879814913832, 8.7037809694975e-11], [-9.525911191048355, 4.9316575577449084e-11], [-12.870947874314796, 5.374611648920156e-11], [-18.23148417592912, -2.505965637196162e-10], [3.9372637285584675, -2.2235644702885058e-10], [40.180501936527776, -6.00847134022597e-11], [-33.61264021751526, -1.621648453921149e-10], [24.855931988258693, -2.616955796113191e-10], [-32.37323421973688, -1.282919928181257e-10], [-34.11335026758904, 2.8846757696787197e-11], [6248.990593983349, -2.3676624645867937e-10], [-3.848122488400279, -1.3644459205891998e-11], [64.47859260325679, 1.8578598228901575e-10], [-1.2004296460705113, 2.6525918440453714e-10], [832.4441127944256, 1.721272240123959e-10], [-18.44510996547316, 1.1663017989138187e-10], [-34.60307284873516, -4.099292518402212e-12], [3.091664846282211, -2.9333257710254376e-10], [45.11221227289371, -4.3784438147724757e-10], [51.380832659893166, -1.2508461255354577e-10], [-17.320718297559836, 2.9784902892221106e-11], [23.42751534183833, -1.5855464408486815e-11], [20.80561269644792, -4.8923200827667366e-11], [18.668532894019446, 5.4806007736712856e-11], [23.41112987655881, -3.484133491740486e-11], [1204.690085044586, -1.382495191940592e-10], [0.9290469432842313, 8.111349427714236e-12], [12.673307125542243, -6.025671302104542e-12], [6.266850442854761, 1.633529349117766e-10], [29.43417994667952, 1.0577592585249706e-10], [-4.549155059601901, -2.0211240686533964e-10], [6.519260637458503, -7.17150711496953e-11]], [[16.99660977905789, 9.163053166964487e-23], [16.349962207631307, -1.5057821181671875e-22], [-12.803722784356829, -4.1278950380036875e-23], [37.04329558901603, 2.700230902497672e-23], [-24.256029111221036, -3.224426570187695e-23], [11.361306807657614, 6.012013246192135e-23], [9.950219066847163, -1.3244632758956567e-22], [-6.771931415377743, -5.970034924844821e-23], [13.388945033202415, -1.1571884343304156e-22], [-22.48354057574472, -1.1276961370866577e-22], [-76.5840429551287, -2.1488953505582477e-22], [34.38554732607314, -6.571350129746293e-23], [-5.411714219240159, 7.616512882253843e-23], [21.655051806623717, -2.0725638827762735e-23], [-38.35875306211422, -1.2979556092216211e-23], [38.16322851002792, 2.1537283102970167e-22], [-43.05119201734162, 2.2511133838063286e-22], [7.45690686158622, -4.3856627187231674e-23], [40.65898654012926, 1.7913361638062875e-22], [33.85842207160912, -1.827801299262616e-22], [24.122186607993754, -1.3506517167607276e-22], [48.989604659165316, -2.4503884312117703e-23], [6148.744284029291, -1.8981554315899867e-22], [-9.224378553223248, 1.0844319127773092e-23], [66.39431422195972, 1.5227221943177668e-22], [-40.27742810186488, -2.8892453799133086e-22], [767.1560193455814, 1.8839156050177986e-22], [60.9739492785499, 8.700403306525272e-23], [-10.983371177110527, -2.05389151685474e-24], [-21.76379071061738, -2.8258953701034476e-22], [22.224822203159956, -2.935696769077327e-22], [-19.22993773649625, -7.913829105188369e-23], [15.782342442407765, 1.9180319640246242e-23], [59.30833729060087, -1.489808698972088e-24], [-8.806540894999364, -8.254585575200636e-23], [-7.7351085547338485, -9.90869266555482e-23], [32.599981963844996, -5.370922702055786e-23], [1140.6774766756685, -1.205047968168472e-22], [10.368006398128244, -1.0281343696269968e-23], [-30.928463477091356, 2.4412129392547283e-23], [17.9238124068914, 1.1449163528659138e-22], [-24.796301158179837, -1.0480575804787052e-22], [11.164125679499465, 2.814759193925812e-22], [-0.3144196081994253, 4.027299306674977e-23]], [[18.228099086233414, 3.9492986400997965e-05], [3.4579805194345066, 0.00015005604458960707], [14.262505966161202, 9.285224389409733e-05], [-28.589928376460513, 0.0001410675740737472], [-6.2341119411084795, 3.6851141208374695e-05], [-14.443892314314631, -8.127001121572029e-05], [26.33605803515538, 1.3925453683218729e-05], [22.292760050395227, 0.0001854020344598138], [-7.232912572683087, -0.00026540300290817505], [16.63354833773159, -0.0001885719791398166], [-14.079851764587126, -8.066132963995153e-05], [-15.029547504677929, -0.00015692444349129161], [-8.250897367418755, 0.00019974616806027023], [23.051334192160322, -3.871532858002515e-05], [19.326542208588076, 0.00010089787452978044], [-10.810898160802743, -0.00027617022436859424], [16.234308140846775, -0.00012148340094548081], [28.698674429094197, 6.89739813244669e-05], [59.29558677282316, 2.591129473161735e-05], [-27.6175428354391, 0.00022242492911515386], [32.93940644808242, -0.0001383408462515972], [0.3492425981866701, 5.7727167405575016e-05], [3838.840741005709, 0.00017679199107175828], [-27.306167130852984, -6.010813674675184e-06], [25.76889525280963, -0.00018115592546392645], [32.026563424812686, -0.00013291116637094565], [535.1785064971955, 0.00029091735809281524], [-30.92983536110238, 0.00023765306430351384], [-31.208785724321693, -0.00012969973064577242], [-14.745497888154121, 0.00024680494547972955], [-20.288718505552048, -4.321698866035944e-05], [-19.014398693197023, -4.531953103263597e-05], [36.67219984711997, -0.00020508931883956167], [-10.643386004361764, -0.00010088225123192066], [9.342512743077723, 0.00014447308113251937], [79.51498774974452, 1.5333536016929173e-05], [23.606503396198093, 8.488177756618962e-05], [661.7769211901243, 0.0002629619815558429], [23.59127959375936, -0.00020852452295079223], [-26.55811539177095, -0.00012084864264602822], [-21.59949622055829, -7.621820167906435e-05], [-62.250874163398194, 3.194351186871033e-05], [17.56899262174204, -0.00013626283646154372], [9.743968348220104, 1.31641865438157e-05]], [[-16.4574678737087, 3.406638081978574e-17], [12.107961691999417, 4.583083637126912e-17], [-11.829331504345687, -6.849170674070396e-18], [7.708185414947842, 1.154589768951166e-18], [61.18266329695348, -6.71576220737784e-19], [16.169356931894157, 1.6251115766747358e-17], [-7.751854035840385, 4.9917686935144496e-17], [25.085629173690478, 8.998177752962131e-18], [24.638017835189714, -3.21898290299217e-17], [9.867545118468492, 5.313848520908227e-17], [92.33649742277562, 4.794297367304952e-17], [23.90267809489352, 1.3462101267189086e-17], [60.60771471646294, -3.0838456944300685e-17], [9.089885645593624, -2.755393454166518e-19], [8.388655015105767, 3.560021934955079e-18], [-24.706524161743253, 2.4776213214847753e-17], [14.089876031832727, 5.881546960265853e-17], [-57.82362994697498, -5.256667954113252e-18], [33.778817626847804, 7.897761133842538e-17], [-7.462315461243868, -5.906394133847334e-17], [41.958295460414426, -2.5026757838893445e-17], [-20.012241808603317, -7.18159591343454e-19], [3999.567847358861, 1.968364368145005e-18], [-14.993425486053322, -1.2713298012034282e-17], [-52.7896988085393, 1.3979474266836915e-17], [18.91639251917758, 6.849667503524588e-17], [376.87776360158506, 6.846079609534646e-17], [-19.80443349762493, -1.8180385198343204e-17], [27.405171065354093, 6.049118292028435e-18], [47.266626821374075, -6.734838485539353e-17], [-31.000796197955616, 5.100912725417261e-17], [44.21516028876717, 2.525535196755584e-17], [-10.26969441910722, 1.7240378785544276e-17], [5.537399892538673, -1.1524840083057292e-18], [-14.112579276767724, 2.0749943820791526e-18], [-38.84221722699436, -5.142082363112229e-18], [-5.440080471197855, 8.865837978375909e-21], [561.6069001273511, -1.2721742482876554e-17], [3.5816361041256126, -7.809321910918095e-18], [-18.081699375327716, -9.38373586957603e-19], [-23.643410135229164, 2.4346244583137134e-17], [-11.144596298016232, 2.9227632502311526e-17], [-8.551116537979723, -3.832699992474528e-17], [9.830562448721407, 3.1344161885090946e-19]], [[18.01253342058763, 6.108656888382657e-23], [-18.05650452271213, -1.0038499613938026e-22], [-12.4804463843957, -2.751850303417701e-23], [28.72443992474658, 1.800161307325465e-23], [-19.1753076135256, -2.149631115636611e-23], [-4.359532229382474, 4.00804287529831e-23], [11.066684908835674, -8.829815992238212e-23], [-21.566334455803066, -3.980116380743965e-23], [5.310200645677795, -7.714561961301287e-23], [-29.88672064472959, -7.51804661010423e-23], [-39.10967690612479, -1.4326175966764947e-22], [-18.557186283814243, -4.380865987786534e-23], [5.564978970701101, 5.0776031088227804e-23], [26.266956142759238, -1.3817252425255057e-23], [52.092270912700016, -8.652998777489303e-24], [17.31186762518146, 1.4358257919696503e-22], [-7.729480932668052, 1.5007311281078024e-22], [21.563253170055148, -2.9237908416118247e-23], [16.4171807209015, 1.1942192806020697e-22], [13.473019799610174, -1.21852854861822e-22], [-29.9302601320625, -9.004311054328156e-23], [-42.88408557209975, -1.63361179907916e-23], [5028.81316156177, -1.2654308273820106e-22], [9.384819827415816, 7.229771379097133e-24], [-16.13970950274496, 1.0151438961014636e-22], [19.71603238527249, -1.9261521402563693e-22], [823.8734463319282, 1.255957168195642e-22], [12.490177050614877, 5.800264619256745e-23], [-9.361804351315708, -1.3691895600023399e-24], [3.365494542489808, -1.8839204601305117e-22], [40.57925953006658, -1.9571455466940284e-22], [-18.14655910560675, -5.2759424040337927e-23], [26.34216618677266, 1.2787196252015866e-23], [-31.600450002842454, -9.930110780235917e-25], [5.6430592613145345, -5.503059531260377e-23], [-15.75297624755191, -6.605874937212553e-23], [-0.7452400886018339, -3.5805884039233324e-23], [1098.0261065956438, -8.033625093193832e-23], [-42.728926050414316, -6.853773580160198e-24], [-8.431730455475845, 1.627488655238489e-23], [13.210510457083485, 7.632691294638028e-23], [50.03001187330068, -6.987107717149723e-23], [43.190353888001816, 1.87651047719494e-22], [55.231641600266194, 2.6848699659235353e-23]], [[28.164490286203623, 3.854146251163847e-21], [-3.315040859106343, -1.762090666813717e-21], [-9.473043481127613, -7.356473402861901e-22], [15.808082922546905, 1.9532895076747233e-22], [-22.718371072308877, -3.72961213022689e-23], [-21.39270483167522, 3.4246724435198036e-21], [-4.108586966440741, -5.058523874729383e-21], [-7.851125386077523, -7.039716392707325e-22], [1.5885783238319242, -2.723633710288196e-21], [3.133570361551266, 2.2689595460514467e-21], [-31.322164425579363, 5.214768282466942e-21], [7.314232511492841, -3.1755459934531943e-21], [-27.797645167619105, -3.4614088880224684e-21], [-10.348179088924162, 1.8949952435727282e-21], [-1.5211518727382225, 4.9313475107740985e-22], [-3.6699773870492995, 7.37576276277173e-21], [2.366678538983436, 5.941708268473172e-21], [-20.988839760666178, -5.446728284335541e-22], [-16.412477757802428, 4.401745915571036e-21], [13.603510718317924, 6.4553512621533286e-21], [27.23380101106114, -3.2573565610922746e-21], [13.330718444935798, -2.9124170684370424e-23], [2157.045191606714, 5.408382006148204e-22], [22.98003108102625, -1.4631456355679885e-21], [-30.654283494075433, 3.667688724594795e-21], [18.619685901440597, 7.481555319919461e-21], [322.0285977092645, 7.72734994846084e-21], [27.569331928582642, -1.9567202108824515e-21], [5.624714825745706, 6.910807197064573e-22], [0.979728541945331, -7.686814830979076e-21], [-8.692268692345952, -9.437701080955824e-21], [-27.287358264940178, -4.890412768680575e-21], [3.1955503491768846, 1.9610917829283865e-21], [5.90080224133116, 5.115943631736036e-22], [22.261408795025552, 2.67430754653584e-22], [-16.92468071704178, -6.13772914048793e-22], [-4.2622141800040545, 4.09674061536255e-23], [359.47470728597625, -1.2957464088323283e-21], [3.5829983403502546, 9.522992389936145e-22], [-7.841484761499224, -4.310864712495005e-22], [7.629600303790125, 2.1549371945613195e-21], [0.05608000469945762, -2.1833407044352096e-21], [5.305733239791427, 4.466222319604042e-21], [7.817856184941438, 5.34449393231864e-23]], [[8.199652555733385, -4.257659923906631e-12], [-16.357488599289322, 2.070191100170479e-11], [-28.50468955425118, 8.4946687377086e-12], [11.03152747719955, -5.513455449744473e-12], [8.118675324084618, -7.134903465859466e-12], [22.56006804110879, -7.35972035415919e-12], [-6.695898177734179, 1.4258723377996323e-11], [7.5725126608084325, -8.863862669626381e-12], [19.062261449868036, -1.0332376263733864e-11], [-3.9473533678111377, 1.2154355378251742e-11], [53.15330827114923, -1.7895179474334108e-11], [-4.965957305196473, 6.888851824144585e-12], [24.83439206049592, 3.1854800841872244e-12], [3.3756706890439534, -4.713189190099934e-12], [1.266008560056248, 9.386907190154293e-12], [2.6964494854350094, 3.7149939179606585e-11], [39.95891509356565, -6.169016818634336e-11], [-5.324025596097484, 7.5550907145456e-12], [-32.58554939589367, -5.4385065274640766e-11], [-5.910338152442598, 1.5637635516232633e-11], [-10.129179763715305, -1.2712645747771922e-11], [18.819263658093174, 5.335876068559628e-12], [1756.8328025889823, -3.2512128673813934e-11], [18.78037472381924, -1.1491048863791257e-12], [-17.578365648146104, -5.540426334116177e-12], [-26.681829171486296, -5.1851103063005744e-11], [239.42383844623825, 7.221817193819212e-12], [-4.747902534482213, -1.9790591613912554e-11], [-14.764701911709807, 5.428727400706003e-13], [-54.62503637554812, 1.917454272653537e-13], [-14.824106731801285, 1.9082354744071507e-11], [-8.169979032242903, -6.136573698057412e-12], [-12.922560621978407, -1.6218645360566222e-14], [-6.384678372110102, 4.110609596402211e-12], [4.500683762352947, 5.352853091053415e-12], [11.299972798135625, 4.073815250969642e-13], [-22.672662619521404, -5.681854322991378e-12], [312.2869272017369, -1.5725433330365203e-11], [25.85291477496336, -1.5506788045504182e-12], [14.870479710243387, 2.629255613405927e-12], [16.27537000753749, 2.1305356893413924e-11], [5.869040265512555, 1.218365550615318e-11], [-8.40114848861589, 1.469202635119063e-11], [-5.634883673347034, 2.8897087594684302e-12]], [[-9.494774324374125, -1.7378600302772066e-09], [-15.083457797080168, 2.0527815553853967e-09], [0.7795007585211363, 1.6287205668627823e-10], [-3.4110507145185935, -5.2310026194697585e-12], [-10.826066629446563, 5.6831820050242165e-11], [9.122615902335145, -7.192564766692856e-10], [33.35118345581895, -2.1867314331121962e-09], [7.2984607949748534, -5.803702639512537e-10], [7.1531525602640444, 6.4080353662142396e-09], [-12.085372670946052, -1.4100707618768132e-09], [-2.920644725031687, -2.3690942042321247e-09], [-40.37395384053845, 9.36470877399606e-10], [14.61559494516411, 1.2362691364512688e-09], [-2.3705989934989513, -3.2019722693599155e-12], [-1.1771760151233004, 2.785383553538612e-10], [20.28054942233325, -2.9949060790374396e-09], [20.200730122913136, -2.774743654439213e-09], [21.512811315693387, -1.8820840480903475e-10], [-35.737136637768465, -2.1619506054109298e-09], [24.27484816413955, 2.549942412681947e-09], [-37.814127374278236, -1.2776542986305017e-09], [39.722718162894004, -1.0354675862266897e-10], [1410.607762671249, -2.4235648147630027e-10], [53.825682449781795, -7.081260234610572e-10], [47.046476785446565, 1.7238995968000312e-09], [-0.7491470490863065, -3.2811199882622814e-09], [139.1867040730871, 3.0935464973583152e-09], [4.77895134317212, 7.327965634816683e-10], [17.922312252229286, 2.5926281242441524e-10], [19.39570972959058, 3.089201689068857e-09], [-44.549413438294465, 3.7176550572114092e-09], [5.235961775521499, -2.100332895980149e-09], [-90.74257601622658, 7.601716290797304e-10], [42.641642971162014, 1.4687274528675675e-10], [-23.29927051036484, 2.9915945777534334e-12], [-11.036203315452843, 2.5338059491130625e-10], [-59.16994682497259, -7.670839155834903e-11], [285.0280580545914, -7.208172814043503e-10], [-19.63981793707932, 5.582212520212218e-10], [-7.235724416433906, 3.8433125833729747e-10], [16.73056612355248, 9.64040051273464e-10], [33.350362735246286, 8.960837554351073e-10], [26.62668339227605, 9.298134609629113e-09], [23.72387868465646, 3.5569111160452213e-09]], [[4.316782317978111, 4.957707298685131e-08], [13.580666413663366, -6.612916009931299e-08], [-12.173437790228354, -8.782480350290227e-09], [16.368338063053294, 6.293375076171452e-09], [36.40028221542037, 2.914054302434344e-09], [-16.208116984065626, 2.676481801703551e-08], [-8.39806240637983, 6.432993018124692e-08], [47.6671930245116, 2.5100774518245695e-08], [2.5701509710879575, 1.5174045866472636e-07], [18.44157570044978, 5.243450880915524e-08], [11.169043176635007, 8.105884321459737e-08], [-3.0674249325052965, -2.4247028773320045e-08], [-26.38444440967904, 3.7411931652015614e-08], [-3.5923482622156815, 7.8388592949493e-09], [7.204667564225905, -1.444662681916613e-08], [-22.497142854407475, 9.051834168854853e-08], [-36.421034672414045, 3.071264788303375e-07], [11.241046819641507, 1.0352658478679825e-08], [4.980770781448803, 7.420714050470405e-08], [-15.223225554492652, -7.560334476884264e-08], [-9.605192079281506, 4.379839423912384e-08], [-22.007254995734847, -2.63876024985328e-09], [1588.9055008389262, 4.255244843878753e-08], [-38.289339699523616, 1.7129837762339932e-08], [31.623053548308945, -2.1467832054394413e-07], [-16.300929178998015, -1.1500298339764121e-07], [140.11607030306848, -8.784499233227755e-08], [-87.38325262173556, -2.9697271176564086e-08], [52.09767882153314, -4.945856229499444e-09], [30.195178374523877, 1.1017699117676789e-07], [-57.590216432104874, -1.1605619459604449e-07], [34.630702233811824, 6.096127595792235e-08], [-35.239151199377666, -1.9584458941315694e-08], [4.67760910986021, -6.402688372867981e-10], [27.78656114059254, 5.417545436720963e-09], [-9.655748285892598, -1.28693505110522e-08], [-9.336132027854255, 5.417560081681288e-09], [286.83860072078363, 3.615031460161425e-08], [-3.4222067043528264, -1.185444598234478e-08], [34.31961765747759, -7.907842473751364e-09], [12.413593661819068, -3.980430129562024e-08], [-3.6323699998800754, -3.465637498570477e-08], [15.751339201519182, 6.629461017988095e-08], [40.589863097908285, -1.6048139860396057e-08]], [[10.24409940957661, -2.418616021194237e-27], [20.47404228170697, 5.863479113563369e-28], [-48.4765990154026, -3.0365371606622886e-27], [-11.951661059233043, -3.236394169229754e-27], [-35.758156161169346, 2.8031010001804375e-27], [16.80295376127943, 3.739624906058933e-27], [5.5128884154432685, -1.9645622394741267e-27], [22.728539044745506, 3.870788853828185e-27], [24.802467991858624, 2.3204735833363395e-27], [19.71948303540398, -3.508611345181582e-27], [52.66518053691266, 5.422681650338271e-27], [8.721891401487634, -2.104758790962614e-27], [-2.5059363486047017, 1.6293793386682908e-27], [13.274664587463482, -1.765399786074267e-27], [9.085795402871591, 3.340097590898066e-27], [-37.68418847174834, -4.317951152362052e-28], [1.4224964653531658, 4.075023909889674e-27], [-54.10181470419883, -2.352260338210576e-27], [-3.564019211985395, 3.871645399668755e-27], [26.702030011177982, 9.342381766150137e-28], [62.139474852432315, -3.833884897403473e-27], [-40.98695295456898, -3.542081381214951e-27], [1304.6593768002704, 1.6815743223907663e-26], [0.5948019947491937, -1.569592025065895e-27], [-8.999539208787326, 3.294836372327208e-27], [-4.590439034465937, -4.4459674518654554e-27], [249.78152206787183, 2.0727044608735134e-27], [8.681803772189044, 2.31507420812584e-27], [0.08357403781563864, 2.0327774727447277e-27], [130.52857428202915, -4.011615441635989e-27], [-6.042728844137514, 1.816969526258203e-27], [74.00049926237585, -1.693618462467718e-27], [18.8039726769161, 1.2793489534876604e-27], [-85.46407962553272, -1.4633018909265741e-27], [12.564479510969877, -1.7892698879762185e-27], [38.55212950358699, 2.963560834584987e-27], [46.193619243995954, -2.949417078027203e-27], [222.76045912748842, 5.720242703831178e-27], [7.9483957851913685, -1.3494182820976022e-27], [-49.98070969380461, -2.447958800180135e-27], [3.467184034198511, 3.815555180595061e-27], [-20.188423651932855, 4.612683585083609e-27], [-24.67297433351756, -2.7926118374270406e-27], [-43.848940552466324, -2.7492852630420634e-27]], [[-11.732485528202652, -6.35752668002605e-07], [-17.539522761471506, 1.0811943940903667e-06], [27.964681877493305, -7.769868963588955e-07], [0.9399319376155539, -4.909570569232067e-07], [-1.7802737875643397, -3.404782208920077e-07], [-16.97170231977038, -7.600779092183818e-07], [21.761141190052033, 1.7823131155367367e-06], [-55.06821710147465, 8.595393458686147e-07], [-12.965688821061242, 9.933455091370318e-07], [-25.58776157190713, 1.318817361497066e-06], [-17.408249909764173, -1.9379373551437006e-06], [19.114778005228942, 1.4516670701268343e-07], [-46.874063435936115, -3.8555891704800216e-07], [11.262386751896729, -4.480387929969878e-07], [-5.25496137183826, 6.180100446031265e-07], [-52.14220851295453, -1.5008490171299212e-06], [-41.89276491858927, -1.4024603710733357e-06], [-24.273248835169916, -4.6521877662880273e-07], [26.33441796937669, -1.7860647749879441e-06], [41.693706149596096, 1.1887467947271738e-06], [-43.5860828799651, 7.002795081064987e-07], [4.557436979731012, 4.0621220874139814e-07], [1874.0690225304872, -2.9229689901391516e-06], [8.725211362970185, -1.1995949928027466e-08], [-10.850260177233311, 1.54372349307381e-06], [16.07443239682815, -2.5107900162116362e-06], [255.408193424903, 1.0980375531202207e-06], [-3.8449056854738393, 1.3875730336525863e-06], [-15.226540309145552, -1.2894649686724452e-07], [1.28153306056388, -2.3760876349566045e-06], [119.9836607055801, 2.2071337279229234e-06], [12.398708310490102, -8.512479646154886e-07], [15.303735975786045, 1.1030215221963211e-07], [2.6934104046255745, -2.2988689702713006e-07], [0.838586434630735, -5.799452089804136e-07], [25.288094218598292, -8.202407078271509e-07], [22.69675042631083, -3.948321596615016e-07], [280.4815647887286, -1.5034213496788994e-06], [6.830939079938538, -6.502321144502742e-08], [-6.809962819396889, 1.4046465431966626e-07], [-8.37638825221153, -1.9287268459468182e-06], [50.66714750347336, -1.7948262697744662e-06], [6.968505112678428, -1.5980743287319068e-06], [-3.238890783276385, -1.1002767920226066e-06]], [[12.477650860753586, -1.0357093782453303e-11], [21.17046136231974, -3.4586612985720985e-12], [-38.54424122263644, -4.328701774297401e-12], [-20.771396462841377, -7.663742547513813e-13], [34.52006462117059, 5.046845144832518e-12], [25.68090387851587, -5.063578265547143e-12], [9.042612871383767, 2.820083551626448e-12], [-10.842788057012129, -4.978817079436509e-12], [-4.0444394565933885, -7.89997165995596e-12], [25.3495922778144, 8.894591839708591e-12], [52.36096512559731, -1.587012925889109e-11], [17.826549593483914, -4.7108002506174926e-12], [8.548380947922878, 5.629520079444536e-12], [-19.14969345506283, -9.196450447588394e-13], [-21.50408710939218, -1.635402312195735e-12], [58.27478241632327, -1.8721627211072685e-11], [48.267160712018146, 4.5989206142904674e-11], [4.913060739345463, -1.9151382658967995e-12], [21.266390761571316, 4.278784445615572e-11], [-19.97971587042832, 7.005381894071577e-12], [19.77583879782801, -6.703079365254208e-12], [-27.855872426195422, -5.340892737733717e-13], [2645.3506930682124, -5.720054506500783e-12], [-20.458787438743293, 3.0178214502077966e-12], [-24.224876174359242, 4.0854817046443356e-11], [26.569133449147834, 2.1442590122134085e-11], [322.8660695482942, 1.8394086716614282e-11], [16.763428092013946, 1.2213703652240578e-11], [-26.444782747099005, 1.1178285514507753e-12], [5.774323004690541, -5.2886141721948427e-11], [-46.05111975802373, 2.3916124106952222e-11], [0.15681344079308218, -1.2590431781520298e-11], [-43.0557227785052, 4.281426440958825e-12], [-1.517936753067665, -2.2326900512465255e-12], [13.920506362759886, 9.569820117107766e-13], [-33.649930870403836, 9.976108663176701e-12], [34.80315877569741, 6.294478813540201e-13], [457.22344237090465, -6.165402573721424e-12], [18.928564085193845, 2.3167998037655207e-12], [7.610729144791383, -1.9358706225161453e-12], [-21.22171365448834, -7.373319037379887e-12], [-6.27886454589506, 3.757551733905347e-12], [-7.074537991931956, 1.2222737543550905e-11], [-1.1196567893479232, 9.255477797113352e-12]], [[15.041788171275208, -3.747014655472909e-07], [11.319496661316748, 5.044675859311898e-07], [0.6829366569469312, -2.0693834911984856e-08], [7.972842198224422, -9.062616654333593e-08], [-22.776058168315373, -5.3836137015034835e-08], [8.486178955286357, -2.460330374266551e-07], [-28.245021682497562, 2.442448180533233e-07], [-24.70530627513076, -6.636089092639741e-07], [-23.81276413636682, 3.125198874270497e-07], [-22.345023758225317, 4.205525256694504e-07], [1.6521291596601482, -7.068938497307891e-07], [3.071331170183475, 1.6581229939186598e-07], [15.62796986242507, 4.4183744538796453e-07], [-10.202942407078824, -9.362763510799683e-08], [11.455067799899785, 1.5455427976110784e-07], [26.200549465158698, -7.199608026096477e-07], [21.552405798414455, -9.937322725998523e-07], [-10.630231734876386, -1.1315090103049664e-07], [12.205406545777558, -6.482705514429469e-07], [-4.904323834390357, -1.1459035956676154e-06], [-7.699153339307437, -8.658665328853275e-07], [38.81710003983018, 5.898837392528058e-08], [1715.6207008597105, -5.71035363522721e-07], [30.732514854414056, -1.0527726833971309e-07], [1.0868489336895024, -1.2454947174680357e-06], [31.429312197722037, -8.906988704497957e-07], [263.06816382060083, 6.608879013221367e-07], [1.475277912437583, 1.3562357191403556e-07], [41.827627548947525, 1.614210157107629e-08], [22.9914686732227, 2.0205528341410805e-06], [-9.098209722977117, 9.56772537067263e-07], [-16.327522359400117, -4.6803098306053e-07], [-22.899581470944344, 1.3321337013164314e-07], [-8.364621589341104, -2.021509132337194e-08], [0.07047971020925652, -3.6058302247367874e-08], [23.56589659501646, -7.018317859933743e-08], [7.903249104380662, -7.633876670295111e-08], [346.0215768151002, -3.8232747829039357e-07], [22.57993511551553, 7.600596967831724e-08], [-2.462782257423451, -4.10738636085801e-08], [0.23815036139562204, -1.7962970363387892e-07], [6.934878535381501, 1.0552203889784172e-06], [15.393135031273571, -5.766046135128285e-07], [-9.971676068622909, -8.547469044030605e-08]], [[-25.353400093945172, -0.0322281860290984], [-6.617838655807505, 0.08122632341209772], [-5.8884498025541765, 0.03614124946415735], [6.973637642351932, -0.01595780344758835], [-2.573285176627209, 0.03237803559291828], [-21.184849877504785, -0.02212243066075191], [5.6925193187488015, -0.029867432717266808], [26.440132938713084, 0.04418748002332572], [20.823013995883986, 0.05124343473403068], [-19.326638501071017, -0.03140401180578155], [-25.224377383663896, -0.05180780009182798], [4.594876506743193, 0.0959648080744482], [16.830512451672632, 0.0020574398856130598], [-32.49059285938199, 0.022968609590224738], [22.921473452232824, 0.01223052619321003], [-39.37174004871093, -0.031261564564486005], [-4.142610961945832, 0.05556345773296359], [8.353975168511063, 0.02705412425105006], [14.58962769683022, -0.0672951389898202], [-22.43145772927453, -0.12716052395279295], [-7.605384509013861, -0.017883450694206496], [24.852912419550055, 0.00158733137297664], [-18.02676605069822, -0.1735297305707481], [25.26305425344444, 0.03486804419829226], [-35.90094694173742, -0.02895897130570369], [21.16765126587935, 0.04300435588205257], [-31.04551881385272, -0.13977570043156806], [-18.00150791836719, -0.0799292665279467], [6.044690755099523, -0.01176085499701203], [3.6656918595186414, -0.003313720893087205], [-22.06291913722335, -0.09720173194638745], [30.96352662594986, 0.03652487772225376], [-9.978511314723317, -0.019178072717369803], [10.197017516513842, 0.1268280681826903], [19.898250969264016, -0.04937760257678647], [18.51738166999235, 0.022170145991061336], [13.421629791152059, 0.016391136315512724], [-51.23607951067039, -0.0911810169989839], [-24.658499526445567, -0.08212588124112866], [10.942021195476253, 0.001102702968110181], [-11.024535962333575, -0.01958587429955568], [-11.0695411725584, 0.0088291728957966], [23.8597797721387, 0.0291841050663538], [3.464705170798404, -0.06706669200498555]], [[2.2846770599502273, 9.360180652898893e-15], [14.874644097418647, -1.539156125556488e-14], [23.749732772103535, 5.175538474304202e-15], [-6.0286510645915845, 4.935387512229283e-15], [-8.07689580176712, 2.831011490461971e-15], [-10.933064945550177, -2.1881086611333912e-14], [13.91270797845256, 1.3703681066643036e-14], [-20.64010255288959, -1.4924657383774906e-14], [12.652973816282959, 1.2948310281670164e-14], [-68.70357443645425, -3.4008225656275714e-15], [-7.269919182392786, -2.911360878925008e-14], [-33.620624404935924, 8.228116241183501e-15], [4.63963449045211, 6.117801091903432e-15], [-4.772989908411875, 4.3665098534823965e-15], [3.1884060688600924, 1.1673397092229278e-14], [-2.884626231342978, 2.0584570454059417e-14], [16.2342020222798, -2.5640474259382544e-14], [-16.90633651207302, -8.056508437126293e-16], [8.638758515950116, -5.06261810782523e-15], [1.4722073728259748, -1.6978831865770975e-14], [-10.955308999455463, 3.1470821315139154e-14], [-12.127098395071666, -8.746984547399251e-15], [1046.8419887392192, 2.988957877878999e-14], [27.105784396288644, -6.1568044448046885e-15], [-38.50219489200158, -2.9533006130317054e-14], [-11.244695229440307, -3.119881383503893e-14], [78.69491919117733, -1.6414570859227576e-14], [6.7652631376515036, -2.167386953060156e-15], [7.974021376332011, 9.963202193958098e-16], [-0.6582153790794291, 2.906515156271713e-14], [-49.5546465395074, -2.928321699927768e-14], [-21.63934910592246, -1.2297907389868082e-14], [36.35950345504766, -2.4453773329543058e-15], [14.6002572335872, 2.9570920112868997e-15], [-12.900939642591132, -3.9084631685130657e-16], [-30.885110736553298, 5.554913517268632e-15], [25.831711185385668, 4.212831115569989e-15], [65.25466249637317, 1.6381308092578576e-14], [-8.874839416244189, 2.4613811759914605e-16], [-20.53354210915711, 1.957136164416436e-15], [-14.502385901270577, -2.0837789666677013e-14], [22.531633227598874, 2.924267641954629e-14], [-18.385558124331993, 1.855836859532515e-14], [5.679128712706521, -1.5241837065025095e-14]], [[-2.2593531155390774, -3.110148200378614e-25], [7.995862096044873, -3.2069518564392073e-25], [-20.7562033401711, -6.531567693859832e-26], [-0.6545056990042252, 2.5096067435079013e-27], [10.299151911310576, -4.321546422204181e-26], [-10.474679368110909, 9.277934438916384e-26], [-42.40822004925302, -3.0485543058148918e-25], [4.147510011540013, -8.489542201175924e-26], [0.45216188483471725, -1.9488961011218582e-25], [-21.940485133730377, -1.9215111281326563e-25], [10.537016194144938, -3.970478329683467e-25], [-0.8818609132186294, -6.86631362920297e-26], [-17.39568201781806, 1.943279486993469e-25], [-11.643288358877514, -4.1681429798629845e-27], [-15.79592564358728, -1.662735170172404e-27], [25.267647045003507, 4.590446205928426e-25], [16.52793061313402, 4.152905673794485e-25], [-13.732172769900108, -5.093744660538955e-26], [-37.35623987712235, 3.150158322600833e-25], [-10.027934567779814, -7.723525713348171e-26], [-27.149017602503704, -2.4176188332655023e-25], [-10.460743071777078, -1.1229869229403769e-25], [1073.7359468941827, -1.3466256173331275e-25], [-15.255857869110269, -4.266266187174734e-27], [-25.861858565500565, 2.5929694702016452e-25], [-30.382405092638155, -5.393738053880918e-25], [124.05483351851514, 4.453937381726984e-25], [34.0553472499787, 1.243819978759998e-25], [-6.132295985979006, -2.872821121900405e-26], [-0.27459460617806924, -5.302891512253337e-25], [-25.46344084972751, -6.030898237526943e-25], [4.225116350584869, 2.6435383571817413e-25], [-14.289984381970378, -1.422330270129448e-25], [9.700086119186436, -1.8678959855112818e-26], [-4.139088216091785, -3.18332417541864e-26], [-36.99540876061543, 1.3575784505169698e-25], [-19.41765935291061, -2.441138807425544e-26], [131.43737358628414, -1.4486770616423796e-25], [-21.503041331882017, -6.359864125803276e-27], [3.3124684495124024, -1.6141479145732283e-26], [16.590713657414817, 1.64106814183536e-25], [12.443639857982985, -1.803556697400548e-25], [17.40124524541219, 4.204083611637121e-25], [-13.062234681481426, -4.093154227689042e-26]], [[5.7194241150049345, -4.37811572839737e-10], [24.0087450446622, 1.3362543962635983e-09], [-2.1619623059573656, 8.849792176059793e-10], [-4.502933679447622, -1.2576862233200291e-09], [8.618840302181864, -9.139628274798567e-10], [11.284462690474134, -1.4580378480789398e-09], [-8.84892456326102, -9.568542556491843e-10], [-15.902094252136896, -1.7263925749885016e-09], [-10.46293948665698, 2.147694740754589e-09], [-20.609935126818325, -2.3615944308986796e-09], [0.5452863346966569, -3.3497972838025704e-09], [-11.798009116733422, -2.710068507996532e-10], [28.313057891895696, 1.3067617300232762e-10], [-2.470194046837809, 1.1436372481795026e-09], [-9.210828007970775, 1.3966980235632788e-09], [15.524224862244063, -1.7957073413324254e-09], [-22.260462076716376, -3.525508493334387e-09], [-17.876966552376775, -1.065244709399253e-09], [-21.142893348943236, -3.1023320669636796e-09], [14.044065061252136, 1.2970000207092433e-09], [-30.716636200883606, 1.053075797086331e-08], [28.678869158856227, 1.1152622120821981e-09], [621.969720497818, -7.3441426513873195e-09], [16.582991340163208, 4.273730494548765e-10], [-65.82053315952756, 2.6842088382806885e-09], [23.502677306752158, -4.160751924868105e-09], [59.74379238889683, 6.937851511414915e-10], [-18.455309828461974, -7.329277874820002e-09], [59.437467079507975, -5.268149794089185e-10], [-32.33915512745392, 4.053767361339955e-09], [-39.52479162322095, 3.110661144457502e-09], [-3.491836462769616, -7.422091083545885e-10], [-17.236384905699015, -2.391764115343148e-10], [14.029944242546808, -6.91633906806647e-10], [-3.723714268057994, -1.0233069390372626e-09], [-44.094879645117686, 1.2164165518340926e-09], [-18.695236914357018, 3.2889953148820197e-09], [157.7521511863378, -3.3671484664553626e-09], [-24.646201974739782, -7.074523117977264e-11], [-2.1918970423536037, 6.445821560442635e-10], [21.210682943755504, -9.983317002252124e-09], [13.96777280686737, 2.0822087727065636e-09], [-15.621201315349321, -1.398975061091972e-08], [-40.31814450908097, 1.720774598708134e-09]], [[22.045850765893796, -2.0135665616794325e-10], [-13.169444371953551, 3.8225440447647225e-10], [15.2940897653856, 1.4219460298370486e-10], [31.123185921623556, -1.7667073862402937e-10], [6.715733804308866, -1.2412510064306032e-10], [7.7855191942942, -2.623505119794844e-10], [-7.568119655889273, -3.1220023403918467e-10], [8.073450714432063, 5.565004796697493e-10], [0.9790536807140544, -3.7403126541757396e-10], [-2.128641043655973, -4.3978520275125804e-10], [-17.559014128179715, -6.607700216101672e-10], [11.315273347242133, 3.9652080999951545e-11], [29.020443765427423, 1.4212751500782234e-10], [-22.319208626285786, 1.7835169095506484e-10], [-5.655874937420967, 2.1998584016738357e-10], [-5.26929874180925, -4.811282527249381e-10], [-2.485305546567754, -8.54959466498305e-10], [22.71490705642153, -1.8585702687172594e-10], [26.696818368928614, -6.178956673635183e-10], [-7.070713075267976, 7.750288957787276e-10], [19.747719598407386, -4.1136896972208614e-10], [10.204170652536014, 1.4882178106365889e-10], [913.932746026287, -1.0496441461927422e-09], [-26.890570970707067, 2.483381543004358e-11], [-17.168986414824555, 5.107508497944036e-10], [-1.7944774368538543, 8.717426788326099e-10], [51.16736140497152, 3.46954630868046e-10], [-24.509525327708797, -5.531197844541262e-10], [-36.21305607603404, 5.800100309453665e-11], [12.352391157817562, -7.970026806028109e-10], [-46.66755784301821, 1.3853593638078957e-09], [-17.33447727768431, -2.732867607325243e-10], [0.24442784295441858, 2.7928826952968e-11], [-28.55385517089507, -8.459118686237705e-11], [-2.9572346731584025, 2.776917314410628e-10], [30.461502983383514, 1.9025169100472487e-10], [-0.44042252211880273, -1.5460547214694744e-10], [154.92069239316356, -5.303005244964998e-10], [35.24174602001856, -4.090366168698761e-11], [-18.51851028816859, 7.402108493180105e-11], [-22.052820001893338, 4.667243339460586e-10], [-16.282686454387324, 3.645581758497443e-10], [4.137900157677493, -5.212155379550083e-10], [-23.359652326372114, 4.1883454964131556e-10]], [[26.793620292111182, 0.015315348331926411], [13.65235171303439, -0.014097942142040559], [1.5363402715332568, 0.01596005490275191], [-16.86226890618587, -0.010557457913435537], [-2.0650298898750163, 0.0028533780828690846], [19.59679103654567, 0.015374839329668327], [-27.47186915078696, -0.0028303790026265206], [-13.515004822721846, 0.0034741528397133213], [23.822823004131607, -0.0022612122031503675], [42.664085074161314, -0.0024749684832232107], [-13.786667346731095, 0.026538608340197577], [7.663576327428969, -0.012264445418197299], [-21.297604014618116, 0.01470329477407192], [14.797689453895025, 0.0032635668533085305], [-5.19480136869037, 0.01867050355024962], [-17.23676868120823, 0.011213438470343551], [53.042563353421485, -0.018692466697824504], [8.014714944297848, -0.0007855460487849427], [3.189356139540755, -0.027362832896769218], [-3.1159617694188033, 0.01847252711470309], [-10.575868398131187, -0.003966798094720845], [41.28569104913123, -0.007296509478293424], [1717.2990309642719, 0.0336333625254757], [-18.35162550896904, -0.011250244126076902], [-43.9706523754144, 0.015719767538390876], [-23.297140221071874, -0.018031696033933536], [148.58113749406925, -0.00961243155939578], [-8.954375188536632, -0.026100759841940487], [1.9042420791500683, -0.014953722387318315], [-41.373514089268404, 0.011142943140891015], [44.541436859825005, 0.020545202506329515], [-29.60685626967813, -0.01610834865002601], [-20.45013675901704, 0.005517875671396255], [11.17822225681832, -0.02247423658545664], [3.1980895329594814, 0.0018600080838138933], [53.58659882098978, 0.005649273536046798], [16.96614696661907, 0.014569232193182007], [277.39548310530836, 0.0043203003112817495], [28.534676088212493, 0.011364786244146843], [9.744989838495707, 0.010883687529453304], [-2.6168992823596557, 0.00875555551516718], [21.366080493974, -0.008179951312140783], [27.192937838975308, -0.015078861040659555], [-25.957376682190844, 0.006431809362694269]], [[11.68325559198771, -4.6949914187029306e-06], [-12.448720306203464, -1.2638422532682533e-05], [-15.405403466123904, -1.7946786603397784e-06], [-24.88694923952901, -1.5626631107095892e-06], [-66.6400558494511, -9.90247051211315e-07], [21.67016188381702, 8.191089623420063e-06], [-9.979856572065806, 6.237604183254669e-06], [-19.554237162934733, -6.807385235301909e-06], [5.262989434621733, 4.902432734483783e-06], [14.466985557676859, -1.432711404703521e-05], [-25.583385090212197, -9.792060493775386e-06], [-24.83458401205893, 1.9047934411821131e-06], [-15.745037960460703, 5.0895286597200975e-06], [-39.36438727386518, -1.5512860960420669e-06], [33.224182840941474, 2.386522452754154e-06], [0.948906022437233, -9.374248208356792e-06], [-49.022246018299924, -1.0694639699953683e-05], [-1.1854086297011464, 4.410361636450542e-06], [-63.537095743417574, -8.991307637404699e-06], [-9.37418175899864, -2.431974986298677e-05], [6.562766261314747, -1.0167943269772876e-05], [-20.677824667716553, -3.9149301925378505e-06], [1112.859203105927, -9.628727977662352e-06], [6.9109285171779025, -1.1093098383362276e-06], [-5.509251834172009, -1.369430527958586e-05], [7.847566839496462, -1.3078364548371681e-05], [192.24091238245012, 8.250530818545132e-06], [67.48699948149968, 3.884941292758427e-06], [-6.891130639213388, 4.3774502040038136e-09], [23.752987065309636, 2.1935514542549924e-05], [35.17821741303939, -2.532614296499635e-05], [-16.694544505244426, -5.936669263364013e-06], [-52.95133789478729, 1.5222243881801338e-06], [-33.1776043626213, -5.012021096926172e-07], [-30.588103044458585, -1.3793390381813189e-06], [-21.718222467180798, -2.2678891883215495e-06], [-60.966448910973156, -1.2820828555419602e-06], [209.30084965731209, -5.872609392713487e-06], [-8.74929497865496, 7.147971836284996e-07], [15.519446819993332, -3.400337837234838e-07], [-13.12313513569114, 1.129077369107667e-05], [-14.062975942929802, 9.123702408383052e-06], [-10.30411182264988, -8.035756404969977e-06], [-23.503294918044485, 7.344244632212957e-06]], [[16.561942525570085, -0.0006062001011992304], [7.754271040081504, -0.00021895394388255393], [20.56176215880421, -0.0005175041663933247], [-16.095038673740476, -0.00028332428528095744], [-27.157815381208927, 1.513225940593382e-05], [-6.678547642780865, -0.0005729124098781996], [16.723755447580434, 4.3361768921136913e-05], [-21.249262599060003, 0.00021949499122163004], [-14.171148736669616, 0.0001731632968608931], [-2.408212623719329, -0.0003541803193244554], [-25.18007750506219, 0.0010040321366392383], [7.253702059924148, -0.00012961667858797193], [-5.754558383826412, -0.00038224607495840313], [5.96498268647815, -0.0004488183434803631], [33.14707658945262, -0.0006466950988284861], [31.374323096870334, 0.00048619109259022674], [-20.547682717600306, 0.00028220130369220343], [23.993945079610377, -7.510307124146706e-07], [-36.976813094161926, -0.0006631961076678326], [-9.928702952782753, 0.0007291180755562988], [3.8533850294125807, -0.00020596878824673064], [29.42703591410135, 0.0003874257226500023], [131.34023127330923, -0.0011448095990036794], [-7.070212849441119, -8.501568987657924e-05], [25.268959018830877, -0.00015851920792186845], [-4.0164286936714655, -0.0010554085571005036], [-18.204029978426668, 0.0005360878603765963], [-11.40043985610672, -0.0008535347322688556], [15.87436607088962, 0.0006411645683765154], [13.023637137874232, 0.0003495603508182736], [-12.609817411587956, -0.0004288715558677038], [18.394944595347745, -0.0005141774002243294], [12.346758098914954, 0.0001701923466022527], [1.8390129587464088, -0.000302858369126263], [-9.511441012355446, -4.4264675091861436e-05], [30.4155791124781, 0.0003190769883824904], [5.6465708536489325, 0.0005742416628341722], [2.617046266122828, -0.0002819485721371729], [-2.433116669596696, -0.0001838941575768716], [6.212386749211395, 0.0004626462663837816], [11.077956261470526, 0.0003446950498153171], [12.709892659359427, 0.00022888986071907286], [2.3490834663919022, -0.0006729631243186915], [8.216097773135644, -6.559124563739973e-05]], [[-11.735454811866434, 9.783457740658415e-39], [9.25241240596684, 1.6298272637285563e-38], [20.060772105218764, 1.4839770078175048e-38], [6.313862285999196, 9.402835233885411e-40], [-19.09678142331235, -1.0547020238945153e-38], [18.405982263427095, -1.2349103690955598e-38], [-12.269666163557131, -1.6937857391765404e-38], [13.816378221922283, 1.6696383527539712e-38], [2.004727626274904, -7.07398434702673e-40], [-15.425415915829994, -1.788959360241759e-38], [4.6032284184574905, 3.4842058240962947e-38], [-0.8095645119331407, 7.700530926122796e-39], [-20.970075671478376, 2.076945492430643e-38], [-2.039106335380804, 4.010486557996792e-39], [-4.274658516421764, -6.71173732027115e-39], [11.684856984919396, 3.742492811436717e-38], [4.763480895079406, 1.1395892155181603e-37], [2.2776549179844268, -2.6221723057643484e-40], [-12.672954537479558, -2.0027898081505716e-38], [10.60031993163617, -2.7654623431542334e-38], [-1.9479999771617489, 1.141190506870463e-38], [5.3257849763422, -1.1014949876813735e-38], [123.56556424447129, -6.442946101573253e-39], [-10.632606537500669, -1.4573890715827408e-38], [13.40795284494389, -2.0986015088362342e-38], [-0.09603679688989335, -2.2880091456189947e-38], [53.40330287659227, 3.7988049216013903e-38], [-3.8893345178318515, -1.6179806839428874e-39], [13.814595305794361, -1.4384430512190182e-39], [-0.5239526652796269, -2.620226063362724e-38], [17.76092776940011, -4.339099557557301e-38], [-0.49125736160877476, 1.5098204819646338e-38], [2.5755455935940326, 1.1203421113595989e-38], [5.160389213057638, 2.178121840052256e-39], [10.969191308083127, 3.5438948775394615e-40], [14.615321591573796, 1.3121466458546146e-38], [0.27902746966270103, -4.8113603879723504e-39], [21.75112734491101, -7.315539157326224e-40], [0.6560694833340014, -6.966730509572503e-39], [1.680710299570445, -6.07640668867347e-39], [22.770989692171195, -1.0813652205896964e-38], [27.15643949753048, -2.3480440614841043e-38], [16.765826971910027, -1.2017377716583339e-38], [0.45188888614069933, -6.49895838561131e-39]], [[8.084335556711872, 5.215354638345943e-25], [-6.3771310935074865, -2.286352602075955e-24], [8.969540105096394, -1.768535860681574e-24], [14.379199922530496, 2.5964365784536152e-24], [14.892528237448103, -2.1022884845222693e-24], [-14.112708320125384, 2.667475590292722e-24], [-26.24926831152135, -1.2966667341301855e-24], [9.097577578303435, -3.006672011645607e-24], [11.485901994296142, -3.868451073554693e-24], [13.82915917823387, -3.994390259504433e-24], [13.46511013265142, -6.3572316419742255e-24], [-31.085279825982138, 3.9704155758776825e-25], [-23.359590426582724, 1.6810360430884163e-25], [9.276854775751376, -1.826256647678687e-24], [13.034876767003196, -1.6796839324996776e-24], [-0.3888119060793039, 3.4774848136467244e-24], [20.195375417332016, 6.5219330114021866e-24], [2.398862430178501, -2.265877468885314e-24], [-4.905032886002744, 5.7164213197973054e-24], [-7.102216849180401, -2.3014202735300896e-24], [-9.89298102865352, -4.402658456544466e-24], [10.654886331010164, -2.170569189548625e-24], [338.538530613037, -1.457058076051342e-23], [4.2337468323752825, -9.634555689541233e-25], [-6.0458842907746995, 4.904247929390174e-24], [-8.789518799311507, -7.941910968494636e-24], [24.88469133762884, 9.540338256342603e-25], [-23.472415583939014, 3.335507898690976e-24], [-16.436191547836614, 1.4080176800919135e-24], [21.64663356597013, -7.67530630902297e-24], [15.046503297868496, -5.7429535619969216e-24], [-19.993078965027205, -9.044695195551101e-24], [21.874080943788943, 3.2285522118343912e-24], [-22.440543889977548, 2.107978982900319e-24], [9.701403622409483, 4.460193000626933e-24], [-6.034642153378765, -2.1683407071128038e-24], [3.9843152403685953, -3.1357649703485573e-24], [27.91618582299297, -6.568661667997904e-24], [-5.4431602637807455, 1.861687653208871e-24], [-20.559391986960986, 2.295475501727879e-24], [1.1292723450880937, 4.66211006835272e-24], [-15.589919115634169, -3.898937945514298e-24], [2.281514675055489, -5.069019667057559e-24], [28.372731457919052, -2.738092911863356e-24]], [[-31.80437732016595, -1.3721305968482757e-19], [-1.7278557112102506, -3.288545425884082e-19], [-7.261926006197528, -1.469236740366816e-20], [11.821463058369822, 6.483986313616814e-20], [-38.60636046067755, -6.095424279458856e-20], [-2.8554427209782154, 3.106818655746394e-19], [7.667244447844162, -3.2908374017460414e-19], [25.78163714717448, 4.8650502233050637e-20], [-19.811799551052385, -1.106624072378369e-19], [1.667023067159082, 7.637685845795766e-20], [5.584650822730052, 2.3676406700470087e-19], [-8.994969542340382, -2.3184385799989553e-19], [-17.243826150055607, -2.4453622947078925e-19], [-14.654497411234328, -5.870464275103582e-20], [8.990632306708923, 8.215861312803582e-20], [-10.803505135581515, 4.47106800731642e-19], [43.40098785121983, 2.82466616945616e-19], [-20.82443743344819, 9.096228320398071e-21], [22.861524426519512, 1.9083060047042042e-19], [-21.212507177263706, 4.083406326936627e-19], [18.70540545387361, -6.303307779597119e-19], [-19.10412952240375, 4.585156196769901e-20], [1312.4626553343794, 3.426431369082726e-19], [36.097460694761025, -1.3016873579663546e-19], [17.813970846801286, 1.560993377008014e-19], [-38.92166044534397, 3.6504280946355996e-19], [76.99493192434879, 5.246183475231889e-19], [-6.6155667987575, -7.272161054381015e-20], [-7.590739858931926, 7.242412511659756e-20], [-17.25477884413341, -1.3879101664470724e-18], [-25.07442370303109, -5.446977726723462e-19], [-23.644824554698697, -3.2563783587821543e-19], [-27.061670599651276, 1.5008970483266567e-19], [-19.1290261786819, 6.310155150496222e-20], [-14.393345104004675, 6.038540030797126e-20], [-32.91664394771988, 6.6827174495606474e-21], [-0.834631754633163, 4.524151386058254e-20], [160.9327649264788, 4.608529801551811e-20], [18.919444640266097, 1.1325949777798087e-19], [17.276126127278236, -7.744266403207597e-20], [14.515085863785496, -4.943349190687261e-19], [-24.17512937643127, -7.215543472771439e-20], [-6.342640168808546, -2.945358311196885e-19], [-50.194326754927694, -6.247213587635357e-20]], [[-26.86649635497575, 1.0187174358523462e-08], [4.162928202143227, -1.6490014337249055e-08], [2.1248894765818798, -4.557219618145804e-09], [-9.304595896545662, 5.376572891118324e-09], [-61.0356892664575, 3.6154228154375e-09], [-5.625444171559994, 9.64982136766524e-09], [14.78623525578954, 1.4548214655115165e-08], [-46.438375052522595, -8.842056801453557e-09], [22.95386625093694, 1.3284635292430623e-08], [-39.40712618686628, -1.4195399981327722e-08], [39.75635409450087, 2.560495809364712e-08], [0.8594165288392279, -3.336695988976075e-09], [-3.6615593301966403, -6.4700721325077034e-09], [-19.00965050465168, -4.847684648930067e-09], [-33.81299159667099, -7.2818482628799705e-09], [-34.53087584096486, 2.1978559368839434e-08], [29.537686409392926, 2.8300309527876708e-08], [1.4346429933029412, 5.432294490431709e-09], [-5.363663200640566, 2.3566972504949615e-08], [12.392934670282784, -1.7869493873453494e-08], [-1.2865491646758327, 1.197844262706344e-08], [-2.9197433894096876, -4.253244841061716e-09], [132.87561831690672, 3.2417426359043054e-08], [-12.275136278642256, 1.4679868449781332e-09], [28.413511408698607, -1.2696034751181747e-08], [-7.217956569709274, -2.990170369675993e-08], [-7.2922735492519974, -1.7773810521345943e-08], [24.047850327709696, 1.1379439349798554e-08], [-5.822759754614033, 8.403499621228989e-10], [46.95518039960435, 2.8370993554460605e-08], [-17.185200408928612, -3.125454904659693e-08], [-0.8065446427145293, 1.3219173154265812e-08], [7.861156684627669, -2.625006245197354e-09], [42.986105072519976, 2.2369904832074915e-09], [-7.609519424851193, -1.0135552542404102e-09], [-26.47928491407314, -6.3904541321709405e-09], [5.094499761679089, 3.4541033950463765e-09], [31.30302272946981, 1.7782772080742027e-08], [-20.690472136366072, 6.822703400622924e-10], [-18.675224261652644, -6.129834615995113e-10], [-4.701166345493871, -1.1912432056823925e-08], [0.1372080927542368, -1.3156897513667183e-08], [9.744750494888464, 2.3730254959845205e-08], [-15.457478516942432, -7.694155418971779e-09]], [[-44.40485695917967, -1.7074132088111129e-13], [36.44312228318435, 3.39508132805676e-13], [8.196712690895842, 2.1341277476461103e-13], [15.996643294329578, -1.7865087701651906e-13], [15.772461123331055, -1.1417942225888273e-13], [26.65655834481169, -2.517171180774625e-13], [-2.2304877165595514, -2.805177753896144e-13], [-32.99235834253813, -2.9966259752149485e-13], [20.313925704449083, -3.5660861507383426e-13], [-25.16540036620813, 4.1821278799160195e-13], [-46.28400935227826, -6.241029264983328e-13], [8.798899185860797, -1.788419966941018e-13], [-34.93971610429383, 3.488921562462547e-13], [6.199236765197073, -1.5359591918418507e-13], [35.04359993072766, -3.967310485270908e-13], [-36.50594043924764, -4.5062447102664915e-13], [-19.09412320583096, -6.598106812742693e-13], [9.178253936411295, 1.8609657770515548e-13], [-16.453588565009426, -1.328832341344848e-12], [23.21245055887862, -9.19945704441261e-13], [-46.03538362027876, -7.162034646589777e-13], [-6.090918571699192, -1.4939687443055644e-13], [1122.966778893052, -1.0579693531527644e-12], [9.68906765945892, -2.629533495517577e-14], [-29.430788046157357, 4.743153404797563e-13], [-8.788958694096701, 8.114942921170209e-13], [112.4499585880415, 2.9267778234819167e-13], [-85.75083357604612, 5.139615433991745e-13], [-27.859159049996656, -6.060421488933975e-14], [-69.30038403006358, 7.656754398261421e-13], [-52.021770892519534, 6.902004452962442e-13], [54.44752217864236, -2.3635809912428314e-13], [8.912195728779245, 1.3966296362751453e-14], [-67.07746484756507, 1.4076424929741153e-13], [-6.722404877179081, 1.742136188759725e-13], [-29.129883538313784, -1.7438173143034774e-13], [-17.6625876650119, 1.5725926552768487e-13], [201.8112054102799, -5.230949345673267e-13], [-69.79769474708885, 4.5491465003678356e-14], [28.767292086638523, 4.868199860744541e-14], [-6.186683946571229, -3.9035159502685936e-13], [0.6624367327560282, 8.049150265262527e-13], [-13.483972038705408, 5.09316723295309e-13], [22.974993167012364, 2.3772602329069797e-13]], [[35.01833746635873, 6.548908101171878e-09], [52.560788065493014, -1.2030003454693656e-08], [38.805427668135444, -4.11427553865044e-09], [-21.8492503501223, 5.2182409699314105e-09], [-14.02383552482133, 3.62631743762737e-09], [-24.279986521093377, 7.993910050728652e-09], [-22.464139840538703, 9.922213272433678e-09], [-37.40617330920648, 1.3510930792896913e-08], [29.02913071797209, -1.737265873407623e-08], [28.771845659887095, 2.1901256152601324e-08], [-10.515364127072846, 2.0320192430483334e-08], [-10.062694310903328, -1.434402769967024e-09], [-44.8691590950963, 6.8418792683729045e-09], [8.728619897139417, 5.8515640702937746e-09], [15.744762008330472, -6.541014624801438e-09], [11.390359028960582, 1.5584428144706827e-08], [38.58272940574222, -3.1919740113502594e-08], [36.37522939685921, 4.9180358933287284e-09], [19.16614120704575, 1.8739596661634102e-08], [-28.838868734154367, -1.2443683418697857e-08], [12.718296517042942, 9.064209157855995e-09], [32.862528809393, -4.334287074522045e-09], [-12.344931171581086, 3.105169409982972e-08], [-49.234849493984335, 1.194671984307591e-10], [-26.29616032432131, 2.0600556726285516e-08], [-6.044420781051549, -2.277653536110195e-08], [14.506336417845759, -1.130520463023464e-08], [0.7293048454338031, -1.2138086918274025e-08], [-16.47396300708956, 1.351032356769353e-09], [4.356804754591923, 2.1376401606074306e-08], [6.335924260786074, -2.3204395519669567e-08], [-27.393983298724482, 8.79674684001623e-09], [-25.351393452814666, -1.0831945739634435e-09], [37.35314565472843, 2.459807474804171e-09], [8.90626212642282, 5.594410701413339e-09], [24.115554258983757, -5.723330491107975e-09], [-19.93075511582844, 3.1541713102490595e-09], [83.75619104425799, 1.5898452377978473e-08], [-2.220734421573434, 7.381031586856788e-11], [5.065320996003799, 1.538966949740433e-09], [-5.127413269293826, -9.658683874296353e-09], [30.376562606522008, -1.1060655795338096e-08], [11.500181960378876, 1.952113991617846e-08], [-9.358521061319824, -6.956178161367666e-09]], [[12.516734096607337, -0.43599455990627867], [3.532363536585857, 0.42879999899723253], [2.389728661840536, -0.2993111949704215], [-43.075996972302235, -0.05661129903174453], [-2.8988582350854744, -0.4508521650373547], [-9.26351387733003, 0.008102939207424581], [-6.0031470941353176, -0.05767464172289497], [-2.137164048936758, -0.2764760881804118], [8.341980113391806, 0.3396222591681329], [-3.930425124758942, 0.200171244307787], [-1.617034804087135, -0.07883688303217173], [-19.582349680860485, -0.10174052151102186], [9.589055443147366, 0.2540679514371179], [2.811075276366717, -0.4983045989627701], [6.655839316114483, -0.8883615078730832], [4.167882481135313, -0.4268693929365116], [33.01745022815012, -0.7000572717412523], [1.0558862001304061, -0.8768150936469693], [27.56418733817204, -1.3579497182690377], [5.597309896796636, 0.6504825555373013], [-11.553239068739373, -0.37660316737103433], [10.310761219270493, 0.34661114648406066], [324.3922201711514, -1.9981989948545482], [53.895029343126254, -0.2930830631472098], [-22.70618847562495, 0.7824354134160745], [-53.404679365488924, 1.0400015649762275], [44.44921173142394, -0.7195623269033735], [-11.254269036546683, 0.41969428794417973], [17.344881589640657, -1.2368680209748637], [29.01220272813811, 0.24874529528945893], [-42.922056346934006, -0.08073655327118165], [-19.2317239868898, -0.7534715135792855], [-26.389304227446875, 0.12164567043568211], [-14.173941749214425, 1.2156847120328274], [18.252497695335105, -0.06790975248145698], [18.38566546554467, -0.027171843029535313], [-11.954890703399998, -0.6562413909101737], [1.2866936153727275, -1.271348017047357], [-9.918585599540622, -0.30264706622862525], [9.823922565932405, 0.1603706101414438], [-2.844892852669484, 0.41428518048607293], [22.109268591904215, 0.14967101333031319], [-20.91400216010953, 0.3368263376634535], [2.924953055843351, 0.08540229392403764]], [[-6.418704825897955, -2.731912588894466], [9.026648199225079, 2.575093942167634], [-7.929761089768386, -1.9039136652632278], [-27.348894516360968, -0.17517723188793644], [-11.671620459171539, -2.7867308386255134], [2.771744915988664, 0.25704368678874484], [10.309605786615323, -0.2629775849289858], [-25.81232954904289, -1.470479229364892], [17.263328659221415, 2.1356104458251046], [39.23143263696226, 1.0709046270683351], [51.092915446377525, -0.1361671407107794], [-10.97674132417952, -0.5123102053709458], [-13.545844313383528, 1.3529466021264782], [-5.69138020654245, -2.8148047118298], [-64.34681651171846, -5.471210476326595], [16.23328273415649, -2.553313072245219], [3.300531782135759, -4.459261586533763], [-20.874672525212233, -5.275798176107532], [13.915726289008223, -7.861672617631569], [-34.818578071203994, 3.60095542081152], [25.1833043903579, -2.1602552391366094], [-10.321796450914498, 2.3136665758664194], [-7.504265387134616, -13.049444606789343], [-20.111117692228007, -1.692718493579514], [19.322235700909033, 4.949883723364839], [-10.324882724267258, 5.961661549043985], [-18.412717487220007, -4.600179996297564], [12.097490990463786, 2.8115177055370784], [-7.982772588710894, -7.693060677030606], [-25.448098765922214, 1.3747121259948076], [-47.75021277713583, -0.451168717641937], [-21.94931145910298, -4.610926042027641], [2.43407280563164, 0.5891782416932246], [15.343450664180208, 7.244490781825176], [-17.696965612367922, -0.5259222708501086], [-12.924380364067265, -0.007172687887737339], [-22.497960418805945, -4.121198275895921], [-0.6936126541877901, -7.992531756303874], [26.937642529662494, -1.9095451176289044], [-7.296809820713612, 1.210785774319048], [3.3695790204222615, 2.304880444812931], [8.118098035238775, 1.1093334143127707], [29.295970562915613, 1.7929827768304962], [-8.395988910628954, 0.3755051814875572]], [[1.467135498271951, 1.7612744231941675], [0.573397453788945, -1.7821665367368258], [-24.493129762277256, 1.1457260616511216], [-19.349760643160533, 0.25309546478052736], [1.179826121899191, 1.7680982211817162], [-3.154512269510905, -0.025184978908470435], [-27.671786904789172, 0.2632744446000159], [14.858726586255486, 1.0578230490243348], [-5.0927252022135985, -1.4073527900077925], [15.92717965751792, -0.7663388788790599], [6.215405950746623, 0.3397585073059517], [3.9714231836462144, 0.323670310638537], [-16.856874723558388, -1.0328415833570728], [22.345530478242242, 1.967378133007999], [13.158728119306009, 3.523086403814095], [-14.313564066530061, 1.7272850842404723], [45.14452603917392, 2.7629105387948214], [8.314731732489095, 3.4809005654366283], [36.660496940090454, 5.527036713111779], [-18.154141588906572, -2.494124924994145], [2.389746444039355, 1.5286061196982184], [1.4725603417716489, -1.3811204822046568], [-122.91093405429791, 8.133811345681668], [12.33777564378854, 1.1488879594158012], [-6.053158011347957, -3.1159057060393343], [-5.1224309580771035, -4.184064188182784], [19.230412874534544, 3.0268876112168366], [76.69069860799549, -1.5722401384234277], [19.29529764893208, 4.973823287234186], [43.33645773085835, -1.0034655762004392], [31.87863780595305, 0.400192710985094], [17.083939044869553, 2.9939377584148756], [4.074318579760137, -0.4728605369660317], [-19.213313844676463, -4.96654485944765], [-6.723974010689798, 0.31906542235688495], [0.10533212047226856, 0.08059723939126137], [-8.840163498847623, 2.593443000946963], [38.64376458512048, 5.172304714092032], [25.9699745715218, 1.2817015863717447], [-1.601308707789383, -0.6537071047387709], [1.0420923580233128, -1.6465718304651558], [-13.831672981779455, -0.5996200835207308], [25.16965068535167, -1.3605932467940864], [-11.176973899448138, -0.28099764842940766]], [[3.2972916460005717, 5.996563710255637e-39], [-15.732145113417733, 3.998961238494756e-39], [-15.344664005548749, 5.749338154517593e-39], [-0.8377331194046802, -1.0493266315579468e-39], [2.911877010571694, -5.536027469563051e-39], [4.531240955208249, -1.5072178407726864e-38], [3.2265279270047937, -3.609913319244197e-39], [38.02278631594769, 1.5943236033199252e-38], [2.8117747053513686, -3.8413944514896215e-39], [5.112474382137829, -8.01659957638278e-39], [-1.5904775281128298, 4.2898291757159906e-38], [-25.21261616242903, 5.5820625027313295e-39], [-4.609827796666832, 1.2829090712360662e-38], [-35.52643721922954, 9.923046159738882e-40], [-12.023884658015877, -7.517317906419934e-39], [-49.911461807572195, 2.2201229001559318e-38], [31.172305025073353, 1.2727031551165053e-38], [-29.378733253845247, 7.212851662687574e-40], [11.593959027653105, -1.8115923260154535e-38], [-4.643502845757043, -1.7083492983627446e-38], [-3.4853179141878616, 8.594091182853416e-39], [21.63280300787983, -8.491599116400048e-39], [461.6509587789501, 3.4682399171065344e-39], [12.499733676293822, -8.859563695449078e-39], [-18.235203552651207, -1.1086844270780191e-38], [5.613872162776955, -1.2000558935187477e-38], [135.5065329548876, 2.387628163924319e-38], [-1.048720426743926, -1.2023326217382033e-40], [10.513897051944124, -1.7051000917986403e-39], [-16.87429038580234, -3.041251999164929e-39], [16.665667895409733, -2.2727584673491144e-38], [-20.305498682533152, 5.992658121205228e-39], [24.37926507384942, -2.5164576720638047e-39], [5.054140327273646, 2.0719827057824672e-39], [-8.64036138523373, 1.251218945145092e-39], [16.543593998064345, 6.482926797975711e-39], [-10.74423360882342, -5.6135734528403164e-39], [131.7189868058285, 2.1764734017414784e-39], [0.8806424833468941, -4.72389016510501e-40], [8.644085098522591, -2.605199707032809e-40], [0.3430803946786875, -4.832332458102794e-39], [-15.405525404349733, -1.2370662964135048e-38], [-12.53038749261904, -5.95624953161072e-39], [4.176038971855988, -2.3874294223491753e-39]], [[-35.4102623409457, -3.4825959189494812e-15], [-24.93890949276113, 3.5100821109597432e-15], [2.9606297182980197, -3.7730664420569973e-16], [14.782296131851862, 4.675817177699514e-16], [3.352126397808001, 5.667648907829307e-16], [-23.883440838392126, 9.172839349373623e-16], [25.414353988235792, -4.2933238985976335e-15], [35.324691639741346, 3.872057886920442e-15], [-35.794395841321695, -1.6664386603926324e-15], [15.47020185733232, 5.975441089965177e-15], [60.02428862594745, 5.6293815574471275e-15], [-0.5882427788210297, -2.9139079330159005e-15], [18.905384992838002, -2.7449587874271828e-15], [-10.150800190707724, 2.9545672292934916e-16], [-32.20268954659549, -4.890240409128827e-18], [30.440538121842273, -5.673324094370848e-15], [-59.60618459859623, 4.217388989736703e-15], [28.609894705317483, 1.1704804859848368e-15], [-17.12586699585802, 8.69281724445763e-15], [-26.632718345004186, 4.979260545329808e-15], [5.371325324655654, -1.6520193654903316e-15], [-24.571838467281065, -4.821038019441216e-16], [-751.6368057715781, 2.2900235906344487e-15], [24.864687624032896, 1.1073657034598383e-15], [55.15262344703473, 7.561339854893009e-15], [75.19893055625973, 5.20469995945287e-15], [-126.02569650593385, 6.228653745075806e-15], [25.077514415292566, 3.081114879876066e-15], [4.805355339603604, 7.206295812677338e-16], [68.86249617152347, -5.005919632130744e-15], [-19.937926129244584, 6.7446790690240504e-15], [46.30467073790331, 3.98068292611596e-15], [17.040806243078976, 1.686058284315618e-15], [-36.45866284220482, 3.793363583065538e-16], [12.240134835285081, 1.3298560285752105e-15], [-30.154464782370052, -1.6712256849004131e-16], [12.372125664805353, 2.940152829481388e-16], [-178.87100158759617, -2.304376802764676e-16], [9.567343761685793, -1.6452550287279793e-15], [13.441547929361967, 8.92025816070414e-16], [10.50046988976737, 5.286610544379065e-15], [-40.94685063707817, -2.6134947557501362e-15], [-32.284049575140145, -2.812930121909295e-15], [12.917439632476361, 3.5539759932461896e-17]], [[36.94368842078523, -1.798699132713361e-15], [-21.634961152837324, 6.430755881217303e-15], [-16.2959370361306, -1.907549967248039e-15], [-7.501068981524463, -2.325553056781859e-15], [16.60398282125575, -1.5163436744595143e-15], [-16.418159983215276, 3.3761415318109905e-15], [-10.088536270044049, -3.116342299795872e-15], [14.557772600594163, -3.67252532916895e-15], [26.782531897915334, -4.330275256990838e-15], [13.640603651101822, -5.847879237160732e-15], [-14.366694798310473, 4.400691685063418e-15], [7.976066930179284, 4.240939497616321e-16], [-6.003918092905014, -8.979259984794599e-16], [15.072366301766234, -1.985097136343327e-15], [-9.135271160000073, -2.3741080798936507e-15], [-3.379076536726859, -5.116691694752389e-15], [-27.830780985306188, 8.014642548096028e-15], [9.442035770104727, -9.588859978320034e-16], [15.429662549747219, -6.217414684348709e-15], [7.318875345173236, 4.0738566517916105e-15], [-18.296501335815627, -4.499696595683282e-15], [-11.163352950031749, 2.219202212127374e-15], [-24.71866191764644, -1.3753854870295039e-14], [-13.900829860616835, 5.938635074243245e-16], [16.65461862754047, -5.584310712569151e-15], [43.050437442752155, 9.707188469120389e-15], [8.745588929659556, 2.9705678160419398e-15], [73.83666307276026, -1.1398319113671246e-15], [16.1853499390767, -8.526092765829071e-16], [-18.828908363964498, -8.946483722019458e-15], [-7.807724613310866, 8.014998952097126e-15], [58.24443110091789, 2.6655711537225796e-15], [8.054194320320931, -2.133474961836184e-17], [-21.473318697982094, -1.4269149891418442e-15], [21.04482599444293, -2.364694302709993e-15], [10.341848788292616, -2.193007136823178e-15], [32.09263100643293, -1.920689956153186e-15], [-91.82232567554915, -6.628368867517695e-15], [-10.85488373871137, 8.719194614246138e-16], [1.1035698452371356, -1.2921895421192741e-15], [-22.252418196491195, -5.474743694784395e-15], [-10.434929570545117, -2.2537895837731158e-15], [7.918428900908574, -5.946966584373416e-15], [15.055891015278736, 3.2075494906432328e-15]], [[-1.087679343786381, 3.3561528940260323e-15], [-6.746059969940335, -1.6687408695809005e-15], [-12.94378480055595, -8.887486645344032e-16], [3.5561841941788086, -2.29266704897467e-15], [-14.35658588273183, -1.8427769813032417e-15], [13.940508794559854, 3.4682212403478837e-15], [-8.147289132571188, 3.496281220750492e-15], [-16.577495182188382, 2.5982754137547382e-15], [6.579837503176478, -9.074896749037183e-16], [23.774465232169273, -8.2756235652986e-16], [20.935036099451363, 2.1498792157846176e-14], [6.752101576937843, -1.441510492401384e-16], [-2.183314258123126, 3.0169461731427167e-15], [-2.452363799114259, -1.8204328089958276e-15], [-19.875287928382498, -1.6925069070859172e-15], [0.4173154117831116, 3.889112468565488e-15], [1.2430272779353302, -3.2655616391920383e-15], [9.994114272336349, 1.1285009670981567e-15], [-5.2296951055535565, -3.789610607670751e-15], [9.838734317319714, -3.747678197222296e-15], [23.395150228323644, -4.704482578595169e-15], [-36.667254262643404, 1.4730517969910532e-15], [-697.8944387221959, -1.291034221864394e-14], [-20.931158964718737, 4.528384308540675e-16], [35.60153059086044, 7.283018058143922e-15], [12.060106084994437, 7.717349261248742e-17], [-110.09596816344742, -6.115010780476165e-15], [1.703111470217084, -1.0067506191571316e-15], [19.625198832430147, -1.570001114557249e-15], [2.731718890687201, -2.1825063389971482e-14], [56.0387976475292, -3.207134092386744e-15], [8.854049092852259, -5.249208431283982e-15], [7.004286487106709, -2.2509214119262165e-15], [8.286368283371662, -1.5546594029839092e-15], [2.3007269655220046, 1.4627018025575065e-15], [7.70841935481799, -1.3574430213022323e-15], [15.355271044725528, -1.3218096431626538e-15], [-111.50014297796925, -4.458265149995657e-15], [-5.670350270991994, 2.773416440830938e-15], [21.172042059215972, 1.0341308676228231e-17], [6.033210158459605, 2.9609667911988464e-15], [8.290699495942205, 6.329066244028357e-15], [33.06263625305837, -1.4275269982766835e-14], [-1.2399091161391356, -1.233981959493769e-15]], [[0.5970671259739689, 0.01347114358645923], [-1.0358855094287853, -0.009448837098189763], [14.928834820711744, -0.008111250119949084], [17.411083253102404, 0.008147530628770177], [4.550424584049194, -0.008306933709425144], [-53.57876977895308, -0.0025089499757168813], [-24.03262784729688, 0.007794117822539394], [2.4190975809961515, -0.010208029303451183], [-0.36505868906609246, -0.008613890727281281], [-3.686835082559531, 0.007114124894536199], [-29.92898200391295, -0.002461262817981237], [45.96541031182198, -0.013414818754932565], [-4.43602536111032, -0.0015974837630053041], [-36.03808428861723, -0.0063954608765304476], [-6.961153148426103, -0.004602652923522424], [39.974830112371095, 0.011804167538364723], [-4.225559544735308, -0.0012911793073909356], [14.741989708207814, -0.00913722968207921], [-25.90422542584919, 0.013329876890607606], [-9.93304937155011, 0.015835105840657508], [-18.244006784757993, 0.0059181707922036225], [15.758308829224942, -0.001720359949989312], [-354.60406805134227, 0.03325120521010154], [19.70974898174431, -0.012300367511213493], [-12.212582981729852, -0.0021443382246081315], [44.55223606981021, 0.0011361439167139197], [-51.67965714175752, 0.027811404863602375], [-28.473268608608425, 0.014716305929554491], [-37.492489790206314, 0.0019540300412620995], [11.850218237883986, -0.000988897316525609], [33.88049993281386, 0.010529572411255178], [-29.401348615215117, -0.015140698597067626], [32.07146904076645, 0.003487733744674961], [-12.443667690260888, -0.013844847067271446], [3.9409022041781703, 0.008748813553981416], [-44.26135714153956, -0.006773709709387926], [-8.088440773707859, -0.0037537455013334736], [-98.35030571967359, 0.017902801493694505], [-52.633615669394004, 0.01160464932457753], [5.8495933567885885, -0.005910201095447892], [59.612810020995724, 0.0031076699464379545], [-6.135390065295216, -0.002289466169849928], [9.143127099324598, 0.0018870597240651216], [11.343448449076849, 0.010787800965965535]], [[25.255432100775355, 0.11627236242953866], [22.36539272512232, -0.003227631836030198], [-31.65038171491261, 0.10654543203444813], [-1.4974608123349473, -0.16469946852722536], [11.07019875198521, 0.08161290708917665], [-16.53057582914493, -0.20850622664750934], [4.549917221567618, -0.08250396316892421], [5.603476085045066, -0.18792666934502084], [-12.73053267619372, -0.09776548146536687], [7.9133782423380605, 0.1300683600930017], [-4.5838056105775395, -0.33675599922567495], [-3.4699145731420638, -0.09896023351329852], [0.4378801053077982, 0.17080934810694048], [-6.6844595446775, -0.1751664974583768], [-18.901103092410825, 0.13964176411393636], [-5.960134486648971, -0.006282723932982931], [-32.158180343170194, 0.26110530995482106], [-1.530044048283002, 0.014789929413296293], [37.195346641216986, -0.2860744765027719], [19.32678489971352, 0.3016387592670291], [-14.048258812543525, -0.09975721564326714], [0.5745855278636774, -0.23375891763500112], [-724.1155020107069, 1.059069339268319], [-20.702696463256807, -0.06667324460792948], [-1.5089392789069387, -0.25674854563584004], [0.5859920691660239, 0.2783961356847666], [-45.01948740970408, 0.2822471445082174], [21.72898550867836, -0.2934557974938373], [43.777118693828214, 0.27205384574583696], [-29.762104609237582, 0.11775525780918147], [6.66184603107559, -0.035639581158863606], [-0.8085835219510884, 0.09043312457433411], [4.924924580115982, 0.1409311255356823], [18.86861122145229, 0.04844610517792], [-27.171934403996538, 0.11829603134321648], [-11.863833158640487, -0.15568256326014437], [-1.5130531674209, 0.18397188595074576], [-13.394726746118016, 0.36404096678332615], [-11.095062933106927, 0.09391301066967102], [8.19605720045088, -0.24830278763287808], [-2.9165110749393115, 0.1810099586228482], [-27.387166869315845, -0.2111597955160966], [13.389199039098747, 0.22793246359758976], [-10.814374283540811, 0.13712005877924888]], [[19.825391641953363, -0.0002760828167274584], [-17.36490577363707, 0.0009469516903366548], [18.96205527178434, 0.001459186292874979], [-8.51069995581969, 0.00019523858384956906], [-10.372601867278275, 4.581852220916113e-05], [-21.215259178497234, 0.00013355606710907877], [27.942336223471084, -0.0005838813223966504], [-7.937846265097728, -0.00045274273123485355], [8.486882151134072, -0.00013146860044331324], [-28.590069095972463, 9.408840668366888e-05], [-0.9412710353766648, 2.871291972727781e-05], [4.3048697127133835, 0.0007921319231831531], [-1.0542373868512613, 0.000666626907572516], [11.854742097260452, 0.00019197252455171592], [-0.8900586692176243, 0.0015020441389941483], [-24.92840891834935, -0.0017414298187262466], [-9.225542011777481, -0.002070959103585603], [-9.517567323483187, 0.00015824542069520317], [7.325389817403406, -6.476586300920148e-05], [5.09116358770209, 0.0004434573575442816], [22.004184365722764, 0.0004280438141490092], [23.786418935621104, -0.00026873358311073337], [-197.45329559285767, 0.0009666130361886867], [8.032405520268332, 0.000902714304240657], [23.272993002131678, 0.0013494441063408766], [-12.859218578373145, 7.453218074227573e-05], [1.3867899136251083, 0.0006536356362474645], [-22.13828596047769, 7.121013473908517e-05], [19.75473287215279, -0.0002817869060702928], [15.565816395936478, 0.00016633048131997966], [75.70089060116084, 0.002517226488283133], [30.336019265619385, -0.0003768681105413528], [44.851128111561664, -0.00025944478243632217], [1.6626709207550463, 0.001135633610483735], [-28.952098286102483, 0.0001760933597921616], [4.113466553276032, -0.0002116221077487023], [18.902418483261396, -0.0002554017636692412], [-4.545022014266813, 0.000376581192157121], [-2.373286832482643, -0.0003031843475510562], [-4.498715066360965, -0.00033138134770846505], [15.05400608406271, -0.00012199878567020598], [32.84000567061423, -7.704138836065242e-05], [-6.595012463089478, -8.703755688393587e-05], [29.02060684518999, -0.000179626521657995]], [[-8.770380287664079, -3.933959871174533e-46], [-12.314394150985686, 3.3968711974063285e-45], [6.661578979987137, -4.2530017138036044e-45], [-2.957423171582419, -1.517269185093321e-45], [-10.848811261389596, -6.424961349203138e-45], [2.5468016595931666, -3.664955613137806e-45], [25.621621969171986, -3.525398146388083e-45], [16.90259413643693, 2.74406282876618e-45], [8.16142599789778, 1.2008369644763236e-45], [1.9569575254951415, -3.9469753285311694e-45], [5.37758418708371, -1.9571078646814705e-44], [-2.277670811230622, -1.5832455744694855e-45], [17.82250823186689, -3.7315054185548e-45], [0.18142658929888575, 3.1012322004912475e-46], [-1.2045962528178085, 2.924416261146744e-45], [-19.767126947490432, 1.7777190124268625e-44], [-17.613920787161998, -5.4395677892077474e-45], [-13.047693584375416, -7.873930197446389e-46], [11.27809426870346, -6.066537915942759e-45], [-9.140218890419765, -5.092112689380226e-45], [6.989271483223879, 3.899994905467849e-45], [15.583054994881401, 6.85637322506714e-45], [-177.10013666553579, -8.57751273115532e-45], [-1.746671068253643, -1.8512308777362845e-45], [21.143943766687855, -5.728037908215815e-45], [-19.144982573594653, -1.1001313776489505e-44], [-26.89619634837015, 6.592743682751775e-45], [18.274036181736513, 9.73790456149052e-46], [-30.730162003769347, -4.894790606028101e-46], [-0.624320755338636, 7.029517263642043e-45], [31.83761344266716, 8.981524263316465e-45], [-4.691715250089515, -1.6561353172927895e-45], [18.302008714128057, 1.49489792027011e-45], [1.5449206633657773, -2.3115740608488577e-46], [8.723329893460338, -1.0863497990932485e-45], [15.218423595353569, -3.932273536453736e-45], [10.847717014490012, -2.3137565973030984e-45], [-22.9393299246338, -2.7416644430739024e-45], [13.199893590100217, 1.12052672132226e-46], [7.433315744613643, 2.5725307061152117e-46], [-16.93536932146681, 6.150586147427766e-45], [-14.667395181870015, -6.441500300594052e-45], [-3.717948591676178, -3.5324080389427426e-45], [11.072290527804117, 2.7059440985292142e-45]], [[-26.98025071355149, -1.7066184100587845e-106], [-1.188064236739928, -2.0799050842837985e-106], [-26.663550421425544, -1.1270128139578063e-105], [32.11480810175044, 1.521439449623869e-105], [-16.74180592488514, 1.1425761450791811e-105], [5.121813987438476, 1.1600315572837492e-105], [-16.945889544583466, 1.7658264536173465e-108], [-9.636843375047633, -1.6361163012558092e-105], [-29.395269597544328, 1.158401543730641e-107], [21.001802462681823, 7.064262354504088e-106], [-15.921026696605425, -6.77505210694561e-106], [-10.46199397054703, 1.1430956623014541e-105], [8.208610721261902, 7.94947495014947e-106], [8.0148253057271, -8.685161746331578e-107], [22.831914238465185, 6.426055285310932e-106], [22.53339990873542, -2.757319814622004e-106], [35.9394831121557, 1.4688409899827332e-105], [6.789561117081514, -7.543286920013139e-106], [0.5657343961416371, 1.542837276828982e-105], [1.5210198800545975, 3.790374765528058e-106], [-48.51246385132576, -1.106013704894786e-105], [-26.961089026404423, 1.7723593379173078e-105], [-366.56057211971375, 5.253505130835578e-105], [19.253438022414677, -1.1363935827222736e-106], [29.657186968763373, -2.090127105160576e-105], [-2.4111677673880383, 3.942448661119465e-106], [-9.36955242571832, 1.0252653637600804e-107], [-14.19615467738132, -4.308735822162641e-106], [26.89146250038287, -2.741849513001016e-106], [36.997370421380666, 2.3583991711587653e-105], [-13.127187132755704, -8.676459855451757e-106], [8.128301635307873, 1.0196257541518557e-105], [2.954079758541391, -7.657649402416813e-106], [19.523598733447436, 4.867998344551667e-106], [49.71962223667831, 8.683979947570914e-106], [8.410197953395238, -5.65118213924146e-107], [-10.267482797250743, 3.8117114723500143e-107], [-21.161166477401945, 1.917086488791743e-105], [39.69192250815152, 8.468902899766546e-106], [-20.246945313665694, 1.1441258926529598e-105], [8.996157574715824, -1.264600815708555e-105], [7.133488770370394, 6.438439136113501e-106], [-15.184551233469499, -2.415071129882345e-106], [-24.272028550915376, 5.239225494033473e-106]], [[18.628094423017746, -1.2675807525003367e-17], [6.488173487086148, -3.6280196127714785e-17], [22.100216578044524, -8.116891070966893e-18], [-25.28147077377159, -1.18037189151722e-17], [67.00014902960932, -7.74686059160086e-18], [-31.878092013262094, 1.394698173979443e-17], [17.37418667063569, -2.1356164261046156e-17], [-5.14116828842011, -1.922693699218417e-17], [-4.045657761751936, -1.543617497906838e-17], [12.850448866384474, 1.389956649286239e-17], [20.11065598721988, 1.3834977967330782e-17], [-7.598175841229842, -7.700444869187152e-19], [12.303885397822011, -8.276583920959838e-18], [-7.017615983345472, -9.9968263874595e-18], [1.6175055229430402, -1.1413775293505285e-17], [26.954597563340347, -2.741894430656404e-17], [-20.448586860290842, 2.8304121131437296e-17], [57.08620071972401, -4.819889454598759e-18], [67.6042892405893, 5.502100123498277e-18], [-5.881254075073996, 2.812832850446713e-17], [50.22201598191544, -1.7935158321251785e-17], [-18.436982888122188, 5.68269488104344e-18], [-964.8598711108284, -6.893989598752031e-17], [-0.7313854264150348, 3.0631137034899117e-18], [33.98902918528598, -2.939358909188309e-17], [8.908336854731704, 3.4696170281757105e-17], [-170.90213696762743, 1.11926819593762e-18], [17.09251219259791, -1.4351931407215078e-17], [-1.08332103545914, -5.440877419877747e-18], [92.98641660057066, -3.216594309724414e-17], [6.535518782344813, 2.963917126968393e-17], [-8.788288199172435, 7.880499412160156e-18], [-25.972519130001217, -3.538086147663365e-18], [-32.32095989341354, -1.6518279905310242e-18], [-9.062432713495859, -1.7682583231997446e-18], [-22.262574996407434, -9.881759322617678e-18], [-20.182691697946662, -9.55587075673687e-18], [-182.98872686885872, -3.0475349475301165e-17], [-30.207937251062486, 7.573978819268006e-18], [-3.6754851840045544, 4.054474473026497e-18], [-12.406401148844996, 1.89023619793012e-17], [12.647385286886507, 1.7896013009180584e-17], [21.93069074303049, -2.191997370731363e-17], [-12.08963644226628, -2.9403387554571864e-17]], [[7.971674626282632, -5.569679832473574e-112], [15.72963760357639, -3.352189743824117e-112], [-20.81913017435218, -2.7103480349794433e-112], [12.702050210130619, 4.237505225278619e-112], [25.94952400771216, 3.14973171561616e-112], [12.872739897891217, -7.3863241059210175e-112], [-27.00408967084016, 3.791046713660737e-112], [3.8032138399835356, -3.7963100203383737e-112], [18.408919819827364, -3.520864383697516e-112], [19.555875040521265, -7.09939474081601e-114], [-8.321585392300712, -4.781984038116459e-112], [-16.45854944714399, 2.1968340642951473e-112], [31.52109908339238, -4.6734593322229976e-113], [8.112668122644095, -4.909812651837586e-112], [-28.22583996923672, -3.507543312610498e-112], [1.3458465273920923, -5.514600383542121e-112], [9.421595009183088, 5.310704114584048e-112], [-2.6274258465486007, -7.073426920115702e-112], [-13.105351971327318, -3.7808570559861864e-112], [-11.419866186900588, 2.3963974410707823e-112], [-6.730893959798003, -2.5315389527589245e-112], [-2.1084841388520625, 6.390724596439539e-112], [-630.4906866483925, 3.792903220378699e-112], [7.656268953017996, 4.5913443913897905e-112], [-0.36633279405176333, -6.884983316944915e-112], [-22.12458660264875, 7.566344010947624e-113], [-50.251635431352966, -6.204187945417321e-112], [2.625760288433726, -3.898784023423626e-113], [-7.632417769098135, 3.075574567789447e-112], [36.60057639602862, 1.0280011179267067e-111], [2.6302354096293246, -8.1220228976516725e-112], [-3.801662076571405, 4.827487344051078e-113], [19.802691890831262, 3.115037138461383e-113], [-13.38175114819359, 4.110494185813692e-113], [-10.543210995736496, 1.7797376521128253e-112], [20.97200304600665, -1.762129847432897e-112], [-1.0217434038191897, 3.819142795115512e-112], [-96.0015368229686, 2.8693037479826705e-112], [41.11693807435364, -9.01591081648032e-113], [13.022673510937556, -2.6241698458361043e-112], [8.23130074198574, 2.1496183815982824e-112], [9.585359499617446, 5.088529361478629e-113], [3.207664931312571, -1.8873180121799016e-112], [24.781594875316774, -9.801123394579066e-113]], [[-49.196844846376806, -5.767393277219338e-17], [-27.00563129106863, -1.7206300239268342e-16], [-20.16743392057803, -9.241303273459908e-17], [53.55679388170841, -1.241825221175601e-16], [37.883653358697906, -8.376970223317132e-17], [-39.027553676377536, 1.6110831804754887e-16], [35.62629170173194, -1.1737792779630081e-16], [25.984485068319636, -1.8172646225816662e-16], [-28.556990339310346, -1.9853858955361184e-16], [-35.76750309117458, 2.1880717644900556e-16], [34.05458867743496, -2.8994651925056266e-16], [14.659352979534285, -5.43160494371267e-18], [83.17600501388242, -1.901542807174402e-17], [-51.7655094306016, -1.046094711032987e-16], [-45.37485148731537, -1.286049114797944e-16], [-42.059566571211086, -2.0322042803847616e-16], [-73.09749675821385, 3.5785898796748035e-16], [-55.86701093671649, 1.132981474507783e-16], [-49.82884628863159, -2.5949988983645873e-16], [12.370288476052544, 1.6179992606452209e-16], [-4.976068828376104, -2.0816721362355506e-16], [-4.552708893758142, 1.1494053093349626e-16], [-527.9788834192011, -7.291222482312172e-16], [-11.981850755799169, 4.7202376395249284e-17], [1.5006392653556402, -2.599584771877198e-16], [6.768311037836533, 4.3027780403444694e-16], [-63.87765432331546, 7.430857811362202e-17], [-30.614554274143845, 2.732192372595211e-16], [-23.70860182221259, -5.2260503143132226e-17], [-13.553700936736641, -3.9270169934461677e-16], [-37.33004848088831, 3.2869924966775677e-16], [34.79728638529736, 9.024928669677816e-17], [9.499718653245676, -2.186357129953193e-17], [-31.596455283475912, -7.281932955087373e-17], [16.50998608745149, -8.373853497850058e-17], [-27.347929529630953, -1.0956360078705219e-16], [2.16275462588923, -1.0140102436465981e-16], [-135.45812715175302, -3.3479402681134285e-16], [14.572560124637965, 6.399447733490788e-17], [23.28607757578149, -6.781241783154129e-17], [35.22600097322184, 2.280674944057248e-16], [-53.22235911720721, 2.1891013447275704e-16], [2.426212617747282, -2.679914654993444e-16], [-4.603038981014864, -1.7356576155798451e-16]], [[30.79468982262184, 4.640153981035748], [-8.398977036398833, -1.573374522124893], [5.242228512457125, 2.0267953183325136], [13.175304213853078, 1.824877793051757], [-5.852508340871827, 3.3948759787632006], [-5.812141273842768, 0.1993588219337339], [-6.9378899427308625, 0.471092608625584], [-9.292399281769708, -0.4436436244901928], [-20.205612509571946, 0.280258894710264], [-22.026330075254904, -2.635240403833758], [4.989506265501061, 3.2257769147977804], [11.57595420715386, 1.7363713326482841], [-30.453573129921626, 1.0996271937453599], [-19.35817746328719, 0.8621365149297224], [-12.510475108738033, 4.216965833695449], [-9.073355993816502, 3.1878069730486676], [-24.399783684697365, 4.959572531899364], [3.2589392330724833, 2.990573181620231], [-30.80133380235217, 5.279398490985377], [-30.29955706457754, -5.9980156944395535], [-30.629161736261416, 1.0487992576635516], [-4.048354337118809, -0.8871845059850993], [-1082.856145535897, 8.910839633325562], [24.908024197399453, 1.0781144871980157], [16.60651299806558, -3.7464737268113693], [23.493902052619426, -7.924956368139467], [-84.38746640127937, 4.181074425142251], [-7.337675664200031, -3.6168058144160202], [-10.352734946900195, 8.65195684539329], [-53.63542900227291, -0.1397632404621567], [-60.39363931148567, -0.04697889882896811], [-14.363647094686641, 2.572946821144757], [13.585892621320871, -1.0636905112617783], [-0.26746140891189896, -8.833821526945147], [3.8258543587582223, 2.1104023747622174], [1.9085815703220974, -0.4591917448962955], [-25.862060315101264, 2.719686580561201], [-103.55927316127983, 4.976688673094077], [-31.327000578702734, 2.276459773910066], [0.8426467100650515, 0.03362682636615821], [27.347953540623234, 0.5803422219887024], [-36.56639526281734, 1.1035727973713554], [35.51916314031807, -4.519721260184095], [7.569628694157204, 0.7253552259278158]], [[25.688163410566265, -1.7482268274808388], [13.905565970117312, -0.7567851117972393], [-13.170956176804689, -0.014374205867126844], [-7.800232484730526, -1.4095196003136425], [-3.166370233166515, -0.4664775235459502], [66.14557920664964, -0.4921397673530503], [11.83007338188527, -0.2061993336422724], [-27.024649984421696, 1.6192215548830533], [-16.311214132895227, -2.0370247053176116], [8.762333948953872, 1.36155957815004], [-17.339453224243492, -2.5503678857065806], [-15.42430313492943, -1.1331160141684062], [44.67931022250676, -2.0232582834064012], [-5.712231962725523, 1.6686149190055537], [-22.980812296639325, 1.1474739026632972], [6.61249998827748, -0.49259046378428445], [17.47417614691867, -0.26082246188803027], [-42.21223678356141, 1.96024878128913], [2.423523213713888, 1.985183943217847], [34.31363388734282, 2.2332334998012486], [-27.311609143560545, 0.9235187580026696], [-5.881890659320592, -1.1826275135703552], [-630.875848111474, 3.7818363782109836], [-26.029521894356087, 0.4687458812579009], [-35.276196501637365, -1.1632479109077414], [8.950146107673508, 1.8440574872264017], [-53.120853572992296, 0.29663076638737096], [21.57095181789237, 0.4327162781806818], [4.717098777106605, -0.6918593075293185], [-55.65874418837529, -1.020529998660346], [-9.388642319882106, 0.3115484937921217], [6.1514897181076185, 1.9097519230011573], [-46.09856849762449, 0.44149224364386974], [17.443772866122888, 1.5454484531151587], [11.625246910832926, -1.3752940768617372], [-2.647431336394954, 0.3721176839075615], [10.95171673173527, 1.1564890494154911], [-42.738223496997605, 2.6158433959887013], [24.332812989970776, -0.24774913016533195], [57.234303136820095, -1.0323282393429136], [-23.428253052035526, -2.4268347593630644], [10.43496274193143, -1.9796230908353671], [-21.45630904291274, 2.279928213689875], [31.605037449370876, -0.9706662361233842]], [[31.441244894628742, -2.4395715502916886e-08], [35.793343858840444, 4.325941923081791e-08], [35.858498857880434, -2.1810514219369324e-08], [-26.20803701502852, -2.0332188023757643e-08], [-4.886105305318055, -1.4168350145453441e-08], [53.53807587290557, -3.0683984401178375e-08], [-11.591104230688604, -3.724193522886972e-08], [-19.872720634331607, 4.6408712871105944e-08], [24.433356136772996, 7.885364934383163e-08], [31.97593718687222, 7.618266416480012e-08], [-59.16415675580658, -7.763828840889659e-08], [-7.257913099151416, 4.9714229548228926e-09], [-27.485921595136443, -1.7440826140467756e-08], [62.14164184383992, -1.960904679291866e-08], [47.10793570290508, 2.5294441590382824e-08], [68.63693409345167, -5.8818933554788807e-08], [11.789253464998609, 1.368695408933636e-07], [26.486965927701895, -1.9056785441046533e-08], [44.450779818506525, -7.158743246721053e-08], [-3.4838150265608903, 4.6507539428439115e-08], [47.51523370706188, -4.358630165234515e-08], [44.49109284521019, 1.6946086551975088e-08], [2.6483110009003443, -1.2082204905531002e-07], [16.46264304005026, 1.9669600636219673e-10], [-10.019315719773207, 2.5385031233498104e-08], [-46.8337774681921, -1.6770453395043881e-07], [-38.0713387860468, 4.203656720319602e-08], [16.976714701504044, -4.9944362775769316e-08], [2.0086000549913416, -5.592043681858302e-09], [38.265209700398614, -9.141817516242482e-08], [15.971397268648136, 8.746554346276148e-08], [-38.766028743268095, -3.291854008413233e-08], [-41.07176122806397, 3.7222379661195353e-09], [30.666418355949137, -9.685840846482086e-09], [-20.71639176721076, 1.9753249825893455e-08], [50.922062009522875, 2.2131261167009525e-08], [38.678665263948915, -1.5268067282238908e-08], [67.11285210603675, -6.147787906616294e-08], [11.043091820025323, -2.610515311592512e-09], [-22.32198445872873, -4.352562976008865e-09], [-61.639943471372796, 4.610325311780429e-08], [49.579168656468795, 1.56661987066648e-08], [6.1675293453556, -6.682918444969135e-08], [-23.45015302444279, 2.9232590793019654e-08]], [[5.003380409756228, -0.0003679896008829125], [4.90618155412336, 0.002830572921379502], [8.842491340497464, 0.002454361492031964], [10.02242209610825, 0.0017987103875165592], [3.871456214837369, -0.00011071062924524112], [-12.33934465470809, 0.0008142893256408019], [13.08422497834237, -0.0009009266763098929], [-12.680387189201507, -0.0006465340278439722], [14.650802620349847, -0.0007430655083386709], [17.394466841560178, 0.0014851354548905845], [-25.967482466717907, -0.001865913691626397], [-2.370440535054679, 0.0015541605681335547], [-1.137896962742788, 0.00029980548090649566], [-19.56816274026505, 0.0015383369897203562], [6.283288105914738, -0.0022642563010588077], [-7.462352080313755, 0.00019399298058250445], [-6.209739288013297, -0.003029258679971441], [-2.2585686620400103, 0.0003123405866564972], [-21.09722724910659, 0.002849581306801947], [-18.17364699622919, 0.00011756839987571243], [-14.09040237631548, -0.0005807381408820644], [20.827643852981808, -0.0019364510957282186], [-1754.6182227332608, -0.0023868266441306758], [-12.020632993200671, 0.002171818633238191], [-4.557135024976972, 0.0013304642645422591], [-9.726648485894263, -3.1545124386340106e-06], [-206.66831154297023, -0.0001609732003284974], [-3.3947264065407574, 0.0006842853618541104], [25.615887021677455, -0.0001841001002255698], [-16.974920606885963, -0.0025021624158072914], [-21.53233429254097, -0.0012676728554233156], [33.251797727392706, 0.0003432904887747226], [14.784061988010846, 0.001512414392183352], [50.635029760988104, 0.000662906956127605], [40.879735313236715, 0.001409536450274881], [10.236857560791488, -0.0009350451288189914], [25.87957714880889, 0.0012889038004458683], [-266.7591724000395, 0.0006134778542605264], [29.886841810233427, -5.4593516114693074e-05], [6.123765873404064, -0.0007685535499630582], [-17.472381172892383, 0.0019955293503090923], [6.259976414202183, -0.0005148887795894518], [-0.6865521334658325, 0.0013699142681145942], [26.340159858756778, -0.0017365769353197727]], [[15.82879604139432, -6.007152643475341e-20], [8.628180355797245, -4.7986093808385064e-20], [5.6815830546744985, -2.791490434019732e-20], [6.764027520386384, -3.7723143872712793e-20], [-15.60987752851569, 2.9595801023879316e-20], [5.02686984744289, -5.274542088904891e-20], [-12.599542111175234, -2.4962793397997654e-20], [-17.215950316750185, 3.4307590016490945e-20], [-4.576658786400639, -6.19703996867315e-20], [-30.266887112131585, 6.52421003078831e-20], [-0.019858578533095805, 1.0440034337480708e-19], [4.109201084947069, 2.8214598197833408e-21], [28.40832200341119, -4.2644314382821256e-21], [24.504158106482187, 2.8647137403337184e-20], [14.810574428085326, -2.5369850987138604e-20], [14.690041359326393, 6.036686648964589e-20], [-17.98636561894974, 1.055385920359266e-19], [18.591678715828902, -3.5294679676244085e-20], [-26.426867071365923, 9.16791719787887e-20], [-14.380420499371088, 4.345858869133556e-20], [22.788287537359324, 1.0573442537696747e-19], [5.738331308245461, -3.517774975313459e-20], [-1792.9320186404116, -2.2248538180235633e-19], [10.738661395438715, 1.82508005881857e-20], [27.55374612339353, 7.85106610576346e-20], [5.5149906774290685, 1.309049433745882e-19], [-183.43261987073976, 2.208844608427459e-20], [7.500068490079529, -5.115356170775942e-20], [-36.45195154652945, -1.5796552142509625e-20], [-14.013095035847522, 2.1762017750978486e-19], [3.4772049680848687, -9.730267973417825e-20], [-2.30955434788346, -1.9032415159579292e-20], [-10.234103242317598, -6.657697797764546e-21], [-5.730903423097144, -2.073154324432305e-20], [-22.516259058266762, -2.9611851278031763e-20], [25.03708930282468, -3.310321582155811e-20], [-9.239712110141562, -3.0739367570764465e-20], [-255.09181923807148, -1.018712113744576e-19], [2.623298193843145, -2.3084294525815303e-20], [-11.729217403195834, 3.402648060866288e-20], [6.453333982069709, 7.328396208709664e-20], [-4.3441755888619875, -6.193749068540189e-20], [34.8177574802911, -4.7662409131916987e-20], [1.9077314305915272, 4.515911492610599e-20]], [[-14.977457187340478, 9.344008180227529e-10], [0.43846889767653896, -9.868535998094263e-10], [-6.107188628273997, 