[[[[-1.794899810709016, 1.2561531652551063e-17], [-5.223159742708269, -1.3292839166919843e-16], [-8.282939085965117, 8.927732025427595e-17], [12.82696869294552, -5.645934797496892e-16], [6.188584160381292, 1.9741410888518146e-16], [-15.306395379744712, 2.212704541208093e-16], [-15.055398052949636, 1.7293237345075377e-16], [-16.65455091402827, 2.1479521419305814e-16], [-16.76179716715395, 1.2686992020632425e-16], [-4.000836838758904, 2.1137782568626986e-16], [11.907001988473402, 1.1409869870820702e-16], [-8.274796565193775, 4.20821423586525e-18], [13.875590361276647, 2.7895090257994766e-16], [-13.58834819470494, 1.95996175814793e-16], [11.948400197826643, 2.0365049889923323e-16], [22.849686438795885, -1.3449095348017172e-16], [9.291114533972355, -3.118144161433189e-16], [-42.536598875672006, -2.5154524665101575e-16], [-14.474947949140363, -6.850699453057119e-17], [-3.9828665881461265, -4.188983665078091e-17], [27.0743679392585, 2.280937364969202e-16], [-11.687219414634772, 2.305928281331e-16], [408.32978256450144, 7.85399981789391e-17], [-13.210582676547826, 9.557380632983219e-18], [6.914380198153263, 3.196920174859262e-17], [-14.673511680110447, -1.3752962005627732e-16], [-3.641006968435075, 3.774812155612071e-17], [5.088610817231696, 4.0366001672501297e-16], [-38.890409158307, -2.4924465221992064e-16], [-26.317202832700506, 1.362191362905996e-16], [-1.3986456740536048, 2.685066822411287e-16], [-19.547362175707146, -8.316106128951664e-17], [-19.116565672542656, -9.276054716835919e-17], [2.816579699908262, 1.3199641077628255e-16], [3.6595162753766504, 5.346230752205671e-16], [14.534159942354327, -2.940944844153063e-17], [-1.5274645497637342, -3.486147825718606e-16], [-12.252072731954753, 4.3785709022767745e-16], [10.75559413012556, 1.1595484302862127e-16], [-15.90692079346443, 1.16515798446652e-16], [-11.062149454609857, 6.499506045334433e-17], [-29.910913590530633, -2.0497814848153865e-16], [-7.075998860541607, -4.286475286229656e-17], [-8.487071266245248, 2.001546590571615e-16]], [[-2.2579491512375647, -2.762143107916075e-24], [-18.930796504181476, 2.4870752513890036e-23], [-6.727263834019127, -1.789887274218538e-24], [-9.292284959802117, -8.34275923910577e-23], [-17.943459338184322, 8.146418754154204e-23], [-17.48422474175608, -9.350700316828049e-23], [6.316342366508499, 4.0411707122182724e-23], [-15.752783748428755, -8.674272997248793e-23], [3.696312714905375, -1.9130871492124263e-23], [-5.88910389787379, -1.2606717525589092e-23], [-9.97406081646124, 2.0099918615168853e-23], [13.14167813037365, 1.1024846803782793e-23], [0.28108044706799523, 3.790414952293811e-23], [14.470331162746891, 8.091830804445557e-23], [-9.62421103949904, 6.668766397799261e-23], [-6.082131676335381, 3.950078739456829e-23], [-0.9312308695346312, 5.857392326982944e-23], [-5.621364888803065, -1.0187431767620405e-22], [18.6042461812564, 3.38761003360857e-23], [24.468506061969205, 4.9335572573715056e-24], [7.583217527126292, 3.35123414617064e-24], [-16.20156096091663, -9.225801123502223e-23], [186.07200322497155, 3.9130063458722264e-23], [25.730674235426935, -2.310696858851796e-23], [-10.998432208872595, 2.1223264557467575e-23], [-1.339469408415424, 3.1535764681538065e-23], [-3.815534970380849, -9.125365415410216e-24], [12.867238779876145, -9.060042260075058e-23], [16.067079491911354, -1.0145917270765319e-22], [-31.62700474232754, 3.735947966030263e-23], [18.161474388597355, 5.2504023375808364e-23], [-12.348305925960101, -3.9544463514066064e-23], [11.913365375588903, -5.981563232136091e-23], [-14.963139069986186, -6.642821589645122e-23], [2.23811796349757, -1.9565090142691273e-23], [-17.53284385778091, 1.2434172256572574e-23], [-13.879492706074245, 6.756547044906427e-23], [16.04164032933907, -5.406501326783861e-23], [9.785927158712042, 1.1629493400993598e-23], [10.005957469902132, 5.435354067080893e-23], [3.557172802274405, 1.0042046729300805e-23], [-14.434053690811195, -8.684531002731821e-23], [-8.8945605130412, 8.924164129682756e-24], [8.008113699629535, 8.08418114834256e-23]], [[-38.36529868019434, -7.400474416159814e-10], [-6.379689437848524, 1.5689060809634118e-08], [9.373155605066044, -5.976310045987e-09], [-23.517683352875586, 4.7804409212765224e-08], [-28.775525617748293, -1.6710312293685264e-08], [1.5140798263094877, 2.4252800548954272e-08], [16.281239252665138, 1.3605961371511589e-08], [6.570420004255601, -1.7529398840619034e-08], [13.83862673252878, -3.932173767561517e-08], [13.920260780946693, -1.7273798262974066e-08], [7.811158714879106, -2.262223089703091e-09], [-31.846190671666477, 9.87296507277543e-10], [-10.613722853112453, -3.611525653603677e-08], [17.315628539401327, -1.5349974591033432e-08], [-9.528108556981838, -1.6073314971081053e-08], [-16.98747951083628, 1.5877269510000444e-08], [-11.301650987121874, 2.9386290553149853e-08], [12.168670473328861, 2.53077703093817e-08], [5.430379494156072, 1.2614230458376145e-10], [6.690931577577597, -7.473903873362444e-09], [-17.88865293312639, -3.7822963976678545e-08], [8.53831423548589, -9.398698550264397e-08], [390.30471753303834, 5.802835435714437e-09], [-44.06511965282954, -2.7219321629709747e-09], [-8.42322694643715, -4.5567511511119e-09], [3.872175730439981, 1.4459632526276407e-08], [-17.07942284695319, -8.50858039559442e-10], [-15.182482473914645, -4.258159986277269e-08], [-7.07677638100794, 2.5474324623005112e-08], [-10.335534135427547, -1.1527625735755723e-08], [9.442460032904725, -4.339651098529785e-08], [-0.08623704685081812, -1.2604479509020294e-08], [16.03739499643935, -1.2169038851749636e-08], [5.006622793286633, 4.057617865472586e-08], [3.2625704714384964, -1.0820116635643477e-07], [-5.244586163885267, 1.4442422529258323e-08], [-7.723616197937368, -4.805172918749597e-09], [-2.676461280020039, 1.9710111579523672e-08], [-24.97649926561283, -7.114069572011435e-09], [-40.91886863531465, -8.916142142941268e-09], [2.324349607102913, 1.1643170189508167e-08], [-28.295073803169046, 1.9868958229705926e-08], [7.444059829441995, 2.3242740686467534e-08], [-12.300605135242636, -1.717889242775254e-08]], [[-6.650823546880563, 0.04791511571483279], [-10.29045263834552, -0.01784362850392811], [1.4795829619945537, -0.008662537804057166], [-14.635984526079744, -0.01565174962311093], [-3.655661888573042, 0.0033024430667306353], [-7.4823035700018545, 0.02286886718177008], [39.94206796891594, 0.04061320212713457], [8.99309871091097, 0.002109063389133006], [-2.894064940008742, -0.01797061179777132], [-20.032652036203718, 0.03839509495518116], [-6.159712355450251, 0.07548517735998249], [-21.023937946991957, 0.005339990895423792], [17.638339956659074, 0.043003061562729414], [-21.572600341883984, 0.0056460575533252505], [-6.4924337124490314, -0.015673323574967604], [-45.680261438329, -0.014585704793135597], [9.369275294140012, -0.08470966452654152], [-7.177967873235241, 0.01162391072872501], [-12.370588263733113, 0.009887987498218148], [-18.66058998313883, 0.004448271007005051], [4.601597399120439, -0.1345444834309667], [-11.667968212594769, 0.005124503100327634], [493.3368407073352, 0.11370018601531699], [-30.176859595027107, -0.0010492650289985212], [8.734678509931836, 0.016298472420682584], [-1.5332916879933096, 0.003868552435521576], [-29.410204470476465, -0.0356007048745873], [-4.207100780285929, -0.11505389025026062], [-25.82972730218833, 0.005252451038056858], [-7.479464656951248, 0.0343897603212984], [31.75871117083223, 0.08246630740494863], [-24.955959247674272, 0.03939215609909187], [-27.198292894182853, -0.043644772961264795], [-21.16985420983254, 0.015762138228713505], [-20.91508711395976, 0.028544070228282765], [-10.477521374176984, -0.016285223274622656], [43.85940246171317, 0.07507712607709048], [-23.72084414529326, -0.03175940034743208], [10.098412047537613, 0.05258789813758738], [-28.266200154904755, -0.00863255125691274], [-3.2709038307885994, 0.03436125498479108], [-58.915267104974745, 0.029421827351762235], [-13.478778415043248, -0.014355285549233794], [-3.4743900814124995, 0.029738242573975407]], [[10.639956022007787, -1.9390517856195205e-11], [15.893710642508292, 3.4052947462141e-10], [-11.015492312166776, -1.495894564434672e-10], [-28.23519065050015, 1.1197005242937893e-09], [-36.29297060503771, -3.9154992549593855e-10], [-17.559454322617672, -4.2577620921962284e-10], [-4.22749898510673, -4.796113992211527e-10], [2.9353410956739823, -4.1472894620427936e-10], [-32.73364627954484, -2.424688635296997e-10], [-26.44116694348875, -4.0863976120130666e-10], [20.566150675642547, -3.2555833608590574e-10], [-9.66655799362038, 1.4791878646670513e-11], [-0.6678140735966392, 5.332805124969248e-10], [-6.038505478875924, -3.6706005856004857e-10], [-26.06601329870792, -3.8362438520551577e-10], [28.61990703751996, -3.939864185656649e-10], [20.469095534563778, 6.658667711065452e-10], [-43.68724750641103, 5.683892324686513e-10], [12.55333848669165, -1.5747232958542867e-10], [-2.07015159249384, -1.3964595649548077e-10], [13.042451258599696, -5.794193263073693e-10], [-16.917908306154498, -4.530917268891322e-10], [412.0614982586551, 6.075828460466786e-11], [-18.223349084881832, -5.222583885467972e-11], [21.9150837017923, 2.183288051506116e-11], [23.527825332915153, 3.181791778602257e-10], [-15.999680258041202, -2.1223536503483782e-11], [9.59310352069447, -9.439971543678447e-10], [-62.93012457498501, 5.701582488550817e-10], [2.667882362643847, -2.7009547525815607e-10], [5.474866021773921, -5.112442488061528e-10], [3.9797119069276237, -1.9090611977731026e-10], [-17.303349356794282, -3.4370485938490736e-11], [-6.736217943096411, -2.2973571594177192e-10], [-28.065131883066226, 6.248547316705144e-10], [15.218553830016562, -1.1964573950119912e-10], [15.579126245206044, 7.654802181000461e-10], [2.4940602375858543, 4.603335254863426e-10], [10.435057832169422, -2.00342518164957e-10], [-7.856115623839807, -2.147141504295273e-10], [12.779171979814139, 6.270177865424916e-10], [-26.77971515032267, 4.4997797279063487e-10], [-2.7125718899131828, 1.3653913575580852e-10], [-64.51665451416753, -4.0113267665056065e-10]], [[-1.8047968053852088, -8.195260097984366e-16], [-1.4154000324742615, 1.9461766853839962e-14], [-14.817046355807035, -6.791790298244903e-15], [-16.079793144525922, 5.670398473905012e-14], [-22.815553054944733, -1.9826356051377503e-14], [-17.16517364128163, -2.119700146987202e-14], [5.121084164895641, -2.8436592911181776e-14], [-5.961591088171483, -2.0670257062010973e-14], [9.232321302858974, -1.200097876536307e-14], [-0.4801986009424268, -2.0371790270329435e-14], [-6.1028107784768535, -2.055518295601057e-14], [-13.486433026830095, 1.4293986022682806e-15], [7.537339309304888, -6.338232263049228e-14], [12.106464710004852, -1.7977750944180654e-14], [-3.214501995929836, -1.884771677740263e-14], [5.083850505201129, -6.974886439798321e-15], [20.879976247741386, 3.5567375753587494e-14], [-36.77452123204011, 3.0791381783978675e-14], [3.1071470964127634, 6.8875211262003435e-15], [5.769305584148624, -9.84280168073528e-15], [20.65948310240342, -3.297968722301404e-14], [-5.002342341475602, -2.282059758836341e-14], [206.97404666047734, 9.265775704254622e-15], [-11.074250040520946, -3.601553033832547e-15], [2.0588069999336143, -5.265744342115668e-16], [17.81848415977266, 1.7797973633412954e-14], [-3.3327932261180937, -2.432472871389466e-15], [3.5686571824624624, -1.0762854125307672e-13], [-26.4685529693989, 3.105654384789551e-14], [-31.522556107807105, -1.3679599406131911e-14], [-3.0841129103711142, -7.630370484485134e-14], [-20.710890447893213, 7.214497928632191e-14], [19.492065883078684, 3.334256619420336e-14], [6.974009872596066, -1.0716360438092095e-14], [-6.086171742583429, 3.124589102110683e-14], [8.411474574099833, -1.0081397371900086e-14], [10.42752831934725, 4.1583151812708516e-14], [1.052351924573515, 2.298729484986521e-14], [3.8802698045585644, 6.821504718614972e-15], [6.013975171624651, -1.039759597994942e-14], [18.87124681973319, -1.2482945322801934e-14], [-25.278086368939476, 2.405428553011841e-14], [-7.336836549228268, 8.646893020060117e-15], [0.809187740677768, -2.0425062692869458e-14]], [[-0.1840456060267282, 0.0014735101392742654], [3.357369562022273, 0.0006271148049842986], [12.007942148028777, 0.0025457166804006117], [-9.274226355149798, -0.0016885984292543113], [-0.2330539996850539, 0.001881507260512825], [6.630124534822691, 8.093292558755943e-05], [11.07223946941595, 0.0028527061574942806], [-15.248286142987014, 0.0001915662549702708], [9.463152654448933, 0.0033119140120516253], [-11.813029924545312, -0.002736867621981207], [12.554821110916606, 0.002065064324065022], [-3.3981483669893424, -0.0012567225006689185], [2.911352392116628, 0.00014940483998452715], [6.094361536274818, 0.002276826562534429], [-9.794598153366026, 0.0025810802559122054], [13.37517942976512, 0.0010966334022909788], [-0.6635417604551935, 0.00235425705417127], [-73.96566909401734, -0.0013860868685132365], [-3.9945334572062174, -0.000531511761621775], [-4.992893738676308, 0.0002307303552979053], [69.98827372478442, 0.007935371395901648], [13.137244045384413, 0.0012587960665477096], [340.3065242286118, 0.0036745223423686668], [-18.521915240465187, -0.0033142864819739257], [-9.5519773921169, 0.0009884368757314983], [-17.82314291735659, -2.912764782396016e-05], [7.50319147409781, 0.0005677976462416486], [50.241707695293734, 0.006465821951345738], [-10.133111698214666, -0.0002647282820794222], [-23.568332719649963, -0.0010172717228916644], [30.787253653300137, 0.0023616984068987232], [45.610055556430865, 0.0029815935770169163], [-0.7688532959510972, -0.0008933381056263383], [12.608132674533286, 0.001796761130115596], [-21.904381306628853, -0.0032497468314212543], [15.201577835077087, 6.70639365580707e-05], [45.03441156477693, 0.004730135125836448], [-34.96966967291687, -0.0029757097643772754], [-18.737349233813728, -0.001864356931855837], [-10.105710781753867, 0.002159124615544415], [-23.500049771427644, -0.0020848376315535837], [-30.484520797143084, -0.0007587050347878342], [12.665357657225035, -0.002101547157948714], [16.381951243531645, 0.0021302257585548165]], [[-9.284847978004986, -1.5630299800003075e-19], [-8.79169910118811, 2.0516019146698027e-18], [-18.737691792477975, -4.704300989492005e-19], [76.95737002339715, 5.0985658279309e-18], [12.257023902529784, -1.9801982380528142e-18], [-20.140052994495008, -1.7979701613012963e-18], [15.553732565159091, 2.5766325405069507e-18], [-14.17512112635319, -1.8932420313546394e-18], [-20.94946642258209, -1.2355084676452788e-18], [3.783572199985529, -2.1232158850143047e-18], [-3.62320602895186, 2.141060468692842e-18], [10.127260513776452, -1.5023286596334198e-20], [-8.205684870147497, 2.8289787505381446e-18], [-19.969822731660066, -1.2582878409535206e-18], [-26.408711527620408, -1.4824771963058327e-18], [2.5267500548024833, 2.2137364687007248e-18], [27.18302936575719, -4.3786532407146755e-18], [-34.79162852185272, 3.0639616584164173e-18], [-4.2665970046254245, 5.657325023105282e-20], [-1.0503907196838111, 1.0839493269897227e-18], [-29.564074865337638, -3.835260804620839e-18], [-19.020102459500478, -2.1639590603987614e-18], [371.7905760075084, 2.6726539578803602e-18], [-31.83732652129244, -2.2116661703250784e-19], [-8.879322574395966, 2.1301949323421428e-19], [-17.679728461248168, -4.0486089965927946e-18], [5.865041493514074, -3.798435062876008e-20], [10.424549676687214, -5.896771706948435e-18], [-23.03471178140703, 3.219554175019035e-18], [-35.99147833435672, -1.1874286889849539e-18], [-9.37254166247273, -4.402310502920491e-18], [-6.368850370800901, -2.5807091879964883e-18], [-5.386959414943658, -2.9320983900104555e-18], [-9.407200428405021, -5.719079466028176e-19], [35.384558055626904, 2.2947599884158436e-18], [-15.387093050313133, 1.4208055541608748e-18], [5.3397762011779735, -7.016600882870193e-18], [-1.2315134045552174, -2.882613160562885e-18], [3.428386484349865, -9.53592982395339e-19], [7.07485280833392, -9.627878642089134e-19], [2.8424044277315206, 1.441087649897378e-18], [-11.48109046254679, 2.287530748865832e-18], [-25.5231363992706, -2.7309964577795613e-18], [3.3347882233769552, -1.810573216207873e-18]], [[11.202436527744148, 13.567175552143741], [6.682509161516263, 5.24655334327948], [-4.896618533816161, -2.8916255507245108], [26.11352953564807, 7.099587170559829], [-8.722351158398205, 2.639145076463962], [-4.045318795939839, -7.1737556449987085], [-9.124110161337669, 4.753208431729553], [-2.3425540988080518, -4.24847989128224], [1.9932383078263713, 7.184304556437556], [4.162454707798728, 4.181085942780237], [-21.49497099998785, 2.350855332983703], [-8.346829041633265, 7.1567336316519725], [-35.98644761419505, -0.4440617154694837], [-11.16637023708032, 0.8429621875079153], [-16.96951576101184, -5.185459794560894], [6.292635316127219, -1.1401786650107115], [25.740068751219162, -5.139625598667811], [-14.02085993443468, -0.1573174106016897], [-7.882980327144814, -8.13539753772466], [9.457506905979553, -1.9966357829711985], [55.98124293833024, -2.690106881453527], [7.87624744495751, -1.732240879341047], [77.73858127478798, -12.360282980421108], [-11.565338591958538, -4.296329235126565], [-11.574860611465628, 0.33331441295179065], [6.835216992923656, 4.133084756412556], [17.803033745585665, -1.3574222687687585], [41.675049349076986, -9.171643258350135], [3.9283861553635253, -2.4376386102121463], [-7.945508321006798, 4.110531704188611], [-16.988896444991205, 9.52205746985445], [-17.646631334743663, 0.804184954473894], [15.088113633006397, 3.0903239168272987], [-8.822184046610383, 2.954891965946192], [15.553169602834664, 8.099012272874576], [6.361185551511224, -1.7395945848394243], [-16.37373083137809, 9.343389338978886], [-0.5094397201767018, -5.911731861732709], [0.9717059142995277, 2.0638363199222116], [-1.2572664491281604, 1.2653709215204398], [3.254191375268538, 3.2531351278376226], [-11.871587613647094, 5.48953263158774], [-17.82157200108398, 0.04102569478979157], [4.559881424509644, 2.988422006504544]], [[-8.790749564339569, 1.0146779745520163e-18], [-1.52270715364236, -1.0107538742074045e-17], [5.835719501287526, 7.303158925899745e-18], [10.607457778158915, -4.5080059881331634e-17], [-2.9497634080870214, 1.5720599907805184e-17], [7.156434555276877, 1.7746537682531055e-17], [11.9607387146786, 1.370682350907123e-17], [4.260379347118189, 1.7201617412562838e-17], [16.690472086637982, 1.01532806851178e-17], [-4.676061412517773, 1.688803562964505e-17], [-8.7076260872595, 1.1758920660452488e-17], [-8.532719947797759, 4.488370137751351e-19], [15.504848538148055, 3.3447220161714176e-17], [1.5808216762287783, 1.5817061346292793e-17], [-2.580868129015103, 1.639914909321434e-17], [-4.307637286657201, -1.0222409724689684e-17], [-24.186972937608324, -2.5897678556959106e-17], [-14.904636955057482, -1.9622306039470536e-17], [-2.673364975031556, -5.5001206582023565e-18], [16.698025037360143, -5.332318566151661e-18], [9.65970414371243, 1.7298760657845666e-17], [-3.476852106742767, 1.8407562379864383e-17], [89.06958408118825, 7.840998226404793e-18], [13.478025487845798, 5.638506742491544e-19], [0.29996081664329416, 2.7851020857822556e-18], [-20.221185475816334, -1.1721085115085666e-17], [5.199429925467166, 3.316680269703669e-18], [4.062270178813536, 3.1106253285153504e-17], [-23.058185544474302, -1.9382146125405865e-17], [-7.232977641499858, 1.086947853785262e-17], [-8.112856877392266, 2.0367941851400138e-17], [-6.523283608004876, -7.213843977236108e-18], [0.46875328807400307, -1.0995682730611882e-17], [0.2967581461343922, 1.0778191312301577e-17], [11.869929039618325, -2.5615499581826936e-17], [-1.3607910326777573, -1.87512302287459e-18], [-13.871285212538277, -2.920222411000612e-17], [2.5320571892865047, -2.4152176666168286e-17], [22.8330436390127, 9.452313188467592e-18], [-3.162521989157601, 9.38767876261343e-18], [0.5633129074106854, 4.831140441953338e-18], [-22.389520582154233, -1.6087134356787006e-17], [-12.75334378730335, -3.785521670577827e-18], [6.478372276900276, 1.5947134795735035e-17]], [[-16.8782100884654, 2.057074005093106e-09], [9.827828157118963, -2.984149499546124e-08], [13.75647551082921, 1.5265271439246225e-08], [19.543628244727334, -1.0704602648018882e-07], [-13.910736256011758, 3.744303317006673e-08], [11.533952286157131, -4.251691111185665e-08], [-11.132126164438668, -3.755919222280557e-08], [-9.82880349686487, 4.006158751913618e-08], [-9.756145555629598, 2.0090518114656633e-08], [22.30600944833677, 3.946792735784299e-08], [-1.4467521232332423, -2.497535661713016e-08], [1.9285721923110946, -5.780362670430929e-10], [-7.120420238429388, 4.788615380524206e-08], [-2.1312510406390186, 3.584507455412598e-08], [-6.872105732633665, 3.739050824768606e-08], [-5.2437544762718105, -3.206220874261881e-08], [-2.429238163204216, -6.139829989888611e-08], [-18.303022343620395, -5.188320160706722e-08], [17.24450501069533, -1.0442916109313135e-08], [8.595417368626071, -1.814128402930102e-08], [-7.537599288505301, 4.899878809856868e-08], [4.57348711931665, 4.0094120502534536e-08], [85.70964521292787, 1.7645390414678643e-09], [-10.768131348413892, 3.826484605807028e-09], [-7.804890513032894, -7.50294902066197e-10], [-2.5168504628469006, -2.8354670322713924e-08], [-16.040207130514315, 3.93991986418761e-09], [-7.530904437258586, 8.488290622518269e-08], [-6.664557981790352, -5.183738680142066e-08], [-0.7250232589110354, 2.5825783279014336e-08], [-9.924599257170783, 5.97709090006132e-08], [25.163938346864835, 2.2594683040701647e-08], [-16.907452467376185, -1.974480418443176e-08], [3.0425654262970396, -2.5356220942768776e-08], [-11.903734723920863, 5.9005630454147965e-08], [1.9710724070284502, -9.552484270166542e-09], [8.33610701387516, 7.08511373316944e-08], [3.0658393013171747, -4.387748513703389e-08], [-23.924580732427497, 2.026647565723594e-08], [-9.201309992387829, 2.111469849674075e-08], [-22.572829420795195, -2.0640135255718292e-08], [24.67564538270596, -4.1468544139843974e-08], [-3.672569606489708, -1.4365536987084611e-08], [-7.122165427532525, 3.821875421134141e-08]], [[-9.769373186687616, -2.189961058715394e-06], [2.9209505627452144, 0.00018271443391295732], [-30.41206470553462, -4.271476989650501e-05], [68.02504939481491, 0.00045552330338282255], [-4.295899268938825, -0.00016273644047106817], [-11.820699311792914, 0.00012353549395973594], [-13.61276922766948, -0.0002488832013795904], [-7.924041627132575, -0.00015910221390719043], [9.603523711837086, -7.429102821443435e-05], [16.381119869806465, 0.00017153269454800408], [6.907010274573564, 0.0001673042974132454], [24.49906256066056, 2.2978492057079563e-05], [-40.93161136184856, -0.00029834426826253364], [-23.714861824652452, -0.0001340668624155131], [12.93625268866487, -0.00022904462344701434], [-17.71976545866233, -0.0002234523875592929], [-24.175717713374397, 0.00030663320809067956], [33.446959767405325, 0.00027207986899274055], [17.552672451443765, -4.8552235854179725e-05], [-5.714988839464212, -6.438693514219304e-05], [-35.53566052412704, 0.00025005630553895706], [-19.8808230356182, -0.00016361546549358995], [197.3661430440195, 0.00014966722252679333], [-37.949510663879856, -3.836700202302877e-05], [-22.1081346556416, 5.5451287731649306e-05], [-7.968309735792071, 0.00016696203460651177], [25.38324055620842, 2.0818668760493716e-05], [-17.323047241464366, -0.00046293199501411275], [15.336023153655557, 0.00027962845721275667], [21.07851609243183, -0.00011355509077786588], [-38.649862042893375, -0.000355139077081479], [17.605737254649007, 9.561031107996986e-05], [-3.8172041560338204, 0.0001310217084689732], [1.0126012973948488, -0.00011448046165721045], [54.82648366002136, 0.00039615055787325346], [8.306741189801096, 8.917251854591456e-05], [-42.89702747365243, -7.202988679962384e-05], [26.222880264121788, 0.00019139872410170726], [-1.6982937958560962, 3.2442887035982256e-05], [5.322918051814497, -7.820023713590353e-05], [5.5190354475212295, 0.00013525104890241063], [5.621988985488723, 0.00021032597433758607], [23.40495547180283, 6.929484717926358e-05], [19.67471362655485, -0.00016403880467725317]], [[-0.556127061378214, -2.0307714495838524e-15], [-6.510959240210827, 3.536510667715548e-14], [-0.8833799146287631, -1.5614850558108195e-14], [16.38455854553193, 1.165911916543111e-13], [24.676069965514497, -4.0779034935356504e-14], [-26.919846999136727, -4.435806097875998e-14], [19.68833395661008, -4.965898934937419e-14], [9.263127291319845, -4.3203552205048495e-14], [-13.608435837349296, -2.526361194085873e-14], [-7.274492789124575, -4.256980192287535e-14], [9.007725702796389, -3.3727930462129624e-14], [14.457478320436044, 1.5084223846223521e-15], [7.920992154082498, -5.855677615895174e-14], [-17.460363515654105, -3.825167063888063e-14], [19.293638974005848, -3.997484450998129e-14], [-1.8797704902976111, -1.892230744107555e-14], [-26.508599493606557, 6.925431844687077e-14], [20.058140107835722, 5.910198459684117e-14], [-5.116921102884417, 6.985024432372905e-15], [10.991355628544078, -1.4216977111058132e-14], [3.5544329990352375, -6.019124619373275e-14], [-17.44631020567431, -4.719163660665184e-14], [82.97937039547524, 6.070796667968688e-15], [6.814555723775435, -5.400854036628676e-15], [0.6506242017563759, -3.1199895859487367e-15], [-18.71591095340569, 3.30564794933476e-14], [31.25385751856204, -5.1176177803031554e-15], [-1.9603072202764695, -9.925145347387818e-14], [-1.5052064975280994, 5.927868525515878e-14], [6.532091161705224, -2.8130172760747022e-14], [2.728921895250281, -7.107048698214515e-14], [-3.8710306070763374, 1.8583436472335514e-14], [11.16330601171213, -2.1068107074020004e-14], [-11.504883938513895, -2.396266375871082e-14], [22.99591878192905, 6.617492908087682e-14], [9.586036113474806, -1.3174739314074698e-14], [-20.4861379169706, 7.95872766184725e-14], [14.774510694173554, 4.7394571537169656e-14], [13.253924753967512, 1.990618705000283e-14], [24.96550917866055, -2.2382558925895913e-14], [7.82152158817862, -8.735531138971839e-15], [-5.435086169960667, 4.680333489982366e-14], [-9.418430939365766, 1.4140133498322386e-14], [5.87441843580283, -4.176781382609445e-14]], [[-2.1668456216145078, 8.834816769702607], [1.9416625775862189, 4.165422498654189], [-12.938402440017008, -1.82533855281798], [-45.32261699727794, 4.453089379815821], [27.972205403410435, 2.5470511919040826], [-32.015929899913104, -6.01188993096838], [8.142988015083983, 4.062916670449372], [3.0389812211898155, -3.218284586021225], [3.138815620406131, 5.945863558472548], [-36.191528868713405, 2.48099842178203], [3.680264046883318, 2.438305628082389], [29.19417857685388, 4.821001938455469], [2.4201420139641643, -0.0218941022137058], [-0.37620979270507804, 1.4235528651330553], [-15.18892634921366, -3.498363975366815], [-8.35975679166792, -1.1365662208143412], [-6.3305724334631215, -4.731495965652135], [-20.455065832276187, -0.39533025214944184], [-7.307423841211801, -6.416392961472152], [-8.184459821222228, -1.83938180895818], [-4.053509095539356, -3.9841876884747602], [8.402946216927383, -1.2233526703783713], [123.69751000061049, -7.510177369341527], [0.03281358992536587, -3.1200740579067414], [-3.851471363118193, 0.4145151270408562], [0.01582241032479592, 2.6958053536813167], [21.59626777410488, -1.3267261698539121], [-11.935360980141123, -8.27010540086539], [-8.917310515220008, -2.2215334514319216], [1.4398604114761144, 3.0073487648548234], [12.118605160041543, 8.584514580703383], [11.743515714889982, 1.1585034756347004], [6.02446733505241, 2.4354902399407905], [-2.7849604581347354, 2.718745177856234], [-32.79159546416527, 4.908983806934849], [11.412946527849229, -1.8500417091130092], [10.359618704237379, 7.931004738975052], [-5.656745580250117, -4.77678466680235], [-9.14480467731972, 0.8250682465079116], [10.42346549801572, 1.6493870081981634], [15.719057863558922, 2.4445810023948007], [-2.317481050176861, 4.104631424748347], [-4.376111772068002, 0.42341300780662783], [2.1044992115591747, 1.606575785548022]], [[3.0945697094758695, -4.3591059190017254e-11], [3.03486464642019, 7.745796929068192e-10], [-1.4287726577490938, -3.372413449977963e-10], [14.643532407160137, 2.5344998984866125e-09], [-6.131394699064353, -8.862519688996563e-10], [-3.544489923165592, -9.631042257902468e-10], [3.19594735017203, -3.344556408961217e-09], [0.6121832596611967, -9.381653717298451e-10], [-7.319524116440147, 1.2621377775305135e-10], [3.05851166101079, -9.237904496202878e-10], [8.17934293934397, 1.6166533350065828e-09], [-0.8189672031110784, 3.4665551651315984e-11], [8.671940293743855, -4.738954794159041e-10], [-9.870346235152832, -8.297857138162528e-10], [0.6122025428862952, -8.673363123224167e-10], [10.566723816306549, 2.536329799983743e-10], [-5.435163912015054, 1.5103527438766858e-09], [-9.405768660315035, 1.2899875041728764e-09], [1.2860265649237501, -3.61249401290689e-10], [-0.4412823037066476, -3.2103189273771333e-10], [-0.14934058013247378, -1.3176680825065181e-09], [-8.569742426541511, -1.0253483173039923e-09], [109.84777896754147, 1.4804020054123797e-10], [-4.984760075320134, -1.1980928074591585e-10], [-2.127025974185458, -3.5798001656590284e-10], [-7.361687837000428, 7.230867261181621e-10], [0.6977511582538121, 2.661880013506163e-10], [-5.632510914097252, -2.144412759351497e-09], [0.8449153332381533, 1.294292245136769e-09], [-7.547911122444391, -6.113413608341558e-10], [-0.8789223244969742, -1.4486128304971097e-09], [-8.286497679209631, -5.528894466093503e-10], [-7.035503909332874, -4.094408900952541e-10], [-2.0289053251369884, -5.184289018151622e-10], [8.631225005905224, 1.4122749838285264e-09], [0.44688461361591136, -2.765556886260025e-10], [-10.743101099864786, 1.7374820254496526e-09], [-6.943145059155799, 1.0421772491737115e-09], [2.8509147890377764, -4.32460014708043e-10], [-2.1748937606828997, -4.851708443777443e-10], [5.469152656998071, 8.42010289181187e-10], [-0.99989932596984, 1.020716292637997e-09], [-5.415790465878176, -1.6559888530977244e-10], [-4.069491303709913, -9.081388886830568e-10]], [[-7.579790764181268, -5.1204273921590115e-17], [-4.097440232668949, 8.454705852916175e-16], [-7.268540355447852, -3.8744954682084026e-16], [2.6809662257340685, 2.842889564199659e-15], [-1.333321542506525, -9.952973734293638e-16], [-2.4158596631010667, -1.085380165699594e-15], [-3.1824079206089912, -1.178079220568804e-15], [-1.3586851887108933, -1.0560548056280179e-15], [-1.4827190557111551, -6.181316406846316e-16], [-8.560334506984496, -1.0408181091432487e-15], [1.682190824014883, -7.866037304047053e-16], [-1.092983240222872, 3.1469157112375926e-17], [-2.8310439648387966, -1.114935272352545e-15], [-7.173696938785006, -9.375804636899794e-16], [-1.161495403829355, -9.792730895583182e-16], [-1.8699410735379447, 8.488975087849502e-16], [4.481602618820864, 1.6729397923526644e-15], [-9.78105923000732, 1.4262194297600838e-15], [-4.403958088916068, -7.404944051369476e-16], [-1.430821232242156, -2.8533846826159087e-16], [-2.242519910569176, -1.4403721288341772e-15], [-5.5604287978679805, -1.152333790089931e-15], [147.66392419929926, 1.0133063170103755e-16], [-4.944205326908506, -1.2370914814179901e-16], [-0.5172301673922683, -8.365307416690732e-17], [-0.22802423966390795, 7.91817700760349e-16], [7.200846985103013, 1.8554758176844828e-16], [2.259749132648363, -2.387954562864066e-15], [-5.286068134824215, 1.4291045492341808e-15], [-2.6923207879565654, -6.863331454623899e-16], [3.9270962921978443, -1.7011273102018914e-15], [-1.7855397336605727, 4.484095518424129e-16], [2.1093268178366897, -5.236481066917857e-16], [-0.9476026504799425, -5.908834465593228e-16], [8.389929973456073, 1.8064493698927505e-15], [-4.576100723234277, -4.600659571990711e-16], [-5.46546814862226, 1.9172518607753665e-15], [-0.15223987236596043, 1.0618939817445143e-15], [6.79761429211882, 8.717182115576136e-16], [-4.722473497604355, -5.497316549127972e-16], [2.681711126683996, -9.455586918171259e-16], [-10.035423781547017, 1.132402171892493e-15], [-3.008817115049095, 3.302926547353922e-16], [-11.913377229091488, -1.0170885097689454e-15]], [[-6.964315721130516, 1.8832650147734527e-09], [2.040220291412286, -3.435655447584627e-08], [-1.5110417066852027, 1.4663954290591802e-08], [4.23075773162435, -1.1120468000210723e-07], [-3.358585360900287, 3.888208791420752e-08], [-6.2622403902734325, -5.03585128935501e-08], [15.758946257698494, -3.5534581584684174e-08], [7.121960066574651, 4.110479783870592e-08], [2.6909072061921298, 5.897787212570118e-08], [-10.026422650532378, 4.0501724599921824e-08], [6.781241554718131, -9.71123935334581e-09], [1.3121950515236065, -1.6362336799006239e-09], [4.8360360674775, 6.888060745242588e-08], [-11.84715263814134, 3.630344106399452e-08], [16.37815420312407, 3.7956046033843506e-08], [-6.02587219082828, -3.5657747718594704e-08], [-0.6364917516731332, -6.657775244016921e-08], [4.913176661224637, -5.693548504406672e-08], [1.4526412856480007, -5.468831376309326e-09], [-13.195621916293693, 1.4570611990261266e-08], [-6.279902017632551, 7.152134760808381e-08], [12.08815577644478, 1.3702500198945262e-07], [-0.540770565493798, -7.528610893260408e-09], [0.863161409562852, 5.4141186849338865e-09], [-3.9725041002706853, 5.6936841251918515e-09], [12.812069379757848, -3.200880798381661e-08], [6.98223297048823, 2.7001782825221943e-09], [-20.42165519322304, 9.48205872321429e-08], [4.513466370488834, -5.715352578572839e-08], [11.275038290189862, 2.6821082894371103e-08], [11.454339608567391, 8.379579666063929e-08], [10.53286912770367, 2.705560771543276e-08], [-6.8916311130410435, 5.230906635096548e-09], [-2.551319227752718, -6.221864799541979e-08], [14.257586969774728, 1.6390504729052714e-07], [22.418574035292274, -2.2738432072371448e-08], [6.443722715118388, 4.079669357873755e-08], [4.762989776958568, -4.574601763146846e-08], [-3.445798058240112, 1.8301364839315878e-08], [3.8044601807455254, 2.1205958292591628e-08], [3.768963564106268, -2.4814741969679845e-08], [4.277378625532013, -4.4997156392254776e-08], [6.796438265753799, -3.605172696001008e-08], [-0.27867922065177236, 3.986146102120787e-08]], [[-1.2295759600582157, -2.54407882192151e-26], [23.251185512930608, -1.507054694071391e-25], [-3.599885801857166, -2.480523052206634e-25], [-13.986432916689225, -2.2797060315864712e-24], [-23.498559926542214, -1.1952951534348838e-24], [-0.027034374443314246, 1.4532432660182674e-24], [-16.043418093423487, 6.059351086518295e-25], [15.278465013102045, 1.3757986806854914e-24], [-7.309679939820537, 1.250447516696497e-25], [-14.255547377195844, -5.936221422937006e-25], [13.826579355553163, 1.4275630253286452e-25], [-6.760152229132638, -2.1784982237952596e-25], [-5.129888459073138, 6.707136288105468e-25], [-2.158956464514592, -1.5156959014658806e-24], [33.60505424261813, 5.549739311725287e-25], [8.482061920666997, 6.281014807687657e-25], [-8.65312545179186, 8.229426941272852e-25], [19.85349370819825, -1.3354174367708786e-24], [5.497574176903295, -4.967898797304619e-25], [-4.164770956718378, -2.433793957560663e-25], [2.2842850945537636, -9.744310490018202e-26], [17.617661216432904, 1.4284818724955038e-24], [76.32639337240728, -3.9402760692771225e-25], [-1.4223149441203444, -2.6951170950983916e-25], [-14.071252939429861, 2.4189632852287175e-25], [5.949321758769618, 5.474208210506903e-25], [-6.288591226478496, -5.687542193215293e-25], [-2.030692086535763, 1.1119089345763749e-24], [14.169399152603864, -1.2978299068207957e-24], [1.0068371385238972, 1.415016558661496e-24], [-0.7603111747740415, -9.083156730959573e-25], [9.9874701522452, 1.1811196188252398e-25], [8.239545440890415, -6.908303698501674e-25], [-10.230359470303917, 1.1232678147694435e-24], [-14.045273446598188, -8.223454792105496e-25], [-8.897035989119145, 7.665227641561068e-27], [4.050500386847722, 1.2491983803771414e-24], [11.091484300249803, -9.720269078551812e-25], [-9.82322539499741, -3.9383480204867706e-25], [-14.954794989180257, -8.2433580693248895e-25], [-2.2801845303802875, -2.603453635446658e-25], [8.774652106639449, 1.2371624896603341e-24], [16.260891407819166, -8.848433457740757e-26], [-27.818174377112186, -1.3022930674684637e-24]], [[-4.083770604711376, -0.25166757322725336], [7.442185689735753, 0.18600092536740495], [-9.823914410992305, 0.20791609803874164], [10.616926146424158, -0.42596360061289096], [14.359191155258177, 0.1350289854357395], [11.971367853721086, -0.26100236471034044], [-10.429593596279148, 0.03482436887005742], [-3.1989747986093393, -0.026455686532131817], [-4.983091587091147, 0.1504259672225485], [-1.4472266462675794, -0.2999937413893064], [4.5078990746994085, 0.04184576809822277], [7.212943548169223, -0.0632261009736381], [-1.4419305942851552, 0.04681639458855068], [-25.144090592743726, 0.2002459481544354], [-8.260215434019438, 0.33534364709373415], [15.690302653382812, -0.13239907449637983], [-0.39301206914593173, -0.1665967218737366], [-15.114268693539556, -0.10205158380401555], [-12.333574688457718, -0.06742678534768244], [-6.112463066646865, -0.2548718019184664], [-11.428783421490582, -0.4217025588167653], [24.302132816251827, 0.004192527161231821], [139.37994926999232, 0.5467284370045264], [-21.284387596996588, -0.009048182219429208], [-6.770000738863214, 0.11476108925200743], [-11.538939498980568, -0.11598796596261104], [1.6624587441817602, -0.11251703275378289], [11.371218987746131, -0.2910419355827819], [-8.145358578416985, -0.15697422006561176], [8.989651518066534, -0.06318666180592769], [0.04829818479460679, 0.22192474846308652], [6.645086945172999, 0.11771371252922247], [15.374336564017426, 0.03533030864697346], [10.345872667272124, 0.29253150664856903], [5.31318708452113, -0.2815354822622322], [-8.610015084332662, -0.16234271458815552], [17.681707390574875, 0.12935168046190645], [-4.883495830802704, -0.053418421575320875], [-12.241669826824376, -0.229054271731781], [-9.629885508855809, 0.15129013435358848], [-4.633976523302852, -0.10956488260407464], [-9.340219743921006, 0.024390145200655772], [-2.947661594665535, 0.08995578920784839], [-2.263507110060786, -0.3181044321253351]], [[-8.763076363656122, -1.6688748272149844e-14], [15.23158005842872, 2.505451209510776e-13], [-0.7566252370054911, -1.2461985587849371e-13], [-37.78436371845165, 8.84043638997498e-13], [-23.56737955211988, -3.0922012757750967e-13], [-0.8524526398406546, -3.392374492727153e-13], [2.3428718316825425, -3.2814026132254304e-13], [-7.006071778224056, -3.3023657374818276e-13], [-24.98904563932542, -1.937769640145659e-13], [-22.036002571527646, -3.253491162596522e-13], [3.260161418514423, -2.2337347187331014e-13], [-23.585327283953166, 6.030420408257884e-15], [5.547801944152483, -3.8958817713967816e-13], [-0.5917006823475083, -2.948989732461458e-13], [-2.788996234007823, -3.077197112711933e-13], [2.446798216510716, 4.955241241079837e-13], [-25.497092213475995, 5.104724288181313e-13], [2.988767389693663, 4.321893827161913e-13], [-26.94507841486487, -9.617988776978855e-14], [3.8924614001038287, -8.610763206518422e-14], [-2.0931293592382585, -4.275205235435582e-13], [2.259269297415969, -3.5881896354739396e-13], [97.00423643328878, -3.1294808198561563e-15], [-13.075131707234025, -3.337204671814909e-14], [16.254656767016073, 6.426491987508211e-14], [-6.289569070319784, 2.372818408747572e-13], [-23.740196912520723, -3.001830577588343e-14], [-6.873269286754016, -6.942386198544106e-13], [7.5193665690458245, 4.321359224540224e-13], [-27.11428091992379, -2.1328651534172015e-13], [29.9285362937051, 4.608967782145771e-13], [-26.039655277792324, 1.5244763288158682e-13], [-3.1413291184797365, 1.3833533622054696e-13], [10.850877133728462, -1.889992004325486e-13], [-52.36781487530624, 5.039015923882531e-13], [-2.693345101309197, -6.662752629640274e-14], [-21.608766757689487, 5.811132351105563e-13], [-30.351373409234345, 3.6245032182395716e-13], [22.21259770854399, 1.6274834579671953e-13], [2.9421849721276994, -1.734973236688092e-13], [0.8635230078089711, 1.4220784903035467e-13], [-17.066352391853588, 3.4480946408172555e-13], [-21.48745236987282, 9.34691953811896e-14], [-54.40546763443318, -3.158380509592181e-13]], [[14.140730338243557, -2.974293213276052], [-2.1429540566844985, -0.6691436030182648], [-6.762955297821973, 0.19607535389973066], [45.11064637873539, -1.1981173137129129], [-4.5563809144274545, -1.3093684457357015], [13.751898610163137, 1.0302087238808186], [-39.34784459779506, -0.6670525180335534], [20.593854169851042, 0.9203182033166379], [-38.21319237268247, -1.2823090316641796], [-9.148072997782299, -0.558002372594905], [-4.765451909095095, 0.15140366317465254], [5.229694399295663, -1.4373906293063419], [-8.919178466679792, 0.9498313904960768], [-17.483295331484268, 0.09343643416972874], [-1.5227589849835037, 0.836185307442983], [-16.40553854121886, -0.46374121994147105], [-26.51238254162253, 0.39647564709099037], [8.973524924518138, -0.7192948060045616], [11.267296652020631, 0.9931703227314137], [-0.6476728843268001, 0.025215539984656643], [-13.755253571991526, -0.1940788225656529], [9.586666257928776, 0.914929381000166], [241.6966775168354, 2.898161002974026], [-34.33381853892485, 0.3617094248812318], [-8.486937109387359, 0.04502509139639346], [-17.657201662844432, -0.17481833054106855], [-14.589620176231579, 0.44068376234394], [-25.562919930019394, 0.6423589120699496], [17.748123772898694, -0.46798404883950606], [19.926764580621622, -0.36634552961900957], [-11.848866246483954, -0.9187181537905804], [-45.378812271758264, -0.13677151702267706], [7.089588482632783, 1.3595095168682652], [8.514225195889397, -0.34414376208494285], [9.34823458558033, -1.2084966322754715], [15.895396257645759, -0.09627742795159563], [-40.2540461703717, -1.123425371225025], [-19.474396512608415, 0.5713095886978536], [24.288763561947153, -0.7512315226725901], [-10.293032441311869, -1.0518506817452613], [-20.355698339579888, -0.4482472718457138], [-5.052365230578598, -0.6125387715677404], [23.70738391166618, 0.7988264516843595], [-21.739711177844818, -0.5925539392125466]], [[0.7682486328537211, 3.5303056470206636e-30], [19.043785958536834, -2.9248450412217845e-30], [-5.654352913019477, -1.6032493037550102e-30], [10.209742940067423, -2.676429804520439e-30], [-18.043853037543553, 2.520325511311934e-31], [-2.578015843500653, 1.1599440981876347e-30], [13.20277161129462, -8.214908963648532e-31], [4.856757573848608, -1.6377040497127226e-30], [15.47989874839312, 4.0901881847833685e-30], [-28.941044417589428, -2.66318615506941e-30], [2.15793127196462, -8.495046063010203e-31], [-2.414670489326079, 2.3438380371577384e-30], [-5.631668477466778, -1.2819917919483998e-30], [-23.825983081001137, -4.9169724311660165e-31], [0.12237963202518108, 3.0461442781506042e-30], [-10.640082752420772, -5.871346657254241e-30], [7.2129868715366445, -4.982303153798937e-31], [-7.066021490738399, 6.164377783993706e-31], [-0.9921175094288157, 2.873540691738707e-30], [9.620895673348361, 8.194698824035661e-31], [-3.268651868817955, -2.2443426872805615e-30], [-3.810281601915146, 5.1203941914770825e-31], [96.23145159155267, 2.513414688521911e-30], [7.359886501076433, -2.5863599557526043e-30], [-18.03376474137231, -2.1368185152609515e-30], [7.896827324008989, -1.1620345988282934e-30], [-5.392569547979788, -8.307182238939266e-31], [-12.177468776534441, -1.0046075501021596e-30], [34.712386934386444, 1.3447369962764108e-30], [-35.860135625281245, 3.80398272331715e-30], [-1.005345956075838, 8.573370535330657e-32], [3.4864253640123377, 6.345626791349441e-31], [-9.284167121209045, 2.3267513012267246e-30], [3.548913054544496, 2.743906360709933e-30], [4.201069111290441, -1.5928007996353754e-30], [19.685806345387448, -5.939081135958597e-31], [29.082438335263234, -5.3319128677952834e-30], [6.226318093354679, 3.5195346191711654e-30], [-8.72514665893301, 9.39046877012106e-31], [-11.428832683443146, -1.5848475104846162e-30], [-10.15958642638444, -1.81435002600732e-30], [-4.024354255010552, -1.5450413135872663e-30], [19.930089477894906, 2.7246416688018234e-30], [-13.34468699212939, 1.986096183918301e-30]], [[7.732725227759806, 1.4250359233517154], [-13.164456828486932, -0.29553495094693644], [-18.595379307274495, -0.3976800780684898], [16.449175198438887, 0.799017180948511], [2.853559980023703, -0.5621282614956984], [27.462937238323683, 0.6895320836737205], [-2.40968548474612, -0.41429865560107293], [13.585544901067848, 0.02415326802767108], [-4.98834928425259, -0.5812277378262257], [1.8909851402763855, 0.6958767792152882], [-1.0667252772103704, -0.5369201628927358], [-5.17844696279798, 0.615937102622925], [-13.989717237151442, -0.20621489320304243], [-17.988907577086106, -0.7940161280739608], [-23.598159551702263, -0.41569327833467695], [-0.5120219301092201, 0.24063036586168882], [10.631512415623796, 0.7296839025889394], [-6.55728141060971, 0.28599162490791324], [28.498075499048586, 0.3436599949150376], [13.690927192203636, 0.3579027186617386], [21.221892378991523, 1.7539008191640688], [-2.6967960363023478, -0.07009814835965836], [-9.477631727836153, -1.5712355900835004], [-4.440406655130326, -0.09460764870631191], [8.249449541246333, -0.11585804658829546], [2.277455626581764, 0.41194387495216417], [0.9193313022456595, 0.22207650003815638], [14.70528639171835, 1.201110299855345], [6.991434401365131, 0.39914916502205977], [4.7342181586142456, 0.1228695398389193], [-2.412136419951322, -1.3160085835515607], [-3.2443322030119113, -0.4576544090198049], [-0.1976993955896529, -0.20897842931473984], [-9.975863961909798, -0.47376492626141303], [10.533744219011778, 1.1798682824056475], [2.9760340647029855, 0.5039800002636409], [-1.5802951229982516, -0.7950520696493775], [-0.6159427160010593, 0.30891651695601885], [25.824208461817978, 0.8193433010197883], [-10.152978646463213, -0.721305074439197], [2.9963182124365053, 0.05585596936714399], [9.422561702925972, 0.07390683502792887], [10.543380737698502, -0.4281213769157368], [10.434887930468554, 0.6634040530988762]], [[-7.19857370185876, -3.3841183055481423], [11.496304890359845, -1.3067072230139636], [18.447435308557456, 0.7289847267327381], [-26.640859752884698, -1.7758695093638934], [-17.423568416765136, -0.6573763296087098], [0.5221731673391663, 1.79402685975746], [25.176965943366334, -1.1959242456429808], [-10.536116366046535, 1.061757683583601], [9.971117624716817, -1.8035155356456312], [3.2415141319875937, -1.0444198966799236], [9.172459669789855, -0.5953452339208495], [1.8074084840842923, -1.79683285055654], [3.6588085074978416, 0.10102386845399414], [7.442077996628689, -0.21235223346772455], [7.974539345548118, 1.3021004983233566], [6.014145637607353, 0.2871358773825501], [-22.75916921070347, 1.281941204808853], [0.3994777831507737, 0.04561955852428651], [0.5676027926862186, 2.03586256004114], [5.338330617459526, 0.5034289196680876], [3.402462079072685, 0.6708369824731218], [2.0102745555780968, 0.4325391884347911], [-18.063432390460818, 3.1053909797810904], [-11.3068261936841, 1.072676583278778], [18.556695464563237, -0.09017157248300083], [10.448714205771015, -1.029183721828259], [-19.38240359109773, 0.3449142853662943], [-9.404187625549211, 2.288565402494917], [5.524839416779177, 0.6151585127958867], [-2.9284925803609116, -1.026079144156277], [9.365119019832672, -2.3836133493005525], [14.474356354475638, -0.20662681541171432], [17.240644519898957, -0.767921237831233], [10.93817057961107, -0.7424483125177456], [-20.271177280522007, -2.0244174855846957], [10.272418352559338, 0.4389845569954982], [-9.268210122054068, -2.340585366080109], [-14.921581736548099, 1.4769780362126677], [-27.86420853638529, -0.5116055304660436], [8.11107137460059, -0.31867023086395885], [-24.70953632664001, -0.8104848835295142], [3.5622175804077534, -1.3697267074411474], [-16.166232000991506, -0.008042417092755216], [-3.1564131504059403, -0.7450725393079849]], [[0.376388608159425, 2.0437781754968553e-08], [10.15093551509438, -4.39429728417133e-06], [6.3373226539379885, 5.551417672725167e-07], [-1.7583944579701067, -8.764990092244537e-06], [4.2616409613965835, 3.056116517579291e-06], [14.253286372708006, 3.2829700831880326e-06], [-10.650982889645285, -1.5094902016147386e-05], [8.89614658941484, 2.9812991081805793e-06], [-9.377554766132164, 1.312597898256289e-06], [-1.863962111252844, -1.4772012275259172e-05], [2.896401095965124, -4.148424524070131e-06], [-2.166074566823869, -6.49844348773424e-07], [-5.558293983414397, 7.226349936053641e-06], [-7.178652025517436, 2.391352445377277e-06], [4.0455003384530315, 2.5452772085332906e-06], [-7.747455581099635, -1.296596895053112e-05], [1.2449194804922836, -6.651642790396419e-06], [-22.940612653824402, -6.013520544293315e-06], [-3.0736542551848016, 2.9171034549417647e-06], [1.8677850769034026, -1.8882257895929508e-06], [1.6706715545650364, -5.925730686602764e-06], [-1.2823927709234677, 3.0768230223148987e-06], [-12.39096967950264, -5.297431284253651e-06], [-18.347728772745782, 1.149181223483119e-06], [-3.739440570235528, 2.5675978708154546e-06], [-1.6068855463263991, -3.8057332610745204e-06], [7.799023609696653, -1.0251934429243405e-06], [6.0213923404252405, 1.0808811340411881e-05], [-1.1132259799083215, -6.164166052143813e-06], [-8.408536788282646, 2.109345605574713e-06], [1.9156756664358432, 8.719114475959606e-06], [7.86112984143789, 3.986164430607997e-06], [0.6723046848455138, -3.1949927442026444e-06], [12.179990094296823, 1.5859726236943146e-06], [11.513256642784299, 2.2915208925402166e-05], [12.65422711426387, -2.3743465217510742e-06], [2.160396856828217, 6.339773587697499e-06], [2.789134255208079, -3.6883003889312382e-06], [20.127163975620558, 5.06483502382414e-08], [-5.550759807374718, 1.304539484713946e-06], [11.29779676311785, -3.3602578655879795e-06], [18.125862618179433, -4.510353378721887e-06], [2.6657342042416703, 4.240713213078899e-06], [13.966599543060006, 3.2204816597003696e-06]], [[16.856213315495445, 2.4873399174554e-19], [-6.103962178059048, -6.2268982252548725e-18], [3.7150479653407005, 1.9230513666745267e-18], [6.438605920867922, -1.703800145575544e-17], [9.252652303699081, 6.006251827642858e-18], [1.4560816031094923, 6.330713334082945e-18], [-20.43350228309225, 8.070041446343345e-18], [2.889281085140115, 6.185492945104822e-18], [11.517481905817501, 3.595782508437648e-18], [2.237125581374806, 6.111507714398252e-18], [13.488037330238667, 1.3132077979627744e-18], [-15.363034933567858, -5.082395615705379e-19], [-16.408967959797785, -8.44890910250718e-18], [3.8959827750825093, 5.290968386926653e-18], [5.996466790268391, 5.561304026866101e-18], [1.2627172341793982, -6.2292962005987556e-18], [22.536363906997806, -9.196589111209195e-18], [2.8871093942683284, -9.603430765318051e-18], [-1.5809544451841988, -2.4557617840200748e-18], [4.216362806380815, 9.767206424279624e-19], [-1.627813132715322, 1.0619739051696528e-17], [-0.0002828175827149295, 6.877492510524605e-18], [77.85049418426827, -3.9558759785796215e-18], [11.007173501285818, 1.242007359600344e-18], [-3.7288593591812993, -5.5021079471265124e-21], [-9.011479772533715, -4.225101724935408e-18], [-2.685818497020828, -3.4301008221893324e-19], [-14.870365096342907, 1.6734848813310447e-17], [-0.4985362758875383, -9.72399547892002e-18], [6.932643152733971, 4.131550756496262e-18], [17.96019782800076, 1.2556531411370974e-17], [-18.613668914452155, -2.130858155570438e-18], [6.918612737592532, 1.556989703438912e-18], [-17.465010595755214, 3.0518696423518414e-18], [-0.9413593587688199, -8.200677251289047e-18], [-0.07502381915501137, -2.7275411566200227e-18], [6.355450940405911, -1.0408646087934374e-17], [-16.827775493463747, -1.2508274926293586e-18], [-12.70555924567481, 1.9819340017262247e-18], [-22.157318011800665, 3.07283276670594e-18], [8.023022684756562, 4.7198084229182745e-18], [-6.193127883709531, -7.442537253259004e-18], [6.441977963971058, -1.9194196614618484e-18], [4.545363396692346, 6.1721450117030944e-18]], [[-0.9284162464294066, -3.1324507324157347], [10.869496628458334, -1.4927081470828063], [10.470558439928082, 0.5210686279977238], [-34.57077499752664, -1.3499059039605563], [-39.344543621626464, -0.792405316720247], [4.982986360039349, 2.0550292226196767], [-35.26292242025346, -1.2307486092160207], [11.94653466205996, 1.088213368317287], [1.928329515962949, -1.953941501835502], [-17.998032769565288, -0.7444261570629431], [26.58788201317931, -0.6371910007317563], [-31.14798539718285, -1.7336067495684246], [18.831224249205707, 0.05420748058610747], [-19.8104942861315, -0.4125981832365458], [30.646317960069574, 0.9667568495465984], [11.225080182605529, 0.41953495327704], [8.711242854777035, 1.4485379293995413], [8.997177060397586, 0.14767114461676928], [-1.3910081748452727, 2.1032893449189656], [1.2366164482618989, 0.7583007211975871], [3.5549010112175123, 1.0925395481927664], [-6.224159271434482, 0.4283466593257403], [-1.0551487671387423, 2.5586625425947065], [8.413070075044496, 1.0817247653427788], [12.51745197525386, -0.2049326611463432], [18.30928959942644, -0.9131957546247939], [-24.524075458002297, 0.45743131841036533], [6.976448792584422, 2.5796073343520547], [0.2334562445169036, 0.7721327351449931], [-15.381768254863708, -0.9628924835061796], [15.345621984072757, -2.6055380912150317], [-3.874069414399588, -0.324340528911728], [2.153964736254142, -0.8032515472920064], [1.763921014728613, -1.0349798202150013], [-33.64556193144886, -1.74288200055968], [7.305736613606145, 0.6013272713139145], [-21.373982022151523, -2.469937043468125], [-1.858311123369399, 1.530396459749764], [14.46201105691931, -0.28255125967161354], [-2.641830511819471, -0.4699603661704793], [17.762984835045675, -0.7009200000329935], [7.1950240578612075, -1.3941168508071176], [17.58905987495688, -0.0979982067857409], [-9.834375692323835, -0.4269681088912536]], [[-22.30043356360193, -4.854353368408997e-19], [-2.8277109464574983, 2.222987557194576e-18], [-10.291046341509137, -3.251876752480437e-18], [-1.6802754360067793, 1.684672578822803e-17], [-6.281831163073098, -5.874953094471455e-18], [3.7746310048064107, -6.848706842396254e-18], [3.529211001226112, -1.0745821112616585e-18], [-12.034965048462388, -6.643817915285943e-18], [-3.0613908137475687, -3.99222249899171e-18], [4.499382816135911, -6.556035771451486e-18], [-13.336779308715608, -7.886167754809178e-18], [0.08422915102313337, -6.625906278075189e-19], [5.79522940322208, 4.705516689611346e-18], [-16.253839137306567, -6.268833873340158e-18], [-13.990343086267924, -6.483390755420109e-18], [14.20421210853201, 2.339036625954033e-18], [22.829576578347563, 7.26180492420176e-18], [-15.293449841048291, 5.926993296878067e-18], [6.021494091278697, 1.4683640758880486e-18], [1.1666459177494521, 6.6371276960169754e-18], [2.60064701752274, -3.906893396438702e-18], [11.19415076874763, -6.954019690783938e-18], [76.95893062981322, -7.141603689104799e-18], [-23.071888035330506, 5.299270353492199e-19], [-1.9025158135117315, -1.6828206301078321e-18], [9.218912210370169, 2.9666395986477557e-18], [1.5637862758720629, -2.3429858387613936e-18], [-4.48813156081208, -8.528367991760069e-18], [-13.280064257363135, 5.7294511108657215e-18], [8.45528457564101, -4.024141656411315e-18], [4.338923285532495, -4.527007291433484e-18], [-7.220588484281362, 2.2111132294307317e-18], [0.2823374085460106, 1.0224422000133289e-17], [23.91295674674764, -4.608257774073186e-18], [4.223610171780417, 1.0526499111742703e-17], [-24.567064726096422, -4.745810552114174e-19], [3.966986687907725, 8.190631587339747e-18], [2.4229254782359457, -4.906998994093495e-18], [-11.813306594257147, -4.573483607377879e-18], [4.197406808077224, -3.83129398388264e-18], [-14.57353100911821, 1.2916353988974183e-18], [-0.36439030987289445, 5.122412254176609e-18], [-16.66852742078284, 1.593534934073331e-19], [-8.563869787306919, -5.8413409689364524e-18]], [[-67.98251502887129, -20.479269821167087], [4.539005264271802, -7.8023590338606805], [-6.566257122941482, 4.376848008357274], [-12.146024540460083, -10.671273617475812], [-2.6297420376630765, -3.9707159269283903], [5.274199386087161, 10.745207851460751], [2.8414097308158137, -7.069250462118545], [-17.374921203072475, 6.357375448687435], [-6.135188470970419, -10.738002085774582], [-6.377102291788326, -6.327773926900674], [31.455027382809078, -3.5829289345342286], [-18.18082579003266, -10.851129964358444], [8.925537820181358, 0.5744264889897748], [-5.019095127875699, -1.276989623120936], [19.845875155914886, 7.846174841573113], [-25.83249061250919, 1.6548374347624508], [-9.476076367550757, 7.752671628577897], [-21.8179705825449, 0.15807973570942613], [-7.9481142499741875, 12.168535971033963], [-5.166225565743616, 2.976443700481345], [-54.23108687885101, 4.090179667179151], [-10.858651516898764, 2.601029129557671], [166.4707445616628, 18.425095468239533], [12.485865183634049, 6.470358116196596], [-11.688819775972773, -0.5842709178600021], [-10.87851686064397, -6.228355726894063], [0.17507071555346432, 2.1227902234372085], [-60.5937827490078, 13.790627631225021], [-7.06912821204765, 3.609470356188643], [-23.068647167762904, -6.223485095473319], [2.653169170059222, -14.259708159845701], [47.53459852929437, -1.103799967917686], [1.1153357177703915, -4.58474027860911], [14.802493639136449, -4.4633235386775585], [-19.61997155094923, -12.202405497137711], [-35.58551657632728, 2.5496564832522775], [-0.4814012565331094, -13.975787320019064], [7.926111082431559, 8.921105374336076], [-28.00556410497744, -3.1565244315570418], [8.310781162508745, -1.8674299339858427], [-5.4595247217050105, -4.889454200258053], [9.863189093893004, -8.265876674945533], [-10.971413605028998, -0.12025612939982189], [-31.169203676261365, -4.517678213224273]], [[-9.335859225923341, 2.086887405921015e-14], [3.3811462859507517, -2.6924732021049764e-13], [-0.4593548769262261, 1.5164111890076491e-13], [12.029250511756036, -1.0233883916188903e-12], [-2.4562963783674285, 3.5802507449142657e-13], [-17.771185464517213, 3.961740707993847e-13], [-6.785419157482242, 3.7469373681165257e-13], [0.3434949315934795, 3.854392863533225e-13], [-2.976188563845215, 2.269573910912138e-13], [-7.887407555647416, 3.796905016290885e-13], [2.4346119234325534, 2.2033834731535498e-13], [8.99016102763888, -5.821448389370004e-16], [-13.43976522601394, -1.2530516312444365e-12], [-2.675957962644871, 3.471428663533152e-13], [-14.857133506341073, 3.616920177280685e-13], [-9.891190950444509, 1.0556207832936646e-12], [1.1869112142633595, -5.736219748247626e-13], [-8.77071792436415, -4.814960034985931e-13], [1.9422810073941936, 9.422566229428535e-14], [-0.18220970374023374, 7.23295573850586e-14], [-11.307646659371647, 4.608662682382933e-13], [6.696553058170348, 4.165876067867094e-13], [15.835941009432268, 6.164263949582492e-14], [-2.7226250692788256, 2.968740337450028e-14], [2.089724732393938, 6.866901112556026e-14], [7.889597774861567, -2.5887519760011616e-13], [20.612869218895266, 4.762785315889231e-14], [-2.9490038195198887, 7.945509004740432e-13], [-21.724853713537716, -4.797872764861081e-13], [-12.84932912986287, 2.469261817708429e-13], [-2.8674932898198118, -5.685264229973805e-13], [-1.5175899233042773, 1.2608651820955223e-13], [9.91037996400233, 1.1661266064718078e-13], [-5.724938284069025, 2.2741878752312285e-13], [14.6339623159627, -5.948338710797516e-13], [-4.803895123460577, 4.4941945448660284e-14], [-13.625649288138769, -6.463030304186356e-13], [9.449281205767857, -4.1870364529802904e-13], [-0.27432371812245154, 5.480946702918792e-13], [0.9102079356197715, 2.053366808277654e-13], [0.5149463492436479, -1.6062020501819894e-13], [-19.55138704446197, -3.872833801338852e-13], [4.630823368132611, -9.194063020248093e-14], [3.215268015925803, 3.64611312174777e-13]], [[7.2871729301656245, -2.295100821621271e-31], [1.3589610203322453, -1.7704026312902234e-31], [2.781135517499117, 3.1836628320424264e-32], [2.052842567435274, 7.843972098179759e-31], [7.741345223077624, 1.1228848754399274e-30], [-3.717886634969592, 1.2280788492625379e-31], [-3.430118048986351, -1.3244117815087778e-30], [-6.552725366988828, -9.838580944270868e-31], [5.955756449958739, 2.3700177950316704e-31], [1.5013729459165273, -4.867791030096797e-31], [-9.168471618713653, -1.390196816151518e-31], [6.212657728030405, -3.393527125974572e-31], [13.43421463925391, 6.950996753038691e-31], [6.181587107831032, 8.705481548808405e-31], [-6.874833853219232, -5.98144592063457e-31], [-5.412911309755945, 7.5351067050026674e-31], [7.783474232790135, 1.0395644176589947e-30], [8.553917203227568, 7.165326757126742e-31], [-6.610432997944474, 4.30924059388111e-31], [-8.306682939557678, -8.344561225745334e-31], [10.922616839830768, 7.496034404538797e-31], [-9.58718724125405, -6.55709978833444e-31], [4.023610146697206, 1.7654585377194502e-31], [9.746866456121229, -3.436198537479012e-31], [4.304897671959011, 6.69697006174188e-31], [-3.613108602301376, 9.91717425425601e-32], [-1.217894249221366, 1.2935916994446672e-31], [2.635425822426985, 3.75723380005029e-31], [8.627914121788889, 1.1842366092203372e-30], [-8.96318310104878, 3.451997850497451e-31], [-3.47120727486019, -1.2035143898828189e-30], [-0.0033873500044541145, -3.8028720489725575e-31], [-6.117196261945139, -2.6073252621854458e-31], [-9.468460551551969, 2.2257218435889475e-31], [4.076184248568484, 1.5019537006656055e-31], [0.6308599419114117, -9.991761488569713e-32], [-2.541341399385431, 5.181192242872106e-31], [-0.9837809464493851, 9.477838625192169e-31], [0.3626878742962275, 6.207686830209015e-32], [6.59299464983418, 1.5228745490299077e-31], [-2.635904474281041, -9.704919296072958e-31], [-3.3515705229787653, 7.547796417032651e-32], [-8.379441396680576, 6.841437643179523e-31], [-2.611030746005899, -1.0005624055938253e-30]], [[2.928778813582533, 8.405046245164145e-40], [-3.028235212633208, 8.661797057100446e-40], [-2.1305625161978465, 9.428516896707869e-40], [-8.473676088150505, -1.1600691389336437e-39], [-18.43581468943435, 1.529180848509845e-39], [5.1632277196455885, 2.4558689721694992e-40], [15.328402582876805, -4.8711444549887485e-40], [8.215500000865827, 1.2458740814807148e-39], [-2.4274767838452944, 6.594743768239953e-40], [-12.388922613401057, 3.845408350340947e-40], [-12.509890598982194, 1.3217311924404013e-39], [-10.79424036674665, -9.149691796133621e-40], [16.587300188883475, -4.097266506720873e-40], [11.742414643921942, -5.533029711944358e-40], [-2.425946193137504, 1.1041351622028048e-39], [-6.630418099456022, -4.841681538156985e-40], [-14.396220986963632, 1.3465897201975242e-39], [11.139431226002667, 6.017944692834955e-40], [-1.0558857277005242, -2.152692036140488e-40], [5.558010413640868, -3.739823556629112e-40], [-8.367906604227818, -1.8446824231592257e-39], [2.116167184896815, 1.0306372093464776e-39], [-28.740222609935227, 2.1293691082788055e-39], [2.3918550202536606, -8.43619295213079e-41], [-3.4201708874219325, 1.2013419815985757e-39], [-10.873843453969098, 6.245588104302728e-40], [-12.191972262307365, 1.2895588139718915e-39], [25.536118037461545, 1.2660836272772177e-39], [-8.418735788649247, -5.964313709777247e-40], [-7.434505742817559, 1.1078432041773486e-39], [-28.795689837597852, -1.9183392921344348e-39], [16.43824671776521, 4.423238290058604e-40], [-12.952703463551682, 8.999834872896531e-40], [-10.252521145435418, -7.426829585880665e-40], [2.916046175827804, 1.5359772654464178e-39], [8.543572645682852, -2.4909155677374815e-40], [25.19059161693535, 6.965930162403908e-40], [9.393627195779992, 3.1713836923574125e-40], [11.32863399494032, 1.5109045571397523e-39], [2.502512259967053, 9.04803975625046e-40], [7.385022146388681, 1.642312939817397e-39], [24.899103408368514, 5.1729908551271525e-40], [16.724768095784885, -8.485236316011186e-40], [10.182774907178795, 1.0094958584488117e-39]], [[25.02040132086952, 4.142341689511487e-15], [6.507829190281784, -6.528421446646334e-14], [4.041019860267271, 3.121926673086212e-14], [-24.36060175710171, -2.2515776638297592e-13], [5.275068586811912, 7.875387755381256e-14], [7.71718034090963, 8.615841105793927e-14], [-40.852682970083954, 9.019526456628119e-14], [7.1330719542051755, 8.388579978136169e-14], [15.837437668229457, 4.9166795731987375e-14], [11.249019911838777, 8.264807322483954e-14], [16.5007307191705, 5.960454698363805e-14], [9.80505030052499, -1.9885300726085074e-15], [11.15941564097633, 6.563707620690357e-14], [-8.186068851593673, 7.470120438599733e-14], [4.454368969696403, 7.798696552022832e-14], [-33.64455964579512, 7.02562712107886e-14], [19.34712231018962, -1.312405177255706e-13], [-2.8289298006469954, -1.1140854645257399e-13], [17.398925956649645, -1.0149688358272558e-14], [-24.846153473118477, 2.3866952598764577e-14], [-8.604046011205124, 1.1129894169776621e-13], [8.01601721821275, 9.130447132724407e-14], [-74.01479321120969, -3.3138388811852758e-15], [0.5589596351229424, 9.132116145349738e-15], [-5.822390725804015, 7.342613497013577e-15], [15.051847721630653, -6.155409902663198e-14], [3.267688397170211, -2.7542687806819915e-15], [18.6108084963454, 1.0982011105103585e-13], [25.99928918425217, -1.1151134483329027e-13], [28.875194243994194, 5.432238728811838e-14], [17.937939075402976, 7.740627608976289e-14], [1.0606648427068193, -8.415464819045399e-14], [18.668275417272806, -4.8732346128356377e-14], [-2.86168171497806, 4.7524670005359004e-14], [-7.373970728844596, -1.274345013374787e-13], [-3.346127099352484, 1.9285112791904547e-14], [-39.359131718446655, -1.4987827656878736e-13], [25.416993427201817, -9.242113186274883e-14], [-8.290679957279107, -3.887736770367065e-14], [-1.1162194470827893, 4.387129418014184e-14], [3.8673587672365826, 2.4169650866360096e-14], [-13.279295372192617, -8.86630795819125e-14], [37.06661881097271, -2.495712268325062e-14], [4.977801744961349, 8.051193862436651e-14]], [[1.918167938756988, 1.5648934683165952e-20], [9.15455375725262, -3.690619075295561e-20], [0.87381899669218, 3.0514734366350095e-20], [10.061744125117576, -2.071879653471777e-19], [19.03766030967012, 9.343437718168522e-20], [2.9763623990273786, 7.529533367578653e-20], [6.118060595379412, -7.973846284528839e-20], [-1.0287720236857125, 8.881338760779404e-20], [13.687327324445173, 6.732832538310179e-20], [12.671860062970856, 1.0328215395100075e-19], [-3.280769432066161, -4.9990825758308504e-20], [7.3757523406593615, 3.1058603611044296e-20], [-3.8458423683024394, -8.662509679719713e-20], [-5.785390358865911, 4.0308802553678744e-20], [0.09718668590311602, 4.8373089222791804e-20], [10.993177388349237, -5.745594660178661e-20], [18.51330807120181, 9.875406562230579e-20], [-19.303934976345147, -8.542930948904724e-20], [1.4684316279463472, -4.879155482922152e-22], [-0.08004005216125154, -4.985780673723515e-20], [-4.2266119767227845, 1.052322565625032e-19], [-16.762319047140526, 9.88185598797635e-20], [1.7144620740454093, -4.717217299626896e-20], [0.33321939402123724, -3.143652373396945e-20], [-3.935242931038494, 1.174462509350053e-21], [9.981403491192447, 1.029819172012808e-19], [14.457999289513316, 5.42841889619403e-20], [3.0254684979311723, 1.8185318493935707e-19], [4.588768482345655, -9.586366416384495e-20], [0.018443024248876783, 4.320456955332191e-20], [-8.877546304205731, 1.0381334546969895e-19], [-6.481496245182256, 4.54375639485454e-20], [3.8919612178824488, 4.530537433182238e-20], [9.753727183461574, 2.2179309986320855e-20], [14.76395047765795, -1.2191248701663613e-19], [-14.07969242553376, -5.462642127161873e-20], [-8.193698730111148, 1.610082641872041e-19], [3.701466867427948, 9.883914754043794e-20], [6.0972291563598935, 4.0731436646834435e-21], [4.229298822658087, 5.46638095309612e-20], [5.208554280050643, -4.1096811604685816e-20], [3.37521875762779, -6.474347209174291e-20], [-1.9985883278144547, 4.735781629544562e-20], [9.130458178094424, 6.430007189335216e-20]], [[-7.209598174054527, 3.3841183055481423], [1.0078526863836563, 1.3067072230139627], [2.0471756894581716, -0.7289847267327377], [-15.576125357750225, 1.7758695093638905], [-6.89005591846952, 0.6573763296087108], [8.650805746539511, -1.7940268597574591], [8.710205121081536, 1.1959242456429822], [-3.434805227661422, -1.0617576835835998], [5.03579739685532, 1.8035155356456318], [12.076298413949747, 1.0444198966799247], [-1.6615064777904478, 0.5953452339208503], [2.978823989335633, 1.79683285055654], [0.7026430203155798, -0.10102386845399303], [-1.3177388301069688, 0.2123522334677255], [2.034647075065854, -1.3021004983233557], [2.1160796988917143, -0.287135877382551], [-12.044862031231668, -1.2819412048088545], [19.0344051379018, -0.04561955852428795], [-3.3834266970830367, -2.035862560041139], [-6.4540081751905864, -0.5034289196680872], [5.42940316123808, -0.6708369824731205], [-0.9475949725626089, -0.43253918843478995], [-54.093874383086195, -3.105390979781091], [5.417216971189255, -1.0726765832787777], [0.08600494915991995, 0.09017157248300091], [9.277162124976329, 1.0291837218282582], [-4.087738432352813, -0.34491428536629454], [9.112194876316359, -2.288565402494915], [21.654338942692842, -0.6151585127958882], [11.318204493030155, 1.0260791441562778], [3.771121246648675, 2.383613349300554], [-2.2005179837645272, 0.20662681541171388], [-6.943821610256376, 0.7679212378312336], [5.09716574473146, 0.7424483125177462], [2.0583896145011873, 2.024417485584694], [-0.6405808656352184, -0.43898455699549777], [-4.5139027431203065, 2.3405853660801066], [0.47253605045358005, -1.4769780362126688], [0.10727694490124451, 0.5116055304660427], [-5.053300460702725, 0.3186702308639593], [4.784684144314079, 0.8104848835295152], [9.985224321371904, 1.3697267074411463], [3.5557665876692797, 0.008042417092754883], [-7.055736759517586, 0.745072539307986]], [[31.064714150084246, 6.563378250228141e-06], [4.041700318999229, -5.765813078091041e-05], [3.786681746026875, 3.660491348235008e-05], [-29.385381245188807, -0.00022788157446812334], [30.914951405460904, 7.059390057917771e-05], [-16.577207152368565, -0.00010378219132316408], [-8.311218814269811, 9.446613018368129e-05], [10.90873189158519, 8.808554091788762e-05], [12.222835748323384, 4.297549338244989e-05], [-2.1878855508346473, -8.371060438575314e-05], [-13.94790715025412, -4.470644854346114e-05], [-11.314367752406145, 4.370848805809465e-06], [6.238178604834256, 8.560261291578132e-05], [18.068850711241357, 8.030709133624858e-05], [-10.787947861294485, -9.338363616914717e-05], [-5.892473082363115, 7.623069013209301e-05], [-10.290635552334102, -0.0001271642815731368], [-11.580979621611313, -0.00010338221120379475], [1.0569266632793903, 1.9567342650930447e-05], [-5.179502587919201, -1.1828321871199764e-05], [-27.647906950150208, -0.00011467974732151888], [9.441276924676806, 8.328538720022102e-05], [-57.54820704920461, 2.5230199323984612e-05], [-11.00269498794979, 5.614161798071044e-06], [41.16490915916675, -1.2768944558763842e-05], [26.210736499467842, -4.979667555922197e-05], [25.16085840357074, 9.608097908709101e-06], [23.205068803273907, 0.0001760651499326399], [-13.359255455702165, -9.713581260824835e-05], [22.016466322763456, 4.587578453848142e-05], [-6.508974378635732, 0.00012255036053478185], [46.1933968401249, 4.836503493236606e-05], [-7.071523305990185, -3.377914317972277e-05], [10.910228065707523, -6.206735541846682e-05], [-3.6027501364419803, 8.536524706686e-05], [6.341529199718567, -1.2322423306459506e-05], [24.391994783851096, 0.0001503908321417903], [-3.9182184355857532, -9.110502772391399e-05], [4.896248830572715, 4.633545297519092e-05], [-7.8089483909115325, 4.311617668372802e-05], [13.680408015804344, -3.98461794690189e-05], [10.403933725776815, -8.201572386669387e-05], [13.718321327773916, 1.3363020560043838e-05], [-4.284307999561875, 7.997782314195336e-05]], [[-20.81014552326645, -0.09563681436386803], [-6.664594529063964, 0.04021981286959827], [-2.76428912576523, 0.02107719180978123], [21.30856829903532, 0.04661930639500688], [-29.086716677475724, -0.007980997845701986], [20.235034718291136, -0.04186298028494642], [14.069722338536424, -0.04695225098425519], [-13.960383547471082, -0.0001182318401320593], [11.620628139323602, 0.025113345090610847], [3.3203072761316665, -0.043441213230579076], [-8.019272175599603, -0.09361032856930035], [-21.62330554914176, -0.026126951413052348], [0.7541970787335817, -0.06113827409740111], [-8.442578293572222, -0.0019343228712918829], [-15.958517729522184, 0.0021083699092474695], [13.606689886964165, 0.01602095186231821], [6.201912313182937, 0.1135976495233923], [1.4815870923752046, -0.020306544260848658], [-18.01262428330346, -0.021681635038756558], [-0.6769820464481823, -0.019796285915498837], [2.72408734842019, 0.16545002491321054], [-14.199217513561434, -0.00260729979697317], [-41.69492764320777, -0.1668915696125267], [10.213438048136352, 0.0011778061729898499], [-14.216037946200501, -0.01998499027630295], [-21.886915876021096, -0.008852495378192125], [-8.721316737487296, 0.05754090302504647], [29.497134038015364, 0.14651689883254643], [-2.286989556153577, -0.013576145828384137], [0.6145093254793151, -0.04613795910874301], [-18.91958983360523, -0.09686614932826337], [2.8514499973238894, -0.05089811686926438], [-0.9423594829261923, 0.06206259338924043], [4.843142242802528, -0.0126856634997725], [10.73489032386857, -0.02549923913242202], [-7.047144566366771, 0.01739361566393361], [-9.150859102588052, -0.09322844050540786], [11.972092250658863, 0.037519768678204515], [-18.878399869159267, -0.08377981933426962], [1.6221842316887132, 0.02217833048754631], [-3.602951505348499, -0.04308188225654164], [-6.710306386939405, -0.04717003651471627], [-9.405887315286378, 0.01484985720232021], [-6.9500533721022295, -0.02834401256849175]], [[-2.2154853278774675, -3.6739797103095664], [0.05024193877745553, -1.9632599471541332], [3.019515449566296, 1.27330828846639], [0.8333802554543848, -2.3154166424304052], [9.913354620222787, 0.012058643081321532], [-1.8419176257271905, 2.5440106673410376], [-4.33038786715658, -1.857855529440579], [4.464514340981266, 1.2244682368515534], [-3.2679320781481, -2.3686561069283227], [-4.6999668617889, -1.5024224910500537], [2.247063998783174, -1.4006774495953358], [6.641471268912003, -2.109391808816476], [-6.187369418367678, -0.7555084016987201], [0.5428671452814114, -0.5133098619339055], [9.402464120106492, 1.7567606222920704], [-3.5750203072437103, 1.1229489478567065], [-2.661837524927628, 2.2027871073736165], [0.7279404633610932, 0.8981113186473698], [1.5783009764741547, 3.1027494419990322], [-0.8372586050046666, 1.0114946591229868], [-5.528028105017621, 1.6013922358499488], [7.554648014724439, -0.059315150362403604], [-19.434727649205477, 3.3600802443939193], [7.333917512174042, 1.7540958708297494], [10.250508249392874, -0.20800004301674738], [7.60686309116493, -1.8514343552928625], [14.207064174659026, 0.23426340630911727], [1.2639042359527726, 4.000051583631612], [-13.037652273688868, 1.7562774138489965], [3.5693511646062066, -1.65004796700395], [1.2468738351891022, -3.958349231062751], [-3.7133278368163465, -0.44916185982929674], [2.8739055041996857, -2.875300426387915], [2.7185896098259805, -1.15228558286222], [-6.826348833519022, -2.80275369892185], [11.717868384753602, 1.0699018200059143], [-11.338598522893957, -3.6855721849604492], [7.652028664722588, 2.3527609988891536], [5.848109725601459, -0.2476753328234499], [8.309957751113659, 0.38193914162518233], [14.003064243758335, -1.1935692081163052], [-9.223038830914454, -2.122290979985462], [-4.27552338017518, -0.7257971322586538], [3.5403221523043893, -0.8851757301974486]], [[-5.40665431197972, -2.66030951774157e-08], [0.03512152472104876, 4.4833369697466774e-07], [-0.4261226255330465, -2.035605772742661e-07], [-13.502347743503062, 1.50165225551613e-06], [6.042018088667825, -5.251068350865711e-07], [4.065718709628999, -6.178375733411877e-07], [5.046339494129142, 5.556064285617619e-07], [11.906620607593444, -5.574348307912179e-07], [-0.16444521794568417, -2.978893271782001e-07], [-11.934088471093512, -5.492362267143291e-07], [8.883111012479365, 3.6966319434340154e-07], [-4.791719913103453, 1.7285521402170694e-08], [0.9158760249893627, -7.299396237605128e-07], [3.89702375087683, -4.9455804342874e-07], [9.275458697651331, -5.166546487917226e-07], [-4.600691036599483, 4.785611189123556e-07], [-24.26416835397693, 8.860420387565311e-07], [4.991428150456275, 7.547106008273343e-07], [-8.730975655123897, 1.5725713632159994e-07], [0.2056433432654443, 1.3510970761159216e-07], [-7.285533420829451, 7.460682544226343e-07], [8.757010185130818, -6.139982974001522e-07], [20.903221976468497, 5.813512783734248e-08], [-1.2514348715987718, -6.641031682255623e-08], [-3.8229499509136793, -2.821679490111013e-08], [-4.674581019758808, 4.2036594835098966e-07], [3.804608987871209, -3.5111749994767166e-08], [3.0747421491034017, -1.249518311592808e-06], [-3.642907003729839, 7.564196099457279e-07], [12.000200268146571, -3.622067240786369e-07], [14.552878138466472, -9.054880289241536e-07], [10.130437682175744, -3.4950712952726565e-07], [9.30598593656507, 2.825526113441769e-07], [4.308358609189362, -5.471892600423285e-07], [0.15069313722219257, 8.026563346442306e-07], [-3.8209789768931826, 1.6637091599431465e-07], [-5.595351849698954, 1.1152429240374556e-06], [4.456056315105458, 6.169733587142918e-07], [1.3629958872896422, -2.597950817363294e-07], [-4.49634761859775, -2.8973620996404897e-07], [0.18310344592021796, 3.1532142288736756e-07], [-9.137592691517638, 5.987059895189672e-07], [-6.477196319824186, -2.407184375054699e-07], [-8.615899173796917, -5.375248129982219e-07]], [[16.368382393455615, 1.2689568641533947e-26], [4.056743277134914, 7.526647892126185e-26], [8.500859412837215, 1.2420869406427666e-25], [2.4366720646983473, 1.1396366350223867e-24], [0.5221120922238842, 5.977506426222749e-25], [-4.025410008361359, -7.264303153126571e-25], [1.0183767598739606, -3.027638681157201e-25], [6.846675581432047, -6.876355430934823e-25], [1.9042500496524974, -6.261021626766089e-26], [3.358694288061068, 2.97047144500945e-25], [9.697739048335514, -7.134475955154556e-26], [2.2281049274288596, 1.0919982581136116e-25], [1.8311172682575443, -3.3529570976667494e-25], [0.10551440542574131, 7.579476838428661e-25], [5.268524938681868, -2.773638778815735e-25], [5.392865219777579, -3.1448542947861527e-25], [3.8705254883674804, -4.116727432677275e-25], [-0.07981376095029818, 6.678143173917767e-25], [2.5993652489295624, 2.4868980348644634e-25], [-4.302699682455664, 1.2176994277776901e-25], [-1.3975276037863267, 4.8746430613722827e-26], [-1.6906616753027992, -7.141711184876993e-25], [-40.70382665188702, 1.9664536344424362e-25], [2.7376766691819876, 1.3516671616144454e-25], [4.8296054379479045, -1.2100382031232546e-25], [7.52852161612184, -2.7338272453950183e-25], [4.427748939860326, 2.8467625143605375e-25], [3.007550253776148, -5.563000617136378e-25], [-6.000122933157548, 6.486601797968158e-25], [-2.1284436394389714, -7.075914081804522e-25], [-1.6516998160833118, 4.538797032385883e-25], [2.005142623407829, -5.883594258000368e-26], [-0.4925727670706585, 3.450564643373149e-25], [-6.891859704203291, -5.61730001210387e-25], [4.594306097520507, 4.110908763177904e-25], [4.158713114050257, -3.6406822290337095e-27], [8.528762936221252, -6.240622921423356e-25], [8.702136639080324, 4.863398784735858e-25], [2.9708910168023785, 1.9672151398900784e-25], [-3.360340796525216, 4.123672441950061e-25], [10.20558211723278, 1.301508245009271e-25], [4.254635959873198, -6.187399972187202e-25], [3.1691392734643697, 4.426478666864827e-26], [6.25209864560636, 6.510232226126188e-25]], [[-3.1651609421907847, -0.02275829723422567], [-6.098145781657148, -0.015306969706347182], [-1.219058252028975, -0.017460711895574316], [-0.6639971404622129, 0.0017480668396324451], [-13.485961222063036, -0.0058877155659667925], [-2.43137622531944, -0.0020765051695212904], [15.16200170644399, 0.026029333004457707], [10.287866345988656, 0.001980139648320337], [19.00722798365542, 0.026711972231443178], [2.782739295227128, -0.004488523713900424], [10.863166209160228, 0.025815360009336395], [10.320972334044322, 0.02317399980475526], [15.95017627956804, 0.03167930652227571], [-6.887325166687991, 0.007179849730970039], [-0.7864377175712324, -0.016587517780912404], [-12.221089715382366, -0.005948552662934502], [1.5736101627509147, 0.010910812219958654], [-14.492072788964034, -0.020714410318150987], [-7.174048157194414, -0.006989108802189285], [-9.146209820499971, -0.013477919510776006], [-13.649360510034558, 0.010622920149873453], [12.063738172649575, 0.0029549900380672653], [-48.050551363668106, -0.04669542459097082], [-7.73518406486728, 0.0020522649127208098], [-1.3608846574289921, 0.022876671237937064], [-23.403975315122583, -0.0130985196027019], [-6.063244660967556, -0.017401157806920076], [12.386300923967516, 0.01809493345752145], [-17.616461859261435, -0.018300920099856458], [-7.332581770547642, -0.0056413996241571444], [10.003400985449142, 0.011652897509359286], [9.05945572780692, 0.019197641148505765], [1.209975482189135, -0.015435004280805468], [8.733009635523166, 0.013215127374072719], [23.928097441263876, -0.003214848336754084], [-2.8914251411473164, -0.013095590899423587], [17.651678519588366, 0.018251511288609516], [-7.95286076832358, 0.0007699332724612658], [-1.1679434111514921, -0.01520370750442321], [8.129488666855314, 0.009078893721610878], [-8.439812041725906, -0.010662025735158245], [4.094416742613587, -0.008971213058141582], [-6.8656229049802615, -0.008619390103336594], [20.344386473964978, -0.005195682760519179]], [[-6.034510294126759, -0.001803566773576661], [-3.035127492186699, -0.0004725906747217351], [-11.024490061443313, -0.0019899734093874718], [21.35912643389149, 0.0013646289620784225], [-19.406210717574588, -0.001824091656795409], [5.109183372849471, 0.00019506905941923085], [-5.289706788223706, -0.00163849081554191], [-8.918303633260685, -0.0008208149512264301], [-15.972970987100977, -0.0029059024442460203], [11.118143878143572, 0.0017634380171419107], [-10.014867384030936, -0.0013948783354162304], [-0.2938844369256883, 0.0013042166548452787], [2.6293554662595873, 0.0002936849931731843], [-11.465580600348359, -0.0020224534166684007], [-0.5535499625645515, -0.0017662420136378887], [-1.0959963877517622, -0.0007433217149915422], [-11.417402590692701, -0.0014221873960062296], [4.69874947947774, 0.0005857525938679341], [5.708040350537936, 0.0005469466539951103], [4.917076620936916, -0.0001859972072465894], [-27.7816813235646, -0.005215759924633688], [-10.535660982416342, -0.0012876904869749445], [-17.091598493360152, -0.00232932651865777], [14.487652437907274, 0.002446056631581383], [-3.4188648123467926, -0.0009791694964756735], [-1.3679628462995745, 1.8624898561164233e-05], [-7.0710472278386085, -0.0003867404605378913], [-26.04855243386068, -0.004189616495775867], [8.515050849736756, -9.543160926330581e-05], [0.5101718546107529, 0.0006692970219719651], [-7.83295854572499, -0.0017361570028940846], [-15.048234933223371, -0.0013397959034107925], [0.778174819205431, 0.0005238313762222878], [-5.422357797843714, -0.0012941005834548977], [20.60562884616376, 0.0021409852382140563], [-4.267428560521037, 2.0676289737257884e-05], [-19.453953084198805, -0.003089809576515753], [17.2000734588825, 0.0022858411679156023], [9.768185182693086, 0.001272348602670528], [-11.176006672837202, -0.0016308926325343108], [5.342011903052246, 0.0017055508540436922], [8.006926665959453, 0.0004705724624567612], [0.4295376749862792, 0.0015345685607881469], [-12.265927529998855, -0.0013097974715605466]], [[-6.297803732810681, 8.858843128376137e-20], [-7.819807526817258, -1.156886729494169e-18], [1.5195384571364752, 3.0718487790597783e-19], [-24.362186764801717, -3.0420599210728345e-18], [44.44367820170028, 1.1637666383545055e-18], [4.554117529652049, 1.0886982706217812e-18], [-10.36598918949168, -1.4321873758131143e-18], [11.355395864230681, 1.132202754041216e-18], [-4.174721217176097, 7.279736266515964e-19], [17.94970596856644, 1.2461937272337329e-18], [7.912577207185852, -9.914669923030607e-19], [16.069243069570174, 8.433064561003624e-21], [-9.51132861280644, -1.614625847510263e-18], [45.200075414791186, 7.930709382715542e-19], [-1.8201428429521282, 9.129931593599397e-19], [10.298857709426233, -1.2405159571558079e-18], [-10.844161298802778, 2.4999590348383522e-18], [32.80338137009397, -1.765520798407998e-18], [22.303769077284084, -5.360282431027651e-20], [9.751366804084316, -5.716997240724415e-19], [21.821848411283508, 2.1438466589323306e-18], [-11.869629631954245, 1.2831681028561943e-18], [-57.735475545275854, -1.318376859409605e-18], [9.971321430103579, 1.2268554635832322e-19], [13.28833793949043, -8.667305945571922e-20], [-1.394389986417317, 1.854682536301951e-18], [5.5915404020524315, 4.40377638736426e-20], [7.643860930851562, 3.3346922279077828e-18], [3.2348089300416856, -1.843479621952198e-18], [30.30092734968411, 7.117348606254126e-19], [10.677866481272318, 2.466761509499349e-18], [-3.0908588856241184, 1.1762819797068182e-18], [-1.660722274463854, 1.359310145558418e-18], [-11.100381428285154, 3.921788970222093e-19], [-24.363030245897654, -1.4148919324077847e-18], [-1.5495069221377413, -7.52648620042892e-19], [-40.14193441479269, 3.152157778414669e-18], [25.189800403613248, 1.6398760611767862e-18], [-13.33796701249529, 5.2232184207332755e-19], [1.980047429431271, 5.803514938302201e-19], [17.869705268664344, -6.793499129906548e-19], [24.724916735768385, -1.3310880003727382e-18], [-1.1634534543620056, 1.2777996082595468e-18], [2.6591948416893247, 1.079822428429926e-18]], [[18.81389629719746, 3.3841183055481423], [3.091915666821309, 1.3067072230139627], [1.5646958809014349, -0.7289847267327377], [15.902807966343484, 1.7758695093638905], [5.148550935254644, 0.6573763296087108], [-5.633972078510354, -1.7940268597574591], [-24.488137337569594, 1.1959242456429822], [4.1167288346324735, -1.0617576835835998], [15.99539117352664, 1.8035155356456318], [3.5389507301678726, 1.0444198966799247], [-6.987863121044324, 0.5953452339208503], [7.488691218760889, 1.79683285055654], [4.0709739891419385, -0.10102386845399303], [13.088701621454435, 0.2123522334677255], [10.6525321491972, -1.3021004983233557], [-0.707592028066677, -0.287135877382551], [33.900914584359505, -1.2819412048088545], [-12.467581677165269, -0.04561955852428795], [-18.622588882679068, -2.035862560041139], [-2.7231495280617164, -0.5034289196680872], [-5.410750218587184, -0.6708369824731205], [-6.254493534412593, -0.43253918843478995], [-73.44248295774263, -3.105390979781091], [10.983972812121282, -1.0726765832787777], [6.132762504719417, 0.09017157248300091], [-7.839452208324809, 1.0291837218282582], [5.62559838089172, -0.34491428536629454], [22.516708181348275, -2.288565402494915], [4.28595571570918, -0.6151585127958882], [-1.0139386937331758, 1.0260791441562778], [-3.7973326303002177, 2.383613349300554], [-38.33211858345474, 0.20662681541171388], [-8.498715758822815, 0.7679212378312336], [3.556470239178993, 0.7424483125177462], [1.2763086101622707, 2.024417485584694], [-6.780934924703063, -0.43898455699549777], [-19.44171747278001, 2.3405853660801066], [7.743699138715517, -1.4769780362126688], [9.004998945523122, 0.5116055304660427], [-6.841718755431005, 0.3186702308639593], [7.549147472107984, 0.8104848835295152], [-3.2846926631776974, 1.3697267074411463], [-3.477658919136031, 0.008042417092754883], [1.6160927436460444, 0.745072539307986]], [[-8.972216199512937, -2.143373924686662e-07], [-12.204843840665594, 6.687214841034676e-06], [-0.27740647709437954, -1.9443748452688577e-06], [22.020509250301092, 1.788540254174505e-05], [-7.321585873828872, -6.247121857401986e-06], [-2.333707987585893, -6.805446414657987e-06], [-19.596475309244653, 8.168543413800818e-06], [-11.410859334323309, -6.432438319906022e-06], [-1.5300469636046021, -3.078304148780896e-06], [11.43706472286205, 1.625208751012174e-05], [-12.047484534920471, 5.983755356899188e-06], [0.7981049670292956, 6.222449946551042e-07], [13.453591734453362, -1.089108879635156e-05], [2.1910015852783458, -5.514589305426223e-06], [-6.700160594865847, -5.796675072648988e-06], [-17.443014087625816, 7.0354362339387286e-06], [-5.0845328155909035, 1.167495246266124e-05], [-3.4397035243726757, 1.0208109563879734e-05], [3.2057301789899015, -3.653521263038699e-06], [12.203213560549376, 2.5365977236314634e-06], [7.656128639279717, 9.78222857842091e-06], [3.684995259811255, -6.570218271503543e-06], [-30.09212783421415, 4.450513961332612e-06], [0.6956434579096616, -1.3678370480361122e-06], [10.72083833246378, -1.956447195838537e-06], [-6.502283683775233, 6.031757829428343e-06], [-5.813538937161387, 5.181867226728972e-07], [-11.637948588176597, -1.754622129873157e-05], [-11.787720670828167, 1.033507962529914e-05], [0.5864775692506627, -4.310014503213236e-06], [-6.602327960414322, -1.3329689702558524e-05], [4.198385957031663, -5.637399112875426e-06], [-5.282195589289819, 4.639561491008136e-06], [-0.9084631053772353, -3.5456716172658426e-06], [-22.681348924122787, -2.3842102701199866e-05], [12.85485265139988, 3.0117252291778657e-06], [6.621103567603161, -1.267712671080677e-05], [1.599477082113783, 7.414642273598312e-06], [-2.1960411061944005, -1.983009776967266e-06], [-6.127150394912725, -3.1574986197270126e-06], [-13.338417239960945, 4.9054174135698076e-06], [-5.204461383730429, 7.90092670444713e-06], [22.40434533436224, -5.0009970866021615e-06], [-0.738204711811774, -6.4646621195204065e-06]], [[19.224298321710705, 8.600240126958912e-27], [-3.242045334457051, 4.0787374663901024e-26], [-3.158247154266139, 7.592793376475281e-26], [23.089786443030594, 6.610625159261892e-25], [-1.179861374010364, 3.6303302308421437e-25], [6.251496649169812, -4.345665874342204e-25], [6.545308476106834, -2.1487905363644303e-25], [-3.4942759299096675, -4.0508198542821074e-25], [-7.644792179482603, -4.903167349570323e-27], [-12.283513576757748, 1.6811044405177845e-25], [-3.904720773713572, -2.335465487339732e-26], [15.02792085068131, 5.543374300925132e-26], [-3.125637804113546, -2.2538401285963063e-25], [6.267150635858903, 3.779408349741836e-25], [-17.282872047706483, -4.029329388180166e-25], [6.927832949173245, -2.240105487810403e-25], [-22.45468406750615, -4.252823751680729e-25], [17.998928769259937, 5.817205546884495e-25], [-3.489746201301006, 1.562638046644049e-25], [-2.0685546626919478, 1.0171353114261326e-25], [-8.645051614709374, 2.9116157415619576e-26], [4.69045707539656, -4.271869807164729e-25], [-76.9799679898986, 8.500944246584576e-26], [6.474776970876607, 9.307614874738296e-26], [1.5932061677601548, -1.718422377686787e-25], [-4.566802708244714, -1.8266969552218385e-25], [15.121616502939816, 1.5416431158947103e-25], [-2.037066757911682, -3.742942724050032e-25], [-5.966658217286119, 5.673205552694238e-25], [21.111498016971744, -4.1059132391433257e-25], [6.991633394567316, 3.9745699892064295e-25], [35.07058060318786, -8.263229433610013e-26], [-1.7299152511410423, 2.533932293242382e-25], [-18.423268769631292, -3.1785560015556056e-25], [-0.6898843282725429, 2.160687074960052e-25], [-3.224057878802041, -1.4319825929264994e-26], [3.9054998721661964, -4.261498572749545e-25], [12.710178893912422, 3.2682811634479607e-25], [-4.285429538789392, 6.035160102936908e-26], [-3.0182870670945845, 2.4712051591819105e-25], [13.441870130366402, 6.39141527961924e-26], [-8.250957003104173, -4.0550959297479745e-25], [-12.003111755209991, 2.0697660434964544e-26], [-2.6771635968742005, 3.665080493520247e-25]], [[8.396082477077787, -1.310411221719262e-07], [-2.4314430057475254, 1.8421645352766157e-06], [10.41064108032468, -9.666550544372456e-07], [0.23883623487973926, 6.70861232122273e-06], [-1.4100526937884448, -2.346705860722655e-06], [-9.927173103558, -2.623305784660062e-06], [0.47590586202753066, 2.3243754167494314e-06], [-3.1320623143700925, -2.514964735870412e-06], [10.801958299402143, -1.2374691625271615e-06], [17.714942579195327, -2.477637957596697e-06], [2.876772417232436, 1.5383798088890763e-06], [16.283867487913692, 2.7575414585584866e-08], [3.1618356298473516, -2.946528606580704e-06], [4.021018491515226, -2.254228189834565e-06], [5.83971547595466, -2.350687821984795e-06], [19.34011778200848, 1.9819859689269494e-06], [14.13088031627916, 3.824529240679472e-06], [4.364525967171397, 3.2261903925161027e-06], [6.648261829849537, -8.485458780187374e-07], [9.74645837174505, 5.937466086633233e-07], [5.4217412037616155, 3.052323281675545e-06], [17.346909455369257, -2.463025735549578e-06], [-106.73963705576229, -1.887266411716792e-07], [1.8263707470664152, -2.2780275453517085e-07], [5.505359278237636, 7.6032196085708e-08], [16.40602898869207, 1.755688127929447e-06], [10.826438691325519, -2.6493242380097657e-07], [-23.29224932272589, -5.264231493003082e-06], [1.9738455112225433, 3.2211020795115033e-06], [-7.756752912883103, -1.6185848858454716e-06], [7.1133624429017175, -3.678870757229176e-06], [-30.487441703823162, -1.3853737520109909e-06], [12.349774450463665, 1.2186306672990175e-06], [-4.722891631288414, -1.363113911223963e-06], [-2.1108998914363903, 3.7372530786029587e-06], [5.902311417617092, 5.825088683612961e-07], [-17.071718634924704, -5.870028302012069e-06], [20.104417388041206, 2.7484458453191497e-06], [7.076296961299753, -1.2931996264215074e-06], [8.215809998915969, -1.3293571569072345e-06], [-0.10219157812873558, 1.269535148020813e-06], [-9.747192031824847, 2.5828399296692284e-06], [14.293745891950152, -8.437942204701177e-07], [17.382795445722508, -2.3938724096368445e-06]], [[0.9687133081790689, 3.577518862698744e-61], [4.90431210010074, 4.118811215813492e-61], [-1.2052315262928555, 2.576508183064943e-61], [1.8651831297762211, -2.2345283902592204e-61], [2.83131360798158, 4.30848664396604e-61], [-0.391908273263685, 4.033901009174683e-61], [1.2147029627818386, 1.2685380515170298e-61], [-3.208790732132801, 7.419016290616281e-63], [-2.895577458974047, -1.5037511791244772e-61], [6.181160560799045, 8.67964839338123e-62], [0.09183525706920936, -3.566564077589475e-61], [6.036110384788715, 1.7923156279714103e-61], [-0.6298290047757985, 2.5993698591656088e-61], [1.2080248887727758, 1.4095479118558544e-62], [-1.346675677027211, -4.5339252613811296e-61], [2.4368784580233864, 5.680262608183565e-61], [2.9525756781101595, 2.7696961244105657e-61], [-2.7993461878873243, -3.921837696798313e-61], [-2.382066821176166, 7.647713400440593e-62], [-9.222096010522062, 1.5735127305040335e-61], [5.118441083832583, 4.8670156763911044e-61], [1.071354482018199, 5.029182752007516e-61], [-13.522274976959116, -7.64691246817844e-61], [5.357594117575814, 9.23297567334894e-62], [-4.754479940153114, 2.08203466637283e-62], [-3.046674208833719, 2.2914835300444877e-62], [-0.2451983326107077, 1.8604998864288558e-61], [1.058212238808041, 1.605400583499666e-61], [4.3254213688301775, -1.1366953842013775e-61], [2.7593571538181196, 2.2802853246829403e-61], [-4.018986556903914, -4.819307793832278e-61], [-0.24263491602438192, -5.44531124711493e-61], [-3.916798128208235, -3.793540989551756e-62], [-0.48608645005226947, 1.3206459690187481e-61], [-1.121126241777961, -1.3505291256964417e-61], [-4.493055719780299, 1.8949201588666238e-61], [-0.29884689381297996, -2.4543319906909356e-61], [-0.7602161177994862, -6.103571006394744e-63], [-1.457782134925514, 2.681066673453838e-61], [3.3082158813903875, 5.332705215657736e-62], [0.28770047995256715, 2.463363000895765e-61], [-0.16130532183196997, -4.126218395684596e-61], [-4.417923923260721, -2.2512275445157415e-61], [1.32684047628628, 1.6310550727730394e-61]], [[21.535141700718444, 3.3841183055481423], [3.485703805069193, 1.3067072230139627], [2.915124903931787, -0.7289847267327377], [4.590597291753973, 1.7758695093638905], [10.907507608438657, 0.6573763296087108], [-1.1886012564900066, -1.7940268597574591], [-1.9902898869019814, 1.1959242456429822], [-6.38098923633591, -1.0617576835835998], [9.975359080661452, 1.8035155356456318], [15.330401963638442, 1.0444198966799247], [-23.014717650589468, 0.5953452339208503], [-18.256312380178016, 1.79683285055654], [-18.143841141523545, -0.10102386845399303], [-14.234435829366243, 0.2123522334677255], [20.010228026781885, -1.3021004983233557], [-16.73342247785297, -0.287135877382551], [12.558095461921218, -1.2819412048088545], [11.354427920427272, -0.04561955852428795], [-18.31675944865924, -2.035862560041139], [-10.587038955566074, -0.5034289196680872], [-25.499830960611582, -0.6708369824731205], [20.21328276324459, -0.43253918843478995], [-145.17393966377983, -3.105390979781091], [-3.2765729459848387, -1.0726765832787777], [-24.15611957558371, 0.09017157248300091], [-5.364087441895277, 1.0291837218282582], [-5.779815256138807, -0.34491428536629454], [4.44766256623773, -2.288565402494915], [17.958572283110957, -0.6151585127958882], [-8.532114902174147, 1.0260791441562778], [-20.71583136431673, 2.383613349300554], [23.603158651980664, 0.20662681541171388], [10.12643925815877, 0.7679212378312336], [32.703179163452695, 0.7424483125177462], [36.216298538635286, 2.024417485584694], [-1.6652980353827955, -0.43898455699549777], [9.281778986347478, 2.3405853660801066], [-2.0162901565928926, -1.4769780362126688], [17.121362705456374, 0.5116055304660427], [12.61381830989106, 0.3186702308639593], [-19.6468000507924, 0.8104848835295152], [21.188343102174727, 1.3697267074411463], [-10.052877259109883, 0.008042417092754883], [30.22912411972961, 0.745072539307986]], [[6.953244816426942, 2.1878689931456668e-21], [-10.209400185854644, -1.719638773426635e-21], [4.295216151089796, 4.786921769806485e-21], [-2.2675685110948454, -2.0607447216583578e-20], [1.882130700064411, 8.491461112384851e-21], [4.4650031101577, 4.0225200259413316e-21], [-0.45268303058936243, -9.047733516008632e-21], [9.705898987248807, 6.480686695575266e-21], [-5.907479294551212, 1.0170469299867082e-20], [-14.45802492317789, 3.824318667078727e-20], [-1.9714886525955517, -6.407004403512259e-21], [-3.8308671062989403, 4.9120880731689345e-21], [14.899295960907885, 3.0507800911925604e-21], [26.52708365223133, 4.391970440823787e-21], [5.370677606927618, 2.895961181236637e-20], [12.834337734970369, -5.526019077124094e-21], [-8.458018666738933, 4.8166021091845666e-21], [14.950110923305495, -3.3364563094768497e-21], [-4.773698548708348, -1.675972487426578e-21], [8.980001798350948, -7.975602323206632e-21], [22.252257563690986, 3.6005962857691955e-21], [-9.76921252139962, 7.655866718486701e-21], [-72.67720667576526, -1.4395215260070176e-20], [17.917507368329666, -4.628629922199169e-21], [16.172697039580818, -1.0766153337590829e-21], [-7.134089540989447, 6.32848781870157e-21], [6.088123909802103, 6.973785810019354e-21], [-3.112230934672058, 1.634112940187841e-20], [-18.162645430974457, -5.244376499731799e-21], [14.664821338459442, 2.4746128294501592e-21], [4.545098400641051, 8.52014373366149e-21], [-3.8888331044347386, 1.4879993634260296e-21], [-7.669465390486831, 1.4155451618457273e-21], [-8.471802756125268, -1.6602381220109532e-21], [-9.479290707836304, -7.324936307503196e-21], [5.298257986757053, -8.736489097571484e-21], [-10.408131221214592, 1.3907410109936974e-20], [-20.67467040665508, 9.564431736339612e-21], [1.5292367233097617, -3.9401581062016185e-21], [-13.07602269789796, 4.7857508328161146e-21], [12.110451581077623, -6.383004241390308e-21], [12.618907875531558, -1.5844031824090064e-21], [4.862470289816898, 3.391137165856963e-21], [2.5922688273029904, 8.455514198868743e-21]], [[2.951214404459679, 1.5080032749603108e-25], [2.5050887891416393, 3.4656735738929494e-24], [-5.882382027642274, -2.5182859714054602e-24], [48.41552223823032, -1.0866446453489352e-23], [15.233942321140834, -6.529057493289549e-24], [-5.875062187463826, 1.106895383328026e-23], [57.28073612667767, 1.8549846476054637e-24], [-12.950221682123928, 1.0436120636179029e-23], [-1.841171423303358, 3.543783508617019e-24], [17.0645817410549, -4.079597939328197e-24], [-5.747806828320095, -1.662983977238242e-24], [28.823186084924057, -1.323634424530138e-24], [-8.661652873225428, 2.5944707677911216e-24], [2.365644751307959, -7.272761371575576e-24], [-14.735649464767697, -1.0887468859798022e-23], [52.00864184050615, 2.349806794173725e-24], [33.717313325520315, 7.355930225932313e-24], [-4.56377740421855, -7.512308019165986e-24], [0.2017103928692289, -3.6695373021568996e-24], [3.664184857494642, -2.7280111239116384e-25], [-0.3107517300572629, -1.5797501932027648e-24], [-16.136958391416073, 1.0658956511277198e-23], [-48.68767092440128, -9.178075996533591e-24], [19.01308626062456, 2.4695063746308564e-25], [-5.463024661729052, 1.3574587270365618e-24], [3.2602689709229042, 2.0009766146969468e-24], [18.32330535237739, -4.0803918793574795e-24], 