[[[[0.09376144996755859, -4.041933490351421e-08], [0.007987487297087524, -6.044997832120056e-08], [-0.0029169374827835827, -6.603578991209196e-08], [0.00045701019850861725, -3.93789274504636e-08], [0.05121496414803781, -5.813879594029224e-08], [0.05377214382741261, -6.122688841292267e-08], [-0.0031717499587219293, -4.987037718671304e-08], [0.006616812778087767, -3.955419528285354e-08], [0.01303552031047432, -4.233996903080185e-08], [0.07479801750536695, -5.95650212766302e-08], [0.08076825894723673, -3.337302908608953e-08], [0.030862192334271954, -4.780990405528383e-08], [0.007577425475568168, -3.088712167551387e-08], [0.05790196866185567, -5.151901788136331e-08], [0.04875613378848536, -3.831160821531294e-08], [0.027432430611509316, -4.239213727655663e-08], [0.06591556719449768, -5.8215977123935855e-08], [0.07254132230795024, -3.489558979319959e-08], [0.02667219227372957, -5.0605479007969574e-08], [0.02890807277425438, -4.966068695970761e-08], [0.06803376662197824, -5.832712657982845e-08], [0.09171782627655554, -5.106700750649125e-08], [0.04989263947712196, -4.24795464977825e-08], [0.08898465128484487, -5.555343591694325e-08], [0.0672098567974111, -4.7856498651628774e-08], [0.07406438840928355, -4.808863715216458e-08], [0.012260739181130466, -2.9724784030178683e-08], [0.03491579642975729, -5.966801027404319e-08], [0.0016109173515976107, -3.617385827665556e-08], [0.03865336385837864, -4.6540303250074585e-08], [0.077180038750756, -4.428526793948458e-08], [0.05855570706155988, -4.3710251225686605e-08], [-0.00449770895102416, -6.351285510979312e-08], [0.03236369660081162, -4.83868716890811e-08], [0.013848065900163043, -5.147462659613715e-08], [0.07340057625239246, -4.930376448749602e-08], [0.06096327256479964, -6.272207882971342e-08], [0.08726261308019062, -4.370419988664246e-08], [0.04126345274254669, -5.296273971324453e-08], [0.07180610695406311, -6.152937899677055e-08], [0.04775646683714422, -4.8520623203197934e-08], [0.053638970466387055, -3.210986806747676e-08], [0.03614643664394105, -2.824093070540719e-08], [0.005068886632225095, -2.4750561880019243e-08]], [[0.05694908710907363, -1.0854004931751025e-09], [0.046653653118743095, -1.621878619333449e-09], [0.046581056247212566, -1.7713554655265202e-09], [0.05599337494949178, -1.0577524285286821e-09], [0.009148656946045355, -1.561343586080973e-09], [0.040563164748510606, -1.642435037911648e-09], [0.03754028770158848, -1.3370253870587495e-09], [0.0013718227742139412, -1.0617096467641943e-09], [0.07722470869525198, -1.135194597692046e-09], [0.04345549051030283, -1.6002608104762535e-09], [0.014163492446710918, -8.972687779174968e-10], [0.06289817426576239, -1.2849733315256376e-09], [0.05920740376387817, -8.282832030718012e-10], [0.06670208350170936, -1.3853436982455888e-09], [0.01191302199770466, -1.0276833529268716e-09], [0.09550352035777183, -1.139592648290306e-09], [0.021792798178679792, -1.5617371836660203e-09], [0.0938579323317627, -9.39099139098183e-10], [0.019428142014647765, -1.3615104349934843e-09], [0.04060502592744912, -1.3339434960656814e-09], [0.08401366649371678, -1.5646315440918522e-09], [0.058448396880750306, -1.3731902879532067e-09], [0.06795172089908165, -1.1413164874916309e-09], [0.015948502989483204, -1.4903229731067531e-09], [0.029871395196012045, -1.2848389639940726e-09], [0.04470055320311693, -1.2916577790260078e-09], [0.06172852917519425, -7.986293535321677e-10], [0.0774125313178187, -1.6038830854469094e-09], [0.07118459849749287, -9.71763000296577e-10], [0.09800424884556695, -1.2497925678249205e-09], [0.023164569790916956, -1.1908497786897262e-09], [0.03159857628833521, -1.1741006671349857e-09], [0.07003954500696644, -1.7035976988138878e-09], [0.05258103358291502, -1.299279578694331e-09], [0.022309592797042775, -1.3816337653748012e-09], [0.07815862788973191, -1.3230877695527067e-09], [0.037124178363112104, -1.6849679855176507e-09], [0.008201333915684948, -1.1731344338228935e-09], [-0.00046618696529002407, -1.4208943133925696e-09], [0.03698830006627916, -1.650597565261978e-09], [0.0015702994364784673, -1.3003637502871464e-09], [0.060604590795669905, -8.62000276767647e-10], [0.097934186495369, -7.601873585468027e-10], [0.027812740977610006, -6.636406744513525e-10]], [[0.04193015936022034, 3.2063950283596744e-06], [0.055683858990230886, 4.789937643822803e-06], [0.09425530364075461, 5.231021384169824e-06], [0.04694850937016452, 3.1249930276025305e-06], [0.08222739056834442, 4.613327452688869e-06], [0.027705950489989122, 4.8510677299923586e-06], [0.06744050849110331, 3.947272620782371e-06], [0.09744845733642564, 3.1363792723173506e-06], [0.021167867335296887, 3.3528979180427917e-06], [0.06197038260714197, 4.727595516361122e-06], [0.004309869132738054, 2.6511236930499955e-06], [0.062497814883039855, 3.7964707946558997e-06], [0.012015082570979966, 2.446739885076212e-06], [0.03937044725689855, 4.0941481924319705e-06], [0.06874452437098781, 3.0344725192503036e-06], [0.050467266314431415, 3.366529611985084e-06], [0.00992596239663844, 4.6150883851415635e-06], [0.028210529080849263, 2.776764867172545e-06], [0.08692368906987626, 4.023431640066976e-06], [0.011082495881564835, 3.941469023820326e-06], [0.014518022856765506, 4.62203575641257e-06], [0.001637314648277841, 4.055683502880144e-06], [0.008221877374279426, 3.3722325714967863e-06], [0.02748338278715083, 4.401330239518877e-06], [0.0574366004625074, 3.7944978147078893e-06], [0.02828572680448852, 3.816541597020386e-06], [0.013176837088481263, 2.3594654734220384e-06], [0.06454756984033927, 4.739725688285427e-06], [0.021988368871644817, 2.8710620954660165e-06], [0.026374884606808126, 3.692112708867871e-06], [0.046386337879310055, 3.5187555789886387e-06], [0.03215243619343993, 3.467686136554249e-06], [0.037796073587299854, 5.031718254472127e-06], [0.03773660905909048, 3.838265557563543e-06], [0.04760334129101245, 4.081255886152701e-06], [0.027348237032489026, 3.908797727242162e-06], [0.0399964558814512, 4.9772120854735305e-06], [0.06402301629217139, 3.4653960492008187e-06], [0.06329330792374464, 4.196896741916088e-06], [0.004254398886587078, 4.874664716156882e-06], [0.04770752115703467, 3.840156022705073e-06], [0.05683398455358125, 2.547268028546615e-06], [0.015930100135112073, 2.2476137755345515e-06], [0.000457732943613564, 1.959726951064826e-06]], [[0.03843316618477414, 1.0618060298833076e-17], [0.05750637091115993, 1.537064787363969e-17], [0.007613875673989274, 1.693021327162707e-17], [0.08917021671487732, 1.0368351725734264e-17], [0.05856074329873339, 1.5268198002309687e-17], [0.06567888135393948, 1.5654274218723108e-17], [0.08656957858950824, 1.2658966597207295e-17], [0.0001531919722625206, 1.0274280456760473e-17], [0.08932913261788952, 1.0726155044532578e-17], [0.002134355198753545, 1.5639478445394154e-17], [0.019275216205855195, 8.960074047422436e-18], [0.07145315870657383, 1.2600676109326876e-17], [-0.0014975393295126836, 7.912704103278949e-18], [0.020981772092175135, 1.3767240373581735e-17], [0.06499178868765311, 9.825470244818655e-18], [0.0059785134813454205, 1.1320666690983367e-17], [0.04898692805857249, 1.5131174268574017e-17], [0.014951782457738516, 9.628605393536053e-18], [0.0528687363080141, 1.3666066607557897e-17], [0.00712533991292403, 1.309895040513721e-17], [0.032354581532270374, 1.4982221235946045e-17], [0.021637268136985927, 1.3611283677107993e-17], [0.026931128953611, 1.1270938180953294e-17], [0.021686706762158395, 1.4133276372432436e-17], [0.031038687873121067, 1.2364431484268962e-17], [0.028108517681087575, 1.2697860852796367e-17], [0.07704593977459996, 7.803058771477696e-18], [0.005631216051858872, 1.5858136419399248e-17], [0.001685470244172697, 9.593398205070902e-18], [0.051026181933169525, 1.2092276778785448e-17], [0.023780375921107405, 1.1914305062068165e-17], [0.010450858540756275, 1.1428813208880017e-17], [0.02668485795979826, 1.622414531183109e-17], [0.07694597204326484, 1.2674337780440958e-17], [0.014530458802072604, 1.3320185086374695e-17], [0.05070020796467873, 1.275722292210997e-17], [-0.0029280066035697913, 1.6484226296241256e-17], [0.0220454364380367, 1.124798759134845e-17], [0.02912793045082532, 1.3569560603265807e-17], [0.019042894134218377, 1.5650987830046054e-17], [0.07724929612602065, 1.2159833043044254e-17], [0.05368358951408427, 8.411409160486101e-18], [0.017793227401633038, 7.825323822034732e-18], [0.04489091738722268, 6.2693919700475284e-18]], [[0.0072557889860303685, 9.76515675466687e-11], [0.03005145952835934, 1.449331287306786e-10], [-0.0017449097902141797, 1.5875508598364054e-10], [0.0006846369596111053, 9.519894578284262e-11], [0.054851576365368304, 1.4044382971507312e-10], [0.009368407401924156, 1.4693412979834817e-10], [0.08339874006808745, 1.1935664430021354e-10], [0.01135528648724724, 9.531280810122059e-11], [0.04459296228415354, 1.01329104960015e-10], [0.007023562403774329, 1.4405601657505828e-10], [0.02588037917405452, 8.105952467179352e-11], [0.03106027943470697, 1.1574930621122203e-10], [0.033415407579311454, 7.404276836137803e-11], [0.04749021936454976, 1.2512520352962013e-10], [0.03677272759922188, 9.201287093750053e-11], [0.003294937777537644, 1.0290979153129181e-10], [0.015300790320402937, 1.4021224344386898e-10], [0.0015460163382148813, 8.533962673665062e-11], [0.05497134575475457, 1.232319454348939e-10], [0.015557901103083431, 1.2005691950112668e-10], [0.0833320256584072, 1.4016023777831356e-10], [0.08796654409555087, 1.239453822102643e-10], [0.02286514495172673, 1.0285317947476029e-10], [0.07409858885754811, 1.3327952987925717e-10], [0.0081559351475587, 1.1531562806268525e-10], [0.0162343494279138, 1.1626604116041812e-10], [0.04910591280832702, 7.184425243750462e-11], [0.07592717741449594, 1.4481554574544594e-10], [0.07934649398714572, 8.756714192947095e-11], [0.012067745257496454, 1.1223361906387606e-10], [0.08815926604859903, 1.0771166407245199e-10], [0.0526417854434953, 1.0563704792142857e-10], [-0.00536537186734888, 1.5240396164205182e-10], [0.031372994671745646, 1.1677768228378023e-10], [0.025120929198708654, 1.2389122991411433e-10], [0.058886448779658915, 1.1862167042334953e-10], [0.045706557649113966, 1.5171252306318512e-10], [-0.001511580092307745, 1.0522923455458721e-10], [0.018491260521576115, 1.2711760107061993e-10], [0.04297542248252124, 1.4763201170065888e-10], [0.06847957099562235, 1.1586685901980644e-10], [0.04132274560834602, 7.749149954315318e-11], [0.031067734958948042, 6.913227585867653e-11], [0.0701376394096741, 5.9243313758319e-11]], [[0.02954611459644692, -1.5576795511893419e-18], [0.09547721133542035, -2.3400340988324357e-18], [0.04869871232629242, -2.5374325349479282e-18], [0.05887985325491108, -1.5138698281987321e-18], [0.002326650994023839, -2.2396736768265234e-18], [0.06849784333258711, -2.3606133482795607e-18], [0.0765244033285106, -1.9360295767498534e-18], [0.09442882079553093, -1.525514929575323e-18], [0.07106460243655591, -1.6507897135161065e-18], [0.08492974320759944, -2.28373674002645e-18], [0.09466339993877278, -1.2871197400296323e-18], [0.055823514232738146, -1.8336314858937064e-18], [0.08652776558685332, -1.203330674381092e-18], [0.05591394889975246, -1.9721868528022016e-18], [0.033716936744324306, -1.4857151301246803e-18], [0.006249126068493175, -1.6276823172819813e-18], [0.09716328893598535, -2.2461967383590717e-18], [0.08510244899210306, -1.340128024471414e-18], [0.052169949774585646, -1.941228860974254e-18], [0.05960689207818134, -1.9104284195148e-18], [0.012760563749942444, -2.247742247166674e-18], [0.057519929139878447, -1.9638632295479435e-18], [0.05016327568755498, -1.6344075106677196e-18], [0.016032921053290218, -2.1456892643369756e-18], [0.09727605593653864, -1.8427373742385322e-18], [0.057504294469291825, -1.852129030663568e-18], [0.004066175911696701, -1.1431532075673556e-18], [0.08927466139385103, -2.281574762958228e-18], [0.0028102974112694723, -1.3936003969529664e-18], [0.0858069420092039, -1.790916890156719e-18], [0.046658409330071364, -1.694820692536569e-18], [0.06395879470249949, -1.6808111371881441e-18], [0.05863471396407195, -2.451247892892413e-18], [0.04726733092308492, -1.865722735014421e-18], [0.007112674783431335, -1.9817165974229903e-18], [0.007918865976099592, -1.8952261009224548e-18], [0.07295806973106302, -2.4028320371573553e-18], [0.07782725506792892, -1.6798494998763728e-18], [0.0777957006294225, -2.049742683092207e-18], [0.01991684700570632, -2.3741702620949066e-18], [0.042733318737541, -1.889078602439398e-18], [0.00564904625973353, -1.2380766827329152e-18], [0.07451915698176285, -1.0890167555471436e-18], [0.03305319560474302, -9.660853385265429e-19]], [[0.05440473735324967, 8.493070960987562e-13], [0.07893268316340951, 1.243357448954717e-12], [0.086634727320943, 1.3658171498875494e-12], [0.022981224022106245, 8.283012608170323e-13], [0.08513110680734143, 1.2212474850018847e-12], [0.0341579368821926, 1.26332297617324e-12], [0.009423913583986525, 1.0242248580993127e-12], [0.03905016011620563, 8.249547321807571e-13], [0.02089559540883436, 8.68764799949136e-13], [0.06428857175930114, 1.2516267925979169e-12], [0.046870063977599165, 7.110493764853158e-13], [0.08204086026679534, 1.0070170399520947e-12], [0.08720079788963984, 6.377967451406051e-13], [0.03783513304426108, 1.0949738059127988e-12], [0.08709341502477239, 7.922647002991106e-13], [0.0862918588460192, 9.010672664677728e-13], [0.010268106986834101, 1.2139506263347497e-12], [0.04157674742857129, 7.576935347276206e-13], [0.08456095486647398, 1.0836225777547365e-12], [0.01775337316353551, 1.0458851747139316e-12], [0.0025750319975314235, 1.2071498360492408e-12], [0.0185309015616473, 1.0837355285349776e-12], [0.00969590978118537, 8.984181520580119e-13], [0.0428572868910705, 1.1435968059324405e-12], [0.03300552884401374, 9.953463169096816e-13], [0.07329290126118933, 1.0133036299190666e-12], [0.024200542971472287, 6.246897528060679e-13], [0.01642965730896546, 1.2645902323486634e-12], [0.020375504299668883, 7.644832465222456e-13], [0.08892602251835674, 9.71037153070083e-13], [0.09685683735603808, 9.45432573508444e-13], [0.008104200298941416, 9.163177780032272e-13], [0.057155676663290626, 1.309969185871513e-12], [0.08589286366402109, 1.014459296747927e-12], [0.007104632444250467, 1.0703057779100845e-12], [0.014424280097920598, 1.0248615833042354e-12], [0.09355630055652064, 1.3186783852822234e-12], [0.07920922071531016, 9.066998146860326e-13], [0.02964500033146647, 1.0943724119379248e-12], [0.06172627075286499, 1.2666640360080882e-12], [0.0900682597457515, 9.886260850113972e-13], [0.09948954223576253, 6.730547229314029e-13], [0.031707517038118874, 6.148689804821522e-13], [0.09072724986267008, 5.076323721101239e-13]], [[0.06708607190439252, 5.496820174632104e-30], [0.02952745878622871, 8.222858181275435e-30], [0.00030888472024592274, 9.034127359068803e-30], [0.07318641241195047, 5.350344217241334e-30], [0.050795865488825954, 7.910927633148363e-30], [0.0897112483181767, 8.32408135699462e-30], [0.0792838834199232, 6.711680598870113e-30], [0.031196820276715023, 5.379903848668322e-30], [0.02237822047157368, 5.704016344684429e-30], [0.03362276629974609, 8.18046039289325e-30], [0.06528812159628332, 4.513960957261916e-30], [0.01777180840805848, 6.576320651833034e-30], [0.029458472831647733, 4.129254578540531e-30], [0.037261790347119655, 7.062130129007428e-30], [0.008295273448173943, 5.19011192660218e-30], [0.08910019827853123, 5.806536665104777e-30], [0.04216644424331941, 7.890991704064917e-30], [0.054283663912684826, 4.762214790635341e-30], [0.010772289299427555, 6.942044512971637e-30], [0.016945640828936563, 6.755960066713717e-30], [0.010007102900045632, 7.907681219175037e-30], [0.042694101407421525, 6.976840281088335e-30], [0.07471496823629113, 5.7739347443116634e-30], [0.08295015858847314, 7.576519012458736e-30], [0.07929912385651751, 6.556981641028075e-30], [0.010804828493711716, 6.517703347689718e-30], [0.06763403540965326, 4.051977097844004e-30], [0.033364247114722814, 8.241665154431927e-30], [0.054385046213469554, 4.889861516745381e-30], [0.07731648890324928, 6.358612460760513e-30], [0.06413424720558893, 6.07853457497268e-30], [0.05137950105308223, 6.007005744353616e-30], [0.02009804477714204, 8.608087919436664e-30], [0.07975225655225619, 6.569796841366023e-30], [0.03367388223754968, 7.013626796400179e-30], [0.0039307567998961845, 6.693440078575938e-30], [0.05657063529358453, 8.641343653855313e-30], [0.04681999730576542, 5.957368043145161e-30], [0.025399142621250023, 7.175875425362962e-30], [0.06275218238519431, 8.418496617415116e-30], [0.06523557576499371, 6.539089399549421e-30], [0.06577892395146681, 4.333020659013025e-30], [0.01907900593087146, 3.812507718077869e-30], [0.004400250016271499, 3.312657712264782e-30]], [[0.028030220970095897, -7.932937959667133e-30], [0.02720763768494551, -1.1970043399904003e-29], [0.01818074385334545, -1.3127118673202294e-29], [0.02746697498808784, -7.717459400258306e-30], [0.025533950017496265, -1.1418143512076005e-29], [0.08594816491485281, -1.2093587803898151e-29], [0.01484036744601609, -9.757862560243602e-30], [0.0812908490238883, -7.786491872635605e-30], [0.034689209093637874, -8.292684633319482e-30], [0.05261744854201703, -1.1828149267488206e-29], [0.006580438068791073, -6.472038906138645e-30], [0.09503189528414752, -9.50295514939346e-30], [0.017833545362801326, -5.9807920310768376e-30], [0.014329605981905835, -1.016001570645481e-29], [0.026422937284973746, -7.52797061346272e-30], [0.09206579037534533, -8.351210506843573e-30], [0.03646719799807077, -1.1417141985996457e-29], [0.0006058699412688305, -6.784300789985872e-30], [0.0723467730194392, -9.965727663329785e-30], [0.06250659774686287, -9.735477840127542e-30], [0.028447960227764708, -1.1469627917044161e-29], [0.024957863971113648, -1.0044172957341266e-29], [0.013479972943587732, -8.309910052902353e-30], [0.04459270270706492, -1.102843968321993e-29], [0.01762921004320297, -9.518182876383829e-30], [0.06695381793919156, -9.388660770273404e-30], [0.08888007067028873, -5.855221592023489e-30], [0.0672762348434651, -1.1892377050940475e-29], [0.06723518322735358, -7.031665598620841e-30], [0.012379708651843329, -9.209452235913647e-30], [0.07326022205824648, -8.729001237122698e-30], [0.08687847456196572, -8.695361867601517e-30], [0.014390331637626945, -1.2503037677948352e-29], [0.07383194918563953, -9.483827865426152e-30], [0.03856191906545308, -1.0160323785627701e-29], [0.06721082919134659, -9.696243545437382e-30], [0.025566246678004795, -1.249614946635899e-29], [0.01002953877044247, -8.634579467393878e-30], [0.04477121951823161, -1.0419000796172674e-29], [0.08035735498289953, -1.2260677757406928e-29], [0.04821061082248471, -9.535061889199547e-30], [0.04854611172792096, -6.248185698166943e-30], [0.057626304064385916, -5.415599111331403e-30], [0.029693532119115882, -4.811960358651127e-30]], [[0.005052419145729895, -2.1104640924286408e-28], [0.033012242123175044, -3.1638619694692976e-28], [0.011041103120417964, -3.4740695829685045e-28], [-0.0003113286787169161, -2.0540292480351017e-28], [0.02325257901319837, -3.037106304183753e-28], [0.02865470047579505, -3.200243559277695e-28], [0.08353336997202064, -2.581154059804114e-28], [0.06486702607819649, -2.066700879504981e-28], [0.024848011001136316, -2.1928734020675398e-28], [0.051009675747505354, -3.142823096191078e-28], [0.0694586393469409, -1.7304550041494847e-28], [0.06616399770562868, -2.526164878080545e-28], [0.05495314904075388, -1.5861804600468161e-28], [0.031334801174362846, -2.7108243663413374e-28], [0.053851713059032955, -1.9941160185441717e-28], [0.011725657150411774, -2.2277356566781815e-28], [0.004914958087610379, -3.0309991586923494e-28], [0.09719190933999255, -1.8230612315733444e-28], [0.081769687299968, -2.663096565360568e-28], [0.06312923251787188, -2.5928789616680965e-28], [0.06860685552190411, -3.038439719101581e-28], [0.04783551712689766, -2.6781391813317e-28], [0.013352047369848285, -2.215132805558809e-28], [0.04649155413219249, -2.9144028055197275e-28], [0.04123756344059191, -2.5211951093161055e-28], [0.044373123805932745, -2.5015316910397206e-28], [0.0923571534279083, -1.5572037324897102e-28], [0.08504774145931211, -3.165542426482103e-28], [0.09174903576227787, -1.8752112403298936e-28], [0.0717296276096366, -2.443516788720066e-28], [0.010774663859474305, -2.3315898189423017e-28], [0.004873626129583829, -2.3081401797817953e-28], [0.013476314134199096, -3.309401698163698e-28], [0.08833201112299695, -2.5224636825258086e-28], [0.026602075848487554, -2.6950703140295533e-28], [0.04691602898190153, -2.572340245801342e-28], [0.08231106710537987, -3.320383072105295e-28], [0.028480832705157538, -2.288810598095229e-28], [0.0910825194186177, -2.759008004443814e-28], [0.0535220805896711, -3.238894865913321e-28], [0.002788558417114984, -2.5155025307464524e-28], [0.012794138474333595, -1.662951757769059e-28], [0.06459252938690256, -1.458334029629094e-28], [0.08042492917006404, -1.273070758504142e-28]], [[0.058524699567113245, 6.13496011776194e-20], [0.09325855399123509, 8.683240135286015e-20], [0.09215537025141252, 9.627993574244999e-20], [0.05513802963416864, 6.005055425376687e-20], [0.06906671242464091, 8.816321708120767e-20], [0.07723094791300911, 8.887893558047042e-20], [0.005362567389907567, 7.13843866809112e-20], [0.02243666106043742, 5.893194599020211e-20], [0.07222062979254078, 6.030984049750264e-20], [0.0017238469550301502, 9.041574227071705e-20], [0.01989943123161347, 5.235885946592788e-20], [0.07848734546310375, 7.301641687269522e-20], [0.08602689042940184, 4.4840022803078945e-20], [0.020202184790841345, 8.047174912153645e-20], [0.05665934363049436, 5.586188730417501e-20], [0.03920922270998811, 6.603921212427821e-20], [0.0042347670679457475, 8.681638873696047e-20], [0.06453827248271367, 5.729759665888521e-20], [0.0163754779879547, 8.028164762952826e-20], [0.053548799231264266, 7.594197687689651e-20], [0.04519198832631652, 8.540214678997233e-20], [0.08252874540194673, 7.930587532883948e-20], [0.032752114945649106, 6.547788240809726e-20], [0.07696476759067204, 7.988695476277868e-20], [0.04004543643720584, 7.066558917906218e-20], [0.035291506809359184, 7.361938270773067e-20], [0.004135784902019948, 4.508658922004021e-20], [0.055367373332129086, 9.235686412577701e-20], [0.03394060498754094, 5.57972251218196e-20], [0.04210666133174308, 6.940008465098276e-20], [0.07706825451000983, 7.003630583669616e-20], [0.09310154006758783, 6.577918228316536e-20], [0.09692703658059633, 9.20624917018721e-20], [0.007811865260965519, 7.305672770326222e-20], [0.033640203639071345, 7.63766320496863e-20], [0.011649216919445985, 7.31167386938702e-20], [0.07661766911432466, 9.544919571583204e-20], [0.007811863480887537, 6.418731118249653e-20], [0.049074626856068324, 7.709914358820344e-20], [0.09774276942228724, 8.851642816844915e-20], [0.013361506733350197, 6.788518157525102e-20], [0.09461591100035868, 4.858744429724459e-20], [0.03727369351199404, 4.6598919200627393e-20], [0.0858229338353676, 3.523739014302397e-20]], [[0.095709441031296, 1.8323584021878238e-22], [0.09386778057612391, 2.553914359495069e-22], [0.03428343409758645, 2.842687387130545e-22], [0.01750489621084914, 1.7969769410507506e-22], [0.08935434670595756, 2.6317683307518715e-22], [0.09781140349195433, 2.622383129937241e-22], [0.06711155232039144, 2.099434963747503e-22], [0.0196817910176295, 1.7516439050955208e-22], [0.03400379383812189, 1.7694448744009074e-22], [0.03490912757864244, 2.6983216433506387e-22], [0.00415274880485708, 1.5774951140875248e-22], [0.08274931886488876, 2.182267835451438e-22], [0.01720432505155183, 1.3242680755640573e-22], [0.07185748203176108, 2.420150476413584e-22], [0.035214774216371175, 1.6511540060160013e-22], [0.05650771538368501, 1.9826715915224493e-22], [0.08098180172709123, 2.582922229901908e-22], [0.024848243863158804, 1.743673838628073e-22], [0.08806862709735831, 2.422755722628736e-22], [0.0024162065128791495, 2.272219926172604e-22], [0.057677576192917863, 2.528028709539858e-22], [0.045992919711922375, 2.3814243276599327e-22], [0.018539128778321902, 1.9617330721078727e-22], [0.026026380211901585, 2.3499848556703864e-22], [0.01849785965220028, 2.0936402538336349e-22], [0.04214953206728214, 2.2039473718226565e-22], [0.008184154098492935, 1.3461103632172857e-22], [0.03597370472510716, 2.7674967527495747e-22], [0.04817710904178212, 1.6748460595950691e-22], [0.0036832914224390976, 2.0619413023637445e-22], [0.029893604259040373, 2.1127981789575294e-22], [0.05118028661980546, 1.9574306874894234e-22], [0.08874072897274031, 2.7168260052316656e-22], [0.07351047767175174, 2.179147293094112e-22], [0.06275617432942597, 2.268085077718316e-22], [0.020207428494660173, 2.172495777262439e-22], [0.028343173691968704, 2.8486642030001295e-22], [0.03630257944929717, 1.8999838102885801e-22], [0.09820979148599451, 2.2775368159121116e-22], [0.00837764567159693, 2.602670257457552e-22], [0.085357614788181, 1.9829932061760817e-22], [0.04068276729956385, 1.4506490929444171e-22], [0.09323403151168184, 1.4204825766014844e-22], [0.0957135252916823, 1.0347151358174424e-22]], [[0.04467539196724357, 2.4117732539430496e-14], [0.0866878392520742, 3.482186317361403e-14], [0.0452989063036935, 3.8367113207061536e-14], [0.04899073664639531, 2.354309613200988e-14], [0.024931263377279484, 3.4677647497749204e-14], [0.0791858712407829, 3.549300140430957e-14], [0.07025698927205792, 2.8719970361868416e-14], [0.0757085216532132, 2.3312940637056985e-14], [0.06639405692988823, 2.4361503642786576e-14], [0.06981750635430746, 3.550411327298626e-14], [0.04029162280032608, 2.039465377309365e-14], [0.05248242435732928, 2.8606094571427244e-14], [0.06555738664466426, 1.7955943770619287e-14], [0.008736086709275169, 3.127508720729938e-14], [0.022951272996664968, 2.2294290235401278e-14], [0.04594618503748677, 2.573635118772261e-14], [0.04505606090949621, 3.4332585457350824e-14], [0.029028247800902865, 2.1947391499786758e-14], [0.017512817624801426, 3.106546722564624e-14], [0.028180346773946967, 2.976465272673663e-14], [0.033328163265442697, 3.396110614832179e-14], [0.03526706348421384, 3.093076461892392e-14], [0.01038278698146817, 2.5624230865187386e-14], [0.08007027538408774, 3.201489761494995e-14], [0.03526101310614027, 2.8046404672992014e-14], [0.005900603235932946, 2.88628396640802e-14], [0.018962471122593624, 1.7716447519607654e-14], [0.02213007456865749, 3.600237177564124e-14], [0.014471699042529719, 2.18140206612528e-14], [0.011711796276904038, 2.7446287398780218e-14], [0.08000871358043377, 2.7079517889704862e-14], [0.052173102811589316, 2.594047792726892e-14], [0.0693228728555843, 3.6783079931613544e-14], [0.005187171647421823, 2.8786323101967595e-14], [0.04891783422597865, 3.022271877689531e-14], [0.0695106116555243, 2.891429050980397e-14], [0.04690981588579169, 3.739959179565314e-14], [0.06367706387376078, 2.549672760794905e-14], [0.010229599802702325, 3.0775439023799545e-14], [0.0464582322946709, 3.5449395444028465e-14], [0.09687375656953114, 2.755507503508447e-14], [0.0106786703773548, 1.911344910358754e-14], [0.05089817013399307, 1.784322904252565e-14], [0.07014372383334742, 1.4218765958716365e-14]], [[0.007107806291183557, 1.2911887446535203e-11], [0.030771930393819244, 1.9050044851712044e-11], [0.08673703155253662, 2.0885706130014692e-11], [0.022516720009024317, 1.2589588118987401e-11], [0.08688822125890959, 1.8569942443528964e-11], [0.08302571534439782, 1.9328576268720797e-11], [0.0143211727672018, 1.5692578552045262e-11], [0.00925929278644558, 1.2576818198521691e-11], [0.00878066423696136, 1.3316425105745805e-11], [0.06621224918151032, 1.9037331146525394e-11], [0.07285744107929319, 1.0756984900635774e-11], [0.09808069063731013, 1.53077583495275e-11], [0.0202849909995703, 9.749409753027202e-12], [0.023699360333966676, 1.658582660270082e-11], [0.07496543157412253, 1.2117158923368756e-11], [0.01712669319804253, 1.365199646691384e-11], [0.05656064001896449, 1.8509927345868353e-11], [0.06401596980357603, 1.1385855343541961e-11], [0.006519685932750224, 1.636828034939037e-11], [0.08118457801867823, 1.588362936679243e-11], [0.00490379408150759, 1.8453786346677088e-11], [0.06093383154909661, 1.6426777250125164e-11], [0.01619997660217496, 1.3624151253554467e-11], [0.08075896672298984, 1.7523267249149282e-11], [0.09066068948644257, 1.519676931063622e-11], [0.0658389856924922, 1.5385961581315993e-11], [0.026838744181628096, 9.500744420111193e-12], [0.010011860991408512, 1.9183431845382895e-11], [0.06235760158248814, 1.1597627261444366e-11], [0.08185433823991443, 1.480475281464675e-11], [0.05537741684201333, 1.4298342649303155e-11], [0.06123879932557535, 1.3949513725809686e-11], [0.0375446435707848, 2.0049352877025093e-11], [0.014157409253488198, 1.543119260366224e-11], [0.05320488424715594, 1.6332810619553933e-11], [0.041941592792579495, 1.5639213356925612e-11], [0.05246797416748357, 2.0053950780811928e-11], [0.016275829924146196, 1.3863604383822025e-11], [0.02238423044251928, 1.6732615323495287e-11], [0.05855611498013654, 1.9409088678564175e-11], [0.03728944149578175, 1.5196241925015915e-11], [0.04357233418629336, 1.0244967990629971e-11], [0.04841053568535606, 9.231648725171917e-12], [0.04599766616188963, 7.78515678032915e-12]], [[0.016074740464186846, -1.2216529354789295e-17], [0.0539931272211558, -1.7801393193701803e-17], [0.025469116711185513, -1.955768593630462e-17], [0.0030761828875256387, -1.1916786412174919e-17], [0.06981881679456897, -1.756528306066052e-17], [0.06975485447914251, -1.8103595613358287e-17], [0.06261544771347778, -1.4675715054922243e-17], [0.011814222925849369, -1.1846217770027716e-17], [0.08767626143510307, -1.2453196150081718e-17], [0.08768549765959316, -1.7978215781752158e-17], [0.004288079721944849, -1.0267898944971331e-17], [0.025500049270423247, -1.4473649596357002e-17], [0.00879694523546495, -9.16280447691548e-18], [0.05651933524869497, -1.5771172678233772e-17], [0.052352089850180465, -1.1366008365322344e-17], [0.05232084251610484, -1.2977381809424904e-17], [0.08586694616630726, -1.744527287922739e-17], [0.061168657472218675, -1.097268313377877e-17], [0.039744103604419406, -1.5631416721882322e-17], [0.07114736927661519, -1.5054046692870072e-17], [0.08138522238268335, -1.7310258337437626e-17], [0.08384398844652101, -1.5607168498184953e-17], [0.08014522869265667, -1.2938286636854592e-17], [0.01904855795053566, -1.6364307164700792e-17], [0.037133153707475546, -1.4267090719562574e-17], [0.009295274200344166, -1.4590030524721214e-17], [0.03466746469400546, -8.976017264654397e-18], [0.06073402697614606, -1.8181268444683167e-17], [0.03361207182866991, -1.1017335044250954e-17], [0.024848705384798806, -1.3936004036603483e-17], [0.0034459800514592387, -1.3632472648689593e-17], [0.0679758352022108, -1.3155680745825793e-17], [0.07683421888430793, -1.876830124518573e-17], [0.08956020724637073, -1.4589254748443476e-17], [0.023533291222278065, -1.536268181991008e-17], [0.00922756366065052, -1.4708534103415902e-17], [0.08900693204056424, -1.8941238891036618e-17], [0.024448469523372512, -1.2992539224528058e-17], [0.09134115303231752, -1.5692487143343638e-17], [0.0008289358308195462, -1.8119379755400534e-17], [0.006042870452714691, -1.413937357919038e-17], [0.06839863436570677, -9.680526098440073e-18], [0.04531555400765051, -8.91688097904792e-18], [0.0929478852594599, -7.278869540484956e-18]], [[0.059908214949521664, 9.229338137067714e-15], [0.0704920465359927, 1.3310756276100254e-14], [0.01568944722393271, 1.467490050725747e-14], [0.05879634992802741, 9.009575288799646e-15], [0.03374284016639281, 1.3268802352621586e-14], [0.01649709331330115, 1.357273363425535e-14], [0.03276862004387118, 1.0972618362926335e-14], [0.011383799139856463, 8.918237854994728e-15], [0.06667574375472583, 9.30687447788213e-15], [0.057418651926045526, 1.3590335622265662e-14], [0.05101584000051099, 7.808582711011551e-15], [0.08132124540111499, 1.0951808623039086e-14], [0.009183023508005744, 6.862543157702973e-15], [0.07649165105134008, 1.1979850767505376e-14], [0.04302693244021697, 8.521201863208085e-15], [0.07287731988412695, 9.849711213804039e-15], [0.009811623868770726, 1.3130082138323905e-14], [0.03728612166905279, 8.410214157811845e-15], [0.09425009792561827, 1.1902456166275636e-14], [0.044537587655458934, 1.139059605102209e-14], [0.024615689835935223, 1.2989152353917787e-14], [0.07946267551934326, 1.1839333548678193e-14], [0.07525604324735842, 9.808625208750215e-15], [0.09518113427450621, 1.2239346646149112e-14], [0.05018634745533674, 1.073017144837795e-14], [0.08949970793504901, 1.1045708619601432e-14], [0.07435928051831905, 6.780584866390376e-15], [0.07613007978635349, 1.3786366166208958e-14], [0.06570683376364173, 8.348430364805642e-15], [0.05544537873869458, 1.0501477529951507e-14], [0.04657769422244823, 1.0371918964140494e-14], [0.09195672725566119, 9.927575015706501e-15], [0.0692872000617761, 1.4064301007907247e-14], [0.04184449018572449, 1.101484346571072e-14], [0.06631281087488435, 1.1561886918968427e-14], [0.03337191242719833, 1.1060954122380395e-14], [0.04942407776046628, 1.4317612126891385e-14], [0.02445968595862149, 9.752745674642668e-15], [0.0045616060963013004, 1.176796843735618e-14], [0.01806520893673716, 1.3552694466454172e-14], [0.07908512460190194, 1.0523912948502436e-14], [0.007112316982183337, 7.30859275157235e-15], [0.07315153588415316, 6.836291708656303e-15], [0.031297947978230455, 5.431057504759304e-15]], [[0.03656397656219437, 4.1431400912570745e-11], [0.09546485181930062, 6.144624258105441e-11], [0.006080457693580143, 6.732367213441247e-11], [0.0527915246565387, 4.0391127682702054e-11], [0.023481717213274203, 5.958087492013589e-11], [0.09916478137084825, 6.229713960717111e-11], [0.04836371339633653, 5.058570650361167e-11], [0.08945475829189617, 4.042529668772035e-11], [0.009738560524712905, 4.2943851515659323e-11], [0.04666432555304544, 6.1130801246396e-11], [0.055043021817383256, 3.440427366215856e-11], [0.04610445158684609, 4.912295984229005e-11], [0.012374799765328601, 3.1380878798987236e-11], [0.09459608722725373, 5.311227347598826e-11], [0.09163340715226916, 3.9015203373833707e-11], [0.06700255489425609, 4.3672452295275196e-11], [0.09446234893957887, 5.947567309017123e-11], [0.07275537713759395, 3.623976844382447e-11], [0.010210192964595721, 5.232576820080911e-11], [0.06292242394896591, 5.093329483163485e-11], [0.0436139112944691, 5.943931851910166e-11], [0.025642617737600498, 5.2617049099604156e-11], [0.0013016423264544774, 4.363816794283904e-11], [0.06011390237041312, 5.651306548090964e-11], [0.011537990824697355, 4.8919129812710605e-11], [0.0870112748446432, 4.93253860074437e-11], [0.030165852510043566, 3.047965512775438e-11], [0.08904074661137867, 6.147986780035978e-11], [0.07830327345291223, 3.715248074736756e-11], [0.03187559197310554, 4.761245718185906e-11], [0.09914964490804379, 4.572955573911684e-11], [0.09337097483028926, 4.4831846339660614e-11], [0.02716847238023947, 6.461594795197937e-11], [0.06047063254399336, 4.953827162663982e-11], [0.050224185034059836, 5.254291912888719e-11], [0.07085375397593097, 5.0308547307303336e-11], [0.04954844803340373, 6.438659064498915e-11], [0.00022827150130047896, 4.463100874608597e-11], [0.06354089616562915, 5.389991454291642e-11], [0.0032366296110136576, 6.260357195057027e-11], [0.026386657455313885, 4.9101239746631537e-11], [0.07546551120036035, 3.2866722828972195e-11], [0.09898514559925004, 2.935873643838307e-11], [0.004767353534155885, 2.510722486489301e-11]], [[0.06279725110142503, -3.1640538722739833e-06], [0.09208044961900058, -4.7267021604463485e-06], [0.0926276135937797, -5.16191044876343e-06], [0.09685485454467048, -3.0837381117633466e-06], [0.01651709413750783, -4.5524268376281e-06], [0.04555799879756006, -4.787011294533058e-06], [0.02927122393915057, -3.895125303109473e-06], [0.026635471305594544, -3.0949677853743152e-06], [0.061003063354818296, -3.3086229887498367e-06], [0.06711107306466697, -4.66518213348558e-06], [0.06125039825948846, -2.616130986374621e-06], [0.07961170946912412, -3.746362538199277e-06], [0.026326101833901595, -2.4144344862726528e-06], [0.008435050885208876, -4.040118395382985e-06], [0.01423146869062461, -2.9943905260657427e-06], [0.062229665419311506, -3.3220735222913e-06], [0.0796258558259155, -4.5541525237215046e-06], [0.0967600283601613, -2.7401279600856897e-06], [0.0654113830878111, -3.970336399045879e-06], [0.05749693268332393, -3.8894401411987895e-06], [0.0014153957233565611, -4.561002376155444e-06], [0.005009624143677674, -4.002139513090082e-06], [0.09518403067595027, -3.327719575579908e-06], [0.09903514537094363, -4.343207962621042e-06], [0.03283931813087113, -3.744389360494475e-06], [0.022357744232947906, -3.7661597106050333e-06], [0.031141411391813763, -2.32832025419886e-06], [0.09914519980745794, -4.677158105220436e-06], [0.003013587477916512, -2.83315898733002e-06], [0.08996022395917608, -3.6433712129726855e-06], [0.09751343764258763, -3.4723040367203363e-06], [0.08444200778960437, -3.4218915987968713e-06], [0.0523328467429468, -4.965270062407576e-06], [0.0901556827602934, -3.7875929722497768e-06], [0.057061050156217145, -4.027371013959244e-06], [0.08437455068741573, -3.857190272880126e-06], [0.06247931987942963, -4.91148863074087e-06], [0.05940639763867178, -3.419649077339849e-06], [0.06797717360059732, -4.141478907268485e-06], [0.051310645371443385, -4.810289953590497e-06], [0.0740244010993765, -3.78944272931566e-06], [0.07358424142839351, -2.5136375346751576e-06], [0.08047917959431644, -2.2179588691531414e-06], [0.09488322026053504, -1.93384774683819e-06]], [[0.071434091388422, -9.387881405259505e-08], [0.0054074118008238525, -1.402829907652847e-07], [0.0891266029828875, -1.532351117820683e-07], [0.0856467145959645, -9.147766303130586e-08], [0.08627803668385844, -1.3504880253364235e-07], [0.005453191457579086, -1.4209405795883444e-07], [0.06200275913588321, -1.1567510840411545e-07], [0.09759215405777596, -9.183454703076572e-08], [0.07099867487087264, -9.821579651409812e-08], [0.07380600861161998, -1.383849161051101e-07], [0.048786412878868014, -7.75777066532544e-08], [0.04749039863128319, -1.1109846191105518e-07], [0.0822939834727296, -7.167061813126538e-08], [0.0012079848101519725, -1.1976505003128073e-07], [0.023388985889814466, -8.889637174933312e-08], [0.04517682821979052, -9.854376853122766e-08], [0.07594072851947126, -1.351433793175364e-07], [0.038271632057848344, -8.119982692585328e-08], [0.018612321601796385, -1.1769378155340947e-07], [0.04960576398482989, -1.1536734011698606e-07], [0.0902369422882794, -1.3537281106013506e-07], [0.009945566231250685, -1.1870634681562318e-07], [0.045085554363133544, -9.869476036199666e-08], [0.02365612686683522, -1.28922646116149e-07], [0.051681929561517174, -1.1111739240810243e-07], [0.01045370895641052, -1.1171808834064422e-07], [0.08159389363526466, -6.905448878005639e-08], [0.05061446226299419, -1.386971380649182e-07], [0.09975726273538676, -8.404448214639428e-08], [0.014940450315742908, -1.0808992175787925e-07], [0.021963357023364133, -1.0295778838347891e-07], [0.013106111370610726, -1.015333332222282e-07], [0.05598538482974917, -1.4738544045357542e-07], [0.012819270130946388, -1.1237474608468699e-07], [0.005823936874817272, -1.195075374427036e-07], [0.054578470930985765, -1.144614144402318e-07], [0.08768515100308073, -1.45714469035789e-07], [0.0846648907789171, -1.0146539985277074e-07], [0.05329615596490634, -1.2292935620378374e-07], [0.00986739683295253, -1.4277581053247782e-07], [0.019756197590179343, -1.1252081848231285e-07], [0.007442924172445566, -7.458675253064293e-08], [0.09494725048242257, -6.572457624898517e-08], [0.06691048772529745, -5.7411610379189585e-08]], [[0.05762289884722153, -4.7831346478034755e-26], [0.0135258232488432, -7.014903422700466e-26], [0.00618127879423059, -7.729216302570765e-26], [0.04194403671424989, -4.6634439351385735e-26], [0.022426304145831973, -6.879146032459139e-26], [0.09830282444023135, -7.124940289815614e-26], [0.039326943494549356, -5.737471431686183e-26], [0.02908974638630366, -4.647223700631129e-26], [0.02682491924899563, -4.8672024870397695e-26], [0.05180097257483172, -7.090205561139228e-26], [0.07348088292010876, -3.9853501278637896e-26], [0.023037150688323713, -5.709784761815731e-26], [0.05365959569629042, -3.558598188716699e-26], [0.06642302255118267, -6.1917324325713e-26], [0.0771804793677653, -4.454923661404131e-26], [0.07703810252082753, -5.089065945109994e-26], [0.04004454841393412, -6.829011926935668e-26], [0.01722686498121695, -4.26281996268998e-26], [0.08164659073423039, -6.122555166493451e-26], [0.03584051579494007, -5.894274362222804e-26], [0.01871044825276688, -6.795440907040917e-26], [0.031776033511939146, -6.113995506012746e-26], [0.0454478519442573, -5.052302238145379e-26], [0.024006603607057368, -6.457716751537245e-26], [0.08808627399493124, -5.63119874086036e-26], [0.061067381846007, -5.69570517378302e-26], [0.08887984276346643, -3.5227090109479746e-26], [0.08295851076770183, -7.182520357200475e-26], [0.08056997085349336, -4.288367033262134e-26], [0.03895706185603834, -5.485611683877824e-26], [0.07404468029042025, -5.351725002091157e-26], [0.04804857812304343, -5.19093214932561e-26], [0.040348787435989825, -7.372696502905766e-26], [0.08179950432692452, -5.709554875095052e-26], [0.008669710333444021, -6.046017391507644e-26], [0.06873804319236801, -5.776190796623542e-26], [0.016342568985393078, -7.492702125162181e-26], [0.08991915851408268, -5.115982723476671e-26], [0.05140705334287674, -6.159990631063138e-26], [0.047696557955817245, -7.169455740899614e-26], [0.026233120873299702, -5.543053257634363e-26], [0.05444716279647115, -3.7763206714496746e-26], [0.0388182407937009, -3.435622657313644e-26], [0.006920368642314089, -2.83472432733615e-26]], [[0.014844606831221008, 2.8443194419484023e-12], [0.022876609450815415, 4.153121710450654e-12], [0.009318122887407364, 4.558072827764334e-12], [0.057955509996967594, 2.7702685185887586e-12], [0.02320201788167994, 4.083337078739727e-12], [0.0020266814381904117, 4.220687057061124e-12], [0.0016006968056990816, 3.4222424291168076e-12], [0.007389162616227485, 2.757609213030206e-12], [0.04172728155284595, 2.90258911226513e-12], [0.02379829246693, 4.183293548703538e-12], [0.02078840445557143, 2.3823350355951615e-12], [0.0206784278385331, 3.3703435423883486e-12], [0.03736561586396818, 2.132658452779254e-12], [0.01094004775843106, 3.665041640273601e-12], [0.005153703206993512, 2.6519579136762823e-12], [0.07730166828044693, 3.015198475047493e-12], [0.06115441314223509, 4.062987952235764e-12], [0.034142530689682225, 2.538160914259482e-12], [0.0302027892671224, 3.62847784236468e-12], [0.0841350736348956, 3.497348958400514e-12], [0.02901704466217135, 4.0338429707660734e-12], [0.09916896607870428, 3.6259242957995486e-12], [0.010449964846525182, 3.0048305349108824e-12], [0.052908807428550884, 3.822144251722288e-12], [0.04087209853759322, 3.3261622493378768e-12], [0.08126681721286944, 3.3881356330879843e-12], [0.0792619702393266, 2.0918460208248393e-12], [0.022143062824873154, 4.227857357761407e-12], [0.030999014748873687, 2.558371755614242e-12], [0.07100011721945308, 3.244491555639129e-12], [0.07678428947391962, 3.160376961118721e-12], [0.008268316467232561, 3.060866769577793e-12], [0.046119910246371514, 4.378413839475544e-12], [0.025224947203405415, 3.391096366079947e-12], [0.08597482715501521, 3.5758295495175375e-12], [0.06556760253101694, 3.4281343524597528e-12], [0.07925423770634712, 4.407261188124963e-12], [0.011972873602851344, 3.0328351783071883e-12], [0.02003050394033484, 3.656257329350696e-12], [0.012020626518404012, 4.230710883652137e-12], [0.06030452762093172, 3.3053367591256446e-12], [0.08607952430760818, 2.2550809242741897e-12], [0.004891690136555561, 2.061487701036793e-12], [0.027933607657469054, 1.6989493323309202e-12]], [[0.09824157341634042, 8.972057219089058e-19], [0.02415401380778445, 1.2931167299873153e-18], [0.02034965170466282, 1.4267933880308011e-18], [0.060355387982079914, 8.765485300529667e-19], [0.03566696846444346, 1.29004927802867e-18], [0.07728955689108342, 1.3184231980501768e-18], [0.029804178058359946, 1.0641267659931337e-18], [0.01743652318285345, 8.669019743857264e-19], [0.03257375217218635, 9.01010287662966e-19], [0.072813698452487, 1.3223548721130396e-18], [0.0704234145583669, 7.586283693382037e-19], [0.04235948097644981, 1.0658276502838748e-18], [0.08582634488917723, 6.656062929801415e-19], [0.0034899267314727335, 1.166522831350419e-18], [0.009805133236121102, 8.27389127553366e-19], [0.026540036106471036, 9.586750436198024e-19], [0.006167340960216144, 1.276729185598851e-18], [0.09496237282990136, 8.184312185514375e-19], [0.06725990494014995, 1.1588987419647686e-18], [0.011495888830094354, 1.1076252057445444e-18], [0.05617108955231368, 1.2627350525389366e-18], [0.014264629571220488, 1.1521958042760728e-18], [0.07777904048885269, 9.53485194061957e-19], [0.05064708959536888, 1.18940357339986e-18], [0.051427270653473516, 1.0429596588240357e-18], [0.04962548666077909, 1.0736015854556196e-18], [0.04491523869410138, 6.595753698331712e-19], [0.03753246727867347, 1.3431428798558409e-18], [0.03635856567512971, 8.114987596283355e-19], [0.05559663424633512, 1.020744669258796e-18], [0.012218193955039388, 1.0105927025435107e-18], [0.04178805603100274, 9.654161901035957e-19], [0.008018885037779797, 1.3660802116440041e-18], [0.07947617738452588, 1.070365631528157e-18], [0.09057858274148964, 1.1239135476656581e-18], [0.08266728510238157, 1.0763102568122486e-18], [0.04215258888546103, 1.3943177165249511e-18], [0.01477863656983459, 9.483523875662995e-19], [0.004019229133768762, 1.142621342665312e-18], [0.09879902426312961, 1.3173525525554164e-18], [0.09128561411782464, 1.0201720606956201e-18], [0.07350090620810842, 7.106606902623952e-19], [0.0046914727738736044, 6.650161707489272e-19], [0.05088307397504821, 5.264975473770312e-19]], [[0.06696590398916596, 7.888639687048331e-07], [0.07596169061294362, 1.178451183829722e-06], [0.049065251226476765, 1.2869598587665498e-06], [0.03598237518492781, 7.688404256189257e-07], [0.05606699227921078, 1.1350144327720409e-06], [0.07480257283515254, 1.1934882553064245e-06], [0.027053439404578702, 9.711194803684407e-07], [0.002711170485802322, 7.71635921123515e-07], [8.239533536841637e-05, 8.24896170725288e-07], [0.06181350647777358, 1.1631291749883764e-06], [0.02724095116010152, 6.5226107645408e-07], [0.0578706809622092, 9.340500933911036e-07], [0.022521817907500463, 6.019610564934829e-07], [0.014641805178435054, 1.0072962595816585e-06], [0.030703636598321305, 7.465546535713123e-07], [0.011411111169784379, 8.282684951974052e-07], [0.0822019958336059, 1.1354365894498313e-06], [0.036977690525939105, 6.831844772099788e-07], [0.01288473857559197, 9.899008921174518e-07], [0.02632877909859704, 9.697195061068067e-07], [0.017649750608129715, 1.1371419418384746e-06], [0.009925181333509728, 9.978233102250667e-07], [0.09887560533235748, 8.296718442880667e-07], [0.041618936614867985, 1.0828399029992803e-06], [0.01712903609143694, 9.335496870945183e-07], [0.024725656830835375, 9.389830254738402e-07], [0.001165966482872428, 5.804998419971183e-07], [0.09617494320623027, 1.1661226880208644e-06], [0.009517735622091619, 7.063667396163514e-07], [0.0036512264085377727, 9.08366370833228e-07], [0.015879485386407283, 8.65726543818816e-07], [0.03955561323280194, 8.531487718244906e-07], [0.013274603058856641, 1.2379312214858286e-06], [0.09330488353702414, 9.443230923359809e-07], [0.01095231801303956, 1.004101292142154e-06], [0.07108898946294584, 9.616715690068152e-07], [0.08227037010436454, 1.2245382186727572e-06], [0.04633033322237012, 8.525846364452446e-07], [0.0017826711378050822, 1.0325464835951033e-06], [0.024154988051567895, 1.1992916681009961e-06], [0.06359323124703008, 9.447685930968319e-07], [0.04754781053744432, 6.267014246581339e-07], [0.08856876473677289, 5.529949066861356e-07], [0.07907569545431682, 4.82140539348239e-07]], [[0.08165007077688141, -2.550485745163543e-16], [0.09631493083151327, -3.70930067246651e-16], [0.034146297384368106, -4.0783367418800456e-16], [0.033030815277461475, -2.488753046984435e-16], [0.007730893980986457, -3.667582397985416e-16], [0.08335144530675934, -3.7738801990481606e-16], [0.029534311643897655, -3.0578364721933364e-16], [0.0110406275555087, -2.4717265094335384e-16], [0.08835208831141275, -2.5941281182980206e-16], [0.05559705087091396, -3.754517747845384e-16], [0.020559539034276823, -2.146526766631738e-16], [0.0190602012773943, -3.0230121152808395e-16], [0.045056956285593294, -1.9095736289436217e-16], [0.09890944916584105, -3.2963774049980144e-16], [0.07435655863434537, -2.3692743557051994e-16], [0.089401003652767, -2.712715422803822e-16], [0.06851145727156681, -3.639293545253243e-16], [0.01206655829451107, -2.297757256649868e-16], [0.018333847040004507, -3.268455437571808e-16], [0.07138549357952953, -3.144438348344271e-16], [0.04472675035343849, -3.609336618809936e-16], [0.060735322120862995, -3.261569468464109e-16], [0.06072869137257413, -2.7036542567290016e-16], [0.016298127010441928, -3.4100484471407636e-16], [0.08042611075742348, -2.9762111702361823e-16], [0.019877424824592666, -3.047829515572423e-16], [0.0007982038045222504, -1.8741740930654149e-16], [0.0070725704564976385, -3.7994560318181307e-16], [0.05337823246047077, -2.3017408987732745e-16], [0.03019002960651856, -2.908243512135459e-16], [0.08132835051587223, -2.85056268178029e-16], [0.09847760007035652, -2.7463071473975696e-16], [0.05413328919439622, -3.912345914439455e-16], [0.07043350548054714, -3.04599250169137e-16], [0.036990849521014536, -3.2050068825319754e-16], [0.0014059546767340345, -3.068275350467725e-16], [0.07296007774631971, -3.9558332073400944e-16], [0.09881860190686817, -2.7086575009610887e-16], [0.03151837771083902, -3.2711331745310596e-16], [0.06056062706336754, -3.7759515640789253e-16], [0.021146978499434536, -2.943158049633989e-16], [0.08210034039672152, -2.0214691243383898e-16], [0.06439388391858225, -1.8673575898273317e-16], [0.05357759876573254, -1.51582293104372e-16]], [[0.07276113381992108, 4.554387971235883e-50], [0.06813927231778061, 6.554265390465973e-50], [0.046944591270019514, 7.146435427993601e-50], [0.011909538475065436, 4.477483559496576e-50], [0.03444141891459712, 6.57911959108076e-50], [0.09892262615230801, 6.673469614514247e-50], [0.08292457778951455, 5.486400857435223e-50], [0.009610728162515875, 4.398861685476219e-50], [0.017332334226629838, 4.664739239914728e-50], [0.0921883036759962, 6.621229329296975e-50], [0.08406253072045781, 3.88781385076853e-50], [0.048187127259831396, 5.3377036398744e-50], [0.048992910091748186, 3.4359344010881556e-50], [0.06919141370816395, 5.85195619803079e-50], [0.07381714786635123, 4.2398272535783665e-50], [0.0803197166858857, 4.8643177910692265e-50], [0.08124466981498436, 6.516650636771062e-50], [0.007495922953482544, 4.1504568491179714e-50], [0.04646060245550148, 5.838304767070124e-50], [0.00890230282380321, 5.6448825240737135e-50], [0.08548134331949403, 6.422202946434749e-50], [0.04706303493848642, 5.831325521303913e-50], [0.013789817891033703, 4.864790763913686e-50], [0.03912522606502294, 5.990456479802896e-50], [0.06605704955324296, 5.212699073993628e-50], [0.061671010498338896, 5.48506066174845e-50], [0.08122232880118861, 3.33202141323038e-50], [0.09836851014174336, 6.646684798829062e-50], [0.07947218319985981, 4.1936415746464934e-50], [0.031542497471911624, 5.106294509503807e-50], [0.010154333264888541, 5.086553772522951e-50], [0.07739586633355772, 4.835670733080208e-50], [0.08053142814156554, 6.928344350998102e-50], [0.05636291113793023, 5.469283057674054e-50], [0.034537828985698765, 5.700657157532227e-50], [0.04494462145372262, 5.493886823183329e-50], [0.054284395867258764, 6.993403052075685e-50], [0.06088502648612748, 4.783410085552904e-50], [0.04053943555367353, 5.84328591690541e-50], [0.09837784476409774, 6.642067405040769e-50], [0.009216598636855406, 5.245615794435035e-50], [0.010850386826528976, 3.6535949644152764e-50], [0.029786203593803642, 3.393461015750231e-50], [0.08790392788443332, 2.7164097001752096e-50]], [[0.09638076526678614, 8.222282764538739e-09], [0.04253840249701406, 1.2335211956423377e-08], [0.009605924191267596, 1.3457291541305692e-08], [0.0145410751460143, 8.010367386141207e-09], [0.035447039135288884, 1.1828704236782369e-08], [0.08282008599759266, 1.2489082232572688e-08], [0.03418161363823807, 1.018376052259969e-08], [0.037173407427854625, 8.05646733237819e-09], [0.0273907537640889, 8.644622078872428e-09], [0.06508394606811228, 1.2111704906673084e-08], [0.06271526996581474, 6.776469980734029e-09], [0.01594836612114348, 9.717614704222404e-09], [0.09669047349835685, 6.303105297281601e-09], [0.08452969652675822, 1.045423877615996e-08], [0.05664204481858858, 7.815898858010728e-09], [0.0668080569942092, 8.605546530910954e-09], [0.015762424034332485, 1.1865468115841431e-08], [0.06663328336565406, 7.06582280444242e-09], [0.05326780437313148, 1.0262275062685131e-08], [0.06776519083150637, 1.0100540348930188e-08], [0.045703553211835515, 1.1892555927601737e-08], [0.049107312072011335, 1.0371405141503063e-08], [0.04556782346470199, 8.637316921790389e-09], [0.04475109524315776, 1.1331850006148794e-08], [0.016279468000390897, 9.745683799004432e-09], [0.020612438623687702, 9.780663518259054e-09], [0.029064265198862373, 6.044445568057922e-09], [0.033509443547624945, 1.2112760602481604e-08], [0.013315234561876431, 7.355837451841822e-09], [0.06164637645587858, 9.473014471235381e-09], [0.027263448132275013, 8.986305232570086e-09], [0.07263459491836172, 8.890245048795516e-09], [0.004629604669705628, 1.295477028553108e-08], [0.05268141377004486, 9.850851445220089e-09], [0.013432086035969917, 1.048731279471687e-08], [0.009663329851987255, 1.0045703094759285e-08], [0.0868529832505867, 1.2752739649980997e-08], [0.012224354843912858, 8.904194201567902e-09], [0.061048685614137704, 1.0800574989995698e-08], [0.0017804131745781549, 1.2551311501092913e-08], [0.07012583202078924, 9.917256055516448e-09], [0.005813643074792847, 6.533428051679722e-09], [0.015327120404176567, 5.716823010285165e-09], [0.02490767563667315, 5.055465003863188e-09]], [[0.04327384823120335, 3.2609750542147514e-06], [0.050762945412970786, 4.871528514720097e-06], [0.07782360023517228, 5.320105940343757e-06], [0.09286595979036534, 3.1781800612413242e-06], [0.09323287709684035, 4.691854529549009e-06], [0.08135217159047194, 4.9337094302640214e-06], [0.09690716084567268, 4.014543527992922e-06], [0.03648649057857832, 3.1897768672257605e-06], [0.004338899087629972, 3.4100193544095786e-06], [0.013284290454371267, 4.808052343063498e-06], [0.05368287024406369, 2.6962248438240328e-06], [0.09891470931683932, 3.8610609465611066e-06], [0.022544614654037957, 2.4884297549132166e-06], [0.07847661029093544, 4.163771207795817e-06], [0.026782227883366535, 3.0861617031314475e-06], [0.07887680759980349, 3.4238104359967617e-06], [0.078001776203313, 4.693668123971931e-06], [0.055796120360307074, 2.823965391070457e-06], [0.024611167708603617, 4.091848430800512e-06], [4.674030784699291e-05, 4.008547071871607e-06], [0.0635476115470214, 4.700761524662166e-06], [0.06366777900326656, 4.1246924158660325e-06], [0.08927328919960376, 3.429612109658145e-06], [0.021932156464291926, 4.47630497873154e-06], [0.07458265380562651, 3.8591055249536085e-06], [0.010345869599650996, 3.881499950308295e-06], [0.004554731385005321, 2.3996123985165988e-06], [0.03423507970101783, 4.820354401270946e-06], [0.003420692567990564, 2.9199280577210933e-06], [0.045305932129443796, 3.754964793679666e-06], [0.03289106548510264, 3.5785966014300634e-06], [0.07550864416554254, 3.5267141106780577e-06], [0.04796208087665017, 5.117429081939589e-06], [0.009911249242748476, 3.903608601242761e-06], [0.056934562971015616, 4.1507505483813655e-06], [0.062076295002078785, 3.975363288017064e-06], [0.005300039672710926, 5.061924317648245e-06], [0.05350940507292002, 3.524406034885159e-06], [0.019895828639756544, 4.268391571883884e-06], [0.08227427665884723, 4.95768417870921e-06], [0.07862168357730953, 3.905606760577779e-06], [0.0675729753242391, 2.590647248577142e-06], [0.002427537105520159, 2.28581815063759e-06], [0.07868067264665292, 1.9931165104956705e-06]], [[0.015874517178654974, 7.888639686926165e-07], [0.05223659705358067, 1.1784511838119208e-06], [0.06251490100890525, 1.2869598587469922e-06], [0.022158941887281042, 7.688404256070089e-07], [0.03672113413711399, 1.1350144327544755e-06], [0.017346133056072216, 1.193488255288321e-06], [0.09098437640010104, 9.71119480353765e-07], [0.07321760860670659, 7.716359211116688e-07], [0.087267497887201, 8.248961707128348e-07], [0.0631459725168768, 1.163129174970398e-06], [0.07919743972163726, 6.522610764438122e-07], [0.07378901986427652, 9.340500933766299e-07], [0.06493119560999148, 6.019610564843201e-07], [0.0795282457542186, 1.0072962595658874e-06], [0.04536819317636671, 7.465546535599463e-07], [0.06932089506699682, 8.282684951844278e-07], [0.02180069026855161, 1.135436589432386e-06], [0.08625235768155957, 6.831844771990062e-07], [0.02112655702482419, 9.899008921018205e-07], [0.06331110737964221, 9.697195060917526e-07], [0.006813619507700786, 1.1371419418211642e-06], [0.05764278467118219, 9.978233102094597e-07], [0.02783333486458978, 8.296718442751284e-07], [0.05511540709773135, 1.0828399029829158e-06], [0.03467760433087062, 9.335496870802513e-07], [0.019345148921008682, 9.389830254592501e-07], [0.03646993450294832, 5.804998419881423e-07], [0.05143947962064182, 1.166122688002683e-06], [0.0750242443765709, 7.063667396053341e-07], [0.06995240107615285, 9.08366370819292e-07], [0.023631922036156085, 8.657265438051836e-07], [0.06391903618889432, 8.53148771811335e-07], [0.03402456039234584, 1.2379312214670602e-06], [0.08415199504022877, 9.443230923213917e-07], [0.08253114952477537, 1.0041012921267914e-06], [0.012674389944111486, 9.616715689921066e-07], [0.04668621308942623, 1.224538218653816e-06], [0.08887754334090758, 8.525846364322521e-07], [0.09413852463575513, 1.0325464835794108e-06], [0.059824383793552614, 1.1992916680828768e-06], [0.02733201634585, 9.447685930826925e-07], [0.09032211800555265, 6.267014246484533e-07], [0.009222520629669847, 5.529949066772188e-07], [0.08705220227503944, 4.821405393409601e-07]], [[0.06710153333708924, 4.73316725515721e-06], [0.05101921978053685, 7.070682726927258e-06], [0.030644501866870996, 7.721732420553132e-06], [0.0331297017482412, 4.613026412818258e-06], [0.0314177417245978, 6.810062791752542e-06], [0.02684506380800649, 7.160904790967048e-06], [0.09630931108387471, 5.826696801209963e-06], [0.04154562461598377, 4.629799414309644e-06], [0.05457287776481951, 4.949359985804761e-06], [0.09799039576537712, 6.978750649061095e-06], [0.030912153915292725, 3.913552649085584e-06], [0.0680743352115357, 5.604280932701361e-06], [0.08719215071200467, 3.6117538553087836e-06], [0.08390809655932405, 6.043756274307287e-06], [0.08223421469874308, 4.479312405023099e-06], [0.08292117964579736, 4.969593454437116e-06], [0.005660682368313145, 6.812595818921353e-06], [0.0339987002037616, 4.09909222515532e-06], [0.0809210551632307, 5.939384334436485e-06], [0.04745466636397626, 5.8182966694813565e-06], [0.060406329015370214, 6.822828024822025e-06], [0.07712837064399654, 5.986918786856961e-06], [0.08115319037843315, 4.978013589674201e-06], [0.02891220732884199, 6.4970169938033954e-06], [0.02868360769073929, 5.6012786608826246e-06], [0.058208841626226096, 5.633878423308956e-06], [0.019113067057841777, 3.4829868703168004e-06], [0.09160707860261426, 6.996711524496268e-06], [0.09394942942608435, 4.238185560904299e-06], [0.05795890014315199, 5.450179259997719e-06], [0.022174544427601004, 5.194340912910761e-06], [0.07863873735097733, 5.118874756456057e-06], [0.006796659269736289, 7.427561665517345e-06], [0.07574524997042292, 5.6659187751079885e-06], [0.075325701962376, 6.024586834803903e-06], [0.023238851383141416, 5.770009380121244e-06], [0.04974310458015963, 7.347203607357058e-06], [0.0009746777395270674, 5.115490067032748e-06], [0.07743913301641944, 6.195257480466581e-06], [0.025058123125581443, 7.195725173927415e-06], [0.09538101537869882, 5.668592124258986e-06], [0.0579783401398125, 3.7601954132011976e-06], [0.026845623644441777, 3.3179575675161206e-06], [0.0364020077142704, 2.8928332731001074e-06]], [[0.07980005561833631, 7.888639686900987e-07], [0.023195498920292452, 1.1784511838083033e-06], [0.008966934982640071, 1.2869598587429957e-06], [0.06385147560780227, 7.688404256045481e-07], [0.029678021040434835, 1.1350144327508555e-06], [0.09888694019696968, 1.19348825528463e-06], [0.055535310011040596, 9.7111948035079e-07], [0.06255239104037277, 7.716359211092384e-07], [0.009631550887887768, 8.248961707103173e-07], [0.03789781215778298, 1.1631291749666851e-06], [0.01093197395897117, 6.522610764416805e-07], [0.03282003417312147, 9.340500933736363e-07], [0.04814504133378651, 6.019610564824586e-07], [0.04586775457811507, 1.0072962595626073e-06], [0.06420966753979035, 7.465546535576303e-07], [0.05005122349948429, 8.282684951817332e-07], [0.05240395153631956, 1.135436589428807e-06], [0.048364004062303935, 6.831844771966996e-07], [0.053864503899587184, 9.899008920985598e-07], [0.07697181970986648, 9.697195060886425e-07], [0.011636253885641495, 1.1371419418176274e-06], [0.03102587882313225, 9.978233102062219e-07], [0.0027349021684561076, 8.296718442724505e-07], [0.07167262810098456, 1.0828399029795878e-06], [0.05979821237738116, 9.335496870773277e-07], [0.039718228459329624, 9.389830254562357e-07], [0.011811194378554784, 5.80499841986291e-07], [0.0036948591831312528, 1.1661226879989072e-06], [0.0012773902109073643, 7.06366739603055e-07], [0.07179810344583155, 9.083663708164294e-07], [0.0648187410321578, 8.657265438023393e-07], [0.09069267811020769, 8.531487718086262e-07], [0.021939551515688955, 1.2379312214632363e-06], [0.004145265398829154, 9.44323092318389e-07], [0.0832304941329837, 1.00410129212364e-06], [0.07019844635238581, 9.616715689890895e-07], [0.07061419041828108, 1.2245382186498996e-06], [0.08081669007677117, 8.525846364295953e-07], [0.03771626274659369, 1.0325464835762122e-06], [0.06457842641406371, 1.1992916680791901e-06], [0.020837306756033114, 9.447685930798448e-07], [0.07614999876773444, 6.267014246464591e-07], [0.026254654274814437, 5.529949066753451e-07], [0.008011804151253464, 4.821405393394893e-07]], [[0.05340806908719138, -3.8765361165621983e-22], [0.08176721757662758, -5.459193695633705e-22], [0.014082128088157113, -6.055359136866798e-22], [0.025235277108375833, -3.7943865497082487e-22], [0.09966339765530699, -5.5696621962687165e-22], [0.040276721067693304, -5.589440142278105e-22], [0.04220247314671241, -4.488938311497018e-22], [0.026528641741218897, -3.716288926471096e-22], [0.06910326412777604, -3.792725966796269e-22], [0.02339538092221429, -5.705561356142169e-22], [0.03279312333831858, -3.3196891690886955e-22], [0.00492412052424349, -4.609542512063647e-22], [0.09472154576581697, -2.8268348084057934e-22], [0.0009710283177962723, -5.091536713925582e-22], [0.08914418652684246, -3.5169804329518936e-22], [0.0350882468223888, -4.180872206731788e-22], [0.023087781559040205, -5.474122222838328e-22], [0.057773063269960394, -3.6442320732221526e-22], [0.0990228677707371, -5.090810577988987e-22], [0.07572855203875924, -4.801059854080423e-22], [0.05213491575835222, -5.377994974414585e-22], [0.034367308919004864, -5.017608977455225e-22], [0.09651841673704022, -4.1443141261935995e-22], [0.014922570511572347, -5.019901276797452e-22], [0.06114213247246622, -4.448987311720238e-22], [0.07003275699509862, -4.656248501577313e-22], [0.06547066794625682, -2.847144603713594e-22], [0.013160347939169448, -5.835017600386298e-22], [0.01019699621304821, -3.532131135750261e-22], [0.05304513539934212, -4.372494620934756e-22], [0.057828714783492184, -4.437132334941951e-22], [0.06432596339891128, -4.1487249935711987e-22], [0.03549900307566897, -5.791319448097237e-22], [0.04904346944307686, -4.615333977119833e-22], [0.06177252658193637, -4.814073330306747e-22], [0.0012156620812124655, -4.608292821206719e-22], [0.078558491246894, -6.027266324429319e-22], [0.08886361978576374, -4.041433186908481e-22], [0.09500215635090109, -4.8570966140905545e-22], [0.09717010870481065, -5.564404082157426e-22], [0.07733661845400326, -4.260931047019544e-22], [0.05686065326445279, -3.0691937656645633e-22], [0.03050585683936116, -2.967375959149205e-22], [0.07410075661817224, -2.217919156368584e-22]], [[0.023431967182189418, 7.888639594632784e-07], [0.08449894142272919, 1.1784511705011643e-06], [0.009446410443292058, 1.2869598440720916e-06], [0.06890172095272631, 7.688404165974335e-07], [0.012136828980470946, 1.1350144194856733e-06], [0.07456631451964152, 1.1934882417155873e-06], [0.0029331736115676354, 9.711194693811467e-07], [0.021630441904064747, 7.71635912193431e-07], [0.0406621292156965, 8.248961614059602e-07], [0.004493618266336824, 1.1631291613800623e-06], [0.033019687912734144, 6.522610686352294e-07], [0.025515749455780022, 9.340500824248213e-07], [0.009774426917813757, 6.019610496217769e-07], [0.028430305416925476, 1.0072962475860366e-06], [0.06739963156494896, 7.465546450387444e-07], [0.019966739548358498, 8.282684853347166e-07], [0.004455570287755352, 1.1354365763023038e-06], [0.07269173339988055, 6.83184468788792e-07], [0.03104663814350778, 9.899008801993643e-07], [0.0754568143231299, 9.697194947011565e-07], [0.09586740977360897, 1.137141928832012e-06], [0.024662941958619726, 9.97823298370126e-07], [0.03086696305822498, 8.296718344665032e-07], [0.08350839562050046, 1.0828398907435692e-06], [0.057504442163514725, 9.335496763500798e-07], [0.036807708016648386, 9.389830144135414e-07], [0.05858571037131269, 5.804998352075575e-07], [0.04575866084164653, 1.166122674216317e-06], [0.06164808295077679, 7.063667312569038e-07], [0.021199550784287945, 9.083663603178145e-07], [0.0861675460638985, 8.657265334332646e-07], [0.01366258644087183, 8.5314876188376e-07], [0.09877502756649693, 1.2379312074027591e-06], [0.016394640702588333, 9.443230813065483e-07], [0.0840297082766272, 1.0041012805649043e-06], [0.03206585708651252, 9.616715579311525e-07], [0.0875325419271919, 1.2245382043362039e-06], [0.0776905027005971, 8.525846266795065e-07], [0.06359115386291367, 1.0325464718114425e-06], [0.08780581828482656, 1.1992916545301824e-06], [0.03165834379251526, 9.447685825587796e-07], [0.07801710159306016, 6.267014173398606e-07], [0.0625609193528003, 5.529948998409271e-07], [0.0775702588589302, 4.821405339099026e-07]], [[0.042290441246905765, -8.941409727238588e-11], [0.03700850775569546, -1.3307662603238487e-10], [0.05031915780027404, -1.4559862618284371e-10], [0.04809382197340057, -8.715199525596272e-11], [0.05074061525906972, -1.2859916499645577e-10], [0.00737485053621004, -1.348459570499924e-10], [0.07605144521409653, -1.0962684575986128e-10], [0.04707994050366963, -8.734351874580095e-11], [0.06991259206405538, -9.307602184379762e-11], [0.037141451937435316, -1.3187923854394503e-10], [0.06577718781346568, -7.40904149758547e-11], [0.06559234209526744, -1.0593633591245751e-10], [0.04094341661473244, -6.796294276159854e-11], [0.032450316793347485, -1.1439493253134939e-10], [0.08395149905833794, -8.440815868378852e-11], [0.06800439272411077, -9.407147657660216e-11], [0.008746916426332008, -1.2849144067452013e-10], [0.04766632882713891, -7.780898931408271e-11], [0.004159569845559274, -1.125637250744431e-10], [0.004206056677306875, -1.099001083045232e-10], [0.03261435402209107, -1.2856190234016292e-10], [0.08284168548394155, -1.133539755452397e-10], [0.011308209507189863, -9.41019649703958e-11], [0.0679031624754839, -1.2233890423510497e-10], [0.04413986480594612, -1.0570123434291425e-10], [0.026858672411375416, -1.0642461074626503e-10], [0.08525165959975026, -6.578760747025235e-11], [0.058049597105082104, -1.324196085050788e-10], [0.06017353486430325, -8.01182764955168e-11], [0.002755763559729053, -1.0284702411714447e-10], [0.05876089971167076, -9.840814952064008e-11], [0.07752496860119039, -9.673370469014579e-11], [0.03602005704654047, -1.3986594987073628e-10], [0.009061865045121272, -1.0696186849657589e-10], [0.04308176211715638, -1.1358963686774679e-10], [0.014271768123672902, -1.0876755416142883e-10], [0.010662307608125927, -1.3887990232225638e-10], [0.06793396696043282, -9.647420057486465e-11], [0.08509521684592883, -1.1665850474238545e-10], [0.02686579109839574, -1.3550611959973812e-10], [0.028826827659030083, -1.0650873018839613e-10], [0.016904621360787346, -7.096474703965058e-11], [0.028759900439199428, -6.301213856704511e-11], [0.014168031857531066, -5.441135972729596e-11]], [[0.04127615412711001, 5.199316951888047e-10], [0.05250501233271541, 7.763636700391401e-10], [0.07277823817833975, 8.482476328149056e-10], [0.02445400566908399, 5.066429366354553e-10], [0.011709532293829985, 7.478244982118134e-10], [0.09766123079571418, 7.862746623715685e-10], [0.055851108928457974, 6.399623606850955e-10], [0.02505832008314589, 5.084153620661638e-10], [0.09747395584544782, 5.433900009264944e-10], [0.04634217880799127, 7.665131008484109e-10], [0.042506497023189614, 4.2990213016161384e-10], [0.03703051395981351, 6.15515699285122e-10], [0.008514390254177748, 3.965203590512526e-10], [0.0025378789769658957, 6.638819057893835e-10], [0.004183171176325024, 4.919481344734704e-10], [0.039917548826988926, 5.459450190176603e-10], [0.05151350626178274, 7.478269008874115e-10], [0.015401835125709935, 4.5018130347681164e-10], [0.030065883554529285, 6.525091356650392e-10], [0.012040733743205174, 6.388842323434129e-10], [0.06326602283301588, 7.491168140536562e-10], [0.07399697752009411, 6.579398910329778e-10], [0.012692106613995462, 5.467506585793595e-10], [0.09151237659843951, 7.134294950718919e-10], [0.0927722271974872, 6.152906814795049e-10], [0.08435770881858198, 6.186474788605975e-10], [0.08373004127619059, 3.8255236188243886e-10], [0.06035899555026538, 7.684766945161861e-10], [0.04000566333460612, 4.654975124262231e-10], [0.0741362274368052, 5.985111560773266e-10], [0.089316740993443, 5.706067685902994e-10], [0.008792888795338728, 5.623291934142541e-10], [0.017295773889721314, 8.155641970904887e-10], [0.08713483751204734, 6.222268241949823e-10], [0.08698587579616836, 6.615476094890698e-10], [0.02196426496314133, 6.335289877781075e-10], [0.08909954723519133, 8.071057038076017e-10], [0.04244292036537672, 5.617908805757551e-10], [0.08856179387654851, 6.802040839049838e-10], [0.0755944904582657, 7.901139939012829e-10], [0.02723703263827059, 6.223150437783332e-10], [0.013826016522139814, 4.128367830896624e-10], [0.05436919000901929, 3.6444449532583544e-10], [0.017529194175538575, 3.1764415609484814e-10]], [[0.08481448945956327, 4.589777030895747e-27], [0.07079853201695448, 6.7730815397402e-27], [0.08967018455648551, 7.453401981104084e-27], [0.014850219342124795, 4.473259622010747e-27], [0.02631489677826795, 6.603106481117805e-27], [0.005991520493451111, 6.87104498629931e-27], [0.041656875137757024, 5.536155935435936e-27], [0.01592105046979921, 4.469430307240393e-27], [0.08753680780209236, 4.699328852927401e-27], [0.08001577709547734, 6.811446592369252e-27], [0.02025213721676431, 3.8081749822373095e-27], [0.012931893570593603, 5.483020807480081e-27], [0.08041899192451776, 3.42558790642553e-27], [0.041216442814295734, 5.9283526778363166e-27], [0.091140248399903, 4.292853748470054e-27], [0.0016428597270296233, 4.8725429252617234e-27], [0.02472629133256612, 6.565195386638804e-27], [0.007099489215210641, 4.056098570521513e-27], [0.009894468768656905, 5.851492022580849e-27], [0.09441278199278443, 5.6517367600417946e-27], [0.031625722471884034, 6.545878330165774e-27], [0.06546960214015046, 5.8550130771641036e-27], [0.005474504918898899, 4.840584582940965e-27], [0.042612487371091884, 6.235714521060522e-27], [0.08646529619046424, 5.424907451240685e-27], [0.016625343455255726, 5.458930473267757e-27], [0.0676473711401439, 3.382104796966567e-27], [0.014260932476761983, 6.88851316947727e-27], [0.04425673409476502, 4.105441552657067e-27], [0.08615935534354023, 5.277392004727508e-27], [0.03859812944608681, 5.11680533456314e-27], [0.0023896316581636418, 4.991260238851136e-27], [0.035708905990927624, 7.108713037785658e-27], [0.08841918909744186, 5.4807222009536864e-27], [0.021601868355984728, 5.8179413719681875e-27], [0.016270472465186005, 5.5572567136715116e-27], [0.0344572345869619, 7.19736058902206e-27], [0.08924812580561972, 4.92814763105007e-27], [0.029473276618357854, 5.935940932475254e-27], [0.021859111559151014, 6.924903324670876e-27], [0.016595425950580864, 5.3623147147816846e-27], [0.043861443989645234, 3.622293545346368e-27], [0.0780937616297397, 3.2630519597353414e-27], [0.07835165200527988, 2.734866636442389e-27]], [[0.018985349620386623, -2.548492369806899e-10], [0.0620069139194034, -3.789303792982122e-10], [0.0488694968564587, -4.14744056581694e-10], [0.0835133984551278, -2.484210487114693e-10], [0.029170345406517126, -3.665324377825737e-10], [0.04947285940906757, -3.8403433409610034e-10], [0.04261704956114744, -3.121094253052615e-10], [0.025476633951427113, -2.488748277183751e-10], [0.021496976791640008, -2.649769398740134e-10], [0.06845022924090632, -3.7592734350573744e-10], [0.05856702086071674, -2.1130850006946917e-10], [0.0645472051388923, -3.0200448419577625e-10], [0.06498701895021035, -1.935269489527812e-10], [0.015921361479650963, -3.262262347462191e-10], [0.06888437314372602, -2.404298581791554e-10], [0.02122602520499129, -2.682778114032018e-10], [0.004772957296938016, -3.6613232130756177e-10], [0.048014012099461385, -2.2210069245585443e-10], [0.013276588150578769, -3.211162939557263e-10], [0.026141464526902622, -3.132707027541233e-10], [0.0028169606533689326, -3.662105379190686e-10], [0.09385334012275282, -3.232474046333882e-10], [0.06017145261928747, -2.6827498356785963e-10], [0.032521999297629854, -3.4839946891593775e-10], [0.09285664932769025, -3.011711027960404e-10], [0.09871936848653164, -3.033625142781892e-10], [0.056066760717667606, -1.8750373794047618e-10], [0.0888176396954854, -3.7763369616956875e-10], [0.07198774758134006, -2.2841107137434554e-10], [0.00016501190116062026, -2.9306513904933007e-10], [0.00299266683866903, -2.8071545639015473e-10], [0.09141962021414067, -2.7573306036624634e-10], [0.019159991083967425, -3.98326027307195e-10], [0.07025059627031308, -3.048275442006269e-10], [0.00795202695185721, -3.236072385239119e-10], [0.09715835135747714, -3.0986636730665996e-10], [0.0852040709775172, -3.9589107373935017e-10], [0.09252813201966262, -2.748545200348023e-10], [0.04922664461109834, -3.322438510318781e-10], [0.03738045287256555, -3.8591141312445374e-10], [0.06301197783741848, -3.0315132025479047e-10], [0.00825763540588122, -2.0224469680699662e-10], [0.09186972320645528, -1.7988216063762148e-10], [0.0726375282583757, -1.5490828673106436e-10]], [[0.05702833083341313, -2.126270100664367e-33], [0.059362136055780626, -3.211952694729285e-33], [0.07478281743337087, -3.478722086963035e-33], [0.004050491667289704, -2.0686559400514234e-33], [0.083876395485067, -3.061177641518574e-33], [0.0016612957665658697, -3.238527523302637e-33], [0.08233139959217486, -2.655007864959047e-33], [0.07898019000640605, -2.08664056868292e-33], [0.024865806861235816, -2.2649932221682955e-33], [0.08806197418074181, -3.125501460424691e-33], [0.07022701339975823, -1.7457165784926136e-33], [0.06273567350903017, -2.5073437516906043e-33], [0.021511108866346697, -1.6425680021351108e-33], [0.023824021285502473, -2.6872192933712843e-33], [0.06797571966704559, -2.0300905000604287e-33], [0.0077590491864524365, -2.2251172886814982e-33], [0.08013791853854836, -3.071020552265913e-33], [0.052450634884786046, -1.8131342969986048e-33], [0.07654995892955054, -2.6387261028578635e-33], [0.06478405164811318, -2.6138517427130982e-33], [0.06502618499910592, -3.0779446333405247e-33], [0.08742308008335398, -2.6704608763879125e-33], [0.05129791357705394, -2.2354240808273653e-33], [0.0023534143905652683, -2.9422983254605902e-33], [0.020214856490061103, -2.520461540986512e-33], [0.04698898431005609, -2.530249800304193e-33], [0.02649404958292473, -1.5561730126292474e-33], [0.060003892134816536, -3.1070674677134175e-33], [0.019978199999687505, -1.9033488972826982e-33], [0.07429943338046624, -2.4443525681029364e-33], [0.0835893531372958, -2.3056845154258686e-33], [0.06010106369181372, -2.3010999358903074e-33], [0.019929237683432906, -3.358896813748317e-33], [0.09174240597507104, -2.5528111912137888e-33], [0.024747215245712773, -2.7208665008786407e-33], [0.0495406054796239, -2.602015282020506e-33], [0.036611699948057144, -3.293964483568936e-33], [0.08973756521363971, -2.30363358125188e-33], [0.06417305846916493, -2.810346511070159e-33], [0.030417560791247307, -3.264684144712003e-33], [0.03262610645142051, -2.5953461649675945e-33], [0.08117524593450655, -1.6888476842986214e-33], [0.09619355540084625, -1.4614082633144959e-33], [0.03016337049529177, -1.3160948542112234e-33]], [[0.047924779367951406, -5.842644722385797e-14], [0.022328197175938945, -8.4723473750562e-14], [0.016588995091707727, -9.328632558396615e-14], [0.07635900223165916, -5.701657746590684e-14], [0.0626582911195371, -8.400451324804495e-14], [0.07405784360110265, -8.627829968679916e-14], [0.029695632076221775, -6.98217436898435e-14], [0.008485378483356853, -5.656351494265799e-14], [0.03937222729663109, -5.922214998556504e-14], [0.027752693521584194, -8.606108967682224e-14], [0.08547655329383916, -4.924557498541371e-14], [0.025503311502691913, -6.931207535007308e-14], [0.0868764015803602, -4.3599028985247547e-14], [0.061295284483330686, -7.565831985034511e-14], [0.08472814158410794, -5.414477767882967e-14], [0.001122393556736917, -6.222415145517254e-14], [0.033824665667347535, -8.326038567993787e-14], [0.010340997048759624, -5.2838715995549104e-14], [0.0032504911811588205, -7.506279469752583e-14], [0.01931415103918074, -7.205092976961523e-14], [0.0019734400424466507, -8.251997701673613e-14], [0.032609773651168836, -7.480693286558248e-14], [0.0761073919324303, -6.1990803199105e-14], [0.022162705813508637, -7.791197022332422e-14], [0.01192465569279983, -6.812581735724246e-14], [0.09556503269902013, -6.984655529972426e-14], [0.01587812597060715, -4.294120746681281e-14], [0.023310779367618176, -8.717830909481503e-14], [0.002026831903351668, -5.275675273805497e-14], [0.06104494602214759, -6.65960282783769e-14], [0.08994147781532523, -6.54363486026353e-14], [0.08357758380227921, -6.291652403549217e-14], [0.06585246019668495, -8.942468266887537e-14], [0.04557741061333726, -6.974995394725946e-14], [0.00509246834760985, -7.334961337952949e-14], [0.04487702623553825, -7.019583254490134e-14], [0.026776522728524734, -9.066748389160692e-14], [0.0016160321201578976, -6.197039004412969e-14], [0.05560129909713195, -7.477942952878433e-14], [0.0176361108264077, -8.628091280450953e-14], [0.028233316079700407, -6.712222980242776e-14], [0.004461489782249986, -4.627739015672236e-14], [0.04043078641866344, -4.292486902888969e-14], [0.02385403855895466, -3.4574524825118585e-14]], [[0.041585081097266954, -1.720216312541328e-15], [0.012746280909272633, -2.493025050568997e-15], [0.0825230708549635, -2.743865475537833e-15], [0.09944869970241688, -1.6791220165330879e-15], [0.030533587672293215, -2.4737939021004136e-15], [0.07948769032176216, -2.538733327846047e-15], [0.07852179753460857, -2.0556284640186268e-15], [0.061957520632178346, -1.6651048924261461e-15], [0.048759518972198275, -1.7438402260006189e-15], [0.07171928695120022, -2.53254935876768e-15], [0.03834106009955509, -1.451205497844154e-15], [0.013425435416128215, -2.0397681671553675e-15], [0.08721255758890414, -1.2845782200738242e-15], [0.04858725789563387, -2.2270110613838613e-15], [0.0832175729257256, -1.5941686890760927e-15], [0.007787278578341096, -1.8328403835410987e-15], [0.026688508745914285, -2.4517136449322505e-15], [0.010360750843916456, -1.5575112888031936e-15], [0.06462906846417298, -2.210307020072982e-15], [0.04843032511753493, -2.1220471488793256e-15], [0.0005947965279957655, -2.4286749973645664e-15], [0.08188311307776065, -2.2028947305237347e-15], [0.06229229576101535, -1.825811183295989e-15], [0.06606943403230915, -2.2921361225016327e-15], [0.04544742984382137, -2.0041251667148793e-15], [0.09613803705443233, -2.057502236505748e-15], [0.02996297128802225, -1.2639457097001997e-15], [0.046874025503923764, -2.565342968734963e-15], [0.05973008461272792, -1.554290417391632e-15], [0.06430402256589504, -1.9597691212119137e-15], [0.05005576429722576, -1.9271149141787743e-15], [0.022727436888754757, -1.851476069187324e-15], [0.07454303476761572, -2.6315057643717713e-15], [0.03506965532713495, -2.0539949300170922e-15], [0.020324533977837976, -2.1588653734114625e-15], [0.0711501747311678, -2.0660467547983907e-15], [0.08153751791523486, -2.6681455764728958e-15], [0.08051286022743419, -1.8227808115988004e-15], [0.08894582117845662, -2.2012549352709452e-15], [0.06109920525708775, -2.5380453679136538e-15], [0.0749093126743677, -1.9755353434749554e-15], [0.030667716284302194, -1.3635530726851722e-15], [0.002300702040583823, -1.2659926753400525e-15], [0.03714408719034176, -1.0183999693785468e-15]], [[0.05873044107969348, -7.888639686926165e-07], [0.09022786941338667, -1.1784511838119208e-06], [0.012691706101038144, -1.2869598587469922e-06], [0.04940386103785263, -7.688404256070089e-07], [0.08448293455812432, -1.1350144327544755e-06], [0.03607414999326973, -1.193488255288321e-06], [0.06838506552058911, -9.71119480353765e-07], [0.02342069182990268, -7.716359211116688e-07], [0.05993758894173312, -8.248961707128348e-07], [0.06159685829296558, -1.163129174970398e-06], [0.08110565783709917, -6.522610764438122e-07], [0.09577343604150416, -9.340500933766299e-07], [0.049458312887049674, -6.019610564843201e-07], [0.03577972029716971, -1.0072962595658874e-06], [0.05017345674046795, -7.465546535599463e-07], [0.06114998146160626, -8.282684951844278e-07], [0.05831618385150746, -1.135436589432386e-06], [0.05212520695110954, -6.831844771990062e-07], [0.05087413401195009, -9.899008921018205e-07], [0.09572902020153402, -9.697195060917526e-07], [0.06705193464589969, -1.1371419418211642e-06], [0.02588715742197066, -9.978233102094597e-07], [0.08133430326154269, -8.296718442751284e-07], [0.023666947698080493, -1.082839902982916e-06], [0.04362927471743141, -9.335496870802513e-07], [0.01652523065292075, -9.389830254592501e-07], [0.08771547636146132, -5.804998419881423e-07], [0.027069680397636596, -1.166122688002683e-06], [0.05106086158846052, -7.063667396053342e-07], [0.07914688277242508, -9.08366370819292e-07], [0.01303682981101499, -8.657265438051836e-07], [0.01765807949096541, -8.53148771811335e-07], [0.06049602805380695, -1.2379312214670602e-06], [0.035526176113976855, -9.443230923213917e-07], [0.033613279963590884, -1.0041012921267914e-06], [0.02627157899916563, -9.616715689921066e-07], [0.08893329363409037, -1.224538218653816e-06], [0.010572835399406547, -8.525846364322521e-07], [0.0848518794952178, -1.032546483579411e-06], [0.06655148947440166, -1.1992916680828768e-06], [0.05334332295120502, -9.447685930826925e-07], [0.015544179987554226, -6.267014246484533e-07], [0.011669609279726066, -5.529949066772188e-07], [0.04476052590917226, -4.821405393409601e-07]], [[0.042973484291645, -2.515940615880313e-13], [0.01832865055716277, -3.6892895795676696e-13], [0.07919089160022431, -4.051014119535245e-13], [0.01238948984815171, -2.453555556265493e-13], [0.07797854016483324, -3.617996865876748e-13], [0.05071129871584304, -3.7473491149909466e-13], [0.04668776802440183, -3.0392259391339833e-13], [0.08895052291475251, -2.445338146264732e-13], [0.064583059885902, -2.578139447644033e-13], [0.08399853421612441, -3.708006648560349e-13], [0.057828282559634, -2.1039774677820473e-13], [0.0694576093201724, -2.982965168406989e-13], [0.011670443858224227, -1.8915961709685857e-13], [0.09154298829463457, -3.2409399693797243e-13], [0.009886402421081875, -2.349990223279061e-13], [0.06673328603063011, -2.667690530867152e-13], [0.030482411249780822, -3.598806718346315e-13], [0.04486173373298901, -2.2391166574550867e-13], [0.05564246572427433, -3.20545088044157e-13], [0.06918299451919972, -3.0975341774973646e-13], [0.040728724339524694, -3.580264628215157e-13], [0.043950365845772194, -3.20813021564329e-13], [0.001923731971299827, -2.660100827785355e-13], [0.0731027611384695, -3.39359440688707e-13], [0.06326564997898494, -2.9511005224959146e-13], [0.04913272224235905, -3.000979999221504e-13], [0.07723958014535519, -1.8508763068073638e-13], [0.06447860309269386, -3.744441058927835e-13], [0.04402474827333346, -2.2636313616560853e-13], [0.06541882304470097, -2.8782417524324574e-13], [0.05235544877128672, -2.7976258662536595e-13], [0.05452485043769825, -2.7150469321355054e-13], [0.009739777037540366, -3.8862139036847123e-13], [0.0686761607816621, -3.0054558414260914e-13], [0.01139127057931735, -3.173124282967831e-13], [0.09715065849412065, -3.038392840389841e-13], [0.09774340370388167, -3.90652706932798e-13], [0.023915812637098903, -2.6895096071251725e-13], [0.006253526648062731, -3.246067490367674e-13], [0.040014711493685046, -3.758760365041494e-13], [0.01098011609709858, -2.9356702071534956e-13], [0.08246629777494931, -1.994672846128953e-13], [0.08818674560943224, -1.8167512981081e-13], [0.08355083752829401, -1.506623813364075e-13]], [[0.005886650993694128, 4.087745206690393e-79], [0.04392005739917697, 8.295593798913834e-79], [0.02246194153637062, 1.1769144469303162e-78], [0.016003332916109957, 3.772906239107463e-79], [3.881073580655818e-05, 5.810938575934272e-79], [0.00800546870899644, 8.083082488177289e-79], [0.006459497950534777, 5.547008366855301e-79], [0.09629643003830986, 3.860454027951856e-79], [0.07677789756305796, 3.8333513149785666e-79], [0.09856704414498248, 8.81419239829452e-79], [0.029108929451005367, 1.66021890596416e-79], [0.09260956042358068, 6.737508917862543e-79], [0.02051226229606437, 5.887215925618754e-80], [0.09561494079461415, 6.300373596085181e-79], [0.015271647394528435, 4.5290832054109335e-79], [0.08327664982302542, 4.517254107544706e-79], [0.0704406563482718, 5.3412047491183253e-79], [0.02137525532640493, 4.5098311279850935e-80], [0.08978486548282838, 5.030416843703432e-79], [0.03889223202178928, 3.5424854628065124e-79], [0.06868126204239063, 7.075111950046254e-79], [0.0728287306108646, 6.218125860405499e-79], [0.0025746523426194773, 3.530599084600774e-79], [0.053305851653321655, 9.094739001223671e-79], [0.067284574514434, 7.99807718948558e-79], [0.010180323870579641, 2.6435713561208685e-79], [0.041580241558656174, 3.888632505404898e-79], [0.02026093764524433, 1.0517355951707403e-78], [0.08032309282941098, 2.0419358270662095e-79], [0.07831521391104086, 6.470802910622894e-79], [0.04956512645993279, 4.476826625791167e-79], [0.04603996457504636, 6.428875261458525e-79], [0.028041705885210207, 7.234709812103986e-79], [0.02134136677347722, 4.321591540463352e-79], [0.0993226717688205, 5.475966184950449e-79], [0.012079314826886784, 5.216038124742045e-79], [0.0716605267215143, 1.0117149314019526e-78], [0.00949411981007307, 5.710627730558668e-79], [0.02262461794192078, 6.200045155607084e-79], [0.06325535757735996, 1.112128080485302e-78], [0.010535404773003819, 5.482780549520137e-79], [0.08327565908612648, 2.0291463222128803e-79], [0.08494731505433946, -7.787272056494304e-80], [0.02897325982820141, 1.8060550478237702e-79]], [[0.02817309339114521, 1.0635756152978591e-32], [0.011861490870572417, 1.6066412897519942e-32], [0.08744834537118829, 1.7400739598459816e-32], [0.01037811085866312, 1.0347586215452142e-32], [0.047742314931176304, 1.531225079525108e-32], [0.043557150078966426, 1.6199331838634013e-32], [0.05950333867771492, 1.3280605958058994e-32], [0.03263849347117516, 1.043752582617373e-32], [0.03497938992332073, 1.1329728608687776e-32], [0.012454203503489029, 1.563390893413194e-32], [0.019184852877039322, 8.732241314849e-33], [0.0052987224536376635, 1.2541849979986157e-32], [0.03586310152256966, 8.216304490240928e-33], [0.07101915813289233, 1.3441611299709565e-32], [0.06475600674485467, 1.0154682332203055e-32], [0.0678668283662942, 1.1130193037410706e-32], [0.08936923663462616, 1.5361496672126037e-32], [0.09331811438662285, 9.069433331527952e-33], [0.07082196799517762, 1.3199065098984755e-32], [0.01847848214356746, 1.3074692376604796e-32], [0.041288066624408766, 1.5396107916988345e-32], [0.02166135974361718, 1.3357822023403838e-32], [0.04076639586112671, 1.1181774247786637e-32], [0.015116779468256143, 1.4717550886559128e-32], [0.09803206451258685, 1.2607466230496737e-32], [0.057893144934808995, 1.2656523457124122e-32], [0.019032672415897487, 7.784078715456037e-33], [0.08735548810727602, 1.554163840624855e-32], [0.030802054469016755, 9.520741719252472e-33], [0.0781599541022699, 1.2226775467134925e-32], [0.08949065717552189, 1.1533164034886344e-32], [0.07807980168143365, 1.1510214024989112e-32], [0.023025943035503746, 1.6801445067381229e-32], [0.09149172772874066, 1.2769375523387857e-32], [0.03917008367600245, 1.3609958552906604e-32], [0.03529922453466528, 1.3015487776866968e-32], [0.020576387100463465, 1.6476558389515317e-32], [0.03047758808043355, 1.1522914062450953e-32], [0.08569046777587107, 1.4057580752239167e-32], [0.07324684718896138, 1.633013760482618e-32], [0.08083626361640504, 1.298216538917664e-32], [0.0838404180790865, 8.4477726832033e-33], [0.00908971869840688, 7.310102466034681e-33], [0.06699289932294972, 6.58324405361891e-33]], [[0.08713921743981193, -5.413772785239553e-14], [0.045914061682070025, -7.839262908520781e-14], [0.05403965804892061, -8.633759941870634e-14], [0.07112930163503978, -5.2839086017546916e-14], [0.04166882452484971, -7.784130026759592e-14], [0.001091223244073933, -7.985527860242706e-14], [0.06706145557059046, -6.461684688787671e-14], [0.014110563841572365, -5.238650223924963e-14], [0.058611323226742874, -5.480851323622914e-14], [0.07854396317864125, -7.973455914535712e-14], [0.020231611607047426, -4.5679759663889037e-14], [0.09803513236857342, -6.422615104190485e-14], [0.09497589579234024, -4.036553649552803e-14], [0.07532034906203076, -7.014334470178024e-14], [0.032471108441838675, -5.0122979165637887e-14], [0.04432952948215977, -5.769748457672155e-14], [0.056404192422809155, -7.711821145519839e-14], [0.008260561272991244, -4.9064710757287744e-14], [0.09615225978631149, -6.961686605860409e-14], [0.07332179294674142, -6.67820353786432e-14], [0.020324517530031498, -7.63876940685487e-14], [0.05107347452988362, -6.935212211201023e-14], [0.014666971634769429, -5.747114860723258e-14], [0.08363435569309804, -7.208459834194837e-14], [0.076051730968782, -6.307238396880997e-14], [0.04700383754569158, -6.474719441552836e-14], [0.037107374018721356, -3.9783093035711475e-14], [0.02987975202470635, -8.079709907703689e-14], [0.06748296587241193, -4.891241071927944e-14], [0.035407358787777295, -6.16784058899938e-14], [0.0827613468576853, -6.068778569343014e-14], [0.07901480639060332, -5.827778346676529e-14], [0.018308101803652013, -8.276436660414485e-14], [0.010971872535367983, -6.46304114769445e-14], [0.04997546453204736, -6.792651963500879e-14], [0.02283011772531579, -6.499743674972566e-14], [0.04543909934538467, -8.400178315530377e-14], [0.004426321357556306, -5.735527891432108e-14], [0.05821814527311324, -6.92225502988105e-14], [0.03017180283676783, -7.982574793040645e-14], [0.09196777958694198, -6.207722864532286e-14], [0.06896103667599296, -4.2889200926293715e-14], [0.05624779632076558, -3.9868102653258296e-14], [0.07869184250708104, -3.1994214967935306e-14]], [[0.013960476378017441, -7.888639686926165e-07], [0.003397072817263476, -1.1784511838119208e-06], [0.09746188525049883, -1.2869598587469922e-06], [0.027431679151783267, -7.688404256070089e-07], [0.09452302563864458, -1.1350144327544755e-06], [0.03347245998467605, -1.193488255288321e-06], [0.056493251088613014, -9.71119480353765e-07], [0.09781919428748945, -7.716359211116688e-07], [0.05132904794485746, -8.248961707128348e-07], [0.0706446740511178, -1.163129174970398e-06], [0.07059610851374348, -6.522610764438122e-07], [0.028545265113961316, -9.340500933766299e-07], [0.08975971247160403, -6.019610564843201e-07], [0.0002767761451847721, -1.0072962595658874e-06], [0.025869965236015438, -7.465546535599463e-07], [0.09882984297248942, -8.282684951844278e-07], [0.08452691630854985, -1.135436589432386e-06], [0.02327349760368954, -6.831844771990062e-07], [0.0016468014125042359, -9.899008921018205e-07], [0.06372080325763606, -9.697195060917526e-07], [0.08219015259902261, -1.1371419418211642e-06], [0.011926772472641593, -9.978233102094597e-07], [0.07638535200971433, -8.296718442751284e-07], [0.023611724770405577, -1.0828399029829158e-06], [0.010770806769338866, -9.335496870802513e-07], [0.0065000354985093245, -9.389830254592501e-07], [0.05446576562298679, -5.804998419881423e-07], [0.0937221198870484, -1.166122688002683e-06], [0.045540410995567146, -7.063667396053341e-07], [0.04457626623172586, -9.08366370819292e-07], [0.06865428629763928, -8.657265438051836e-07], [0.054866161136872246, -8.53148771811335e-07], [0.02151714128274507, -1.2379312214670602e-06], [0.04143639178586611, -9.443230923213917e-07], [0.02006767903714292, -1.0041012921267914e-06], [0.08079116864332868, -9.616715689921066e-07], [0.05012961191318693, -1.224538218653816e-06], [0.01603048336272612, -8.525846364322521e-07], [0.033783260028119495, -1.0325464835794108e-06], [0.04436101540935853, -1.1992916680828768e-06], [0.09675405423667724, -9.447685930826925e-07], [0.07059722486173066, -6.267014246484533e-07], [0.006226926939182776, -5.529949066772188e-07], [0.08824601486168822, -4.821405393409601e-07]], [[0.07740987973279753, -4.733152152200797e-06], [0.05274268250404382, -7.070660313950549e-06], [0.08031661514210373, -7.72170786071978e-06], [0.051791623227724626, -4.613011685610492e-06], [7.513918647767361e-05, -6.810041065706375e-06], [0.010551101239257872, -7.160882064758562e-06], [0.04469470117618917, -5.826678338429203e-06], [0.07181187813997955, -4.629784670796925e-06], [0.06371353300510078, -4.9493443156653665e-06], [0.08823873761771805, -6.978728363668914e-06], [0.06264294956013346, -3.913540107362113e-06], [0.0863681962949095, -5.604263029425546e-06], [0.005211023975724463, -3.6117424050899816e-06], [0.07508782938318155, -6.0437369207334115e-06], [0.09694834701170427, -4.4792981687834485e-06], [0.04562920349175466, -4.969577532545201e-06], [0.05347665671080563, -6.812574125827636e-06], [0.05007425625667582, -4.0990790183507294e-06], [0.04577852219415709, -5.9393652709672725e-06], [0.0522583693589735, -5.818278098571447e-06], [0.007238566071578291, -6.822806347585758e-06], [0.07842825859637176, -5.986899612790978e-06], [0.059463302148615935, -4.977997680581929e-06], [0.05431479307776877, -6.496996380863301e-06], [0.035528194957580125, -5.601260823675184e-06], [0.03579571185153102, -5.6338604362151426e-06], [0.03395923863412546, -3.4829757600133726e-06], [0.04119519314881054, -6.99668911510761e-06], [0.06872342126876443, -4.23817201533554e-06], [0.09476268813719722, -5.450161899300341e-06], [0.0039788850965874435, -5.194324243903013e-06], [0.08164322168756698, -5.118858412483042e-06], [0.036309285506155184, -7.427538096539408e-06], [0.05092332933372626, -5.665900713406048e-06], [0.038582930524204875, -6.024567671103855e-06], [0.012832678334982939, -5.769991034862997e-06], [0.03699551342395068, -7.34718013519447e-06], [0.04008245270074079, -5.115473790945076e-06], [0.021474717970014018, -6.195237824729752e-06], [0.029631460386661288, -7.195702342509176e-06], [0.08618632238972772, -5.668574209002446e-06], [0.04783237129755919, -3.7601834285087242e-06], [0.08090736155243032, -3.317946869245893e-06], [0.02671100279894803, -2.892824112446106e-06]], [[0.09745612734307464, -7.888639690768633e-07], [0.07919503155780429, -1.1784511843700526e-06], [0.08151780117516624, -1.2869598593608831e-06], [0.012551335954550007, -7.688404259820117e-07], [0.0036993221457580316, -1.1350144333070464e-06], [0.020676467229247673, -1.193488255856365e-06], [0.041814318861859, -9.711194808139216e-07], [0.020571939452988613, -7.716359214838989e-07], [0.08941152830136988, -8.248961711032028e-07], [0.014292342980063533, -1.1631291755360793e-06], [0.05579225661586881, -6.522610767674764e-07], [0.011825438933326177, -9.340500938321378e-07], [0.0858222802771726, -6.019610567717502e-07], [0.08579391664626687, -1.0072962600628025e-06], [0.06107471200885672, -7.465546539165873e-07], [0.04573113132592126, -8.282684955934071e-07], [0.07870342300043233, -1.1354365899804254e-06], [0.04286566643340566, -6.831844775458029e-07], [0.06714369157694053, -9.89900892594711e-07], [0.05127775782393543, -9.69719506565595e-07], [0.07937390291106985, -1.1371419423644831e-06], [0.024876276875695966, -9.978233107010882e-07], [0.004550545019370121, -8.296718446826513e-07], [0.07353056932343364, -1.0828399034960573e-06], [0.05730430081664164, -9.335496875283917e-07], [0.07263054566322566, -9.389830259186016e-07], [0.0965768298295875, -5.804998422704899e-07], [0.09088417376859839, -1.1661226885753252e-06], [0.030602748849686393, -7.063667399522607e-07], [0.051823690210182675, -9.083663712573098e-07], [0.026118533490569536, -8.657265442349963e-07], [0.09196318900416886, -8.531487722250389e-07], [0.013672595204604414, -1.2379312220559199e-06], [0.047686729872406415, -9.443230927802626e-07], [0.005461646600452417, -1.004101292609427e-06], [0.007555879907512084, -9.61671569454096e-07], [0.04560181429932043, -1.2245382192498134e-06], [0.06531263736126752, -8.525846368400025e-07], [0.00134445259465166, -1.032546484071845e-06], [0.00020073858220795836, -1.1992916686510697e-06], [0.08806192303862573, -9.447685935253481e-07], [0.012247200565009865, -6.26701424953041e-07], [0.03838991100317358, -5.529949069590725e-07], [0.05730327966542531, -4.82140539569013e-07]], [[0.09622054975342283, -2.4706822042703253e-64], [0.025885479796192094, -3.60053138504047e-64], [0.014269981974091621, -3.559079772812515e-64], [0.09322772282502984, -2.5682493071640003e-64], [0.0014508119337024153, -3.823300753974938e-64], [0.08718196127865815, -3.688957939282416e-64], [0.06086651791653083, -3.5843081005209085e-64], [0.004286465816102821, -2.452746637530267e-64], [0.03740608845830459, -3.271609618630122e-64], [0.004559838273898925, -3.158245215585252e-64], [0.04130338254282086, -2.568898613733781e-64], [0.0231070998034319, -2.6009028517889737e-64], [0.03763725188789714, -2.305385431174289e-64], [0.06436631410702583, -2.8519827296249483e-64], [0.08355956917772266, -2.6148142778613964e-64], [0.09227647742950931, -2.809236801392124e-64], [0.012723350025373795, -3.738681755976887e-64], [0.054376647577169736, -2.431980360680945e-64], [0.06225175239630509, -3.031459778129783e-64], [0.07565844962875529, -3.209377585746857e-64], [0.0011000746206653678, -3.5265031006391546e-64], [0.011351828599691336, -3.3403759447978485e-64], [0.08774373580649057, -2.8492325191191106e-64], [0.010329992819030546, -3.1122074998647004e-64], [0.08015707965134043, -2.529683927475142e-64], [0.09057468281031904, -3.178931649115934e-64], [0.040095684261846065, -1.776423426189356e-64], [0.010982720843355543, -2.954219367117567e-64], [0.010720768326803506, -2.5908437210469217e-64], [0.04910648505823032, -2.6140310469340694e-64], [0.030228044268396106, -2.4986836996736764e-64], [0.07609554484672118, -2.4219121572254857e-64], [0.07278271618586811, -3.788376112444556e-64], [0.09905034065534776, -3.23205167257292e-64], [0.04870553304341787, -2.928619173787141e-64], [0.06836801687708734, -3.048129834486227e-64], [0.005811918874173928, -3.160881288241825e-64], [0.07636622390785357, -2.5694689731444748e-64], [0.05782993898246975, -3.361014214317491e-64], [0.020930655263594077, -3.36243480932651e-64], [0.0801901480318457, -3.4579736208005984e-64], [0.03605023251922193, -2.3965549453851805e-64], [0.09024018326471227, -2.255497463118706e-64], [0.0490344228211597, -1.8906834502435057e-64]], [[0.0260099340321881, -1.4788617354506815e-29], [0.0661468903176685, -2.2155303456239228e-29], [0.04027962711649762, -2.432364928894676e-29], [0.027107276350094786, -1.4393157542499047e-29], [0.07385797129395592, -2.1282207699271318e-29], [0.006211431420824173, -2.2415412248020791e-29], [0.08103527188915224, -1.807791830741988e-29], [0.025540066255440717, -1.447805227096965e-29], [0.06284912805179965, -1.5357648424411942e-29], [0.007356595897713993, -2.201682688083891e-29], 