[[[[0.09543000986991625, 9.693584931304398e-07], [0.009946579022163383, 1.1015731721639914e-06], [-0.0009136483863957188, 1.005121676503135e-06], [0.0020988908101345714, 9.320383393201402e-07], [0.053602709764566984, 1.3700634381997938e-06], [0.05583277901727794, 1.1691244843969961e-06], [-0.0013771939900658664, 1.1355826085140745e-06], [0.008054273104993088, 8.692382807151772e-07], [0.014572825086656863, 9.794800157972201e-07], [0.076923997252772, 1.1030653408952665e-06], [0.08235959846491896, 9.777904263277812e-07], [0.03268295070123691, 9.198286843953277e-07], [0.008829725506009526, 8.772923882768861e-07], [0.06005757432860202, 1.1593451824389745e-06], [0.05008935779785197, 8.604399468994752e-07], [0.029156759446502686, 1.0001427359819012e-06], [0.06826174772430145, 1.3597048543908611e-06], [0.07435343747884583, 1.1259799923726781e-06], [0.028952971913078156, 1.2682432655990015e-06], [0.030949554773753808, 1.2684410216578804e-06], [0.0701159952836791, 1.201180495904698e-06], [0.093836175462606, 1.200392465477473e-06], [0.05176315721463443, 1.0923522923281423e-06], [0.09069372515242553, 9.296110777551622e-07], [0.06873991969940309, 7.939646943886736e-07], [0.07615465848273133, 1.2855135581357627e-06], [0.013329829376982228, 6.321870573188287e-07], [0.037065223024610926, 1.052359185587385e-06], [0.003285116810148433, 1.0048461353843796e-06], [0.040296945827012265, 8.831516183757009e-07], [0.07912604011281751, 1.0555302241809608e-06], [0.06003874244678536, 8.109924047883192e-07], [-0.00237417309857414, 1.2804436687178524e-06], [0.03438274851072618, 1.198459332282963e-06], [0.015710548618591346, 1.0679415758852542e-06], [0.07520349587059778, 1.0423997418223453e-06], [0.06317414333171462, 1.1226193624353554e-06], [0.08868820352045237, 8.29586343035253e-07], [0.0432134470072498, 1.135750964597932e-06], [0.07366089161188298, 9.264854820605055e-07], [0.04938904776956806, 9.96804510198657e-07], [0.054989815425827336, 8.605308829004937e-07], [0.03775269807918642, 1.0365413358551281e-06], [0.006029736484982052, 6.145458807999093e-07]], [[0.05762501837493257, 2.445125463267536e-07], [0.04744745381973504, 2.7770911677984427e-07], [0.0473583595990188, 2.5349244418924257e-07], [0.05665325661354648, 2.3487286400317526e-07], [0.010110246950468499, 3.454008099554631e-07], [0.04141059327876989, 2.948132039487974e-07], [0.03826678604288178, 2.8638926767003017e-07], [0.0019564436103338525, 2.1919262824139287e-07], [0.07782531930974926, 2.469753028543546e-07], [0.04429763458636978, 2.7816038082833803e-07], [0.014790496219621797, 2.4667758529986884e-07], [0.06362995884210089, 2.3183287883375826e-07], [0.059735451075077446, 2.213889959031888e-07], [0.0675717134849277, 2.9237516290654797e-07], [0.01245622152704913, 2.1705642767594994e-07], [0.09616998754813436, 2.5219956820793723e-07], [0.022751359718844635, 3.4265106745265104e-07], [0.09460260385616319, 2.840311428127516e-07], [0.02034082833582861, 3.1971746047293693e-07], [0.041450354772970384, 3.1994217850582653e-07], [0.08486508741870512, 3.028635808067357e-07], [0.05927306061125924, 3.027581164476314e-07], [0.06870085769301275, 2.7541418553993315e-07], [0.01663132763288603, 2.3446959496578047e-07], [0.030462532975074796, 2.0033031522696023e-07], [0.045561018314179275, 3.24196243473305e-07], [0.062161001568908046, 1.594882471869111e-07], [0.07825145003738139, 2.655202952489249e-07], [0.07185906608473187, 2.5323144053637904e-07], [0.09866664521150185, 2.2273916844418322e-07], [0.023961749745013375, 2.66083720575843e-07], [0.03217557086249532, 2.0459980632950434e-07], [0.07091442814104812, 3.229676393016806e-07], [0.05339387453659404, 3.022007621544164e-07], [0.02308767836747646, 2.6925655858467473e-07], [0.07891822116361273, 2.626213871659017e-07], [0.038002716736506424, 2.83088531321867e-07], [0.008772508155753212, 2.0927737300552787e-07], [0.0003180529615549084, 2.864164400147337e-07], [0.03771332154383499, 2.3350008682030695e-07], [0.0022279306143001324, 2.5122856288924354e-07], [0.06116524082344584, 2.169683302251592e-07], [0.09858337073393601, 2.615076413993446e-07], [0.02818845564170028, 1.550334117580488e-07]], [[0.04355540867791679, -1.859498631742105e-11], [0.05757053081085792, -2.1058312259166996e-11], [0.0961819920800995, -1.9325121198777402e-11], [0.04856044713296896, -1.7797700074707767e-11], [0.08456269498403506, -2.622773170400636e-11], [0.029692095667767374, -2.233794800162012e-11], [0.06923507651884556, -2.182845075337857e-11], [0.09885340878936576, -1.657786524012196e-11], [0.02269465632489228, -1.885391291879005e-11], [0.06402104954396029, -2.110959521677117e-11], [0.005878126871254732, -1.8861803467236562e-11], [0.06422986268135644, -1.7557453256181343e-11], [0.013257268863837815, -1.6764364050372667e-11], [0.04145104462429308, -2.2220496018766225e-11], [0.07006798925086563, -1.650650208039629e-11], [0.05215092855194351, -1.9285296633846458e-11], [0.012209907149462204, -2.5943605996770096e-11], [0.029968628277141113, -2.1565290097351363e-11], [0.0891312181383911, -2.4357933398245563e-11], [0.013072640308000757, -2.418077982728309e-11], [0.01655376954942563, -2.2891266983079955e-11], [0.003701504627095864, -2.3187156554287207e-11], [0.010060707816104615, -2.0966097249792223e-11], [0.029142891674658555, -1.78056763636677e-11], [0.058906125857709796, -1.5299445843330087e-11], [0.030344510973959432, -2.4481941695152045e-11], [0.014222068352404468, -1.2146959345744922e-11], [0.06657849146378633, -2.033151939577034e-11], [0.023665267179764565, -1.9140171773593762e-11], [0.027934222392240925, -1.6962676886932552e-11], [0.04823883586752184, -2.0136989606652466e-11], [0.03359342269357127, -1.5561503329118558e-11], [0.03987598279768557, -2.4385968027563744e-11], [0.039694561606958986, -2.302741160470973e-11], [0.049395334803518244, -2.0220273670550417e-11], [0.029116101078429386, -1.9696072867139884e-11], [0.04210951925071601, -2.1434964941409977e-11], [0.0654014258991148, -1.5873682061653104e-11], [0.06519335234382742, -2.1782026843077322e-11], [0.006042873334734238, -1.7742532612249262e-11], [0.04932476001288948, -1.907732738337073e-11], [0.058158753800686414, -1.6415759290407346e-11], [0.017498043275639714, -1.9972533371824573e-11], [0.001403024924948221, -1.1887205843639764e-11]], [[0.04135584895492996, 2.6919110585632583e-07], [0.06092105320653608, 3.0615052252122343e-07], [0.011062615511825385, 2.793028718755353e-07], [0.09204123859997533, 2.591288438697896e-07], [0.06276150705129944, 3.8080600505818465e-07], [0.06929348448510918, 3.248717184160525e-07], [0.08982917261553101, 3.1547715905678523e-07], [0.0026846247162250433, 2.4149957034956813e-07], [0.09208761077197015, 2.7217615353898487e-07], [0.005786567972061358, 3.064710397385598e-07], [0.022078411583211357, 2.7154126359443294e-07], [0.07455852086444129, 2.5575125887646867e-07], [0.0007737237509053274, 2.4350590374437393e-07], [0.024711105899059508, 3.220048229321991e-07], [0.06740903317618917, 2.3895131459273916e-07], [0.00899497401350581, 2.7788533293562276e-07], [0.053096371587310634, 3.7793308512485987e-07], [0.01812508170574329, 3.1269069635346665e-07], [0.05680935914880342, 3.5244767115375335e-07], [0.010729237911921681, 3.522524311638771e-07], [0.03601369566736632, 3.337525803536335e-07], [0.025324216089636486, 3.3339357344014636e-07], [0.030237172301115205, 3.035722238490887e-07], [0.02468232314293433, 2.58277025111937e-07], [0.033663649773444534, 2.2044053142963322e-07], [0.03180518124506778, 3.570517057198933e-07], [0.07893590234011692, 1.755141173085995e-07], [0.009269146662761886, 2.9223570542795436e-07], [0.004670538635446435, 2.7937327666168453e-07], [0.05383006770929637, 2.4529666553756684e-07], [0.027105730015875615, 2.9332651141866715e-07], [0.01301733435445301, 2.2529849717755522e-07], [0.030439074701580054, 3.5559104082211534e-07], [0.08047556320884036, 3.3296477929878204e-07], [0.017791366976987435, 2.9670378287685413e-07], [0.05389895815738629, 2.899004928280493e-07], [0.0008727000148757845, 3.1187743428119537e-07], [0.024535714111976633, 2.3047654830549732e-07], [0.032579745734562085, 3.154315232840765e-07], [0.022256724237893655, 2.576451930787723e-07], [0.08016126344134625, 2.7719729532202107e-07], [0.056082275161718126, 2.3903553825498827e-07], [0.020601219054573457, 2.878004596290362e-07], [0.04658761008563153, 1.706494199493203e-07]], [[0.013257561975084013, -5.670246675385275e-12], [0.03701520395263551, -6.394542869779729e-12], [0.004914708856613747, -5.9552393716721995e-12], [0.0066174699859414396, -5.401199229969317e-12], [0.06354991508683837, -8.014940446335694e-12], [0.01666344594876989, -6.762530458568092e-12], [0.09016871701083992, -6.717311831918079e-12], [0.016672732677657016, -4.99579888294247e-12], [0.050534497496769575, -5.844942496728063e-12], [0.014248330693381142, -6.417556966343608e-12], [0.03185469232944512, -5.850639611919731e-12], [0.03721953134408983, -5.323841966848732e-12], [0.03844093865466657, -5.054643258859292e-12], [0.05498397916112955, -6.785600234396186e-12], [0.04180592643426812, -5.0498695070494306e-12], [0.009626603491659825, -5.991110069263173e-12], [0.023809911190714253, -7.836639043780257e-12], [0.00842179350385845, -6.562276334470924e-12], [0.0630753554859306, -7.478358476111144e-12], [0.02317351844354477, -7.2612715015000014e-12], [0.09080025921500456, -6.8995023775115574e-12], [0.09552839500720162, -7.233326189074212e-12], [0.02979159102602926, -6.444400697430116e-12], [0.08002118341040837, -5.4354967126371405e-12], [0.013290215115014123, -4.719532708720483e-12], [0.024060368976270556, -7.341507766156405e-12], [0.0529411290537906, -3.7134062208846346e-12], [0.08293567528364779, -6.321708271426754e-12], [0.08566312239593567, -5.786616968565835e-12], [0.017674125752271324, -5.187971513326255e-12], [0.09490665083991985, -6.068838764707603e-12], [0.057818758346196736, -4.7631947190044826e-12], [0.0023617686505940654, -7.295279219559788e-12], [0.03874853460439735, -7.060245153012943e-12], [0.031800745486618195, -5.9702398890322315e-12], [0.06545095722129955, -5.817147080790624e-12], [0.05315627562589799, -6.499225640935226e-12], [0.0036245372344211337, -4.8008269716047585e-12], [0.025569472352717178, -6.664424051214841e-12], [0.04924078104503663, -5.442472147379978e-12], [0.07462000000235158, -5.839728862234704e-12], [0.0464786931996242, -4.9617205509749175e-12], [0.03727663984323289, -6.166906215514629e-12], [0.07382828565933597, -3.71402945999528e-12]], [[0.031218728298740967, 7.195633773884617e-07], [0.09747339023853512, 8.17857530083844e-07], [0.0506448334969978, 7.461485283478186e-07], [0.060505715715213675, 6.920815566298049e-07], [0.004709300920864221, 1.017191835921482e-06], [0.07055967019856281, 8.67936725183059e-07], [0.07831361853716368, 8.430026800250526e-07], [0.09591605731117936, 6.453078198864601e-07], [0.07264025568163572, 7.27164653724663e-07], [0.08702988650159099, 8.188910241521751e-07], [0.09625010280226755, 7.257835441060085e-07], [0.057627652498333806, 6.829783417332954e-07], [0.0878583371334408, 6.511249315081516e-07], [0.05804578310346284, 8.606501828688345e-07], [0.03506959577180159, 6.386963869410395e-07], [0.007998728159694633, 7.424901622003682e-07], [0.09951906966748356, 1.009639398353557e-06], [0.08698836591034109, 8.358112757755921e-07], [0.054458036912165594, 9.416096114397865e-07], [0.06171420769608686, 9.415863814757448e-07], [0.014849384864443744, 8.917695832827794e-07], [0.05961439229030364, 8.910916820469692e-07], [0.05204771839652589, 8.109802206235996e-07], [0.017741989758365575, 6.90074738196479e-07], [0.09879349563274217, 5.893082814305841e-07], [0.059641907525839054, 9.543109001775202e-07], [0.005129961147401386, 4.6925294940711506e-07], [0.09137170413298108, 7.811026370763136e-07], [0.004487974685681349, 7.461353620374692e-07], [0.08744613750358107, 6.555972012641401e-07], [0.048599901995556034, 7.836892715001389e-07], [0.06546453532517194, 6.019716243615707e-07], [0.06080513078411412, 9.504986019641756e-07], [0.049306230932380006, 8.897236710271082e-07], [0.00901773097461918, 7.928650595635817e-07], [0.009726069698078831, 7.740926685033648e-07], [0.07515720158066246, 8.334132788907129e-07], [0.07929279683956833, 6.157840348593775e-07], [0.07974893302403462, 8.431471109717768e-07], [0.021753792790241273, 6.879319015966367e-07], [0.04440276780844208, 7.401381975087539e-07], [0.007034844527401493, 6.38872509324622e-07], [0.07618766422121451, 7.693833873569656e-07], [0.034042250032435856, 4.561627120898427e-07]], [[0.05420874478056921, 1.4540433678123678e-06], [0.07868810992627089, 1.6523661047721698e-06], [0.08625067604391404, 1.5076884237604086e-06], [0.022797386306851623, 1.3980628695392153e-06], [0.08485866225678827, 2.0551031108661146e-06], [0.03387135445292321, 1.7536934389633532e-06], [0.009147517701448093, 1.703380578670221e-06], [0.03887392447069544, 1.3038623804332449e-06], [0.02069510967952093, 1.4692258221073389e-06], [0.06396422734780008, 1.6546043808588302e-06], [0.046693733477070655, 1.4666914441479904e-06], [0.08182957529490824, 1.3797483098534184e-06], [0.08710416365397933, 1.3159436007726077e-06], [0.03757657141940523, 1.739024507944226e-06], [0.08687579575064011, 1.2906649324849118e-06], [0.08606124568130352, 1.5002200474546263e-06], [0.010030532880850766, 2.0395650603131254e-06], [0.04143691343518733, 1.6889765016119136e-06], [0.08433656029555177, 1.9023723191527982e-06], [0.017527882780443087, 1.902668741774133e-06], [0.0023155144359304665, 1.8017775930806189e-06], [0.018240734484906075, 1.800595873555807e-06], [0.009492146246488208, 1.6385348330929186e-06], [0.042578624693657426, 1.394422011087294e-06], [0.032730481235309784, 1.1909517248423822e-06], [0.07307824078375431, 1.928277626114533e-06], [0.024011705956443925, 9.482842718357712e-07], [0.016092935277303523, 1.5785450500874398e-06], [0.02019112751424486, 1.5072749466498538e-06], [0.08871371535776673, 1.324732576031127e-06], [0.09667529262574724, 1.5833013605965888e-06], [0.007870197484612347, 1.2164933340625863e-06], [0.05683636503845125, 1.9206727469875694e-06], [0.08569193195284086, 1.7976960049132227e-06], [0.00687035761113116, 1.6019182931112618e-06], [0.014196427244874339, 1.5636053892065421e-06], [0.0932253365007012, 1.683935494442122e-06], [0.07898454486810826, 1.244384280172066e-06], [0.02938926335680425, 1.703633061033418e-06], [0.06141823576292939, 1.3897336231320945e-06], [0.0898690727562078, 1.4952125596478047e-06], [0.09932911308025875, 1.2908012491254413e-06], [0.031620107847808554, 1.554818122781871e-06], [0.09064817674891316, 9.218225054712823e-07]], [[0.0706012454939056, -3.78016445025685e-12], [0.03366897872217905, -4.263028579853153e-12], [0.00422960858294782, -3.9701595811148005e-12], [0.07663587129527871, -3.600799486646212e-12], [0.05587449357641269, -5.343293630890462e-12], [0.0940232667871849, -4.5083536390453955e-12], [0.08320532154606827, -4.478207887945387e-12], [0.03434453231447924, -3.3305325886283138e-12], [0.025825828589170163, -3.896628331152042e-12], [0.03788265734167969, -4.278371310895739e-12], [0.06872452026145218, -3.900426407946488e-12], [0.021425976315226254, -3.5492279778991552e-12], [0.03241273494579719, -3.3697621725728623e-12], [0.041671261548885605, -4.5237334895974575e-12], [0.011249175220074643, -3.366579671366287e-12], [0.09280535073417, -3.994073379508783e-12], [0.04714855369597734, -5.22442602918684e-12], [0.05833188564090862, -4.374850889647283e-12], [0.01553840655855687, -4.985572317407429e-12], [0.021434410003546452, -4.840847667666668e-12], [0.014402303656116925, -4.599668251674372e-12], [0.047100007064699495, -4.822217459382808e-12], [0.07875253664129876, -4.2962671316200785e-12], [0.08646922017747882, -3.6236644750914278e-12], [0.08233476259711507, -3.1463551391469884e-12], [0.015378964041658002, -4.894338510770937e-12], [0.06988281077082648, -2.4756041472564233e-12], [0.03752838551922105, -4.2144721809511695e-12], [0.05803202068189141, -3.857744645710557e-12], [0.08064237258408997, -3.4586476755508367e-12], [0.06812027727311346, -4.045892509805069e-12], [0.054450687253244284, -3.1754631460029886e-12], [0.024656830936284967, -4.863519479706526e-12], [0.08407145892743392, -4.7068301020086285e-12], [0.037637408259874064, -3.980159926021488e-12], [0.007793923483427443, -3.878098053860416e-12], [0.061006404771854955, -4.332817093956818e-12], [0.04986614093688181, -3.2005513144031726e-12], [0.029539153164667754, -4.4429493674765615e-12], [0.0664742853838225, -3.6283147649199854e-12], [0.06882973059008139, -3.8931525748231365e-12], [0.06879450569599813, -3.307813700649945e-12], [0.02270446771798952, -4.111270810343087e-12], [0.0065477361456943994, -2.476019639996854e-12]], [[0.028749468377901478, -6.956203607598653e-11], [0.028039651823109066, -7.904897280995183e-11], [0.018956535275680843, -7.218993107146725e-11], [0.0281760579319738, -6.689921027516968e-11], [0.02657272024559905, -9.83361482088317e-11], [0.08681213761151484, -8.390837571978228e-11], [0.0156327983357563, -8.153516054380448e-11], [0.08193145499520274, -6.2355175696461e-11], [0.03538745710938737, -7.032700859813249e-11], [0.05347495140538484, -7.916846067421936e-11], [0.007289169381861091, -7.022430178541179e-11], [0.09576764140198334, -6.601474071916717e-11], [0.01844289740399713, -6.291613542028649e-11], [0.015227007430192964, -8.319337977097581e-11], [0.027019543458239106, -6.172372940207661e-11], [0.09282019945509039, -7.184563653677023e-11], [0.03748665862032057, -9.758233093191719e-11], [0.0014447734776744398, -8.08085545079075e-11], [0.07332531466768719, -9.106506052799368e-11], [0.06342658449977867, -9.097803264808106e-11], [0.02934103180428173, -8.614502543143461e-11], [0.02585237832549849, -8.620226130621291e-11], [0.01430875981718127, -7.842956972989263e-11], [0.045292352138558666, -6.67034322518324e-11], [0.018230464834129795, -5.69961345662943e-11], [0.06789660082775092, -9.220339842554228e-11], [0.089335472599182, -4.5380673513495846e-11], [0.06810635815585694, -7.558466501241188e-11], [0.06799284069055757, -7.209771511021223e-11], [0.013047041061682273, -6.341294902341692e-11], [0.07407706746375209, -7.575119240192586e-11], [0.08749303052037909, -5.822120474186299e-11], [0.015311937641589482, -9.18325350345732e-11], [0.07471526334991091, -8.606123331000857e-11], [0.03936534046504152, -7.655134694884794e-11], [0.06800032620689485, -7.475477004884344e-11], [0.026453182764825063, -8.051556935958845e-11], [0.010642366932873478, -5.957525730780702e-11], [0.045607822787422106, -8.147088698027179e-11], [0.0810941375315151, -6.650745094117747e-11], [0.04893752392503695, -7.156521058770848e-11], [0.04916548433737247, -6.174393631102157e-11], [0.05838428339717391, -7.44314343584488e-11], [0.03013206295847749, -4.4130453846324186e-11]], [[0.0050853168472636675, 2.4233962328260994e-07], [0.03304818172586614, 2.7539329304099784e-07], [0.011149352285455843, 2.5128041912578375e-07], [-0.0002860121946425696, 2.3300958483003505e-07], [0.023284650723590705, 3.4251585954994846e-07], [0.028707614475628453, 2.9228112109924903e-07], [0.0835368153538328, 2.838956521285186e-07], [0.06487934527913819, 2.173095701787943e-07], [0.024820095676789024, 2.4487000394930503e-07], [0.05110715175731583, 2.7576633522381663e-07], [0.06945128888593642, 2.444476065819453e-07], [0.0662400504881241, 2.2995717109883192e-07], [0.05490896116864104, 2.1932309706922154e-07], [0.03141113908452697, 2.898362956097436e-07], [0.05386305215369764, 2.151099867248688e-07], [0.011746137187785373, 2.500356839954753e-07], [0.004944856739858607, 3.399262135977153e-07], [0.0971813851374425, 2.8149499809316953e-07], [0.08181816948668777, 3.170608163997504e-07], [0.0631477773795084, 3.171102554144701e-07], [0.0686502737896941, 3.002951239761745e-07], [0.04787935408006393, 3.0009811636936824e-07], [0.013364836915105139, 2.730880730820356e-07], [0.04655388923304393, 2.3240276943879054e-07], [0.04130991886245789, 1.984911735971684e-07], [0.044386871201867975, 3.213783895339407e-07], [0.09239000376114641, 1.5804676432970718e-07], [0.08517344511958831, 2.630897963968463e-07], [0.09175757448904051, 2.512115338460949e-07], [0.07178470468067912, 2.2078790459392524e-07], [0.01084005937315628, 2.638825560452402e-07], [0.0049251042100750125, 2.027481011970798e-07], [0.013518103188226232, 3.201109171794631e-07], [0.0883457322872991, 2.9961483307074073e-07], [0.02665655836040178, 2.6698539397131354e-07], [0.04695469487405903, 2.605999354555863e-07], [0.0824319536040968, 2.8065484060883886e-07], [0.028513636806751126, 2.0739658575881324e-07], [0.09111612909732357, 2.83937741149483e-07], [0.05360561535458453, 2.3162137051512637e-07], [0.0027723500598817253, 2.4920112754966424e-07], [0.01278701781983118, 2.1513272072512343e-07], [0.06455142720239831, 2.5913533396378203e-07], [0.0803962725838187, 1.5363647019997733e-07]], [[0.0595650963766724, -1.2303744460486841e-12], [0.09445748133910631, -1.3671433328176554e-12], [0.09322768980166955, -1.287940149630001e-12], [0.05615161226091113, -1.1482906139822855e-12], [0.07056455115397679, -1.7137681113041796e-12], [0.07846811319578645, -1.448124160176043e-12], [0.00652622381124995, -1.4534279572082015e-12], [0.023375909954941716, -1.0677699489765639e-12], [0.07326541336193543, -1.2633968153639528e-12], [0.002925135503665193, -1.3791819086120783e-12], [0.020931760396454613, -1.2767568414542732e-12], [0.07951721890271875, -1.1305381804394104e-12], [0.08695048913524002, -1.0934036002932289e-12], [0.021462447980951888, -1.4647119605390226e-12], [0.057536576175363244, -1.09382486999033e-12], [0.04029861463204801, -1.3007695104454547e-12], [0.005713366905750836, -1.6684771618028299e-12], [0.06576950271327829, -1.4158842830902124e-12], [0.017773338900582775, -1.613076114183262e-12], [0.05490019807807167, -1.557925649924445e-12], [0.04647619819400545, -1.4718369764423095e-12], [0.08379678643988189, -1.5779363394966322e-12], [0.033955451658775275, -1.3834065799247996e-12], [0.07796031683722696, -1.1679579018420947e-12], [0.04089329640682056, -1.0330687158409662e-12], [0.03668169836657654, -1.567892432433339e-12], [0.004783482118811218, -8.089328228691782e-13], [0.05650074496445945, -1.386343266522365e-12], [0.03504827780788133, -1.2225451785325151e-12], [0.04304449446336607, -1.1267700811012803e-12], [0.07822644945867369, -1.2952198320705182e-12], [0.09398210592031986, -1.0290166224793121e-12], [0.09827319296226417, -1.5636431295235206e-12], [0.009097151914016475, -1.5294052801165097e-12], [0.03480619610768238, -1.260717645102614e-12], [0.01277746139302425, -1.2104782936936725e-12], [0.07785640307179649, -1.3886728715924255e-12], [0.00869810387341232, -1.0347075278508605e-12], [0.050294489171646216, -1.4408427848950662e-12], [0.09877062431779597, -1.1592046100262485e-12], [0.014432697341210282, -1.2422280353712452e-12], [0.0955203694023746, -1.0597402996812756e-12], [0.03838939960871468, -1.3457961703143575e-12], [0.08647478636686978, -8.141702902423337e-13]], [[0.09650904061339345, -2.634766035061408e-12], [0.09481326237836263, -2.977680175808895e-12], [0.03511552563714783, -2.7467113595052307e-12], [0.01829638330049214, -2.514968082551426e-12], [0.09051982725271666, -3.71566130080497e-12], [0.09877322380452631, -3.1557504843348928e-12], [0.06800947441233056, -3.101419804062478e-12], [0.020406988071358205, -2.338391775652895e-12], [0.0348350476328348, -2.6847037338727643e-12], [0.035832861898616106, -2.9866046744088846e-12], [0.004959551717737361, -2.6877138623901395e-12], [0.08355171706630483, -2.4803719191994236e-12], [0.01792374003457618, -2.366764103422909e-12], [0.07282565894437358, -3.1485743586984656e-12], [0.03588061739768315, -2.3412865140460587e-12], [0.05735281041871593, -2.7485140895127456e-12], [0.08213923317423454, -3.661494770664476e-12], [0.025797866348790163, -3.05256642137131e-12], [0.08914667321114439, -3.4576328106933504e-12], [0.0034569469761275545, -3.407491330001049e-12], [0.058677077570686804, -3.228328119337499e-12], [0.04697612345571638, -3.3099163038231355e-12], [0.019471403123900805, -2.9764685661643056e-12], [0.026793717506051033, -2.5226422613389473e-12], [0.019148084166630528, -2.1768343317259067e-12], [0.0432247820937843, -3.4477729819458656e-12], [0.00867132728018036, -1.7229545651918915e-12], [0.036837813837956375, -2.900391636754145e-12], [0.04903574254253006, -2.7003066717400565e-12], [0.00441751491411084, -2.4058480723837646e-12], [0.030791187821084094, -2.8402311293535543e-12], [0.05185688117268657, -2.207086384825283e-12], [0.08977805848192308, -3.4324960950258745e-12], [0.07451575778303891, -3.268162734888595e-12], [0.06365657015787891, -2.8324513862817157e-12], [0.02107676383092451, -2.756761721515189e-12], [0.02929347889656324, -3.0290871675981225e-12], [0.03699200049818555, -2.242707813148263e-12], [0.09916112314796909, -3.0891129715106857e-12], [0.00918232268690919, -2.5159549846819706e-12], [0.08621132578092351, -2.7033603133398703e-12], [0.04138792448412836, -2.3169579794814253e-12], [0.09410859406832678, -2.841879966796056e-12], [0.09624369312226169, -1.6984453237772926e-12]], [[0.0449057075222957, -3.267572615695679e-15], [0.08694662317161342, -3.735436350431792e-15], [0.04550201036751939, -3.6096447799958805e-15], [0.04919964594738725, -3.1622885098254253e-15], [0.02524982996768097, -4.785100257540956e-15], [0.07942706129716955, -3.898045701421105e-15], [0.07048356639008127, -4.001478725782795e-15], [0.0759182920759371, -2.8239821319689666e-15], [0.06661800365386064, -3.6421548482807535e-15], [0.07007606817934124, -3.7335621226569445e-15], [0.040504087270081215, -3.591331935095009e-15], [0.052704328640705296, -3.1671174860821998e-15], [0.06576259145938965, -2.8034812120531664e-15], [0.009009850117008326, -3.9911757050445985e-15], [0.0231304407268357, -2.9293747590142943e-15], [0.046191545677308474, -3.7261409138224295e-15], [0.04537153277110117, -4.4967616380884976e-15], [0.02931595108800195, -3.827252105016859e-15], [0.017831302630719133, -4.4902966808561076e-15], [0.02848498788927863, -4.018554455994414e-15], [0.03359307294053785, -3.896316320575715e-15], [0.03552953912123909, -4.539120823870663e-15], [0.010652804761530155, -3.882793626540622e-15], [0.080278211776994, -3.1928812893340062e-15], [0.03544048959446984, -2.8248526431463158e-15], [0.006213062331684466, -4.066211729138024e-15], [0.019090729082187712, -2.1359586929533835e-15], [0.022365388938073927, -3.909769008208687e-15], [0.014722065644645774, -3.343397548342668e-15], [0.01190092985484011, -3.0779593601758936e-15], [0.08025966486015623, -3.4551037872201683e-15], [0.052375764837568194, -2.827293837407485e-15], [0.06960659353673426, -3.962098591694815e-15], [0.005466541382990648, -4.184019501834054e-15], [0.049180253450300804, -3.1527397431315996e-15], [0.06974019152612415, -3.1414674808640676e-15], [0.047189636324178816, -3.763762995508885e-15], [0.06386832562766297, -2.731782104448053e-15], [0.010488991402669918, -3.909303438863231e-15], [0.046682109699649164, -3.3154066729354104e-15], [0.09710025681053966, -3.545015680685087e-15], [0.010864115611086585, -2.8744587922856775e-15], [0.05115185541247678, -3.737136522595831e-15], [0.07027990668987402, -2.3289258566346355e-15]], [[0.007011667236828226, 2.4233962328260994e-07], [0.030633939585251038, 2.7539329304099784e-07], [0.08663174745587111, 2.5128041912578375e-07], [0.02242256589167681, 2.3300958483003505e-07], [0.08674231358212751, 3.4251585954994846e-07], [0.08288351685309253, 2.9228112109924903e-07], [0.014168834187806, 2.838956521285186e-07], [0.009153890969191905, 2.173095701787943e-07], [0.00864129197797448, 2.4487000394930503e-07], [0.06611061267197609, 2.7576633522381663e-07], [0.07274144722143672, 2.444476065819453e-07], [0.09799560078413777, 2.2995717109883192e-07], [0.020155667413709895, 2.1932309706922154e-07], [0.023596599570560386, 2.898362956097436e-07], [0.07485135593968519, 2.151099867248688e-07], [0.01701325255163953, 2.500356839954753e-07], [0.056416748199255344, 3.399262135977153e-07], [0.0638951626633042, 2.8149499809316953e-07], [0.006399267401429438, 3.170608163997504e-07], [0.08104332016106763, 3.171102554144701e-07], [0.004769267066871178, 3.002951239761745e-07], [0.060801913910610475, 3.0009811636936824e-07], [0.016086227277488242, 2.730880730820356e-07], [0.0806434705637583, 2.3240276943879054e-07], [0.09057365225983094, 1.984911735971684e-07], [0.06570451636153167, 3.213783895339407e-07], [0.02676972136994939, 1.5804676432970718e-07], [0.009915393778250575, 2.630897963968463e-07], [0.06226358685889189, 2.512115338460949e-07], [0.08175577999130695, 2.2078790459392524e-07], [0.05529081392854015, 2.638825560452402e-07], [0.06114264496020616, 2.027481011970798e-07], [0.03739357126169432, 3.201109171794631e-07], [0.01402237785717472, 2.9961483307074073e-07], [0.05310230168220667, 2.6698539397131354e-07], [0.04182974902589538, 2.605999354555863e-07], [0.05237516374536526, 2.8065484060883886e-07], [0.01617683906177127, 2.0739658575881324e-07], [0.022261545883085737, 2.83937741149483e-07], [0.0584508286689066, 2.3162137051512637e-07], [0.037143841243452526, 2.4920112754966424e-07], [0.04347188366320238, 2.1513272072512343e-07], [0.048284956869208265, 2.5913533396378203e-07], [0.04590813099966674, 1.5363647019997733e-07]], [[0.01633530846886008, 2.4233962328276945e-07], [0.0543050245754529, 2.753932930411726e-07], [0.025769865517824377, 2.512804191259557e-07], [0.003319369175541245, 2.330095848301795e-07], [0.07017969767270364, 3.425158595501713e-07], [0.070075167048818, 2.922811210994361e-07], [0.06287508520916853, 2.83895652128708e-07], [0.012042839826307907, 2.1730957017892876e-07], [0.0879036915161984, 2.4487000394947545e-07], [0.08801701511932868, 2.757663352239929e-07], [0.004525825215267109, 2.444476065821155e-07], [0.025791233625802826, 2.2995717109897946e-07], [0.008996647686704546, 2.1932309706935918e-07], [0.05685794123883052, 2.898362956099355e-07], [0.052553229384308245, 2.151099867250095e-07], [0.052589483043367594, 2.5003568399564974e-07], [0.086228446817835, 3.399262135979279e-07], [0.06146807477040543, 2.8149499809335376e-07], [0.04010869344901593, 3.1706081639996335e-07], [0.0714777266470114, 3.1711025541466237e-07], [0.08170555471250908, 3.002951239763588e-07], [0.08416950579352013, 3.0009811636958323e-07], [0.08042986720319695, 2.730880730822178e-07], [0.01931489622345081, 2.32402769438943e-07], [0.037375702056405675, 1.9849117359730822e-07], [0.009622834467230413, 3.2137838953413264e-07], [0.03483083842801784, 1.580467643298121e-07], [0.06108099632969626, 2.6308979639703755e-07], [0.033853654789583805, 2.5121153384624657e-07], [0.025115825272157416, 2.2078790459407423e-07], [0.0037646110972856073, 2.638825560454051e-07], [0.06821390532465389, 2.0274810119721294e-07], [0.07716835166111101, 3.201109171796552e-07], [0.08987866482709386, 2.996148330709415e-07], [0.023832325016591435, 2.6698539397146463e-07], [0.009496135954939682, 2.6059993545572736e-07], [0.08936334974517467, 2.8065484060901976e-07], [0.02467590537444187, 2.0739658575894374e-07], [0.09163901375541819, 2.83937741149674e-07], [0.001113107030476676, 2.3162137051527857e-07], [0.006287852612491646, 2.4920112754982406e-07], [0.06861014338836463, 2.1513272072525676e-07], [0.04557626043402333, 2.591353339639621e-07], [0.0930960843750004, 1.536364702000902e-07]], [[0.06040985540964832, 2.4233962328260994e-07], [0.07109297383714058, 2.7539329304099784e-07], [0.016258072328156646, 2.5128041912578375e-07], [0.05928457751005126, 2.3300958483003505e-07], [0.03446379695734457, 3.4251585954994846e-07], [0.017109937804131517, 2.9228112109924903e-07], [0.03330431902612265, 2.838956521285186e-07], [0.011839660884235575, 2.173095701787943e-07], [0.06715283644806011, 2.4487000394930503e-07], [0.05804870739608977, 2.7576633522381663e-07], [0.05148675620169986, 2.444476065819453e-07], [0.0818662065092746, 2.2995717109883192e-07], [0.009593741967984775, 2.1932309706922154e-07], [0.0771360827217591, 2.898362956097436e-07], [0.04343705510487318, 2.151099867248688e-07], [0.07340987954390012, 2.500356839954753e-07], [0.010521583093401171, 3.399262135977153e-07], [0.03786157750362262, 2.8149499809316953e-07], [0.09494583951626136, 3.170608163997504e-07], [0.04518106858315714, 3.171102554144701e-07], [0.02524678221735027, 3.002951239761745e-07], [0.08008747317671075, 3.0009811636936824e-07], [0.0758302541235864, 2.730880730820356e-07], [0.09569916538269435, 2.3240276943879054e-07], [0.05063477177883513, 1.984911735971684e-07], [0.09015475522192931, 3.213783895339407e-07], [0.0746717577739978, 1.5804676432970718e-07], [0.07674861865557735, 2.630897963968463e-07], [0.06622387828494136, 2.512115338460949e-07], [0.05592423722110734, 2.2078790459392524e-07], [0.04715937265207869, 2.638825560452402e-07], [0.09242024259198478, 2.027481011970798e-07], [0.06993746494700884, 3.201109171794631e-07], [0.042456354593185995, 2.9961483307074073e-07], [0.06689160523712646, 2.6698539397131354e-07], [0.03392111906958219, 2.605999354555863e-07], [0.050099165997363984, 2.8065484060883886e-07], [0.02489707338550425, 2.0739658575881324e-07], [0.005149195158721022, 2.83937741149483e-07], [0.01862260874833634, 2.3162137051512637e-07], [0.07958894869003427, 2.4920112754966424e-07], [0.007520917587999839, 2.1513272072512343e-07], [0.07365442363628363, 2.5913533396378203e-07], [0.031594448896032745, 1.5363647019997733e-07]], [[0.03654760275842282, -5.60789859124618e-33], [0.09548750194431206, -6.1585833860855654e-33], [0.006084930057792109, -5.790374038875452e-33], [0.05275407250354273, -5.144687011863569e-33], [0.02344811080512558, -7.613521543902355e-33], [0.09916738361137892, -6.625743266908843e-33], [0.048329403718643325, -6.50532753757271e-33], [0.08945393914795305, -4.898570065628908e-33], [0.009730535056002796, -5.3541216449596885e-33], [0.046662229444470744, -6.24869312968407e-33], [0.05500006914315202, -5.660326750276994e-33], [0.046122693711601465, -5.0785384498343575e-33], [0.01236457991309271, -5.1066473825841466e-33], [0.09458598021485487, -6.697497825630456e-33], [0.09161137017313253, -4.878883384513421e-33], [0.06699191729651963, -5.697693825080959e-33], [0.09443953161143553, -7.550305324013344e-33], [0.07273552062209883, -6.504859354936844e-33], [0.010200829484160049, -7.285190731439535e-33], [0.06290102791326331, -7.132218371239134e-33], [0.043595494220701, -6.734078106457037e-33], [0.02562011222270929, -6.94621577843368e-33], [0.0012785996447776903, -6.235281368750094e-33], [0.060136626956508434, -5.3158452749663306e-33], [0.011562049984925249, -4.71613100126793e-33], [0.0869727364339294, -7.193147067208647e-33], [0.030143057722779098, -3.744091464323046e-33], [0.08906626380103383, -6.301255417936192e-33], [0.07825072867784806, -5.391446685319237e-33], [0.03188769257159818, -5.173863077531005e-33], [0.0991365406794867, -5.9503358238525493e-33], [0.09339111623247434, -4.567947836596156e-33], [0.027153384240471097, -7.308198601815007e-33], [0.06045712479837602, -6.835031509317937e-33], [0.050223917903045166, -5.868798042999267e-33], [0.07081679864148763, -5.617111845519632e-33], [0.04957757942237805, -6.239889990792914e-33], [0.00022612846739534812, -4.6929276530862145e-33], [0.063534025186249, -6.451448063152278e-33], [0.003272605836306212, -5.0780980888213234e-33], [0.02638475550456238, -5.407865975501227e-33], [0.07542692061405523, -4.766666680818497e-33], [0.09895731384558872, -6.0983958074624935e-33], [0.004764226944852537, -3.5265858436899865e-33]], [[0.06251292228867535, 6.570219726534319e-09], [0.09174476351459229, 7.477988987216713e-09], [0.09229158698032874, 6.8203040500747665e-09], [0.09656312407054375, 6.329615536707098e-09], [0.0160956210213586, 9.302104871738726e-09], [0.04518135814858897, 7.93439231354861e-09], [0.028926576301116422, 7.70361451280756e-09], [0.0263855519365692, 5.897661838496487e-09], [0.060712752737530115, 6.649995094127772e-09], [0.06676892841557877, 7.483949502304551e-09], [0.06095487793122532, 6.625496813111086e-09], [0.07931574653489355, 6.249056381547842e-09], [0.02608106298621118, 5.94221951501265e-09], [0.008076787985537804, 7.85825701932785e-09], [0.013980345755143064, 5.832403736228423e-09], [0.06193917410968435, 6.786024502881583e-09], [0.07920877693577161, 9.230004845996811e-09], [0.09644800303852138, 7.632177661581352e-09], [0.06504204291561644, 8.605865876540183e-09], [0.057137307131061785, 8.597308006750482e-09], [0.0010470377636340178, 8.149125274577194e-09], [0.004645565969504488, 8.138399149593451e-09], [0.0948614427374419, 7.413522340838429e-09], [0.09874993408747632, 6.309005407962325e-09], [0.032598128025766386, 5.3801209078849525e-09], [0.021986931559592186, 8.716343890937089e-09], [0.030952274952823693, 4.282145331748089e-09], [0.09881020021558193, 7.1322598205669665e-09], [0.0027192912280750766, 6.826433197865464e-09], [0.0896796310232578, 5.987697845455333e-09], [0.09719038475527363, 7.161947821584988e-09], [0.08420972883312595, 5.502957164983501e-09], [0.05195707925463884, 8.678758773725202e-09], [0.08980001980265709, 8.129453275057897e-09], [0.05673928122702043, 7.244079361584467e-09], [0.0840440012713783, 7.084278350193823e-09], [0.062134612241141696, 7.616205569111532e-09], [0.059159886760996955, 5.6274575351235165e-09], [0.0676285353340113, 7.700832151277993e-09], [0.051016021689208296, 6.2978942576048104e-09], [0.07372807283994848, 6.776114711475118e-09], [0.07333321365631269, 5.837727962253178e-09], [0.08019161805941552, 7.022977168380191e-09], [0.0946995264294902, 4.165436161608109e-09]], [[0.07118592449970601, 4.903274658096808e-07], [0.0051275915124207785, 5.57208881016315e-07], [0.08885829034922073, 5.084209201482065e-07], [0.08540028488667674, 4.714549830990911e-07], [0.08591852843881928, 6.930196545081395e-07], [0.005153983948808197, 5.91378015220824e-07], [0.06171029844008993, 5.744105191338597e-07], [0.09737684326743526, 4.396848774579395e-07], [0.07074989264608086, 4.95449769963204e-07], [0.07351796175416617, 5.57962865335319e-07], [0.04853174390517504, 4.945934083209863e-07], [0.04725114993108447, 4.6527911581171783e-07], [0.08208125481234355, 4.437553538340993e-07], [0.0009050175451218066, 5.864298248865095e-07], [0.02317995038918873, 4.3523154624894003e-07], [0.044918429160181406, 5.059018926518236e-07], [0.07558907652260434, 6.877799748503675e-07], [0.037986038004853694, 5.695523469969607e-07], [0.01828684489813949, 6.415165666221761e-07], [0.04929179568698811, 6.416112945612657e-07], [0.08992903314921097, 6.075907209949418e-07], [0.009633783106214367, 6.071918814100757e-07], [0.044795493563571265, 5.525464571211794e-07], [0.023419592437341603, 4.702230175225637e-07], [0.05147554382157379, 4.0160790229978356e-07], [0.010128927120394747, 6.50248046764262e-07], [0.08143062369391192, 3.1977785257844125e-07], [0.05034223707633683, 5.323129421766413e-07], [0.09949196346751946, 5.082816705755911e-07], [0.014715732267686008, 4.467243509107525e-07], [0.021691594557746368, 5.339207651552154e-07], [0.012906002189998746, 4.102232148965041e-07], [0.05566167769553085, 6.47682086702296e-07], [0.01251466161682293, 6.062169006484879e-07], [0.00555244324250731, 5.401934304766827e-07], [0.05430567966203878, 5.272790154381602e-07], [0.08739389339414678, 5.67850678750373e-07], [0.08445693757271318, 4.19631242034898e-07], [0.0529993817235422, 5.744911864204145e-07], [0.009621793039620918, 4.686460962703187e-07], [0.019500895992281452, 5.042164681763194e-07], [0.007218680447017295, 4.3528010580111347e-07], [0.09468723596311693, 5.243120857384647e-07], [0.06675538708074513, 3.108546106580329e-07]], [[0.057051648115076854, 2.4234225804864497e-07], [0.012823763262794451, 2.753962707211736e-07], [0.005502296222085506, 2.5128316583714326e-07], [0.04136339308128525, 2.330120997981176e-07], [0.021573338487891548, 3.4251957521124924e-07], [0.09756714418291502, 2.9228427684973336e-07], [0.038647769403344946, 2.838987535483226e-07], [0.02857470770282702, 2.1731190857056993e-07], [0.026217836340821414, 2.448726886530389e-07], [0.05110087010143015, 2.7576932182849104e-07], [0.07289151506668362, 2.444502942958077e-07], [0.022437234410454292, 2.2995965147075111e-07], [0.053169258314704954, 2.1932546383332494e-07], [0.06570574224509071, 2.898394441841023e-07], [0.07668278411074815, 2.1511232801138285e-07], [0.07641515411816037, 2.5003843250956476e-07], [0.03921216134463888, 3.399298750924859e-07], [0.01657904917184983, 2.814980506595909e-07], [0.08088111379671027, 3.17064274032561e-07], [0.03510512827805523, 3.171136629058001e-07], [0.017973305654667752, 3.002983523042938e-07], [0.031031865252399368, 3.0010142628567206e-07], [0.0447800532600372, 2.730910495506017e-07], [0.023418775589485054, 2.3240529208105186e-07], [0.08758538999434062, 1.984933504315001e-07], [0.06031702747041422, 3.213818373069225e-07], [0.08850572949496159, 1.5804848728427234e-07], [0.08227679844472453, 2.63092696788483e-07], [0.07996868928813344, 2.512142341527666e-07], [0.03839754717437132, 2.2079031044199761e-07], [0.07339553634393446, 2.6388539627636953e-07], [0.04754713314907167, 2.0275030828346462e-07], [0.0395902771354672, 3.201143496755581e-07], [0.08107692143648733, 2.9961810123347555e-07], [0.008021060669460572, 2.669882264226998e-07], [0.06809453393524309, 2.606026922173078e-07], [0.015619124906945168, 2.806578696960064e-07], [0.08940278954089853, 2.0739882846662638e-07], [0.05070251230692151, 2.8394083026245446e-07], [0.047066330239834794, 2.3162388647011103e-07], [0.02560912061513983, 2.4920383090997756e-07], [0.05393649652313089, 2.1513503768310288e-07], [0.038224965389816734, 2.591381758437488e-07], [0.006537907778441776, 1.536381686453011e-07]], [[0.013944401994066992, 7.270374648341471e-07], [0.021846531237665893, 8.262009374352526e-07], [0.008367130637666524, 7.5386058249855e-07], [0.057057696818811815, 6.990465521901798e-07], [0.021885233096422638, 1.0275738063815494e-06], [0.0009429952082128285, 8.768657012457485e-07], [0.0005637180671690072, 8.517087848363091e-07], [0.006572868566925024, 6.51945288401623e-07], [0.0407833833919077, 7.346288657608339e-07], [0.022753564353883874, 8.273201152666665e-07], [0.019857868590614162, 7.33361681549303e-07], [0.019791589854001774, 6.898890707497519e-07], [0.036564948915755825, 6.579860555717149e-07], [0.00984287131903679, 8.695311073252496e-07], [0.0043780288725223555, 6.453464666766868e-07], [0.07633046527506321, 7.501263372830595e-07], [0.0598649599976949, 1.0198045843991423e-06], [0.03306508528546752, 8.44506559569606e-07], [0.029003075091486086, 9.512068071326492e-07], [0.08295556751739436, 9.513549470232373e-07], [0.02790343255161134, 9.009082631955065e-07], [0.09803710941465239, 9.003175362646591e-07], [0.009392354951732608, 8.192851853433564e-07], [0.05205966411511452, 6.972261139927353e-07], [0.04014136034681568, 5.954888202373484e-07], [0.08004952496310407, 9.641596505435169e-07], [0.07868744712898107, 4.7415243994846726e-07], [0.021170308865069924, 7.892897207099344e-07], [0.03001081751567865, 7.536537417100581e-07], [0.07018386372738324, 6.623806764586626e-07], [0.07579033710080445, 7.916678051253272e-07], [0.007512829368298231, 6.082598650945684e-07], [0.044944474931659775, 9.603571375064169e-07], [0.024106589225031356, 8.988675266238268e-07], [0.08495570248288242, 8.009764021876111e-07], [0.06457314151764763, 7.81819502439626e-07], [0.07818516020251963, 8.419859567914579e-07], [0.011187315507966715, 6.222056309585014e-07], [0.018958145274813747, 8.518350054752919e-07], [0.011134422440997877, 6.948818540779913e-07], [0.059365477439385424, 7.476224599763761e-07], [0.08526222512240655, 6.454145779346607e-07], [0.003910439946913083, 7.774259744247179e-07], [0.027353044924117, 4.609212978057756e-07]], [[0.09728931291233052, 4.84679288695593e-07], [0.02300144987846855, 5.507866340991287e-07], [0.01929222085041467, 5.025608844856699e-07], [0.05941754881503656, 4.6601921030066507e-07], [0.03427470949926822, 6.850317804744896e-07], [0.07609551429189867, 5.845622923615726e-07], [0.028697602981725745, 5.677913556702437e-07], [0.016545618917115746, 4.346191767963343e-07], [0.03157499865379629, 4.897400544300365e-07], [0.07167488338635837, 5.515327184891185e-07], [0.06945509057858208, 4.888952591476183e-07], [0.04139348344413691, 4.5991438277958123e-07], [0.08495271738892414, 4.3864623042477104e-07], [0.0023217659327914274, 5.796726425344458e-07], [0.008964775581159743, 4.302200111839049e-07], [0.0254959179750037, 5.00071415619692e-07], [0.004805489726221287, 6.798524851081826e-07], [0.09382224613817587, 5.62990045410247e-07], [0.0659773489235792, 6.341216904042244e-07], [0.010225621988140261, 6.342205628136181e-07], [0.05496152702015438, 6.005902982316224e-07], [0.013057700147432644, 6.001962907258788e-07], [0.07666990561746867, 5.461761959645299e-07], [0.04968199963949971, 4.6480557992013024e-07], [0.05060276440873875, 3.96982383468028e-07], [0.04835044448390125, 6.427568316652471e-07], [0.044285964635772564, 3.160935562083722e-07], [0.036436189170085856, 5.261796427960874e-07], [0.035364089918379055, 5.024231107362635e-07], [0.054692725322134726, 4.4157584869216747e-07], [0.01115077171428575, 5.277651566045168e-07], [0.04093452715517091, 4.054962387091102e-07], [0.006734742676656267, 6.402218857278413e-07], [0.07827847211356119, 5.992297198983685e-07], [0.08948521717665404, 5.339708288995206e-07], [0.08160325836922065, 5.211999115855891e-07], [0.04097152460242009, 5.613097296546906e-07], [0.013910742787938224, 4.1479320672574334e-07], [0.0028797122381223387, 5.678755325869834e-07], [0.09779790290448669, 4.632427834614545e-07], [0.0902598438222722, 4.98402300478782e-07], [0.0726404487552914, 4.302654783964391e-07], [0.0036601558767565103, 5.182707158350591e-07], [0.05026361115896442, 3.0727297015828393e-07]], [[0.06729300320961004, -1.0647560450443982e-15], [0.07634554433188759, -1.2169288339455788e-15], [0.04936124827522875, -1.1750534408247754e-15], [0.03631270176807013, -1.0299019305503846e-15], [0.05656216936004213, -1.558833249574785e-15], [0.07519699137891504, -1.270095040192875e-15], [0.027439416558781064, -1.3040664982344791e-15], [0.0030226453069405715, -9.194685077855667e-16], [0.00045117929931909226, -1.1858525929214435e-15], [0.06216616405102174, -1.2159202853927502e-15], [0.027593282639436455, -1.1696165436405648e-15], [0.05818780627448416, -1.0315329021509082e-15], [0.02285155403058112, -9.136074839518156e-16], [0.015036882637598649, -1.3011759758682263e-15], [0.030998547545735496, -9.540845310140808e-16], [0.011782961038422269, -1.2134864671894643e-15], [0.08268583677690622, -1.4649675181847215e-15], [0.037414315732838814, -1.2470394441605833e-15], [0.013332588718668964, -1.4627363163702438e-15], [0.026792544436353864, -1.3082470317434477e-15], [0.018056747519912292, -1.2695431058670346e-15], [0.010338387833999187, -1.4791900820430167e-15], [0.09927951537572496, -1.2655099762346986e-15], [0.0419109352604007, -1.040062016028467e-15], [0.01735932638531699, -9.203960048153936e-16], [0.0251963245928278, -1.3244907775879002e-15], [0.0013663198692858672, -6.949110599952181e-16], [0.09649084144406908, -1.2742959146992442e-15], [0.009891527948220818, -1.0887109447863168e-15], [0.003939393587553603, -1.0029134042200792e-15], [0.016251996628284093, -1.1253007759090352e-15], [0.039822246571911676, -9.201909781264012e-16], [0.013697697836420927, -1.2899183955447828e-15], [0.09373405146458683, -1.3628218611018186e-15], [0.011335242950357802, -1.0268119796397997e-15], [0.07146116016811434, -1.0224818483087032e-15], [0.08264805852609106, -1.226288998935075e-15], [0.04661640401401715, -8.882538920966622e-16], [0.002179486212590375, -1.2741608247003696e-15], [0.02445383677025687, -1.0795094939518665e-15], [0.06395112611826594, -1.15445830217883e-15], [0.04786952003584045, -9.370922542790362e-16], [0.08896836911319196, -1.2176458079847806e-15], [0.07930644580118629, -7.58991520245054e-16]], [[0.08129332986349244, 2.29495361165676e-21], [0.09589981255638834, 2.515701814092689e-21], [0.033765711234688967, 2.4797272878805123e-21], [0.03267266793628184, 2.0699883466036455e-21], [0.007204590683053458, 3.193330449718622e-21], [0.08291558234279951, 2.7009668742545903e-21], [0.02911529497477545, 2.7137395881836195e-21], [0.010718297443244486, 1.9431793428336575e-21], [0.0879743583375568, 2.4184032259577913e-21], [0.05518341430336331, 2.5359832232484067e-21], [0.020188136872692143, 2.4369813972542567e-21], [0.018705063740728747, 2.1107853832354592e-21], [0.04473537318076243, 2.00458822449864e-21], [0.09847171544169575, 2.757052023201546e-21], [0.07404771942505937, 2.018839735929727e-21], [0.08901611665087437, 2.489209632088478e-21], [0.06799740782078759, 3.0581839703983317e-21], [0.011644384174257148, 2.648603452913761e-21], [0.017855619846847783, 3.0549408980650034e-21], [0.07092283630536919, 2.7782749540266453e-21], [0.04428080925740718, 2.6687318091982998e-21], [0.060282321324712354, 3.063250297697819e-21], [0.06030731120647736, 2.6063864086558017e-21], [0.015953578443042543, 2.2042636129461737e-21], [0.08013499684776125, 2.0165227129310208e-21], [0.019400286365977192, 2.768610112558091e-21], [0.0005716688719437359, 1.5243830619627783e-21], [0.006681721998628337, 2.752185842049284e-21], [0.05299020567547796, 2.164375818826247e-21], [0.029863249516788138, 2.1418798572997468e-21], [0.0809359510027411, 2.381120598138375e-21], [0.09817684654973963, 1.915024732034457e-21], [0.05367147729386539, 2.7922351968932266e-21], [0.06998622346814264, 2.8786239484462012e-21], [0.03659449918348819, 2.182695149818523e-21], [0.001010436936032025, 2.043049517338335e-21], [0.07253668652559284, 2.6005912998557103e-21], [0.09851139670349009, 1.8852973367330863e-21], [0.031090926077502336, 2.743148494640245e-21], [0.06019996240610482, 2.1741400794961687e-21], [0.02076569993265161, 2.280902587848359e-21], [0.08178107419756789, 1.907207120156704e-21], [0.06400400829222266, 2.5867749055451103e-21], [0.05334164387929394, 1.6159644163606811e-21]], [[0.07267798187942558, 9.424764508168464e-07], [0.06804238191230572, 1.0707812893758535e-06], [0.0468522382955751, 9.770675126713903e-07], [0.011827145425299699, 9.05889779413052e-07], [0.034322226348118705, 1.331730176016303e-06], [0.09882237667407594, 1.1364971113325265e-06], [0.08282622604939467, 1.1039652762997103e-06], [0.009534623820940637, 8.450209643499032e-07], [0.01724976721932335, 9.52142962385338e-07], [0.09208909072150721, 1.0723259117754175e-06], [0.08398035150311217, 9.506658689147669e-07], [0.04810911668429744, 8.940056900203809e-07], [0.04892024626838314, 8.53081974976059e-07], [0.06909291286006675, 1.12714013612625e-06], [0.07374043054057056, 8.365715030860987e-07], [0.08023262175568176, 9.722614935772495e-07], [0.08112900032524972, 1.321655242765989e-06], [0.007402367434150205, 1.094748832360616e-06], [0.04635231912389459, 1.2328164186889899e-06], [0.008792252006767254, 1.2332589832136032e-06], [0.08537549788712982, 1.1676853125749142e-06], [0.04696096662173302, 1.167059061779408e-06], [0.013696155010199466, 1.0618337151327535e-06], [0.03904230335183059, 9.037075526946561e-07], [0.06598781901046866, 7.719902530369484e-07], [0.06155973011986035, 1.2497998655130336e-06], [0.08116443395920817, 6.146997546387534e-07], [0.09827739882360748, 1.0231799910180538e-06], [0.07938183756399016, 9.766528499436352e-07], [0.03146838446863224, 8.586149974570226e-07], [0.010064925241269935, 1.0260530868649008e-06], [0.07732293846677128, 7.884164462579492e-07], [0.08041706178178956, 1.2449233188053731e-06], [0.05626285477618097, 1.1650715744935975e-06], [0.03444436691629503, 1.0381897402671607e-06], [0.04484844078088786, 1.0130665839077126e-06], [0.05418663714826286, 1.0913614828504809e-06], [0.06080957829033548, 8.064802497606337e-07], [0.04044426925480906, 1.1042214007261513e-06], [0.09829314758957593, 9.004325045816837e-07], [0.009128318056895639, 9.687769823369165e-07], [0.010774898031958205, 8.366010255923219e-07], [0.029701661382162996, 1.0078434650829507e-06], [0.08785517229024183, 5.975134856941734e-07]], [[0.09637759500254654, 1.5189346167528045e-24], [0.04254198715093402, 1.6323125343549406e-24], [0.009609499447248756, 1.5958601786397054e-24], [0.014536734867517128, 1.3359948951414914e-24], [0.03543991953085669, 2.0464592735386803e-24], [0.08282152656098467, 1.770413211430623e-24], [0.0341712159751537, 1.7584790867791338e-24], [0.037174204317199054, 1.2809714726857095e-24], [0.027381286244537607, 1.4974032181598398e-24], [0.06508702339755967, 1.6477055987368283e-24], [0.06270374380168117, 1.5512117891236376e-24], [0.01595193039792512, 1.3390923920491918e-24], [0.09668520778654703, 1.3534908147227166e-24], [0.0845268208749788, 1.7883170466082032e-24], [0.05663771958242227, 1.3251203881785239e-24], [0.06680140704852121, 1.560609128923089e-24], [0.015759195574561714, 1.999685893883442e-24], [0.06662788824361349, 1.7275782675690587e-24], [0.05326436142594376, 1.9607092935867224e-24], [0.06776352493936663, 1.858607801775856e-24], [0.04570409761619692, 1.767497639827156e-24], [0.049098674281865776, 1.9157855959666592e-24], [0.0455592304582844, 1.6722706454460324e-24], [0.04475445415161603, 1.4371736215299077e-24], [0.016283278615365396, 1.3058619919067811e-24], [0.02060769621392553, 1.853043827177678e-24], [0.029063123648455185, 1.0196262145234245e-24], [0.033513778292450995, 1.7596584584414924e-24], [0.013306400835859966, 1.3994503767898399e-24], [0.06164956767794546, 1.3898778238113121e-24], [0.02726614488038477, 1.569169553581919e-24], [0.0726371367519603, 1.2219145411865264e-24], [0.004632975107513574, 1.9023513804455292e-24], [0.052676042857421494, 1.859464569783196e-24], [0.01343625280185209, 1.4897222629382225e-24], [0.009663991378641266, 1.3789992547279236e-24], [0.0868581337091908, 1.673816481705761e-24], [0.012226920113210001, 1.2521019074729818e-24], [0.06104324562782715, 1.785216010924329e-24], [0.001784167237391923, 1.3668034752817502e-24], [0.070122032542113, 1.4357131306990025e-24], [0.005810549765919608, 1.2417749915383393e-24], [0.015317731066088178, 1.6613523536632393e-24], [0.024901308682810857, 1.009070797020437e-24]], [[0.0423270083529951, 2.188622556536439e-07], [0.04965169190549785, 2.486817486165177e-07], [0.07684830458808008, 2.2691472041206007e-07], [0.09191584330481382, 2.1040013548032728e-07], [0.09183578189289149, 3.0928948041814375e-07], [0.08020395486159711, 2.6393700895075046e-07], [0.09578067161936106, 2.563737855792574e-07], [0.035631346960615165, 1.9624187419049523e-07], [0.0033308222558152537, 2.2111812416068886e-07], [0.012210238495654353, 2.4902934335625115e-07], [0.05269725968701439, 2.2076959621847878e-07], [0.09799205268303732, 2.0763825403797468e-07], [0.021670666826881218, 1.9808851124571822e-07], [0.07734073355399543, 2.61753695407563e-07], [0.02596051953659605, 1.942728056403628e-07], [0.07787562794923368, 2.2579246104246189e-07], [0.07663333478984159, 3.0695454573024664e-07], [0.054675229530222066, 2.54221290003503e-07], [0.02334326813986214, 2.8631445962285345e-07], [-0.0011772272081807574, 2.863895500574205e-07], [0.062359887938146945, 2.711830677911106e-07], [0.062483423129411325, 2.7101844691662446e-07], [0.08815505012920824, 2.466014249390941e-07], [0.021021300277592095, 2.0986815529892816e-07], [0.07382655656910762, 1.7926596121755226e-07], [0.009078673170819597, 2.9023531410776983e-07], [0.003961113441042659, 1.4274066948801087e-07], [0.03323527173105325, 2.3760145650534907e-07], [0.0023926974812619245, 2.2683337040437556e-07], [0.044448870489885155, 1.993906323027708e-07], [0.03186007922009681, 2.382925347305526e-07], [0.07472064569870086, 1.8309022867817273e-07], [0.04673631831474923, 2.8910002303850045e-07], [0.00871635133558397, 2.70568402859176e-07], [0.05590612941892431, 2.411072784841531e-07], [0.061029573642852684, 2.3530199019598893e-07], [0.004228493236555987, 2.534494824691798e-07], [0.05271115124231202, 1.872879253590477e-07], [0.018771817674221314, 2.5642697990492185e-07], [0.0813357248669427, 2.0913323056417835e-07], [0.07757703995928171, 2.2500463065706419e-07], [0.06671942818382053, 1.9427879850424475e-07], [0.0013776171264711311, 2.340344555685878e-07], [0.07804545978339263, 1.3875082372845335e-07]], [[0.015503567886139073, 3.915346844031815e-30], [0.051822974832993925, 4.306930550048287e-30], [0.06215331428190065, 4.0393081582597735e-30], [0.021783453796756752, 3.599582837684748e-30], [0.03617702114441322, 5.3176080186757325e-30], [0.01689315994748136, 4.633738263679156e-30], [0.09054575821467623, 4.538726415781962e-30], [0.07289559918379225, 3.425694539235422e-30], [0.08687549275670405, 3.71988803372532e-30], [0.06274869506728148, 4.368766621047624e-30], [0.07880664613017012, 3.9451651272870825e-30], [0.07343373340305086, 3.547438589358303e-30], [0.06459329523494708, 3.5700104710193456e-30], [0.07908196338331384, 4.676767480573806e-30], [0.045050024837621355, 3.401230803494738e-30], [0.06894391478413509, 3.970423466182975e-30], [0.021253219070991064, 5.2770468851971866e-30], [0.08581147465500637, 4.5446081820153624e-30], [0.020648244774915156, 5.084320594194713e-30], [0.0628302592367359, 4.994796577700018e-30], [0.006354427774160568, 4.715020482229489e-30], [0.05718489888051937, 4.833958436748537e-30], [0.027400567052026495, 4.355004274906737e-30], [0.05479047563999311, 3.711310214740032e-30], [0.03440866369088233, 3.284221416044904e-30], [0.018843198222711206, 5.0404305985126226e-30], [0.03624418135705581, 2.6161959080630257e-30], [0.05107371425412713, 4.388985301572417e-30], [0.07461479664247586, 3.772257075906053e-30], [0.06961979045486026, 3.612633492574427e-30], [0.02321927547729389, 4.167582581730503e-30], [0.06365058614708875, 3.1878912313803235e-30], [0.03355381289392408, 5.1199363191417194e-30], [0.08368177760296941, 4.7690255795259035e-30], [0.0821124576064787, 4.118685801644739e-30], [0.012260388972229254, 3.9507387192888766e-30], [0.046276370127340975, 4.358997675077359e-30], [0.0885728009880104, 3.2802381411127694e-30], [0.09368518673210406, 4.49839996926407e-30], [0.05949065662380029, 3.543778129296467e-30], [0.026949334243430944, 3.7749744082306314e-30], [0.08997507528633662, 3.336306014639586e-30], [0.00881022731201938, 4.251304147879348e-30], [0.08679956066003713, 2.44889903731295e-30]], [[0.06721958969378553, 2.4233962620231377e-07], [0.05115881187781925, 2.7539329638137783e-07], [0.030799791477319094, 2.5128042235301184e-07], [0.03324628549879425, 2.3300958765855883e-07], [0.031582543437464555, 3.42515863828522e-07], [0.026994672615702545, 2.9228112458351535e-07], [0.09643112589909776, 2.8389565570491057e-07], [0.04164477957934838, 2.1730957270361557e-07], [0.054656530205754145, 2.448700072054322e-07], [0.09815231659909583, 2.7576633856176807e-07], [0.03100373248260787, 2.444476097923138e-07], [0.06820261181247723, 2.2995717393064332e-07], [0.08726764181830307, 2.1932309957482499e-07], [0.08406310263874696, 2.8983629917637436e-07], [0.08233094703540136, 2.1510998934325352e-07], [0.08303097442482658, 2.50035687326665e-07], [0.005822188008759943, 3.399262176179003e-07], [0.03410785538158559, 2.81495001513381e-07], [0.0810744038554222, 3.170608204136549e-07], [0.04759994835001991, 3.171102590073772e-07], [0.06056234086072692, 3.002951274600718e-07], [0.07726145546421163, 3.000981204260384e-07], [0.08127644436876308, 2.7308807655254307e-07], [0.02904197472135368, 2.324027722932143e-07], [0.028791531936709535, 1.9849117612066898e-07], [0.05835548606930051, 3.2137839316946983e-07], [0.01919784782102233, 1.5804676623884107e-07], [0.09176359918506721, 2.630897998902503e-07], [0.09406755755575964, 2.512115368368032e-07], [0.05807063637597907, 2.2078790734444204e-07], [0.022317447969730068, 2.638825591340609e-07], [0.07874360267954096, 2.0274810372541785e-07], [0.006957043678329316, 3.2011092072135393e-07], [0.07587554443765812, 2.996148368102954e-07], [0.07546957414902945, 2.6698539678973796e-07], [0.023386440363496956, 2.6059993826712166e-07], [0.04991505617069785, 2.806548439727435e-07], [0.0010783423857357057, 2.073965882019633e-07], [0.07757341324276262, 2.8393774464215866e-07], [0.025199556813720436, 2.3162137348052905e-07], [0.09548395878744675, 2.4920113072111256e-07], [0.05806661801033974, 2.151327232949608e-07], [0.02692789064717586, 2.59135337303869e-07], [0.03644830924468267, 1.5363647228117818e-07]], [[0.08028539839229563, 1.1828909151523263e-18], [0.023777879105150317, 1.3025788771895147e-18], [0.009469948934960885, 1.2725262709747455e-18], [0.06433758161178281, 1.0811041594333302e-18], [0.030397721661104285, 1.6641540844034741e-18], [0.09948581420603117, 1.3851450042417067e-18], [0.05609602284030073, 1.411824944158434e-18], [0.0630032662636116, 9.964787247587645e-19], [0.010154670988257768, 1.2797365668913837e-18], [0.03845613408136462, 1.3101404087885226e-18], [0.011432578161583336, 1.26721396435426e-18], [0.033307013669209726, 1.1025664982948257e-18], [0.048597684861971864, 1.0119830189949114e-18], [0.04645386242716083, 1.424210084847488e-18], [0.06463208164136099, 1.04570296104608e-18], [0.05057766972999707, 1.3056558083491073e-18], [0.053115072648677195, 1.5818678557831875e-18], [0.04895747042542039, 1.3690471832419114e-18], [0.05451650134117541, 1.5860579826530701e-18], [0.07762618030104206, 1.4251049162002433e-18], [0.01225035888663364, 1.3639497715989304e-18], [0.03162974289924914, 1.6057234692781438e-18], [0.003306840037738844, 1.3623953794112562e-18], [0.07213887684740172, 1.1287583963142584e-18], [0.060185450946355315, 1.031443188800218e-18], [0.040386322416723096, 1.4264753716177698e-18], [0.0121152502367818, 7.71432951759172e-19], [0.004210717650216156, 1.4142680611618488e-18], [0.0018070770081927614, 1.1397558562854919e-18], [0.07224569440567824, 1.1047159500165935e-18], [0.06536857456430166, 1.2228856520933162e-18], [0.09110609289314107, 9.885250439825743e-19], [0.022583286644966023, 1.4144606550655724e-18], [0.004763804099862879, 1.4945587549156633e-18], [0.08379206369992241, 1.1221829749197729e-18], [0.07074459595738651, 1.052576540167091e-18], [0.07119241624217287, 1.3434786214552178e-18], [0.08124955983020994, 9.661767159374611e-19], [0.038301049628387596, 1.4174375147158694e-18], [0.06506402591924836, 1.1418407286995812e-18], [0.02136857385569129, 1.2019121550587087e-18], [0.0766011327334, 9.981031478342498e-19], [0.026797141409995194, 1.3356930448179337e-18], [0.008339224609586639, 8.375346242510225e-19]], [[0.05406277539768516, 8.929830943334488e-16], [0.08250831118590143, 1.0165456919966688e-15], [0.014749866575147737, 9.830489457576747e-16], [0.0258846935238014, 8.591328541936486e-16], [0.10062145416882952, 1.302594166236345e-15], [0.04104713794877887, 1.0632220303945572e-15], [0.0429721229385053, 1.0916530624090498e-15], [0.027112605986128597, 7.691115549571715e-16], [0.06980213006439187, 9.920722983509371e-16], [0.02413868136202971, 1.0169208468151561e-15], [0.03348636440294989, 9.788625527741732e-16], [0.005561730945323544, 8.621321798753161e-16], [0.09531049613781535, 7.654564958199726e-16], [0.0017657127886502488, 1.090110769555256e-15], [0.08970781136764686, 7.989989171822675e-16], [0.0357975654171761, 1.0150094865984752e-15], [0.024019632210992303, 1.2251629415483908e-15], [0.05855878870938523, 1.0450389435836288e-15], [0.0999092605556836, 1.2241643400835847e-15], [0.07657056772604817, 1.094488613179737e-15], [0.05293417793759675, 1.06091401125385e-15], [0.03520937054561633, 1.2387253845994763e-15], [0.09729644477508428, 1.0589658222411541e-15], [0.015538819651352476, 8.701120130686294e-16], [0.061671479763661136, 7.729033322743996e-16], [0.07090743922825456, 1.107373200405265e-15], [0.06587751888613044, 5.825816162519311e-16], [0.013865587005999578, 1.0687918116412604e-15], [0.010914075617279514, 9.079580525238477e-16], [0.053630780461253656, 8.406493219454696e-16], [0.05853584214481576, 9.415507032561391e-16], [0.0648781914367779, 7.690500637277296e-16], [0.036328051901944235, 1.0799528225784065e-15], [0.04986519769272576, 1.1416195537226728e-15], [0.062472052933277455, 8.593476028576247e-16], [0.001908268885771248, 8.507756621631772e-16], [0.07930997768536083, 1.0271099963600457e-15], [0.08941274205813352, 7.427103519000878e-16], [0.0957763480507119, 1.0690775083770416e-15], [0.09780927923217854, 9.009394759179607e-16], [0.07803840394944943, 9.621776714953872e-16], [0.057447388681205705, 7.831201375432536e-16], [0.031243504664043485, 1.0199701784168089e-15], [0.07454026190961371, 6.361596960028439e-16]], [[0.023397662494693088, 1.21006814902944e-41], [0.08445259100470298, 1.332347295017904e-41], [0.009358603010490294, 1.2528976282474357e-41], [0.06886517643861943, 1.1152978935496123e-41], [0.012092029158071099, 1.6462746175917672e-41], [0.07451989783625226, 1.4322058357141745e-41], [0.0028942350497466653, 1.4079425535154617e-41], [0.021602608218556047, 1.0614057559419732e-41], [0.04064198016626379, 1.1558559265274822e-41], [0.00441688034283854, 1.3542043814943231e-41], [0.032988563290905, 1.2233515010583965e-41], [0.025464919546188028, 1.099396237717757e-41], [0.009773839299847521, 1.1023079723784544e-41], [0.028375124459622526, 1.4482510653715098e-41], [0.06737665011656883, 1.0545480819867889e-41], [0.019926558258454977, 1.2326506841686083e-41], [0.0044167871105641856, 1.6310585673389582e-41], [0.07267903551018585, 1.406317075218844e-41], [0.030991805412759463, 1.576870226709708e-41], [0.07543163977181748, 1.5411767353201964e-41], [0.09581725537253016, 1.4581317628536895e-41], [0.024600752520785016, 1.5040028347359305e-41], [0.030833813733850034, 1.349117141436497e-41], [0.0834478303185043, 1.1494168737449275e-41], [0.057435356580672545, 1.0201878802809529e-41], [0.03677940726624707, 1.5558564152804242e-41], [0.05855394138698442, 8.095578068387284e-42], [0.04566929607357808, 1.3612042333212213e-41], [0.061623489190428954, 1.1672649549878995e-41], [0.021150732234828763, 1.1191097466369635e-41], [0.08612808614788553, 1.2864682573849197e-41], [0.013605188432486197, 9.903633799128895e-42], [0.09872319423382123, 1.5810244392567724e-41], [0.016361858839390626, 1.4758749020729956e-41], [0.08400534914778315, 1.2677145900214035e-41], [0.032036358988785325, 1.2181457066755171e-41], [0.08746459099872705, 1.3502143739093048e-41], [0.0776569108208506, 1.0135226305988882e-41], [0.06355759904281813, 1.3915825732498206e-41], [0.08773633563725704, 1.0987848494479448e-41], [0.031623087244417016, 1.170911769069645e-41], [0.07800470142364586, 1.0320294131310099e-41], [0.06254879966295285, 1.3180378270058318e-41], [0.07755898550160047, 7.61351454004375e-42]], [[0.042159037566787363, 1.2445692105212904e-11], [0.03684533904777557, 1.4148437873734412e-11], [0.050195403455472624, 1.2908592872663237e-11], [0.047968999573653776, 1.1974414103117345e-11], [0.050550206607249584, 1.759521901585689e-11], [0.007224128444138666, 1.5016249271251137e-11], [0.07591629247564731, 1.4583013317004883e-11], [0.046947510021853774, 1.1160869067595118e-11], [0.06976735003056056, 1.2575755134224083e-11], [0.03699213790690786, 1.4166065717428437e-11], [0.06564191319356567, 1.2554812091337133e-11], [0.0654595486045311, 1.1816605829517715e-11], [0.04080769449424592, 1.1258808554108876e-11], [0.03229630961042163, 1.4883019100622792e-11], [0.0838434008384452, 1.104204805223323e-11], [0.06785264988272857, 1.284518965701235e-11], [0.008558117957122028, 1.7472932808456e-11], [0.047487304902318804, 1.4458459810355993e-11], [0.003970153018833191, 1.6293591397347446e-11], [0.0040230695121644035, 1.6283308823120078e-11], [0.03245324221164578, 1.5419313595023508e-11], [0.08268031769545173, 1.5413088309869845e-11], [0.011151604965735553, 1.4033920211359672e-11], [0.06777610492967993, 1.193516802157354e-11], [0.044029999177874105, 1.0191354688004464e-11], [0.026674017727274298, 1.650586659253899e-11], [0.08517565745868105, 8.116706411655838e-12], [0.05790820508368323, 1.3510710730274774e-11], [0.0600355332147782, 1.2906277537554877e-11], [0.002634383948177706, 1.134294120654591e-11], [0.058611893961821045, 1.3561024996356584e-11], [0.07739869703764593, 1.0414493657819079e-11], [0.03584658730979863, 1.6438561210493394e-11], [0.008890725916883623, 1.5396871610997693e-11], [0.04293451267322357, 1.3711991167187656e-11], [0.014140124941166574, 1.3391330524831218e-11], [0.010508584594632619, 1.441102960610293e-11], [0.06781105899285694, 1.0659426499639201e-11], [0.08494529791135189, 1.4575955166401233e-11], [0.026737014955716915, 1.1900354252487057e-11], [0.028678795472984693, 1.2805659719000202e-11], [0.016786704533816567, 1.1048849731750092e-11], [0.028591232861652917, 1.3310934115716236e-11], [0.014071138714234962, 7.890018278998119e-12]], [[0.040880847183139654, 5.1558886767785596e-09], [0.05203749567884279, 5.863416912573337e-09], [0.07238366812411604, 5.3495377099133574e-09], [0.024061544159738733, 4.962954349875401e-09], [0.011122831067227298, 7.293237996979627e-09], [0.0971855159561155, 6.2224814735546825e-09], [0.05538647489942474, 6.042587193168175e-09], [0.024689927629273856, 4.624905384702203e-09], [0.09704180775202038, 5.2131951022557135e-09], [0.0458964779768627, 5.870217588005e-09], [0.04209469583743464, 5.200884266699142e-09], [0.03664423748260835, 4.898377137631076e-09], [0.008136666078813018, 4.66374153722836e-09], [0.002063863361850975, 6.1679740100181145e-09], [0.0038340869250198016, 4.57503286285471e-09], [0.03948205115485709, 5.322630946673122e-09], [0.050943726662064606, 7.238157271654971e-09], [0.0149110387826469, 5.990088718630767e-09], [0.029529797775822694, 6.750812630472173e-09], [0.011512781364021115, 6.7466369990509964e-09], [0.06277552890639801, 6.3912582067017085e-09], [0.0735019317142424, 6.385838259478056e-09], [0.012216848665711799, 5.815547343540769e-09], [0.09113333284493479, 4.946211706578766e-09], [0.09246020981011929, 4.222216832216697e-09], [0.08381950566399642, 6.838534391832544e-09], [0.08348238697602138, 3.3627310114846694e-09], [0.05994732521638504, 5.598284703400931e-09], [0.03956934263676006, 5.349562197327088e-09], [0.07378485317225926, 4.699487547116686e-09], [0.08888743500716165, 5.6193194978497984e-09], [0.008454318374948127, 4.31546168868515e-09], [0.016782637865994435, 6.8101333193163305e-09], [0.08663290650234946, 6.378211468665891e-09], [0.0865436773713072, 5.6811400850063486e-09], [0.02152437676868413, 5.551111074435104e-09], [0.08864118473051272, 5.971867433538153e-09], [0.04209946221221951, 4.4161497520375595e-09], [0.08809169340751126, 6.0398012669907275e-09], [0.07519991019513131, 4.934052920433661e-09], [0.026797656886702284, 5.309101694308224e-09], [0.01346179419828054, 4.578101715391593e-09], [0.05391685021081556, 5.514029813903027e-09], [0.017262957666081914, 3.269383405238974e-09]], [[0.0843554636274372, -2.4290628867811486e-07], [0.07025101314214165, -2.760374354057132e-07], [0.08918615673709998, -2.518682565605701e-07], [0.014399019624218166, -2.335547602470437e-07], [0.025639708856454228, -3.4331700161199243e-07], [0.005433101235882368, -2.9296475790348954e-07], [0.04113926873353108, -2.845596521665244e-07], [0.015502976636209476, -2.1781765948623284e-07], [0.08704785550428762, -2.454426821953287e-07], [0.07948359385335145, -2.764113380042926e-07], [0.01978592826567409, -2.450193552239921e-07], [0.012464213668574588, -2.3049516731298532e-07], [0.08000722795931091, -2.1983568285482999e-07], [0.04065648091679934, -2.905141842789444e-07], [0.09074639401906183, -2.1561271792455437e-07], [0.001140733382267842, -2.5062061987532493e-07], [0.02406393198531535, -3.4072131369678867e-07], [0.006548855406636613, -2.821533766502225e-07], [0.009273217248964778, -3.178026124590656e-07], [0.09380978498618024, -3.178516848503244e-07], [0.031057643066088235, -3.009972417110755e-07], [0.06489387308712345, -3.0079997186792114e-07], [0.004935985270963031, -2.7372706064769177e-07], [0.042167965444396625, -2.329461190224919e-07], [0.08608942209564492, -1.9895525328891684e-07], [0.01601138750540918, -3.2212985262071673e-07], [0.06736526481265206, -1.584164557827624e-07], [0.013749647800971905, -2.6370520545342674e-07], [0.043768207237581735, -2.517990166195571e-07], [0.085735049241733, -2.2130445107189084e-07], [0.038079848528748746, -2.6450003481997457e-07], [0.0019939653502082455, -2.0322226526800845e-07], [0.035121178293842786, -3.208593074591027e-07], [0.0878354796683722, -3.0031579757408937e-07], [0.021080019119984732, -2.67609485782149e-07], [0.015775950632458808, -2.612094925211021e-07], [0.03389442421693244, -2.8131089062119826e-07], [0.08884365365148725, -2.078819516423663e-07], [0.028917584143541945, -2.846013470950709e-07], [0.02138717387681229, -2.3216319520101572e-07], [0.016108329644911858, -2.497841602545693e-07], [0.0434561741602922, -2.1563574246595322e-07], [0.0775910380635858, -2.5974154682197964e-07], [0.07804436657423487, -1.5399582584282475e-07]], [[0.01991230434849814, -2.574959914731913e-25], [0.06307361452014075, -2.8068097757639165e-25], [0.04981714056055004, -2.732230052544564e-25], [0.08443636979826327, -2.2917029225824266e-25], [0.030518932332741146, -3.5369660124691207e-25], [0.05057888984712051, -2.999386620847257e-25], [0.04366154629097975, -3.0229318479661434e-25], [0.026330835471796023, -2.1641448404685822e-25], [0.022462915928877236, -2.614366793662146e-25], [0.06952024368820858, -2.8223721442359653e-25], [0.059521439236005357, -2.680930907565753e-25], [0.06546872208514061, -2.30303585737457e-25], [0.06583614091020168, -2.277296506275096e-25], [0.017061343848119533, -3.0610789144764943e-25], [0.06966600645623411, -2.2496747708762846e-25], [0.02222641537858418, -2.7287679700590704e-25], [0.006103432548912727, -3.399881984655453e-25], [0.04915018258947788, -2.9569522412029496e-25], [0.014532717780363117, -3.374915080637805e-25], [0.027356381054329304, -3.1566651683478454e-25], [0.003963571207503884, -2.9902944122057225e-25], [0.09501481236315082, -3.320705708324473e-25], [0.061266017444045306, -2.903948259696529e-25], [0.03339418901775046, -2.455041603987444e-25], [0.0936047954356616, -2.2103113577132973e-25], [0.09997661626805864, -3.1543799923240315e-25], [0.056640339831812554, -1.7211867979211576e-25], [0.0898133540912625, -3.013488375192742e-25], [0.07299928785164142, -2.4187788178145084e-25], [0.0010101070567811751, -2.360917170952731e-25], [0.0040151963495243335, -2.6669786277740837e-25], [0.09220513056116426, -2.1103086860028895e-25], [0.020361440886656736, -3.183835125207714e-25], [0.07140612393277769, -3.186138286443212e-25], [0.008993011514530552, -2.4990374516470554e-25], [0.09817439728713268, -2.3365712927064957e-25], [0.08630036546430679, -2.8678289969516863e-25], [0.09332706717666105, -2.123997361810698e-25], [0.05031483760318701, -3.0482529350359396e-25], [0.038287903886411574, -2.3881333666720126e-25], [0.06397899546316603, -2.511249290067129e-25], [0.009085690602565364, -2.1241725688323378e-25], [0.09291548845263192, -2.849830055132142e-25], [0.07324996171285286, -1.7401358669005068e-25]], [[0.05733198903579321, -2.423396320746109e-07], [0.059711862776527784, -2.7539330308359405e-07], [0.07507779817868955, -2.512804288149909e-07], [0.004349506813709888, -2.3300959333301942e-07], [0.08431815485704613, -3.4251587240301164e-07], [0.002004917241151708, -2.9228113158053584e-07], [0.08267811448125975, -2.8389566288168764e-07], [0.07926708141154017, -2.1730957778201936e-07], [0.02519369205710772, -2.448700137161119e-07], [0.08840863925701782, -2.757663452649685e-07], [0.07055402429434782, -2.4444761622048646e-07], [0.06302414348942827, -2.299571796021111e-07], [0.021798677375408082, -2.193231046246839e-07], [0.024186137122793716, -2.898363063370353e-07], [0.0682477719202905, -2.1510999460533453e-07], [0.00811303742413874, -2.500356939895612e-07], [0.0805601256772508, -3.3992622569496064e-07], [0.05284447008461685, -2.814950083812174e-07], [0.07697629675527465, -3.1706082846015075e-07], [0.06519687180909624, -3.1711026624569776e-07], [0.06539279948224583, -3.0029513446732506e-07], [0.08782416042643768, -3.000981285382833e-07], [0.05166090640101657, -2.730880835094942e-07], [0.002637027841753624, -2.324027780212914e-07], [0.020462925334965718, -1.9849118118350915e-07], [0.04740257536362275, -3.2137840049397675e-07], [0.0266902954494661, -1.5804677007862493e-07], [0.060334843361292474, -2.6308980688066825e-07], [0.020307409885863215, -2.512115428438631e-07], [0.07457061263704484, -2.207879128600218e-07], [0.08392320883599776, -2.6388256534108825e-07], [0.06037712306050218, -2.0274810879660323e-07], [0.02031813750397891, -3.2011092786708386e-07], [0.09213328061575259, -2.996148443139435e-07], [0.025070207328605418, -2.6698540248270823e-07], [0.04985497779587981, -2.6059994393113246e-07], [0.03696223341843702, -2.806548507290421e-07], [0.090006263090615, -2.0739659311223686e-07], [0.06451743102126421, -2.839377516569582e-07], [0.030707048847514413, -2.3162137941433795e-07], [0.032953477587387724, -2.492011370676456e-07], [0.08146076796649254, -2.1513272845183648e-07], [0.0965640372541838, -2.591353439968329e-07], [0.03036966067072936, -1.536364764431845e-07]], [[0.047464800720879656, 1.879410440450745e-20], [0.021791506303209952, 2.0586458732944987e-20], [0.016163610178934137, 2.028566925139166e-20], [0.07590786420269503, 1.6978861606012556e-20], [0.06198332609261989, 2.61951718217129e-20], [0.07351666983797385, 2.2073061588727366e-20], [0.029157767118872337, 2.2267940445071998e-20], [0.008066339510438872, 1.5870364772898262e-20], [0.038867635210697075, 1.994925326078367e-20], [0.027257241454147225, 2.0766862380534596e-20], [0.08499971295512117, 2.001394818137214e-20], [0.02506734506459004, 1.7333479323407004e-20], [0.08643163869901427, 1.630467036523802e-20], [0.060755355471121146, 2.2596196509011087e-20], [0.08433439785319943, 1.6550871674410612e-20], [0.0006327669871521527, 2.0480491545800825e-20], [0.03315542623615171, 2.5038633099740175e-20], [0.009769473814325778, 2.169642904446916e-20], [0.0026379744077728753, 2.5061700317779312e-20], [0.018699826559745107, 2.2686056654230417e-20], [0.0014104236342006439, 2.1768003919534117e-20], [0.0320524240664712, 2.5224278983353003e-20], [0.07555523132418214, 2.1403840186802522e-20], [0.021743001624765983, 1.8003055833484425e-20], [0.011583084149955692, 1.650218420834483e-20], [0.0949301077169877, 2.2628948514066566e-20], [0.01560655032327013, 1.242110780173526e-20], [0.022869618106203506, 2.2551640969917736e-20], [0.0015147468856990883, 1.7788446539491364e-20], [0.060646902984436604, 1.7551385015874986e-20], [0.08944433346132889, 1.945514385809621e-20], [0.08320647922290493, 1.5685915183403654e-20], [0.06526162505983597, 2.272678471642282e-20], [0.0449909884974663, 2.3615540862910004e-20], [0.004575435396939455, 1.7817019766789602e-20], [0.04437678551084559, 1.664518825029135e-20], [0.026265951809199693, 2.130477858245508e-20], [0.0012308061415757636, 1.5400532445130373e-20], [0.05504885684929412, 2.2485967426974855e-20], [0.017200916855867717, 1.7864119114993895e-20], [0.02772315385433107, 1.8748706989069416e-20], [0.004037540213943211, 1.5657635641385074e-20], [0.039901011805995486, 2.1205918431054358e-20], [0.023537627827086145, 1.3275816168591634e-20]], [[0.0417304627862591, 1.8779756956513817e-16], [0.012900696775959862, 2.096674848301959e-16], [0.0826591182269456, 2.0412703981175771e-16], [0.09959660929581612, 1.755520563543498e-16], [0.030753318068019467, 2.685964367343192e-16], [0.07965615389300508, 2.214305218136216e-16], [0.07871232944031863, 2.267625410155024e-16], [0.06208541556498616, 1.5964065461929883e-16], [0.048931068256268494, 2.0580144500541735e-16], [0.07186646081799943, 2.1065155517967155e-16], [0.03850527779631069, 2.0345130477435782e-16], [0.013547305009895792, 1.7788106976293566e-16], [0.0873536105579418, 1.605711046786327e-16], [0.048750371890689974, 2.2768940976521174e-16], [0.08335072078948598, 1.6682074632679377e-16], [0.007940661224942339, 2.1030813762384653e-16], [0.026900687856423508, 2.5383081940909376e-16], [0.010533555572300603, 2.1865022793162877e-16], [0.06481334717952525, 2.545234591277839e-16], [0.04861763636480251, 2.2765273364344783e-16], [0.0007743307117199964, 2.1913891600239618e-16], [0.08206463121095642, 2.578196738960706e-16], [0.06247079854476569, 2.1952469515549623e-16], [0.06619541127303782, 1.8079919016669498e-16], [0.0455487505919947, 1.6346546796799905e-16], [0.09634123140554289, 2.2913696373692795e-16], [0.030054356503994017, 1.2247004689722856e-16], [0.04699635849747302, 2.2488446459890294e-16], [0.05990559530820084, 1.8527956621562672e-16], [0.06441800050109169, 1.7613943551821635e-16], [0.050200953024617995, 1.9572620017918642e-16], [0.022833381863865295, 1.5905518024721231e-16], [0.07472997680327918, 2.2534056230004977e-16], [0.035252476682125354, 2.386007187939424e-16], [0.020474149079585283, 1.7893030244613167e-16], [0.07130746936538618, 1.7180097805297098e-16], [0.08167893420420905, 2.1449010714062198e-16], [0.080628031333152, 1.5432994065767585e-16], [0.08912664640592734, 2.251824926057008e-16], [0.06122083450032626, 1.8484206178085023e-16], [0.0750728693997905, 1.9585766012823187e-16], [0.03080662715314266, 1.613107140836564e-16], [0.002467256878622333, 2.1328225431690993e-16], [0.037249684259181626, 1.3342815601917182e-16]], [[0.05949869301921397, -4.652161082849188e-43], [0.09111292802159573, -5.120695037656914e-43], [0.013486148853516079, -4.813624858479203e-43], [0.05016871726631704, -4.287816276883698e-43], [0.08561233721194848, -6.3261693629349656e-43], [0.036991953262710965, -5.50611601478186e-43], [0.06928986829835937, -5.41289499733873e-43], [0.024113739066378054, -4.0807028211076295e-43], [0.06076217255951953, -4.4392937257322874e-43], [0.06247030653715081, -5.20586194253568e-43], [0.08191275945912413, -4.701824505235476e-43], [0.09652006196148707, -4.224145252230707e-43], [0.05016082144158732, -4.2385516978334355e-43], [0.036707727851916665, -5.5671968714099306e-43], [0.05084380644268848, -4.0537675068571676e-43], [0.06198517048926002, -4.7357642437586725e-43], [0.05941654858718931, -6.2719926160463e-43], [0.05304229243495024, -5.4052683651077796e-43], [0.051903927394334505, -6.0602721305586565e-43], [0.09672880349164958, -5.926604413089741e-43], [0.0680018557601911, -5.606822387787438e-43], [0.0268631809910388, -5.777853409666704e-43], [0.08224439883884713, -5.183387478778487e-43], [0.024398562338240514, -4.416794871794101e-43], [0.04424722887420606, -3.920400419361587e-43], [0.017556884918943954, -5.983919646113563e-43], [0.08819852008602269, -3.1132976331415167e-43], [0.027891075758421063, -5.227941053426321e-43], [0.05190216580082821, -4.487531439370074e-43], [0.07983433297907683, -4.301552130321159e-43], [0.01387033037429048, -4.9465333157365086e-43], [0.018305208415261662, -3.805170199625212e-43], [0.0614825285473637, -6.081354118677507e-43], [0.03649394152210415, -5.67272515452496e-43], [0.03445476971172744, -4.876909328933467e-43], [0.027104915733467714, -4.686320857348893e-43], [0.08982659519366365, -5.18924085909953e-43], [0.011231705173723225, -3.896453308683055e-43], [0.0857705590360618, -5.3489365913161266e-43], [0.06731332967539207, -4.220273604322577e-43], [0.054168626278095246, -4.498488158279296e-43], [0.016233894624561377, -3.967220659066481e-43], [0.012524411674197728, -5.0644638123018735e-43], [0.045276659382144105, -2.9250016330654824e-43]], [[0.04290165174536312, -2.423397722282833e-07], [0.018259787516450347, -2.753934613716996e-07], [0.07916065786301246, -2.512805790485206e-07], [0.012318220003019943, -2.3300972716192322e-07], [0.07787015211782995, -3.4251607287584977e-07], [0.05064672359750905, -2.9228129792570935e-07], [0.04660475380260696, -2.838958314934585e-07], [0.08888271279311757, -2.1730969968597077e-07], [0.0645001394308629, -2.448701631481925e-07], [0.08393968235692421, -2.757665040501744e-07], [0.05774652400691319, -2.4444776501904007e-07], [0.06940840876235709, -2.2995731203946826e-07], [0.011587399973716023, -2.1932322720248613e-07], [0.09146738241341083, -2.898364752390786e-07], [0.009821292369741035, -2.1511011978096986e-07], [0.06665105186175525, -2.50035847177759e-07], [0.03037991792048974, -3.399264181459163e-07], [0.04474994742407347, -2.8149517088673796e-07], [0.05554615760775755, -3.170610163874409e-07], [0.0690726912799119, -3.171104418699571e-07], [0.04064972886254137, -3.0029530276491555e-07], [0.04387069548081685, -3.0009831446765586e-07], [0.0018272288081538617, -2.7308824578673866e-07], [0.07305996575445459, -2.324029131497606e-07], [0.0632389046275044, -1.9849129996034176e-07], [0.04901563036012839, -3.213785780477617e-07], [0.0771994208370565, -1.5804686185098656e-07], [0.06444538542465646, -2.630899681346402e-07], [0.043924641503797095, -2.5121168544376676e-07], [0.0653782389528996, -2.2078804233238692e-07], [0.0522829946198638, -2.6388271370340983e-07], [0.05447767032380992, -2.0274822781762363e-07], [0.00965237929245867, -3.201111029167296e-07], [0.06858471413870193, -2.996150208624258e-07], [0.011309527408320216, -2.669855435214958e-07], [0.09706948923437658, -2.6060008229311413e-07], [0.09768481993101175, -2.806550111624454e-07], [0.023858711362743572, -2.0739671050978677e-07], [0.0061731040043275995, -2.8393791762104323e-07], [0.039975065859301745, -2.3162151678733856e-07], [0.010903178206796333, -2.4920128409217956e-07], [0.08238732660654784, -2.1513285056562074e-07], [0.08808390130744649, -2.5913549979682873e-07], [0.08350202053507937, -1.536365719093017e-07]], [[0.005644840684074488, -7.457285855083042e-07], [0.04359061347847338, -8.471777937253231e-07], [0.022173389201382742, -7.730407156631631e-07], [0.01576392482937786, -7.166647474044046e-07], [-0.0003188161583272232, -1.053640612297375e-06], [0.0076732825060188935, -8.991846394780322e-07], [0.006198326354072932, -8.734721889818064e-07], [0.09604685098428811, -6.68588410849246e-07], [0.07652016097470829, -7.533416568740547e-07], [0.09825628677018687, -8.484392685151821e-07], [0.028875635273166743, -7.522034409876209e-07], [0.09232589945103589, -7.072742601140095e-07], [0.020280976890614894, -6.75055824793502e-07], [0.0953060442975672, -8.917791859958102e-07], [0.015060678772109525, -6.619187298429948e-07], [0.08300633676525948, -7.693078021533865e-07], [0.07007935510474916, -1.0455778961471543e-06], [0.021072511255090395, -8.662197770262e-07], [0.0894424120112213, -9.753409114873174e-07], [0.038558313536444226, -9.758085632352696e-07], [0.06835753897403156, -9.238287681755835e-07], [0.07252184802215345, -9.234329029344108e-07], [0.0022994731416972436, -8.401159940105579e-07], [0.05303684756423894, -7.150487373109878e-07], [0.06705402116324423, -6.108649062560211e-07], [0.009852726813073885, -9.888786685754415e-07], [0.04142777625103857, -4.863911199282936e-07], [0.019949982630794557, -8.096224698145174e-07], [0.08009042308418492, -7.726447684712024e-07], [0.07805230386617865, -6.793632112062234e-07], [0.049270241994143406, -8.117770858717774e-07], [0.04579733300903073, -6.238525724915499e-07], [0.0276989201023173, -9.850282427426603e-07], [0.021027234592296006, -9.218212559580922e-07], [0.09902174912493729, -8.213902600860155e-07], [0.01180208843567668, -8.014107426395894e-07], [0.07132890784070318, -8.634875183205121e-07], [0.009252637548033007, -6.381076656439907e-07], [0.02233328353671522, -8.737125289581407e-07], [0.06297572172797415, -7.12352877588296e-07], [0.010263772218079217, -7.664347643374735e-07], [0.08305926485746472, -6.619328041485362e-07], [0.08467788335459113, -7.974776529237427e-07], [0.028805331053122933, -4.7279596004525655e-07]], [[0.028758571797360268, -1.47276861973625e-07], [0.01256093937532842, -1.6727515629030644e-07], [0.08802836960912411, -1.526961452529402e-07], [0.010959786149086902, -1.414688436617479e-07], [0.048591687771736995, -2.080461650413429e-07], [0.04427685161631692, -1.7757799929350364e-07], [0.060171297649054496, -1.7250134124703595e-07], [0.03319539227886701, -1.3202587573622996e-07], [0.03560021222567302, -1.4876069821823993e-07], [0.013116479930962382, -1.6754533015691327e-07], [0.019784726293830972, -1.4858311939165317e-07], [0.005880925077854181, -1.396414263093377e-07], [0.03643924670896221, -1.3335115561535805e-07], [0.07172547117081735, -1.7610369163248217e-07], [0.0652560522274643, -1.3073960059561114e-07], [0.06848515753334691, -1.5191382589159519e-07], [0.09022497833464252, -2.0638735196631603e-07], [0.09404929896749832, -1.710835897018566e-07], [0.07161154787953537, -1.925741702836006e-07], [0.01926618560421527, -1.927083869921174e-07], [0.04202845098240167, -1.824191844175292e-07], [0.022377849422417728, -1.8235917769601547e-07], [0.041450570013884275, -1.6589098973321086e-07], [0.01567651440504078, -1.4123208049726404e-07], [0.09850099038822534, -1.2066683325730718e-07], [0.05869825405028117, -1.9527212119111863e-07], [0.019392376603107293, -9.60650242090612e-08], [0.08796332973514227, -1.5993582678737238e-07], [0.03142969522079955, -1.5252503294196264e-07], [0.07870482128894192, -1.341638798390525e-07], [0.09013885719413665, -1.602685596763968e-07], [0.07857696001164721, -1.2324273032774012e-07], [0.02381000306889284, -1.945317687989982e-07], [0.09223371297488622, -1.8202339637128688e-07], [0.03984263585599842, -1.6217914097534702e-07], [0.03595755345483143, -1.5818226435641287e-07], [0.021249792166095113, -1.7051313289329245e-07], [0.0309902036965577, -1.2605729383746177e-07], [0.08637638801350576, -1.7251419400274753e-07], [0.0738158763971768, -1.4064433891459384e-07], [0.08147834888136828, -1.513236381392064e-07], [0.08437814086121802, -1.3068888555148565e-07], [0.009769271585261896, -1.575173984113277e-07], [0.06739316598895384, -9.33819548268408e-08]], [[0.08760159774147434, -2.4234369793121977e-07], [0.046471854604389316, -2.75397902779881e-07], [0.054621164708630515, -2.512846589574788e-07], [0.07158785198118378, -2.3301347945668683e-07], [0.04233450161972685, -3.425216052570393e-07], [0.0016734974838890078, -2.9228600928219115e-07], [0.0675842803689459, -2.839004404825531e-07], [0.014525546220112238, -2.1731319552045987e-07], [0.05906789027403511, -2.4487414345865123e-07], [0.0791471825460263, -2.7577095753178276e-07], [0.020673878786438386, -2.4445174952351024e-07], [0.09853595765025301, -2.2996101277747063e-07], [0.09533089020664764, -2.1932676506642635e-07], [0.07591506908730042, -2.898411643746351e-07], [0.032860598934013434, -2.1511360525927954e-07], [0.04482405028080484, -2.500399199210589e-07], [0.05705296374866244, -3.399318881565739e-07], [0.00875599730167272, -2.814997213502437e-07], [0.09677472844828966, -3.170661574763298e-07], [0.07389075181202083, -3.1711554142652815e-07], [0.020911572058922245, -3.003001292729603e-07], [0.051670587811676695, -3.001032129961456e-07], [0.015193007221458927, -2.730926703455757e-07], [0.08413063747114191, -2.3240667054296375e-07], [0.07649586514582511, -1.9849453216438866e-07], [0.047587773561947835, -3.2138373981391274e-07], [0.037412411860578525, -1.5804942730792787e-07], [0.030472621232424342, -2.630942645171207e-07], [0.0679601813693562, -2.512157191267993e-07], [0.035862234155562576, -2.2079162310478493e-07], [0.08327374490481664, -2.6388695951892986e-07], [0.07944878026620841, -2.0275151231099153e-07], [0.018922769416903545, -3.2011624564359085e-07], [0.011525958578808452, -2.9961988221011274e-07], [0.05049957433186329, -2.6698980283624827e-07], [0.023340213793541446, -2.60604227779933e-07], [0.04606290702616914, -2.8065953154875407e-07], [0.004840869457281738, -2.0740005981048937e-07], [0.05876900202903044, -2.839425156366448e-07], [0.03071470525595013, -2.316252587058403e-07], [0.09244626611695667, -2.492053070327344e-07], [0.0693406576331952, -2.1513631131177413e-07], [0.05668278303455388, -2.591397182778927e-07], [0.0789656324134133, -1.5363908423544075e-07]], [[0.013755426036377187, -1.1797249581544357e-19], [0.003179567376761568, -1.2920998238424544e-19], [0.09735252487776776, -1.2721673776175337e-19], [0.02724639215174853, -1.0671105783847126e-19], [0.09423171941806234, -1.6462354045069307e-19], [0.03326733322004393, -1.3839493072256346e-19], [0.056258630794402034, -1.3994776561468533e-19], [0.09762926809761718, -9.947852622222797e-20], [0.05108900239187721, -1.2573916372921704e-19], [0.07047468048452975, -1.303446142881431e-19], [0.07037337892879447, -1.2580023243196967e-19], [0.02838760016141878, -1.0898552289822496e-19], [0.08951951892157038, -1.0195229252031331e-19], [6.169078131766828e-05, -1.418825093492809e-19], [0.025701610764435077, -1.0397347282873895e-19], [0.0986123609534845, -1.2887028804490595e-19], [0.08423269821732571, -1.5718406932732088e-19], [0.022977321293184316, -1.362099460143694e-19], [0.0013726516750117795, -1.574557192229333e-19], [0.06343218097576131, -1.4220399084635552e-19], [0.08196031777614451, -1.3635290379107403e-19], [0.011698189533621785, -1.5876992216948773e-19], [0.07612669793964522, -1.3458838221706789e-19], [0.023460092554580626, -1.1283307810305414e-19], [0.010654734165872792, -1.034709743433268e-19], [0.006197716876292354, -1.4194335657995698e-19], [0.0543624624026054, -7.77229944155736e-20], [0.09359156717618548, -1.4151592630672314e-19], [0.045302130599910936, -1.1195169280852059e-19], [0.044431002837169324, -1.1017839625957205e-19], [0.06844914008054866, -1.2197527908124268e-19], [0.054721858204117825, -9.844801103410607e-20], [0.021267821319538537, -1.4217782270086427e-19], [0.04116674067864577, -1.4839082475258245e-19], [0.019851392021789475, -1.1171428058986506e-19], [0.08059593938015008, -1.0429200975475476e-19], [0.04995276964165751, -1.3375165493533568e-19], [0.015878303876852778, -9.653983820295166e-20], [0.03354326722738429, -1.4122021957218266e-19], [0.04422255230457181, -1.123774642981531e-19], [0.09652406642116124, -1.1798707950484035e-19], [0.07040015211239233, -9.846594801345208e-20], [0.00594193389993228, -1.3313725656309519e-19], [0.08808736440732491, -8.343655504675874e-20]], [[0.07812634938135048, -4.846802831672522e-07], [0.05355231342615591, -5.50787754674374e-07], [0.08102592260195536, -5.025619335011385e-07], [0.052500267039159096, -4.6602015692813087e-07], [0.0011173763619226342, -6.850331886373158e-07], [0.011411913983675926, -5.845634756532922e-07], [0.045548200409072356, -5.677925383036288e-07], [0.07245293698922965, -4.346200493875673e-07], [0.0644610150194119, -4.89741087164188e-07], [0.08902949812566334, -5.515338432638547e-07], [0.06338184880844987, -4.88896292212184e-07], [0.08704042064237955, -4.5991531590919495e-07], [0.005878427565492533, -4.3864711264697015e-07], [0.07594103305012634, -5.796738339128591e-07], [0.09757651659255187, -4.30220897653705e-07], [0.04637275659042445, -5.000724746182053e-07], [0.05450586630424897, -6.798538557661011e-07], [0.05092579212449547, -5.629911958036205e-07], [0.046712973717007715, -6.341230064018357e-07], [0.053200939665668405, -6.342218287773925e-07], [0.008128597738214982, -6.005915033602817e-07], [0.0793031820970118, -6.001975712969669e-07], [0.06030250301443719, -5.461773306245077e-07], [0.05497847349679656, -4.6480653398296624e-07], [0.03607542945896211, -3.969832148595298e-07], [0.0367694501282565, -6.427581113438948e-07], [0.034413342420884056, -3.160942077753489e-07], [0.041914974148809, -5.261807598582464e-07], [0.06950916560459777, -5.024241237100932e-07], [0.09538978673020704, -4.4157675983539954e-07], [0.004755486970309997, -5.277662167219373e-07], [0.08221087208416672, -4.0549707569661165e-07], [0.037243550405696636, -6.402231554541478e-07], [0.0518169945208127, -5.99230961121374e-07], [0.03938363579222102, -5.33971863192816e-07], [0.013633584624347102, -5.212009203672613e-07], [0.03780180407164595, -5.613108680082939e-07], [0.040679944829218065, -4.1479404583172826e-07], [0.022330431631777947, -5.67876703303828e-07], [0.030302893672508772, -4.6324374163544256e-07], [0.08694038952097129, -4.984033277413599e-07], [0.04848489338943519, -4.3026634637776535e-07], [0.08168894063811079, -5.182718028487782e-07], [0.027174700051139544, -3.072736277697674e-07]], [[0.09765372352690593, 5.136791153379338e-15], [0.07940485364804138, 5.852450752036388e-15], [0.08176589301632299, 5.657982812436496e-15], [0.012750100288069208, 4.9481518343126444e-15], [0.003980923250324046, 7.499377662700797e-15], [0.02091085608654221, 6.1186426613559816e-15], [0.04204810441439072, 6.282964696234947e-15], [0.020729641634168926, 4.42672883793951e-15], [0.0895986004785268, 5.710160612062221e-15], [0.014535618572376277, 5.853539603960019e-15], [0.05600407017161456, 5.633663425787421e-15], [0.012017742934694108, 4.963393508458233e-15], [0.08596446596042276, 4.403685169691615e-15], [0.08603850502335333, 6.272607365551098e-15], [0.061241830750409745, 4.597592432069992e-15], [0.04593797498553462, 5.842481409280762e-15], [0.0789686701570808, 7.052155002352229e-15], [0.04306608099548269, 6.012816208564805e-15], [0.06740492334096274, 7.045348495930966e-15], [0.051499013849245226, 6.298915572647544e-15], [0.07961121135293442, 6.107504443286915e-15], [0.025145734893921, 7.128835981240479e-15], [0.004770387313126397, 6.0953704415262575e-15], [0.07372542779209906, 5.007821693845767e-15], [0.05748963347714011, 4.444956401568975e-15], [0.0728607688633327, 6.374489810116646e-15], [0.09671704383776404, 3.3512960627818436e-15], [0.09114134963401524, 6.147981620694608e-15], [0.030800637144553417, 5.229655497464051e-15], [0.05201223791695689, 4.8365226432697664e-15], [0.026328722358215467, 5.418879474193348e-15], [0.09212722714482377, 4.427056650746182e-15], [0.01391368827663186, 6.2144145705907384e-15], [0.04792351565458074, 6.568811307377827e-15], [0.005646897449990692, 4.945427314429629e-15], [0.007756762318452391, 4.9024335303259025e-15], [0.04582898198161754, 5.910138928272583e-15], [0.06547361367592283, 4.2745683506963416e-15], [0.0015692009239816707, 6.149343615095419e-15], [0.00040487983149085086, 5.188050779147899e-15], [0.08825285335920396, 5.54252728286283e-15], [0.01241024878057048, 4.508830729066605e-15], [0.038585227062231435, 5.868722318712669e-15], [0.057419584448524505, 3.659868682818328e-15]], [[0.09683570788401454, 2.4849832337660817e-16], [0.026604972429386083, 2.8010147732673034e-16], [0.01493208851433868, 2.7191165488569604e-16], [0.09384398140628351, 2.3584939044019133e-16], [0.0023607240737664676, 3.5913768904091936e-16], [0.08793464267787882, 2.945044348400805e-16], [0.06159950324926097, 3.0224393614188566e-16], [0.004833833364542528, 2.1263651444069582e-16], [0.03806972472725253, 2.743208426171923e-16], [0.005271048471560234, 2.8099895480862187e-16], [0.04195082268120968, 2.709402932146105e-16], [0.023723631398519157, 2.3780119237449506e-16], [0.03818327406615426, 2.1254346795701546e-16], [0.06511986415385507, 3.025026073360494e-16], [0.0840897632546348, 2.2154421715558124e-16], [0.09293878082151102, 2.8051345916280624e-16], [0.013614262500709844, 3.3850173464311633e-16], [0.05509066167898782, 2.901819654554563e-16], [0.0630772077860597, 3.388395829139285e-16], [0.07644101874845267, 3.0276552977598283e-16], [0.0018687368940870333, 2.926119464307397e-16], [0.01214456679932191, 3.4331208413161084e-16], [0.0884706233499147, 2.928948146247031e-16], [0.01092953931652382, 2.406532686081789e-16], [0.08066722735544454, 2.1575582440733986e-16], [0.09138671804993939, 3.0575502212832914e-16], [0.04047792357447059, 1.6201238383640818e-16], [0.011663149740851706, 2.9749303372273596e-16], [0.011385667961201731, 2.4908496945095477e-16], [0.049673287226041085, 2.3358234883639616e-16], [0.030901318220858693, 2.605041574828373e-16], [0.07661479290343719, 2.1217325276347576e-16], [0.07356777371107204, 2.9928766525437175e-16], [0.09982835172088873, 3.1674291988688076e-16], [0.04937173859273708, 2.3791504031261003e-16], [0.06903150163083305, 2.3211002049870543e-16], [0.006540235344651348, 2.8488649301004627e-16], [0.07688429609416436, 2.0522802505510356e-16], [0.05857608090737706, 2.9781077751635384e-16], [0.021561658428166094, 2.4765705763062635e-16], [0.08085779512104828, 2.6354673797559666e-16], [0.036591779468713205, 2.1592065163478194e-16], [0.09091023664801441, 2.8297950157951766e-16], [0.0494536861165844, 1.7676167610505527e-16]], [[0.02563159443766249, 1.489456733827312e-13], [0.0657135703462433, 1.683307017666073e-13], [0.03988122905352118, 1.5992273682515123e-13], [0.026731423605458982, 1.4233188816283944e-13], [0.07330880951364814, 2.1332590129038476e-13], [0.0057585465101071456, 1.7682646037197391e-13], [0.08060722111709473, 1.7936493986873844e-13], [0.025207416301506084, 1.295071764653793e-13], 