[[[[2.2201650453835353, -1.5895954211391378e-07], [-18.169304411125015, -1.2682844461666405e-06], [11.183879614214032, -5.453895341512414e-07], [-36.00599578218944, -9.946496367067281e-07], [2.341764534161661, 4.7252711895026227e-07], [-5.083632483308875, -2.2021270026682468e-07], [-24.360735633379015, -4.8226807024118774e-08], [0.7898955453848776, 4.780458575678591e-07], [-24.98919810696417, -5.760226511524435e-07], [3.9897663348386487, 1.4392191612982246e-07], [-35.71992807360725, -1.7610044191865997e-07], [5.1003202147348095, 3.075667664313718e-07], [0.6002199495157292, -1.1778574068187237e-07], [-26.521219228888523, -1.3939002911296712e-07], [42.69410132143266, 3.970194373705847e-07], [31.629706354106563, 3.8446305165940773e-07], [15.476288828448272, -5.535581034440684e-07], [6.499775090499341, 6.746420031388276e-09], [-20.067682625420563, -1.0459706761710324e-06], [22.887575391632083, 2.4255514847893667e-07], [-26.2760814525084, -7.261023030066337e-07], [-21.53622461617636, -1.1290106813050625e-06], [2473.145764137763, 1.7801656795151775e-06], [30.44089247771376, -3.897821260701173e-07], [-18.91513359827787, -4.247132463868476e-07], [13.713395151620322, 1.0322004429288112e-07], [13.719032152034327, 1.37755419474466e-07], [16.428100107231327, 9.686493634524843e-07], [30.99191930635324, 9.192678056809556e-08], [-49.1500898939022, 2.0580685533821971e-07], [20.68341172186043, -3.369559222551773e-08], [-56.11031439370594, -2.088907799812612e-07], [-25.15386152219456, -7.157188071355142e-07], [15.562164793837395, -1.9046495152804104e-07], [31.601498121534608, 8.520812625055865e-07], [-21.011526196928695, -1.3354989480124604e-06], [-23.39981594233885, -4.014109839200782e-07], [26.837959975037485, 3.212719812795175e-07], [-5.822483792369676, 4.850031996394502e-07], [-5.24898650956234, -2.711607176237687e-07], [-1.0107518970288625, 2.523052057780465e-07], [34.09900883358108, 2.0026338167730097e-07], [-21.3339425209093, 2.033121906887454e-07], [8.943824897365579, -3.350801920654601e-07]], [[-21.351362016576985, 7.206711506071897e-22], [-25.914795231322046, 1.1648860595792108e-21], [-1.2209485379567384, -2.0481413677064158e-21], [-0.6235759256769438, 1.5129543369135217e-22], [2.4407332751703565, -1.8905978327248884e-21], [-11.282618903880278, 7.507260737915493e-22], [37.5409661017748, -2.062329198107357e-22], [-38.09144283283359, 4.7564431990515903e-23], [6.1380117210277385, -1.444893534975477e-21], [-24.244205679795456, 6.28590418073818e-22], [-30.753954535832367, 9.945041032536117e-22], [3.6252253032108532, 3.0416718389896515e-22], [-6.336554406922201, -9.884024080751639e-23], [11.973645937861374, 1.7562320876072618e-24], [-9.636026765404798, -1.988734287193856e-21], [-31.30728874263194, -1.4112877206148083e-21], [24.498008361027455, -2.2954537285016925e-23], [13.843694072737458, 2.1551445975591823e-21], [11.901933455605954, 4.724732269099581e-22], [-18.837789780848873, 4.108773283569189e-24], [23.59020051141056, -2.509971918247485e-22], [0.381876862101719, -1.9008252814189744e-21], [1028.957513555956, -9.983617011938667e-23], [42.54302640596446, 1.882695095058973e-22], [-15.840311133412012, 9.714356997826869e-23], [-18.647900440066525, -7.080159241837114e-22], [1.7076947081388532, -7.5293046222208435e-22], [36.964946268496504, 6.731678484817949e-23], [39.76088857367507, 5.345679254740701e-23], [-35.14724453288076, -9.517424101942231e-22], [21.43487049492568, -7.15740629015794e-22], [6.253281743897454, -9.234954708185369e-22], [28.167088351604118, -6.419932437150823e-23], [-49.70348625583583, -1.4274839680997876e-21], [-7.743710980891258, 1.979476374419425e-21], [7.359841525391118, 1.8694587047270556e-21], [-11.291318484904396, 2.4639149452041698e-22], [60.09317299493327, -1.6234534490353941e-21], [27.71997152010282, 1.9408970839007018e-21], [-18.88868310736934, -1.048129684744171e-21], [-18.234516294227497, -5.409663397685928e-23], [-17.900996856092263, 2.6141930429536495e-22], [0.7616052251697983, -1.116724349535573e-21], [7.869628257189058, 9.003669275632524e-22]], [[-3.4136648665203424, 1.6088939597132939], [3.1868074043740875, -0.6691042099506119], [15.597574938926952, -0.9478955500537136], [-26.600605447299547, -0.11272319040286462], [-26.708002734947595, -0.905825096246933], [32.3029659563225, 0.2794438599427009], [-29.50778760923725, 1.0019539233965098], [10.570445642696985, -0.8288857953929322], [-4.364548316699848, -1.849566476460208], [-6.653597286206933, 0.5549956940259517], [-8.744760130640875, 0.6518717444686073], [-25.864402688343933, -1.0776545875411008], [-21.956089827432898, 1.346658093425996], [11.99280440710212, -1.698625713602378], [3.4568966392188347, 0.8371639110452752], [15.439011405308513, 2.974518499609956], [-44.91287464485352, -2.8627722999807066], [49.12998337319783, -0.8896200728319544], [-22.708588567044465, -2.350005261690123], [10.951148960262751, 1.195753478186239], [-23.91144277998044, 1.6067343132991925], [4.474596667538466, -0.8820732991458484], [1903.294041721432, 3.7561706538200923], [-26.337029524931115, 0.5230031113995313], [-13.727796216557337, -2.671740519719833], [7.03093537785353, 0.11461032991208693], [46.30059763780255, 1.6728155925738057], [10.068648264499593, -2.4791834553602383], [15.013547237949197, 0.21075852942607856], [10.069284673692007, -2.111202928767579], [47.131155428576804, -2.661718885301692], [-24.403639610153004, -1.34596020189306], [-3.4440774057081223, 2.2038460962022777], [-6.195669404313033, -2.205576797321342], [-38.19726428692383, 2.2518783397134072], [-55.4148701783262, -1.615229290242332], [-32.46473832750881, 2.601500416295364], [9.551129963371737, 2.1632097610912133], [-2.0463081121125066, 2.143655417157718], [-44.56023079346141, -0.5896213709348621], [-1.062694761751434, 0.16173951937513817], [21.32286550673836, -0.8597734830385289], [-10.581845137100574, -2.009254167723043], [-46.613685245026836, 1.312649381652189]], [[-34.340332593317, 3.6983274806018464e-05], [-23.93134298324078, -2.708619914685365e-05], [-4.489894693624133, -3.192891598885742e-06], [-25.983149797576317, 2.6168741366089555e-05], [23.90895010642385, 5.871803549171689e-05], [-20.987459944145616, 2.459245949114528e-05], [-13.167545585104593, 2.201776475489624e-05], [21.21637036953674, -1.6610481194750067e-05], [-31.430708099189737, -5.7075475290087105e-05], [-14.700553672047326, 4.362999245167226e-05], [9.709356414377593, -4.654891387410859e-05], [24.51107176354715, 2.748849708562465e-05], [-5.430866006516917, -7.186976349585848e-05], [-14.581025173537395, -5.2094799154350584e-05], [8.043557742701044, 6.199099114027366e-05], [-18.34099401748849, 8.396083635356796e-05], [-28.223277287727004, -9.552536716540431e-05], [26.421919268828372, 6.771231479541461e-05], [1.550247470235594, 5.9330387744462815e-05], [20.977771064333698, 2.4316197238144683e-05], [3.006069679711747, -6.572948950657398e-05], [-24.53943482653063, -1.2929444816991152e-05], [2431.917958848923, 0.0001901166891013147], [-22.33994947596006, -4.708825522514288e-05], [25.76133914697242, -9.355824109107073e-05], [-0.15547319881370197, 2.1426466534206217e-05], [-25.14355300912913, 4.836875429523777e-05], [-60.7141575152376, 7.392038160963682e-05], [-27.802619764886373, 1.1952098105213064e-05], [37.9508460726099, 6.730653703089193e-05], [7.595779726136716, 5.4630817299472495e-05], [54.43157149407235, -0.00011140710154507936], [-28.44725354771713, -9.441384978902331e-05], [-28.153817607707598, 5.3845533289891797e-05], [6.727676620367879, -5.768995980115141e-05], [44.46778254017957, -3.481034577794488e-05], [29.779617797614968, -0.00010189546438830453], [80.58686477539726, 5.4213050837407456e-05], [30.580259616462236, 8.458467239629236e-05], [-0.38020453875812066, 1.8190973953273348e-05], [-4.709184388843832, -3.758931718191501e-05], [-26.134206122123224, 3.718233739795514e-05], [20.4857267018397, 2.5725788180015342e-05], [-24.308872907001394, -6.051712277280259e-05]], [[13.849193290207685, -8.268515166840722e-18], [24.160061814219507, 6.2722954229136356e-18], [-0.4201047212842571, 3.66134291966369e-18], [-3.772545156591888, 2.4793993348677278e-18], [16.31154649638806, -3.1060620447652048e-18], [46.04128805701018, -1.6415631987109252e-19], [10.733309384077454, -1.7308440951405958e-18], [21.66377196917104, 5.03577726594503e-19], [6.216600568013524, 3.7563490644513794e-18], [-4.9424799847723015, 3.799102197536458e-18], [0.2875373909623678, -6.085114589768866e-18], [33.91930989718908, 2.0912014141176085e-18], [-13.758185786471728, 3.416911869613205e-18], [38.667856973751356, 2.66080287171561e-18], [-0.10178541450857236, -1.210121756691751e-17], [17.793895068290457, -5.9544909233877625e-18], [-19.225362998765096, -2.9949342062712263e-18], [-40.0801077363816, -7.092304444340366e-18], [11.332453156981764, -5.2347711081191074e-18], [12.317309139741802, -3.103508596328346e-18], [16.47925088562377, 2.221319014586812e-18], [18.198161554999615, 6.629479464641906e-19], [2643.818784628392, 1.587466713615192e-17], [1.9072212195966072, 2.181662313957865e-18], [-11.679561068721208, -2.2885537530977383e-18], [10.857004724932278, 2.2728040121266987e-18], [45.82180840540011, 2.1199079191055664e-18], [3.2732886772435137, 2.7640645541549604e-19], [-10.118559214011166, 4.912347848174893e-18], [-10.136152097235875, 5.14506718680543e-18], [20.811009139263366, -2.7957168984360195e-18], [2.5868162450548207, 5.15116362423173e-18], [-16.377115336374608, 2.12690674110386e-18], [5.64117105268836, 5.2312550237723616e-18], [-11.35468378665084, 4.980092542079226e-18], [17.360709636027096, -4.056253289810835e-18], [9.234812966275099, 2.9947851187694828e-18], [70.84895202455395, 5.2993543626537354e-18], [-13.868764972307735, 6.8452664940405844e-18], [-5.2913061803551855, -1.2478313832830737e-18], [-9.503026569571688, 3.254174769926145e-18], [-13.52360032515577, 2.308147007474596e-19], [-20.966791144619492, 4.580856758851892e-18], [-11.373420522697879, 4.730031694955842e-18]], [[-2.9430820959000714, -0.08405525531212696], [-23.13535031254478, 0.048250781559144765], [-13.409026640473913, 0.05021200305298785], [-13.742816953561325, -0.004049293619582231], [-25.126568980250134, 0.06363656064763748], [-42.17111456954104, 0.017264003916860608], [31.71871930855009, 0.06015455685553283], [6.855895840538455, -0.033546614800361585], [18.691839824251467, 0.09799349427782911], [21.53887359024316, -0.002186949376464865], [-13.494391187645398, -0.028659844101887596], [8.776546309024125, 0.06385706772200203], [-18.779435708863904, -0.07014151802004068], [52.432114559587184, 0.08573485584046409], [3.69331789169346, 0.10335752254732472], [-46.52507112089019, -0.15607523622427483], [33.57474408980094, 0.15384002914581446], [-23.16563946585582, -0.11056168517420595], [72.54124879268743, 0.04507237490419057], [-6.089616939923566, -0.06926752596226901], [-3.333348641099945, -0.08265713199617233], [18.409628295025303, 0.04616896395320003], [1669.1840515246067, -0.1379634792008495], [15.980909508079042, 0.010365626883378852], [76.47339885227869, 0.15013392905384498], [38.89929768899304, -0.0022215757870386287], [69.2151734990218, -0.08857920136120111], [-47.284445493551594, 0.1378623948764467], [-37.23774339368583, -0.03377676249603985], [26.443945652714522, 0.11832436604063773], [-16.57494641380457, 0.14158274718634184], [-27.222839000558153, -0.17489120972601055], [56.71854668958073, -0.07463334919773698], [-4.055202587405809, 0.12400673025019066], [-12.430598227751714, -0.1256150003658401], [46.17524374498136, 0.1062628321409572], [40.68499605927758, -0.1463610026544408], [74.16029763517567, -0.1093031448231874], [55.78825295688763, -0.1102351337813435], [-11.240248034777771, -0.021649076017945412], [13.57411412892116, -0.010514772971000355], [6.412995279731693, -0.1072881707336102], [10.80983025672683, 0.10988666187987123], [-20.02036332212017, -0.06558060997065246]], [[-21.00246835213485, -5.1528293171830224e-17], [33.676194372458184, -7.758692377502616e-17], [29.203600557830306, -1.2693788497100067e-16], [41.70323680787091, -5.043709325609744e-18], [21.653029949120253, -6.556768482773033e-17], [-28.91915787703719, 4.911777613212608e-17], [-0.00380438945347159, -2.2269304732503262e-17], [5.706408706875585, 1.3347863995903272e-17], [14.73081377605502, -1.354695879603877e-16], [-26.951030439470006, -4.411854868986206e-17], [3.474933831084669, 6.876068593917242e-17], [-2.525592274199818, -2.929978456257569e-18], [18.506789876186634, -1.5144252013199913e-17], [22.33884706622409, -1.1518297525708661e-17], [31.008993064759625, -6.124697171090245e-17], [8.897900039231292, -6.525953719723771e-17], [13.119618213700443, -9.96142098207065e-18], [-15.665800924715235, -7.332092772435758e-17], [-7.143956928285985, -2.0835443245969762e-17], [-22.002806000563318, -1.8420848750280453e-19], [0.4355541715413837, -3.532048867266283e-18], [-7.935201486494895, 6.802056751083757e-17], [2178.5056229543097, -2.2891489068854704e-17], [-7.587426302355739, -2.3804449422118372e-17], [-26.29127182402153, 2.792169202032515e-17], [-2.2753098159457474, -6.492622822085897e-18], [-3.9783101527540126, -2.294096510936218e-17], [-27.23608359376516, 1.7609961027244273e-17], [2.7980719874724547, 3.916938713611916e-17], [31.49579278082686, -1.1634072359438156e-16], [35.00214557310066, -2.1837534433895913e-17], [8.600836104871176, -5.2605531386643827e-17], [44.39177320957977, -3.709428780731851e-18], [-27.78786456483816, -7.28192725264265e-17], [-27.983527284416077, -1.3401236472787841e-16], [-18.66272351754313, 1.2221755707633578e-16], [4.401268093007038, 1.052539547976588e-17], [92.25531394706813, -6.862357364626055e-17], [-26.697069074817787, 8.977654193039662e-17], [3.1822158880558082, 2.8815174610680176e-17], [-1.952621987451975, -2.8596340699267314e-17], [-44.71813340897273, 1.2288548124508184e-18], [37.29766212522086, 5.300720342455697e-17], [27.708034179600812, 6.18926525941925e-17]], [[-9.631065890844644, -2.638640292960132e-12], [-33.6690593970133, 2.1677614334209023e-12], [3.564787631933709, -1.4985842191365083e-11], [26.497760029342, -3.732680446822193e-12], [-7.8386545366359615, 9.751876136226786e-12], [-20.84595264086918, 1.5674772917046016e-12], [42.39275883666321, -3.806185079265197e-12], [11.075989797702922, -1.87887801085576e-12], [-1.9583933543911665, 7.487603109272792e-12], [15.948543693213251, -2.5303808832295457e-12], [4.650237251064826, -8.09518103837357e-12], [-31.17614955679299, 1.3257772461822071e-12], [7.474805781383931, 1.8099482815645932e-12], [-22.974596781224413, 1.2617215661014534e-12], [-8.700513241840488, 1.8415142413823358e-12], [-5.877801628233842, -4.438885746672128e-12], [27.205136501677625, 3.682813893499421e-12], [-2.833319911620063, 8.071846566279351e-12], [-14.488733867374213, 5.2827709816198645e-12], [0.17339704923784424, 2.4996900527772293e-12], [-32.48178641363649, 1.7928912797954952e-12], [3.4377140447337156, -2.471298380345341e-12], [1753.6501754143646, 1.069529256056409e-11], [16.886773078218447, -3.509753582682733e-12], [18.54758897870316, -4.824868783152278e-12], [-31.07727550690834, 1.9713524933171783e-14], [73.4844550940236, -1.5123618967443497e-12], [21.50005922951868, 2.8386525013516826e-12], [-29.34438411774751, -6.953267337192876e-13], [2.942126210417834, -4.957728745470156e-12], [-1.3217568778349045, -2.6840020570628145e-12], [18.66912063727097, -3.1795816944330323e-12], [-27.33507037023203, -2.1902355708655458e-12], [-9.017277324631229, 5.325008229153645e-12], [-36.523964342415795, -1.3055894790488224e-11], [-2.5554740777516614, 1.3571129313705748e-11], [13.070116390413453, -1.7945226649838396e-12], [111.04783331713323, -5.044965543065585e-12], [-39.44947425560484, -6.3740569589229886e-12], [18.14823546148998, 4.954993895834299e-12], [24.049096442457028, 2.0275569475337765e-12], [7.458276790226033, 6.204186945908734e-13], [-2.7326911198637758, -3.864973324176067e-12], [-2.962225921805514, -3.663674004083934e-12]], [[35.067661208174, 0.6235276685056397], [19.60797891515637, 0.16479445195472892], [1.614759002127378, 0.19579372937453174], [35.59886165016269, 0.15294219470257475], [-10.530331625085607, 0.19741943446036941], [-8.066326114730643, -0.22663790236429832], [-11.101498974042025, 0.040546950719720615], [-5.147421252299308, 0.20734618859181508], [10.940893523508732, -0.7026962743166816], [9.302988105318132, 0.09392434659358438], [-20.50784296573047, 0.17018873103027155], [7.708373233567058, -0.10875761997571988], [-34.711205592627415, 0.0229957198286615], [-15.470644150082109, -0.5900406050242755], [-12.511179132767463, -0.432040657768982], [11.714382871007286, -0.13649785112218893], [29.222200328476426, -1.1836235307077398], [-6.414456230062358, -0.6352962744308219], [-25.59683840979613, 0.32809244819661143], [15.927868329090657, 0.04056096453670438], [30.290513735959724, -0.01807907207856918], [-5.943296137484371, 0.20290597490059636], [919.258149764755, 0.5658561640010876], [-10.372060722202356, 0.07871070384589211], [-10.649230391969205, -1.101260363956253], [12.230161952871521, 0.20304132998792962], [27.775257389226763, -0.08710135420868487], [25.400449163449597, 0.11945632623109864], [10.578703228260029, -0.07492221681112356], [-7.148514884583338, 0.03591945550481224], [-14.974963201886737, -1.0983010148110575], [-24.427885311480722, 0.38223774645633224], [1.2502630001070423, -0.07454340071636434], [-4.967875267141017, 0.06049057144211617], [22.461876560474415, -0.11446992283590102], [-18.15682796731472, 0.2773017888908755], [-14.89761257921328, -0.10488923879462242], [17.959173462892895, -0.06666592080368566], [-2.3548808085750923, -0.04299301636198788], [15.713072286570055, -0.3942122295232493], [11.671609240254753, 0.13157980120468504], [11.993407998408532, -0.5758270343756546], [-15.797882252573189, 0.01838366427434668], [12.254767498811384, 0.028306435967926147]], [[-3.327164509003355, -1.9068166260593435e-13], [10.581344311095059, -5.014197840117329e-13], [9.900290875630361, -3.783447217526857e-12], [4.215715717954933, -5.344219366203004e-13], [8.936314208807687, 2.455048213103114e-12], [8.408859457089008, -3.47932393572627e-13], [-1.0947446187826662, -8.466778250390671e-13], [-3.365292579283885, -3.738366492001482e-13], [14.195557447171385, 1.9475723169175444e-12], [-12.89674522800748, -6.728110503601585e-13], [-3.0033775589021947, -2.0445448486023435e-12], [-5.22517771163181, 2.1034625956898473e-13], [7.911107983339691, 4.4255705400338715e-13], [-8.038278932597454, 1.8893053093342993e-13], [-1.844456819267247, -5.024964531102172e-13], [-8.545002055271771, -1.153184751053547e-12], [-7.0688340933744325, 8.592423049132912e-13], [-3.2746311979546747, 2.104556510577473e-12], [-8.304401442021016, 4.530107091130774e-13], [18.239908023483462, 5.085077706563224e-13], [-8.977370020893908, 2.563859932135393e-13], [-8.920069850601038, 1.7167220403247506e-13], [728.8028238734354, 2.002567914525094e-12], [21.847549467412293, 2.0623089857754215e-12], [1.845573146311677, -4.677053844424272e-13], [-25.410604739305107, -9.45984673076609e-14], [23.915049615806257, -4.4188503501669537e-13], [-18.668617499883435, 6.745093390584611e-13], [-17.110871987042753, -6.935203132435088e-13], [-21.644896468365253, -1.2623083126971046e-12], [-15.711143233741524, -7.765094064551331e-13], [-24.509219420341843, -9.585740038807347e-13], [-6.665633584412435, -4.294658637696321e-13], [0.5689724590283336, 1.4913119495192456e-12], [7.241389232652526, -3.2627701672589093e-12], [-15.271624419314504, 3.396019427420098e-12], [-19.595684573651962, -3.596134572716902e-13], [29.708791971845272, -1.4021460907696327e-12], [34.198827819606024, -1.7798131590757526e-12], [12.072988882635876, 1.1780763801490217e-12], [5.6198682013439685, 6.187054704449649e-13], [-5.111954457090241, 6.320446285370916e-13], [-9.435785933803247, -1.0984918752094887e-12], [8.63098063803446, -9.64372451663252e-13]], [[-8.372959581151097, -0.008937310675339087], [-17.971991337180558, 0.00998085171436068], [17.265884800419023, 0.0012141220501280421], [-20.95164732195836, -0.0019860278391481048], [-17.833295167098324, 0.012642696520169338], [10.332179657353544, 0.0009446458235447019], [36.00705963160449, -0.007169630322377652], [-18.498911382924312, -0.01476404474949501], [13.765608488498218, 0.013394963429886532], [-29.734300719148536, 0.007169437703918151], [0.7510589751313111, -0.004777290830632729], [-16.40040355133605, 0.014734769335980143], [7.805319695402673, -0.008124394265690369], [4.739629198722425, 0.009889978182795437], [39.110698536555304, 0.01743852904498002], [-14.079087487800036, -0.02085131700003422], [24.657765825353522, 0.022958943834701904], [-4.044473043084511, -0.015975104155558466], [-5.892684279727874, -0.002208132471494478], [29.85332928552679, -0.014221946214236676], [-35.518748747197286, -0.00835877949938923], [11.736424527860457, -0.0004862039387841365], [743.2749911457856, -0.01216643651428791], [62.423620739494964, -0.0013458170802504955], [18.423343322448687, 0.020019110754049545], [2.1886188487300555, 0.0006421874414840485], [3.8879354685779104, -0.012811887949215606], [3.59754631953778, 0.02027921181343992], [5.663496150002999, -0.003678344778630385], [22.712692718846505, 0.016010701618053878], [-29.79138919777351, 0.01617984594471893], [13.713073088054188, -0.021466533504330816], [-79.40165313795339, 0.017730375002371374], [29.385437683485808, 0.018827411705631444], [-24.01625424057889, -0.020747893506651627], [-8.091146442340753, 0.01885002578656837], [-35.07146038281096, -0.018685426253169567], [79.92463694231247, -0.013104803294075358], [-16.029623402901937, -0.012505823194470665], [-11.709922853175543, -0.007483929758347286], [8.891533930234043, -0.003676110914255124], [26.002201087656044, -0.013653801260688173], [13.892770284962383, 0.015248080140581217], [-5.533546273383121, -0.008188139407034195]], [[-7.1820709860607455, 9.846967529436618e-07], [2.6394356194226645, 1.6771241746041245e-05], [-13.664860863500996, 1.2393479218465405e-05], [37.01487913873342, 1.275696970333154e-05], [-1.2356541503333431, 1.915268520120051e-05], [12.03007293149353, 1.2860196538861824e-05], [-25.564160907464586, -8.243038194960457e-07], [22.711494473588598, 2.4245184601417596e-05], [20.751648546217663, 5.810102965025595e-06], [25.065458449142977, 3.8263036219141286e-06], [32.1762840770393, 6.497395162654493e-06], [7.196990512224766, -1.7699395714341233e-06], [-1.7170563939565, 1.0038296050597272e-05], [16.39373876984042, 4.070735952578506e-06], [33.76171407148088, 2.7786955208655827e-05], [-50.25838351108667, -2.6360140128668975e-05], [-19.459779929677204, 2.4135838563317385e-05], [-13.589917153245938, -2.2198686660534398e-05], [-15.29177981805222, 2.0864371892074233e-05], [-20.242400034783607, 4.865579662617047e-06], [-15.63988031721121, 6.997887599394548e-06], [-25.966977140923923, 1.5947910238961497e-05], [766.0705059462412, 6.54680976588983e-05], [-15.096930882683779, 1.0995045529250818e-06], [13.795974862287482, 2.470902995811738e-05], [-23.023287743349485, -2.327351264867031e-06], [-5.578641260440364, -1.776437572461628e-05], [-73.09378190213775, -3.4577374954457685e-05], [32.972107616516055, -5.809953275652395e-06], [22.599788520566353, -2.0498640522791632e-05], [-26.782952065835726, -1.7294695153582732e-05], [43.478093170812556, 2.4309331406728785e-05], [-21.765977620157337, 2.456189878037439e-05], [29.13201581992317, -8.589354763508496e-06], [19.264462017883208, 4.7045234681137e-06], [3.013367504906369, 1.9203780986107415e-05], [-15.936861842251178, 2.230976505872416e-05], [59.093748958672585, 3.3042187412110677e-06], [-27.33684789345033, -2.2796634928412055e-05], [20.311770609987583, 3.5900595507941787e-06], [16.312380158091397, -5.719509515663994e-06], [13.203075557411728, -4.4208691364219666e-06], [0.7383712626566531, -7.975963024202916e-06], [19.102683644300278, 4.050413367632435e-06]], [[1.7988092753129055, 2.4266205983636073e-06], [-17.077872221547363, -1.732056600820938e-06], [-15.616723733636976, -8.133874512740329e-07], [0.9492850666442835, 2.481553481978776e-06], [-26.271293206782968, -1.935408300298735e-06], [-9.19258357329073, 2.890285156491842e-06], [23.448512164988845, -2.08695139831562e-06], [10.989007557704705, -1.7731649164314187e-06], [-2.7542729718617642, 2.6422339903291813e-06], [22.05954651914682, 2.636714520865635e-06], [22.406669393074033, 4.28193284848971e-06], [-5.886330192724112, -3.6143944432957288e-06], [12.192871528210603, 4.440366982584135e-06], [14.637112531822037, 1.4391744787593122e-06], [8.640629241419292, -1.364508733854081e-06], [-33.269389481827446, -5.696810173693879e-06], [-19.447556081134817, 6.423833566310944e-06], [-25.21882621604871, -4.925658772289757e-06], [-2.041831904078361, -2.0645867068096186e-06], [45.00520362734208, -1.5205786414274965e-06], [41.09320063974448, 3.0050339051937254e-06], [-31.037863974902045, -1.2350411976178511e-06], [623.9783477053655, 2.3854426769340217e-05], [3.964074423366339, 2.591530639847334e-06], [32.076732417495506, 6.022471179398059e-06], [-13.218157774105615, -2.8760468110440577e-06], [68.1349170760047, 4.766655544456946e-06], [25.79543100225416, -7.661666878910151e-06], [10.38248850358088, -1.308158055441074e-06], [44.03142308089062, -3.6720104285393587e-06], [6.327992739967663, -3.8058570092155416e-06], [20.12963362488027, 5.524812886934634e-06], [29.461977653923157, 7.473403789075958e-06], [-4.761746121929397, 1.006531875547954e-06], [19.493851808270666, -8.172132156812207e-06], [11.2280760376978, -3.516541561705131e-06], [37.3410406931815, 5.108775531491722e-06], [58.14748949228404, 5.441133314273252e-06], [22.217265094374266, -4.70460338890559e-06], [0.7493406296614245, -4.949646545020924e-07], [11.778004503340188, 1.586485025060648e-06], [-4.412307681880854, -2.877186951625041e-06], [-9.502906074809683, -3.8906155939013885e-06], [-28.004436675356732, 3.2282454911147804e-06]], [[7.6865819294365885, 0.00026339124301856434], [26.134957748358396, 0.0007135487293255412], [0.6222095911494576, 0.00011377742180014523], [2.8148653125438066, 0.00020874873469390128], [21.05696129994478, -0.0008965455353980419], [-4.784872787501425, -0.00020263719940409264], [-2.6074485482380756, -4.0877139819328575e-05], [-33.18589007659475, 3.818777382883583e-05], [-4.53414142905882, 9.323296005073221e-06], [-10.418321827375221, 0.0001567319116942226], [-11.745933997361071, -0.0001304884336823086], [26.549025661558726, 0.00026198997953209467], [1.5909732429907997, -4.838639819489034e-05], [-18.046810319445196, -0.0003304704792051538], [-22.833046403090304, -0.0007763906673425118], [-9.67580364719474, -0.00037284872940464953], [-15.369126495145446, 0.0002100852941745989], [7.178395350410183, -0.0002887651884175336], [6.008030463009791, -0.0008615911350152724], [-30.433885710704413, -0.00023496476548367357], [-5.922136921897378, -2.127377897126978e-05], [20.9566731124374, 5.4990743766187514e-05], [902.5876535052555, 0.0008907788288751398], [-22.299834851157534, -0.00026417318078700676], [-32.02570879068133, -0.0007642533656552423], [-3.121533786500471, 3.915421224071857e-05], [40.257662360089796, -0.0005101262893172197], [-7.731407509121292, 0.000299863323848385], [-40.07075321558876, -2.4915793597749603e-05], [5.906627352372286, -0.00048217805749862705], [-17.570360549396884, -0.00018824121824338144], [29.194504968327905, 0.00037172969854243554], [28.958017283098165, 0.0002855836561081868], [31.37368555643628, 0.0005204212789799594], [-51.65736330319374, -0.0008074271723296862], [20.317722261478924, 0.0007206209751527671], [11.340460514773923, 0.00027672375410803593], [13.337031124056654, -7.022874015628062e-05], [9.321093686141051, -0.00041787255613262846], [-14.84175249095135, 0.00027503918066164713], [-10.94208647849415, 2.134160945267066e-05], [48.80288540647683, -1.4417706283356896e-05], [14.804525088595033, 1.2857250350054151e-05], [33.836403758158816, 0.00012764105576903504]], [[2.252962128398741, -3.555833148723187e-16], [21.22150320494275, 2.4994541408858633e-16], [-25.006155435623054, -4.595441857775256e-16], [-1.5738207445906822, -5.1975934889685846e-17], [11.928912194594776, 3.009256918795251e-16], [18.032987418638076, 1.9177014742056255e-16], [41.92859026246763, -1.0313293948225964e-16], [-24.933309098358126, 1.3362766983549989e-17], [-12.723086290141055, -2.483035496448748e-16], [31.832004898638544, -1.267459396740299e-16], [23.204675938200364, 2.5664057345365687e-16], [41.592410091963195, 1.5614680459899062e-17], [43.6619434845151, -2.5733581595651716e-17], [-10.797015015609553, -1.3340437870677006e-17], [-54.37055626469846, 2.0327736050470725e-16], [32.86757518065802, -1.9979531768985857e-16], [37.780524292787234, 4.8605570628209036e-17], [-19.61377665642628, -2.3151789605681294e-16], [-21.15361165555319, 7.91691925231734e-17], [-24.731677873104296, 2.3377143149815296e-17], [-7.59703768423097, 2.7090289754498555e-17], [3.8925073718917984, -2.4522847679149964e-16], [1195.0307609185907, 6.819191320280785e-17], [-43.26798321433122, -6.067748260701902e-17], [-20.415098039699462, -3.941832852250029e-17], [-15.777613869375482, -2.502025826355818e-18], [22.552768135376944, -6.856102663421129e-17], [51.27221485836953, 7.110069381393626e-17], [-35.20118382037872, 2.186766764559044e-16], [-69.79540599135274, -2.1181186145105584e-16], [40.12841305808562, -1.0485739453121734e-16], [16.001490594200142, -1.5303911818154718e-16], [-30.673384274558668, -3.9758877577023796e-17], [14.442483685164287, -2.319352871409796e-16], [16.357115304610396, -4.410555208460981e-16], [-38.29143385101778, 4.3805759707743325e-16], [-1.8100775782822758, 7.555649774426784e-18], [57.232782037266, -2.1526800742781655e-16], [-9.826733911976053, 2.770465349775634e-16], [61.77815589287501, -1.9393846879800858e-16], [15.771167285413316, -2.2867591231281104e-16], [12.742870945418137, 3.2185322866207354e-17], [-27.438219265749847, -4.948497909744201e-16], [0.05489502574830815, -2.4914615577426576e-16]], [[19.427433069171435, 2.215993090980413e-08], [16.241254589253217, 9.201946810240086e-08], [15.72365990750034, 1.3752686729510904e-07], [6.049002654424695, 7.814752349651264e-09], [-15.717724899101281, -1.9333684143776975e-07], [0.5949697785438857, -9.949043489531707e-08], [-19.781784372577334, -1.0919907317831186e-08], [-5.008517643057865, 5.902129342596707e-08], [-22.206151427260288, -1.8012910922826946e-07], [-19.980523754876558, 9.576792740752424e-08], [-3.097057821672199, -1.238165069412788e-07], [12.720112863130446, 3.146788143739387e-09], [-13.308479986667358, -1.140135671255914e-07], [-11.700332625088148, 5.949440423608804e-10], [15.842959152467571, 4.351933877093079e-08], [20.995762524906237, -1.266243645284203e-07], [13.147917703342195, 3.726515855874032e-08], [-3.622172816201749, -1.903510525348068e-07], [9.089441075709514, 8.463271738309586e-08], [-3.2770219143646755, 3.667598656420541e-08], [-16.2800753752094, -6.813669961100103e-08], [24.866940081905653, 1.5097100914200506e-07], [554.4336196510993, 3.292299619145333e-07], [26.141210240532104, -3.389615217175598e-08], [-6.691938014578594, 7.747421239180374e-10], [5.217181257265994, 5.531667301438379e-08], [6.793599616046124, -6.950599841775498e-09], [-5.384459177746566, 2.3178338648365637e-08], [31.089885148871012, 5.657490969020281e-08], [-17.432300312267927, 1.28706703935531e-07], [-3.01979316725737, 8.89084448227764e-08], [2.101020759715735, 1.3512545024147716e-07], [-21.467650566994557, -6.301628657746157e-09], [-22.473034454897977, -1.4677829997136385e-07], [-5.67297536599773, 2.0655358350938246e-07], [28.423489745628753, 2.793055589860364e-07], [4.292604902641874, 6.361798133856473e-08], [14.759313788561348, 1.335819485847485e-07], [12.967843170889916, 1.7406883562934975e-07], [20.087839401725375, 4.49637587841236e-08], [-1.7219138853234741, 7.893806476944033e-08], [17.979224939300273, -3.724671815700215e-08], [-4.141957878007978, 9.066063106802842e-08], [-8.946583283324177, -2.0454504835233058e-09]], [[-4.81193296338959, -0.6235277680144435], [-5.784798424456286, -0.16479465987737793], [-9.051154427782532, -0.1957938834498112], [17.684147524733405, -0.1529424450668545], [2.072979565274712, -0.19741936873725988], [-15.985598909132516, 0.22663791041582756], [12.555738903799869, -0.04054706021585833], [22.880501631772777, -0.20734603861943107], [7.864401054320732, 0.70269614309873], [-6.400493118507656, -0.09392433858214196], [-2.237073759619406, -0.1701887544598816], [5.217301607554202, 0.10875767647044125], [9.674788508079033, -0.02299567272618741], [-5.348282472324561, 0.5900406006841121], [16.347254709992466, 0.43204081097501235], [-4.537656569646362, 0.13649785974035378], [-7.705700230076337, 1.1836233874375046], [16.97873228209008, 0.6352962381377866], [5.971605811972001, -0.3280926765521803], [-0.6023823823703645, -0.04056085554246225], [-6.6665803360599885, 0.018078827188110103], [16.754740958619767, -0.20290624910167665], [-0.26256647272814837, -0.5658556429415141], [-6.901945555701018, -0.07871078408796707], [-7.543669488491432, 1.1012602237354565], [24.409891520531918, -0.20304130280175042], [5.369313185798691, 0.0871013645676707], [11.253351460244478, -0.11945616809063986], [6.203573480976715, 0.07492223080992808], [9.63797823045559, -0.03591934694817256], [6.3426483609150806, 1.0983010412645307], [19.91773485876109, -0.3822377506570088], [-3.2992743293217015, 0.07454331181908974], [-12.068400612972733, -0.060490598143983665], [27.03757699154217, 0.11447014944812994], [9.883363485474671, -0.2773021321074118], [12.229909015100267, 0.1048892090903949], [-23.429491349286142, 0.06666595403158027], [-6.186984356085531, 0.04299318692009052], [3.5756433439819997, 0.3942122533333446], [2.3159376291744347, -0.1315796925784828], [-10.22207903841675, 0.5758271451580889], [6.285390998857954, -0.01838369339785567], [18.93511465222324, -0.028306512994490968]], [[16.701873303783103, -3.1963998282724624e-05], [23.058200085279527, 1.9364493558890927e-05], [15.117014709320975, 3.7173040662284957e-06], [-13.515068376671417, -1.57284811059013e-05], [-18.993870034893337, -1.760947783024794e-05], [8.252697230942138, -1.2502001943563593e-05], [-3.4100194757767657, -1.4419536130629734e-05], [-8.488919778568103, 1.1766723805892559e-05], [-11.817952154595998, 3.610282500246453e-05], [-73.41853142456935, -2.802855052848674e-05], [15.383501895074009, 3.74333202048367e-05], [-48.317204381540925, -1.7612665994128542e-05], [8.491111755745878, 4.563703668556812e-05], [-18.796396465826454, 4.348362259571306e-05], [12.510372283334261, -1.9605381437402984e-05], [3.502948386956131, -5.576750957900819e-05], [13.921840952569356, 6.140610974187568e-05], [-0.08514814522509415, -4.517136910767557e-05], [4.501136986956752, -1.6661546409422898e-05], [6.004644458098673, -1.2042561362504649e-05], [-14.935610910420554, 4.157942494889862e-05], [4.839541882671095, 1.0208199019668148e-05], [796.9628081518329, -0.0001184891879655617], [34.02744951770642, 2.9204451998654176e-05], [-35.681539023239644, 6.029407108407901e-05], [-20.123040876759227, -1.3929583662035056e-05], [25.034086713394252, -3.2156708943073736e-05], [-0.3942933365476103, -4.996847853815918e-05], [5.162186573211295, -7.576616179361704e-06], [-43.95570290864181, -4.4835086159145004e-05], [-43.70858975597604, -3.656795485661306e-05], [-32.20602501404631, 7.212698904504494e-05], [38.87942423106725, 6.06999372541508e-05], [27.802776923423636, -3.5710102302413545e-05], [-15.080121558703341, 6.208494217308976e-05], [-26.05320167894815, 2.4952814210201005e-05], [15.96615047436231, 6.583613001160517e-05], [-19.447694690109287, -3.5207710367035584e-05], [-5.613866612976633, -5.592467820580133e-05], [-19.02010551373287, -1.1489395735955388e-05], [-9.279273490331944, 2.294187554157268e-05], [21.39017577299128, -2.8518823854543702e-05], [-19.17300710247328, -2.1134452279432555e-05], [22.905067942822644, 3.7936761149496056e-05]], [[-1.4529232698659145, 0.6235276685021944], [4.764753343028395, 0.16479445196143494], [-0.953110578716547, 0.19579372938505463], [7.069030625322351, 0.15294219470245435], [0.41006509508745426, 0.19741943445364232], [1.9585716416351722, -0.22663790236002648], [-47.25673141014134, 0.04054695072072498], [10.834233017142624, 0.2073461885930305], [-8.016544713689209, -0.7026962743237392], [-14.222756776965735, 0.09392434659662098], [5.3487402488014055, 0.17018873103546722], [-10.928356456079946, -0.10875761997477094], [-21.941637135415924, 0.02299571982640347], [-16.66433717339559, -0.5900406050232081], [-1.6485862147659398, -0.43204065776303563], [40.08952240745068, -0.13649785111769763], [14.871423440727654, -1.1836235307092382], [0.9966561033455725, -0.6352962744384001], [-37.72658999184595, 0.32809244819912375], [-12.045502488883756, 0.04056096453676103], [-22.253216151238806, -0.018079072079044134], [-14.795616325918369, 0.2029059748959888], [662.5659157402614, 0.5658561640040004], [-16.522026139989038, 0.07871070384300274], [0.6931919431626488, -1.1012603639589162], [-43.65615472465273, 0.2030413299894499], [20.200071324807013, -0.08710135420666948], [33.318223717349284, 0.11945632622968883], [-10.888399679795222, -0.0749222168066088], [10.057477506980002, 0.035919455509289766], [-16.272205225974183, -1.0983010148075962], [-3.0250596184087133, 0.38223774646101893], [-8.138827158470134, -0.07454340071665982], [16.62929656923517, 0.06049057143602604], [-10.960729410643777, -0.11446992282568913], [-33.92937501134837, 0.277301788881521], [-15.854225296968098, -0.10488923879503376], [15.76663694919274, -0.06666592079807104], [-10.996500865407867, -0.04299301635474778], [3.8418570340406317, -0.39421222952564317], [7.148338231072038, 0.13157980120117743], [-10.68228276216554, -0.5758270343761238], [23.98185680844065, 0.018383664279027878], [-17.526154596935434, 0.028306435971923616]], [[-14.60343036175632, 0.0016454785064104437], [39.45871724762372, -5.372327096816532e-05], [20.21753124424497, 0.0005315993022611573], [-8.962459725526342, -8.09431206070247e-05], [-16.059542320575268, 6.909465506324671e-05], [-17.61497601993416, 0.0005389570600802878], [-14.602065971387182, -0.00034150702144008144], [-9.350531148399257, 0.0007411625693844125], [-20.56816000914022, -0.001129500226217235], [-24.867135394743567, 0.0006162195079765314], [-11.649449538561434, -0.0002692898739866538], [-44.83860186973939, -0.0013353687573092305], [-31.235418889570095, 0.0015450622310264604], [-12.598584967588364, -0.001442612834718597], [13.926996891775019, -0.0002802455721042116], [-22.001972628794178, -0.0012169361405328268], [-16.45739914102455, 0.0003544936884506422], [13.339499583801922, -0.0006020616512025219], [-5.068870022105139, -7.906620403344772e-05], [17.67709051036691, 0.0006344204191163232], [-14.042679264905376, 0.0010010106182901162], [-2.145372960802856, 0.00043744314562254205], [165.3122677642265, -0.003835186545281446], [9.152579714369365, 0.00021369415708707117], [-22.978524774158576, -0.002758860043199047], [-20.358598716183696, 0.0004720704302860105], [-67.73642445492314, -0.0008796749753712236], [-30.59801433204842, -0.0007127194048459726], [72.03786653655936, -0.0004552074985342458], [-27.044589325733437, -0.002741183145741855], [-3.9310787510132323, -0.0010804885367402695], [-16.912438798642036, 0.003027874387745528], [15.760527250729837, 0.0012649718355294492], [-24.838668029307964, -0.0019534064331367023], [-29.031314415851345, -5.701850899095229e-05], [-22.693762913811444, -0.0006107949998159778], [-20.61392052636516, 0.002884049130634042], [13.847788107987911, -0.0009993704312029215], [-45.14149984827315, -0.0006612316754468146], [-4.245035679263174, 0.00023265717746941546], [8.168437981746436, 1.0103071710154058e-05], [-42.2157883939819, 0.00031489527269022466], [0.47426172142316464, -0.0019361516477053118], [-33.73103547344183, 0.0003960520578303309]], [[12.170367687892027, -1.924264506552896e-13], [-1.2342388642259647, 2.3234548325690423e-13], [-11.51966027569454, -1.5099732648138686e-13], [41.39279875446638, -2.653541897697698e-13], [-12.735927865866149, 6.672773568608507e-14], [8.756003604850214, 4.4566155137788083e-13], [-28.62798089804355, -1.9709838378680874e-13], [10.586523999964124, -2.214071778728373e-13], [-5.809788343340988, 6.312876166161815e-13], [-18.56932379196288, -4.489417678786663e-13], [-5.870474766469555, 2.5191937457900555e-13], [15.499226623335414, 1.5372164124415765e-13], [16.171542641534842, 1.389769028580213e-13], [-13.478329339459128, 1.684377429162819e-13], [-0.7933403645281296, 5.085060322141733e-13], [-18.383815058154045, -5.545571934948701e-13], [8.455291725265143, 1.2189970405816724e-13], [-10.208980780986662, 6.075951391886486e-13], [18.523014850271387, 1.5630753613995688e-13], [-35.684273630507306, 1.9560890122029664e-13], [11.443588581740263, 1.2956410299438597e-13], [-1.0122357437635257, 1.0908684583414508e-13], [399.12833672902417, 9.90370940644362e-13], [-35.81564549365454, 2.1392109768776669e-13], [-39.27762931559554, 1.6646076959086445e-13], [-18.936243494857408, 9.271106147096167e-14], [-33.356365786421506, 3.0137772926964394e-14], [-39.81792843604129, 1.0732534052652448e-13], [-41.43893969383648, -4.2923562128074595e-13], [1.486830685666512, -5.538245007339045e-13], [-70.68175953600888, 4.0852556456148725e-14], [-24.964789298785085, 9.584248070917367e-14], [5.305188875940764, -2.0728015827781138e-13], [-5.983685518665351, -3.6883535928113274e-14], [-14.341887130827095, -1.1360447793522217e-12], [10.083495676823407, 3.182098881777575e-13], [-8.739455513171915, -1.163477995458122e-13], [6.311772434953205, 3.12689958317777e-14], [29.405999879223323, 3.668986848943954e-14], [-23.598052070592303, -3.3971251073232054e-13], [-10.441023637104601, 2.2218404635158676e-13], [-26.87395578491813, -1.8963559113732032e-13], [4.1963212463596715, 4.12865014512388e-14], [-18.29868526642574, -5.042666787985557e-13]], [[-14.135508064819296, -1.8874554694839232e-13], [18.970608437631327, -1.2903227190121717e-13], [1.5983331447770472, 4.018278553538204e-13], [22.35937938276263, -6.010444458670584e-14], [2.3166211655028675, -2.821172983632549e-13], [-26.240026478084022, -5.5109342443204406e-14], [10.441305294545003, -1.4825024125932317e-14], [-9.120040933360881, -1.0955994119691745e-13], [0.126552662116347, 2.2015048376635491e-13], [10.130699958028131, -1.714825160173267e-13], [2.300761391196578, -1.0015029344399717e-13], [13.607971263756937, 6.86193058269466e-14], [-3.0048125453011294, 9.721048840633648e-14], [-1.5668192432689165, 8.850427500105655e-14], [-28.850764135635615, -7.219935462534313e-14], [-38.302027781840415, -2.214390168044406e-13], [-9.122560256609747, -3.143650246131393e-14], [-30.928420470920212, 2.155537303547504e-13], [24.083700683754987, -2.832356017177189e-14], [17.670694956578266, 7.094584411493737e-14], [13.124071754727867, 5.352985306703418e-14], [-8.182575856809164, -2.0941089952028515e-13], [823.700121261704, 4.0141550205391314e-13], [3.0545712535376257, 1.1042264063077938e-13], [2.8377549282457983, -4.139999767608232e-14], [-7.4350503434929704, 6.293354109485395e-14], [-18.56254659631926, 7.540987254089469e-14], [11.982232785841381, -1.378334677595259e-14], [-6.376265856178292, 1.1137770538359262e-13], [-28.468679094192023, -2.0555493110303225e-13], [-14.609479133023806, 1.2067573690084708e-13], [0.5734761226099546, 1.829097797691603e-13], [0.10095485728975082, -5.869852593459885e-14], [-2.3885098008689667, -2.2154587158942633e-13], [-0.5717711423575146, -3.6036938077873844e-13], [35.42226149592697, -2.2655811517877273e-13], [23.84530214451819, -1.056304978474624e-13], [18.541884586817247, 2.006098816853088e-13], [31.289528326013684, 2.4897683175483776e-13], [-32.51645731881396, -7.302109710971824e-15], [-11.027474574762618, 1.169753002160683e-13], [-5.83522141081155, -8.712080762392026e-14], [-7.4923964193499355, 1.6202620512002814e-13], [-13.601719818582694, -2.0987444171852657e-13]], [[-2.14488778491767, 3.7411659888762516], [-16.971651193912955, 0.988766619708067], [-37.1437204242616, 1.1747622387341758], [26.052053822262344, 0.9176531604041476], [-18.72588049211601, 1.184516800090037], [44.49898899178265, -1.359827314697314], [-22.783196939543995, 0.243281715241763], [17.35124051506472, 1.2440770725313635], [-5.8789740271340465, -4.216177465777719], [27.296509027915015, 0.5635459837957766], [22.203491455120936, 1.0211325100057118], [4.2225379012566435, -0.6525457230023587], [-21.72121795941359, 0.13797443298408485], [-15.986070826710929, -3.540243630741788], [4.286510496756742, -2.5922439901337957], [-16.36961392854243, -0.8189869801048317], [-5.229337250719858, -7.10174122151502], [-6.812958862389557, -3.8117774562411615], [-23.362836185498875, 1.968554604542049], [2.105651479070932, 0.24336575054191156], [17.451784102346867, -0.10847436433638546], [-51.990947768965455, 1.217435698433963], [711.1638253666525, 3.3951366547665547], [-6.276305752063926, 0.47226425697452445], [21.82630667156674, -6.6075621845077315], [19.47037116137326, 1.2182479246108604], [45.74603600333265, -0.5226081183001312], [67.23366687728485, 0.7167379342056295], [3.9144157707381813, -0.44953335744160183], [43.01311284949745, 0.21551660432659947], [10.14781961226731, -6.589806177772344], [-37.460565182372534, 2.293426343615433], [-31.787287327225748, -0.44726039799450845], [26.710263523705372, 0.3629435754261272], [-28.173847436324664, -0.6868197435571934], [-15.497380783166532, 1.6638104540271912], [-36.110762396697694, -0.629335496383987], [114.68124090526432, -0.39999565839944795], [20.741688788152224, -0.25795827223493806], [-5.761025643133165, -2.365273422107844], [10.553335635812275, 0.78947872828828], [-5.892516917698005, -3.454962169007961], [16.76877724676301, 0.11030189498897691], [-5.552764832714325, 0.16983861785623655]], [[-11.02388733210256, 2.331575361677517e-54], [6.706748976494451, 1.030772034356296e-54], [29.640498271624185, 5.8044054860718714e-55], [-20.372614729543656, 4.616355405139302e-55], [-20.315670810844118, -1.2728271760060785e-54], [0.23117357196821667, -8.955882660325134e-55], [31.276279541936617, 1.6723653503110447e-54], [-9.361028129935578, 1.487059073558633e-54], [10.86383583857894, 1.3516469120952996e-54], [8.789243520537298, -1.7075724650588605e-54], [5.013516470837864, 5.203699742566035e-55], [-9.99989813853941, -1.0463787002823315e-54], [6.17875474347985, -2.9506452172960714e-55], [14.753116841778802, 1.0036450493475983e-54], [3.2013164638185927, -6.57546450676962e-55], [-2.1881104050372957, 3.336824752642959e-54], [-14.005716316798992, -1.894157772863409e-54], [-2.104667069328916, -2.497123841855667e-54], [2.857575187863356, -6.669610584045202e-55], [-1.028198993537376, 3.365976615365834e-54], [4.398613777198894, 1.5678383451542091e-54], [1.3942675007209335, -2.398198362878685e-55], [71.91120337712455, 5.732512959696815e-54], [-22.93594281393736, 1.2101693385968281e-54], [22.556161713980746, -6.348426064687907e-55], [11.775546855622395, 1.0797514619992262e-55], [-22.084508121883584, 2.179177813078522e-54], [-14.451009551956496, 3.3230231840504383e-54], [17.822821094298064, -2.2936759965862093e-54], [2.941991128799447, -3.499846015649008e-55], [9.337594177774658, 1.365161622520711e-54], [2.876915199267758, -8.771086023875956e-55], [25.68329383828143, -6.085006694164736e-55], [12.856693211163527, 3.2586038510046654e-54], [-27.384637434812465, 3.3444132583362276e-55], [5.990182874251616, -3.7658162422294405e-55], [1.1925531607275077, -1.104821459504805e-54], [-5.66318742094635, 9.266714121849059e-55], [-28.348351210276736, -3.338428884294233e-54], [2.3200956250383333, 1.982956166083192e-54], [-30.00655749286356, 1.6304218680842716e-54], [-9.096788659924737, 1.9833837459142102e-54], [-18.93703430722525, 1.0634376958740918e-54], [-12.067491650938349, -3.0716528146161665e-54]], [[-11.765439065845747, -1.8612559717729922], [15.231753821237184, -0.49618959686246117], [10.385505277836431, -0.5977809341160256], [8.009136051627177, -0.4633839083256105], [-19.732264907182397, -0.5967320910497165], [13.962637395282234, 0.6788753037313052], [-14.671804716287655, -0.11739714785188338], [18.762585719363763, -0.6220196470666609], [-2.2122242814373942, 2.0964976235795447], [-9.60856645804829, -0.28506029911027086], [10.012462454167197, -0.5033156171759166], [1.5971151460240858, 0.32652540266939617], [-16.850520069768532, -0.06188342694157045], [4.892423616305207, 1.75933552535208], [-23.136950234401432, 1.28837381704794], [-3.23453966315318, 0.43522684743104656], [-1.3167889246504547, 3.5283874268749287], [-12.05982571883055, 1.9232968285839023], [-2.608184678976845, -0.9918221962121256], [-1.479070026226861, -0.11903768236146761], [0.29043772591003614, 0.0646632071569826], [7.906869129859734, -0.6188212531015455], [20.737631343504653, -1.6439403186346682], [-13.931086816515839, -0.24314060862420606], [15.172717710411302, 3.291202357998936], [-4.5717565187528715, -0.6165652856428112], [15.235360007888016, 0.2760547725267033], [2.3336811687313093, -0.3745400179130156], [1.4321686150712356, 0.23133514793036344], [1.695726513288148, -0.11646585684517419], [10.644587059060727, 3.2775302723845616], [-2.009906517455148, -1.1314471330719806], [1.7959180109286332, 0.2029667071781549], [19.90004333379414, -0.1921351068617987], [11.948202140336182, 0.35927119180148614], [19.17592051045191, -0.8376530876493993], [-3.0021778763970426, 0.326215841024031], [2.5983947101445803, 0.22007349271222654], [10.337391748988022, 0.14482449776693773], [0.4625322314561031, 1.1835627214803817], [16.71563501356136, -0.39826206825652377], [19.199874083450766, 1.7438872899308708], [9.556007858571801, -0.06522749751946066], [15.517550734261723, -0.07473325141950038]], [[9.23477068130167, 2.6437316195025397e-12], [-3.4736449420798072, -3.3607997089995924e-14], [11.478748031585939, -9.026717497452518e-14], [16.235851006794476, 2.303678782919317e-13], [11.0782885243375, 3.656120359350228e-14], [-8.720484749776476, -3.1509796558112546e-12], [-30.830570377447042, 1.9106214032194914e-13], [11.240707795464433, -7.90591525336234e-13], [12.651343988417235, 4.238296666136625e-13], [16.302450654042886, -2.828796461747603e-13], [15.245544026273402, 8.85047004199571e-14], [-25.90338527529223, -2.4242479116762975e-13], [-19.781493505671467, 3.405747687494366e-13], [6.16737984093584, -2.49855237556157e-13], [3.2658866155568202, 5.462503691399878e-14], [-2.9676949511507225, -3.2920195948415116e-13], [23.474480414429806, -1.1614863219971763e-13], [4.8581790019493, 4.3874777320928186e-13], [-1.6757571427713644, -1.7951350667994905e-12], [-8.672897073855914, -2.177241220316037e-13], [-12.102307528898445, 2.9653408519215835e-13], [10.266381110549913, -7.938157898829405e-14], [228.12478292225563, -1.2964432381803887e-12], [2.180022433309747, -2.535671974804455e-13], [-5.108829209507792, 2.0899421858392482e-12], [-13.14561611565427, -2.095505408851742e-13], [-1.6227818407821206, -1.4186806079639181e-13], [-25.3285372605071, -5.2949781642587135e-14], [-14.516540025234029, -3.3319132775610113e-12], [14.485450867564706, -2.7553900070866547e-13], [12.506521920438432, -2.3725982342301615e-13], [-15.081354959063113, -3.5775933312691613e-13], [19.988966336369366, 2.4955652454437985e-13], [-20.348925360038645, 3.5995882210419955e-13], [8.84950904305542, -4.3349951287694136e-13], [-9.136161050684208, 9.497769456778976e-14], [1.643097256693075, 2.628892718742172e-13], [-2.995056186021331, -3.2184705247778176e-13], [-8.5148313790679, -4.292356159356141e-13], [-16.640853495638982, -9.263689204514019e-14], [4.352893119297705, 3.6340222387518615e-13], [-10.697390949558518, -2.4424531431205017e-13], [5.211277178409544, -3.0000366648866413e-13], [23.990155812608116, -3.232683109635883e-13]], [[-39.511112186373076, -0.6235276685056397], [-11.733850398813749, -0.16479445195472892], [-11.152611987988585, -0.19579372937453174], [14.905155542405609, -0.15294219470257475], [-37.56142026306063, -0.19741943446036941], [10.881290341028945, 0.22663790236429832], [-6.168198065706166, -0.040546950719720615], [1.8051288302642836, -0.20734618859181508], [-24.306248757021745, 0.7026962743166816], [-4.154715356886091, -0.09392434659358438], [30.276159393011582, -0.17018873103027155], [-7.905488840918729, 0.10875761997571988], [-0.8960546000725569, -0.0229957198286615], [-20.5620227549518, 0.5900406050242755], [-5.726266788699983, 0.432040657768982], [-25.553070126666242, 0.13649785112218893], [4.112179025255365, 1.1836235307077398], [-21.846431205094934, 0.6352962744308219], [22.066853282882985, -0.32809244819661143], [-42.22183351127354, -0.04056096453670438], [41.5032397758706, 0.01807907207856918], [-25.38558807727624, -0.20290597490059636], [842.1599738888606, -0.5658561640010876], [19.812178461452415, -0.07871070384589211], [35.89850021060525, 1.101260363956253], [3.0336147162018317, -0.20304132998792962], [-2.949334849278967, 0.08710135420868487], [-6.451009701485296, -0.11945632623109864], [-27.120819369591675, 0.07492221681112356], [-1.4601481506901424, -0.03591945550481224], [16.12678174957525, 1.0983010148110575], [-19.835440608091446, -0.38223774645633224], [-37.44408180916207, 0.07454340071636434], [-25.09062213803143, -0.06049057144211617], [-13.46853397837958, 0.11446992283590102], [-29.27266244656984, -0.2773017888908755], [-19.586784817123824, 0.10488923879462242], [25.276375820784693, 0.06666592080368566], [19.94283670669477, 0.04299301636198788], [7.4376420724413155, 0.3942122295232493], [-13.689579354447126, -0.13157980120468504], [-27.73287226710174, 0.5758270343756546], [-4.8709118291872855, -0.01838366427434668], [-13.55185610738898, -0.028306435967926147]], [[-27.822122821840928, -0.0004281026585326173], [-4.329850754603504, 0.0016982024728235902], [20.93458617490377, -0.001230065905159723], [-7.145626401972396, 0.00026000936585207575], [-31.833885686199785, 0.0020129357374833517], [-5.129969896329212, -0.0014770079221413687], [-1.5658220966584284, 0.0008683410295930686], [-31.979889103759085, -0.0027348682587990426], [-3.2021249958530005, 0.002168307497323662], [-16.549440885258065, 0.00022034125739730397], [-2.2576420438436977, -0.0008713186179975972], [-12.785584382868105, 0.0023324590161235195], [6.2416364493912635, -0.0010122790892298297], [-18.698880155579317, 0.0013346908504605123], [10.06271026211698, 0.002123714412493763], [26.024668049127797, -0.0005365287928213772], [34.05647522389936, 0.0023777399358658855], [7.762682696104309, -0.0012022055754513754], [-16.051248091909013, -0.0013419438549363107], [-0.8069612508676561, -0.001393445972113897], [10.098765639484952, 4.447589442264184e-05], [5.692494518416513, -0.001608920857425088], [89.42332517385016, 0.002157284611341766], [-22.792005356366644, -0.0009441988030826807], [5.367498573756749, 0.003005723559921017], [16.073262152468565, -0.00044717561188863304], [-28.722896187096534, -0.0006387943542756145], [6.351958364925593, 0.002320516255922561], [7.455929691191906, 0.00041852747012210143], [-8.764714177069827, 0.0030548670465053935], [-1.7660854309864453, 0.0006637194677947532], [-10.973979521190028, -0.0022863272634097466], [24.057263193342575, -0.0017600380039108268], [21.82340016817734, 0.0038288418086718998], [-6.1520553775914015, -0.0032565481927228513], [-22.27484043959917, 0.0031611866250098506], [21.20821734862702, -0.002410051760512514], [-3.077589197226971, 0.0004238613980000564], [2.9464223733105155, -0.001559549242758142], [-0.31090991434489657, -0.0005038861238648358], [-2.4925322958869534, -0.00024295163798732037], [-6.00574051215748, 0.0008047686671673945], [0.7736270110403187, 0.0029703570558199674], [-5.938052621149792, -0.0009054587049092548]], [[-77.48543969818557, -0.00021451686233301998], [48.02692867022279, -0.004072792100296217], [-12.115107323519204, 0.0045948916175986305], [18.730150876403304, 0.003257476092615336], [15.27768058373445, -0.004112878264336546], [25.179157803525005, 3.313346091961787e-05], [-7.786383199128213, 0.0014530523832751666], [-15.974694611254868, 0.007381679776072827], [-19.13120028039734, -0.0008746000301779371], [0.24403464156683688, -0.0019642264322372854], [-3.914438480686574, -0.0012154972255620042], [-7.449888200175597, -0.007505621279204721], [-12.182460976200229, 0.0005440219056641314], [-12.500442371132054, 0.0004734858140089124], [-2.2511767876993702, -0.004875576100416169], [-30.35531431066313, -0.0024801246987684496], [-32.66464904035021, -0.00019326690927602783], [-3.124725008778392, -0.000747825994120435], [2.976097289617926, 0.0048479733647981815], [23.228426112534216, 0.005776915210196381], [-26.277281793934264, -0.0010021210873471353], [-15.603821087152706, 0.005301985405206148], [537.9599400240273, -0.02083811425265001], [22.622593753049507, 0.004199445475801167], [-17.823521758707173, -0.003676350505984351], [-20.177454963498057, 0.003390265383075744], [-19.046506565597006, -0.0009959837910005437], [-66.70253235667435, -0.0020872947501599046], [-10.799549390183772, -0.0014504052156021974], [-68.8682919138159, -0.003683477037914602], [-24.969519137305742, 0.0005710374627786456], [52.72759096869503, 0.0031531570132020143], [9.162984869959024, 0.001510074613148402], [-40.675870622491104, -0.004109422465407654], [-1.1876655139984382, 0.0024760531532620053], [-41.35593542077187, -0.006531817590103037], [-9.759123840001495, 0.003617058955258785], [46.51530218717303, -0.003515307027860266], [-33.631250591302894, -0.0017098378204353842], [30.670274395738108, 0.0032700884718779915], [-16.281663786817614, 0.003617334744568711], [-9.532295717373286, -0.0013934006849457574], [-18.92125248334261, -0.002596690590494082], [16.720885140333984, -0.0009702754436729574]], [[-1.4102437420691885, 1.0120973716621103e-16], [20.019800152559313, 5.3694294812201536e-17], [20.500005246647184, -1.305510104137545e-16], [-1.1118922702898493, -1.1011649608340244e-17], [-6.388306383354219, 6.690969742148537e-17], [-55.0109571257815, 5.3215404967502715e-17], [-4.070400483185221, -2.7274711845610802e-17], [0.04937647986979466, 7.592784741856351e-18], [3.9353961577402523, -8.121137130655083e-17], [-1.059790424894203, -3.910257864990789e-17], [10.311028686475007, 7.152982625903667e-17], [13.444585858540245, 1.9824921833896625e-18], [-8.58478882728067, -9.93890261486984e-18], [-22.139341010059688, -6.432571752146876e-18], [-25.832651065793836, 4.094517310090306e-17], [-8.26834327851383, -6.160445989080904e-17], [8.101305826375729, -1.478532525468583e-17], [10.601963630862747, -7.053182810500691e-17], [-28.98915552013984, 1.5181697456449868e-17], [-8.516967240703458, 3.6441520773304566e-18], [-5.823578128184145, 5.04225490872966e-18], [1.9435211651466027, -5.1874007351608045e-17], [-154.0413694677834, 5.6821278525140014e-18], [-54.95074828760711, -1.9725020301130905e-17], [-2.2195186013614654, 6.38137995245051e-17], [28.780596950208828, -2.612545931315816e-18], [10.79499509766021, -2.078598363707457e-17], [-10.531136952781434, 1.9542979929934723e-17], [-3.8615233293413005, 6.054629831803715e-17], [-9.532164343174054, -6.918290670323615e-17], [-15.165508206828283, -3.098053949613045e-17], [-0.17678067074129153, -4.687791075216737e-17], [8.15162849815421, -8.250102489686423e-18], [15.25218698405866, -6.877128089408313e-17], [27.37628571947473, -1.2975037024669938e-16], [-0.6271161297784139, 1.2483637473294136e-16], [-13.763748703946677, 5.8063312817022184e-18], [16.79411566904837, -6.415549366842447e-17], [14.01617123848403, 8.502353999232013e-17], [29.45429063442959, 3.225236755464091e-17], [12.109023233589284, 1.2046046279904971e-17], [-4.493160381192951, 6.2421876989893665e-18], [-0.0989317524159183, -3.2978192931410786e-17], [4.515421785931761, -1.2338329237032083e-16]], [[-28.901471222106274, 0.6235276685056399], [1.5321397014878249, 0.16479445195472867], [-7.1379924331513624, 0.1957937293745322], [-34.70637483715496, 0.1529421947025748], [17.279333259064664, 0.1974194344603691], [-5.303004088707221, -0.22663790236429848], [0.48063067864043774, 0.040546950719720726], [27.908233000602696, 0.20734618859181508], [-1.519983816346224, -0.7026962743166814], [-3.2729335469942527, 0.09392434659358452], [1.7132606553970087, 0.17018873103027127], [13.145928489233183, -0.10875761997571991], [14.475883763474577, 0.022995719828661554], [2.1111501633992287, -0.5900406050242755], [-18.08731590552997, -0.43204065776898215], [-15.05915573271695, -0.1364978511221887], [27.669483096035776, -1.18362353070774], [-6.785018832629524, -0.6352962744308217], [34.4647282226094, 0.3280924481966113], [-7.815101871043679, 0.04056096453670438], [-12.684731192315732, -0.018079072078569236], [8.1713118540142, 0.20290597490059661], [226.45885919659779, 0.5658561640010875], [52.26057383923839, 0.07871070384589217], [-18.439504516277676, -1.101260363956253], [-29.622922504183112, 0.20304132998792962], [29.88381171138127, -0.08710135420868476], [-3.923345324205842, 0.11945632623109859], [23.710774757536868, -0.07492221681112378], [40.18425576084279, 0.0359194555048124], [-59.76846132173134, -1.0983010148110575], [20.308964404129416, 0.3822377464563324], [-14.903782125740209, -0.07454340071636428], [7.143733113154621, 0.06049057144211639], [20.30645139692418, -0.11446992283590057], [10.296298123641458, 0.2773017888908751], [18.683088142701912, -0.10488923879462242], [-13.523116037090077, -0.0666659208036855], [7.8366711999604535, -0.0429930163619881], [13.421200067060719, -0.39421222952324914], [-9.46038181645415, 0.13157980120468526], [13.73477171379954, -0.5758270343756546], [-25.26618632633767, 0.018383664274347178], [-38.71426107316997, 0.028306435967926397]], [[-4.773789762382026, 1.3013786158099916e-11], [17.472836286548446, -2.866629301364012e-11], [-0.31728230986738687, -4.43670809784925e-11], [-17.290935090759877, 3.6229367256657597e-13], [5.372256009099169, 2.84227940918061e-11], [4.571733613229811, -1.7292989923761028e-11], [8.974060749296894, 5.364934629700321e-12], [-10.435070626873138, 1.4272807770101919e-12], [6.607687304105436, 2.8566235399371895e-11], [20.91705499868045, -1.1913369732229714e-11], [-10.74767973523632, -2.2358016820700253e-11], [-11.431313652279128, -3.226342153181171e-12], [-12.738430277847973, 8.547764029822799e-12], [2.9334232712839956, -3.69625556567993e-12], [-6.983353988880112, -2.5759488708660086e-11], [-0.897719098404879, -1.7933761814919252e-11], [21.50954910615988, 6.785802612735023e-12], [6.361764776792009, 3.0733567681860855e-11], [-6.622288677632185, -1.0469157388613211e-11], [-19.380412330221905, 4.909598440826159e-13], [31.312396310007774, 1.7117128055081636e-12], [9.306211923848172, 1.951440029877598e-11], [100.21660532283072, -8.034501112539298e-12], [-2.488043588868418, 2.062925509595995e-11], [-0.40434911512329796, 1.0321222315780626e-11], [-35.76470000198228, -5.765325877915334e-12], [9.124344656799364, -8.082904339932599e-12], [37.5926937660395, 6.159485805360409e-12], [-9.136901305498299, -1.810006442963681e-11], [-10.89023708346598, -1.8055350054755807e-11], [-52.94179134619343, -1.3905677475915437e-11], [3.7579158512724598, -1.870170686277676e-11], [-19.194988789795058, 5.27580020480588e-13], [7.95171245409361, 2.4645654916379775e-11], [-7.185359934233785, -4.1868488171201545e-11], [37.365303729088836, 3.9379423176758015e-11], [8.805222301639994, 9.307093122009754e-13], [77.07628012208292, -2.275615153612978e-11], [5.277589925537512, -2.9297440649581026e-11], [-33.917945383271785, 1.0553393167781831e-11], [7.076689088025697, 1.3707955839825803e-11], [22.20453734648707, -1.1490407424083938e-12], [47.144995440394354, -1.8873710537616415e-11], [-16.755950791989843, -1.5856710174980276e-11]], [[24.945641131425237, 2.522063039201406e-06], [-2.10331298247303, -8.87932604584058e-06], [0.3425229513332646, -5.7792273781625275e-06], [-22.287983240998823, -2.9141123987643846e-06], [5.178601629489509, -1.0076447711528805e-05], [3.9501261107244225, -2.8076322526682274e-06], [-40.94050834942113, 9.981857119717255e-08], [6.409358104344635, -9.229068060830666e-06], [14.212108664821901, -2.1149609917986264e-06], [14.053324888354755, 1.3337468895628045e-06], [16.765152682670585, -2.3792850872426665e-06], [5.339926359341455, -1.1428284324142898e-06], [11.108728999956535, -3.0137028772192907e-06], [-10.442047903077233, -2.526757799109366e-06], [-2.874058235101208, -9.909076849121277e-06], [-28.735782657382398, 9.11270431830269e-06], [20.991176583869212, -1.0334155390368951e-05], [-2.981603096777054, 7.488063082849219e-06], [9.737507439664641, -1.0849914114345405e-05], [-31.07577016122656, -2.1565664736639693e-06], [-15.584517062161657, -2.595125359770996e-06], [10.895859594994493, -7.823858870913049e-06], [-60.86420564969748, -5.824170263615837e-06], [-0.6881090255685084, 6.134213648520732e-08], [-14.565553390181671, -1.0793791871158633e-05], [9.863773784405485, -5.538025279217512e-07], [2.4536285354415397, 6.931223217489499e-06], [24.81890773530363, 1.348024563155913e-05], [21.64208772117606, 1.1334949590755901e-06], [29.7775049313268, 7.654476154705274e-06], [17.018007564672615, 7.71803680291275e-06], [-4.4050080969584, -9.222906475750452e-06], [13.743660639650834, -9.735645667334162e-06], [-0.9659309868580733, 7.281475234161948e-06], [-8.538874507095576, -1.0056007931509819e-05], [-11.469958050970531, -1.1318514597403314e-05], [-45.03584939250185, -8.638599743715307e-06], [25.458814062749717, 3.785607841283299e-06], [-2.757519205278578, 8.336609235402046e-06], [-0.43074578951188663, -1.4229485690737182e-06], [3.5893780766682215, 2.4589661191639535e-06], [-7.429374806482034, 2.1635329551466014e-06], [34.499221356655646, 1.3739566872837827e-06], [9.163225932335074, -1.0740798681207808e-06]], [[-3.309076792664303, -7.304711462160362e-13], [3.412206953678859, -2.817979168137962e-12], [-0.6211424060033212, -1.3877208978035133e-12], [10.19619551622546, 3.642580087529676e-13], [16.279030351668307, 8.719357495343255e-13], [9.197458932011774, 1.3630075989966805e-12], [9.118305485547948, 1.534329364687353e-13], [4.020755142706865, 5.567294117453252e-13], [5.594201700510368, 1.157386819934356e-12], [9.067553449422897, -5.626013798949129e-13], [-10.32727996727551, -6.417890267142053e-13], [1.802101045530869, -4.4237834997499787e-13], [-11.672989614055412, 3.4588693672094324e-13], [0.34462433763676886, -4.726981829872843e-13], [-9.727131578727406, -2.5253150944642957e-12], [1.3453802785873217, -7.632604591001196e-13], [-4.218365068238222, 5.914242339613534e-15], [-19.129089750775968, 1.2457801554746388e-12], [10.118844347634948, 8.594510526268598e-14], [4.659608058143856, -3.1909559212098497e-13], [12.074091570414883, -3.154508116352381e-13], [-9.91348168720482, 2.2114963373691644e-12], [-22.871771625512583, -2.162537884345803e-12], [10.561044649778552, -3.640602435414377e-13], [-1.3645928334520694, -2.9060123810179187e-13], [6.772657628855063, -4.559852870666895e-13], [18.154928511564023, -4.239287130107399e-13], [6.360530939210263, 8.333620922830828e-14], [-3.3598126396881223, 1.7680504965487684e-12], [5.98323306137843, -7.009183186491046e-13], [-2.7823871984110125, -7.168619593900649e-13], [-10.814329588079266, -1.0270151369692645e-12], [7.564353130976713, 3.2767730851120305e-13], [5.389995803048829, 1.193792227509335e-12], [8.354101568441886, -1.4096640256981507e-12], [-2.9558914183234783, 1.1862505980452018e-12], [-5.713380340954218, 3.02378387147293e-13], [6.9622763469625495, -1.0833311516471105e-12], [12.726017937378037, -1.4109662230538343e-12], [5.384603192240131, 1.1149948844099366e-13], [2.968647122279521, 7.71698250792723e-13], [-7.0942035407913, -1.5322673525184803e-13], [-2.1033346973617784, -9.42119579847478e-13], [3.55407848862402, -7.110890275562256e-13]], [[2.1088503869461483, -0.0014765984378597974], [4.665727135823153, -0.002682167875684484], [19.474718102631424, 0.0028410071280812756], [-22.316151962838358, -0.0019157906929284532], [-1.673505681899484, -0.0038044375755125178], [19.716591648764908, 0.004215112684297343], [1.9309081079968264, -0.0032813968339517525], [-0.3498577675175389, 0.003929533799590946], [-3.7234572673071535, -0.003651375459438203], [22.20675382610744, -0.00042740421577058753], [-0.95948748485841, 0.0028415244131941675], [9.18482362793519, -0.002422818285593926], [-6.628871644336821, 0.0002711976363247309], [-5.175707038423426, -0.0015549810077804763], [8.048282228581282, -0.002906949426004164], [1.8919724963796216, 0.001083830653007105], [-13.531972218804219, -0.0049137506768761885], [6.4826929757251275, 0.0026540544000576045], [-4.513312415952834, -0.00016390008900154423], [7.466112999897774, 0.0008114210438954859], [8.141927312512893, -0.0020686219980651146], [12.377494745664412, 0.003862799910346154], [-154.64740844193346, 0.0027691013150139966], [9.119919289355565, 0.0012990372460940575], [-5.083871433992923, -0.002966438864027687], [18.122565624650196, -0.0006553575692251486], [-1.3556017601227799, 0.001637473317153387], [0.8701779385599239, -0.0033713342314383686], [27.67138090887191, -0.0008610525120373701], [14.35509160107928, -0.0035226240294233147], [4.87281649408144, 0.0010456901383205743], [5.6671513271729985, 0.00018672535195861806], [8.335383998840936, 0.005486364352451034], [-0.046816822023145035, -0.006208150222796678], [22.82998068510096, 0.006848844765147913], [-21.39872808817863, -0.004754798000846042], [7.28081533245826, 0.0009803387573526462], [-3.03229344140952, -0.0008314352915763793], [-4.39572401512963, 0.0041281915181174255], [1.169195344461468, -0.0005868008147616041], [5.990849986389669, -0.0007132883647416478], [17.424103367188977, -0.0038949490654306617], [-7.093542924826688, -0.0044968788768614395], [-9.292798220933387, 0.0016577934454143836]], [[26.034996860057166, -0.6235276685056397], [-6.525923765860861, -0.16479445195472892], [-26.682287556118464, -0.19579372937453174], [5.278970619264756, -0.15294219470257475], [10.932345376382207, -0.19741943446036941], [-10.265467949478724, 0.22663790236429832], [3.76396578898052, -0.040546950719720615], [15.226054114696787, -0.20734618859181508], [25.821721892980626, 0.7026962743166816], [20.172562385824456, -0.09392434659358438], [-10.658855758838188, -0.17018873103027155], [5.339542281263619, 0.10875761997571988], [-1.336739963577882, -0.0229957198286615], [18.412018366643743, 0.5900406050242755], [-14.751739785138202, 0.432040657768982], [-13.66897672592833, 0.13649785112218893], [-40.02067944653807, 1.1836235307077398], [7.396265254954834, 0.6352962744308219], [15.031225378357732, -0.32809244819661143], [-0.9062370489239544, -0.04056096453670438], [-17.91976808783662, 0.01807907207856918], [-1.5486727302162338, -0.20290597490059636], [-29.372310643784484, -0.5658561640010876], [-16.520435999598746, -0.07871070384589211], [18.94595025652079, 1.101260363956253], [53.25568976819079, -0.20304132998792962], [20.859179870665844, 0.08710135420868487], [80.23335570134918, -0.11945632623109864], [6.482052072107831, 0.07492221681112356], [6.103220117406134, -0.03591945550481224], [-23.516992857743634, 1.0983010148110575], [64.91399551206733, -0.38223774645633224], [-4.1380056204087765, 0.07454340071636434], [-4.158010112018373, -0.06049057144211617], [25.470641317640695, 0.11446992283590102], [-1.168354326852857, -0.2773017888908755], [38.686868922415385, 0.10488923879462242], [-81.29664636669884, 0.06666592080368566], [-7.555058625980459, 0.04299301636198788], [-8.856681323767852, 0.3942122295232493], [-8.656089944695232, -0.13157980120468504], [2.2241441008038585, 0.5758270343756546], [9.73519512864484, -0.01838366427434668], [26.38563903671459, -0.028306435967926147]], [[8.429275531845864, 0.6235276685056395], [-1.7876557558219202, 0.1647944519547287], [-0.7365971128179458, 0.1957937293745321], [-1.9503830646449547, 0.15294219470257478], [-18.628527846784408, 0.19741943446036914], [2.1295193193926893, -0.22663790236429845], [-15.705003831385357, 0.04054695071972067], [-18.630476749709892, 0.20734618859181506], [14.442474968815187, -0.7026962743166814], [12.550714273524555, 0.09392434659358452], [4.0841869018865555, 0.17018873103027132], [11.388940542272056, -0.10875761997571985], [17.283412591666853, 0.022995719828661554], [2.272788097968897, -0.5900406050242754], [-4.140008776361549, -0.43204065776898215], [-12.731576631558893, -0.1364978511221887], [2.54165548853335, -1.1836235307077398], [9.098735027381073, -0.6352962744308217], [-16.009965757550823, 0.3280924481966113], [0.2120798574079964, 0.04056096453670438], [-10.396324496276339, -0.01807907207856918], [-25.551941681023177, 0.2029059749005966], [-354.7726335518427, 0.5658561640010876], [0.788069342183554, 0.07871070384589217], [21.723842209034522, -1.101260363956253], [-11.545042146259169, 0.20304132998792965], [2.286112076358336, -0.08710135420868476], [7.134697150008829, 0.11945632623109859], [36.72150098806882, -0.07492221681112374], [-22.516159173512644, 0.0359194555048124], [23.075908979258575, -1.0983010148110575], [-1.9176090149643998, 0.3822377464563324], [-4.456536943507685, -0.07454340071636428], [-8.70568975512643, 0.06049057144211639], [-1.4398254191090554, -0.11446992283590063], [8.304350788210877, 0.27730178889087514], [16.60820495016575, -0.10488923879462242], [-10.90798595523339, -0.0666659208036855], [-14.56905667668518, -0.0429930163619881], [41.80957248398799, -0.3942122295232494], [6.520825965000088, 0.13157980120468496], [7.4421335608126356, -0.5758270343756546], [27.968760458162023, 0.018383664274346845], [8.275980542952905, 0.028306435967926313]], [[34.25944840221152, -8.12150778015335e-16], [9.903071060880716, 9.03266964624633e-16], [46.23110268056036, 4.2759382420639e-15], [-26.56293857316132, 1.1410467028871002e-16], [-2.20248871081863, 1.0954850358870343e-15], [-13.155936294199753, 5.230031351739365e-16], [-11.37110353765798, -1.488010609077161e-16], [-5.918562162200595, 3.58992445437024e-16], [17.032172589083594, -1.1130904347603204e-15], [-2.9381338772991556, -7.147863617861595e-16], [-40.67083407549064, 7.856870046054082e-16], [9.833674929150105, -1.7708292482969287e-16], [14.634376271183612, -3.4144298230095446e-16], [-9.98899322590202, -2.9430123395548845e-16], [15.677427679974018, 6.369486932766781e-16], [25.054116496220406, -9.953017532028148e-16], [37.415492577737915, 4.0981443067138853e-17], [-5.54699836713012, -1.0793045257116014e-15], [15.267227901246965, 1.0102970049706763e-16], [-1.4614752228227401, -1.4561120287791017e-16], [-13.891341012665462, -1.1726276832056565e-16], [11.40354780803207, -7.857106703667353e-16], [-179.435549444881, -1.0967378400610118e-15], [-25.549423584316663, -4.327700600436413e-16], [-24.552617139633632, -3.4425276261410924e-16], [20.841712716783604, -1.9205262725632671e-16], [3.2545426001685365, -3.5642702653257254e-16], [-33.22380420739155, 1.7417779940182579e-16], [16.78425976867229, 7.710244952989364e-16], [27.354363054052513, -9.563096782720491e-16], [11.244205266432065, -5.625684525977064e-16], [-21.18304096613952, -8.403258458391086e-16], [-16.915114101554448, 1.0468627667399072e-16], [30.52392039330732, -1.0557220792280538e-15], [7.9517447396223915, -1.8682582148393024e-15], [-7.590720391960397, 1.5066502057515242e-15], [-12.588967353600832, 3.017708617441895e-16], [-27.310092302538646, -1.011395296081725e-15], [-20.014459435527115, 1.3650291986609831e-15], [-46.31746767889989, 8.445977830947616e-16], [21.63545842428947, -4.650678434229329e-16], [4.159943453082992, -1.4439315763003022e-16], [26.896605799366405, -7.825328190209785e-16], [4.189737929622119, -9.388765369361447e-16]], [[19.528703415015155, 1.2872243209039216], [23.345446007219845, 1.567796804874218], [-28.387403778947764, 2.055928167251326], [-9.561069917609725, 0.9046968112727553], [10.005964158341166, 1.9985499501863302], [0.30794914279750296, -1.4890834150433852], [-7.976220940180491, -1.0718137557739946], [7.478500640559277, 2.0715648844143373], [13.367717336710882, -1.4118177453897685], [-23.86019888007824, -0.1941454469289642], [24.574333460572255, 0.10336338841629734], [21.349532469010875, 0.6724885362536654], [12.659345546143344, -1.416997099147409], [10.599379368250082, -1.0140694797620353], [4.991011497196295, -3.287921061159351], [-3.734295596306384, -4.063754950974024], [-47.40900343014639, -2.6679581589829056], [5.291309329139759, -1.9755828081581153], [5.1677703588980215, 4.407661029055653], [-15.90762366218658, -1.148418820192062], [-22.0595174662542, -1.9194730606249617], [30.606960235594034, 2.0174903363431724], [-510.90459278202394, -1.5130427396579813], [3.762933742857186, -0.24589107280950734], [-8.487279957829404, -2.4791218446793684], [-8.27764597716512, 0.8802088244456051], [-3.968986555777339, -2.3355264299967216], [14.00450573002994, 3.407034025899611], [10.459009076501854, -0.586895098481731], [-27.43638475539329, 2.5721128556711568], [2.535965081236582, -2.4668640646190108], [4.104489226584075, 3.7352594948897186], [-18.82445737644313, -2.92852118498789], [18.596817826813762, 2.7993711034869166], [-37.82330329282986, -3.122513844232329], [-6.3934915459787085, 3.1961265631549423], [-0.4613615682972556, -3.471349814643255], [28.147320988102777, -2.7977359831594786], [-23.18819781447988, -2.6540770815289845], [29.60191056152584, -1.2378451908417125], [-7.8707822182188885, 0.4765484230235906], [6.4852786843597645, -1.7187854757844487], [-12.317497382540143, 2.371290277191321], [-27.54387725823635, -1.3554732550959712]], [[16.51451803984482, 5.047051834279084e-12], [-29.832999335061107, -4.6563882013203764e-11], [10.57460243373174, 6.288026161443408e-11], [-8.677751113392397, 1.2441760137547832e-11], [20.45609388397526, -4.949499588429601e-11], [-42.2153072663393, -3.629128717659629e-11], [41.751669527444875, -1.986157464493256e-11], [11.945872029837336, -4.872016989983335e-11], [0.05538256085461344, 2.656926404914485e-11], [-34.70507351177635, -5.858761437593209e-12], [-15.801117146114382, -4.0609237797649484e-11], [1.6146892730806859, 6.179594559142742e-12], [2.2131867443527, -1.7123784173499674e-12], [12.313446517518207, 5.802444266614972e-12], [-9.54616787568364, -4.611537463980576e-11], [-16.842295277967324, -1.3467074886334519e-11], [-21.5057819784892, 1.6727364943942623e-11], [-13.075745537099875, 2.9426411914282497e-11], [31.18072105484403, -2.7566647895802316e-11], [-1.6505335716693, 1.1120223788969121e-11], [30.953364158744126, -1.0432132793808067e-11], [21.365636490856815, 3.403918561988945e-11], [-170.41674171213592, 4.82334267713876e-11], [-3.7065888397658413, 4.9908488684034285e-12], [16.301283019036152, 2.097266663676142e-11], [-3.9196728972630623, 4.740366977581563e-13], [6.138757958919531, -6.450206361495328e-12], [-27.519463657180335, 1.252666064888278e-11], [20.70589578636039, -3.1037772361081014e-11], [-5.288418518684247, -1.620615426315207e-11], [39.06593101229398, -1.1434652155438801e-11], [49.922385888381584, -1.352683329972223e-11], [38.80227456499018, -1.042846243463038e-11], [-21.634332967881413, 2.307991519032244e-11], [-38.08265392915914, -4.7491968354461556e-11], [2.9735038614896863, 5.955239679866062e-11], [23.159473510931505, -1.0613812623500731e-11], [-9.686444981813452, -2.180240089624206e-11], [3.2485537068258803, -2.7373173036871144e-11], [-13.838224793086328, 2.1951748683680622e-11], [14.395594227696549, 5.286211980375217e-12], [-4.174999567748704, 9.205914471813994e-12], [-10.155001657424254, -1.6548923929385746e-11], [25.287677652141838, -1.0363971558935907e-11]], [[-3.882404921007459, 8.976381146226797e-110], [-7.8515597010896245, -1.6427860557454003e-110], [-8.893149571417345, -7.153554272465066e-110], [-0.022850708687450313, -6.869954122041357e-110], [-14.758824731926284, 2.217198355882429e-110], [4.206421225811772, 3.3652993705486156e-110], [28.937011781124127, -1.209293901013282e-109], [5.269471766919712, -1.920225009360423e-109], [11.442571265239163, 4.4147988228401956e-110], [0.7674999306259169, 6.372720694140073e-110], [9.956452986598977, 7.471333370216714e-110], [2.702704256936843, -5.0215867311220443e-110], [25.222231025674446, 1.2491387299252326e-110], [1.4460966496518501, -1.4385547588815147e-111], [-3.5372021967545413, -7.355333718491784e-110], [-19.813202557202988, -4.6010816707140295e-110], [-17.49516966104903, -1.0102794340461388e-111], [-12.82886683170652, 9.164256304989256e-110], [1.4492597612824643, 4.3509677042498647e-110], [-10.78012229258381, -3.292105859791918e-111], [-4.152468349581655, 8.453629319213533e-111], [19.123847726439674, -6.016255137181833e-110], [-107.72071901239687, 1.3799659758993913e-109], [-2.41407750998401, -4.749102760041548e-110], [6.689387723450519, 1.8060566163773805e-109], [-20.142980038229318, 2.4253244236369968e-110], [0.21979274401513993, 2.9804596240254177e-110], [30.677991802758893, 1.709899927458401e-109], [-27.992933192094572, 1.5131665239708509e-109], [1.2858149014959575, 7.357431792633577e-110], [24.576685972570576, 2.5502036979695845e-110], [-1.3724233471147003, -1.0527303607802832e-109], [5.026570385978832, 1.8854937087728783e-109], [7.112619928476923, -1.0990113130754839e-109], [16.1032506644456, 6.737635033412828e-110], [6.330707018814408, -8.218797368874564e-111], [18.71783585205434, 1.9355367997525576e-109], [-2.7426397663597513, 6.943716853838279e-110], [12.147825616405681, 4.5701504989783705e-110], [6.974536794974582, -4.6968650334345484e-110], [-13.931729487923459, 5.880949781110593e-110], [-6.129807692107607, -5.723185936706453e-110], [-5.617713613648925, 2.6172142439974643e-110], [9.466079415401161, -5.25681245790404e-110]], [[-17.369469910547558, -5.855894747651683e-30], [-16.081144850698703, -6.714453181137407e-30], [-21.5094768700118, -2.3507123004993386e-30], [13.532314245793167, -5.613165753369399e-30], [-24.73638419854956, -5.182156732461786e-30], [23.34583606914936, 2.6796050249905146e-30], [-20.152209685460218, -4.7863926884179644e-30], [-11.12855425030768, 2.991758601697551e-31], [-19.203210434690362, 8.865002692808152e-30], [9.994415208219541, 1.1128382449758626e-29], [-24.429532659283893, 8.03330767919297e-31], [-0.6755485150285488, 8.10623475673868e-30], [8.594659477955421, 8.345948900602979e-30], [-2.4280930310493143, -5.370368192482009e-30], [3.1086343902543163, -3.0869913744608893e-30], [5.482430883854293, -9.637734413329322e-30], [0.21158121339052063, -3.849276254937134e-30], [-2.5670383384501925, 1.2208403214860305e-29], [8.591011516353953, -2.346021357288277e-30], [1.584078336265302, 7.214700220485815e-30], [-42.64113537171117, -4.572992478197369e-30], [-6.308868409748896, -1.7591414130694953e-30], [-195.4698288824596, -3.2115623702614126e-29], [8.942261405284803, -4.9433718262890355e-30], [8.499284655572204, 3.2517611489865545e-30], [3.8134159963841876, 7.593203501863311e-30], [-9.78799991635868, -5.745745663765316e-30], [-44.027027077274, 2.4057740622883e-30], [26.25964072046863, -1.380237703108504e-30], [10.869565683183174, -7.839813130933011e-30], [-2.2659844421319537, 9.301224422392351e-30], [-15.623004332574446, -1.0141851552409259e-29], [7.568641051569675, -3.03255674645837e-30], [12.32690828504581, 1.1326124258187599e-29], [31.783437647343213, 1.4461973583262846e-29], [15.45897340178571, 2.2045397662755368e-29], [-31.21906719933364, -6.0570881624703155e-30], [-4.269636999690397, -9.125286029108168e-30], [15.178879252967839, 1.0909085156543807e-29], [-35.546321807417705, 8.110649677070633e-31], [-1.256762450312397, -4.471576802927822e-30], [4.877062117753906, -6.430859819575305e-30], [-8.688232873073998, 8.869758173862028e-30], [-23.830233646662602, -1.002361704890917e-29]], [[4.672561228724239, -0.0010562811221484607], [6.128776255871551, 0.0011173396141557286], [7.844106982023884, 0.001463389360603755], [-31.329902882505802, 0.0002323251859595825], [41.05976339409336, 0.0014155023080120776], [-23.122075029405018, 0.0009159295603433167], [13.07070527751139, 0.005037256771644593], [-3.1605270390761233, -0.0018453704172776892], [-1.1262009350815376, 0.0011062706788873798], [19.968131988712955, -0.0004463270990184391], [6.792770336999221, -8.031992186880322e-06], [8.09308304895937, 0.00011523668409956249], [6.388914567665914, -0.0006938507993443704], [21.24945470261614, 0.0007602405649467462], [-9.836687914264013, 0.0022298683224966], [22.789137370241964, -0.0024390357213838875], [-0.5575617968754992, 0.0021439887772057784], [42.59803105180817, -0.001620684500887576], [19.999878211166475, 0.011854247702618807], [-1.879924056467506, -0.0005838560788436519], [9.639606581068984, -0.001068424380007033], [8.693072367359255, 0.0014363947007781886], [-351.7797309758701, 0.00029768862637251023], [-6.645548656174703, -0.00039260114301052434], [6.148963425189851, 0.002004841630875838], [10.95247770653638, 0.0005909292570880691], [-19.818829697845064, -0.0014214294029087238], [6.822072272841507, 0.001998732929752665], [4.980262881925575, -0.0005498845508280243], [31.325830854103273, 0.0014108841940340547], [-5.657847627837094, 0.0020418482624251725], [-7.531899726710621, -0.0025111826218466252], [-16.719346172694124, -0.01625302530237182], [-21.344746924545753, 0.0015714334750733666], [-13.63355397742533, -0.0018583372929377511], [-9.227351245133864, 0.0022178547424742184], [-19.047072838912438, -0.002037479002796978], [1.7914069680204443, -0.0016533696574826916], [-17.167107840321542, -0.0014837524381358484], [0.5071667605864466, -0.001478769301564463], [5.081111475324318, 0.00042974455523229994], [23.66154413581073, -0.001396281997993254], [12.434606025337153, 0.001278705755870432], [7.537173592789127, -0.0006742037316966798]], [[22.100597005150593, -2.2373312264281416e-26], [1.2931280451168665, -1.440070531165976e-25], [-18.99337859505648, -1.8329564204476702e-26], [-2.1035262677201043, -1.4353221150521395e-26], [16.89961131071982, 7.989856922433573e-26], [1.5805997398514513, -9.70867353283251e-27], [-22.841147658074906, -1.7971292509265422e-26], [0.9765513489081273, 6.0803030565890285e-27], [28.875356525719962, -2.3712061058959564e-25], [14.94696939941349, 5.0993446033412803e-26], [3.2063449483487587, 1.9870073657884755e-26], [-4.214303560377758, -6.670067244165818e-26], [26.785549082161033, 2.2854418109864332e-26], [8.291803099130961, -5.1451102067495514e-26], [-14.478308050291984, -4.161230968387033e-26], [9.52872806014439, 3.3397899517716287e-25], [11.868168360036867, 2.5931223059706185e-26], [8.362234084124148, 6.009799084883659e-26], [-18.89697251002539, 3.1704298939501445e-26], [2.124909182850477, -5.194192476936151e-28], [-7.600467751111923, 3.3552571827323097e-26], [-2.068369089464007, 1.6177968111667612e-25], [-380.91134203542003, -1.4535471629570247e-25], [-1.088618258555712, -3.838687367780569e-26], [-6.652740745211072, -5.394927960309277e-26], [-19.378805712926752, -5.277266797736612e-26], [-2.8418701733258844, -2.4152605769974867e-26], [2.9493273604513313, -1.0266053845018847e-26], [-7.544905415291359, 1.0509544693929136e-26], [32.589499555356916, 3.7424167040460056e-26], [19.110220526484838, 1.3632582379033126e-25], [-1.5644959780352419, -4.1160220510108796e-26], [15.173852403573427, 2.65943585448539e-26], [-22.844066852786018, 2.009548242636518e-25], [-9.049424141553033, -4.444586553178445e-26], [29.79180043417671, 6.32967271912141e-26], [-7.988087798925124, -1.8860903780655026e-26], [-28.581871826249195, -4.961351534276607e-26], [23.95451682552727, -2.02866014043862e-25], [8.836568883815268, -6.781438516359538e-26], [7.013204134457727, -2.0864760511694405e-26], [13.90710877551551, -1.3181731094405944e-26], [-0.7768847165099908, -8.777653820312243e-26], [21.90997617212032, -4.7544417189782407e-26]], [[-15.374205328960901, -0.6235276685056397], [6.810956752835768, -0.16479445195472892], [11.752024879932968, -0.19579372937453174], [12.008690143620258, -0.15294219470257475], [6.011199139423158, -0.19741943446036941], [3.829710111255856, 0.22663790236429832], [-8.700014124007955, -0.040546950719720615], [-26.285574613347222, -0.20734618859181508], [4.09594513765345, 0.7026962743166816], [-2.173920787663608, -0.09392434659358438], [-12.293289232977978, -0.17018873103027155], [-21.18499605681343, 0.10875761997571988], [5.395252647723867, -0.0229957198286615], [5.942601933907407, 0.5900406050242755], [-3.9006943516487826, 0.432040657768982], [10.386246691042055, 0.13649785112218893], [-12.11562846920384, 1.1836235307077398], [-3.7181096756534626, 0.6352962744308219], [4.387548361194854, -0.32809244819661143], [3.7182872243346714, -0.04056096453670438], [23.78742324641554, 0.01807907207856918], [35.65053266464668, -0.20290597490059636], [-87.07974327745599, -0.5658561640010876], [1.55025014835434, -0.07871070384589211], [-19.51172637459989, 1.101260363956253], [-27.960999892349435, -0.20304132998792962], [-3.890683205491062, 0.08710135420868487], [-12.4081274063127, -0.11945632623109864], [-22.765374305050823, 0.07492221681112356], [1.716661371263243, -0.03591945550481224], [-8.07880117772714, 1.0983010148110575], [-6.307377742636693, -0.38223774645633224], [-21.581112337612847, 0.07454340071636434], [-3.335622422202264, -0.06049057144211617], [-11.067570762680662, 0.11446992283590102], [19.312949386090466, -0.2773017888908755], [-28.915338799089486, 0.10488923879462242], [16.28008076090738, 0.06666592080368566], [4.948419246017709, 0.04299301636198788], [-15.841051556226008, 0.3942122295232493], [-15.665723278883156, -0.13157980120468504], [5.021399386999814, 0.5758270343756546], [24.03064826980565, -0.01838366427434668], [-25.959558299029023, -0.028306435967926147]], [[58.72342926054611, 2.494113197504846], [-5.183575466368298, 0.6591778344425592], [-4.0304671826502405, 0.7831756170255239], [-1.280235929795454, 0.6117686053320281], [4.510675966409285, 0.789677869764577], [-15.884702184446967, -0.9065529386591289], [14.233180594058652, 0.16218633630390278], [-15.38175649008389, 0.8293849968882416], [-7.826448009635263, -2.8107859118572813], [-5.019099363269287, 0.37569912024432056], [9.63935757244044, 0.6807537589654629], [27.400163815984886, -0.4350289906222346], [-44.077974296465484, 0.09198042188251043], [-10.904068369622841, -2.3601609355835684], [-9.623590712950628, -1.7281624111230722], [-11.705032953845762, -0.5459885436490075], [-13.3112705061776, -4.734495055869941], [9.300310063441025, -2.541182618867464], [-24.025453755214706, 1.3123707689111708], [-17.29448534025923, 0.1622417700667318], [-28.107399985076466, -0.07231729360129657], [6.840099186747091, 0.8116247035566517], [-600.0535669743095, 2.2634151344262996], [20.455058473340454, 0.31484177174777567], [-5.6076191728590885, -4.405042103586864], [19.127341099428975, 0.8121664036224286], [16.507477349197742, -0.34840635554390054], [5.726219448866699, 0.4778268535363228], [-20.428264661503977, -0.2996885577908918], [-16.04048464613049, 0.14367888817186159], [-13.491354849331353, -4.393206055358602], [-2.0291406209120657, 1.5289483349817892], [10.612429684717984, -0.2981756363605743], [10.337372618409413, 0.2419637784122226], [-16.45041107632739, -0.457878584435365], [11.912255250497433, 1.1092087556397383], [-36.80045294282878, -0.41955929414344095], [32.60837220061305, -0.26666513902527633], [-54.43512009007635, -0.17197072587614515], [-0.98753990010705, -1.5768505413532274], [7.7531393658389245, 0.5263197028727317], [-21.20975107661485, -2.3033107654373137], [26.86953424655934, 0.07353670472378826], [-18.411673209496506, 0.11322449083311326]], [[25.925782844121844, 0.00027765650753808734], [-3.2891883049514137, 0.00015249725785726562], [-36.74211320485898, -7.925464638453326e-06], [11.747494610587102, -0.0002043264140221562], [-31.72341449057409, 0.0004638812322988621], [27.94173443073865, 0.00015384075455526276], [-5.232013725746469, 0.00011754338560471618], [-24.030996452499398, -0.00020077428064425404], [11.430746901958877, 0.0001912885441575508], [-18.67471343125709, 0.00019412107227069735], [-8.78985613236698, -0.00011136389970749135], [-7.797733463976462, -9.28686686833071e-05], [1.1265474553551462, 0.0001790130306363454], [6.930354293788497, -0.00025230711048689286], [14.659648689716127, 0.0002468390284207394], [40.368420138411246, -0.00026738000616952215], [5.7302030487244675, 0.00014866405848372693], [-14.348303616851519, -0.0002116008985186592], [0.32022736961285164, -9.986267568403762e-06], [21.244981617796533, -0.00018832321966051564], [-11.784785868440457, 0.00018104565187966978], [20.28323857998537, -0.0001181056301116191], [-404.0051805955585, -0.000927140489241005], [19.808437597144525, -0.0002958073169745968], [19.746817850565307, -0.00019127774897846584], [41.06872209593905, 4.4300890232089745e-05], [-4.147626263257801, -0.000326028359711186], [-4.006708546018079, -0.0004296396670346967], [-12.302436605612582, -4.5183156269876736e-05], [-9.987599051403759, -0.0003539454781057466], [15.34642092487261, -0.00015648339862118344], [-63.118939567100625, 0.0003470144285540563], [-1.9805094394237424, 0.0002643722490500206], [-22.661794529979208, 0.0002600489317402242], [-11.683504186463356, -0.00023642435293930072], [13.1195048683467, 3.761641888728003e-05], [-12.018311326938798, 0.0002565525676098697], [-30.21863607983219, -0.00015904621479214144], [7.993859954762916, -0.0003579066741430329], [28.16128777500951, -7.692236625273165e-05], [-6.658139534267189, -0.00020580951238208418], [6.290775430550397, 0.0001830379019765496], [-0.08602666788592576, -0.00012675548986557436], [28.142339528833997, 0.00037396752674248866]], [[-25.06909621410888, 0.6235276684878727], [10.890157726517803, 0.16479445202863022], [-25.721003187824273, 0.19579372935715156], [11.357268670908804, 0.15294219469005196], [0.08047592163120312, 0.19741943448071103], [6.018447951053522, -0.22663790231032216], [7.83651686348521, 0.040546950734491244], [5.482811494719184, 0.20734618863922094], [-0.6213221907636541, -0.7026962743725659], [-4.772854406895973, 0.09392434661168898], [-2.939992082323999, 0.17018873109375846], [33.212059112668896, -0.10875761997874762], [19.988061624061007, 0.022995719821467586], [11.490373349178494, -0.5900406050264517], [-11.147715490363, -0.4320406576983831], [-3.349953493625892, -0.13649785109028711], [-50.03470728323736, -1.1836235307315146], [-23.738299279098726, -0.6352962744917712], [-6.066923260160036, 0.32809244823426664], [-5.959036264976747, 0.04056096452492178], [2.5441619217838767, -0.018079072069972058], [7.05918377250977, 0.2029059748481198], [-225.8680097980957, 0.5658561639602014], [0.17694899789692634, 0.07871070382076195], [4.82285687931258, -1.1012603639872502], [-7.4764095619142, 0.20304132999324534], [-39.581809930655226, -0.08710135419401727], [-9.695360908407741, 0.11945632621219715], [-13.088667512431012, -0.07492221676133942], [10.926050798397036, 0.0359194555396008], [-16.90561730071716, -1.0983010147854797], [4.099855843899566, 0.3822377464888501], [-28.644732915872947, -0.07454340070632232], [-13.49595420035598, 0.06049057139393493], [12.950703302564445, -0.1144699227452815], [0.6470418955717299, 0.27730178879087547], [35.06618047971539, -0.10488923878487322], [-33.73398214099524, -0.06666592075869715], [20.234293423294297, -0.04299301630476765], [11.859221424083273, -0.39421222955612], [-29.171273985076777, 0.13157980118542895], [-2.838593913283665, -0.5758270343835803], [-24.507337413696483, 0.018383664310106795], [26.31961145463225, 0.028306435994580992]], [[17.42088958167977, -2.07451767517073e-18], [2.641737361545235, -5.305680969104442e-18], [0.29203674759247955, -7.762476408576574e-18], [2.479866903162248, -1.9126781620668946e-19], [7.284828275712573, -9.106596149708074e-18], [-12.88687410366675, 2.5799906964185078e-18], [13.322586053645823, -6.077196092220095e-19], [-8.04150991667908, 1.2486654233976963e-18], [15.237869386609555, 4.329453886522821e-18], [16.969182829772002, -3.647317371417668e-18], [-25.996818982755734, 4.746761818026517e-18], [-10.628202049679082, -9.302434873668575e-19], [-9.75572833721197, -1.886758770753728e-18], [-15.063261695475616, -1.5470889022477729e-18], [14.314212227796526, -1.1250830613702562e-18], [-18.713328792199267, -3.284965716243237e-18], [13.979653124610556, 3.2381020354395603e-19], [-0.8256190621546743, -3.509105000057554e-18], [-23.40887509516413, 1.410968285319954e-19], [-10.21875757750686, 3.043207753211519e-20], [-11.859129560428986, -9.246520731380899e-20], [19.719196926746037, 3.603578689954671e-18], [-910.3147392467139, -6.348302181686018e-18], [-13.730214527801708, -2.1272808686156837e-18], [-26.18306459334853, 1.791456762069035e-18], [-1.643203241790833, -1.0778384996847542e-18], [-16.4083688397928, -1.875427393364651e-18], [-2.8218648227148484, 8.305286412319856e-19], [13.729313500734671, 6.5907457496612015e-18], [-3.584628959033302, 3.411234572095606e-18], [-8.31574109324116, -4.196454542082402e-18], [37.32814896443153, -4.417573439570837e-18], [10.536532406381914, -1.2240209485704411e-19], [35.74204335175567, -5.481629389955778e-18], [39.65227959894616, -9.094389176848586e-18], [14.74954706690448, 7.633462873135642e-18], [22.202668280933583, 6.068791582526964e-19], [-23.016967644958868, -5.276290130639123e-18], [20.458298410448727, 4.730391855963069e-18], [-0.6103410532102735, 1.5969996319589931e-18], [-19.082237764264296, -2.6546599670107827e-18], [7.427456072997599, -4.362976656754139e-19], [-7.975768521509016, 2.8070715455051e-18], [25.400704441405345, 3.4074779104905744e-18]], [[18.604816094912877, 1.7131781019311774e-18], [0.2797984892919222, -6.037018678686796e-19], [-1.9001428403020326, 1.2592017557420557e-19], [-4.843986128046129, -4.134391037919043e-19], [-2.4803932701691656, 1.049134664315915e-18], [0.8501698177674032, -2.4344836427848967e-19], [-6.929213542477438, 4.00006509851708e-19], [-8.259824540273547, -1.8482501303118804e-19], [-10.134833939609257, -1.0960495759386222e-18], [-21.67346941322082, -3.516853970366206e-19], [1.253651885311058, 6.198811073428301e-19], [0.35740193599701114, -3.098019739638249e-19], [21.081361500644782, -4.591084684701e-19], [16.875499153832592, -3.549142790814014e-19], [0.7047121256266105, 2.3683798082229834e-18], [5.99164238660226, 1.405569340212476e-18], [-9.956887479727806, 5.472383178773629e-19], [14.550519532759019, 1.641254615306531e-18], [-18.629495945854302, 9.866991369088524e-19], [-1.4006982133198103, 4.930845099503346e-19], [30.933619435993062, -3.6742091115849195e-19], [-12.050384972179156, -4.964801034944554e-19], [-985.8484250033513, -2.3968284151731445e-18], [0.03239158832708199, -2.1053057472467692e-19], [26.162672503881367, 2.261271615930013e-19], [9.139469160091517, -3.2412085650435883e-19], [-15.556907818766941, -2.0840927626522798e-19], [8.573010466596608, -1.4195364172408134e-19], [-44.161900250521484, -4.54902271617813e-19], [-3.581779778816637, -1.2595715610344555e-18], [11.649994859894338, 2.45947050202858e-19], [-6.743605857621227, -5.236094701578051e-19], [-10.792811981503808, -3.5071214326029844e-19], [-7.750413814204436, -4.254127369677749e-19], [-17.04014627406213, -1.8538785026276313e-20], [15.073019119188032, -3.572600903285685e-20], [-14.366745486702264, -5.814278789155283e-19], [-30.496980199013937, -4.584989984708829e-19], [-18.733427643010103, -1.6970852674964467e-18], [-13.62597117869736, 5.51567012259793e-20], [16.952079436565523, -3.526931893673419e-19], [-7.205313732608516, -3.064480858913236e-20], [25.252881024474952, -1.095083782291304e-18], [-6.626423179124797, -1.1771483268608637e-18]], [[-21.749597468540564, -2.646171576253373], [-14.2685290113284, -0.9530665336342847], [-12.196838586201649, -1.1922294434259033], [22.083685513475174, -0.861759221625054], [17.107415671429656, -1.1738930426218968], [0.542163928211095, 1.16867426590224], [28.632123676703984, 0.2246172437549937], [-8.721939166830706, -1.2945960217965395], [11.591446762266473, 2.967546072468531], [20.3300983794122, -0.24659146148188543], [8.923783597313413, -0.6263240995225499], [1.9369318765319985, 0.19443197386564381], [0.4031413551869256, 0.29137547802593056], [18.78037062600265, 2.4249620235101537], [-11.24276933260113, 1.85152499459248], [52.183364572121285, 1.514867860239287], [21.974992893550024, 5.1086724216881], [9.336682623038737, 3.7648137124728636], [6.795444226878291, -2.3196407042288394], [0.9594097414192647, 0.15790695914143293], [-1.1680455793494662, 0.5606224522060221], [-12.87726479980752, -1.2065452261381795], [-583.0872903063818, -1.4689475384450978], [24.06766466550358, -0.1728256548168122], [34.02261670175698, 4.755606140999545], [-6.136053723247245, 