[[[[-0.10814216473926652, -0.34466999027970585], [20.90181525143895, 0.12647255300763133], [-8.049113943157819, -0.23873219885385935], [-26.44799953535179, 0.4697094692946256], [19.659368483806567, 0.339793427784022], [-17.554495629106302, -0.007402990721843791], [4.538628439664753, 0.23722653803895627], [-14.04637944041069, 0.5448759553630241], [1.2221821063015497, 0.21860527872673502], [8.10337300772858, 0.4546959153444684], [41.351580297640965, -0.3558554643330185], [14.582048590138887, -0.3798453607570965], [37.12297246845794, -0.4653274449464254], [-22.359526201698557, -0.4173121251789952], [3.9179370489952046, 0.3612999550333132], [5.454499340713821, 0.2595000080676123], [30.41644787758606, -0.45183153766399053], [-0.5339217301803718, 0.1615835084874115], [23.49548018710858, 0.032935856881959824], [22.428445871996946, 0.2321642293717392], [13.969271149214052, -0.13179785357930085], [9.579076529310198, 0.29141579266164624], [8897.851440246157, 2.5378449783456034], [-24.281497987619492, 0.4107889484896084], [-10.247160059603647, -0.19498025198427169], [-8.217258040823175, 0.23269488824684614], [1957.1461168676656, 1.4316113479913553], [42.45992311247717, -0.007029642818446882], [34.3780754817716, -0.23074427659353602], [-32.79732773414034, 0.18081716112981736], [36.37519013590524, -0.46037436742469395], [-4.893782006052719, 0.4138429821693983], [-7.917333801788693, -0.0644612827729222], [7.800710952313388, 0.4580581937997674], [-12.061675171121333, 0.3954674190242743], [-4.082984514732432, 0.08638481271528814], [-15.924904884827978, 0.3612629816633622], [2376.1749470321456, 1.2708220264544787], [-8.044249661292334, -0.4631098470451369], [-33.31198086190457, 0.2478210095453028], [16.243569422610115, 0.40430876356303835], [5.7545371047390965, 0.1721925882815832], [-13.348357511991635, -0.22070568399685042], [-23.039300236487595, 0.5535570708843827]], [[9.910186391070651, -0.33012633814688663], [-27.153429014148127, 0.13524708077757264], [-9.015925828341409, -0.2285218253031798], [-15.590197496290141, 0.4500475427815973], [-6.691971539408342, 0.32556526181626766], [-10.417983400631877, -0.007455865473200617], [6.762906838288416, 0.22741008575866697], [-27.553774918387756, 0.5222015309303858], [-2.9603606363197548, 0.21943212591276734], [-0.5029514049342878, 0.41658724438215344], [-19.728603748933956, -0.34080831664249767], [-9.517480051753429, -0.3637753074010115], [-6.922448238002229, -0.44591440718462105], [8.301386651303494, -0.4153669623399615], [0.692541500382529, 0.3461182627464434], [-12.033752350010184, 0.24853807749692036], [52.44028630050938, -0.459245117262603], [19.128276305132086, 0.1545848906231217], [7.2205953556479106, 0.032134291864998776], [15.016189365714359, 0.24797382159954862], [3.9117008380468925, -0.1310912802574405], [-7.8874045127623225, 0.2790323467239451], [3858.3080625998537, 2.430866854017197], [22.858111596350334, 0.3937399387691673], [-9.241964706041735, -0.18090026852311433], [-26.416308607033557, 0.243821938143894], [859.2971785829192, 1.371766325124502], [36.78710712863019, -0.007090833217630779], [40.96249336874822, -0.22084279693859052], [-35.30352076081914, 0.1730385013837047], [40.366759163308274, -0.480680124482624], [-14.156839345590644, 0.4206066361750914], [23.771574476177914, -0.061250252835972845], [-36.64753382328878, 0.45623764054550164], [24.232705575519688, 0.38635206042952747], [-17.093526888206632, 0.08240834122700808], [-22.190076506857423, 0.3461227401345409], [1100.7614315509347, 1.2173111646431627], [46.89139400810934, -0.4437039855819598], [-10.520357441020085, 0.2372160664854409], [-1.5317960358306526, 0.38725549314975816], [-23.128065975450937, 0.1645030920181348], [-13.402006205794626, -0.21127803659187455], [-1.4370868221906448, 0.5304479266120051]], [[15.828660444112295, -2.122634443515628e-08], [15.056144097730682, -7.420316775295253e-09], [20.430644489739194, -1.679318121897915e-08], [-16.0820788678172, 2.670757675428646e-08], [-31.114498319938043, 1.9254885393747113e-08], [31.96998781114003, 6.153891915754142e-09], [-14.482505058716425, 1.3657018316146154e-08], [0.03252370834927426, 2.987823821187047e-08], [17.14577293594692, 1.1793306836819376e-08], [1.1104007260770057, 2.7658931015108905e-08], [4.678237390085214, -2.2164570600404964e-08], [-1.3234106906397176, -2.3704380463552515e-08], [-24.202199958662327, 1.2103252659020276e-07], [12.02048422537944, 2.3402801502950198e-08], [17.821350975113383, 2.097444707467317e-08], [-13.296567126614384, 1.5445182371450935e-08], [-8.647751331939773, -3.0469066176809956e-08], [5.47329097802195, 1.1184822386777081e-08], [7.798027456942303, -3.3112666501843575e-09], [14.698133785952617, -2.4424653960605157e-08], [-2.7508087887067534, 2.897125756432862e-09], [-31.65566007779365, 1.80359275253853e-08], [6206.856536878156, 2.049819835718788e-07], [-41.07319022045975, 2.2057386986855535e-08], [-49.102954225625126, -6.591666333346524e-09], [12.826632618386677, -1.789666879873622e-08], [1331.8076960136864, 1.082425564029598e-07], [-28.254629127723575, 5.3674671539515206e-09], [5.986008864271539, -1.5747354581949125e-08], [32.868991228433806, 1.3115420924662137e-08], [18.207498842431896, 8.240262086731941e-08], [17.589270303044618, 6.731718483975826e-08], [9.491598760860429, 4.63416860141222e-09], [-64.87767699258539, -3.107583708572767e-08], [-14.980844454185743, -3.707073311368144e-08], [-13.389405829884213, 7.713188214142676e-09], [1.0486068319300454, 8.436693120349951e-09], [1571.604800053993, 1.017579665895429e-07], [20.864745932330944, -2.7229374617738632e-08], [-44.15411617126418, 1.5913187534436416e-08], [-14.42735886480519, 2.4027641679933665e-08], [-2.1175474241340333, -3.029792412036211e-08], [-16.761098805006082, -1.4692947326538271e-08], [-47.67242727398839, 3.100269781820223e-08]], [[-16.601423151690767, -0.00854663390315887], [-12.920834172604257, -0.005170969184563101], [0.8536567828087263, -0.006053018415557955], [2.6764413119093664, 0.011491584420952758], [10.075918183985285, 0.008317260636939775], [-27.309297916570767, 0.0003369868821723231], [3.9028636308952196, 0.005220761625543341], [-13.935055648233753, 0.013200533394318509], [-35.64206069554247, 0.0046929141936211845], [1.987081675251063, -0.00409046010904905], [0.9617670166277008, -0.008854589853891651], [14.236035774216374, -0.009459723410850567], [17.920951147805283, -0.011322452234277072], [-14.798826886364244, 0.010355743791591609], [-14.442301882023829, 0.008895230288658303], [-21.702845666585542, 0.006444849440769573], [2.562056792605337, 0.02261208177544077], [2.8712588549198315, 0.004180723111372726], [-56.94565141582074, -0.003008672510213251], [19.010501742091254, -0.009292573790883208], [-15.579559268402983, 0.0030598174695549416], [-36.49152262201392, 0.007308854015843479], [9834.78916520869, 0.06281677721641435], [-7.1848645596436596, 0.009907580760142636], [24.678895569147425, -0.012240362953358896], [10.272903056911987, -0.006592145769315015], [2207.69090806244, 0.03494715093869802], [-35.18465548429178, 0.0004662093596010723], [-19.481270008113487, -0.00588233391761269], [15.2765202477261, 0.004626953108309708], [-6.550264639022707, 0.011710666187556992], [59.33564159921823, -0.02061195454531787], [-1.999402172879965, -0.0020763167534306832], [17.510493589296072, -0.011681826381095715], [17.927558460845017, 0.027696204382605498], [5.7337322933644925, 0.002462920076863807], [40.183123040919796, 0.008855537090045386], [2773.470105204197, 0.03139831856955945], [-3.1430841083311845, -0.011351580789269797], [5.1636314326728865, 0.0062872634666407985], [2.180908199345508, 0.010016765850188758], [27.482749675256873, -0.006271687886783255], [-10.393032926748175, -0.005584612293034104], [-11.740490187394883, 0.013482252254576308]], [[23.123525908731143, 1.145068783713876e-09], [6.890718063432621, 1.1035950859047692e-08], [1.8959117679403634, -4.623088859661827e-09], [-4.050390970697753, -7.258195682530944e-09], [-22.388405365922942, -5.3193393932657756e-09], [14.643486232398727, 8.41685467099392e-09], [7.772990261168016, -2.486566652245249e-09], [7.085460666701415, -1.1868525745513298e-08], [9.170348879403704, 1.3496094821562932e-09], [-5.526251621635319, -3.6475491168790977e-10], [5.486983560928102, 3.93062892194397e-10], [28.28214996189073, 2.4534036417711305e-10], [4.548914286240468, 4.5803219742345006e-08], [8.23917189893988, -9.280411108372383e-09], [-35.19300394239295, -4.1708962676588856e-09], [-3.510702523764118, -1.6835953400280792e-09], [-37.69873409334035, 1.8710020834275155e-09], [-23.065855002093382, 3.69705354735618e-09], [14.721193555531793, 1.9322701046371796e-08], [22.69560851224304, -1.5268973158013431e-09], [33.96034857714038, -8.9543294554457e-09], [4.593565924523641, 1.5633020252868542e-10], [10308.185972942654, 8.862676763403748e-08], [-24.231114510219644, -1.0280616427827571e-08], [2.3660371348313123, 1.746711015127435e-08], [-5.358039547079624, -3.923660799240721e-09], [2370.8687728691266, 3.0654337438258734e-08], [11.635057808481424, 1.4997577840529005e-08], [-5.989795179414144, -3.794455415646429e-09], [-9.211961639273355, 4.852682795991086e-09], [0.16548502869107665, 7.644616836439585e-08], [0.7169073038076019, 8.889274710303304e-08], [11.750847543335627, 1.3017536204888979e-08], [54.55392272496282, 1.8461806911304981e-09], [-20.109553960446817, 2.8113045186633294e-09], [1.4601128258998486, 7.63762035437871e-09], [37.58336344285269, -2.963468297497774e-08], [2958.0395907087627, 4.2116187977113526e-08], [37.250110480146716, 5.33495198118478e-09], [-29.519918707458803, 1.973567169361213e-09], [-25.633922503754743, -2.978581691341014e-09], [-30.794982908291267, 7.0799462062240615e-09], [5.858084813326678, -2.4902308167933797e-09], [-34.44070805737466, -1.0086681944891428e-08]], [[20.463545659628107, -0.01476215710024606], [-1.6008932477916489, -0.008905781953762654], [14.722612787115404, -0.010361309810021157], [-25.49104038435065, 0.01995963682956703], [-16.571979462005793, 0.014443443212440149], [-9.458854121007725, 4.954636669282945e-05], [23.023155491093284, 0.009662821298524337], [3.8865599185955526, 0.023020300204961403], [-2.8728084162887217, -0.0007104358325871665], [7.521533939203612, 0.03837985965280287], [-34.04634499468171, -0.015272621927245007], [-0.4377728232969852, -0.01631067931590024], [6.982023826360321, -0.019708673985830018], [28.408744679966855, -0.0016740525142718184], [-4.0824915754834725, 0.0154104217598428], [-1.7140817026481872, 0.011125930373412158], [9.894833809414557, 0.0071139240326833705], [27.237029642528505, 0.0071000145752603185], [40.942615564166836, 0.00070328549337287], [1.0368301104161504, -0.016046993080752713], [29.69848281994137, -0.0007907341315536104], [1.4652293785664396, 0.012567385737354856], [6440.332041353719, 0.10858517686432786], [-19.779009006967673, 0.017309867662149366], [22.721159703592605, -0.013948970488474072], [23.089930214731446, -0.011292176686179921], [1526.8072313535072, 0.060753253928712385], [-11.151483526193825, 5.991131788044262e-05], [-14.431900817201274, -0.010047256689883158], [-18.464612471941354, 0.007892348464658652], [-19.97956606073874, 0.0206208213399253], [-5.20754528351994, -0.006473400356962488], [30.243640257534494, -0.0032503604705446604], [7.447745297809795, 0.0015130729048977512], [12.623348936966384, 0.008747972374777084], [52.214120101532096, 0.004029712049018929], [27.88152376205181, 0.015369111420983246], [1795.9108495428077, 0.0543156668433121], [27.38155773731403, -0.019699846346937062], [-37.57491302403492, 0.010761060436882595], [-21.35715974316604, 0.01730902830300099], [-25.59073021313613, 0.007800349322559798], [19.403694750078042, -0.00956724859063578], [10.616832461664636, 0.02346027136183453]], [[12.197980872899759, -0.5170049843512604], [5.246249464064489, 0.18970881984520666], [-5.143004900680924, -0.35809829240136926], [11.612695754472337, 0.704564208060574], [-3.5786577614650144, 0.5096901446659636], [18.666943049472867, -0.011104494584499226], [-40.20081876933762, 0.35583981129712006], [-8.286299348216355, 0.8173139415788758], [4.283857212194433, 0.3279079150372261], [-10.605831795088443, 0.6820438706679557], [24.22992990784568, -0.5337831945411613], [11.711944762682604, -0.5697680388421638], [15.110586352335558, -0.6979912106206587], [14.557721533443365, -0.6259681811559604], [-22.642867617192557, 0.5419499341384645], [13.450456526833038, 0.3892500117656014], [19.9760974901532, -0.6777473059377989], [-4.5589495605627235, 0.2423752575501586], [-13.122476878406868, 0.04940376508561062], [22.053913919594226, 0.34824634805465715], [0.5652187575178054, -0.19769677059704438], [-39.63975065261037, 0.43712368643113564], [6578.613289115098, 3.806767396320747], [-8.619315423933786, 0.6161834305429752], [-2.211871674131892, -0.29247039656294427], [-7.048306543925051, 0.3490423378422387], [1367.950636943436, 2.1474170001307757], [3.0050283189816587, -0.01054447919039276], [-6.180639123070517, -0.3461164093371065], [-3.1350431767916818, 0.27122573515876025], [-16.523222327927094, -0.6905616253644974], [-21.54793854926703, 0.6207643815327912], [18.375692821927483, -0.09669193799034634], [36.372068261516624, 0.687087291463452], [18.03091803827733, 0.5932011287386776], [-32.76616291579385, 0.12957720997198482], [-15.050342840203534, 0.5418945044513874], [1688.0319301638262, 1.9062330061571866], [5.071482342649521, -0.6946647731351695], [-5.745426149187609, 0.37173151012275807], [-10.993755290663959, 0.606463145341336], [2.1651192181494903, 0.2582888738570312], [29.84161257510792, -0.3310585219294753], [7.692770084299753, 0.8303356128700052]], [[-11.44518674083078, 7.633791891425862e-10], [-25.78417187234869, 7.357300572698461e-09], [0.9407241160909173, -3.082059239774551e-09], [10.48626333841441, -4.8387971216873e-09], [11.911428862293208, -3.546226262177183e-09], [-24.945018617476393, 5.61123644732928e-09], [8.77804552813611, -1.6577111014968309e-09], [-4.158366580236301, -7.912350497008858e-09], [-15.912685179962088, 8.997396547708605e-10], [-2.970955677006874, -2.431699411252765e-10], [25.074289816281674, 2.620419281296013e-10], [7.793253697066157, 1.6356024278474534e-10], [31.118783669096587, 3.053547982823001e-08], [-2.713653912277818, -6.186940738914927e-09], [36.01679034634662, -2.780597511772591e-09], [9.244523416782332, -1.1223968933520528e-09], [-21.04754121344409, 1.247334722285017e-09], [8.564379203174292, 2.4647023649041207e-09], [-11.421572529681375, 1.28818006975812e-08], [-10.984219879677699, -1.017931543867561e-09], [0.7424162275842389, -5.969552970297135e-09], [-53.33816554431794, 1.0422013501912251e-10], [7930.728376639262, 5.908451175602498e-08], [-10.300283721110919, -6.853744285218381e-09], [-39.9442453259447, 1.1644740100849565e-08], [41.84916733656473, -2.6157738661604836e-09], [1943.5507473185637, 2.0436224958839143e-08], [19.44317163589768, 9.99838522701934e-09], [1.170899064271622, -2.5296369437642884e-09], [20.883113974609003, 3.2351218639940584e-09], [38.81367695131573, 5.096411224293056e-08], [-10.960865187167736, 5.9261831402022034e-08], [10.200322996175085, 8.678357469925986e-09], [-31.550143177020548, 1.230787127420332e-09], [-3.03126698381583, 1.8742030124422218e-09], [-22.688460202803267, 5.091746902919139e-09], [-11.707225029012987, -1.975645531665183e-08], [2367.9799565067538, 2.807745865140902e-08], [-21.06522960231426, 3.5566346541231978e-09], [0.6736845455706363, 1.315711446240808e-09], [-12.004511082651222, -1.985721127560676e-09], [12.925917291519893, 4.719964137482706e-09], [22.76499441714317, -1.6601538778622553e-09], [29.92298165841911, -6.724454629927617e-09]], [[13.965961792386876, -2.008817546016014e-06], [-3.524407173738871, -1.196555042524968e-06], [-5.7002454936635285, -1.3567554882660816e-06], [9.180302210436128, 2.7709886799255084e-06], [-9.677451912339382, 2.0024419432530345e-06], [-27.017317152826408, -1.104113507208367e-07], [-5.300076928035431, 8.979092842636114e-07], [-18.60445745063662, 3.250148895339391e-06], [-1.6546510314485923, 1.0429530345834135e-06], [-9.180700035765259, 2.5368530533195822e-06], [-20.072544280904857, -2.065618053845768e-06], [11.052059160750202, -2.2024061512020735e-06], [-17.047982831541695, -2.7198309375061844e-06], [-21.541563897012768, 2.5460162297106002e-06], [-0.42576097059251694, 2.1154888069605114e-06], [-9.169466244826756, 1.5032729490931947e-06], [-11.515760843892593, -2.8377494209922932e-06], [-18.08889083484409, 8.894149667238114e-07], [-29.808640049822923, -1.075555649275836e-06], [6.79162298470335, -2.1816521165333904e-06], [15.406222582096063, -8.229921124328638e-07], [0.574988846780468, 1.6693282597323874e-06], [3039.042843827068, 1.4808699854540791e-05], [24.413124138659867, 2.4614521684719e-06], [-21.318761097613528, 3.2407156389518087e-06], [18.862918208794454, -1.6950705147847208e-06], [653.9464549250882, 8.483025549440869e-06], [30.157441429929484, -1.603707285702928e-07], [3.3510910160398337, -1.3026142280300739e-06], [0.6850448893894425, 1.0099505033463073e-06], [-11.980969809955434, 3.0450834578111775e-06], [-25.813918655818235, 2.1224254027055156e-06], [2.3335881361669837, -2.451270708266086e-07], [-4.960248055923509, -2.8998189553833358e-06], [23.255957974308973, -3.4776810779695267e-06], [-18.250116035477873, 4.121678446046054e-07], [-4.747607383733668, 2.121690169679313e-06], [736.9585717477858, 7.4289686845570765e-06], [3.512633404124092, -2.7335208816031328e-06], [4.500929755126179, 1.3996498266936357e-06], [-10.178110160219727, 2.350802577243745e-06], [-2.854258450299766, 1.7412931327973003e-06], [-6.871469917761831, -1.2573986521549577e-06], [2.3149447263958707, 3.2826932265561162e-06]], [[18.143026625192693, -0.08616749756992646], [-9.808428958567015, 0.03161813825190783], [-12.256623171838427, -0.05968304971346484], [20.152673252995616, 0.1174273673236564], [12.196056691649865, 0.0849483569460055], [-13.127047905938692, -0.0018507476804609478], [2.059309690900421, 0.05930663450973907], [6.725455225892837, 0.13621898884075603], [20.97688431941724, 0.054651319681683755], [-7.62634781812247, 0.1136739788361171], [72.75609980383867, -0.08896386608325463], [-10.123672094952708, -0.09496134018927413], [25.981634805837754, -0.11633186123660635], [-11.160501528722985, -0.1043280312947488], [-25.75643052360698, 0.0903249887583283], [-6.815367379785803, 0.06487500201690308], [-7.814643815177162, -0.11295788441599763], [10.29501765283213, 0.04039587712185287], [20.171415483142, 0.008233964220489956], [-14.189586173632685, 0.0580410573429348], [-6.571040791593236, -0.03294946339482521], [-13.490177840118408, 0.07285394816541156], [2915.19771804036, 0.6344612445864009], [24.793842413283162, 0.1026972371224021], [34.20099083167336, -0.04874506299606792], [14.37460120361364, 0.058173722061711536], [699.9474495615569, 0.3579028369978388], [29.851646604520262, -0.0017574107046117206], [17.818073292381214, -0.057686069148384006], [-11.27265482511176, 0.04520429028245434], [-0.10383263032179896, -0.11509359185617349], [26.555480518477847, 0.10346074554234957], [7.006585476350004, -0.01611532069323055], [-24.27577833437314, 0.11451454844994186], [5.922771657111692, 0.09886685475606857], [-4.2632489630344175, 0.021596203178822035], [4.551934705302995, 0.09031574541584055], [800.8150946745034, 0.3177055066136197], [-0.6887078401459109, -0.11577746176128423], [6.096601519970492, 0.0619552523863257], [13.588095341037205, 0.10107719089075959], [-47.54288041461742, 0.0430481470703958], [0.8150138437334653, -0.055176420999212605], [-7.171461824749916, 0.13838926772109567]], [[-13.595140819682872, -2.555534421845135e-07], [-7.646146443860993, -1.4967896604637654e-07], [7.402869978013087, -1.6944088989517069e-07], [-1.4742689451255775, 3.560247741808076e-07], [-9.871196082262161, 2.571124888776869e-07], [17.964926601700203, -1.0506982242229205e-08], [26.767116330792156, -3.0841054237972683e-07], [0.40275394532391695, 4.2095386984226105e-07], [-1.928433385713568, 1.2953603470298403e-07], [-9.973647969737774, 3.2828535797691505e-07], [-7.261345658682973, -2.6197471071750826e-07], [-33.57884181361411, -2.790930340805682e-07], [8.971205378410156, -3.085465333316661e-07], [-5.810110953689499, 3.295667880514852e-07], [-2.3754325471672497, 2.70325325307104e-07], [10.084736733828088, 1.9058303327187025e-07], [13.580582790788092, -3.712786497483044e-07], [20.71841640625899, 1.0836227716188809e-07], [-33.78378214075659, -1.558540879897328e-07], [20.957632707682375, -2.777776542881809e-07], [-31.527094834888082, -1.8639675672755086e-07], [42.01547970683753, 2.0980562511550878e-07], [2256.2544324599185, 1.9002862702244978e-06], [45.22262543011057, 3.1988100619431224e-07], [30.26844555012293, -1.1279722374101173e-07], [3.4898502126381525, -3.867952931062851e-07], [465.5791554393359, 1.1001501509477575e-06], [5.738163915215111, -7.084707827941007e-08], [5.853104462912962, -1.6161345946208864e-07], [9.405814388152368, 1.2478154156401935e-07], [-42.85645515880133, 4.1813458404518503e-07], [-4.795141428360619, -1.8235155168846404e-07], [-70.06820313570961, -1.513941601337428e-08], [42.59785610480832, -3.7794589682511e-07], [-22.78067510904732, -4.547606794583235e-07], [-9.502243047899503, 4.381901638758085e-08], [-54.802681322105755, 2.6857723877577273e-07], [651.3817558946985, 9.545983561384078e-07], [-10.872094959057234, -3.510971794099277e-07], [-4.724051744157375, 1.7398108551936507e-07], [11.908259590259812, 2.9879213045759053e-07], [25.14368058706902, -2.4494866969305826e-07], [20.392121437238576, -1.5713135853872612e-07], [24.175180143914314, 4.2336511287552567e-07]], [[12.982567194209421, -3.856842709185163e-09], [2.424190321068675, -5.490987365866591e-10], [-10.446506326353747, -3.412136672257618e-09], [17.96043602005513, 4.476287595918013e-09], [23.360715284425194, 3.219382769515328e-09], [-9.302089032048585, 1.9100878732443895e-09], [-32.812930219466494, 2.3193111276759755e-09], [37.57769706118007, 4.7792264926483806e-09], [16.742308547304205, 2.2504470485721255e-09], [19.662100745177444, 5.172784211779556e-09], [40.55978506846107, -4.075999168492441e-09], [10.022063053116522, -4.369235967297021e-09], [-8.960978441430777, 1.1200364933837227e-08], [-11.410219844346537, 3.742485914139258e-09], [-2.5930849469166235, 3.6072162627434944e-09], [-24.07449944674099, 2.7387900336871445e-09], [-28.503230950622967, -5.645133059310677e-09], [7.096994819073217, 2.288502428010344e-09], [-9.206959795345762, 5.541386606037651e-10], [-3.465274131718783, -4.646569782146189e-09], [4.16026319365149, -2.12038733251941e-10], [-2.189553158862139, 3.329654723910292e-09], [2293.8755884615393, 4.463708647756777e-08], [-31.948896402353405, 3.432977842045916e-09], [25.404539512681193, -1.8537748079800717e-10], [-1.2695273944160894, -3.566865926375793e-09], [409.61713059737855, 2.2550781022696222e-08], [-82.39995567817098, 1.9463227233568748e-09], [54.678242205197314, -3.1478588235640674e-09], [32.845995705831214, 2.7408114541344297e-09], [-32.47045697399351, 1.919611866119551e-08], [15.982152324478157, 1.8209356690524812e-08], [-38.503543533214405, 1.982844750674695e-09], [-3.5486648971818773, -5.742285605279699e-09], [14.5546376016884, -6.827403630365553e-09], [-21.31032471425585, 1.882295889471008e-09], [-9.439073016366148, -5.820294512235095e-10], [584.1194713757698, 2.2039250398808016e-08], [-1.6450657106942659, -4.708274068185618e-09], [25.034732156468664, 3.0490465173142034e-09], [13.12060458528457, 4.243535726635943e-09], [-4.660178004648984, 9.792567342258431e-11], [27.10957618229526, -2.8733802286498657e-09], [11.473945529416456, 5.095851376993366e-09]], [[-14.847822693695768, 3.8913589069568024e-11], [24.793511539164996, 5.018432566441166e-11], [-9.470532591225414, -1.2920758270217423e-10], [10.641388191558597, -1.7093906366079748e-12], [-33.7334807497663, 1.3659430414635864e-12], [8.2676434871759, -2.3414827202508715e-10], [-12.513865298309732, 6.229478213770017e-11], [17.35769364046775, 7.086432931515058e-11], [0.38066354468141506, -7.753240539089846e-11], [-4.817882336884243, 2.8055330850027117e-12], [9.109225890702167, 4.1384161010867106e-11], [11.832614060817495, 4.461247845725161e-11], [-7.268449980549431, -7.175478766510146e-11], [2.693577780137229, 4.796072173381865e-11], [0.5103920555199662, -5.0195144862929575e-11], [-20.03219174005518, -4.444314393210295e-11], [-22.2173379655481, -1.0889916782796107e-10], [-43.576051380325566, 4.271224421059465e-11], [-4.897570894299829, -3.418920373753234e-10], [-2.067547602663512, 5.434416324904119e-11], [23.377098796839856, -1.3778143384113725e-10], [2.887265423167868, -1.0712606425647054e-10], [2142.4387731418046, 2.699769706057712e-10], [24.20135716660323, 5.5307251505846074e-11], [2.1729281224510184, -3.1529159391908223e-10], [7.384062385648623, -9.167162033421821e-11], [574.7061322893351, -5.665890671675477e-11], [2.7777328036197404, -2.1722487952790859e-10], [-6.316343265039316, 9.724651050120143e-11], [47.763308607354254, -9.432174256217884e-11], [22.00000491343925, -2.1637924935410765e-10], [25.28686999461109, 5.083146829711168e-12], [6.566505169117394, 1.782104940274174e-10], [-61.22963282279204, -8.065350513669955e-11], [3.55519250514458, -1.4208910497883828e-10], [22.820028156598067, -1.5969604414047178e-10], [5.575518620469377, -1.0864756509544862e-11], [604.8605091419478, 1.0688553380528933e-10], [-14.87796565613926, 1.654734223120984e-12], [-11.084305774022353, -1.160197960948662e-10], [-7.207454070454554, -3.094043492899124e-11], [-20.435318601000933, 1.1791437967531404e-10], [-13.030348037262229, 4.884980867414684e-11], [-47.521819140928315, 1.9951784516675537e-11]], [[0.8525338197818807, -0.08616749756992646], [-6.441525099055607, 0.03161813825190783], [33.39554629970823, -0.05968304971346484], [-5.670805626882283, 0.1174273673236564], [-14.747716349534928, 0.0849483569460055], [-8.08315998927596, -0.0018507476804609478], [25.615507685232966, 0.05930663450973907], [-48.939769427030065, 0.13621898884075603], [-19.548966801613137, 0.054651319681683755], [-19.26839492529776, 0.1136739788361171], [-15.300228288273498, -0.08896386608325463], [21.037741655617417, -0.09496134018927413], [-46.629541756441924, -0.11633186123660635], [16.874231339194186, -0.1043280312947488], [-9.048637823238227, 0.0903249887583283], [-51.7482877273618, 0.06487500201690308], [-41.98884293775213, -0.11295788441599763], [-28.180707337314267, 0.04039587712185287], [24.12024360931544, 0.008233964220489956], [40.4149139510424, 0.0580410573429348], [-37.4454595562316, -0.03294946339482521], [2.515580155935483, 0.07285394816541156], [2916.453451723902, 0.6344612445864009], [-1.142922820432712, 0.1026972371224021], [-1.133801947884501, -0.04874506299606792], [15.911949862473227, 0.058173722061711536], [661.884920537206, 0.3579028369978388], [-5.533839913975351, -0.0017574107046117206], [-8.546783137818009, -0.057686069148384006], [-0.3141608919957622, 0.04520429028245434], [121.59500185368454, -0.11509359185617349], [-9.04936461492597, 0.10346074554234957], [24.889347587024794, -0.01611532069323055], [18.990556455969067, 0.11451454844994186], [-6.498805034692335, 0.09886685475606857], [27.127842843438383, 0.021596203178822035], [15.364490399129975, 0.09031574541584055], [741.0251240651804, 0.3177055066136197], [13.627759410097955, -0.11577746176128423], [-17.000793558068004, 0.0619552523863257], [-3.417106916916812, 0.10107719089075959], [27.97058897803076, 0.0430481470703958], [11.034969482296233, -0.055176420999212605], [-4.126613557971468, 0.13838926772109567]], [[-0.2792159453502502, -0.08616749756992537], [18.264408471061756, 0.03161813825190736], [-10.777602600298842, -0.05968304971346411], [-15.835674967907993, 0.11742736732365477], [37.770536986959335, 0.08494835694600683], [28.660325252540236, -0.0018507476804631726], [-0.6502876795258534, 0.059306634509740885], [15.2518255736263, 0.13621898884075462], [-2.932300197146682, 0.05465131968168238], [27.54398782546557, 0.11367397883611849], [36.55178214650771, -0.08896386608325225], [14.155214087646241, -0.09496134018927274], [11.096123438374237, -0.11633186123660899], [-1.5499900837495553, -0.10432803129474671], [-19.943812292216844, 0.09032498875832877], [33.935955270126136, 0.06487500201690358], [16.765600461139805, -0.11295788441599594], [8.137734950781846, 0.04039587712185002], [33.13749221201299, 0.008233964220487444], [-6.84107225801189, 0.05804105734293406], [10.284788149773387, -0.03294946339482523], [-6.078546435619028, 0.07285394816541169], [3761.377363430378, 0.6344612445863935], [-21.059883333792627, 0.10269723712239864], [-3.61789485748291, -0.04874506299607418], [17.627797427983825, 0.058173722061712035], [768.0368770196449, 0.35790283699783393], [17.442663644807954, -0.0017574107046131188], [-1.3495392911338866, -0.05768606914838373], [8.783313738063843, 0.04520429028245281], [-48.075432097335415, -0.11509359185617715], [-22.529599351425794, 0.10346074554234776], [-36.24715802153636, -0.016115320693229962], [4.433726232250076, 0.11451454844994557], [15.944602106187203, 0.09886685475607707], [-24.63416810170003, 0.021596203178821646], [14.683577511782975, 0.09031574541584134], [953.2369848532455, 0.31770550661361574], [24.53887714180611, -0.11577746176128277], [-5.26089048180612, 0.06195525238632576], [-18.1055603051586, 0.10107719089075753], [17.97799156004926, 0.04304814707039573], [-8.0128227118883, -0.055176420999213285], [-29.913690024751755, 0.13838926772109392]], [[16.068044146920233, -0.08616749756992646], [4.616050572832225, 0.03161813825190783], [9.871572269301604, -0.05968304971346484], [9.268158904558776, 0.1174273673236564], [-17.580329444040018, 0.0849483569460055], [-6.252918991211607, -0.0018507476804609478], [-10.800801592594587, 0.05930663450973907], [-27.149622286081584, 0.13621898884075603], [-23.258617424566605, 0.054651319681683755], [-24.510551188903044, 0.1136739788361171], [-0.20386304445091946, -0.08896386608325463], [18.696045887045653, -0.09496134018927413], [21.839112528617626, -0.11633186123660635], [-8.216421953960173, -0.1043280312947488], [6.29119576377703, 0.0903249887583283], [26.246477940585436, 0.06487500201690308], [14.29749436559939, -0.11295788441599763], [-8.770514832147812, 0.04039587712185287], [2.5973022650581687, 0.008233964220489956], [-6.989635199519715, 0.0580410573429348], [-9.145536934794618, -0.03294946339482521], [24.22524476811827, 0.07285394816541156], [2683.541019361459, 0.6344612445864009], [21.580013555292, 0.1026972371224021], [1.0673028472459014, -0.04874506299606792], [27.5606123690366, 0.058173722061711536], [649.848490270747, 0.3579028369978388], [10.003323553912903, -0.0017574107046117206], [42.658251382844874, -0.057686069148384006], [19.286484792565304, 0.04520429028245434], [-11.959005490350442, -0.11509359185617349], [-5.5751574010829765, 0.10346074554234957], [-11.300246987234374, -0.01611532069323055], [-2.6859419866666134, 0.11451454844994186], [5.367059862580071, 0.09886685475606857], [25.591736082683216, 0.021596203178822035], [5.893560029670472, 0.09031574541584055], [767.4707306965528, 0.3177055066136197], [9.15919620211342, -0.11577746176128423], [0.5064560718911171, 0.0619552523863257], [-3.267008617587748, 0.10107719089075959], [1.6088456620640237, 0.0430481470703958], [10.337501803516147, -0.055176420999212605], [-3.6671745826920294, 0.13838926772109567]], [[1.0828197741009917, 9.320494422324025e-28], [-2.03298925275488, -1.1002773531667197e-27], [-7.96726280462245, 1.3861521425464367e-28], [3.5794196509344482, 1.350149476334089e-27], [-19.94740340920005, 9.784275353485694e-28], [-9.408473483401835, 3.7743959058934833e-28], [-5.471147861500851, -8.0743567086174095e-28], [17.61509744770842, 1.6835489076871175e-27], [34.46694639335439, -7.605625472697731e-28], [-13.488648335315506, 1.1300949989348171e-27], [-33.91122250988252, 9.461382757940513e-28], [-8.30286256743244, 1.2860388650325782e-27], [2.1709679684332785, -1.640547804291443e-27], [-19.088042677027914, 1.3434227616359788e-27], [26.815445908278594, 7.7690122510349245e-28], [-14.78045849406186, 7.047529502539396e-28], [1.2397491338213946, -1.188964441279776e-27], [28.153771689337407, -1.0738563842503586e-27], [2.222932427924242, 1.6468550727855904e-27], [-15.911851010605792, 7.008052799853497e-28], [-12.990602448714345, 3.5825597726538986e-28], [25.82954493764916, 6.110015654644387e-28], [345.692183260002, 7.106591504675412e-27], [19.917238910838893, -1.1376363564343104e-27], [-16.69879662217913, -1.6911558514156964e-27], [1.9158018901729426, 6.151303391801077e-28], [105.95161505564717, 3.8657758587383655e-27], [3.4126928814235176, -1.4648824747632166e-28], [7.703295083710975, 2.350786402413303e-28], [11.593435568194243, -8.12768012501591e-28], [-18.653695548070917, 1.8571294641504023e-27], [24.051021623251255, -1.2853671236788346e-27], [-11.063163817578975, 3.3181766154489363e-28], [0.9415863457366359, 1.1957205471394244e-27], [28.186982620477337, -1.9749389524338468e-27], [-3.2122807232566073, 1.7330788251337837e-28], [19.592702292874698, -1.1322047475563627e-27], [106.41646750013565, 3.608709622098683e-27], [-26.095854341225408, 1.1768596079623308e-27], [-9.23501688106863, 8.462119810653368e-28], [-4.4325033150104876, 1.5161999174722486e-27], [8.249342190374751, 5.853127822161884e-28], [44.451482113633666, 7.134756556783789e-28], [8.402082027016753, -1.4762950067692548e-27]], [[-2.6767177772342072, -0.0005097194434444897], [27.992512745405012, -0.000305732526020582], [11.641575946903568, -0.00035058540412740856], [6.017979704926764, 0.0006963900345549487], [-21.651786541540623, 0.0005035401053188741], [2.6517055678956636, -1.225932052153573e-05], [0.8734901469589821, 0.0001968684676477435], [-32.35303752544803, 0.0008104963199028756], [37.8686726217614, 0.0002704603615656948], [-65.23546881200855, 0.0006349020264378805], [-0.8675287835922475, -0.0005256371369297872], [-33.41727406184069, -0.0005608724994975914], [0.9555233559615601, -0.0006922334159287711], [-5.057800006556547, 0.0006352497334171478], [-9.737872020812866, 0.0005344254473531875], [22.53130328272617, 0.00038257961140516036], [21.08633719229068, -0.0007029029402893423], [-14.000999939999181, 0.0002346891142769281], [-8.67629483052807, -0.00023733011200802848], [33.735899452956616, -0.0005537459160072567], [-9.254623263972645, 0.00011272534530323887], [6.832918152169011, 0.00042828893865403414], [1423.053893946796, 0.0037506675047396247], [22.368847235142756, 0.0006117859732443977], [-21.866963847186504, 0.0003029203263351247], [-39.24333467941817, -0.0003833385459115009], [227.32081414250192, 0.002125191871228076], [33.67045262590854, -7.736872613843077e-06], [4.473653146283241, -0.0003382429816845118], [4.334709311759801, 0.0002637096721954352], [-40.158114729352945, 0.0007414266397394962], [4.483437995953868, 0.0006659413089551688], [18.2356152663871, -8.632176474501871e-05], [-0.023185792100917188, -0.0007207153346290439], [-13.607158243033838, -0.0008617407252507857], [-36.91435402338211, 0.00012069476756069773], [21.808882717788904, 0.0005351382814903559], [229.4544158245454, 0.001878991188557509], [-7.029930600384568, -0.0006872957791849803], [-26.73456844166105, 0.0003627127953138182], [-13.716288531555799, 0.0005968690387955454], [31.074947708882725, 0.00025461396528646973], [-10.332264331633409, -0.00032437998799830325], [0.6494491197071808, 0.0008220043262148427]], [[-13.24944686652504, -0.1721181375347762], [-17.822608367265563, 0.06336653607052684], [-8.81422301133949, -0.11921627662046497], [-8.99574995943518, 0.23455929554932645], [19.61680288603776, 0.16968307804313412], [-33.57986633220357, -0.003698263831862888], [-34.587221522877456, 0.11876622576216904], [-3.893488421132953, 0.2720947645156133], [5.371738767700852, 0.10918708470770667], [3.6092774352593127, 0.2270788457282098], [-4.21606419922177, -0.17770395218804882], [11.197166326325842, -0.18968386094492842], [0.592189076682349, -0.23237039092405765], [-4.069716943417888, -0.20892508703479645], [-11.308656561136685, 0.18042298260854403], [2.29004752823842, 0.12958723747476375], [3.3024572597151045, -0.2256184406467602], [-15.099150668457344, 0.0806910888282983], [-35.2877560610339, 0.016565333787401784], [-8.612260479520945, 0.1163177272144385], [-21.833806653235634, -0.06581452024818456], [-13.583881393609413, 0.14552532679996108], [1275.4903642058528, 1.2673275497164527], [-29.23318964436683, 0.20513563239672333], [-30.80014316119019, -0.0976156184281137], [-25.37601082493608, 0.1165113433024424], [200.1120792108553, 0.7149043790274575], [15.821184160631365, -0.0035136330394230537], [-19.07989997047033, -0.11522743101239878], [-18.428320654187413, 0.09029572115742672], [-7.681057317310411, -0.2304998278374164], [-17.001572423217315, 0.20663725817524792], [-2.613061867713572, -0.03219153969693073], [-4.744111422295973, 0.22933420494958714], [32.96515802978145, 0.19809824295715464], [-23.90189061253425, 0.043139507354813304], [-25.345583510576336, 0.18040439224521287], [222.79589171566448, 0.6346122845907316], [-23.914210083931867, -0.23126317891771933], [5.333660182600794, 0.12375553705735796], [26.52845073608638, 0.2019005520057244], [1.7939941846252645, 0.08598737456854474], [21.979427959446838, -0.1102142729966724], [-1.4932784158870653, 0.2764300985322793]], [[29.861750492094362, -0.08616749371308376], [12.416646375066065, 0.03161813880100657], [12.59669585489533, -0.05968304630132817], [0.7375425992998456, 0.1174273628473688], [6.24280618898593, 0.08494835372662274], [9.350116850971597, -0.0018507495905488195], [-4.485718675063262, 0.05930663219042794], [-28.488941930918987, 0.13621898406152955], [-5.22359857436926, 0.054651317431236704], [-8.67260738492546, 0.11367397366333289], [-18.468589453299515, -0.08896386200725546], [0.3908725374354256, -0.09496133582003817], [29.379368914842722, -0.1163318724369713], [1.0941312891643173, -0.10432803503723471], [1.9033312414335637, 0.09032498515111204], [-0.6061099662571371, 0.06487499927811305], [-6.351412979885675, -0.11295787877086458], [-17.79266889194733, 0.04039587483335044], [-11.943829213455668, 0.00823396366635129], [9.058734734522892, 0.05804106198950458], [-22.202743502147623, -0.03294946318278648], [9.497803171682392, 0.07285394483575684], [1170.8184990195514, 0.6344611999493144], [-17.08667888506968, 0.10269723368942427], [-39.73489466217314, -0.04874506281069044], [13.07500099198178, 0.05817372562857746], [306.24377331659093, 0.3579028144470578], [-28.830581379202545, -0.0017574126509344434], [24.36007449654397, -0.057686066000525185], [-32.80348063549609, 0.045204287541642886], [-43.289302342682426, -0.11509361105229214], [-2.090189117879692, 0.10346072733299289], [10.13606688734483, -0.016115322676075298], [15.326304414718663, 0.11451455419222747], [21.748905203549143, 0.0988668615834722], [-16.468469406023083, 0.021596201296526146], [5.257140705249942, 0.09031574599787], [394.71646417050505, 0.3177054845743693], [-14.261744496955238, -0.11577745705301017], [5.360243032704167, 0.06195524933727918], [8.839970695036646, 0.10107718664722387], [-23.4568245766014, 0.04304814697247013], [15.410001459303428, -0.05517641812583237], [-4.8085883827288605, 0.13838926262524429]], [[-1.342421186000048, -0.25850247148343497], [10.30676623181412, 0.09485442217604026], [6.206037867083547, -0.1790491323472133], [3.8845979625452616, 0.3522820752633925], [-14.138164340385817, 0.2548450515831311], [-18.072612001466933, -0.00555224919527476], [-3.994019392032748, 0.17791988987219892], [0.60932060782125, 0.4086569366440299], [-15.93805216231922, 0.16395394725174445], [-2.029111032127127, 0.3410219088494202], [-13.475998089511986, -0.26689157608519326], [-2.9216041094519434, -0.2848839968634419], [15.870783469948345, -0.34899570474234565], [-11.930057179382771, -0.3129841172870478], [-0.7318805430749867, 0.2709749453005378], [-22.238579229083193, 0.19462499060552685], [-5.350947314120251, -0.33887362277892674], [6.727291592719745, 0.12118762018073621], [12.35582387538089, 0.02470189597273653], [-19.262924633504987, 0.17412319645345833], [14.813495303870775, -0.09884839308160139], [-5.560273197473927, 0.2185618264603072], [1058.4561405403313, 1.903383528777219], [2.3667601096099524, 0.3080916893098192], [-3.054473891331109, -0.14623518239653738], [3.8655709545545767, 0.17452118408180334], [99.06966157344938, 1.0737084027509598], [-20.441866647089487, -0.0052722374813023165], [-13.127280586666915, -0.17305819169779746], [-5.444174544290101, 0.1356128577319421], [-53.44406563523765, -0.34528085797114133], [24.75177215372987, 0.31038216930986395], [11.565069171757848, -0.04834596671386024], [4.999634101534071, 0.34354367642566275], [11.264653847359243, 0.29660060133893884], [31.76201301416608, 0.06478860182327789], [-1.076692377691827, 0.2709472278108285], [214.36132197031594, 0.9531164180828924], [9.21379527946587, -0.34733235805447804], [-4.937488607828527, 0.18586574124578953], [7.071794595688944, 0.30323154864463703], [-8.935213821417646, 0.1291444715091115], [13.587782617096494, -0.16552924830469046], [-18.858927383097917, 0.41516777216058914]], [[11.229474805464605, -0.17233499735322552], [5.969178835369298, 0.06323627513410482], [-15.371757382235428, -0.11936610068326278], [-4.2266139721956035, 0.23485473778688065], [-6.938045607264458, 0.1698967162214258], [20.08611180164025, -0.0037014952760346803], [-7.386885593185346, 0.11861326726736032], [-1.8689985982038306, 0.27243798101571026], [-2.8381846086525124, 0.10930264106663753], [50.37358905160806, 0.2273479603857292], [35.02178527677161, -0.1779277345179433], [4.617129073201525, -0.1899226829173764], [-33.364756883486905, -0.23266372507540023], [-13.348013331083763, -0.20865605992160938], [3.366901980884029, 0.1806499800990542], [16.628639020174408, 0.12975000605321932], [10.66271645136412, -0.22591577126118223], [22.957140622336684, 0.08079175572760469], [33.31591396540619, 0.016467929355617472], [-15.049490107031351, 0.1160821122157224], [18.366618157075706, -0.06589892760722856], [40.77405611201409, 0.1457078987358248], [2543.6793475709483, 1.2689224717437289], [-2.2515540995002876, 0.2053944767168652], [-8.57864661019577, -0.09749012487271996], [5.311396318276219, 0.11634744257511465], [509.4845671244348, 0.7158056651976199], [14.471455614285262, -0.0035148214440739803], [-21.815271989645844, -0.11537214005551041], [-8.228391468717453, 0.0904085822481907], [5.432997066654907, -0.23018718593104345], [-8.214496053955964, 0.20692149391326553], [-27.996091694445376, -0.032230640573035686], [3.7266463361766924, 0.2290290942899046], [-6.386974942051648, 0.19773370649858152], [17.808077654973545, 0.04319240782097258], [-2.418844563865073, 0.18063148851002148], [653.6148132913436, 0.6354110046356023], [15.202755993620482, -0.2315549262900492], [9.715856744327384, 0.12391050699428043], [9.724525189407066, 0.20215438476333183], [0.15598060199014063, 0.08609629562618881], [8.749607064983824, -0.1103528435739955], [-18.2795770815641, 0.27677853898545024]], [[21.652522861805515, -8.373349491856546e-12], [-8.968677740706573, -7.550130866425604e-14], [-8.450367266070616, -1.984930708453282e-11], [-23.691735644163682, 1.3068715383209284e-11], [-70.82429274777806, -3.734986884936218e-14], [45.51011072751971, 2.4979493020407905e-11], [5.981946279806654, -2.0449947049682458e-11], [-24.02847312166726, -1.3436819410342092e-12], [8.218980365842324, -1.8130776734752388e-12], [9.181599841252908, 2.414728921169607e-11], [-34.83168231812829, -3.234080359881983e-11], [-15.797986436160032, -3.159060592474292e-12], [-28.348612476682064, 1.0591093945970083e-11], [-26.19432164690297, -1.4927837858797416e-11], [30.951379239446176, -3.0784005568801256e-11], [-10.980411711882375, -8.723028873686026e-13], [-46.95052776801953, 1.6862518679295372e-11], [-5.848013621241182, 7.429124720408589e-12], [-65.56423059295068, -2.3798421308628833e-11], [2.5877955018072467, -5.614655745447954e-12], [-0.18776676392809963, -1.3772014108431527e-11], [-26.846946377730262, 1.599417610532381e-11], [1187.9557882003746, 7.211447968994536e-11], [-5.601271730290353, -1.8783832093966965e-11], [-11.96551491467977, -3.0711929226191406e-11], [-3.201270581950096, 8.963623363540622e-12], [237.95422502248536, 1.688861005598362e-11], [55.88519969063185, 3.6989776104398736e-11], [2.014330044850065, 4.805094083541624e-12], [13.756631109488893, -2.72634247500513e-11], [29.609831039069974, 2.1370445504978992e-11], [-0.40842936673805497, 1.4322002626799617e-12], [-29.108513396782502, 1.66698242947519e-11], [-15.31866739332546, 1.4609174243417544e-12], [-26.211273046188595, 5.38754289303002e-12], [-12.45824564603226, 1.3741953419292268e-11], [-50.7448337610786, 8.583890995526657e-12], [242.85974690459423, 2.409263774823016e-11], [-12.879942554502309, -3.307891305365137e-12], [23.703250352451594, 2.3036065859683636e-11], [-10.813841075420383, -3.934573057365485e-12], [-6.905102954470849, 2.2020215690325545e-11], [-4.956891202808754, -2.090919217670418e-11], [-8.938354925384525, 1.4702103336666168e-11]], [[12.178003899101778, -1.7229790570823235e-17], [2.3021955941571957, -5.8182740029542144e-18], [25.311480715489452, -4.163172401347745e-18], [-20.397174418847833, 2.3795500403394084e-17], [-26.076701523340315, 2.2010816556764402e-17], [-5.565520803055911, 2.4283268993195707e-17], [4.736636069101354, 1.554186945314631e-17], [-29.532230519142704, 1.9251367629232215e-17], [-27.292469654786107, -1.0475308838024046e-17], [-11.56271183424836, -2.0790921276787043e-17], [-28.83232626702074, -1.8412642391520747e-17], [3.9326383328214325, -2.748923810300127e-17], [-8.452423679224914, 3.3715820170099954e-17], [5.822159066374893, -2.793169944646727e-17], [29.98341791915423, 1.5911261108665104e-17], [24.16764284347544, -1.218972052187376e-17], [-23.760621217795013, -2.6853438458043992e-17], [19.067586634540998, -2.2639129746277643e-17], [-36.10531072106541, 2.89127197429424e-17], [-15.289141647803717, 9.278206904405332e-18], [-0.26209307845960816, 4.755372582217617e-18], [41.55670379197681, 8.077867481087612e-18], [296.7406273811639, 1.4226030728181583e-16], [-4.457072692814756, -2.6353125565577435e-17], [27.52885355159941, 3.2516028996163845e-17], [-8.02470469261774, -5.911317193508316e-18], [47.545626886447224, 8.482550645565525e-17], [-4.672253236827842, 1.151133590295392e-17], [12.197293614574184, 9.79366438266227e-19], [-5.7367591451160305, -1.1515092160393613e-17], [-5.619055013123383, 5.093028596142287e-17], [-2.838943193253733, -2.5884328665230484e-17], [10.397120396715566, -1.5031893276511781e-18], [12.491429626970099, 2.4072790357721438e-17], [-8.132283883498694, 4.326649867054168e-17], [28.969870913046233, -1.92820750628034e-18], [-5.131306636150727, 2.1484575935719136e-17], [76.3143862307193, 7.420398293847368e-17], [-5.467527269599102, -2.6265968180110327e-17], [0.7761651830534376, -2.938690909202563e-18], [8.848247661885248, 3.4588149496624946e-17], [10.64842144263764, -5.630006928180656e-18], [2.3909205704472214, 3.1410007805958467e-18], [13.161498515024707, 3.0442733833804154e-17]], [[-35.780050344307206, -0.07062044090184415], [28.455740002144037, -0.04221441320587808], [34.57110768798103, -0.04809664713747417], [3.1840565350467465, 0.09712964127125932], [-16.416539053176916, 0.07023017505382059], [27.530300204104837, 0.0017739218329428461], [-35.785032105966145, 0.04816842844155437], [19.8927133886483, 0.1134859834417019], [12.034098261957185, 0.0734629717220461], [6.4771027710481786, 0.12987014007979228], [-11.725647735770673, -0.07272115304254674], [-5.748358532215203, -0.0775704672346376], [-22.001498407449944, -0.09667152892165039], [11.392141872117879, -0.09020548526532887], [-14.318428186443898, 0.0743571128164771], [-8.275998257264398, 0.053049539287201894], [33.208329738833434, -0.10041674860690059], [1.3404801052486817, 0.03197847002801225], [-19.47258350677953, -0.09384751563270087], [-7.092022897186445, -0.07670611688141771], [0.22375200688448327, -0.026439893699356953], [6.259149205309918, 0.059134829251763894], [60.06644588621862, 0.5204165561733001], [-11.33515549068209, 0.08582675328095407], [0.9582908173659218, -0.04297461363289975], [-5.894618306922971, 0.03672988402183201], [14.464400853639871, 0.2965875635772064], [-7.872623517410327, 0.0012631060361415307], [9.906918369575044, -0.046290588780060024], [3.4920820763389426, 0.03610819847842052], [37.09525074541445, -0.07741582365496127], [-26.832720109157165, 0.09085328048118844], [19.815376704000652, -0.010265348300987544], [-12.74801744865964, 0.0996619124784649], [29.621627258206143, -0.12269219628333361], [25.502141845976233, 0.01566556897821351], [18.765300468850654, 0.07459030028247035], [-22.232637772776126, 0.26093613774241087], [18.69519239079894, -0.09569642489947852], [1.2722910320890792, 0.04983763477567259], [3.3620075884185456, 0.08282318035743824], [37.01473590814513, 0.04451543908892856], [25.544359964945407, -0.0445378416106522], [5.68967502843672, 0.11485103002563737]], [[1.9846793197306911, -1.5230943010231157e-19], [-10.375319844607349, -1.5463415251165907e-21], [9.20177326280176, 3.5736506958848474e-20], [18.789767359348318, 1.9387152587364081e-19], [15.841995446404749, 4.762895329601281e-20], [-6.712795438996082, -9.783529162927646e-20], [-23.691730126041968, -1.5790516089162348e-20], [15.633773405170878, 1.1520611507010412e-19], [3.9399691804302934, -2.202031122633976e-21], [-4.111034979730075, -1.5847444474593836e-19], [19.84621629096627, 1.1756010052486104e-19], [-23.75391848260116, -5.50612213915359e-20], [-16.54135181624379, 7.084690919966407e-20], [-2.386457031398921, -1.9801935258566343e-19], [0.49796485076148, 1.3894688280433094e-21], [-3.954578338279751, -8.127279424758912e-21], [13.123379696577258, 1.572409185601199e-19], [-7.955156344309905, 2.1656287507637722e-20], [-3.6708782227783465, 1.8038985289209333e-19], [-3.270380354798694, 1.9944910123726947e-20], [-10.709449959258675, 4.7828758051832296e-21], [17.102151435616143, 2.316731070431168e-20], [321.56365745579785, -5.348920413038497e-20], [4.714722080898904, 1.7357974031769266e-19], [5.255756541456502, -1.189675280908761e-19], [-8.448761195356349, 4.371463956734365e-21], [15.742119972758921, -8.63429309772702e-20], [-24.252454684342307, 1.1043282445614827e-19], [-14.07537405852388, 2.9475335818984526e-20], [20.76934451883469, -1.3684714147331393e-20], [3.410876353244029, -1.2700874466453396e-19], [-12.138035894444691, -2.4498149960573845e-20], [20.910631327101004, 3.1711513039246124e-20], [-21.5611511602554, 1.9427868783396846e-19], [10.043703496310552, 2.9323052521477976e-19], [-9.373375816249418, 3.0667375464784864e-20], [5.127731102918561, -1.664044246252465e-19], [26.387324945765897, -4.0864025138898855e-20], [-11.625993231626687, 2.1080810063229565e-20], [-15.100370941118296, 1.591970120892059e-20], [6.306796121881992, -7.97923367922495e-20], [-18.922742608804477, 3.113289571839594e-20], [0.4619069366183762, 9.473028963424911e-20], [16.682313560490435, -2.187895611713527e-19]], [[-34.11069050496037, -0.084891242815425], [12.325692837416742, 0.0323779914323681], [13.449210867908578, -0.0588267856300073], [9.80091645720944, 0.115660007396158], [-6.1290951043880275, 0.08367129089336192], [-10.905337199004208, -0.0017540057050227844], [-7.443338381699232, 0.05844350682428767], [-1.7351316511921246, 0.13414078103306065], [7.175272391006077, 0.05399283579404879], [-2.4306444353238854, 0.11205475577552292], [-6.602175849287533, -0.08765277589410442], [10.64232398384997, -0.09356375308736922], [0.780031987918526, -0.11456367599141137], [-18.496236483456112, -0.10595582227744665], [-8.207171803151077, 0.08897793288096806], [-31.884698891241104, 0.06392000142892194], [2.6319368318655685, -0.11114164732337606], [6.911132513224376, 0.03983772777621904], [14.412428132524248, 0.008946970945160213], [-18.122865174756786, 0.059426637547890654], [22.297601073308122, -0.03338311773521094], [-15.37652083416203, 0.07179642254729816], [1844.4134481053095, 0.6250576986843885], [25.077673754999484, 0.10112150511910664], [24.256896414138048, -0.04960884449678268], [-28.62757638994838, 0.05911073429793609], [306.28147705943763, 0.35249525846997243], [-23.197644329973073, -0.001665920851251411], [-9.990331905609136, -0.05686516522905848], [-8.096506990150509, 0.0445685042611242], [-33.85259547060215, -0.11703950175159801], [39.53542179010398, 0.1017683821461931], [9.112683459850265, -0.015976655713442287], [-20.219827631913144, 0.11636864663194274], [-26.541745086037682, 0.10109257539534774], [-13.513828950059253, 0.021347305986463096], [-8.246274685273276, 0.08896057890799039], [386.52045436302143, 0.312985602717756], [3.1832731319861804, -0.11403528154581156], [-0.5590635239929768, 0.061071530449313655], [6.495431220975361, 0.09958286899947057], [-20.414082520915102, 0.042461170833196386], [7.963707421604993, -0.054382237200745843], [-26.102625426208643, 0.13629311728245092]], [[-37.600795695124155, 6.241193505704619e-25], [6.4235433534590305, -3.754913221752463e-25], [-6.799313960891169, 1.8741613774697338e-25], [2.6510618453399015, -8.466228392002666e-25], [-36.46007531850349, -6.636461096946974e-25], [-8.515440759113723, 3.0693776860760703e-25], [23.494260798727318, -5.548121659899356e-25], [-5.224249797228149, 1.0489811920205854e-24], [2.948862683674836, -5.104267716623095e-25], [-7.2385170866563495, 7.394569250189896e-25], [41.334521728823375, -6.225096047679939e-25], [19.850536867639672, 8.3808400912337e-25], [11.105058810039825, -1.0140734725289702e-24], [-22.458940565090554, 8.37589304572943e-25], [-9.821617478844084, 5.108112323494947e-25], [-50.90886629121126, -5.043106295531014e-25], [-15.319086238118302, -7.430399612110385e-25], [-10.5348458044635, -6.91486742989571e-25], [-27.320908520923275, -1.9613458994735085e-25], [4.428222373984099, 5.10596730151178e-25], [1.808224828590896, 3.050159645340383e-25], [-11.140450385048327, 4.673229501072311e-25], [106.71682872860215, 4.802388999328996e-24], [-10.26558273286346, -6.7276492629329765e-25], [22.4401681453675, -2.905847532979489e-25], [9.527212751350358, -4.771765033400569e-25], [-29.590980346105, 2.5153334215377163e-24], [-1.805391520542694, 2.242716419850552e-26], [-4.546296073817283, 2.413950817228915e-25], [48.77626984139747, -5.242925471337089e-25], [-25.260800953352174, 1.0584364529534623e-24], [21.94138343273151, -8.409260508561346e-25], [7.5168451398270575, -3.296013480308583e-25], [21.34282174689031, 6.912134934564829e-25], [-17.007761199074512, 1.1642515320371218e-24], [-15.850838419049262, 2.2142034746981593e-25], [14.759255725042049, -7.383244688092467e-25], [21.971498061839295, 2.415704705197643e-24], [7.705747755493423, 7.899791846738747e-25], [-7.542970682633813, -4.393629026822149e-25], [22.832294254941825, 9.745292709998814e-25], [-3.499672808790195, 4.494799692065688e-25], [-17.083994102228047, 4.845870407106287e-25], [-14.772397840446443, -9.176636798144224e-25]], [[-22.021980454999213, -0.08616749760879454], [28.551617805024613, 0.0316181382018315], [4.296824406178278, -0.0596830495839475], [0.41027262814144255, 0.11742736732548176], [-12.674124567556863, 0.0849483569446651], [10.480315424811646, -0.001850747446822604], [-5.974891290462907, 0.059306634447520656], [-8.925438415124237, 0.13621898876986904], [-0.7451333881367145, 0.054651319759340566], [-8.394932942749483, 0.11367397883323477], [-18.94483821906499, -0.08896386612445112], [0.35221017250265807, -0.09496134023382428], [-11.595001068564098, -0.11633186116495109], [-25.09237794772699, -0.10432803134269025], [16.85258575302124, 0.09032498880865486], [-14.488038444124314, 0.06487500206137711], [18.73970973768276, -0.11295788430720063], [8.07700370221944, 0.04039587707917904], [-16.254778876570995, 0.008233964563161993], [-10.824208404913694, 0.0580410572887379], [-1.696760835636009, -0.03294946325685562], [-0.9515372123562599, 0.07285394827228751], [1359.2974121711059, 0.6344612443163907], [31.634739504339176, 0.10269723706704278], [-10.091661235932408, -0.04874506268027116], [-15.941419579391916, 0.05817372215328315], [113.24500948657862, 0.35790283705474657], [-21.879202372477703, -0.001757410487771914], [6.437150292212849, -0.05768606924590601], [-2.6747903050495383, 0.04520429037688434], [-22.102811166751877, -0.11509359163952544], [27.567899174398868, 0.10346074553731426], [-7.8060991639370805, -0.01611532087113658], [-34.76484584844011, 0.11451454853074577], [-5.945907790612264, 0.09886685489852903], [-26.01731627115033, 0.021596203338163027], [-13.324133949177396, 0.09031574542664879], [309.0998347163224, 0.3177055065067938], [10.915310562357798, -0.11577746176302561], [5.847103586384018, 0.061955252502081795], [-8.069396982259558, 0.10107719092178571], [-31.70718205989243, 0.043048146952208294], [3.612470476664223, -0.055176421047939184], [-4.481655128263148, 0.13838926770116733]], [[26.753579307976747, 1.1205098636497693e-13], [39.782343294876114, -1.9304842430741433e-14], [39.00075093003627, 9.892615624267272e-15], [-6.061746900708463, 9.191465791958076e-14], [2.5143152823186816, -1.246556652758506e-13], [-30.237096253356963, -7.632411129847668e-14], [-15.733711824834241, 5.143968067293254e-14], [-16.037235736374697, 1.3545177180923253e-13], [-3.2066125992777135, -6.507277698978352e-14], [7.502228019857159, -7.976223340379629e-14], [-28.190182578488198, 5.974008532479933e-14], [11.936183415019377, -8.404277896881657e-14], [-34.39883209901135, 1.2759296589532267e-13], [-23.798862514842078, 1.0515960362140462e-13], [10.02628174189266, -5.2803992797250246e-14], [7.50709263583971, -6.240345418376303e-14], [22.723240871270914, -8.716987792532627e-14], [41.35688744736031, -7.210570664678515e-14], [2.091994648938142, 1.782115680634565e-13], [-7.070072661620008, 5.182729270543301e-14], [-0.4829595982570792, 2.0403579129390808e-14], [51.30248865924469, -3.34448147879131e-14], [172.4790611475557, 4.644249392245173e-13], [-69.94825165114435, 8.382383655083067e-14], [-11.006916558381374, -1.0041139420330042e-13], [-5.505053792054413, 2.522321257106705e-14], [92.80438335909342, 2.746190996873867e-13], [-7.92757591835175, -8.811985867133098e-14], [-15.80232174880198, -1.1791424077371782e-15], [-9.440405564625983, -4.516641875189096e-14], [-0.9488887439272207, -3.025502784490993e-13], [-13.266109181718932, 8.545734982444662e-14], [-27.657367240635285, -2.600805748387737e-15], [-2.0372025083577405, 9.203382818739814e-14], [5.142018962373056, -2.991188857319887e-13], [29.29251568013947, 3.72871576088572e-15], [-29.762927982965063, 6.975234750915973e-14], [159.20027100024927, 2.417108427028089e-13], [16.970576447894757, -1.1384077847313764e-13], [22.532955522189084, -2.0824139441394563e-14], [6.905589601995532, 1.1182089206632234e-13], [-7.532022556457906, 2.38010811164199e-14], [20.792122182196184, 6.987007130417499e-14], [10.137277411816807, 9.932599331962655e-14]], [[-3.700221070434122, 2.4424826315870648e-11], [7.07265630934808, 1.0696090909543533e-11], [4.439950965935478, 2.0807679890408032e-11], [-23.84579580386805, 3.543499682171866e-11], [18.684796041228697, 2.667568136615668e-11], [-0.9571312105549171, -7.977472533347928e-12], [-13.36422198485743, 2.1712063960383947e-11], [-1.5288309612575564, 5.0307883724030917e-11], [9.339243471319037, 1.3342070137287903e-11], [-2.8989437513135847, -4.898378804773223e-11], [2.6442382270251628, 3.659150403681926e-11], [-34.661643236208704, 9.966672050703807e-12], [4.0071142908698745, 2.841804229509727e-11], [8.358465854341889, 4.1166113194323554e-11], [-0.14377365966498742, 4.7624535142555906e-11], [2.7414987677825207, 9.886519178287423e-12], [13.251058381629418, -5.386270283894532e-11], [25.503057696991668, -1.0780878562412945e-12], [29.804527480395894, -1.3880375258640415e-11], [0.7790014310280201, 2.099638077778946e-11], [-14.716876894053899, -1.6247224240853567e-11], [20.0040717595663, -4.0056370571470476e-11], [395.71846003650865, -2.1847314456235564e-10], [33.29309754150014, 5.106533187329762e-11], [-18.02516509291949, -3.058099781984019e-11], [-41.159504938835084, -5.286904280648138e-12], [75.11428230166088, -1.2113401243172194e-10], [-29.212108041124253, 1.03961470515522e-12], [3.600199549487622, -8.95737898398052e-12], [19.836018741383292, 1.6454869239786058e-11], [-52.35749168712057, 2.5118661939159725e-11], [-36.844366948861186, -2.3878032050801e-11], [-30.742789473425315, -2.297746413170631e-11], [-26.268028849116703, -4.62682967621193e-11], [8.923491656934061, -6.237255149812295e-11], [16.446225051368774, -8.317483880583357e-12], [-25.300504363589983, -2.1596972090929585e-11], [39.5861192762914, -9.930735139555045e-11], [-19.677547523876246, -3.435413125279698e-11], [13.47320842082731, -2.795473449063605e-11], [-8.503954305094643, 3.297171306177179e-11], [32.84826813888586, -1.398045441469712e-11], [-10.768802548932433, 1.5233219752209497e-11], [9.455527033791745, -5.6025007812017965e-11]], [[-19.73013777247871, 4.910264270126911e-37], [-26.84512541941314, 2.691858680908647e-37], [-11.64165959821799, 3.379375945248717e-38], [7.948209348450915, 7.117799283203157e-37], [-3.894592230255716, 5.370367801222593e-37], [-20.94654018195943, 2.537315610601023e-37], [9.972867882784376, 4.214264844548399e-37], [-15.735572425664769, 8.256743543900741e-37], [5.874615167355694, -3.157596243861849e-37], [14.682248172180367, -5.857122327859368e-37], [19.506601439022937, 4.985711730827082e-37], [-10.834711803866428, 6.7777918315302535e-37], [14.740569725784066, -9.102257343974099e-37], [-22.084094992755276, 7.580666150354222e-37], [-48.97446824878676, 3.3163321324763835e-37], [24.709798318431933, -3.286485624966444e-37], [15.216040292205095, 6.4203142272374196e-37], [1.5372073742888255, -5.450267335642587e-37], [9.29290202692906, -3.6604522796494696e-37], [-19.043465900247206, 3.079806141938692e-37], [-11.29033177692714, -1.4135145529500847e-37], [4.89844227391425, -2.8588236015981468e-37], [56.9383696844021, 3.607044244583186e-36], [-20.066781441359797, 6.251457520614762e-37], [35.37014559652914, 5.899962991246711e-37], [-8.653109909649196, -2.8570851336575616e-37], [-29.203166130047972, 2.041174793223085e-36], [-3.22366561393297, -2.7742975583723413e-37], [-17.944533996021384, 3.2464570761981876e-38], [-26.57698010099598, -3.7589120066824643e-37], [-37.098581128135486, 1.1028012135601657e-36], [-54.20113718144362, 6.755174447265945e-37], [-15.687520646949528, 9.866599859865817e-38], [-25.547755732191142, -4.7454240081153365e-37], [-10.631231946234264, 1.1129236667081731e-36], [-2.4298041312494782, -3.119132963719203e-38], [-53.77568787582942, 5.8673210312545575e-37], [1.122730016320007, 1.8502186221267585e-36], [8.835153618117188, 6.11166354255919e-37], [10.966504342952057, 2.508878844402832e-37], [-2.0148751796845032, 9.277932937979848e-37], [7.163121041415731, 2.581431432098164e-37], [14.712519839171765, 5.244425919903148e-37], [1.3868664338164922, -7.618701403512604e-37]], [[-8.203296006480544, -0.3516727224215092], [-6.8585642767937935, 0.2054747124404745], [-13.560071955617472, -0.24426707951521986], [1.9683247635439107, 0.47851886601640364], [2.613685470114089, 0.3461966988680029], [-10.26429906957901, -0.011364937565698566], [-26.54570677710066, 0.24314648587932786], [12.997211813196023, 0.5544123067347201], [-20.08921573907318, 0.19510185709771768], [14.679323049103138, 0.4425932155842465], [-10.028620966150187, -0.36324594756014855], [-1.3028010713660705, -0.3877790225689373], [-8.478086827808458, -0.47366848167218595], [16.91598291246033, -0.44178737910383353], [13.184953620794598, 0.36837505903068], [-7.183633890638133, 0.2648823412613247], [49.58228145707421, -0.48698816265073624], [6.293814416178167, 0.1658211290760592], [36.04632168679161, 0.13802442621614866], [-28.905251115386243, 0.37620147245871555], [1.330002600288343, -0.1413679564367591], [-0.3178219518453044, 0.29782793355584125], [-438.5052026342444, 2.5890899311401867], [16.077490373585867, 0.4177548097595541], [-12.30895619125228, -0.18851195522116876], [-7.012603549078099, 0.26072924825699534], [-106.22844277337975, 1.4579894653263636], [67.47648391595293, -0.010516715344865417], [14.989397158075258, -0.2362588446266762], [24.16182406343546, 0.18528738904802433], [26.070650480259218, -0.5097590113529193], [6.826397948561934, 0.4470674488564303], [-4.353213117011459, -0.06823499421431369], [-4.84021717091791, 0.48458917936214946], [-10.230640257063962, 0.5893260925152288], [8.732246371891865, 0.08985284526792152], [-2.2623539755301225, 0.3681353785058025], [-98.71176206238556, 1.2962016521477666], [6.7125807084048725, -0.47184250784412396], [0.0164602588562828, 0.2536529015998308], [4.419132422090037, 0.4125487106631327], [-19.7734891294037, 0.17699603445747697], [10.969260206333164, -0.22576104403103256], [-10.178989566372522, 0.5636169413646099]], [[26.844166715143636, -0.00011541171826141639], [-24.91744718954485, -6.647707054394325e-05], [-23.915590256054756, -6.894246232381257e-05], [-11.144204241296718, 0.00016917238939355848], [-6.1430516308404775, 0.00012190698100867715], [-3.1898477271800347, -3.4792961901653864e-05], [20.472121116805056, 0.00022605063826887232], [4.065511517339039, 0.00020718955730346305], [14.518243627657721, 5.218222860991972e-05], [4.796530771555036, 0.0001580680119494375], [-5.545079034384988, -0.00011658422948150263], [-39.850215062655195, -0.00012372607134856248], [17.57042206227934, -0.00017366124862877661], [-19.85985690000714, 0.00016187605411729182], [0.6931816718832448, 0.0001253436969148505], [-24.54237527897093, 8.521730507041981e-05], [37.77012933900681, -0.00018642789151370576], [-16.82230282755122, 3.886582440742888e-05], [11.205178595456335, -0.00011126926856838735], [13.730355274675535, -0.00012493968064892803], [4.66119937795103, 0.00010785856709278881], [7.517424508486763, 8.979117547227118e-05], [460.40403402974744, 0.0008552996772108824], [17.674146429026226, 0.00015980415331574567], [1.4508711511073142, 0.00012146786942449984], [7.807996811125052, -7.605301922914489e-05], [135.4863489179347, 0.0005230771427084893], [12.42852149988951, -3.674273768212554e-05], [13.417768334575898, -6.398900036515224e-05], [-2.099681103192692, 4.7846178321860915e-05], [-3.3827143548711462, 0.00021122850033389656], [-3.8713536728125884, 0.00016016444555531039], [12.102231485686046, 1.7993874035258786e-05], [8.596360246518657, -0.00018718636089507152], [15.337377066296547, -0.0002281015401816478], [21.98820565774338, 1.5112679327341078e-06], [0.2913512078754963, 0.00012854659384309712], [124.30242376289372, 0.000432826451509469], [-15.93065124213178, -0.0001659396144894942], [7.068593350469746, 7.028683796592321e-05], [-7.650885876530643, 0.0001350829557393548], [6.076210949885021, 3.456675304444437e-05], [7.6640803919313205, -6.472077357456976e-05], [-10.691751836830989, 0.00020452895646294676]], [[-21.254771801705722, 0.08620683803793869], [-3.9782028417693565, -0.03159495441858817], [9.09127344877669, 0.05970851614555925], [4.257149423620532, -0.11748285012610327], [16.98839557773322, -0.08498840888997247], [-5.393223968373334, 0.001856606056031218], [40.59967934098111, -0.05928001352767796], [14.793831826096095, -0.1362851372074103], [-12.047821307437657, -0.054670797118468784], [-10.179530117422141, -0.11372514619439786], [29.144137478762218, 0.08900406337131599], [8.353862545358105, 0.09500412861753818], [-0.5693055178985993, 0.11638792387904637], [7.364458778732832, 0.10427626614837973], [-3.961126980866337, -0.0903668806409747], [-4.366197733097716, -0.0649042993620863], [-39.765477482020536, 0.11301629487201556], [-5.249905082431173, -0.040411797323955334], [-16.02634410597693, -0.008206853771023669], [-38.034078314652504, -0.05799838739751076], [11.91293743872465, 0.03296207704746386], [-14.005135082468517, -0.07288589030112598], [-1246.7867927423888, -0.6347515588104323], [5.2457419042010045, -0.10274768678131609], [5.896091556699671, 0.04871754839865472], [31.793785271861825, -0.05814597874233323], [-233.19400747647876, -0.3580732046615333], [-28.68032467246899, 0.0017633208812903433], [-28.10923022330867, 0.057710253685302755], [17.918057662276727, -0.045222817517566447], [-42.603581740228954, 0.11502978653981233], [32.10203665652162, -0.10351057055885077], [34.20827001860253, 0.016116262003971246], [-28.08028691970051, -0.11445526195303901], [33.07649383400873, -0.0987953163170283], [-9.596201676997033, -0.021601563874637922], [-5.710468633633377, -0.09035816478086015], [-415.77019946373736, -0.31785160585462185], [-0.44767825132812555, 0.11583208117617469], [28.222040279267397, -0.06198142314335235], [15.139208302357494, -0.10112322911091046], [-8.104271709289405, -0.04306345313366462], [-21.574349661557736, 0.05520012710094488], [28.46186352211502, -0.1384554996164213]], [[32.8478398014118, -1.5446712872654938e-20], [-24.989298046190875, 6.699013650288303e-21], [-35.26949551627733, 3.0229819720073737e-21], [-13.33643049834901, 1.9131568645929194e-20], [-0.19938987196449087, 1.4004621478009655e-20], [33.43805774107248, 3.6371273066524506e-21], [0.5353404799746109, 1.7988876029377032e-20], [0.3423969883673994, 2.398454629341504e-20], [24.949186779421833, -1.0918347696113583e-20], [5.078942206698622, -1.7463796642195268e-20], [-13.912141452167692, 1.3615845993685478e-20], [21.833427562891043, -1.9011728431299592e-20], [-20.805600990932227, -2.3361044502768025e-20], [14.264846349630629, -1.979949733361502e-20], [6.961163598372136, -1.9349842810499658e-20], [-5.898545593764642, 1.0210942483170389e-20], [22.96155362028751, -1.662625560991393e-20], [-16.085311672398817, 1.4378420225651638e-20], [-21.815810285184465, 4.765271408811405e-21], [41.54923946133378, 1.7501101473779607e-20], [-20.64194512016329, -8.093019018894787e-21], [22.3245165143978, -1.101823517257332e-20], [-533.222688928305, 1.0770859474362925e-19], [-11.015233099382625, -1.6004973949527942e-20], [-48.15465581349037, -8.339170632453028e-21], [6.3107845804943405, -9.573083987567728e-21], [-212.66164531374633, 5.683831333496816e-20], [28.71915376529275, 2.9195408623412916e-22], [-22.002225475781593, 5.327783113040215e-21], [-62.66633076176125, 1.0922103906471862e-20], [-5.616501028158032, 2.4016932029384308e-20], [12.83093255011552, -1.876873064653714e-20], [-15.486665465112235, 6.131135702481568e-21], [10.500628033543943, 1.69674828625539e-20], [28.992307640673733, -2.79587748116054e-20], [12.372527044610296, -4.883070565174994e-21], [1.5900543327058096, 2.4804119805967822e-20], [-302.1686013139686, 5.435787363026982e-20], [-5.718253494420655, -1.8583957019790313e-20], [29.222798674880007, -9.919416763244951e-21], [-13.069995221523255, 2.2486581670686722e-20], [31.579927861579666, -9.927790500830431e-21], [-7.933049005871595, -1.86258101399802e-20], [9.17326903645159, -2.2004042136798013e-20]], [[17.228902801963624, 0.0861674975897734], [-45.44549655055875, -0.031618138213991925], [-4.567026566653285, 0.05968304958520334], [22.512693449582017, -0.11742736721969302], [-1.3025277243859688, -0.0849483568654345], [35.628241832703836, 0.0018507474555725639], [5.125151183544075, -0.05930663445488449], [6.348018117102284, -0.13621898863364557], [31.38069805650632, -0.05465131971999225], [18.245765110688478, -0.11367397882064417], [-10.195068144458384, 0.08896386611521705], [-18.57933818116171, 0.09496134019421554], [-25.705401443259387, 0.1163318611237075], [11.436058723893288, 0.10432803145130057], [-9.121329143670902, -0.09032498871057204], [10.579351593383786, -0.06487500201318504], [-8.844287926483227, 0.11295788418136934], [12.287812037781514, -0.04039587705084076], [20.53935182901833, -0.008233964532623372], [29.25165423892769, -0.0580410573145404], [-12.139874080968928, 0.032949463248574555], [-27.16317416075943, -0.07285394827524204], [-794.074277216899, -0.6344612448833813], [17.15357645325482, -0.10269723695155294], [27.836452255734013, 0.04874506269700192], [-14.199810061031545, -0.058173722187213395], [-150.05146928436824, -0.3579028373824395], [-15.291245556813864, 0.0017574105023257774], [10.90789808561674, 0.05768606921262408], [-9.223287197149958, -0.04520429033766529], [50.783938953356945, 0.11509359158130084], [-49.61173975718965, -0.10346074549689036], [-3.620514612168907, 0.016115320853841254], [-8.376819731176212, -0.1145145486484984], [-17.44649568019258, -0.0988668550507314], [-4.891180192931699, -0.021596203339397758], [3.5213154032975504, -0.09031574550204158], [-152.41568161345396, -0.31770550678196713], [-15.088760010325357, 0.11577746166665878], [12.036753453415063, -0.06195525249865451], [4.24116702070495, -0.10107719082709425], [32.41906773125072, -0.0430481469417544], [22.214035720056245, 0.055176421036049125], [-14.394163460205247, -0.13838926767427254]], [[12.549022824327144, 5.96565920747019e-17], [12.957948251338166, 8.330362399009507e-18], [-0.8950291060175983, 3.724912050277496e-17], [2.7210752848178137, -8.764239036130384e-17], [-2.002291000914837, 9.498063602094337e-17], [-28.800033304276937, -1.1677962057381258e-16], [-27.682149669917028, -4.3529247931387934e-17], [4.922852648597255, 2.6691773468813e-16], [-21.13103376641088, 3.196154312488146e-17], [-1.5077636576089906, 7.520940498679739e-17], [-4.397351025026409, 4.8822256945703974e-17], [23.29936631463485, 7.730077798083651e-17], [7.939535999514044, -1.40290669220214e-16], [-15.892086413866283, 1.1107596641676466e-16], [5.670221543823194, -4.1017226031958346e-17], [38.71216687193337, 2.842444280169537e-17], [-8.198073113586975, 9.09383999196362e-17], [27.406880412708375, 7.137530828774508e-17], [-23.171761473134758, -1.3248369268668042e-16], [-18.21290598155721, -3.9293838014040815e-17], [-21.34496962102655, -1.3679892005711268e-18], [3.105908730571039, -1.3775258847914673e-17], [-407.3599495819855, -4.024904386058963e-16], [25.84790742777559, 8.792816387895173e-17], [-0.5918766305125955, -1.4917988874626544e-16], [40.578846219379216, -5.403042248733126e-18], [-71.23659541742714, -2.660633822005082e-16], [-14.150457166179676, -7.2215856263337e-17], [-22.093102316085055, 1.3130598842379142e-17], [8.58482640363351, 3.587107977311693e-17], [33.33863130530758, -1.9559287582637855e-16], [-19.669931549793883, -1.929448398281317e-16], [19.09458012081766, 2.906472836863071e-17], [-13.151568275122893, -9.575495033485373e-17], [6.228416664139826, 3.120831621677974e-16], [-26.58454213606383, 2.7944358332777817e-17], [-32.37448804308347, -6.662901961737782e-17], [-112.10131470665443, -2.1613002118451002e-16], [-38.516179696907805, 7.973876422273487e-17], [0.06287185660951969, -2.5167470916250494e-18], [32.32886275719031, -1.1209184583621504e-16], [-15.930793891726244, -1.4829434104045753e-18], [6.699739032761783, -3.452563459092263e-17], [7.126993838892245, -9.465517507779463e-17]], [[-12.48125370485138, 1.7170374885192113e-13], [71.21399922411928, 1.2410041473291447e-13], [-16.17967321936545, -4.960619161691814e-13], [11.096804661167697, 2.7793894252602475e-13], [6.435534993898175, -2.165928866011182e-13], [-4.941205289903084, 8.084679748090933e-13], [22.59027381121716, -1.2770508713259348e-13], [-15.856776158899507, 6.995753458714348e-13], [-18.315898756246973, 3.040128255445483e-14], [2.1002174810240932, -2.36301005841927e-13], [-7.629214671067935, 6.702455598668301e-14], [1.1181922416607233, 2.2409331681904304e-13], [2.228538254330027, 7.167398382204495e-13], [-3.001979230843818, 3.83476263272218e-13], [-23.044247827688185, 1.0277065271174881e-13], [-18.1432767474128, -4.39454571549291e-14], [0.15710894354061344, -4.1834034866983926e-13], [-5.886275302699828, 2.578264103931445e-13], [27.00202308212772, 5.495824825480969e-13], [-16.65514896246868, -4.164478476314559e-14], [-15.32443538988307, -2.0022045328072886e-13], [9.51237729211573, 2.1050120577142076e-13], [-798.0992320193614, 7.678529978576076e-13], [-8.602863122757917, -1.887624992060964e-13], [-26.374985913779856, -1.190221028391197e-12], [-2.620247473465265, -1.9653865248792034e-13], [-70.05849592362482, 9.345923335647869e-13], [29.260660597165664, 7.035202910160661e-13], [22.956825064837403, 3.628275855562105e-13], [-33.17761220896031, 1.6269288613426178e-14], [7.408544585830178, -1.1868678961002568e-12], [-41.68064870551071, 2.8033227326898177e-13], [-5.043950675762535, -4.647114751376961e-13], [-11.962423966631334, 2.515604362831089e-13], [-15.915539814936025, 1.0202252380714399e-12], [-5.361410695119736, -1.5168666610277834e-13], [17.043550163817887, -1.9866638560194408e-13], [-40.34420417112495, 5.133683827319066e-13], [4.706688024770642, -1.7130077769017536e-13], [0.8216372912190617, 5.878888918607445e-14], [-4.983860696816118, 4.4142878618763896e-13], [-8.434745220983853, -2.685166073906208e-13], [9.001582963550327, 4.3316405084758556e-14], [-27.927372975707325, 3.0776538774385786e-13]], [[23.015282509935588, 1.2493703125370553e-37], [-26.257796570686192, 6.774040848530547e-38], [23.300002268518977, -1.8446778859303883e-38], [-0.4791148233967417, 1.8467297258583335e-37], [-4.835032213079876, 9.797629272256077e-38], [-6.8274578600319815, 1.689564070480239e-37], [9.6263753952867, 7.977056239750232e-38], [-27.57854330657391, 4.004520168100652e-37], [7.652136978359309, -1.7557635584111481e-37], [-17.61153382974626, -1.502122820478584e-37], [24.701762896302593, 1.2523197946178046e-37], [15.246395103775821, 1.7581791378794214e-37], [-1.3512051702351797, -2.4515574815812777e-37], [10.119719120503369, 1.5538896352628685e-37], [-12.148136635743306, 1.5448061176443917e-37], [1.5345018077560928, -1.9714182629717508e-37], [-11.814795279522876, 1.7222284285115815e-37], [-9.168368878568627, -1.4150273074108222e-37], [-0.7915660862448988, -2.5680646180263792e-37], [11.7975355994205, 7.026467046784687e-38], [22.579294218579694, -3.150018403776811e-38], [-2.4916888293858763, -4.350602878375945e-38], [-238.81758361608385, 9.062892139909518e-37], [15.089479372598499, 1.3074963000663786e-37], [27.62070165538574, 1.7070091724995028e-37], [-5.565374249449483, -6.350276812839615e-38], [-10.10795396247414, 5.299273879020622e-37], [-13.088152091360813, 6.940537891057346e-38], [5.683777986548227, 1.1004232905361785e-39], [17.401899427468862, -9.388481179938115e-38], [82.21335246207006, 3.116470676472097e-37], [32.0985578989641, 1.7581085285945034e-37], [37.54662313148819, 9.960477565153165e-39], [0.08610809519551922, -4.57057337658967e-37], [-25.62697446714941, 3.059347900958098e-37], [-12.472773414651313, 1.0448394684002846e-38], [10.978647196123259, 1.5299803276770765e-37], [-17.608520450575245, 4.689542228981829e-37], [-1.1992322097306847, 1.5700000674337895e-37], [-4.607129701891798, -1.209220166237701e-38], [5.250742441220133, 3.753175740621555e-38], [26.975294566947216, 6.018352405690911e-38], [-24.93714050387191, -1.5770024685932023e-37], [23.3904565594427, -1.9537514547932222e-37]], [[-20.908451947909967, 0.08616749604895342], [-24.415229538640478, -0.031618136061671374], [-6.088283784620631, 0.059683048363419054], [-5.04626227357676, -0.11742736551805086], [-11.839025737618408, -0.08494835566929493], [5.076758471877291, 0.0018507481167271645], [19.110438476090955, -0.05930663562710152], [20.627398803594858, -0.13621898673555694], [14.424900472020505, -0.05465131902707901], [3.7315801774285764, -0.11367397595761926], [6.355933211684753, 0.08896386451459393], [-1.2970342791790297, 0.09496133852175431], [12.322515189537073, 0.116331865676662], [4.668055084369232, 0.1043280329221905], [-3.0210912935743446, -0.09032498739149677], [-17.994973689323196, -0.06487500106253202], [-10.384076093017502, 0.1129578887512098], [-14.204766317157796, -0.04039587647033029], [9.522638396123499, -0.008233965021279772], [-0.9442565162479162, -0.05804105944161103], [8.48144707294735, 0.032949462445884516], [17.801347794094074, -0.07285394707786173], [-255.39668839968553, -0.6344612167651903], [-1.0765166163977986, -0.10269723556469573], [21.603781827815325, 0.04874506177838484], [-25.842371768130672, -0.058173723430260636], [-57.16188754353568, -0.3579028223615274], [16.126842759558105, 0.001757411203246283], [-24.94371696295844, 0.05768606808623335], [1.752961196806895, -0.04520428924311682], [29.16635978012559, 0.11509359606200315], [-31.359729234955598, -0.10346075014594636], [5.465724256364745, 0.01611532122442326], [5.113803852901224, -0.11451455192444165], [5.501384376304084, -0.09886684940416411], [16.2408234095537, -0.02159620291598004], [11.35061497229743, -0.09031574803955181], [-57.68194969590628, -0.3177054928174354], [20.27921154799672, 0.115777459764164], [3.502337210541761, -0.06195525147377378], [-22.75843375140622, -0.101077189344038], [-11.649347866228693, -0.04304814620909925], [-0.05904462703692618, 0.05517641997918963], [6.937110199673854, -0.13838926557827666]], [[-28.41067796563769, 0.4371582429875234], [-10.507678229075696, -0.1545554755409566], [-25.84828635328274, 0.30179015070514614], [12.411807996644662, -0.5968491498698038], [-23.57106115054293, -0.4317264786464356], [-5.8488202130122975, 0.00679936732880064], [-19.743119172668298, -0.3009817694076373], [-2.5294605426036916, -0.6933567597544837], [-10.321568796520108, -0.2613555393852032], [13.303933185967706, -0.552672681281914], [2.6464808218929283, 0.4511112108712727], [-5.3737771476444385, 0.48145787296605036], [-2.8066852036608987, 0.5918227828813807], [5.286037753240475, 0.551914901656156], [15.447140140152078, -0.45866174988117553], [12.229402400651932, -0.32899320526487885], [37.86641055403594, 0.610202611242687], [-4.060584138579732, -0.20356519831557898], [0.36933362064585057, -0.05548415162448994], [2.635422878414464, -0.28337935303783723], [-33.81557025485206, 0.17180261362006724], [-4.435130211276163, -0.3689173658388657], [-608.3085844817273, -3.2194047589951698], [20.261693156606114, -0.5230600272529597], [12.19019167692032, 0.24436837329204183], [-2.304405287305617, -0.2870918735733551], [-104.35947398040672, -1.8197814397152234], [-20.975053762475735, 0.00636423880077229], [7.283256685428762, 0.2914511648183142], [37.010908798715505, -0.2281915874309221], [-16.068084412147392, 0.5622313732591238], [8.124330434155343, -0.5580823764051488], [-8.676608354244236, 0.07815124177768913], [20.122614062448726, -0.6071089071742876], [17.444211739050466, -0.43876684650800446], [18.85598059020684, -0.1070780377854878], [-12.933490017312543, -0.4589098173902423], [-131.48505359919565, -1.6125283989505044], [29.640032237675506, 0.5883718129046396], [-20.441951411808247, -0.31317688869240934], [8.10784438694217, -0.5127879181561616], [12.057803016458786, -0.2160227480141558], [-23.78886984761463, 0.2790912457034455], [-22.748230742593776, -0.7038607035348189]], [[24.770921951442023, 0.27532486008650414], [5.015180908749269, -0.08516635420023638], [12.456043331627761, 0.1891000764817998], [-9.458083604347678, -0.3769607518347284], [39.13338133344604, -0.2726320115291965], [-16.900504473801423, 0.0009793644593344177], [12.896232279475988, -0.18890289034879137], [-17.93674215242166, -0.4388732217962254], [11.740882615189166, -0.15062966134352218], [-1.559911140215998, -0.34948199031239124], [15.40424600618896, 0.2838864555592184], [2.183634630488437, 0.30292105735243635], [5.13224721878259, 0.3743080132568136], [-6.324545579945179, 0.3490870521019707], [-15.539378591251449, -0.28926532604293786], [11.694196711503867, -0.20706621659389665], [4.568491208878425, 0.3869330868662454], [40.52775861150553, -0.12687604813433676], [48.79521521350507, -0.0444307857103228], [3.599227292257687, -0.15591084066175448], [28.47914854466987, 0.10620597021191497], [-14.50720718169239, -0.23167367838938474], [-1443.7862953302815, -2.0281406487185825], [0.9885354378743179, -0.33139802501385307], [-5.206341320568164, 0.15910129530878403], [14.530013341975055, -0.2025772839426994], [-351.69896968975087, -1.1499874557864151], [1.7379242243868136, 0.0005637829680131684], [11.368066608484108, 0.18238795603522479], [60.246325829840785, -0.14260966121793572], [13.297801954188872, 0.40700607541087336], [-28.452819062900222, -0.3526210751002225], [-26.510033895588442, 0.04573472846567937], [8.00361828165732, -0.3847738395458617], [-6.329588059575339, -0.23787514936296927], [-24.179603042341288, -0.06503568185492624], [3.4405161870163687, -0.28970649423057415], [-394.45921889358095, -1.016252877163066], [-35.214327950598076, 0.371518237690894], [-0.8797056142897939, -0.19613561028997312], [-2.62023595220829, -0.3229451157085809], [19.35764853760536, -0.1340114602335551], [18.224586126081288, 0.17496339677970346], [-7.666529155656205, -0.4449991893108032]], [[-15.616969140282933, 0.08616750422608718], [35.310001436378016, -0.031618132604027696], [-13.07019842435388, 0.05968305312404011], [-1.621371356772362, -0.11742737765552105], [20.31755919124198, -0.08494836441746693], [17.443504040512316, 0.0018507481245226588], [-13.2339556330258, -0.059306639274189], [11.453387028032449, -0.1362190016986199], [6.45452538876532, -0.05465132265377197], [-4.41691583694667, -0.11367398731097839], [-31.877024835272103, 0.08896387275395663], [-16.224406575876053, 0.09496134726085491], [27.592455212975985, 0.11633188227009343], [5.008211145901962, 0.1043280212341714], [-19.03301903710172, -0.09032499633925929], [-4.724168394406872, -0.06487500711132899], [-22.442912977196524, 0.1129578943387945], [20.642194183918093, -0.04039587911621459], [3.5456069676319015, -0.008233956521376672], [15.756975783325343, -0.05804105058497187], [6.990174213178931, 0.03294945992080677], [2.1786171584822185, -0.07285395338545955], [-899.3244822516881, -0.6344612775293638], [11.364179516027926, -0.10269724713474283], [-5.107336854596819, 0.04874507106779805], [-20.288987406746415, -0.05817371810218351], [-159.13629483960372, -0.3579028599040265], [-25.288325527408173, 0.0017574142225450142], [5.684623663707266, 0.05768607248561618], [26.37142460619593, -0.045204292513299715], [12.34649873368674, 0.11509359755985227], [15.870677804644718, -0.10346074148773665], [24.249642812466632, 0.016115323003137318], [-18.240865195547045, -0.11451453838911345], [-6.514538390335451, -0.09886684251681009], [-10.963296441749549, -0.021596202776360596], [-11.731468806324802, -0.09031575732876965], [-218.0360925699758, -0.3177055236076118], [15.927339011522026, 0.11577747163072538], [-1.0545254823832837, -0.06195525635323601], [-0.7223097379700978, -0.10107719895275256], [2.5830036229033047, -0.04304815128559583], [10.674702034791926, 0.055176424476792066], [6.299010393168313, -0.13838928029357153]], [[-22.864716976503964, 6.731736399796443e-16], [-44.143531371764404, 1.6611656178903667e-16], [-2.8597516933476705, 2.1301233166155116e-16], [10.18125995796811, -9.47108475597565e-16], [21.619763290559163, 7.017189389043431e-16], [-31.358364132242613, -9.386474994690109e-16], [4.220614714570214, -5.053262020564161e-16], [2.991771554007848, -2.751942449821252e-15], [-23.525282271788676, 4.0159276768292953e-16], [-20.564448589836825, 8.189105346454756e-16], [31.168213063841044, -8.802148789327345e-16], [7.695408003378654, 8.906953645922576e-16], [55.50694876688434, -1.3823071377374547e-15], [-24.7916292154053, 1.125207246909987e-15], [-7.982051359019432, 7.704628639218211e-16], [-24.483131530326588, 3.7876007626350767e-16], [-35.200263339311, 9.239456125072456e-16], [-35.304317465524555, 7.60300616455615e-16], [-20.822734654858287, -1.0631586935522128e-15], [8.603254443366623, -4.755812820704716e-16], [3.3740702649382452, 1.2881860494517988e-16], [-2.522628493577685, 3.667084812237715e-16], [-618.5174136807263, -4.638037649300569e-15], [-22.708082404864992, 9.032442045590227e-16], [1.2010680574445902, 2.207850203102079e-15], [12.831996113268938, -1.9759070953541407e-16], [-110.29550174047316, -2.8452600961634645e-15], [-12.543305089967065, -5.297150150067422e-16], [2.4664037058486, -1.2887846627583777e-18], [3.3083461823957374, 4.431471769552345e-16], [-25.59099146880703, -1.8179558720647827e-15], [-26.421876011390786, -5.902500056669346e-16], [-13.763218240570216, 1.24373901847597e-16], [3.9520181918920128, -9.736271404041545e-16], [1.7136890200060735, -3.272947947094823e-15], [-22.95144463041483, -3.155428169674022e-16], [12.536258742390952, 1.1506344285963255e-15], [-163.40268442740054, -2.4382022494965115e-15], [-12.254643457131905, 8.727912675325083e-16], [-5.823991649176339, -1.251600672575788e-16], [11.119839287512917, -1.1715771137768295e-15], [-17.258532156532524, 1.3729152032069087e-16], [5.248814908797952, -3.7481135770763393e-16], [-7.556889110820492, -1.0226364005414142e-15]], [[5.866247722763923, 0.1723349873846774], [-14.099164282002729, -0.06323627758697795], [-11.448395714629699, 0.11936609268625052], [8.507216418721196, -0.23485472536169016], [21.747248443053426, -0.1698967072212328], [-25.71002824600428, 0.00370149950608405], [-15.473155411697716, -0.11861327525024765], [42.58642020697543, -0.27243796762548395], [-22.468345975452383, -0.10930263488050804], [-14.78250106272955, -0.22734794714353268], [-20.94565159663075, 0.17792772399517265], [-8.174910937488807, 0.18992267159879608], [6.3539667723749735, 0.23266372614410216], [-11.53167900172046, 0.20865607045116902], [-3.637332091478843, -0.18064997009605865], [-19.440603506384917, -0.12974999847957763], [30.97005464015759, 0.22591578171484333], [-6.691350198665478, -0.08079174975794451], [-28.22294204495036, -0.01646792804895293], [-35.421751438344984, -0.11608212403128104], [-22.76265677869023, 0.06589892140313305], [-17.452900852024573, -0.1457078897337401], [-1623.307928132463, -1.268922399554484], [28.603420422111093, -0.2053944669573033], [10.897936859987956, 0.09749012487931592], [11.052553963217262, -0.11634745120848244], [-307.8173779226234, -0.715805628310807], [-1.6137282477121104, 0.0035148249588359305], [-5.660827688690348, 0.11537213207021876], [-67.76491207610046, -0.09040857516120657], [-33.29463677758902, 0.23018719585563321], [-0.9589717032508431, -0.20692147245217757], [9.02595080125625, 0.032230645729362], [29.717549747035523, -0.22902910885929958], [19.259542406879543, -0.19773369357713116], [5.061081237993903, -0.04319240284169728], [17.196795926172523, -0.1806314918171949], [-318.88500121136906, -0.6354109689237424], [-29.556813842599126, 0.23155491381256943], [2.6154841202024617, -0.12391049876477636], [24.897160033295226, -0.20215437311989184], [-26.30329226497402, -0.08609628852656272], [-9.102148099966536, 0.11035283630131781], [44.82694071262073, -0.27677852500479605]], [[12.0361090202138, 1.4622271302871081e-10], [-1.5315520467703359, 6.405511244998755e-11], [-6.539582219637952, 1.2541489838899299e-10], [-15.197660693912956, 2.121717061332107e-10], [1.8435170761681314, 1.604438033511627e-10], [13.955141377158952, -4.8725890954695495e-11], [5.511987525884654, 1.3035806913511793e-10], [-15.4385319706619, 3.0086109129862856e-10], [-1.2799129128600786, 8.009078665705579e-11], [8.627392399270649, -2.9352813101736036e-10], [-13.14475746964195, 2.1940364853110594e-10], [-9.98556303444608, 5.964275625609675e-11], [12.590824271240328, 1.695132377555217e-10], [-2.2696985184938225, 2.464130262306347e-10], [-12.13934482249912, 2.8569311229595086e-10], [1.0257628855160907, 5.944155065185664e-11], [-8.354614679575592, -3.2259124714764923e-10], [-34.530561507328954, -6.6749817941407515e-12], [21.789711455280475, -8.413914849504019e-11], [-5.754635497762589, 1.2596288897360788e-10], [-13.152049738405184, -9.7272651353439e-11], [2.9757773036561916, -2.4054258961259806e-10], [-533.7927411731442, -1.3123095975768289e-09], [-18.29217157800877, 3.065095883798322e-10], [-8.331812716282922, -1.8196003603075634e-10], [18.1075539381461, -3.1522612354499005e-11], [-3.887269273788391, -7.282352153931852e-10], [39.87714269009799, 5.515800524915029e-12], [23.58904629229621, -5.416616904181035e-11], [-21.153218423828804, 9.876568997097826e-11], [2.278297443128398, 1.5243645479809968e-10], [19.14696561169219, -1.4370148501035545e-10], [-33.7738853264132, -1.373186001398091e-10], [12.936976339243895, -2.7801742325561836e-10], [4.755181680115451, -3.7510352778204587e-10], [-3.9010807754171033, -4.9733588014852024e-11], [15.96492534499008, -1.294340545669061e-10], [-5.883108008236419, -5.967424454676848e-10], [0.7107195390901201, -2.0580232193706777e-10], [20.567231469574764, -1.677729571407917e-10], [-17.604827739186064, 1.97176409783764e-10], [10.220175647609508, -8.359699643095725e-11], [-0.30473138707802927, 9.126920664994407e-11], [19.113424460619992, -3.366323106165506e-10]], [[28.73714456695316, 1.2582395399418863e-13], [45.804581145853966, -4.1810921894527144e-14], [20.950460650152404, -3.37560038912277e-13], [-17.31339027906227, 9.995370097956271e-14], [5.592444172475771, -1.31790294294279e-13], [45.35069038517237, 5.223733226251116e-13], [-0.8135304782539704, -7.682325984014032e-14], [-8.31917474225017, 3.5046822195241187e-13], [10.660566686700198, -7.334633621602234e-14], [30.43209652788178, -8.015884701843025e-14], [-35.66565014756806, -2.1657474139641137e-14], [0.2576565536017245, 8.676918287993092e-15], [-6.6269429466943555, 3.7197266257951435e-13], [47.95698342650139, 1.6257237854202935e-13], [52.04908102058894, -4.438203231361354e-15], [44.30145243210401, 2.8968060914528944e-14], [3.0297770997023776, -1.6589968808719282e-13], [6.137981734092943, 5.3561989377703423e-14], [21.481418997880787, -7.606657422867537e-14], [-14.819652333281388, -2.7313235246770857e-14], [53.93725014458065, -1.6441702886655967e-13], [17.137972200976666, 1.8945624209122962e-13], [-356.3818370243559, 2.738360730730731e-14], [5.6314028024153115, -1.0394575849690222e-14], [-26.32234061059767, -7.469070950964559e-13], [-20.881992647725426, -1.7052454679835984e-13], [-180.58785751325138, 3.6250322270634303e-13], [5.5463538837422695, 4.230309386004418e-13], [4.160295861779627, 2.7261373298861745e-13], [31.9176458174948, -6.915501223598566e-14], [12.778631771031582, -7.11146994230646e-13], [-27.048625216271734, 1.4289555475234738e-13], [-37.93204100961145, -3.32170507997127e-13], [33.44183857395636, 8.494910644342806e-14], [-4.7463048337745555, 9.408262115270436e-14], [47.70413822944634, 1.1262723572929066e-13], [42.32325866229623, -1.2916715538872978e-14], [-93.52840665042795, 9.61564675893289e-14], [4.105300101150016, -6.06042567432782e-14], [-12.30417009460385, 1.6328217198241024e-13], [-28.330268448596385, 1.9139094942488067e-13], [28.11307113351591, 5.460322998436359e-14], [-0.8618254505426777, -1.0653717444874044e-14], [-33.13167966403429, 1.66940297614095e-13]], [[13.415292690038749, 1.5209730447295953e-09], [-3.9639344984352167, -2.1902364537463533e-09], [1.197677027549406, 1.3500457846374855e-09], [9.24841862558235, -1.805605545169652e-09], [9.971237045600695, -1.2767105645418422e-09], [-5.594314686497054, -4.3626621703395847e-10], [4.931549188311256, 1.1173624538417354e-09], [0.04887463019915358, -2.105199095230309e-09], [4.300117182025034, -6.546047455239217e-10], [6.988880365494441, -2.8784978415387473e-09], [-23.161991542131005, 1.5686607157011222e-09], [-7.334923524403077, 1.6675198279542793e-09], [-15.731190011957507, -4.4400556426074214e-09], [-4.153969637699918, -1.6274417044467634e-09], [-0.6630131250941821, -1.3668315181028274e-09], [-0.026988866861248094, -9.543710613017615e-10], [-1.3667814342031417, -4.335212164983277e-09], [4.16520366220515, -6.515225795838884e-10], [-13.09659845100285, 8.007898155807631e-10], [-9.556934640210105, 2.0986762245418628e-09], [-23.138305020260834, 9.489406957211833e-10], [19.381445917843443, -1.0875498330960327e-09], [-2633.2646252299905, -2.7821210486873177e-08], [-7.64184725625771, -1.5577063731558133e-09], [-20.31449982740593, 1.217683080676e-09], [-15.519538243526936, 1.3685491027592943e-09], [-548.7948564754307, -1.4636311394839271e-08], [11.644374143486019, -4.986345616138735e-10], [8.133169556984468, 1.0621506595290933e-09], [-28.43639771019818, -1.0393375189693656e-09], [-9.129455550310677, -4.205829664086041e-09], [30.720113098348953, 4.603596770229317e-09], [16.56950996775817, -5.311927111139025e-10], [47.3737486625996, 3.474499786233717e-09], [20.56219746835119, -5.351904462913109e-09], [17.85392920602538, -2.628419954596467e-10], [11.836688585847137, 2.623711255393588e-09], [-654.7298960164711, -1.3796184304819772e-08], [16.62689856740783, 1.9971202389941724e-09], [19.721255673950452, -9.125519211732233e-10], [-15.268402825491746, -1.5467215788272058e-09], [4.492391262615075, -8.612965513212097e-10], [-19.729084232594232, 1.020022970633118e-09], [15.925865985513221, -2.1428190023376066e-09]], [[39.45822049548302, -0.01682423970864938], [-0.19235643651114706, -0.009689201951525605], [-1.0800574643107028, -0.010052281560381024], [3.163391463549526, 0.02468113347580324], [-9.801099410978617, 0.0177887389367216], [7.394314706076318, 0.004573050703140714], [-3.6037107435775737, 0.010982889649388152], [-20.273082733839637, 0.03021908112454072], [-5.416550261000923, -0.013323248526610728], [-24.54316712553242, 0.008462296974196232], [-7.646515435329389, -0.01699680344697352], [2.0213047255828474, -0.018039117389136293], [17.657990747456417, -0.025314867851494977], [19.953676764389048, -0.03610074030290257], [18.674379134985447, 0.01829229366480359], [13.761926918099652, 0.012442623281649991], [-7.5572470976964246, -0.048061846066639685], [9.80422711962672, 0.005689367662636327], [-14.357634814388462, 0.01972838273933581], [-18.385892714344543, -0.018214368992785515], [19.03454549119498, -0.007358534733396375], [1.4171115556111846, 0.013113451090676733], [-2750.1929916539275, 0.12477068333264361], [5.028799490324817, 0.023308424974044818], [32.38721309848471, -0.012853316645273814], [3.8277089708361887, 0.028054413373999054], [-554.6634534632486, 0.07628650198612426], [8.139469436684337, 0.004708596553539726], [-32.29958431454435, -0.009331070363586463], [-5.767798507305829, 0.006997833231746613], [5.5501519155484065, -0.06172284650288823], [12.214283213071726, 0.042250471421337026], [0.3184807254405541, 0.0026106782566240254], [-6.786106127573501, 0.04122769579121642], [-26.821069635591904, -0.05872837524982205], [19.205187528478433, 0.0002476771712260728], [-6.480093214172507, 0.018761180463557358], [-674.6903821705789, 0.06314322705996259], [1.2187698544434955, -0.024188311452085616], [-17.87521426400791, 0.010271258773089393], [11.685302858318918, 0.01971573393961963], [13.563412198931694, 0.004870603796144842], [29.26682805955779, -0.009435380450288116], [0.5636716509588477, 0.029834288016267828]], [[-14.170524450927337, -3.934046808300007e-05], [7.590342673050215, -2.3183833336219734e-05], [-7.633329560870374, -2.5466431857242878e-05], [10.699473737338138, 5.5482802412278504e-05], [18.753302653099645, 4.0051944049207616e-05], [14.137308740707713, -5.858376028385831e-06], [30.768859240156203, -2.6620981996784594e-05], [3.925463480978582, 6.614836647397111e-05], [11.478919930194817, 1.9477436816111548e-05], [-1.3708252947593071, 5.116735830767983e-05], [12.603800647286358, -4.019728802561735e-05], [-7.38430774780603, -4.278842833177139e-05], [7.991025828580034, -5.6062642635947914e-05], [18.526843956516817, 5.1765146283636785e-05], [4.473425846453187, 4.189188258059436e-05], [43.376891371310315, 2.929734519614451e-05], [9.201441504249075, -5.8410455925913476e-05], [-12.622137423178561, 1.592020201250177e-05], [5.436096059864969, -2.7110449536102488e-05], [-11.044018454785178, -4.266994540877004e-05], [7.552446494864725, -1.2613652532431054e-05], [-14.315354188349596, 3.194213558584166e-05], [-2252.3062471910325, 0.0002903142241499986], [18.613872672760476, 5.044965896940144e-05], [38.03238248091791, 2.7514597850454897e-05], [-2.413047803103861, -2.7743319264134886e-05], [-484.5671380715918, 0.00017036766354743498], [-13.077339531464885, -5.910176958217392e-06], [-29.320329390095548, -2.4184537097682604e-05], [-20.843470370801857, 1.8527235125710443e-05], [15.282628119749598, 6.380531685594376e-05], [-14.309645588073357, 4.982501645093138e-05], [16.324917983134007, -9.41310533228982e-07], [13.86242189737776, -5.92864969152459e-05], [14.437995444544061, -7.15384392073444e-05], [4.94306668338164, 5.360695802661096e-06], [30.97259183543382, 4.2419365080416746e-05], [-603.5608659472242, 0.00014609924101247355], [13.763659060317734, -5.4619414870741114e-05], [10.816322824480038, 2.6170756948769776e-05], [-0.7535609530132809, 