[[[[-2.9216635930496895, -4.490666393308662], [4.030808261372354, 1.9819158716595162], [-5.676726959653674, 2.4836280195588163], [-3.0835641398682467, 4.304217444196462], [32.32058095851726, 6.69531640993859], [52.263862705192, 10.607954946803645], [5.03568729555724, 3.4111025031737996], [-6.817404549895498, 6.540982592641923], [16.430976226353394, 6.430747266510668], [9.855224902005776, 3.7692273451463727], [49.305845175127125, 4.426517962128857], [-2.5141232986909605, -6.174154480809475], [27.920067173402842, -0.5627549658808944], [1.0705460764466883, 5.633805654971901], [-0.5675090974835904, -5.981166969482951], [27.465816217006847, 12.115772036726959], [11.578980770799046, -2.512654563828336], [5.741085540377924, -3.3351482098315106], [21.738554474570662, 6.026150464618031], [39.203282070672586, 1.5940957357436871], [14.066983828029228, -2.5186403290254145], [7.097954602377953, 10.867811941232127], [12405.768608237046, 10.473360630762674], [-29.33176346304948, -2.2092401565146824], [16.936290182959095, 5.764062962354387], [-15.226942121544361, -4.563665290654658], [3644.541907769329, -1.54701454957525], [29.20842818231602, 6.579769555988975], [27.828166338358912, -0.07203548614590738], [-20.33157794237399, 2.078573174966845], [22.59795584418142, -7.119713078083832], [11.405573961767303, 2.820361628665932], [-9.134894535037635, -3.4273010080759696], [-7.570663665916872, -0.6487120455100842], [-19.673879537792217, 0.29684251163368275], [-20.73274506434822, -7.136165947795316], [0.6523547285521483, 6.435023556088401], [4207.518462855898, 4.55792159257037], [-11.565180812154999, -0.19797465421033117], [-15.962940408133946, 3.0662253632170966], [30.55669524112976, -1.841866454256929], [16.331703570036808, 3.7771825673739783], [-13.739139251429153, -2.700579970733825], [-15.086126970545328, -0.9496720076341212]], [[11.275587515268887, 1.2300046050040953e-23], [-32.59057268703179, 1.0631401511873681e-24], [-14.647069544347687, 2.780086599446195e-23], [-18.65396124964328, -5.954772878232287e-24], [3.0032038344084246, 8.930887424484061e-24], [7.267190044716745, -6.11972363739318e-23], [7.950614651372923, 2.0909641567188544e-23], [-18.761299613878737, -1.3552732025430083e-24], [2.4283651064639358, -2.5809020533741652e-23], [-2.1737556947371646, -4.879847814840535e-24], [-7.652722873238413, 5.173591395083775e-23], [-18.504763193709547, -2.086931308148481e-23], [-1.8006791301527802, 4.913026294339466e-24], [11.321012624720556, 2.965920349543204e-23], [14.914666161964591, 1.9298608846393888e-23], [-6.670597830210778, -1.6203539464815803e-23], [51.25291832330398, -2.846213645180171e-23], [9.041508530872516, 9.075288273572107e-24], [3.3003757262086437, -3.91990692641829e-23], [12.539542258308861, 1.1407848506733997e-23], [-2.361414371405508, 8.202184062061627e-24], [1.2634068576257078, -2.6402492638287225e-23], [5070.329988661096, 4.038701002997076e-23], [27.84967313382562, 2.0693123504311075e-23], [11.115666927482147, -2.8342682782871526e-23], [-16.439575243362917, -9.227023265990124e-25], [1436.5528375527986, -2.845433231160016e-23], [33.685842433115994, -2.7748800485596454e-23], [32.467783573048166, -1.7395231348542203e-23], [-27.356631655085145, 5.127428959701466e-24], [37.294054519621426, 4.584748156271329e-23], [-1.5847184941745025, 3.981029829133541e-24], [14.150662739861541, -1.1976656629451458e-23], [-32.170368931774476, -3.2696833253973215e-23], [32.52388384473199, -3.514389296531237e-23], [-12.942253096878849, 2.4985203804732052e-23], [-27.86533817480919, 1.1220804961369103e-23], [1733.578661007726, 8.405814243072332e-25], [34.74190877365134, 2.466622786036797e-23], [6.725085503345486, -3.462690213415886e-23], [12.741879419276781, 4.846577297952488e-24], [-18.99493041392991, 2.23884058083183e-23], [-6.9314639291422155, 2.5184399858603303e-23], [-7.179819299137675, 2.0398490035737914e-23]], [[4.9376104514084815, 3.807545151936987e-08], [1.6544902022086585, -5.008706430853158e-09], [23.736580139312128, 3.560996666832636e-08], [-19.23068579726546, -3.210600973134691e-08], [11.948733903168899, 3.056991946728153e-08], [45.04483807715389, 8.358610780889358e-08], [-18.990966740561962, 3.470882921617358e-08], [10.355742190796501, 1.6129456824906767e-10], [1.198120242481614, -6.9707070420179686e-09], [-10.815326615227415, 4.080623852738504e-09], [-24.369602337390194, 8.416964133724044e-08], [-5.041359995355135, -6.873368683351613e-08], [-21.059599080795994, -1.8108635613392793e-09], [-0.7711462239195819, -6.643332290288322e-08], [13.56857061040956, -2.3327603157200856e-08], [-6.278161935720443, 2.91090648116165e-08], [-21.392649320327465, -3.2907385553208175e-08], [0.32162671954666777, -3.950760436951831e-09], [22.435886436497096, 7.911794582332223e-08], [6.311055380527185, -2.049562267175217e-08], [-1.067786890699063, -2.445324907481109e-08], [-15.65090051451948, -2.8668309534336195e-08], [8683.478084024107, -2.1767944889611793e-08], [-18.203968044656502, 4.073698034522995e-09], [-48.814629109586896, -3.1169417628345183e-08], [2.4423885344530243, -4.2354526521660005e-09], [2528.2953663098515, 5.947801391121126e-08], [-40.75926515006804, -2.4639119864992443e-09], [4.503288163099845, 2.4071578600823124e-08], [26.15747892633996, 8.449558033191298e-09], [37.66485957835595, -1.7474685780397594e-07], [23.1458814031973, 1.552080263023356e-10], [14.184223791581253, 4.139740114295916e-08], [-16.238928122391044, 5.83459097281871e-09], [-37.190064106073436, 1.5866893037610647e-08], [-3.682058908546113, -3.445239762209003e-08], [0.1950472578896275, -5.3707447137141324e-08], [2863.2904024299773, 1.8535886782025006e-08], [18.61872626785813, -4.0908232533352565e-08], [-44.85075203485146, -5.252457554303842e-08], [1.1435888372348242, -3.6890466980777323e-09], [-2.587235619488245, 7.332108317995072e-08], [-12.164415474608669, -2.8453058556403246e-08], [-7.896531864821742, -7.477569311826214e-09]], [[15.339925989844232, 1.46553185737328e-10], [-13.295705592230206, 2.8080698982390744e-11], [-26.502834963983513, -2.0138106248886954e-10], [20.212743766304243, 9.099936368693307e-11], [32.54251790621176, 1.6442668101768966e-10], [27.89783882998699, 4.723075064654447e-10], [-17.125541873114166, 2.359217588153286e-10], [-2.8162059677651166, 9.301927756188664e-12], [-26.889270217196998, -1.8227632510634527e-10], [-3.900146136623453, 3.0405919527343096e-11], [15.01691435167459, 3.5373724778225026e-10], [10.065735475037824, -5.325314358367863e-10], [5.567172993384563, -1.9713085386596275e-11], [-4.315911497498467, 2.557783107531565e-10], [16.28628768854345, -1.20492963213355e-10], [2.5647757222810053, 2.0474115450089936e-10], [12.560765066042118, -2.377061595043945e-10], [-13.782132002838786, -1.0978454297947072e-10], [-35.81086271985286, -1.88658553601403e-10], [-9.22018012069401, -9.572366269187327e-12], [-3.0350221048105923, 1.2070603715222465e-10], [-2.071387540349694, -1.7635036082741426e-10], [13792.931864872748, -1.5459986860900626e-11], [2.56295310737641, -2.4539595818214725e-10], [23.013551517361684, -6.146401672506466e-10], [7.48354663930437, 8.409887592173472e-12], [4119.764582479554, 4.6251137657168914e-10], [-2.0083623475109085, -1.2566547675177094e-10], [-4.591031922113692, 1.3969339627876437e-10], [7.917347495788167, 6.857668092269147e-11], [20.146179808436223, 8.140729520095697e-10], [33.679896530615956, -1.702353139455456e-11], [2.1771731358652353, -1.0081536081026326e-10], [32.15740425930186, 5.643539874280513e-10], [20.16054056715789, 1.1188183176101406e-10], [7.844762304267333, -3.155802721594716e-10], [16.36728800393363, 2.0678162165254325e-10], [4836.787239641848, 1.9407977044173619e-10], [4.728012555802206, -2.4770108582765423e-10], [-1.210660242596271, 4.3551514238307945e-11], [-0.8522184753638915, -9.807197382274867e-11], [-10.364859706252215, 1.2335255297110287e-11], [21.05374081767715, 4.563781285603799e-10], [0.8696318016955173, -2.3309314137252554e-10]], [[8.547743847701172, -7.482532089247874e-12], [-8.957162921549523, 1.81733634387238e-12], [12.108691380499723, 1.3888934340695889e-11], [8.90624979902529, 1.3872329650617578e-12], [-14.617588707451917, -7.598515608697007e-12], [56.076236952607424, -2.7561285535722992e-11], [-7.260692385919261, -1.5869252856326816e-11], [-1.8933815368101936, 4.223520652131892e-12], [22.23727783061295, 9.579696985328986e-12], [-6.576750701040093, -4.9593850790412405e-12], [-9.284269351780303, 1.5524254287015635e-11], [7.514730673733573, 1.3917099873683698e-11], [-22.89358795488341, -6.574963415250509e-12], [29.04737151529181, 5.861339871032812e-12], [-24.09827678670028, -1.3508769967063401e-11], [-0.8199104421415169, -6.0645718839162216e-12], [-12.028711769614507, -1.6622596713164143e-11], [-10.354224779165937, 5.347155324899275e-12], [18.76240818646047, 1.3393642051490255e-11], [-13.738386134755936, -8.37569630163367e-13], [31.026488744891683, 4.739231537075544e-12], [29.170704032811788, 1.088961888221311e-11], [13842.665962219962, 3.6816289511334005e-11], [12.261182121681351, 6.592940440115362e-12], [39.877734768892324, 9.639237449215076e-12], [11.123689848717943, 2.299284157107875e-12], [4041.2227681004315, -1.7744065932661245e-12], [17.035161806941847, -1.0005486253556582e-11], [-4.039707299880005, 7.511003480114768e-12], [-15.126380509303523, 4.8613570006481345e-12], [6.522154614193286, -1.4219367395393115e-11], [11.700223614950012, -4.311154562740218e-12], [19.43667705164344, 9.191513483447412e-12], [41.45773780049045, 6.320294786585203e-12], [9.45874636515684, 4.732222994915288e-12], [2.1361365878705145, -1.357901799150211e-11], [10.405779980165901, 3.52762033366135e-12], [4798.713462508508, 1.1184435629778148e-11], [11.047793007147423, -7.781820075900526e-12], [-23.63492354087922, -1.740560199702255e-11], [-16.081671699879728, 4.26922108108737e-13], [-17.423851908175042, -1.4222768523155683e-11], [12.166771846947768, -1.1187317350419327e-11], [-38.7798508795442, -6.2910332276777544e-12]], [[-21.154974487085404, 1.477391036669797e-20], [54.10538391668439, 2.841217442858179e-19], [7.225385612921829, 2.2067917956010717e-18], [-4.853910072418663, -2.087227421735638e-18], [-11.305937051227906, 9.56346768006312e-19], [46.05931288850501, -4.405005276878647e-18], [36.12846170527631, 2.6917587087865566e-18], [8.401237368029662, 2.597783520165497e-19], [7.914916426219433, -2.0518350289708412e-18], [-5.044683752269952, -7.6516995413769695e-19], [-14.12840944915933, -2.717434163256175e-18], [-23.147070262424013, -1.0318729746342665e-18], [16.915218666797095, 1.6105008687200589e-19], [33.156100569000586, -2.115114661133566e-18], [-60.41153871950591, 1.6216324057241588e-18], [-15.874119876235229, 1.9838506007130534e-18], [16.038414051015348, -2.260559673432835e-18], [32.49975065816345, -8.597126676374993e-19], [35.67302876751341, 2.1260482783947567e-18], [2.7043893679930284, -1.032723790604807e-18], [22.921196699621106, 7.240275844162366e-19], [8.501740226225548, 2.1081108568284922e-18], [8846.788873453612, 5.796176510423455e-18], [31.25031603808913, 1.8158866690419567e-18], [27.42075496987966, -2.1639703389514072e-18], [-5.263427625952273, 2.4247684122393964e-19], [2685.366161634726, -3.3306182571343214e-19], [-9.096855856648286, 1.318069194308485e-18], [-2.06810872677755, -1.5698421453064079e-18], [0.5738280887117767, 7.128005171250501e-19], [-24.713700059331764, -4.243001257262134e-18], [-20.155135383259186, 4.999701511104146e-19], [46.15938239366337, -1.2374724265879198e-18], [46.60369346963341, -6.425764509906376e-19], [0.08826324232128925, -1.988610370336379e-18], [33.3295668228149, 1.9905540022610897e-18], [47.14643536317408, 1.9136334281788328e-18], [3056.191258717851, 1.7362526321671526e-18], [31.195735978990747, -3.0111629793356428e-18], [-23.86718319099908, -2.7767588229825654e-18], [-25.283338869359483, 3.801057853465606e-20], [-32.382996295176056, -1.708210623068618e-18], [13.08409425603182, -1.6026338622301755e-18], [28.171707131154466, -9.406084069674232e-19]], [[32.66632239373903, 1.0058764145741821e-26], [-19.95612817150254, -9.970680430052665e-27], [-5.424336207239355, 8.341468071496147e-27], [0.49569436572689896, -4.267021441110355e-28], [-0.5596592077105692, 3.1613808931073143e-27], [17.576656742912164, 3.186973670437717e-26], [-3.8505484578423594, 8.322781459757584e-28], [19.554448246901146, 1.4997347954780286e-27], [-2.6666907599684664, 5.642521917173942e-27], [12.933984990333528, -2.7391068556712286e-27], [23.069643187754888, 8.135906322401707e-27], [-1.3626161892620712, 5.1079026672969286e-27], [13.044548595989088, -1.437014126089707e-27], [2.734397872446362, -5.470130677256118e-28], [-6.52251453096503, -5.55337475982665e-27], [22.129787334201918, -7.833814632866772e-27], [-3.38813096438216, 6.16841353422048e-27], [7.987526621309733, 2.005811164447816e-27], [9.020792643399277, -8.996165547803898e-27], [-16.321203392230384, -1.81231687850656e-27], [-3.822339755391617, 1.3161398023071524e-27], [-10.05434549671379, -6.896347872626349e-27], [8987.546986220843, 9.203114428261964e-26], [-0.09655418394836322, -2.006385953279007e-27], [-30.23416288122317, 1.4295961634111288e-26], [11.338150082498293, 1.5950682108886727e-28], [2519.303633404272, 2.2271128096629439e-26], [27.989569273460152, 2.8275783741827265e-27], [14.012831927973497, -3.759325023653748e-27], [-4.227808096445997, -2.9851085289382022e-27], [-4.488786875493013, -1.3420687824521735e-26], [-38.678613143428336, 7.564769879258183e-27], [-11.047669070872127, -3.6735508269142535e-27], [29.845231036319895, 1.5057611378378404e-27], [-3.309626286269692, -3.256247330615221e-27], [-0.8749579314241055, -7.312466577210852e-27], [-9.46807011141856, -1.477088061385758e-27], [2928.4476130534485, 3.941092201911372e-26], [-7.919993152047993, -4.708702912872766e-27], [-29.631890451353904, 7.956214615296663e-27], [-18.197280579026167, 1.3433510597592759e-27], [-11.284655236853792, 6.567364148645464e-27], [21.12807019339299, 3.9527556335899616e-27], [18.989578842458442, 3.4437889950948116e-28]], [[-46.562784863984504, -1.2738728849583576e-15], [-16.786842439782188, -4.652806520051326e-17], [-10.159534045208586, 2.83990307916633e-15], [0.09776656536711044, 8.611055303532078e-16], [18.14077076081874, 4.1287781373034914e-16], [49.13867312896525, -6.161385064262225e-15], [9.10617361655047, 8.183392328489257e-15], [23.675012545332557, 3.651582290821104e-16], [10.33718412308295, 9.244832212076319e-16], [2.551509753658375, 7.305768829242378e-17], [27.327215236111563, -3.044576115250015e-15], [-15.805041477922451, -2.17323363631779e-15], [9.940924829331129, -7.409492234922008e-16], [-0.25419144278794253, 2.35633647470956e-15], [6.91106131916672, -1.9976689459238797e-15], [5.205360765298788, -2.128274423515803e-15], [-10.16940392208714, 3.819962982898998e-15], [14.00913793450278, 7.335533804309127e-16], [-8.019643170577798, 2.6285700773131027e-15], [16.875048293655826, -7.824466210636104e-16], [-6.897117037901926, 5.593773017849003e-16], [-36.758392070426225, 2.5501690733641545e-15], [11152.340804270549, 3.5300264481033967e-15], [-8.456099914969062, 1.4822353526223173e-15], [0.6966367134302835, 1.0240504765073208e-15], [-2.948384258690757, 1.2105815622636193e-16], [3493.123532947221, -3.1782848652614304e-15], [-4.1633179226427925, 1.6868078021155649e-15], [14.61811976716197, -1.527865013881257e-15], [2.572695028643346, -7.911184934928411e-16], [41.9780543892876, -3.4345136937827214e-15], [-11.162494577937395, -2.3720939040739797e-16], [17.270388100174046, -1.0953882229242679e-15], [0.4483011330616668, 1.7433255690350354e-15], [-24.98428488981879, -1.2880576452266254e-15], [-30.187280764597194, 2.524728698362513e-15], [6.640740993578005, -2.3321920405159135e-16], [4049.310723920113, -2.2331377419903776e-16], [-11.714531272985687, -2.505337582342049e-15], [32.80698557275735, -3.4312496998004323e-15], [15.509042498085705, 5.752843857357653e-16], [30.91438283932488, 2.1336124527034795e-15], [19.418202916395607, 2.3146373391314304e-15], [56.56477624597474, 2.5380695529982867e-15]], [[3.040029008299468, 0.6474908719361379], [-5.180436320117655, 0.8812870517516431], [-13.316541545250834, -0.2771029762154384], [3.3931305180912434, -0.7163287775706125], [4.430244790460131, 0.17290725982322283], [-18.218522326809364, -0.7558337921874406], [0.9694445809091912, 0.2820286846135991], [-3.480672193622325, -0.2326665551147878], [3.6385616878210723, -0.06303913004730877], [-3.8587240383435413, -0.46608637769697775], [-18.923961779626786, -0.34358079707516803], [0.3533699153082759, -0.1930709611232937], [-17.64979787040437, -0.36826144364590757], [-16.386527934179995, 1.4936231832738383], [1.3329044536604173, 0.5173022081686146], [-1.4935348690660932, -0.0805623403390836], [-16.25516174624287, 0.2777713319618786], [-14.367360470357179, 0.5103338077248956], [-23.946010800672024, 0.07327911371263236], [-1.745003384179298, -0.5563386998441848], [13.704787604502641, -0.1486104422643315], [0.6045767774453115, -0.34356010652655494], [4110.106003580932, 6.504901957997116], [14.933266600280197, -0.6478990729147914], [-13.751040113908823, 1.0568548764658396], [19.82282437469231, 1.207577784370272], [1177.6353377762632, 4.447263480291377], [29.402682112724136, -0.22763223324795878], [1.657015445574498, -0.11983086263246318], [-0.3003271821614698, 0.25332646409965875], [-14.698359625136197, -0.22829204838570583], [-14.550909082696503, 1.4393090510267226], [-3.7771301614376442, -0.31350873598688256], [0.5114404928333386, -0.7952054992503209], [11.708693061907526, -0.440674212337855], [-15.921392644482735, 0.3672985362820903], [6.260443283810506, 0.13228072979094174], [1296.4643338741323, 3.6820346301434292], [-0.8526442395948439, -0.3985298351116046], [18.396453717141892, -0.48299675212899446], [10.569184744750341, 0.4386013291738645], [0.6498186322092985, -0.2265094738418389], [-2.0147848955436998, 1.10652351787641], [4.5369232118844725, -0.5553653972871861]], [[17.492166453792407, -0.8315607177188156], [5.1900056757031425, 7.112725929782707], [-26.025754556546666, 1.1081524945145618], [-18.436599300556356, -0.5138560359236353], [-5.693950975030821, 7.645258276885158], [-2.2879413841219414, 7.2717497964406235], [8.82813985398261, 5.131389643254732], [15.931149286968907, 7.392842418509431], [-1.6246290131731147, 7.962421024203394], [-25.478439254060994, 1.2282736695209415], [23.15859175350166, 2.251361255084651], [2.9200244275870793, -7.722297976351462], [-6.672084970142716, -2.307775677278823], [8.413183997895297, 14.686106091418303], [-14.365045506774207, -3.3487922292810826], [7.712337760940079, 13.120538258555714], [12.636552467959502, -0.8770277536031732], [6.374812178819347, -1.9554553333136355], [-7.705165905877782, 7.8545445170399875], [-23.934110047471883, -1.961103833549968], [-20.35756015739317, -3.9559474476687813], [-20.35256548423239, 9.530856361441028], [4400.266011249071, 56.42773190583008], [-0.07162134318513491, -7.684334463694101], [14.629432237942385, 12.16853753067656], [11.416704334299162, 1.033043923158675], [1426.6946893787656, 27.133018732791385], [12.855820507432, 5.978923818815896], [-8.538067669858018, -0.4764725352624611], [-59.29394512061011, 3.4264046533435506], [-59.415720000595144, -10.151956094839836], [28.727953781418215, 11.530825132074261], [-15.794216155147016, -5.794481546333113], [-5.985100663818283, -5.424271499275886], [6.718562318072168, -2.519687285318321], [-2.0102122678003997, -5.476321621747138], [15.78639920667329, 7.528841137430787], [1618.0339708918168, 29.72326325729451], [-6.951472950715205, -2.8342049773864098], [-23.001476133462265, 0.16689326910396174], [33.98830519283913, 1.0178148568043972], [-26.92195291416766, 3.541045919012328], [-4.541762237986664, 2.8316291014280317], [-16.590399529805264, -3.8398945691684174]], [[-21.023258631004804, -8.464684294095106e-10], [-7.981671503567685, 6.6060237616452e-11], [10.104599352985757, 2.7414690925464246e-09], [-6.686258480404296, 5.077528244834074e-11], [-5.7717344577073835, 1.0141976673800353e-09], [31.15881444991343, 4.3959191398389514e-10], [18.579230678187503, 1.621376304640229e-10], [9.075690113030781, -2.1328081107665027e-11], [1.1332710600773952, -4.962870013086773e-10], [-2.9204549982125356, -1.7953853147511682e-12], [-13.404477914582696, 2.6922755678123633e-10], [-37.34948166566069, -2.2635593050903381e-10], [7.481759624324936, 6.443922125736601e-11], [3.8518807627924057, 1.587979511793516e-10], [0.11265028075240792, 1.429969582961295e-09], [16.815165043869474, 1.385155602749954e-10], [4.863181782201556, -1.9678776594235618e-10], [26.402990431137905, -6.112182116546748e-11], [-27.808769761928183, -1.9820749923365636e-10], [23.44739685475808, 5.078669593436261e-10], [-25.594347364766048, 6.248645789556201e-10], [38.41472921295517, -1.7397404594620745e-10], [3080.988129714993, -2.9929928942715295e-10], [41.09020864117009, 6.0785285728472054e-12], [38.14989338509358, -2.7431165581563347e-10], [5.381517265659869, 3.07404406179778e-11], [863.5552159673591, 2.187588102472646e-10], [1.0036463024210243, -1.297572927163186e-09], [2.8685533517587833, -3.1737841696311835e-10], [11.424314536760102, 6.807364855475642e-11], [-32.77129230433973, 3.6008955592702798e-09], [-10.095793754813814, 2.6413297202975297e-11], [-65.021228086889, 2.738775419417184e-10], [35.3785242998959, 2.258845081401734e-10], [-25.191269079716353, 1.0947661477103359e-09], [-9.886452394152553, -2.2211795784037438e-10], [-43.571647663279784, 1.2138016120879857e-10], [1083.9002985466323, -3.028206169322165e-12], [-11.657294601860423, -1.7928428354920832e-10], [-0.6338684918972826, 1.9669730008122864e-10], [19.857450777147495, -4.4644088451563785e-11], [29.295612765253626, -1.3850725124066268e-10], [12.824810045859506, -1.710242450287688e-11], [28.196872399513474, -1.5378949654008423e-10]], [[17.3533640820872, -6.707050038325942e-07], [11.377117247591029, 6.016339806845422e-08], [-13.158102910254623, 5.255852121762314e-07], [18.473936608457986, 5.163544311918214e-07], [12.065779333957634, -1.321572531240733e-07], [8.560497166303644, -3.001795910776424e-06], [-28.37784334940252, 9.419082851403968e-07], [34.77398475570145, -1.6162012769973437e-08], [17.167955285571903, -6.059966103756672e-07], [7.087402144047591, 7.435388850815824e-08], [29.23785094469577, 5.683111471762098e-07], [9.336595613233188, -9.486417940350895e-07], [0.35882064232214733, -9.500148558828051e-09], [-15.17175939990405, 6.651528715179897e-07], [9.952160958478785, 4.43304439848137e-07], [-7.381389269371595, 4.08394531452877e-07], [-5.994207548589915, 7.172750356033798e-07], [5.360144443093729, -5.0384910461659785e-08], [-19.481548628834663, -4.896058009180714e-07], [-18.257109108413538, 1.0375143324771992e-07], [5.640837176821578, 9.30412607185045e-08], [15.394036616415761, 1.0510560693759668e-06], [2859.073610074135, -2.772285503848576e-07], [-11.667683684545365, 3.476229269854283e-07], [12.893644639036879, -1.0978286324941181e-06], [1.6076228350951256, -4.133621785407321e-09], [689.4666847054554, 8.437053567326994e-07], [-64.11742430406176, -2.452513364720354e-07], [35.908643679966524, 2.8594148417428064e-07], [29.012179345824666, 2.456091250495539e-07], [-32.229862146932746, 7.813344611770718e-07], [-1.0118166988907669, 4.443427651305359e-08], [-35.16355929358376, -2.3571740692208058e-07], [26.00366790845227, -6.024609726450547e-07], [34.737207255419875, -2.5828049813545133e-07], [-21.581863693264772, -4.763108482728853e-07], [-8.110242000001088, -6.84112543318009e-07], [885.1802061074428, 2.7318174280875323e-07], [0.056538063780482505, -1.1199335159888394e-06], [31.575423825574298, 9.434360062498435e-07], [19.21634882041416, -2.250574162271065e-07], [-22.751618307308743, -1.4922393185898047e-06], [29.929646339081923, -4.0781181222451996e-07], [10.323118897973378, -5.172346954332707e-07]], [[-30.45278092388756, 4.553467212930297e-17], [28.85062311341016, 4.678174746933804e-18], [-9.810326094532225, 1.0263333374174609e-16], [-11.631029406134024, -2.2754100888516598e-17], [-26.83580551946139, 3.218994302736912e-17], [13.670327394170009, -2.2240194154120255e-16], [-2.3622685471488425, 8.552759811974453e-17], [28.72120325974646, 1.3434522261082298e-17], [0.07888210825028451, -9.262617038243241e-17], [13.063424444496803, -1.4500866953714617e-17], [7.451224892237546, -1.2001291287545778e-16], [-8.190465662230327, -7.796326969701622e-17], [-31.700300994096946, 2.156006480127082e-17], [27.669235987657036, 1.1591471392306174e-16], [-12.532085888435857, -7.197904857224868e-17], [-6.123074713137381, 1.2800712597266444e-16], [-24.285581537229877, 1.7602467564805268e-16], [-21.557914089021665, 2.7034384935713763e-17], [5.306209930640875, 9.507376892308771e-17], [6.361439207830824, -2.7567249849193907e-17], [22.857863501185577, 4.073055083752059e-17], [-16.835210885006582, 9.228083924588947e-17], [2875.447291386176, 1.3052068233786603e-16], [4.790025629839469, 5.28593379985304e-17], [-22.149681601645867, -1.0225280925208892e-16], [-7.4847529746257075, 1.3935360601813198e-17], [925.2646848690302, -1.1287225786023268e-16], [-9.224947492080878, 6.095501665040582e-17], [3.500294882396217, -6.121010650286028e-17], [40.60926904133265, -2.859368470218075e-17], [54.46694041414011, 2.3232461825044067e-16], [14.686383844904675, 8.906525583781429e-18], [-2.905605285853876, -4.239700688847781e-17], [-42.14981817069032, -5.163773862600951e-17], [-39.915103877097685, -4.614709785969181e-17], [3.1596214807603187, 9.126712835103361e-17], [12.848340911571713, 5.580027711656135e-17], [987.4357734662242, -6.2660973130108714e-18], [5.551115064477394, -8.897389696067112e-17], [27.10440084375352, -1.2418015823405164e-16], [10.16012857107838, 1.9949597107874566e-17], [-1.067152307167756, -8.840118238498507e-17], [-5.203446047849963, -6.632105117892312e-17], [-2.378024989684249, -7.714071771993814e-17]], [[5.599741086186778, -1.2153931684238067e-23], [-4.526727895696339, 4.320142760309141e-24], [23.67810747753604, -3.91748188509089e-23], [5.022449854151638, -3.721749236032119e-24], [-0.678797748281729, -4.7472644370730985e-24], [-3.3995571946262726, 9.51084053920685e-23], [16.118000410676053, 9.056575320819009e-23], [-20.352654150844565, -1.2955105545243333e-23], [-20.794576310157826, 3.33847409885308e-23], [-18.8864504963434, -6.417644173000155e-24], [-13.846725493278834, 8.354787582300142e-23], [19.77084640281572, 4.8023462344559836e-23], [-41.54711867687884, 2.777723381312613e-24], [17.75004889750538, -3.409068761789783e-23], [-5.4308576680771, -2.1897068647864895e-23], [-29.545532815524187, 3.6281556360255333e-23], [-28.653832959938153, 3.6899352076818025e-23], [-22.071605729503574, -4.90847038593464e-24], [24.249723130458836, -6.70266244022319e-23], [10.41781073665658, -2.6201930613108236e-23], [-18.35214994261476, -1.821162850757435e-23], [12.099318366560682, -9.13946803819354e-23], [3503.4150826568625, 3.651164779309682e-23], [29.041493857835658, 8.242236614754664e-23], [-12.981309487333416, 3.975895444566617e-23], [10.03385372770995, 1.0773870931995435e-23], [942.6085312974976, 1.0293168418952904e-22], [9.66810048836551, -4.5748413592200044e-23], [-12.445456449390639, 1.6445345028820586e-23], [-1.9264742792434497, 1.447141166652991e-23], [113.65185156504982, -6.303748643296666e-23], [6.640626720893579, 6.547705949328556e-24], [29.659113575251016, 6.854048300933692e-24], [48.94185755437501, 7.78177211401209e-23], [-4.073107961226823, -2.5634082094437823e-23], [31.647470441106364, -3.3909295499184385e-23], [13.230718078986351, -3.297101505320146e-23], [1047.2451986893552, 5.616061555787238e-23], [-0.6234375735907719, -5.698200581012617e-23], [-9.906696473623303, 4.400264428522068e-23], [-8.328272893094926, 3.181352587863159e-23], [19.197432262214203, -2.7661498927978365e-23], [12.69042229147113, 3.9202963885106185e-23], [-13.111183787517659, 1.812048070842646e-24]], [[-0.2620530550906695, -3.433945480004467e-17], [-6.352283471200074, 2.7766299354639926e-18], [-34.39556118699014, 3.2466683967488575e-17], [-17.721070042956462, 3.887553290643975e-17], [30.745388504300298, -3.0503692539543505e-18], [37.573337194862184, -6.306112344225733e-17], [20.74986745132432, -1.0194631375191298e-16], [20.493189241816523, 1.1190024636379806e-17], [-5.153851156508282, -3.0379314769332683e-17], [25.457458290427702, 2.615612229993683e-18], [43.757699274277655, 8.053074914782003e-17], [17.04498156928217, -1.2327642846743534e-17], [-3.5262635259653585, -5.2216454383396566e-18], [13.874644341358584, 1.1163841684487282e-16], [2.8986624870781648, -2.5914126546198656e-17], [32.06300914048821, -6.984224100126127e-17], [-4.569533385532088, 2.0769163678217657e-17], [-4.652729495429581, 1.2955646933726685e-17], [17.16330267732601, 3.1637391870491804e-17], [12.736878872091163, -4.920394667272384e-19], [-1.5490272338721127, -1.4905605638944704e-17], [-10.816811475557602, 3.1558276735491315e-17], [5228.9993831945585, 9.820876490974521e-17], [-46.31118513320975, 6.318210832971553e-18], [9.225833536424288, -3.161502660233821e-17], [2.3204397531784755, -1.6996288309177637e-17], [1479.2963442489252, 4.2408733918733565e-18], [9.072988350090931, 1.9439650124338225e-17], [-1.9651966662261466, 4.773088869097072e-17], [-19.804593820176727, -1.1867061558028929e-17], [-21.326810974580333, 4.0471419773931395e-17], [-13.648031362926465, 2.3402888855346307e-18], [-30.330049958395296, -1.9566004196027128e-17], [27.929363184853607, -7.377244983957829e-18], [25.160205048305738, -5.6197721549678666e-18], [16.777500160698192, 2.9411225431965343e-17], [19.88969404366263, -7.136067404618277e-17], [1712.2237818554836, 3.3682605986473926e-17], [8.50858317075814, -1.6143372802286216e-17], [6.642834392720773, -4.1234615982746825e-17], [-21.771778157515126, -5.490343997809548e-18], [36.77297473920972, -3.143512222135853e-17], [-7.080603126152125, 4.834851387836095e-17], [-28.490317796453905, 9.514927410756199e-17]], [[12.315474246541056, -1.681920855169934e-19], [-7.633041213227798, 4.620233021602273e-20], [8.4405321150778, 3.9919421771993264e-19], [16.055665001166467, -3.4641917534178483e-22], [-10.680881289616257, 1.6625792168527208e-19], [0.6243802327363381, -8.067626742532372e-19], [-12.02552593252917, 7.324516067851941e-19], [-7.556308358919625, -3.142128960401404e-20], [-27.644825260940284, -3.699190935518322e-19], [-9.919292473592085, -1.2775224795641554e-19], [-0.041407496650959885, -4.884073783157917e-19], [10.922376029684212, -2.031092650576723e-19], [22.44633771373025, -1.2854013195501792e-19], [-9.92630202254458, -5.927971205596987e-19], [9.464459816512111, 2.8970823590454384e-19], [23.716230829721443, 5.42119192884124e-19], [12.796005238045762, -4.0760117072440403e-19], [-0.9059404705827631, 1.6244333359650843e-19], [2.9119476553367027, 3.8250456520266623e-19], [-9.762270951157697, -3.389464605895767e-19], [-9.727029186130483, 1.2567215036934372e-19], [29.27943753808425, 3.7818355412656155e-19], [3629.8019995290574, 9.733705083791094e-19], [27.39143632687273, 5.248595277407831e-19], [11.30835327359799, -3.9260142104705214e-19], [20.72629726186325, 3.550234050458343e-20], [1102.1248489422533, -1.1318340000804676e-19], [12.093054418506652, 2.3817443709390744e-19], [48.80319625929592, -2.780819681555153e-19], [13.596935329148305, 1.2079051085066095e-19], [15.218886847775323, -1.1095498921626158e-18], [-2.467927751110306, 7.776609831177991e-20], [-4.567684377488508, -2.1585874410923596e-19], [3.2103796334652452, -1.2818319178282855e-19], [13.353420755295613, -6.077077188403936e-19], [29.186913942646928, 3.593548288522634e-19], [3.8766802246176604, 5.530778986848016e-19], [1256.1238784841269, 2.668925793627872e-19], [-5.443046570386601, -8.345069572214591e-19], [17.60855914370565, -4.999286861843639e-19], [7.003588440158638, -7.188622556945578e-21], [2.714840101105995, -2.434367765814286e-19], [4.4305974662258905, -2.846373262359723e-19], [12.35528355796814, -1.884748703037295e-19]], [[8.683649502678195, 0.15226812522813604], [5.633743541945835, -0.05333039605028582], [-16.85226676187931, -0.051014738339187404], [9.932984665820094, -0.23015161021922592], [-24.491445834131856, -0.28046315334815564], [-16.296008746167516, -0.19701528340198085], [-13.127228302352421, -0.09032505434773613], [16.795986566907743, 0.17054595988020044], [40.11399314023946, 0.12146478043035452], [-20.653727005542624, -0.10574426299766826], [-33.69222552873309, -0.13922773898524185], [-7.623518759306549, 0.08262189460036568], [6.250546056166486, 0.10587099800331923], [-13.296803579216926, -0.08037895244572522], [28.853840840496638, 0.1438725409452029], [-10.901131905189928, -0.15066230353751656], [6.639560060176757, 0.0852823472800533], [21.8699544421981, -0.1560485503520842], [7.202658063600474, 0.08131073653652673], [-25.947499732115322, -0.12283448283757017], [-18.295986523882327, -0.010075898562685093], [16.807465129636878, -0.19785613990076298], [384.41799487891217, 0.6350570418816693], [13.562224271995275, -0.19305408673403204], [-14.033045670874852, -0.16201230772608338], [10.666323343967703, -0.1135037469821398], [138.9778572628458, 0.33306188808646053], [11.66459400669493, -0.09910082699850771], [10.56796497133536, 0.050946419597772546], [22.61526550710466, -0.050274551528458875], [-25.643903791218797, -0.04385468134401829], [38.38065377769926, -0.011589286429038961], [-18.11565910747234, 0.0005542328220491388], [-16.82394446831316, -0.058752642132218376], [25.447192714521872, -0.07568999790118836], [-1.0974501920808999, 0.1672061118276149], [11.451520419560623, -0.1721743981475539], [128.00604061406457, 0.2489776040636684], [-35.22751707873766, -0.06798353222325514], [-23.590814583914852, -0.1233661608380575], [-0.8446740918023761, 0.09432334567241638], [8.385583664471355, 0.05659254409087111], [43.643975809474185, -0.051816335209882255], [16.93035641031784, 0.12415083237834165]], [[-3.952152005715395, 1.2017009704571753e-36], [26.37788908207079, -6.797002590488007e-37], [1.6734415724225846, -7.714145190619219e-37], [-4.630002099372836, 1.3467155546117547e-36], [-32.25444560534126, 8.490509649350082e-37], [-1.4953028748405672, -5.8692191039282025e-37], [5.269522337225912, -6.747406293425738e-37], [-28.134253015914904, 1.2210670703250389e-36], [32.55737972485259, -5.6839879529688e-37], [-52.79662256550301, 8.733713647028727e-37], [6.962786628263359, 8.168294337855881e-37], [-26.44876219541436, 6.459073431935928e-37], [-6.175761128149284, 8.43032976271408e-37], [-4.333441720872826, 6.216923843578099e-37], [-9.089059818043594, 9.784040651684832e-37], [25.056607090270386, 1.6585268244059765e-37], [7.534859862793332, -7.136599020075218e-37], [-9.84540253265234, 1.0011537171729359e-36], [-8.761602529024755, -4.387096855303137e-37], [21.983132909838307, -9.043418706279467e-37], [-6.71557896419252, -3.4319815588855846e-37], [-1.4895370645806452, 6.31953891035815e-37], [1480.0110012304306, 5.720621188163612e-36], [16.736570727466738, 5.670084847010997e-37], [-19.786406637289122, -1.1958782224013545e-37], [-29.83896012774573, -1.2487884137768438e-37], [252.95187777764596, 2.8676745613519707e-36], [36.952095979781944, 1.1707564380232117e-36], [4.997125450721489, 7.903141875241578e-37], [8.775336232275446, 1.9078943810024126e-37], [-32.64489482900515, -5.7800703538258456e-37], [29.160522131352746, 2.9014346199047923e-36], [21.26174082732201, -8.145287186311334e-37], [5.604409545280522, -8.122893635312238e-37], [-4.01430231391557, 6.35729572478553e-37], [-33.00300229660703, 8.126972206265418e-37], [18.1515603901864, -9.313024517981644e-37], [258.1174383534572, 2.99968643721434e-36], [-6.928156888310628, -1.092540286148348e-36], [-23.7792435376747, 1.0576288845904164e-36], [-2.287337862961479, 8.90404532506244e-37], [30.173334734834132, -1.033278794050424e-36], [-7.573556308750321, 4.759220312136537e-37], [-8.396695073160258, 1.2100720263850628e-36]], [[-10.295804717066652, -0.0034228389043780734], [-12.310579084666013, -0.0042006880709945515], [-9.910502170355237, -0.005447403009792463], [13.918939540221867, 0.007341904775682435], [-0.4676800024116831, -0.0025180210944395725], [-43.01218585171473, 0.0068225425411622825], [2.7877824863931986, 0.014903757022939522], [-10.839233544935107, 0.003993287329869646], [-7.434882288072887, 0.003956207115592955], [-14.14493022412743, -0.0048740110167194844], [-21.700258496097565, 0.005128356050375736], [-20.228497010482094, -0.014331857251918196], [-22.017560010076043, -0.0040334942636511065], [10.146435275887862, -0.0018471138216458781], [-30.277343352159395, -0.01210652380155989], [13.161690813532863, 0.00973581509085745], [9.60199816662118, -0.003120020912424075], [-2.473916433528119, -0.00259158661950722], [-34.52675625864168, 0.005090332861776815], [9.855126420018365, 0.0006737670426279264], [-13.456497967599796, 0.003037721996915651], [-34.54331510211106, 0.005396101511686329], [1398.0468592751392, -0.02961471759673448], [-1.5570690551032584, 0.013822190069915814], [-41.67014690597354, -0.009450565953727877], [-21.492190244732065, -0.004275957218669492], [245.6661986337235, -0.013136250808145612], [10.559550119389312, -0.0013401498606054872], [-42.60778461782234, -0.013163233189580742], [-18.30601046888651, -0.0008327331988324997], [21.9017264687407, 0.021544920433816676], [-15.585756817924572, 0.005634813213462548], [19.232119306725256, -0.004536415173371482], [-10.618509433153871, 0.0031329297151090497], [10.841106659358692, -0.007860173751549564], [-37.705239006892384, 0.004996507566222637], [-19.165557221867232, 0.002673963358406878], [285.49558515565593, -0.014590125431786689], [-7.072859918051053, 0.003336368715860895], [3.9073406353977234, 0.006220780714254387], [21.261927971099233, 0.006681576199659988], [13.211666734777564, -0.003833098192632806], [-3.0569556780144413, -0.011784520152957438], [-7.620098682759837, -0.016277990525329435]], [[31.37779671020101, -8.271212299039417e-39], [9.828647868106277, 3.931733368854587e-39], [2.622819338463933, 4.568106616477858e-39], [13.745792529842452, 8.182888107619393e-39], [12.085223708275693, -4.2467186123567085e-39], [4.559262826360661, 4.522526866999468e-39], [-6.87403762480775, -3.2528295994010137e-39], [-3.6064264192707207, 1.0592673979203633e-38], [-5.493914613683164, -3.1113591560137296e-39], [6.909594516465784, -5.0135498225240565e-39], [-28.2033732995294, -5.013171752245818e-39], [-0.6257212206853876, -2.3870056654936205e-39], [15.459667038206938, -5.688582340145473e-39], [-4.687478416980383, -5.115002435263905e-39], [-2.9560751034378434, -9.290852973823213e-39], [9.08306424226092, 1.9397034078326723e-39], [-6.373600562258808, 3.8024986027412274e-39], [-26.931167363516447, 5.95678588715037e-39], [-5.899704648214011, -8.072387675249934e-40], [-7.612272767228528, 1.2589051792936713e-38], [-9.510355127728486, -1.5566002904204107e-39], [22.348974782170796, -5.4840131745445694e-39], [1293.1318535694477, 3.6454918921977404e-38], [-13.435819157592132, 4.0646072433174323e-39], [-24.558027633230132, 6.607317849234712e-39], [-0.7346832089526988, -2.491614552875923e-40], [371.34172569579596, 1.818295195402553e-38], [-31.858339683956544, 4.58062260658913e-39], [20.795001830208317, -4.724409031159098e-39], [-25.01697640013545, -1.9559330420695152e-39], [-29.915423178635045, -4.991383739228032e-39], [22.09357763309465, -7.373681304034045e-39], [5.317791605582607, 3.1656722093437816e-39], [12.624846952437554, 5.418234607862437e-39], [3.239221286218179, -7.173628729838664e-39], [-15.242558834837364, 4.074625865509479e-39], [8.358284800891244, 3.36859267630495e-39], [459.3385099019801, 1.869210763848832e-38], [-14.844968098142488, 1.909068361029507e-40], [6.313059065057611, -5.009933707306085e-39], [18.649722123584965, -5.930664618122554e-39], [-20.631064011104826, -5.852110765536623e-39], [-0.6859828451966051, -1.088184286534762e-39], [-6.211654259856811, 8.360873617427222e-39]], [[-29.764883203516312, -1.1925629936288982e-07], [-14.643176970776585, -2.356393208943897e-07], [-14.45603686337552, 3.9852462245445185e-07], [18.004475976981684, -1.2118584521351348e-06], [20.571323606082878, 1.2450840466690983e-07], [20.155861703689485, 8.263013766815208e-06], [2.0351392961887256, -3.851384530183986e-07], [-27.38038000933937, -1.424697235608314e-10], [-1.484892755734821, -2.9385350242419383e-07], [27.289956019339286, -6.022361840577213e-08], [5.4176728900732805, 4.300735857419415e-07], [-41.610181909903694, 3.7628380856357467e-07], [0.6096783471834473, -5.326916504462554e-08], [-41.50235282811429, 3.357677955530295e-07], [4.238341901521716, 1.7285366343302338e-06], [-14.49955092548674, 3.173302631047806e-07], [-3.2716466892235334, -2.7522667887982927e-06], [0.6030749562551021, -3.419156103324537e-08], [34.01716561181141, 3.653203735484274e-07], [-48.3518351568864, 8.432456895240639e-08], [-33.51467552878233, -7.261907412698697e-08], [-16.80810070273109, 2.9242318630873612e-06], [1404.9712946213897, -1.692161086958471e-07], [39.13145161174214, 2.3641819854554695e-06], [-10.984362346495868, -8.260889357867486e-07], [3.2138079940672486, 1.0118843603135275e-09], [329.65925723617187, 6.706953294791133e-07], [-27.98605753823331, -1.8589573420526454e-07], [-25.822168845264017, -2.2009608388999202e-07], [-30.3628103308215, -2.553684334688509e-07], [-85.73074927514037, 6.024812664421857e-07], [-24.664719649473938, -1.0246199624620784e-07], [-22.015499332285515, -1.7640132277163203e-07], [-30.538899188986946, -2.6442936149093447e-06], [24.91314380742745, -4.732998654827497e-07], [13.971130740690652, 3.5592704780267195e-07], [-10.650563493366697, -2.776977134711828e-07], [434.39457550891683, 2.3377885601859433e-07], [-32.35303977319004, 4.4203867312623667e-07], [9.200691251890316, 4.353552807570816e-06], [38.02654064360232, -1.8021174112547196e-07], [-5.765027361358443, -3.3006843704093497e-07], [4.505828504541989, -8.129311323762236e-07], [18.156811849746816, -9.620476908402214e-07]], [[-14.504377648988655, 4.44896205145467e-18], [5.461850100671809, 1.1364942923702311e-18], [-29.02255465063159, 1.3180340663956888e-17], [-5.898199772219811, -5.362583101862743e-18], [-12.05998620536261, 4.894498941840205e-18], [24.065077914595616, -2.7473177724226656e-17], [16.884172502376355, 1.2751650215569344e-17], [30.857941564885625, 2.2167398937690762e-18], [12.572699947398918, -1.2066037903386937e-17], [24.833320775632796, -3.2350989994843295e-18], [26.526485385006154, -1.5803820766649397e-17], [-0.8615748737864586, -8.156735853385546e-18], [-4.570694928948211, 2.659974242763839e-18], [-18.562257993930537, -9.426617448340832e-18], [-8.028377238378031, -5.0772459183820704e-18], [30.732049492750853, 9.479969772382088e-18], [10.667493745715872, -1.3301715094316057e-17], [12.885182917952607, 1.3311244558490839e-18], [4.680464931367712, 1.2445135807390054e-17], [-38.94223610608266, -4.2030162608388734e-18], [5.982741228414297, 3.6877029876639774e-18], [24.23985057418284, 1.220783804369546e-17], [3015.730468301752, 2.535891390431785e-17], [-17.559128714626087, 7.293755900875437e-18], [9.64768591246171, -1.3029423320352946e-17], [-19.886605409276456, 4.3766686801238275e-19], [814.7629719281158, -8.471349185954374e-18], [3.4000101477775577, 7.85000466600765e-18], [-28.6321590843595, 3.6003736658151306e-18], [-12.20022470599412, 3.961196524296815e-18], [-12.949233752910867, -1.9683802141834826e-17], [-52.421413312830055, 2.065618961420172e-18], [-18.662217224033235, -6.380048841386981e-18], [-30.4552017798092, -5.284975628372493e-18], [-13.21411578920123, -6.9014310528131156e-18], [15.099101718637481, 1.180177268358179e-17], [-8.512057606170886, 7.716417477861833e-18], [861.1769945623087, 4.576931207555952e-18], [-20.377390540138947, -1.3805551924181141e-17], [22.144567254715128, -1.6251478303262237e-17], [-3.429194239808667, 1.5428698094912921e-18], [12.184817934160883, -1.2280762815190625e-17], [3.9590408693865764, -8.894164467841489e-18], [-24.988812935486077, -7.839082369695016e-18]], [[4.916674114684229, -6.6007910553407775e-34], [0.569906665167936, -1.8850347665423956e-34], [11.299803672773885, -1.9382616586231344e-34], [-35.48540532627582, 4.0809298720598095e-34], [-63.87478723528563, 2.5546681777206566e-34], [46.673023226189024, -1.8763817043950815e-34], [18.330756960473988, 2.7931357255926923e-34], [-19.128475775665557, 4.902473652319123e-34], [3.9816415737439965, 1.5467857727831789e-34], [12.411856892038127, 2.341494893431163e-34], [-42.80194509918775, 2.7679754813279954e-34], [-12.924659745479374, 2.2412417980541986e-34], [-16.71883649361472, 3.101314166369862e-34], [-23.567811354659785, -1.6449825169706773e-34], [18.606542355693072, -2.0765053056283753e-34], [-20.827004709489692, -3.335618934786001e-35], [-48.01723134660454, -4.6763404639970746e-34], [-7.490782420373026, -4.906892629840166e-34], [-72.79344948582803, 1.067494396256063e-34], [-5.118519024199689, 5.098984249631108e-34], [-11.306655686352851, 9.601612006124048e-35], [-22.859928454426484, 1.785738182494242e-34], [1425.9954034671873, 1.97621788448494e-33], [5.816241433306467, -2.945240126956215e-34], [-8.039914795039428, -1.8160638860389413e-34], [-2.194353443978095, -7.266668892172451e-35], [354.5534774491352, 9.783841527066684e-34], [45.89514744829453, -8.034910891447302e-35], [0.21523700734029766, 1.6976463414645564e-34], [6.605459241584128, -2.3973683231735007e-35], [7.150240969567887, 1.3928771469788252e-34], [6.532093313637529, -3.690468429953267e-34], [-31.900738228633596, -2.7429756041580815e-34], [-18.602130110791713, -4.480370355851759e-34], [-13.151924335358755, 1.778872772444379e-34], [-18.497235046282402, -3.678578570792931e-34], [-30.135100752521947, 2.3866994819470786e-34], [363.78446388712115, 1.0147118350428405e-33], [-19.642195102481313, 2.2772417457544193e-34], [2.8603659757548736, 2.0944764864142873e-34], [-11.318665829951293, -3.0049167547550354e-34], [-8.143908589141672, -3.0229830542664963e-34], [-18.70744474377456, -7.01565236445176e-35], [-1.421401794622334, -6.925752872998166e-34]], [[12.026335460847065, 1.079633030791196e-84], [2.6186865114298232, 4.5532917655970236e-85], [21.418431944029013, 4.8816895637539603e-85], [-23.981345061255936, -5.321975729989682e-85], [-28.066500458998238, -1.8557424746732277e-85], [-4.948285988760391, -2.0488196447846357e-85], [2.490581140666131, 7.844891230218871e-85], [-25.248171444582187, -4.928313764403056e-85], [-24.89896160099046, 1.544855646437317e-85], [-13.980337398493688, 1.4067521325061773e-84], [-27.408454819682063, -1.784242140811652e-85], [-0.5976266782917897, 5.815321625472254e-85], [-9.62136431084942, -7.154884432683866e-85], [-3.643843385714469, -5.089728232222967e-85], [29.352151819603854, 5.962240785337469e-85], [25.800260777188665, -2.9562567377435175e-86], [-27.35203654023065, 3.4221422737919805e-85], [18.550709885839645, -4.7589812357338324e-85], [-31.672361901868765, 8.675031348931064e-86], [-17.915087423769126, -7.076201095788331e-85], [-0.6301115583813106, 5.0818926895089337e-85], [35.6851321308573, 3.7852653110591476e-85], [299.6909295300445, -3.4774126222907477e-84], [-10.991197594312899, -3.216523151338546e-85], [21.754267052144606, 1.3961311657013422e-84], [-0.039051426445772065, 5.783238251509459e-86], [48.37163469023677, -1.8225148453051049e-84], [-9.834902137422416, 2.3536941382757313e-85], [19.169491878191288, -3.861542134752772e-85], [-5.530854546718432, -2.256918352802368e-86], [-5.982722306924718, 1.0405838745075086e-84], [1.0490937327028798, 7.971636267990827e-85], [5.6634496133126015, -4.11492644434767e-85], [9.934339943816608, -4.8786395331844177e-85], [-15.213808883049994, -1.114873234465549e-84], [31.856435915370273, 3.512628111124661e-85], [-10.58261065464446, -4.781118572476838e-85], [78.2732314357891, -1.9304268485708933e-84], [-1.9267616279124906, 4.3594464885178203e-85], [-7.385785547849082, -4.897356618979169e-85], [16.672417185745545, -4.7882061279455365e-85], [16.493044706248813, 1.3388034726537864e-84], [5.505186836406589, -1.7657270620592084e-85], [12.14274114954591, -8.268267440990509e-85]], [[-17.703185399080716, -0.01924608230235692], [22.52298455498243, -0.03246763788834711], [33.921254016963694, 0.024713215837276654], [22.963558455607963, 0.005602130588011334], [-16.161110096041003, 0.06621545945795802], [28.568641961174414, 0.028102663959736054], [-36.1370651938651, -0.014984107412375255], [10.686970882110266, -0.01936717230301299], [5.112387800798701, 0.008651650869368758], [21.822479134165576, 0.014257736571489474], [-1.3210056145695248, -0.013783080693305704], [3.221494980357214, 0.03103037471172812], [-33.86450935863884, 0.013752837839767702], [10.607143505640721, -0.09384459517048668], [-5.327637414900601, -0.030485941919085584], [-6.9141470906497675, -0.004207734655785233], [24.628551394488984, -0.010261470717093565], [-2.6764359328056053, -0.015845827227342027], [-16.9316550318656, -0.040823276418944274], [-3.098372911338424, 0.0052664614974122], [2.3472073986606894, -0.001022705344340674], [-1.987350192134119, -0.04773110800971286], [66.45737011848537, 0.02202612198164408], [-5.424740062527851, -0.010962792486781874], [-6.9807100348442646, 0.010881950674917231], [3.7129941717948256, 0.011374387013747635], [-26.01139524163437, -0.004806086332505495], [-9.63995265084284, 0.02761953026133594], [8.91239121094138, 0.020838105826733448], [3.5153470841080883, -0.01831770968541609], [46.59849361203132, 0.010486836018121013], [-20.757772079276933, -0.06265826717676047], [10.27591377356132, 0.020272886791373044], [3.2016792735220636, 0.0540641231453511], [35.87766720489335, 0.023837852851449577], [15.166992504893637, -0.015873474929309694], [23.4357874967785, 0.023020326879936583], [12.854555321556965, 0.013323207766274122], [27.49739505450181, 0.02110583622898904], [13.817592594045577, 0.019235511460665104], [15.774508019913412, 0.011503630611246457], [32.30870854034503, -0.020840817976669476], [17.60608701771174, -0.03199828408438147], [17.027037149994058, -0.02680115166934189]], [[35.60049567455421, 0.011483935924619182], [-8.155553354277416, 0.006157294586246025], [22.537871674805125, 0.0022863534669683213], [20.535917572233508, 0.0001312905377293329], [14.600396022576318, 0.0036577800991131355], [-27.02742968765303, -0.007307955406026981], [-15.001834896517806, 0.005375422417530932], [0.07229395074918595, -0.0016303764348998486], [9.339871274362036, 0.017433895190471234], [-19.806788422201876, -0.0059935845618686225], [5.446754869994889, 0.012756877317562827], [-24.49083391500113, -0.012089139027171144], [4.5649599859683745, 0.007096509029167106], [3.4510821255582242, 0.006704048335195678], [2.2911067835338086, -0.0029843980085711144], [-11.046203973638345, -0.004368433162699361], [38.06421651951526, 0.0032640331626439534], [-28.696992379947662, -0.0013863780915088172], [-8.396818634639969, 0.004548537611091089], [-30.936490063374528, -0.012261380548077025], [-10.799441885698013, 0.007652629492975495], [32.59440529659597, 0.0027403085548472015], [318.26681992951217, -0.0787849852857337], [7.185677273081898, -0.00912417304479622], [8.178419871961887, 0.011956115386254507], [5.336461947378558, 0.01241539457002826], [19.893050355109317, -0.028283988685504073], [-14.362310284378303, 0.0033123105781480595], [-13.267198458443819, 0.01148250404570592], [15.672502845267406, 0.017281777362946987], [0.15589209075119345, 0.005538244576165382], [12.997224814567534, 0.005439408803524752], [13.146335541983696, -0.007262045592321666], [-16.40056898246051, -0.025941829585446177], [21.102466537313, -0.009342129861785344], [3.609201923195556, 0.0037613648565334393], [-6.78802989078682, 0.007712724723018067], [23.37152929102889, -0.050784972800927516], [-30.507325928103686, -0.014076057843862753], [-33.827281055516885, 0.0008257575988166359], [-13.110374148592726, 0.002763492269659268], [-34.36174599862673, -0.00921617840832413], [-2.1437927142717936, 0.00783301610811498], [9.928738838751752, 0.0007762023114575613]], [[-6.399346342662082, 0.002730196287942632], [-6.4760842547602016, -0.005363748162454245], [21.839168024416022, 0.0059464518424764716], [7.578913673858609, -0.00010080599917070018], [14.455684246322223, 0.002661902971624937], [35.82983575559307, 0.007530926696977252], [-23.442660953916842, 0.0009519380037660726], [-7.939663855077388, 0.0012823873033136317], [6.534878311149067, -0.000781078471294231], [-13.518166426286266, 0.0022072614643663816], [-16.60659457927067, -0.004260556779422557], [30.171292191907135, 0.00026377202400162107], [5.001667210297805, -0.003521161092061041], [-13.413724992160855, 0.001300240295635781], [4.716252201941396, 0.0032105973562046334], [-37.09062758409929, -0.0005346945669795], [-19.337330341347748, -0.006078591250976787], [16.747874033360052, 0.0019563360078916794], [-3.0382117864428397, -0.0016880394091800517], [-6.137587280889737, 0.001176432620047565], [9.18971539146917, -0.0006738552133182653], [-37.03449579592644, -0.0015048515699272228], [2155.1492443375564, 0.0130003773213305], [23.03592006034167, 0.0009285979508748037], [39.32831188854341, 0.0010091359392978229], [-14.439899527461273, -0.001647680252521373], [442.0929663569994, -0.0030798341927931383], [-43.44870157782819, -0.002463572833932653], [15.375311310520987, 0.0051887064468072565], [6.011372486438143, -0.0004271004600452123], [-45.38816798516121, -0.002425120681038677], [-1.4101157473954389, -0.003603297299919844], [20.06953087623827, 0.004608399038610773], [-34.13894591732985, 0.0009722537832007918], [-22.13650554584049, -7.445823944978884e-05], [-10.145274049264193, 0.0013422595284986836], [-33.9060249177174, 0.002517920661689149], [506.05263384675476, -0.005081930432576738], [12.935082371769154, -0.0010303926946164197], [28.43290736472433, 0.005288203005378635], [4.142787328776369, -0.0015681756045196902], [18.01870585483195, 0.005481181480583191], [39.24818505622405, 0.006380097553916046], [3.424920905905461, -0.000617399646953245]], [[-4.784355675067431, -3.524148283628501e-13], [14.237350113034367, 1.7175758517834907e-14], [12.131678298812842, 8.615392633487832e-13], [11.625547737771031, 2.449066195836195e-13], [-24.4395916984386, -2.487894363470634e-13], [-45.45333620219799, -1.8912671165095183e-12], [32.21057692299022, 7.84416156464658e-13], [-9.386861084608194, 8.937221659385917e-14], [-8.112861526304101, -7.64021526856587e-13], [-5.53147203387675, 7.070163804593282e-15], [34.61980899344209, 6.540411891244799e-13], [-8.165456734984815, -6.970768312315898e-13], [-4.673804822542609, -2.1663768090034474e-13], [13.433166935172649, 6.26377930459058e-13], [-31.008330380866568, -5.946711464035269e-13], [-38.0380752469819, -6.042072870639737e-13], [-20.124978536869378, 6.025819970583518e-13], [-1.9058870327892217, 2.0778904045513804e-13], [-0.05495294690028577, 7.926251570697178e-13], [7.640087301236582, -2.6337089998993826e-13], [4.498453122607522, -2.077982465913778e-13], [-26.86480261642082, -7.790958162565082e-13], [404.17017062784095, 8.955691689277922e-13], [-0.7758306527251879, 4.826109022292239e-13], [15.65198708382017, -8.887480701027431e-13], [4.7379367579242295, -4.7001496495216746e-14], [93.37209859020574, -1.0869757740161933e-12], [11.445486641338709, 5.112882258061991e-13], [4.323105461259313, -5.384210930046882e-13], [39.170802742698065, -2.2854118794682574e-13], [-42.014876963983156, -1.1634794859143072e-12], [33.1463108789374, -6.325161955832793e-14], [-4.388160080791839, 3.113617157711561e-13], [12.351800602057152, 4.62054881122282e-13], [-21.80968975406171, -4.301374277763538e-13], [-32.43222586587124, -6.255943769282103e-13], [11.519682042636633, 4.917839339497204e-13], [166.09090597389647, -1.7746236511610107e-13], [17.22700843227433, -7.987363117840194e-13], [-27.07043494762017, -1.0346678150205528e-12], [20.373533889318683, -2.2904623971843057e-13], [10.769712296020977, 7.147361506124382e-13], [-8.911801896203228, 3.7918983127809504e-13], [-10.759762716247911, -7.266422009890234e-13]], [[13.25764537708018, -8.310076417606071e-15], [33.00592565670688, -2.152113265172501e-16], [5.015450376018157, 1.91761802700893e-14], [-5.105921352066034, 4.445030926683645e-15], [-9.91684100543428, 6.5977086125587555e-15], [34.64981606640323, -4.143710682012412e-14], [2.347069891210155, 1.751969604482593e-14], [-8.31147859128844, 2.6281218310455403e-15], [3.767425983991258, -1.633026698980118e-14], [23.309974506366085, 8.105236419922321e-16], [-23.802453023654056, -3.8730842232528657e-14], [8.105850362351395, -1.43954377350292e-14], [15.553993932896343, -5.430404586950349e-15], [-25.79941365840642, 1.3058417236268441e-14], [34.18769570047507, -1.3608299566310911e-14], [-21.303841392133283, -1.2665499297207364e-14], [27.245778069803386, -3.386206305259768e-14], [8.542447740895458, 5.082387410838861e-15], [-3.444266043089029, 1.778437774960998e-14], [1.8449814562280473, -5.081026354663287e-15], [12.331733798812703, -4.817514638359322e-15], [12.922889801109593, -1.6537155080914895e-14], [1971.560798426224, 2.5116099579024766e-14], [23.037213521359558, 9.754314398105193e-15], [-34.383561882577894, -3.1542279841273465e-14], [-10.791964692779748, -2.6124130934296103e-15], [411.79428117996906, -2.0560617630076387e-14], [-28.32895463078101, 1.139394233751061e-14], [9.353197620633399, -1.2308023459814781e-14], [-4.484870306398789, -5.481295286754455e-15], [-10.107652790178326, -2.4788364754700627e-14], [3.996003720891178, -2.162721180608415e-15], [-2.491549700678601, 6.891335676344741e-15], [-5.604868997743253, 9.413382014010456e-15], [4.820503425196057, -1.660422059983266e-14], [-2.08364126732209, 1.7060248413085194e-14], [-2.713477232144769, 9.542020657123291e-15], [631.9774578918107, -7.047508675775432e-16], [-8.692658315028739, -1.6610811732710257e-14], [13.494926017388165, -2.3210964502408067e-14], [-10.007028885246955, -3.866927772320928e-15], [-18.310037869415858, 1.6028048646366417e-14], [12.410322159893846, -1.2167902351428031e-14], [-38.08036622903388, -1.3831327004170599e-14]], [[25.251642729323496, -5.615526785181312e-07], [11.803776979951422, 6.862886846506784e-08], [6.032899215220398, -1.7474226305358442e-06], [-34.86686333314877, -6.623806522935648e-07], [5.722129639384563, 6.040801958544289e-07], [-32.80793416446931, 3.802395520155622e-06], [-4.981355929463474, 1.5418189833479086e-06], [-20.831500693289026, -3.4368422658775e-11], [-1.8009484635985666, 1.2837050037655072e-06], [33.77450048425276, 1.6641494846517868e-07], [1.5764132684629113, -1.8971636400220936e-06], [-9.694337502307578, -1.5285341849994262e-06], [-13.86736939981473, 1.7777328788615533e-08], [-28.894974624259586, -1.3708320546739982e-06], [34.59308976882426, -9.605827033789378e-07], [6.665938793526534, 1.2911526706402462e-06], [30.95290963758401, -1.5156849358709835e-06], [34.67695759736415, -2.0239470353963613e-07], [11.617021748654654, -1.623192916920699e-06], [-6.28523439582098, -2.9458743715624715e-07], [0.19337484951690287, 3.4725591212476795e-07], [25.145303924247948, -1.343635268506279e-06], [231.3063435203508, 1.2784459096589886e-06], [-74.0949724483546, -1.0957934627361813e-06], [12.764274917763464, 1.3864849041870167e-06], [1.6682701783068723, 4.925980834733459e-08], [111.64186046696203, -2.5357389292238524e-06], [-26.224031021763928, 8.162382933944611e-07], [-12.193772964513794, 9.792777973016574e-07], [-7.098783261379713, 4.131393417974883e-07], [3.4222386936448865, 2.5092905487050803e-06], [-27.231942203603616, 5.772629971624922e-08], [-2.883069347681124, -8.049207385206371e-07], [-30.045023919747006, 8.018161581539765e-07], [-6.060545891918176, 7.89662826868065e-07], [35.49565733904696, -1.5720861190613962e-06], [-20.477728828596998, 1.1038286937829766e-06], [189.8169046226035, -6.76445422983279e-07], [5.530721133419761, 1.8062414216622184e-06], [-2.0986184373556136, 2.0015749085821014e-06], [25.710904087676766, 6.653039226434412e-07], [-3.1232963133897798, -9.790266045875455e-07], [18.08958524662198, -1.3599893692624847e-06], [-12.368517283315677, -1.613523679410156e-06]], [[7.987848306483462, 1.5108909546342472e-16], [14.94037670556891, -3.561669177738765e-17], [25.193475495081003, -4.623160062322563e-16], [-23.80835232495904, -2.218756998348692e-16], [-10.870382346621957, -2.379036442893003e-16], [-32.75005195657112, 1.0731506008836035e-15], [-20.99514209797266, 1.0501945109551396e-15], [-2.12093409997588, 8.068194348728559e-18], [5.224213600517479, -7.363125455039541e-16], [-30.534436283159316, 5.3159497627502345e-17], [-35.38280853974868, 5.001364363073793e-16], [1.8582135938723765, 4.723121652631771e-16], [18.30392923236132, 6.18375210024901e-17], [27.478979183804743, -4.202307725226338e-16], [2.727810943279242, 2.8687520182002657e-16], [-17.274607614852126, 3.988081792475177e-16], [6.4811083567989884, -2.8575100221547146e-16], [22.111151310821896, -7.135739900176258e-17], [5.401861768504053, -4.1290615126488476e-16], [23.336786978602497, 2.098829419505962e-16], [-6.4025674413061315, -7.191707345414637e-17], [31.85982030381185, -3.9241578915294763e-16], [164.28612567511473, -2.7905403566195343e-17], [4.874883478009484, -3.451757054284067e-16], [-27.802365383277536, -8.373204223046001e-16], [-21.02263665113465, -5.922846794266605e-17], [-56.74134356518413, 9.011646933244693e-16], [-3.0162266659679347, -2.730802395067626e-16], [18.71965938308982, 2.52867952827266e-16], [28.747182028563785, 8.825200949978469e-17], [-42.807871808643476, 7.146948163777428e-16], [-6.75200457208328, -3.221097341344832e-17], [-0.6206466498675249, 1.3024635462547193e-16], [-4.7961741806191105, -2.0092860320751579e-16], [-7.9575168246656105, 3.000749410415741e-16], [14.316448109540838, -4.0581750010750716e-16], [-5.8768658814192465, 7.141947651615162e-16], [-109.17022861053687, 3.7896493950921886e-16], [4.068705555259113, 5.310854678365896e-16], [-13.013817168531123, 5.398813750203657e-16], [-25.367579467914297, -2.0816783405574837e-16], [24.102579031989983, -3.684546772749468e-16], [-14.791283692320842, -1.5916616823373657e-16], [-5.34153303243735, -5.043114912041272e-16]], [[-18.296810488060366, 0.13870887720150682], [26.583219144991975, -1.1838602591484753], [2.3056876673754583, -0.1847754416579695], [15.199181467261564, 0.08443583210085392], [-27.31655923766484, -1.2742338140222598], [-22.175994495460287, -1.2143504029844578], [-21.237907988265267, -0.8578738255971455], [9.568688352993268, -1.2330196852881794], [-22.812467015405943, -1.32759926245935], [-13.04393970936752, -0.20426778366940213], [49.737991526409864, -0.3753717012273504], [24.108257357324646, 1.289393939448488], [41.53794941083759, 0.38588838124618396], [20.035387232116378, -2.4475933139238966], [-44.35759183936766, 0.5596148649912892], [-3.9883740922350883, -2.1882900254509385], [4.856377254925771, 0.14770436439762585], [-14.565418591451248, 0.326015122277196], [-1.7289133337817022, -1.3096581372164358], [13.27322985171874, 0.3265422411668501], [43.3432134064114, 0.6589306657849046], [-12.346426919174679, -1.5891242178199596], [-186.51626889269218, -9.40185275549927], [-25.468268619213134, 1.278264181884871], [36.39911016017914, -2.0266827279412927], [7.920860340547554, -0.17118670608032172], [-246.88749434042793, -4.51946734666269], [2.1927779970437733, -0.9958532603682597], [16.92718879661812, 0.08074139161712833], [22.3475240648467, -0.5708573903603197], [-8.465372852134792, 1.6888057494024513], [29.72096739075734, -1.9221427730903557], [28.943831731638515, 0.9657350254215322], [15.551998904770537, 0.9033607484106857], [-3.776517026135248, 0.4212703572064218], [-11.978713122485168, 0.9116634625216778], [8.876649912078117, -1.2556721104458402], [-154.00750659880632, -4.950598580441888], [44.102003372694234, 0.4719826969043687], [-13.649220160999073, -0.029733222101357648], [-23.12127269662035, -0.17048797920979203], [-2.882178642379303, -0.5904489967437173], [0.3420607217391818, -0.4710373866247006], [-9.042622171853127, 0.6427983981077549]], [[-9.673037597139265, 3.6587369171866114e-24], [-7.399331963434629, -7.77194626368572e-25], [-2.153907759652743, 1.0654081670395522e-23], [-0.41639740559118177, -5.4198689770369006e-24], [5.485339385217785, 1.8255846853380318e-24], [-12.59193824690212, -2.5268483026602683e-23], [-33.849237950339116, 1.2016172735846123e-23], [12.458539962493436, 2.507459305316582e-24], [-9.351938145730095, -9.287183966016441e-24], [14.629451025114427, 8.362038886047839e-25], [-11.544837581569812, -1.0999732587108693e-23], [-4.704486697637949, -1.1791802559071927e-23], [-9.785229704661413, -9.157574659058809e-26], [21.930430502145768, -9.328609631053293e-24], [6.725535183327429, 6.320738875820769e-24], [-6.318321930912426, -8.95049588063058e-24], [39.68901341902377, -1.0258732217668379e-23], [-4.5135463625894605, 1.874365637060334e-24], [30.0889683253607, 1.0089239254967539e-23], [-20.383948386584517, 6.46132260635871e-24], [-0.9931306777635306, -3.6778460685575295e-24], [-8.631493072165275, -8.810966595354918e-24], [-446.2516203158121, -3.538046546768496e-24], [6.2937958024024825, -1.4025597783326082e-23], [-9.084727319715505, -1.0829443881198959e-23], [-5.745047148805514, -2.2835196891052382e-24], [-110.57498487639621, -2.3703006179944305e-23], [57.11450225223107, 6.971028355915883e-24], [17.059040969309827, -5.026183186093289e-24], [22.79938391627374, 8.080882856981477e-25], [20.248926963578178, 1.732350985706986e-23], [7.75944843839548, -6.815064098615824e-25], [-9.405568552397522, -2.5502411372513448e-24], [-4.370752284659394, 2.131790352252357e-23], [-12.83475199299644, 1.0186344543643913e-23], [12.888877187495902, 9.31219756830892e-24], [5.036925205064936, 8.740413846338978e-24], [-102.11504373228325, -1.1353829025418523e-23], [5.895435275646875, 1.3981912851621276e-23], [-6.192540643902954, -1.2299714589161846e-23], [16.23719871930358, 5.7035437968120074e-24], [-18.844581125544973, 7.789151393450313e-24], [5.243589135797203, -4.7557658417789296e-24], [-9.469282377443852, 1.2649166658949282e-23]], [[22.978333314462873, -0.03826879568624844], [-29.914608353131293, -0.05016173593194287], [-18.97714088349686, 0.014712098602832666], [-5.295144351651804, 0.02360742311393542], [-11.438530886106593, -0.01672034567386728], [9.006534544848154, 0.0023614503893883768], [17.35615161071257, 0.02558021727930538], [1.0452619912392782, 0.02209598011623125], [4.724547090208722, -0.05613434560468325], [-1.26381581201037, 0.019892914223754006], [-9.651209156995328, -0.01574005716382299], [-30.63717666478517, 0.0613638313747071], [9.057568533678246, -0.04010109618157555], [-17.59079287877156, -0.028200817833791803], [8.813042643403449, 0.0012053720544542255], [-22.382763479848542, -0.06773041680885174], [35.75364949628835, -0.015318136737183529], [-9.016335407074008, 0.03421653190381865], [5.9832823909901345, 0.06868389722464603], [32.24463365979498, 0.046648062191331476], [10.508842244238878, 0.03208886514406346], [3.894629773864435, -0.0027889798838581503], [416.6725338875991, -0.153337451870894], [26.90670968045819, 0.0062570766725770985], [-1.4826071970260803, -0.05558376761792497], [1.8718002170543386, -0.04977027166807001], [107.0426731817243, -0.10110818452582912], [4.285374350167627, -0.031143762278429528], [5.284261820127012, -0.04681270020393667], [0.5101379527771144, -0.0400960505502978], [2.037302614749858, 0.02945039926078035], [-8.565338458835035, -0.05551684772875901], [17.867621802443303, 0.04936413377982618], [-7.230903602402856, 0.05567248840013183], [8.476193226981506, 0.02832107426042283], [14.750419623066334, 0.035818331129570835], [4.057071315095334, 0.03871212350870973], [102.46975171342943, -0.10193821674126632], [-14.95149357062548, 0.046495410765113515], [5.552096197507526, 0.0078108827856129825], [-18.216117726185004, -0.03833348699432443], [13.832955632914437, 0.013392227937353852], [3.679004097818374, -0.027083812561497313], [-8.478849976933919, -0.031478593653114575]], [[-32.82282347214297, 0.277417749737799], [-3.2712120196611076, -2.3677205192140316], [7.950790771066179, -0.3695509004221942], [-17.758579236109735, 0.16887165731966736], [6.676683528455919, -2.5484676219004774], [25.329705373488018, -2.4287008449300993], [6.208706596677866, -1.715747667034398], [25.429612255934543, -2.4660393706468513], [-10.35816260476906, -2.6551985343158426], [22.00414324551094, -0.40853556895175847], [24.953211719454767, -0.750743387672592], [10.888216598741254, 2.5787878669080584], [23.034002780831926, 0.7717767622173528], [-11.501249055273487, -4.895186641947648], [13.091188001687524, 1.1192297385963057], [-7.642233775264306, -4.3765800641886585], [-35.43564801758307, 0.29540874424786046], [-3.9402327984144967, 0.6520302466224926], [-9.220356524848073, -2.619316257946682], [-21.732552060634145, 0.6530844843175329], [20.030848504805324, 1.3178613344584644], [-29.645907680196128, -3.1782484220605456], [-1531.7053079705902, -18.80370549847123], [-35.75555724186219, 2.556528372703145], [12.228651914307697, -4.05336544137673], [34.064304241197576, -0.3423734116970578], [-340.8200368744493, -9.03893471962602], [-19.66053695537587, -1.9917065272306913], [-38.89071087536732, 0.16148277603973746], [43.28459170923101, -1.141714784857965], [-33.24019707526724, 3.37761152070063], [-22.14589901277998, -3.844285546590136], [21.330499719816157, 1.9314700584541038], [-48.20912509378049, 1.806721506486712], [27.510685630503605, 0.8425407070186355], [-3.6442542231179287, 1.8233269412138773], [-15.478225158447685, -2.511344232328576], [-553.6769163701764, -9.901197168137834], [-9.598526504919002, 0.9439654124320643], [39.08620481899041, -0.05946642849211714], [8.121403851982553, -0.3409759636493285], [-7.134705446020607, -1.1808979783670353], [-17.290954106613288, -0.9420747597083516], [36.60009775664816, 1.2855967835452968]], [[25.610970146703245, 0.8363411193786394], [-28.43677366145243, -7.10633066804257], [-4.661444140834966, -1.095386507855293], [22.808842956865846, 0.5119822983486966], [8.622435709629002, -7.6431501116077385], [37.148150127972215, -7.294478554311592], [-24.126295036415407, -5.137724577550292], [-10.985820855766217, -7.394342054511162], [25.29394104725983, -7.970131518498512], [8.404481050999696, -1.2269588590190272], [17.951090831792385, -2.2612251479580574], [18.88898356507432, 7.728353256430119], [4.893834375451162, 2.3122915642351116], [-24.60636304353068, -14.690307144869855], [-37.74574213407583, 3.3576054320603648], [-23.939744781881185, -13.124055991920148], [-9.3610575298426, 0.8843668468282817], [-13.664668839239546, 1.9588128584679798], [-12.948491040442175, -7.864067055197271], [41.185999046890885, 1.9629094467437287], [-10.160791600856522, 3.9535409494545726], [10.164226593900352, -9.539696253639068], [-888.5547944955108, -56.408651185263246], [-9.987679964243853, 7.678152692937992], [-31.223432196219782, -12.162540412462933], [20.41811509568757, -1.0316189260855815], [-402.9604625876419, -27.13816622569271], [22.47397748394522, -5.976299658436629], [20.80571274845588, 0.48594818889232255], [-8.013597547427526, -3.424884716775025], [19.294305550067453, 10.141542908540814], [-9.602373614656686, -11.536140815806851], [20.297707053397612, 5.801498469377246], [-8.134798773109758, 5.427697548562086], [41.90270226463107, 2.522494951392588], [-9.111578429401865, 5.466041851319689], [-0.5362334819460424, -7.52502607909573], [-535.715542827547, -29.720793470094254], [23.677904908484635, 2.83974728848637], [21.81501459292121, -0.17989293612338697], [-25.73067461856338, -1.0190713581419524], [8.385181629953163, -3.5333127820159587], [-2.8624014405433265, -2.8235033149638866], [44.23501241964044, 3.846789214861852]], [[13.698444544598262, -0.004086790449833497], [-20.09441273717729, 0.0031692838595140113], [-54.67545737428571, -0.013264603400023004], [19.039894646020713, -0.0053658734942969724], [-0.5511625856803978, -0.002252621170612509], [45.268102200101914, 0.008365388927679494], [-28.096623610892873, -0.009522828436801826], [-42.60882141704916, -0.003776033697367018], [25.514043881910542, 0.004535015103803776], [0.5354857450212922, 0.0013517836465518182], [-2.083112785418331, 0.008996575248206271], [3.2120938704654765, 0.008014866320556282], [2.7477595398416543, 0.003038798916953827], [21.621714537407822, 0.004748260038522483], [-9.242092262560972, 8.147963788471312e-05], [6.058207183380503, -0.0056856790011179294], [-21.260200352610187, 0.0018630238255477275], [4.822266689695061, -0.002721935704782831], [22.629505601657, 0.006122373843074621], [30.88439089830641, -0.0036557677882776453], [-9.306680034318981, 4.2175050452036736e-05], [-9.716951219094204, 0.004946309700904245], [-1035.610291901783, -0.0024668582130559606], [-16.17277687103507, -0.008570867321069391], [36.697723573317475, 0.0024445286318610926], [6.0514849691948545, 0.004498611730469444], [-212.98078945802112, 0.02136408598456717], [-21.330433512745277, 0.0011793622526222421], [-1.1327682578528877, -0.0015023948815308637], [-3.7521160838354275, -0.0002604939854507372], [87.78275960764822, -0.008711092322703045], [-23.246555719646064, 0.0032841883351624576], [-25.51783998926767, -0.007087495726903046], [-21.623995223907396, -0.007528767945189068], [-7.817995429068089, 0.005127074184755325], [-1.7079354625477443, 0.003943046068133077], [-30.0441573483529, -0.00900711243345723], [-209.91027255044708, 0.017202332183220273], [1.2196078400157409, -0.007849456830421209], [22.24598748670406, 0.0014833250694816918], [5.221188420421175, -0.003857025020040033], [-0.40666950114439704, -0.009379110614722776], [13.674213655497368, -0.002718479934565213], [0.3976499579429589, 0.010004180375042582]], [[5.819484338726818, 6.094871116794744e-07], [20.968798589071223, 4.698347629421675e-08], [-8.716967723451244, 2.4165718568067564e-07], [9.732655807403995, 6.381450125048845e-07], [-4.883658585020541, -2.626763379224797e-07], [-6.302391007181193, -4.248739221026823e-06], [-31.55336514380891, -9.348547654082544e-07], [-11.809767457149045, 8.178205616586687e-09], [-16.645803010599725, -7.824517418401242e-08], [-15.726389403963132, -7.801928301769306e-08], [-9.114997837417665, 2.444309466245721e-07], [23.67939430379366, 9.541703965000267e-07], [-1.0915878123808878, 2.4819501936815127e-08], [-20.092111549967452, 1.004788137844777e-07], [6.326839898365599, -6.775563854066418e-07], [39.55190133413659, -9.126166676070903e-07], [-3.832714162134769, 1.6623672459345527e-06], [25.00046421661102, 1.282382414421547e-07], [-26.358843581933705, 6.955629447635241e-07], [0.6335834029824192, 3.777418320907328e-08], [-24.314250519749454, -1.4243230716173323e-07], [-4.391838254757215, -1.4162578925845614e-06], [-493.0558937223085, -2.953822427523239e-07], [17.016967992517696, -9.04143493453466e-07], [-8.134122374631199, 4.0331778470676265e-07], [33.96616881544328, -1.679918879069264e-08], [-109.17189020493895, 2.6322996638198406e-07], [-7.062237423568531, -1.2026057841676798e-07], [-29.731186943490588, -4.505263353654742e-07], [14.077837746789234, -1.7064883431196558e-07], [29.92807007156888, -1.6479538604901302e-06], [-22.261835177530056, 4.9392604231377e-09], [13.026006866507442, 5.187344895171075e-07], [-7.343643440805196, 1.11485143632094e-06], [17.989089652367078, 2.951979181955202e-08], [-20.67710763948776, 7.292086490426969e-07], [-35.766785147643404, 5.020005141036368e-08], [-151.08134504696125, 1.7392082036241053e-08], [-25.607636317308508, -3.887860253115167e-07], [13.18720142803973, -3.4520286995992e-06], [19.12121783380195, -7.105217478675844e-08], [-14.10429496918913, 1.4917979104638637e-06], [14.39346096385362, 1.1884748163728718e-06], [0.8271947901361082, 1.4122293521386163e-06]], [[-6.816090849039342, 0.1387088772015067], [56.447207003315405, -1.1838602591484753], [-13.062756226253555, -0.18477544165796905], [20.582715587375887, 0.08443583210085415], [-8.639193522937632, -1.2742338140222595], [-8.844463442076126, -1.2143504029844587], [8.380936077229784, -0.8578738255971464], [-24.9923287446791, -1.2330196852881794], [-14.447162866909599, -1.3275992624593491], [10.562990402728312, -0.20426778366940224], [13.153312288953563, -0.375371701227351], [3.8741636953581686, 1.2893939394484875], [15.972959838944979, 0.38588838124618385], [-8.08804832957763, -2.447593313923896], [-15.098881932195344, 0.5596148649912889], [-25.947606184792743, -2.188290025450939], [2.306991106285535, 0.14770436439762613], [0.9631212879174693, 0.32601512227719603], [22.336527653918825, -1.3096581372164353], [-2.6434890484349487, 0.3265422411668499], [-15.322684209409452, 0.6589306657849047], [4.032002218012481, -1.5891242178199594], [-992.1990817422314, -9.40185275549927], [-14.335663016073159, 1.2782641818848712], [-24.21737248626586, -2.026682727941292], [6.998813188402989, -0.17118670608032172], [-160.41340024787877, -4.519467346662691], [13.129865056156667, -0.9958532603682594], [12.730054295924473, 0.08074139161712805], [-15.999483699330977, -0.5708573903603197], [3.710184624510256, 1.6888057494024507], [-23.755414900024128, -1.9221427730903555], [-1.9182237567332714, 0.9657350254215321], [-6.1600201482004895, 0.9033607484106859], [-1.2470311238739793, 0.4212703572064215], [-6.856651357400214, 0.9116634625216782], [-4.571904805162259, -1.2556721104458406], [-94.37817717368705, -4.950598580441889], [13.998712884492937, 0.47198269690436817], [13.167194028670695, -0.029733222101358092], [5.727969119242783, -0.1704879792097918], [-9.657157952674394, -0.590448996743717], [8.228942597288931, -0.4710373866247004], [2.65067574161989, 0.6427983981077553]], [[-7.184628272125647, -4.807949828858101e-28], [-26.262262413434488, -6.0377544172556465e-28], [15.31176634338071, -6.9838263415379605e-28], [24.235656477242742, 7.392017767234895e-28], [11.47548516863245, 9.47875392352345e-28], [-4.065212062926405, 6.609788787868736e-28], [17.346593990591828, 9.682786373670174e-28], [-45.44238154335252, -1.0771866581743041e-27], [6.030315778252053, 2.788675801482515e-28], [-24.377386438420466, 8.572439086597717e-28], [0.718536247079239, 7.041209630535745e-28], [-2.503613855500178, -1.411050509416687e-27], [-8.230461704224979, -8.121649262044259e-28], [-0.12381629577073382, -1.181092282607469e-27], [-13.873985531711552, -3.47877042163148e-28], [1.7354526336024416, 8.983219352914903e-28], [-13.546640049262013, 2.6163825599028266e-28], [-4.783479988817898, 4.344287832572174e-28], [-5.498722980109476, 7.480879807235484e-28], [17.33654667567938, -1.4121884048971037e-27], [9.19741117137211, -9.867656952953313e-28], [12.932506099728364, -4.947162209374295e-28], [-79.11741902176121, 6.16494709915431e-27], [23.183761748437338, 1.0992597755523437e-27], [4.32374809963259, 4.0825094803478345e-28], [-27.705488933052827, -8.6146594792383e-28], [82.30596071288807, 4.586189117078592e-27], [-14.83331139575861, -6.84052348812819e-28], [-7.207653677561297, -7.296848671598685e-28], [3.4931838921815084, -7.395607234849703e-28], [69.0407039365347, -8.997825259893593e-28], [26.370868862876247, -1.1804446404258947e-27], [24.52585886097626, -9.128224128984235e-28], [30.600126328187844, -9.823054354499279e-28], [1.4411954188085048, 8.657511380222601e-28], [-10.288461580483974, -1.397074168578489e-28], [20.355282334202304, -1.1109456977276662e-27], [60.77226429325454, 4.0398860132024655e-27], [4.942349065659073, -1.5070330211103901e-27], [8.407748702301904, 6.634344556632703e-28], [-0.5157040532393192, 9.067345283881334e-28], [26.76398435012003, -3.091389935388658e-28], [-29.694118559604473, 2.83785054767398e-28], [-6.669354902143877, 1.2748262539294517e-27]], [[1.237552833590334, 2.2856458511010628e-09], [-27.12666359998026, 4.128025519180461e-10], [-3.072691625377814, 3.382808263952046e-09], [7.797174838423161, 1.161182504174871e-09], [-16.286544419953994, -1.1431208661699685e-09], [5.703268544474804, 6.571827829491109e-09], [6.719614448161435, 2.6593101648995987e-09], [16.568180908058977, -1.8836616228552405e-11], [16.46395741908093, 5.87467497822205e-09], [1.1427472622744532, 2.7098734529927257e-10], [2.854008833933739, -8.16587893148153e-09], [-0.9810303669237047, 6.733859612928119e-09], [16.02761290889005, 3.468086293958194e-11], [3.4878881286133763, 2.351444979492517e-09], [2.1475829205665935, -1.1021714654922677e-09], [-17.270318347965187, 2.229208267000578e-09], [-10.891452510108884, -2.5883557465741436e-09], [-22.707160586688428, -3.181149595349496e-10], [-1.261543311876863, -2.782749268652034e-09], [-1.348828379558163, -1.0666234935648455e-09], [12.198455483946516, -1.5311762369689748e-09], [14.418655426271648, -2.284386054129774e-09], [-297.49646107889464, -2.13528794789506e-09], [-1.5581580848933343, -4.684930309490821e-09], [14.81178048699633, -2.2987219878701295e-09], [-22.088889439574558, -2.621687187210023e-10], [-75.89824475127861, 4.401960276009466e-09], [14.315480250632891, 3.3263799983589703e-09], [-27.550119217421116, 4.354360578698275e-09], [-5.22957790103294, 6.896149989473602e-10], [28.608702191968963, -1.0005137335414787e-08], [-25.70834958927568, 7.309484006541296e-11], [-6.60162042781312, -1.7718315424966051e-09], [0.8864629191236448, -5.4992658955112834e-09], [14.12353311401931, 1.702393096505712e-09], [23.169631537225996, -2.6853748313282883e-09], [10.933825514868797, 1.908395291018763e-09], [-81.39209093590571, 1.2015913397670252e-09], [18.081822436962284, -3.137149753660327e-09], [0.25830416621355046, -8.502241309124077e-09], [-14.902074992179378, 2.8610638556902114e-09], [-14.545601723226541, -2.6143517480196294e-09], [-0.612323591895668, -2.490477805279375e-09], [11.804110242337527, 6.9442471312014225e-09]], [[-31.250057631675553, -0.5981111784496063], [-5.77898812950036, -0.38488735559736464], [-12.848078423230156, 0.43245198384403155], [3.0443226279419244, 0.9659896254782123], [-17.63554739164358, -0.07072504520415454], [-7.500886854782606, 0.3755270242146327], [-26.32748887154187, -0.7843916207663173], [-2.4210998630933807, 0.2388194702292036], [-14.619910444909166, -0.30758940823947806], [20.77561281849114, 0.5755489313941619], [-5.2992178795824785, 0.5836253951113155], [2.641240862603837, 0.814325667110088], [9.136931476096303, 0.6337319272336877], [5.3464942430775615, -0.7016185183827357], [6.914906938067161, -0.4295551906297018], [6.24742849151101, -0.7983958389322305], [47.46732209057546, -0.40515218614848747], [-7.210973927830114, -0.41866465943187536], [-13.563935310217625, -0.22899866829720586], [7.044033202200344, 0.7770787002571979], [-15.6012475242553, 0.5599890721914641], [10.590479684768116, 0.1925825944829777], [-912.9485402714084, -5.216084369080429], [46.33784821978317, 0.7623343377534191], [13.811404915124745, -0.1807360532464424], [-8.841236691265193, -0.3971704520051007], [-260.9110553208921, -3.198414198926625], [-12.56123763116808, -0.363998208182896], [12.6759462809613, 0.444185902860991], [30.357252258509373, -0.08194712172128765], [-8.136806082302131, 0.9445008344973829], [-8.919482332134685, -0.8360032631771891], [-1.6000462786905048, 0.8211355902426657], [27.7737047876437, 0.634356832525905], [5.946125276434005, 0.7136874380070677], [11.931572499478865, -0.2869295725511236], [-11.656791073139553, -0.7849776309794131], [-288.75919441284617, -2.750209930939176], [25.719900111413473, 0.7567711863823091], [-12.84804594303137, 0.6432089218847485], [-10.60709390806663, -0.736994801894745], [12.922900435679388, 0.2214930111931113], [-21.463938734612434, -0.5213743481375548], [-14.833026096644534, 0.9019164122019174]], [[5.671693622772498, 1.3209817252828873e-13], [-0.6223144153079696, -1.2314538495946416e-13], [15.76146230121418, 1.1063047719350757e-13], [-15.777739082658313, 4.4740316798962003e-13], [32.705387328085685, 1.3603076876719072e-13], [-11.467690268527253, -5.082946241889291e-13], [2.25939887528018, 5.790432237730167e-13], [-3.6873966037874992, -2.435528084658249e-13], [20.810583031878625, 9.77329066960256e-13], [12.509157254013973, 2.5345302120745043e-13], [15.081674480464029, 2.534429234145186e-13], [-1.551729446652219, -5.368215935582597e-13], [3.2301267715309967, 2.170644712878971e-13], [-0.5792369449608975, 4.708674416909827e-13], [-14.646214663806312, 7.014591072589173e-14], [0.9073898071336747, -4.1377176134391076e-13], [24.8688267450782, 2.8732281076540007e-13], [31.010208286331853, -1.5622156758434112e-13], [38.36707715973382, 4.520400886926634e-14], [1.0243949957042406, -3.4590637048999775e-13], [21.38658642186395, 1.6552859580768685e-13], [4.1486984220784775, 9.04126929127463e-13], [-1615.527517637034, -1.9452768247314278e-12], [2.893049532424574, 4.5430099470915435e-13], [5.8131712329622545, 1.1479819067388906e-12], [14.041301771254195, 2.74615170356881e-13], [-435.83647439218083, -1.5865265836095153e-12], [6.6486338228460165, 5.977315097632355e-14], [11.586500635702278, 5.579107085673273e-13], [46.387830191966756, 1.2673728760365776e-13], [11.529980960265602, -5.641007646515206e-13], [-36.64044850099005, 2.9630629156822163e-13], [-24.186720027293674, -2.43874749213778e-13], [3.828888194878431, -9.923329969197912e-13], [-11.164667848842944, -3.5650860829041644e-13], [-32.892047943401614, -1.4301819640520614e-13], [16.122504634796464, 4.739889683980706e-13], [-481.6450882290736, -1.3142700099030023e-12], [-33.4516531363721, -5.690696474136144e-13], [2.294035514900955, -6.322167236436423e-14], [-1.3319495590385222, -4.113835755208213e-13], [12.62934704484653, 2.018489958584719e-14], [11.372682882652429, -5.572275850808058e-13], [-14.460521626336282, -6.035663165558355e-13]], [[-8.876650697234986, 3.1175322073085216e-07], [17.618271011616944, -1.854086479450657e-08], [-10.622128238119302, 2.7545546869617297e-07], [-8.541323796841986, -9.194713443661129e-08], [16.430692049400694, -9.936206317611687e-08], [8.042775135696923, 5.900699148223312e-07], [-27.11061475548936, -2.2725032369391653e-07], [16.67420619831583, 9.285298264833545e-09], [13.468665921379728, -2.015831323429608e-07], [-8.595428926715137, -1.593129321048002e-08], [2.951929062280728, 3.0026575442710586e-07], [19.791070669105068, 2.2943842721379237e-07], [5.82750146171376, 1.0518219564388496e-08], [-1.7354627684519275, 2.0598162220865577e-07], [-16.21069309999785, 1.5400487478145404e-07], [12.17178700817967, 1.9333081155782162e-07], [-33.43218713594405, 2.3998507064300773e-07], [8.759951733257095, -3.7249708262876515e-08], [0.5721540926214226, -2.5675802984581563e-07], [-9.485748542416642, 3.862885569798134e-08], [10.516882050542955, 5.8923142483648206e-08], [1.4418897501975791, -2.1165383080185273e-07], [-1184.2318818136507, -2.5605744119412244e-07], [-5.7667899285926065, 1.6178787327328704e-07], [-9.337249463234787, 2.1843120526845604e-07], [-8.67135184260641, -1.3136343273675286e-08], [-295.45221395414353, 3.5855355505072417e-07], [-13.917794103160798, -1.2882132210418253e-07], [-4.206826583727023, 1.5724693111878247e-07], [26.57642149999343, -6.527540414847448e-08], [6.102651314305352, 3.819069978968247e-07], [7.5369220803386145, -1.5207424140408418e-08], [7.060315010992639, -1.302379655550475e-07], [-4.490715452756169, -1.8116983971756727e-07], [-30.164434307335476, -1.1321925080810547e-07], [-7.546816352474836, -2.475558086453204e-07], [11.111949241532802, 1.6467617210238942e-07], [-366.14042463289434, 7.119997740914944e-08], [32.576952366795865, 2.7225907048389647e-07], [-12.276187132198686, 3.150577621615346e-07], [9.224733820686952, -9.22190128646813e-08], [-22.19459567460466, 8.072928478720329e-07], [29.613954403607305, -2.1427136082750755e-07], [-15.407948942622792, -2.374049693602048e-07]], [[-26.973701919663874, -1.974844741545288e-31], [-36.42441971646643, -7.903097317508475e-32], [-3.2310911187651072, -1.6342934229178767e-31], [24.750700706171262, 2.904880548763612e-31], [30.05136682620412, 1.0976990099751647e-31], [-24.13070905232296, -7.957763032123466e-32], [-11.992295391156677, -6.646776655329028e-32], [5.137958917456994, 2.6467442199439442e-31], [-24.345872503159647, -5.82957230298119e-32], [-8.221669927757059, 1.2568551975020093e-31], [23.630053132743047, 1.6074589429352426e-31], [8.739379738566694, -5.23893475178639e-32], [20.185454966577765, -2.181126593774305e-31], [-10.645994484053013, 1.0077022561264265e-31], [-17.091814265734303, -1.275614392197072e-31], [-18.228007223301393, 8.614709442193773e-32], [-38.703668262649146, -1.038061417202172e-31], [-18.09807418030736, -1.4425997562021703e-31], [-16.49611715555289, 3.447121861447243e-33], [-0.6483529874350741, -2.167523203736141e-31], [0.35151190096883744, 1.0799705046670318e-33], [-8.315504262900106, -3.9824474720726015e-32], [-1048.105649765896, 7.391556463615725e-31], [-14.362987354167746, -6.835384817103705e-32], [-11.496497161490977, -2.532687727905474e-31], [14.87915471073312, -2.570574581179832e-32], [-324.50057718492315, 3.5164542379038097e-31], [-12.66604793792636, -1.5482764870440308e-31], [1.7129278663027878, 9.284998952888965e-32], [8.015324343454619, -7.628163967909406e-32], [-23.858768066034088, 1.4731975085344363e-31], [-26.27373078022769, -1.7747912969269874e-31], [-27.429581419063563, -1.445064109261264e-31], [-8.354457159659894, 1.447754037766827e-31], [6.660654842540379, 5.07419451570877e-32], [-4.7041331744400745, 1.3882291656657446e-31], [12.627978051250171, 9.070419553910726e-32], [-381.5117612442013, 3.542420094146953e-31], [8.166837194169906, 6.033584043794083e-32], [3.2849520093629123, 1.8716946503327569e-31], [23.966241059060337, 1.6089391731720252e-31], [-10.793362858612266, -1.1646027623222689e-31], [8.615070471693542, -5.748558325930626e-33], [9.365956819215137, 2.011356353159055e-31]], [[35.87641352926216, 4.019932488018766e-30], [-6.060522463405343, 7.985112941400595e-33], [12.073835281246174, 4.7258454111364173e-32], [8.783442669351583, -2.4463604537001953e-30], [17.371438256261055, -1.1217383462596433e-33], [-19.30209736787159, 6.916448685258333e-33], [-20.45316769109621, 9.424312377135325e-32], [13.875921144119488, -3.0493152539022633e-30], [-8.289149778397293, -3.187700281814801e-32], [-1.2026657698858065, -1.2109223803674421e-30], [-0.5195429148842332, -1.4956254797867019e-30], [-17.877878691906957, 1.7778285295726598e-31], [52.89911983362275, 1.1346230307537395e-30], [-21.248304162511314, -1.1492333302284218e-30], [-16.54019963640834, 4.82115421455641e-33], [1.4005542960099773, 5.045091884531671e-31], [15.663478306096856, 5.706308720253008e-31], [23.601276411018095, 6.985840102293945e-32], [-7.208371550444963, -3.4949375683262126e-31], [-32.95182042214086, -2.2585329862797328e-32], [1.5411484055253661, 5.527319882316933e-32], [4.2549930856296285, 1.1822514967118189e-30], [-2254.61220735588, -4.465111795621149e-31], [34.40240899818439, -3.588992228698926e-32], [1.8636246087589718, 1.6071066598573467e-30], [10.14835859724488, -2.280157229906282e-31], [-622.3051555524723, -2.7893054613905217e-31], [4.637284061018695, 8.913649042605326e-31], [-7.706883733624865, -8.895792676559965e-31], [-29.292162993269542, -5.357622939349534e-31], [-60.051792171349, -2.5394653330831253e-32], [-6.965152809350309, -7.533390127195475e-32], [4.767288703064888, 1.5332572786704082e-30], [13.59053083674393, -9.813949560292715e-31], [18.776938918300026, -1.0443877112891342e-31], [7.935268418073494, -2.0958491878256105e-32], [6.597861963202788, -4.928441023016614e-32], [-648.6577727510654, -3.3142011411758632e-31], [-17.107323034864894, -3.9282209158482076e-31], [-8.460680382916603, -1.0259379903041186e-30], [2.076785325998548, -8.861456386845961e-31], [-41.93748376751944, 1.7299426266246713e-33], [3.544668564435565, 8.316970683979404e-32], [12.923152981877639, -1.999751503590031e-30]], [[26.701487098770166, -0.41612724028269454], [0.21031831018794467, 3.5515807304153686], [-2.8646085547365097, 0.5543260807484847], [-23.772510637487557, -0.2533081345552608], [-2.076196733806698, 3.822701703851275], [17.29348609953945, 3.6430554568922884], [30.513505706652886, 2.573622411347756], [-21.41499315799567, 3.6990590477163927], [-13.436013268251603, 3.9827978658997805], [-21.993736447079115, 0.6128034290222697], [-39.34062136374157, 1.126114858820414], [-15.581792250898562, -3.868182772229326], [4.863875514302688, -1.157665168619245], [2.177667376239323, 7.34277984102434], [-15.028257609416283, -1.6788439187524236], [11.021374861893648, 6.564870988724959], [-6.270542018685726, -0.44311475522698474], [-20.551045092456796, -0.9780454950052322], [-12.272382180903614, 3.9289737164439402], [4.540802774377667, -0.979626761747259], [-31.028110291773316, -1.976791855468312], [-19.835546310946274, 4.767374070017837], [-633.4552658993535, 28.2055585623805], [-10.823255696190936, -3.8347916417163215], [-14.835473809736564, 6.080047780803264], [28.85130313971838, 0.5135601349981855], [-72.00204693273484, 13.558401776362404], [6.030432777225625, 2.987559902527007], [-7.619535078785271, -0.2422237241050648], [-28.076661232536146, 1.7125723416230398], [-47.718616166206814, -5.06641560396729], [34.905334496899215, 5.766428314288827], [-10.175198178785669, -2.8972055951962243], [18.737332260051122, -2.7100833603224475], [10.070632201038382, -1.2638111023040848], [3.5174502253580364, -2.7349911164236502], [6.260062354687085, 3.7670162809284498], [-57.17925121989119, 14.851795723925756], [-18.840696270362695, -1.4159477015817408], [21.665904560908803, 0.08920311789181867], [0.7236982759170039, 0.511464008779597], [34.73548460660512, 1.7713454987686086], [-1.9640895768476478, 1.413110971707352], [-5.244545558611405, -1.928396606256984]], [[-7.4022442049863875, -2.775112071913021e-27], [15.158541050388845, -1.849502968622598e-27], [-11.00078978809782, -1.171233383377449e-27], [23.80575554127038, 4.5396043110481344e-27], [-5.496431979780803, 2.4073917723743046e-27], [42.726503149421895, 7.783698960784942e-28], [19.007459341806154, 4.843394503402429e-27], [-43.94513214029151, -3.3341290188201985e-27], [-0.9032684391137078, 1.9699161266311907e-28], [40.73551958597998, 3.158485550520983e-27], [7.003950433735717, 1.990290254672281e-27], [-30.09183769902432, -6.548582141561387e-27], [-49.58137354832093, -3.601512887599472e-27], [11.798105348093792, -3.92878292368594e-27], [47.05930533444677, -3.541543821328852e-27], [59.24026301180328, 5.195558499574502e-27], [19.939089398896723, 1.1842006867807532e-27], [9.430293220258454, 2.2638950381190972e-27], [26.29175902799176, 1.5608011712283809e-27], [-37.44915342297052, -4.2632278196552026e-27], [24.8211039306345, -2.974133850032477e-27], [-0.9932508556224312, -3.5109678453299496e-27], [-659.7388868873353, 3.016865203621899e-26], [25.93476633517284, 4.273924048303285e-27], [8.288303860506684, 1.87781700205338e-27], [-45.27824845785443, -4.309218637463327e-27], [-324.33062644838986, 1.9117190672615664e-26], [-9.859842033357337, -3.040027263215355e-27], [-10.582799734644128, -3.250281740343207e-27], [22.106512907969385, -2.6310020500078333e-27], [-16.322341569545618, -4.9415826544647546e-27], [-8.456256220232598, -3.816302354790824e-27], [-33.44427795993994, -3.1244145025476267e-27], [-18.829968064513697, -3.503447269890822e-27], [23.967956932276312, 4.5535370788355064e-27], [37.96646355056189, -1.950156774335135e-27], [4.695523345349823, -4.6239621713068655e-27], [-236.52508489850672, 1.7630714461794825e-26], [-25.118007605715903, -6.508892128401151e-27], [0.9483325405838716, 1.196874570237426e-27], [-3.304818356764951, 4.5153931024664814e-27], [-7.358125146544068, -2.5140338896138017e-27], [22.566960316456523, 2.3289542303206685e-27], [-3.9800124052919092, 5.552524599059415e-27]], [[30.636007324101374, 1.0570819597713893e-23], [-0.41245906537135, -3.7777729255017026e-24], [8.518486744920622, 3.4103623904922235e-23], [8.502678133878021, 1.6679560127500558e-25], [7.84154993504091, 4.119767372151588e-24], [-17.06865471768566, -8.273579278342214e-23], [4.316408678605564, -8.408682617189959e-23], [-2.298714644551943, 1.1318337339929899e-23], [0.2824146141993523, -2.901892417138211e-23], [5.062860341918836, 5.626458087309026e-24], [-32.623836335124274, -7.795225010286624e-23], [-11.82585230191937, -4.1822843539873397e-23], [-7.426670516717483, -2.4514935836148075e-24], [6.450951947076697, 2.884482192536659e-23], [4.248998551232805, 1.9016521245715207e-23], [7.645514013859024, -3.15983059243961e-23], [4.3438571582468635, -3.2074209002205266e-23], [8.573895430911081, 4.2427544460219024e-24], [-9.11152386313958, 6.276477102246424e-23], [-5.444421347508584, 2.2608623039839277e-23], [-23.71210976868037, -8.635790415745976e-24], [10.322612267174772, 8.752196990456857e-23], [-3643.8693855888023, -3.210146271662824e-23], [-7.771745781413924, -1.360435334590697e-23], [-24.872205991990818, -3.457240219638428e-23], [0.5108696224226102, -9.390835826790975e-24], [-1033.2331484794797, -8.97387445175097e-23], [21.52302680346075, 4.290808291720199e-23], [5.288772348958859, -1.4274824671896542e-23], [-20.39251526699938, -1.4106846957065374e-23], [-11.81843391439172, 5.416144961277416e-23], [20.843526423020737, -7.050369666239794e-24], [18.805702117291514, -5.936225382632539e-24], [24.147293180116822, -7.321084844578889e-23], [12.806003654749903, 3.0054155504323013e-23], [3.5476062047378294, 2.950204849154303e-23], [14.528273402807919, 2.8747983492601683e-23], [-1179.2027003821, -4.9049885977808305e-23], [11.219249249442685, 4.9628200325792937e-23], [3.565601278174179, -3.8245047340560183e-23], [-24.260892706168587, -2.8384007113074176e-23], [5.8910227049617, 2.4063403009688955e-23], [-14.577514077215303, -3.6653209973904934e-23], [19.797218061006603, 4.438660773631504e-24]], [[25.618953940777526, 0.7530606790362773], [-1.6257063648317633, -0.7589744229703239], [12.707428418733233, -0.6384987454352317], [0.9326509212623382, -0.9074930210890186], [-7.853494539665918, -1.2021906972364036], [-5.979287968807131, -1.576178090148647], [0.10453881824077738, -0.10497087780517078], [-25.923315601214586, -1.489149291338203], [-4.20515610533009, -0.9941230899991337], [-30.356820787383928, -0.7897184324929981], [-9.644191821931571, -0.9626841003767365], [6.708674236032942, 0.43822134442567096], [25.046265475317686, -0.227188848303308], [11.745973046415754, -1.7237618046889467], [10.498085855947613, 0.9939139028859227], [9.760138414953929, -1.317511366290434], [-18.1731836950144, 0.5659277598455607], [10.476516184036308, 0.7131371763358609], [-11.583032365952945, -1.1585611536263907], [-3.7505996687343215, -0.4706504766828524], [13.77413283910448, 0.06145332066160514], [0.16763541853028308, -1.7793035213797985], [-3566.867564989941, -3.8810481747823116], [5.958686146838626, 0.5265468208712701], [31.305922342590605, -1.818246233322284], [1.9993812499660566, 0.2525742939978275], [-948.7412073392501, -1.1649855446799673], [10.566363707118667, -0.6145171464237908], [-31.265804091872997, -0.3372583141753671], [-6.914187801317201, -0.4808917019862693], [-4.681374854743641, 0.7077146356016041], [6.382734477805544, -1.039557595717834], [-3.431686499413652, 0.10870074996021284], [-18.781806877332258, 0.2524111529234013], [-20.156008241299936, -0.30545226434342404], [16.157383889992797, 1.157482649067097], [-0.4643085428341145, -0.5243489997634978], [-1100.5640919113157, -2.0003260679687296], [4.919307916919335, -0.3106980371424483], [-29.825394656424137, -0.6797710918153694], [12.089245151187562, 0.5992933129585036], [8.684684372358074, -0.8032329282791291], [24.83788760350628, 0.0638100272103917], [-5.478201309682026, -0.22583973219532552]], [[-3.2796675731204443, 1.2205937931317066e-10], [-6.575758111466259, 7.454678770587755e-11], [-25.457617122420746, -1.040898667779746e-10], [14.535092668278033, 2.77005479580065e-10], [21.69906497799882, 5.859892377543035e-11], [-0.2697522978959677, 1.312495827353286e-09], [26.74922805332141, 5.668580545758501e-10], [8.328090881750738, 3.7499275812777693e-11], [1.1472356643848622, -1.1022035472561708e-09], [-5.3195421467014326, 9.055840332312125e-11], [26.330733730059585, 5.87636504832344e-10], [10.612070465912614, -8.243349842504829e-10], [26.245650588310607, -6.113513805445305e-12], [2.647558168460685, 4.878500173405503e-10], [-0.4647978700838585, -1.3351071582843736e-09], [28.81947051651302, 4.729405162406771e-10], [19.42334905692619, -4.902860954429261e-10], [15.52645260440999, -7.457698558715686e-11], [16.176786956138884, -5.341690273333539e-10], [-14.82187067318963, 1.7729853889624696e-11], [17.348369112197883, 6.12380623603481e-11], [0.6957961900994292, -4.248506359731451e-10], [-3053.087388055422, -1.418058466163088e-10], [16.395403899741712, 3.4114861824821997e-10], 